2708 128
0 -0.201289 0.230387 0.243572 0.486992 0.760788 0.128714 -0.027193 -0.229655 0.478106 -0.139286 -0.309147 0.645645 0.480764 -0.36599 -0.333439 0.82759 -0.760358 -0.0772186 0.153022 -0.498992 0.332159 -0.291576 -0.499496 0.0345347 0.0533605 -0.0760747 0.11933 0.636177 0.0618655 0.214588 -0.263537 -0.682023 -0.621654 -0.583267 0.110898 -0.655959 0.201723 -0.0542857 -0.334844 -0.0219266 -0.14955 -0.737641 -0.26045 0.0289582 -0.68191 0.0199434 -0.414846 -0.515014 -0.29948 0.0401356 0.093527 0.178841 -0.359407 -0.159287 0.0856201 -0.0586699 0.541006 0.181068 -0.19017 -0.349424 -0.566505 0.147964 -0.382653 0.0788986 0.700471 -0.475017 -0.489168 1.31109 0.190411 0.273764 -0.25509 0.319969 0.713122 0.0402245 -0.134336 -0.337807 -0.598036 -0.387636 -0.831543 0.236029 -0.406363 0.518735 0.414273 -0.216669 0.760269 -0.571705 0.179328 0.0386618 0.91369 -0.00686518 0.869723 0.346165 -0.344039 0.0554915 -0.706543 -0.271349 -0.0712605 -0.0247217 0.42548 0.301271 0.6588 0.0911776 0.255846 -1.35002 -0.0239609 -0.310014 0.0965277 0.294411 0.720182 -0.0141627 0.234194 0.323068 -0.677511 0.973365 0.628542 0.709083 -0.351803 0.378263 -0.163795 -0.330981 -0.217678 -0.580844 0.598921 0.523078 0.481871 1.05996 -0.503627 0.461449
633 0.119946 -0.415019 0.573344 0.547746 0.328226 -0.026463 -0.0801348 -0.189914 0.147749 0.182966 -0.35618 0.495656 0.273988 -0.214042 0.0491387 0.285877 -0.425338 -0.0141801 0.278401 -0.535731 0.50335 0.221491 0.209648 -0.217603 -0.0915044 -0.00591683 0.24491 0.300199 -0.323421 -0.995608 0.0700996 -0.494551 -0.819843 -0.569162 0.275446 -0.655319 0.285825 -0.263145 -0.574809 0.496514 -0.366352 -0.529132 -0.542299 0.060649 -0.587258 -0.396075 -0.409148 -0.726889 -0.39343 0.301257 0.276156 0.226584 -0.679705 -0.00595112 0.680989 -0.141196 0.361505 -0.165174 0.42968 -0.0764828 -0.640554 0.440989 -0.368178 0.0820927 0.80261 -0.203125 -0.269711 0.731984 -0.125565 0.104619 -0.186997 0.101732 0.419343 -0.192661 -0.121458 0.0950907 0.0402371 -0.0394769 0.0574072 0.061164 -0.197685 0.96893 0.430501 -0.00258482 0.279846 -0.820357 0.316437 -0.145355 0.199657 -0.214899 0.39263 0.393259 -0.452726 0.0236682 0.280549 -0.0728923 -0.0378236 0.0496486 0.528895 0.0333151 0.360594 0.927297 0.22519 -0.72688 -0.335742 -0.0353534 -0.130676 0.225813 0.204527 -0.268888 -0.00335421 0.192504 -0.549601 0.654895 0.189223 1.05627 0.266227 0.280358 -0.0288942 -0.0459407 0.171472 -0.388123 1.02665 0.690681 0.468095 0.593041 0.165079 0.226582
1862 -0.537913 -0.404911 0.25076 -0.117827 -0.0832153 -0.0442842 -0.125733 -0.490627 0.0800734 -0.0155682 -0.504197 0.486632 -0.0616439 -0.0139772 -0.00578895 0.228252 -0.789817 0.12214 0.372958 -0.586852 0.216884 0.14651 -0.119736 -0.0793913 0.246397 0.0404497 0.732297 0.662062 -0.137424 -0.833474 0.1685 -1.0524 -0.825865 -0.992111 0.498199 -0.659629 0.470243 0.0508713 -0.827181 0.287979 -0.140433 -0.388241 -0.245558 0.299411 -1.42017 0.125789 -0.301093 -0.668703 -0.149408 0.433469 -0.158419 -0.150307 -1.03606 0.259626 0.217603 0.158409 0.380043 0.021923 0.639406 -0.745262 -0.379259 0.0301511 -0.277598 0.211725 0.401505 -0.340472 -0.483116 0.430424 -0.183468 -0.0644599 -0.656887 0.518804 0.815311 -0.257786 0.00315175 -0.0926048 -0.0745087 -0.0419038 0.0937655 0.0986166 -0.0295996 0.926234 0.108572 -0.027044 0.0116631 -0.633773 0.574922 -0.200898 0.238039 -0.486596 0.294109 0.47596 -0.274848 -0.119774 -0.588198 0.0334743 -0.148713 -0.00671442 -0.127067 -0.137231 0.131333 0.130221 0.214018 -0.384986 0.130997 0.136796 0.0966803 0.195984 0.218746 -0.419811 0.728217 0.864582 -0.856687 0.541522 0.208312 0.423703 0.0952747 0.0592231 0.02208 -0.257553 -0.181235 -0.363275 0.669702 0.750381 0.442969 0.866639 0.15345 0.0177605
2582 0.115102 -0.502496 0.418373 0.0706995 0.258495 -0.0159427 -0.0392236 -0.117731 0.025115 0.111929 -0.601813 0.400253 0.191194 0.166334 -0.0199208 0.404881 -0.494716 -0.17553 0.139358 -0.175291 -0.038805 0.0240908 -0.809372 -0.101309 -0.084467 -0.371285 0.151257 -0.0648771 -0.479366 -0.29717 0.145253 -0.831639 -0.861043 -0.709441 0.036235 -0.356386 0.415406 0.225256 -0.872084 0.0075545 -0.32908 -0.194709 -0.378803 0.230008 -0.916607 0.339491 0.0613913 -0.493935 -0.0181982 0.023553 0.18926 -0.0832588 -0.494667 0.162927 -0.0624306 -0.0231811 0.409452 -0.252758 0.528146 -0.436201 -0.765128 0.0873759 0.0761253 0.017183 0.143327 -0.125601 -0.36826 0.113803 -0.0950607 0.103515 -0.804231 0.0905587 0.843203 -0.110009 -0.0594939 0.123628 -0.513386 -0.0318296 -0.168698 0.264129 -0.384221 0.821764 0.354855 -0.233173 0.297484 -0.390386 0.468487 -0.0753339 0.321181 0.113961 0.300177 0.527567 -0.115241 0.362413 -0.168668 -0.134062 -0.0132211 0.307521 -0.0641314 0.456667 0.125466 0.254958 0.100017 -0.629498 -0.0022496 0.0784628 -0.56747 -0.080904 0.299748 -0.110233 -0.166715 0.211128 -0.758914 0.483536 0.465941 0.504789 -0.352362 -0.0538089 0.0211496 0.00677887 0.158793 0.291032 0.00726274 0.250657 0.504045 0.972608 0.315024 0.214797
1 -0.361105 -0.0446586 0.0931294 0.674133 0.00775254 -0.314925 0.17244 -0.358249 0.468416 -0.321503 -0.156107 0.725857 0.257457 0.426377 -0.107387 0.579278 -0.468338 -0.199837 0.46259 -0.744105 0.0570381 -0.0520177 -0.631165 -0.777001 -0.485997 0.337347 0.262558 -0.248759 0.346047 -0.766272 -0.625127 0.0457339 -0.241426 -0.517397 -0.129463 -0.673363 -0.0404891 -0.288867 -1.34891 0.0719315 -0.157853 -0.366654 -0.495401 0.224365 -0.177782 -0.0389165 -0.625402 -0.536653 -0.44936 -0.261186 -0.190964 -0.319089 -0.196804 -0.0328483 0.709121 0.93465 -0.272529 0.165958 0.871513 -0.824814 -0.233972 0.738703 -0.131247 0.0863392 0.700861 0.0813198 -0.246805 0.0186301 0.399768 -0.0113329 -0.477935 -0.112923 0.242181 0.0737259 -0.560534 -0.612253 -0.136885 0.0486571 -0.706792 0.138337 0.0873508 1.18332 0.232916 -0.280293 0.156182 -0.124353 0.194275 -0.191129 0.142559 0.444981 -0.536702 0.175279 -0.115185 0.730876 0.762789 -0.439028 0.146914 -0.245167 -0.1309 0.557785 -0.045723 0.866534 0.191521 -0.548492 0.139864 -1.26522 -0.372592 -0.320464 0.23428 -0.589926 0.980308 0.12359 -0.599637 0.917772 -0.190247 0.64376 0.129286 0.0110098 -0.23728 -0.447429 0.0571867 0.133944 0.288477 0.967255 -0.0212679 -0.0966262 0.244633 0.0247959
2 -0.525167 -0.560478 0.322243 0.438124 0.413116 0.0815293 -0.112345 -0.761906 0.280572 -0.270123 -0.0643863 -0.00465369 0.193001 0.0952204 -0.546293 0.3698 -0.705361 -0.216277 -0.147015 -0.37178 0.0700806 -0.265638 -0.743284 -0.203802 -0.337608 -0.0199687 0.4857 -0.233226 0.113287 -0.975218 -0.0591686 0.297933 -0.107758 -0.525052 -0.178011 -0.55888 -0.0684823 0.0851748 -0.896807 0.543259 -0.437903 0.198828 -0.499486 -0.0356664 -0.441792 0.169264 -0.348301 0.0149376 -0.244633 0.00334017 0.0920851 -0.278178 -0.326958 0.156132 0.369155 0.40996 0.0616466 0.428355 0.286342 -0.546673 0.112213 0.417582 -0.852985 -0.0548522 0.260267 -0.0994879 -0.605438 0.52077 0.33464 0.0108732 0.0205469 0.154507 0.154938 0.343339 -0.0870939 -0.0732654 -0.367103 -0.720058 -0.182883 0.354461 -0.0437204 0.270729 0.0211094 0.333141 0.455092 -0.737604 0.535054 0.0461037 -0.221824 0.0132719 -0.133024 0.293472 -0.346479 0.595875 0.246854 -0.172381 0.0941651 -0.214248 -0.0969541 0.530135 0.112726 0.835126 0.137922 -0.288487 -0.122229 -0.535395 -0.0917945 -0.109359 0.459102 -0.622221 0.477564 0.353428 -0.0878372 0.54097 -0.272428 0.678713 -0.653332 -0.267101 0.0739354 -0.95491 -0.40795 0.0872496 0.65021 0.671769 0.40716 0.202737 0.67666 0.395281
652 -0.0370004 0.0787018 0.17124 0.50072 -0.11848 0.124296 -0.412629 -0.292393 0.547369 -0.214533 -0.195296 0.271267 0.663513 0.251446 -0.331323 0.437509 -0.669907 -0.103231 0.068434 -0.913368 0.0476173 0.0263536 -0.343545 -0.393053 -0.324601 0.553762 0.255522 -0.150605 -0.35578 -0.712238 -0.734136 -0.456765 -0.19441 -0.44663 0.321539 -0.442045 0.0682746 -0.510302 -0.618977 0.526323 -0.192947 0.141464 -0.389452 0.336677 -0.267788 0.153221 -0.371848 -0.149888 -0.179839 0.17549 0.1908 -0.0903565 -0.136633 0.100261 0.231707 0.543596 0.725357 0.00441057 0.785243 -0.811214 -0.103221 0.682397 -0.0396802 0.0942136 1.03615 -0.14024 -0.43092 0.206575 0.166974 0.412744 -0.440329 0.635507 0.626041 0.13498 -0.244308 0.0756757 -0.57756 -0.111076 -0.525735 0.773679 -0.0522757 0.837135 -0.00391409 -0.00216685 0.062405 -0.425049 1.21689 0.125897 0.450628 -0.130443 0.181006 0.0252997 -0.122006 0.847585 0.156728 -0.140694 0.105898 -0.499158 0.249647 0.835254 0.0701082 1.01992 0.710182 -0.62139 -0.205767 -0.683182 -0.171085 -0.00365353 -0.0301508 -0.397685 0.966147 0.507546 -0.347856 0.719245 0.0515591 0.822356 0.250933 0.217841 -0.564152 -0.370293 0.202457 0.173014 0.151304 0.590376 0.132765 -0.0357975 0.103003 -0.0525125
654 -0.146545 -0.248639 0.158362 0.810156 0.462333 0.0159801 -0.139563 -0.694603 0.654466 0.131187 0.090238 0.269712 -0.188619 0.146025 -0.268427 0.217349 -0.297883 -0.300251 0.282345 -0.466245 0.104824 -0.0598116 -0.511085 -0.29419 -0.0196825 0.299926 0.448493 -0.0584831 0.152344 -0.895629 -0.470146 -0.0339884 -0.538744 -0.40136 0.17735 -0.750286 0.159296 -0.0346278 -1.39713 0.559098 -0.220361 -0.0956125 -0.419714 -0.232936 -0.801031 -0.384423 -0.86256 0.119917 0.0113405 0.0275847 0.110647 -0.0561098 0.0311955 -0.0871251 0.152143 0.681491 -0.0478592 0.601059 0.490176 -0.576656 0.0818525 0.462873 -0.0938269 0.318336 0.71532 0.088423 -0.166895 0.292928 0.706398 -0.0398579 -0.44533 0.266484 0.494317 0.23497 -1.04542 0.226155 -0.256626 0.198593 -0.0630452 0.555946 0.0295104 0.899642 0.160146 -0.0629607 0.63479 -0.0112201 0.576504 -0.0498187 0.054801 0.289935 -0.266071 -0.168263 0.0750261 1.06868 -0.134698 -0.297633 0.141466 -0.40536 -0.336382 0.707554 0.0654379 0.577284 0.581088 -0.301283 -0.387503 -0.995017 0.145734 -0.00595695 0.275251 -0.199797 0.971182 0.407491 -0.402966 0.997043 -0.155352 0.518937 -0.253436 0.0282278 -0.30991 -0.452254 0.142768 -0.298285 0.14072 0.76283 0.203383 0.132418 0.103609 -0.328582
1986 -0.48059 -0.729033 0.0799476 0.365333 0.172212 -0.118872 -0.177132 -0.528538 0.0626636 -0.100295 -0.0851654 -0.109572 0.181714 -0.0526928 0.0664888 0.0508511 -0.499992 0.524794 0.592906 -0.183016 0.244458 -0.284603 0.212511 0.208322 0.207263 -0.0115888 0.365583 0.275703 0.0131199 -0.387419 -0.356221 -0.256347 -0.295036 -0.49069 -0.10635 -0.359484 -0.195202 0.0215647 -0.461502 0.725665 -0.203372 -0.0587956 -0.21718 -0.138261 -0.3606 -0.386646 -0.260333 -0.251295 0.25762 -0.139895 -0.150616 -0.131885 -0.719921 0.119343 0.290105 0.00936317 -0.145812 0.00967772 0.259135 -0.0928205 -0.236644 0.287387 -0.619593 -0.135378 0.69281 0.218339 -0.254231 0.653909 0.571609 0.0301566 -0.301896 -0.349218 0.440963 0.0971975 -0.436632 -0.472036 -0.0603196 0.261226 -0.277894 0.201642 -0.129253 0.272452 0.167174 0.224679 0.0581541 -0.570189 -0.0898314 0.079422 0.33297 -0.060751 0.15652 0.734217 -0.310315 0.228974 -0.118136 -0.0671285 -0.0295691 -0.421503 -0.0523121 0.431858 0.284849 0.871787 -0.0204624 -0.299588 -0.523124 -0.0440298 0.183088 -0.118812 0.330626 -0.17048 0.591217 -0.144277 -0.533778 0.516694 -0.0735199 0.411735 0.129549 0.0402941 -0.332941 -0.259991 0.0227226 0.0607648 0.364531 0.454011 0.517073 1.00893 -0.0324167 -0.356133
332 -0.237908 -0.436236 0.0919792 0.313649 -0.0172892 0.0351352 -0.232246 -0.524859 0.486312 -0.31213 -0.190349 -0.109464 0.248298 -0.624502 -0.618559 0.373763 -0.793215 0.00793456 0.469506 -1.14948 0.0366442 -0.143273 -0.27906 -0.167591 0.133184 -0.0410345 0.352079 -0.00151489 0.170918 -0.554406 -0.149629 0.00121571 -0.272766 -0.380938 0.0216705 -0.688451 -0.016594 -0.135633 -0.398808 0.46305 -0.261803 -0.140008 0.120776 0.109254 -0.277548 -0.0132742 -0.0949926 0.000994205 -0.109191 -0.229479 -0.396031 -0.0248419 0.116372 -0.011071 0.415603 0.696564 0.0353167 0.135787 0.865848 -0.389183 -0.159764 -0.021739 -0.739045 -0.0196876 0.653737 -0.013233 -0.221941 0.378527 0.189813 0.264111 -0.418592 0.160248 0.0856356 0.181604 -0.444568 -0.711707 0.0178691 -0.290885 -0.117722 0.38213 -0.0612206 0.30694 0.352596 0.103289 0.109834 -0.845199 0.65386 0.131716 -0.238125 0.159566 -0.395942 0.0982626 -0.2459 0.505903 -0.0023544 -0.758401 0.216564 -0.358423 0.109481 0.0497294 -0.0364427 0.563665 0.012599 -0.12472 -0.242803 -0.359876 0.16536 -0.171663 0.816217 -0.261432 0.211144 0.189582 0.3719 0.624932 -0.0380435 0.353165 0.0835845 -0.250397 -0.435382 -0.435219 -0.537932 -0.176859 1.09694 0.670664 0.734465 -0.0485352 0.403153 -0.0105857
1666 -0.243832 0.123696 0.384303 -0.151251 0.0985524 0.120411 0.000818873 -0.571002 0.56637 -0.931199 -0.407695 -0.15761 -0.058732 0.246946 -0.681661 0.459379 -0.0112922 -0.127484 0.770889 -0.779213 0.118702 -0.0750926 -0.61751 -0.472573 -0.164408 0.0836163 0.105013 -0.0306548 -0.0494309 -1.11777 0.0552348 0.137564 -0.0510634 -0.15419 0.320939 -0.292426 -0.122191 -0.642683 -0.387021 0.528703 -0.415417 -0.594373 -0.865363 0.190096 -0.143096 -0.272837 -0.609639 -0.231416 -0.217435 0.111039 0.131547 -0.612868 -0.407575 -0.236585 1.007 0.718102 0.332828 0.438359 0.757772 -0.144955 -0.225527 0.839488 -0.44358 -0.238746 0.710988 -0.00199796 -0.576952 0.43244 1.11247 0.114564 -0.881284 0.0448169 0.2022 0.36671 -0.243307 0.281376 -0.0474163 -0.386547 0.285994 0.0879648 -0.16394 0.726456 0.610435 0.294355 0.0405922 -0.546618 0.5902 -0.278671 0.201186 -0.271604 -0.0115129 0.182355 -0.354745 0.587248 -0.0402184 -0.0397125 -0.0283853 -0.15956 0.062636 0.39278 -0.250616 0.290159 -0.161418 -0.569189 -0.440325 -1.07292 -0.528854 -0.128919 0.454353 -0.372545 0.444764 0.0170139 0.045069 0.94611 0.0252563 0.197573 -0.377372 -0.0149387 -0.14559 -0.519682 -0.165213 -0.0570779 0.520591 0.901371 0.010864 0.661835 0.725234 0.281641
1454 -0.187943 -0.430967 0.634678 0.41442 0.23201 -0.221236 0.124834 -0.249391 0.532787 0.0690711 -0.631502 0.11663 -0.308468 -0.0674927 -0.0875079 0.0158942 -0.978389 -0.193948 0.0373438 -1.14205 -0.13135 -0.177536 -0.629429 -0.318473 -0.198177 -0.0863052 0.343655 0.201851 0.145453 -1.10946 -0.29089 -0.128695 -0.208295 -0.651048 -0.139723 -0.646486 0.113034 -0.082174 -0.733666 0.512096 -0.159216 -0.244298 -0.82157 0.125868 -0.84779 -0.0448546 -0.50342 -0.0885812 3.62304e-05 0.25815 0.284498 -0.220383 -0.786138 -0.0276498 0.641717 0.403675 0.318522 0.322259 0.427936 -0.461285 -0.313152 0.0422591 -0.621845 0.208985 1.11237 -0.223641 -0.253559 0.116309 0.486065 0.35424 -0.448824 0.143125 0.277904 0.110534 -0.962373 -0.760663 -0.453209 -0.215486 -0.0384158 0.0934022 0.129566 0.692189 -0.0196695 -0.0352633 0.211434 -0.793331 0.29597 0.186763 0.365497 0.341245 -0.157402 -0.135802 -0.321782 1.00406 0.0642944 -0.0810592 0.319129 -0.470116 0.0727351 0.111121 0.0348538 0.568254 0.923872 -0.336799 0.316934 -0.632542 0.0430023 -0.168383 0.295939 -0.11988 1.00046 0.193459 -0.258095 0.540388 -0.224768 0.68445 -0.330856 0.0499174 -0.234777 0.111866 0.122619 -0.10608 0.43919 0.445354 0.414953 -0.209835 -0.060166 -0.431277
3 -0.836782 0.33234 0.11201 0.71112 -0.33241 1.00187 -0.162923 -0.386496 1.29028 -0.144315 0.140391 -0.142909 1.13458 -0.816053 -0.878366 0.419158 -0.191976 0.536706 1.0249 -0.664157 0.945032 -1.18409 -0.402708 -0.500481 0.0696625 0.231272 0.49038 0.451088 -0.0607245 -0.0416511 -1.15423 -0.0169325 -0.393654 -0.0328587 0.771006 -0.342461 0.894599 -0.0316836 0.35501 0.88021 0.00619306 -1.02631 -0.0145803 0.618372 -0.617795 -0.63342 -0.411781 -0.0560299 -0.154971 1.32316 -0.794573 0.0173803 -0.431999 -0.583401 0.581096 0.00131072 0.915278 0.748242 0.0897553 -0.57761 -0.267485 0.220797 -0.800464 0.837363 1.00017 -0.220184 -0.0755262 1.18755 0.263275 0.0813015 -0.794597 0.95411 0.0465202 0.695024 -1.06499 -0.692161 -0.294153 -0.185804 -0.963976 0.367287 -0.43397 1.46071 -0.300145 0.622522 -0.0186019 -1.07253 0.466302 0.827325 0.682846 0.048937 -0.0186385 1.11513 0.309697 0.828481 -0.5914 -0.359599 -1.00035 0.0331543 1.08134 0.478391 0.0333299 0.932009 -0.189801 -1.34992 -0.923031 0.047642 -0.836356 0.352529 -0.342123 -0.916379 0.22265 0.323628 0.0711488 -0.232965 0.3242 0.110012 -0.820327 1.15637 -0.81578 -0.256246 -0.594358 0.173764 0.104246 1.07407 -0.0851093 -0.193674 0.339219 0.999762
2544 -1.11144 0.390526 -0.0225739 1.0805 -0.399204 0.580235 -0.445152 -0.310121 1.56449 0.00276482 -0.16391 -0.206686 0.793041 0.325836 -1.14879 0.190216 -0.284799 0.832613 1.07324 -0.344719 1.53852 -0.427297 -0.0619519 -0.200854 0.182485 0.122724 0.522013 0.844478 0.201286 -0.0406683 -1.46872 0.195905 -0.240941 -0.323908 0.96823 -0.131561 0.801693 -0.712745 0.340986 0.986993 0.153928 -0.582123 -0.196724 1.20518 -1.07611 0.038031 -0.422166 0.215281 -0.047436 0.736726 -1.02711 -0.154244 -0.661996 -0.762774 0.556871 -0.239196 -0.107442 0.518885 -0.0950185 -0.0169144 -0.216207 0.244808 -1.27696 0.242618 0.623984 -0.205278 -0.261295 0.901759 0.116145 0.00581013 -1.18464 0.705614 0.393963 1.27148 -0.148923 -0.244934 -0.101081 -0.161925 -0.70828 0.369485 -0.592122 1.71651 -0.295547 0.455186 -0.00518214 -1.55835 0.43649 0.904038 0.742255 0.0861549 -0.148068 1.49059 0.2793 1.37754 -0.281716 -0.0982511 -1.42031 0.0872919 1.42631 0.402929 0.210461 1.75535 -0.24356 -1.12908 -0.449893 0.136456 -1.08785 0.180775 -0.419959 -1.00255 0.0246376 0.20757 -0.131379 -0.0490856 0.592644 0.00876859 -1.05234 1.12315 -1.51626 -0.231457 -0.590779 0.169431 -0.0515639 1.21763 -0.049477 0.0182874 0.340655 1.35746
4 0.119469 -0.452273 0.234375 0.273811 0.469954 0.237569 -0.174798 -0.367862 0.575711 -0.365992 0.122839 0.537537 0.228119 -0.176071 -0.248016 0.180349 -0.386606 0.608909 0.111477 -0.297093 0.97508 -0.269661 -0.377227 -0.408104 -0.122006 0.145636 0.250861 -0.0977295 -0.184198 -1.17203 -0.387966 0.106891 -0.500567 -0.337442 0.234557 -0.12359 0.655387 -0.237741 -0.310344 0.328668 -0.170319 -0.180603 -0.51627 0.701528 0.0997052 -0.0335483 -0.0650944 0.291149 -0.504084 0.880738 -0.465657 -0.89915 -0.1822 -0.236977 0.774259 -0.245381 -0.223277 0.214733 -0.124197 -0.0631944 -0.858288 0.0326161 0.0402838 0.37347 0.598731 -0.522404 -0.11749 0.319396 -0.129935 0.117483 0.172494 0.113676 0.144924 0.442373 -0.385988 -0.332095 -0.0519689 -0.476118 -0.872125 0.824259 -0.0844184 0.00891553 0.075238 0.66078 0.618322 -0.0871319 0.244603 0.0562396 -0.0634546 -0.67105 -0.209535 -0.108848 -0.582376 0.492694 -0.317306 0.0188397 -0.34443 -1.07979 -0.0786796 0.43959 0.638891 0.469145 0.487329 -0.515886 -0.390539 -0.100597 -1.00469 -0.00665203 0.948074 0.0478408 0.442891 -0.0724422 -0.186842 0.765676 0.451841 0.485692 0.0930251 0.101412 -0.387577 0.342127 -0.329279 -0.265356 0.349943 0.589184 -0.0798423 1.09645 0.291682 0.68181
2176 -0.0952451 -0.521213 0.417534 -0.529557 -0.0487722 0.438478 -0.436736 -0.862188 0.812786 -0.0451929 0.3674 1.14668 0.338923 -0.69086 -0.193146 0.451207 -0.605283 1.10612 0.253378 -0.211652 0.948143 -0.571384 -0.630469 -0.56421 -0.808923 0.17648 -0.11646 0.0566542 0.059249 -1.09512 -0.460305 -0.0643723 -0.582718 -0.286772 0.154016 -0.218485 0.510556 0.002978 -0.574467 0.607634 -0.0108898 -0.834389 -0.410421 1.10835 -0.122922 0.15165 -0.1839 0.198948 -0.13631 0.459445 -0.394605 -0.202351 -0.894698 -0.467943 0.999868 -0.0411034 0.319971 0.485019 0.40025 -1.21233 -0.812295 0.120357 0.0805259 0.40653 0.796815 -0.606778 -0.0155722 -0.0931605 0.0461117 0.461246 -0.113678 0.132361 0.404549 0.185827 -0.512302 -0.0234181 0.135373 -0.594734 -0.161258 0.57783 -0.275144 0.132114 -0.00385286 0.537927 0.544349 0.0620217 0.167551 0.154116 -0.133347 -0.627571 -0.255945 0.0154271 -0.150784 0.394115 -0.672094 0.297587 -0.635039 -0.549005 0.115682 0.0846316 0.364521 0.0220658 0.609532 -0.416124 0.323104 0.0104646 -0.636188 0.35992 0.488132 -0.554618 0.564149 0.105573 -0.130433 0.611013 0.74065 0.412382 -0.286018 0.422571 -0.62727 0.0361978 -0.524561 -0.301047 0.855623 0.183252 0.180398 0.549726 0.113193 0.30255
1016 0.058741 -0.752394 0.0301389 0.0108309 -0.0704135 -0.149805 -0.145087 -0.402651 0.424766 -0.240544 0.305673 0.893577 -0.295808 -0.252432 -0.199583 0.369553 -0.141089 1.33334 -0.140029 -0.0721928 0.692712 -0.00341699 -1.11497 -0.818025 -0.217216 0.541315 -0.161642 -0.221751 0.0960334 -0.618131 -0.419047 0.14816 -1.1839 -0.0894909 0.0994897 0.113297 0.406535 -0.421038 -0.676479 0.73958 -0.306683 -0.460934 -0.7633 0.362764 0.178168 0.0122537 0.201312 -0.0261433 -0.433936 0.501928 -0.308526 -0.343382 0.00507652 -1.04523 0.158097 -0.0519534 0.0346077 0.636793 -0.0945957 -0.424695 -0.692449 0.253704 -0.175128 0.210865 0.52178 -0.405173 0.0697422 0.0495445 0.585593 -0.00957551 -0.057968 -0.0318781 0.272132 0.170944 -0.11313 -0.22063 0.279153 -0.293178 -1.08095 0.699889 -0.195278 0.0265015 0.0656997 0.0611619 1.08331 0.00288688 0.22949 0.0767147 -0.0115975 -0.983171 -0.151732 -0.134175 -0.0535422 0.688278 -0.13715 -0.0400796 -0.269273 -0.234515 -0.201746 0.458013 0.891693 0.180226 0.763748 -0.634945 -0.0700437 -0.0224418 -0.577116 0.0759797 0.961465 -0.0217737 0.76619 -0.0429652 -0.100436 0.143379 0.747755 0.171145 0.116616 0.155015 -0.790977 0.323899 -0.551532 -0.54887 0.430586 1.00409 0.202386 1.04299 0.187116 0.0242271
1761 0.0799252 0.204352 -0.0222695 0.571036 0.261412 0.0644146 -0.297315 0.240999 0.318381 -0.247396 0.0144287 0.631963 0.476858 -0.149583 0.181513 -0.0850172 0.0545272 0.965837 -0.178592 -0.113126 1.14725 -0.81845 -0.166989 -0.692311 -0.447291 0.341499 0.512728 -0.0343023 0.0783776 -0.281256 -0.14372 0.147716 -0.956037 0.00121228 -0.200349 0.0260874 0.588015 -0.40987 -0.430099 0.133813 -0.156781 -0.644356 -0.137622 0.470381 0.208311 -0.550572 -0.0961806 -0.143104 -0.503354 0.0196267 -0.0498785 -0.442715 0.102579 -0.838057 0.467584 0.0258533 -0.14107 -0.046825 0.011701 -0.517113 -0.579389 0.199264 -0.406187 0.245102 0.365194 -0.926668 -0.586759 -0.0610927 -0.210871 0.797339 -0.0825967 0.200556 0.333331 0.439187 -0.242799 0.216285 0.00518559 -0.247578 -0.654419 0.150884 -0.241117 0.0449909 -0.00790767 0.339199 0.665588 0.0220351 0.537396 0.26726 -0.0242645 0.0700799 0.361761 0.196089 -0.879563 0.127369 -0.42017 0.232785 -0.130918 -0.612804 0.472637 0.198901 0.592743 -0.00844747 0.309387 -0.682734 0.300473 -0.685991 -0.577505 0.745497 0.358277 -0.226266 0.0347106 -0.108381 -0.221982 0.201995 0.423658 0.640589 -0.437533 0.032216 -0.589563 0.01201 -0.44334 -0.0475289 0.39363 0.0750602 0.33842 0.432573 0.2107 0.220497
1256 -0.388573 -0.155886 -0.0247921 0.0434418 0.11965 0.0355781 -0.210313 -0.596989 0.81849 -0.0613037 0.0683867 0.892433 0.469905 -0.555335 -0.778869 0.0522754 -0.397308 0.787295 -0.0895118 -0.392891 1.14366 -0.600089 -0.697792 -0.816812 -0.475547 0.312994 -0.059023 0.0281313 0.206093 -0.527451 -0.235329 -0.25193 -0.395816 -0.545712 0.16552 0.196088 0.318547 -0.00129833 0.205303 0.353967 -0.209062 -0.565098 -0.369658 0.363284 0.186112 -0.456948 -0.0265665 0.297064 -0.353244 0.975539 0.0296983 -0.540914 -0.00322294 -0.686306 0.562786 -0.101413 0.00537937 0.137942 0.0992108 -0.54465 -0.64266 -0.111401 -0.146759 0.358466 0.766252 -0.54874 -0.086512 0.143043 0.613446 0.405761 -0.0596322 0.0183242 0.577597 0.204719 -0.209198 0.198605 0.0772721 -0.580112 -0.517556 0.515725 -0.579113 0.0575659 0.0579156 0.102207 0.259843 0.122011 0.109556 0.122652 -0.0359261 -0.456751 -0.133421 0.0204348 -0.731154 0.395361 -0.135849 0.192727 -0.518771 -0.729129 -0.202693 0.282945 1.10295 0.513928 0.730037 -0.481252 -0.366187 -0.314207 -1.00478 -0.0549724 0.847012 0.0743683 0.247687 -0.14717 -0.135154 0.483644 0.334918 0.80081 -0.296943 -0.166524 -1.02453 0.151591 -0.756582 -0.672278 0.833409 0.623245 0.354139 1.27459 0.223063 0.597676
2175 0.107797 -0.161743 0.203474 0.316688 0.51399 0.0435189 0.151036 -1.0586 1.22179 -0.304599 0.455664 1.06468 0.975917 -0.240677 -0.22898 0.353923 -0.449399 1.08101 -0.233536 -0.380686 0.64421 -0.701203 -0.203929 -1.03552 -0.476293 -0.0372215 0.133567 -0.0651484 0.100481 -0.673949 -0.492569 0.0920315 -0.666084 -0.112806 0.0481832 0.00420351 0.417951 -0.708119 -0.173576 0.737124 0.0043808 -1.49383 -0.718466 0.787783 0.346578 -0.535902 -0.135691 0.467084 -0.210796 1.01706 -0.126235 -0.454974 -0.125964 -0.719046 0.833426 -0.221757 -0.347767 -0.0457502 0.0545483 -0.393817 -0.737507 -0.0493807 0.100745 0.565692 0.753773 -0.849657 -0.163224 0.257711 0.0770124 0.394347 0.0605565 0.0794822 0.723361 0.14601 -0.288133 0.124159 0.101151 -0.512623 -0.785145 0.549169 -0.253656 -0.0734601 0.434854 0.727285 0.876208 -0.00253562 -0.0867672 0.0620178 -0.119503 -0.0730157 -0.24099 0.0162479 -0.448519 -0.203272 -0.456311 0.258983 0.0707316 -0.445384 -0.219048 0.0721895 0.0540045 0.439226 0.797394 -0.732074 -0.780214 -0.266313 -0.602533 0.712836 1.22066 0.154399 0.366402 -0.0112814 0.23558 0.171414 0.769723 1.00938 -0.278467 -0.205227 -1.06442 0.251503 -0.36793 -0.51549 0.353357 -0.256439 -0.224141 1.19867 0.125998 0.719783
5 -0.430818 -0.466973 0.389122 0.784559 0.526948 0.439851 -0.471579 -0.600698 0.781968 -0.194814 -0.561208 0.519647 0.373023 -0.483372 0.237206 0.0020416 0.0816719 0.642628 0.162641 -0.366121 0.517884 -0.268005 -0.384524 -0.5137 -0.254274 0.780451 -0.152118 0.262173 0.164854 -0.135071 -0.0487818 -0.34598 -0.80038 -0.540462 0.701239 -0.908552 0.913174 -0.584843 -0.0439172 0.215489 -0.82759 -0.561056 -0.637553 -0.067912 0.0389249 0.481104 0.269312 0.0554768 -0.208947 0.111567 0.152852 -0.166951 -1.2353 -1.01965 0.208827 0.201853 0.625723 0.194496 0.567755 0.102834 -0.686261 0.587553 0.00319964 0.650169 0.332676 -0.243936 0.195541 -0.120146 0.196699 0.448885 -0.558803 -0.0424435 0.465754 0.454632 0.121128 -0.0428925 0.0310252 -0.637557 -0.425854 0.583767 -0.463099 0.442336 -0.0514231 1.09798 0.845911 -0.590123 0.977547 -0.00932956 0.501859 -0.0594596 0.358519 0.0322131 -0.44401 0.381046 -0.381717 0.0472436 -0.772686 -0.351438 0.263842 0.208026 0.38233 0.401821 0.168362 -1.09702 -0.28286 -0.960299 -0.40766 0.241769 -0.170852 -0.230537 0.195062 -0.00336199 -0.093003 0.496042 -0.165365 0.665876 -0.332477 -0.0220934 -0.646357 -0.136296 -0.578135 0.0331618 0.191806 0.739698 0.198139 0.849718 0.185164 -0.0518716
1629 0.0386583 -0.632563 0.10865 0.284342 0.253035 0.214044 -0.222172 -0.329931 0.420226 0.0108181 -0.250338 0.503515 0.0269735 0.0312344 0.182063 0.136837 0.207923 0.617062 0.24179 -0.492391 0.889269 -0.1598 -0.717845 -0.161626 -0.723972 0.457199 0.120932 -0.0682317 0.0213984 -0.0657024 0.0584427 -0.322173 -0.558557 0.213052 0.661088 -0.193911 0.36886 -0.151364 -0.103514 0.516512 -0.116122 -0.996061 -0.0803922 -0.13052 0.107251 -0.204211 0.15597 0.0830503 0.0348046 0.166113 -0.191381 0.183576 -0.688454 -0.842898 0.0150697 0.368927 0.491325 0.367226 0.21412 -0.0709396 -0.385928 -0.0930285 -0.0866275 0.39047 0.097692 0.000760205 -0.288713 0.132141 -0.0624163 0.745555 -0.35435 0.173776 0.141815 0.269333 0.204091 0.0605676 0.128151 -0.409665 0.161413 0.42958 -0.365144 0.15071 0.0334685 0.426746 0.412849 -0.237348 0.67716 0.179337 0.42344 -0.206193 0.307979 -0.00315966 -0.447733 0.478413 -0.484175 -0.0220155 -0.772821 -0.268397 0.0801685 0.460897 0.299208 -0.196896 0.115256 -0.744834 -0.294354 -0.319544 -0.275207 -0.0588576 -0.287136 0.0853567 -0.0252282 -0.0861471 -0.545949 0.771704 0.0151557 0.395862 -0.0968573 0.359642 -0.810366 -0.548997 0.0756803 -0.0137523 0.537602 0.880813 0.362351 0.877404 -0.141662 0.177072
2546 -0.206832 -0.0543473 0.0267929 0.154927 -0.0312009 0.366589 -0.00752569 -0.470517 1.10856 -0.157733 0.267176 1.15509 0.627306 -0.382688 0.0159658 -0.26446 0.155587 0.0255147 -0.0805656 -0.454843 0.233012 -0.058297 -0.391807 0.120314 0.140339 0.0354752 -0.3294 -0.272902 -0.105928 -0.228885 0.0401136 0.148089 -0.848291 0.509802 0.365893 -0.473409 0.542888 -0.0089505 -0.0481008 0.222922 0.0964421 -0.367548 -0.0166982 -0.200282 -0.317861 -0.100567 0.291286 0.0859359 -0.295456 1.30547 -0.140183 -0.156926 -1.28042 -1.22499 -0.0160551 0.238363 0.982949 0.505646 0.364161 0.0211097 -1.27152 0.123029 -0.131129 0.455514 0.366148 0.154993 -0.142784 -0.149564 0.203958 -0.0352541 0.0387639 0.215334 0.269467 -0.276597 0.0290618 0.227843 -0.170263 0.170322 -0.148821 0.76228 -0.464865 0.0627187 0.104957 0.439149 -0.020856 -0.116645 0.926594 -0.118725 0.156683 -0.0335145 0.744245 -0.1699 -0.692005 0.00442043 -0.104047 -0.131713 -0.317714 -0.0491411 -0.0918456 0.341456 0.273955 0.0846775 -0.125628 -1.07428 -0.600128 -0.560125 -0.0574362 -0.249618 -0.0783784 -0.117088 -0.370742 -0.125126 -0.354172 0.960674 -0.245642 -0.0836839 0.0215198 0.720875 0.0995734 -0.139883 -0.261894 -0.171874 0.556246 0.193895 -0.141758 0.495576 -0.161241 -0.0861096
1659 -0.203278 -0.635182 0.295484 -0.00649191 0.392469 0.74421 -0.195995 -0.00784282 0.714452 -0.273224 -0.954145 0.467543 0.233639 0.314162 -0.807253 0.251246 0.119892 0.308309 0.291108 -0.366798 1.08201 -0.187729 -0.378346 -0.568698 -0.277555 0.20539 0.331612 -0.108747 -0.0661552 -0.206304 0.0624339 -0.239532 -1.50218 0.19641 0.818354 -0.653156 0.96393 -0.178575 -0.172689 0.653458 -0.168766 -0.225416 0.0261786 -0.135491 -0.118064 -0.36955 0.161907 0.0268741 -0.672296 0.201038 0.0644673 -0.378519 -1.37 -0.721108 0.146981 0.158667 0.201952 1.1204 0.790605 -0.445113 -0.650283 -0.167584 -0.058546 0.158098 0.602607 -0.340077 -0.687848 -0.0989184 0.237592 -0.0311677 -0.343972 0.0980177 0.101394 0.0306565 -0.322065 0.0586986 -0.230844 -0.211599 -0.41004 1.21354 -1.08264 0.37878 -0.0433172 1.00818 0.551666 -0.679167 1.14088 0.343354 0.56865 0.0964672 -0.122934 0.163973 0.0320222 0.232929 -0.725916 0.0429243 -0.914715 -0.00114986 0.461276 0.456415 0.405793 -0.122717 0.239547 -1.13686 0.105746 -0.821413 -0.22159 -0.27288 -0.271485 -0.0619964 -0.103732 0.140577 -0.914136 1.2504 0.278535 0.47296 -0.175696 -0.00790351 -0.19149 -0.0465457 -0.755189 -0.240377 1.17871 0.887806 0.23908 0.536006 0.0524536 -0.0269694
6 0.0878567 -0.197139 0.210303 0.938553 -0.00146678 1.07404 -0.858399 -0.0263405 0.325113 -0.526581 -0.563337 0.488771 -0.324191 -0.292004 -0.14752 0.491868 -0.124895 0.334272 -0.0235477 -0.476574 0.182967 0.0302714 -0.120323 -0.607395 -0.280052 0.617159 0.075409 0.22498 -0.175115 -0.384236 -0.483115 -0.414509 -0.238221 -0.414541 0.718698 -0.216016 0.102675 -0.853085 -0.253784 0.3459 -0.117828 -0.323239 0.10108 0.577394 -0.0636779 -0.349869 -0.279324 -0.327821 -0.0471074 0.123256 -0.135239 0.289744 -0.396503 -0.189836 0.287628 0.305121 0.163217 0.202607 0.638373 -0.444602 -0.206588 0.126065 0.122115 0.560493 0.599206 -0.180494 -0.568729 1.28094 0.503075 0.367763 -0.583825 -0.0339385 0.10559 0.536007 -0.20526 -0.0387654 -0.845739 -0.0220685 -0.444079 0.367086 -1.04278 0.260244 -0.269776 1.0674 0.418661 -0.329463 0.562269 0.193099 0.186614 -0.353532 0.284195 0.260721 -0.108254 -0.0186101 -0.576218 0.0500661 -0.729238 -0.499951 0.320441 -0.0165461 0.21372 0.715629 0.275054 -0.883738 0.111947 -0.171183 -0.517983 0.367159 -0.0684765 -0.597877 0.572604 0.806413 -0.181767 0.335547 0.823938 0.047696 -0.30291 0.0569311 -0.335579 -0.295667 -0.879268 -0.000356898 0.0732232 -0.0573214 0.0780434 -0.131038 1.02409 -0.0121486
1416 -0.483458 0.0760957 0.543687 0.0592456 -0.0347312 1.16267 -0.0897596 0.19475 0.344954 -0.522068 -0.314047 0.354043 0.200706 0.411398 -0.143403 0.24406 -0.148125 0.310953 0.166107 -0.389115 0.199608 -0.221479 -0.19247 -0.012947 -0.335604 0.736055 -0.101128 0.157802 -0.363699 -0.0300857 -0.547494 -0.60094 -0.519357 -0.812807 0.838763 -0.0353888 0.281662 -0.521037 -0.452953 0.15128 -0.226062 -0.106927 -0.808954 0.56024 -0.216055 -0.503506 0.159926 -0.679065 -0.0415082 0.18904 -0.656728 0.00994541 -0.584649 0.136725 0.318565 0.159348 0.321635 0.145036 0.296458 0.0287121 -0.88098 0.447515 -0.11252 0.79999 0.517 -0.298432 -0.637025 0.207586 0.691564 -0.0421065 -0.523905 0.121886 -0.260931 0.361192 -0.234034 -0.175799 -0.582455 -0.314422 -0.451213 -0.00337918 -0.444677 0.0879109 0.128991 0.681413 0.187023 -0.0266588 0.508552 0.177962 -0.124127 -0.077807 0.488974 0.0687735 0.114218 -0.20323 0.140777 -0.391845 -0.384125 -0.133911 0.328149 0.131457 0.0924211 0.582761 0.352297 -0.952678 -0.214647 -0.192922 -0.147397 1.03981 -0.0263793 -0.0741351 0.349371 0.816904 -0.392869 0.339937 0.352238 0.12843 -0.188605 0.343413 -0.463635 -0.690535 -0.885837 0.119956 0.119608 0.120062 0.17494 -0.138229 0.280139 -0.132577
1602 0.0128306 0.0610197 0.0153261 0.89624 0.116389 1.19774 -0.384874 -0.192318 0.379521 -0.656087 -0.287402 0.263528 -0.0197953 0.250448 0.142929 0.224553 -0.222831 -0.0131155 0.620994 -0.522287 0.145365 0.171087 0.0707189 -0.187121 -0.0549962 0.947228 0.253398 0.134554 -0.0146113 -0.144561 -0.44211 -0.215409 -0.300099 -0.642998 0.560066 0.0513252 0.043731 -0.614385 -0.0547539 -0.346225 -0.786535 -0.124753 0.0180056 0.407716 -0.157333 -0.220805 -0.313286 -0.123065 0.00771164 0.504947 -0.046055 0.115874 -0.596696 -0.0224178 -0.208747 -0.00492584 0.322815 0.666552 0.312336 -0.626326 -0.701064 0.262057 0.16718 -0.0248356 0.392544 -0.454771 -0.00604302 0.844897 0.135275 0.141854 -0.310712 -0.072117 0.215616 0.0770747 -0.24255 -0.148563 -0.884073 -0.170347 -0.295434 0.717334 -0.759234 0.558561 -0.124589 0.218958 0.754054 -0.412108 0.567271 0.169179 0.0908684 0.232266 0.596948 0.289182 0.0516575 0.147036 -0.124288 -0.199211 -1.06712 -0.458457 0.408702 -0.163498 0.266643 0.21476 -0.0392956 -0.69006 0.173161 -0.225224 0.175231 0.469514 0.190776 -0.038369 0.62225 1.08841 -0.0667278 0.158128 0.453083 0.184778 -0.203572 0.379738 -0.37646 -0.119029 -0.876807 -0.108574 0.343219 -0.127494 0.253931 -0.0987908 0.53026 -0.0184622
1042 0.15925 -0.23507 0.18364 0.275828 0.189801 1.24711 -0.330392 -0.0161101 0.148043 -0.400896 -0.136795 0.125523 -0.0802344 -0.300782 0.10044 0.195033 -0.906521 -0.0660894 0.40185 -0.339469 0.0981699 0.0869071 0.104143 -0.624757 -0.170094 0.587797 -0.108678 0.216207 -0.49 -0.339733 0.0631837 -0.0124709 0.0300212 -0.307552 0.411935 -0.120973 -0.0840294 -0.407377 -0.0574469 0.271235 -0.276856 -0.235504 0.233865 0.539223 -0.860655 0.199883 -0.410479 -0.0394293 0.153601 0.228484 -0.0887507 0.177742 -0.0547236 -0.321246 0.15306 0.251844 0.259107 0.708101 0.285459 -0.595981 -0.297545 0.207492 -0.086702 0.381112 0.536753 -0.0454917 -0.151196 0.653482 0.80655 0.032014 -0.317567 0.0666637 0.575965 0.377353 -0.468683 -0.369876 -0.467737 -0.310088 -0.381195 0.0437062 -0.893607 0.444249 -0.364989 0.492821 0.780607 -0.621505 0.487396 0.21978 -0.047952 0.0201906 0.365772 0.313486 0.168749 0.253197 -0.715346 -0.666107 -0.0489563 -0.347994 0.492061 0.208366 -0.0388907 -0.267152 -0.290872 -1.26096 0.0777147 -0.336616 -0.159612 0.397982 0.961428 -0.305402 0.650799 -0.0381108 -0.00867539 0.239711 0.200627 0.171435 -0.411575 0.312166 -0.68541 -0.449367 -0.783624 -0.187594 -0.133883 -0.0244128 -0.0987421 0.0466374 0.521849 -0.121816
373 -0.147465 -0.370217 -0.0824869 0.452075 -0.262203 0.964406 -0.198667 -0.0651096 0.286793 -0.747467 -0.271033 0.245916 -0.0789578 0.211727 0.117241 0.030144 -0.785131 0.297778 0.298632 -0.71617 0.126535 0.0734211 -0.11625 -1.0824 0.0530712 0.664796 0.474773 -0.0738334 -0.308664 -0.364821 -0.621092 0.0303088 -0.136858 -0.535331 0.867129 -0.313662 0.132755 -0.792996 -0.0657297 0.153552 -0.125779 -0.177201 -0.139518 1.112 -0.190712 0.212684 -0.185431 -0.540756 0.0806562 0.263833 -0.0228497 -0.0227085 -0.667473 -0.0677143 -0.137379 0.0713645 -0.344985 0.280094 0.229245 -0.390734 -0.0405422 0.0710007 -0.267436 0.490058 0.155499 -0.79188 -0.220689 0.603361 0.12628 0.0485129 -0.0616165 0.148623 0.268395 0.644486 -0.725929 -0.585512 -0.819435 -0.314286 -0.182825 0.694794 -0.665107 0.209457 -0.211349 0.314423 0.407612 -0.0950689 0.307164 0.53381 0.187372 -0.489065 0.268439 -0.0718416 -0.192251 0.550592 -0.564634 -0.348655 -0.105511 -0.331048 0.632946 -0.137828 0.0523088 0.397789 -0.0933646 -0.600572 0.0997585 -0.113378 -0.812698 0.953012 0.766374 -0.55296 1.17403 0.743334 -0.16156 0.388342 0.687811 0.137492 -0.0527439 0.122468 -0.387433 -0.33529 -0.685082 -0.772942 0.402948 -0.0251669 0.301571 0.0247279 0.880767 -1.75902e-05
7 0.100501 -1.12559 0.0406245 1.32541 0.996717 1.19815 0.196182 -0.176101 0.364254 -1.1059 -0.990714 0.561381 -0.156238 -0.30671 0.102479 0.195958 -1.1964 1.03128 -0.242332 -1.31697 -0.302161 0.139247 -0.962381 -1.07434 -0.251502 0.58617 -0.246378 0.573537 0.117789 -1.23651 -1.06255 -0.692222 -1.85799 -0.417343 0.306441 0.215637 1.36765 -0.458411 -0.0484662 0.00442587 -1.15352 -0.103082 0.00871735 0.246198 -0.5625 -1.09267 0.0183885 0.0320081 0.226946 1.20951 -1.06528 -0.661403 -0.207299 0.101438 1.12605 -0.304469 0.306606 0.789444 0.795113 0.179343 0.144207 0.0553848 -0.392255 0.814386 1.5913 0.0878756 -1.11695 0.135562 1.26485 0.0739442 -0.705122 0.250456 0.0319419 0.182255 -0.137674 0.333663 -1.05183 -0.828164 -0.058606 0.107355 -1.27871 0.135831 0.35488 1.02782 0.840691 0.0207934 1.16842 -0.309094 0.0466792 0.239152 0.37094 0.22871 0.141368 -0.152247 0.00599927 0.192944 0.366051 -1.10707 -0.246055 0.498091 0.383694 0.249644 0.704151 -0.0588949 -0.098967 -0.666003 -0.233186 1.20334 0.707413 -0.95871 -0.478032 -0.182641 -0.400485 -0.119839 0.832578 1.43136 0.0911944 -0.065714 0.175644 -1.05087 -0.353789 0.249627 0.611665 0.0308154 1.12586 1.5859 -0.195682 -0.250584
208 -0.18015 -1.51942 0.317675 1.25181 0.89136 0.794609 -0.277801 -0.339519 0.261245 -1.23307 -0.912895 0.31827 -0.144274 0.46785 -0.190084 0.540421 -0.808128 1.14674 -0.211903 -1.31517 -0.212036 0.136441 -0.958076 -1.31623 -0.797662 0.324454 0.155052 0.406343 -0.00964449 -0.973319 -1.01997 -0.270247 -0.42934 -0.255743 0.47308 -0.0151537 1.25656 -1.15782 -0.523289 0.082307 -1.09685 -0.988146 -0.0643257 0.315739 -0.662122 -0.118894 -0.327389 0.183017 -0.086241 1.02467 0.281945 -0.504315 -0.234405 -0.300962 1.125 -0.110852 0.450529 1.42248 0.705845 0.0141508 0.18634 0.794903 0.130452 0.677237 0.701916 -0.135743 -0.82252 0.369111 0.819803 0.0472816 -0.225536 0.344899 0.257365 0.247915 -0.454422 0.0848282 -0.99674 -0.899624 0.0793666 0.374474 -1.14882 0.945091 0.703235 0.852352 0.858034 0.0105197 0.973747 -0.143775 -0.017659 0.0373913 0.199006 0.900278 -0.129255 -0.159095 -0.0192793 0.0754435 0.109162 -0.718405 -0.103192 1.17018 0.290353 0.140312 0.695756 -0.404663 0.145953 -0.430102 -0.339043 0.850111 0.540699 -0.374289 -0.310176 0.132304 -1.55135 0.359643 0.903368 0.667499 -0.104534 -0.0101846 0.0341874 -1.05733 -0.976002 0.101931 1.246 0.54338 0.835013 1.41182 0.067963 0.377091
8 0.0577643 -0.192157 -0.0252822 0.0541856 -0.199644 1.01235 -0.177135 -0.384687 0.401018 -0.191089 0.018301 0.393659 0.41732 -0.740548 -0.598738 0.187672 -0.830011 1.01619 0.302027 -0.0131962 0.722706 -0.372525 -0.588058 -0.632554 -0.0285405 0.337381 0.0940722 0.612617 0.0101617 -1.055 -0.520893 -0.297476 -0.0885631 -0.433709 0.309304 -0.176938 0.306985 0.157188 -0.555655 0.513585 -0.367698 -0.760777 0.0146418 0.217425 -0.44167 0.00470571 -0.0993704 -0.223463 -0.00211523 0.696296 0.0573473 -0.538185 -0.348137 0.13873 0.061475 -0.0995746 -0.0243959 0.103195 0.915036 -0.317619 -1.01789 0.671408 -0.0379251 -0.217039 0.845255 -0.29128 -0.179549 0.305597 0.00454946 0.0868809 0.153868 0.292067 0.229152 -0.123675 -0.248411 -0.276672 -0.287523 -0.761586 -0.0892861 0.385366 -0.481685 0.376366 -0.0940655 0.497666 0.197353 0.0447479 -0.0269854 0.044442 0.0935643 0.141416 0.188173 0.635253 -0.332912 0.487467 -0.32281 0.0926618 -0.296258 -0.385148 -0.0648668 0.74388 0.127375 0.214112 -0.00750646 -0.144222 -0.13158 -0.0103057 -0.564989 0.671722 0.626622 0.451021 0.975724 0.175684 -0.478765 0.530735 -0.22336 0.322402 -0.759018 0.0517517 0.00581215 0.133879 -0.64289 -0.61138 0.382927 0.786435 0.403647 0.556011 0.27145 -0.18347
281 0.296276 -0.31945 0.408398 0.231812 -0.0913299 0.304594 0.113299 -0.698686 0.446299 0.0572606 0.241524 0.596725 0.360132 0.149431 0.0455478 -0.0014589 -0.462826 0.395539 0.07087 0.233484 0.715896 -0.915369 -0.382694 -0.332822 -0.201037 0.0689647 -0.101343 0.573507 -0.539684 -0.599563 -0.276131 0.171672 -0.107171 -0.0607851 0.0132033 0.0631848 -0.01419 -0.0384762 -0.493603 0.0845072 -0.196153 -0.550715 0.103559 -0.206949 0.243021 0.250243 -0.0386604 -0.00920907 0.086996 0.361225 0.21299 -0.369014 -0.265163 0.0839146 0.20412 -0.143509 -0.191527 -0.287485 0.343843 -0.68353 -0.170487 0.384345 -0.330069 0.522657 0.44279 0.22532 0.13617 0.54915 0.0838829 0.289348 0.134531 0.135922 0.154402 -0.0256175 0.18225 -0.493314 -0.00550443 -0.684306 -0.484792 0.458877 -0.0744638 -0.137056 0.0802984 -0.088579 0.280955 -0.0830524 0.015881 0.796375 -0.0332391 -0.334653 0.175982 0.237193 -0.307468 -0.125134 -0.63643 0.216524 -0.0844975 -0.439246 0.119415 0.152008 0.273829 0.318546 -0.0491072 -0.194607 -0.135049 -0.141222 -0.146727 0.579104 0.270055 -0.474464 0.484448 0.00750048 -0.878811 0.275422 -0.112259 0.454621 0.203315 -0.00913569 -0.02794 -0.0532132 -0.496495 -0.283329 0.522645 0.40148 0.175982 0.656149 -0.293051 -0.01277
1996 -0.308204 -0.338787 0.339346 0.0830722 0.344216 0.386869 -0.535826 -0.237061 0.575097 -0.124991 0.342592 0.130249 0.559334 -0.040263 -0.463664 0.105675 -0.147686 0.280452 0.0606689 0.169446 0.567954 -0.778442 -0.147756 -0.330217 0.152246 -0.0267901 -0.0482842 0.36575 -0.465803 -0.615581 -0.705123 0.0336154 0.136859 -0.460245 -0.111585 0.034587 0.060272 -0.0603918 -0.809202 0.250722 -0.164843 -0.357383 0.127637 0.0296458 -0.353349 -0.0178888 0.0188497 -0.416982 0.0680154 0.589731 -0.0108397 -0.717634 -0.661324 0.264154 0.0875943 0.165656 0.57358 0.489911 0.969622 -0.121981 -0.390981 0.689236 -0.901822 -0.0876824 0.230611 -0.173708 -0.192928 0.173107 0.257309 -0.210253 -0.154899 -0.254241 0.0877059 -0.0735058 -0.643001 -0.778632 -0.0109412 -0.385967 -1.04459 0.73487 -0.0212658 0.548081 -0.208628 0.272721 0.0224493 0.206105 0.502667 0.0881892 0.149589 -0.381141 0.20964 0.390232 -0.0557348 0.437754 0.016732 -0.0790357 0.0724133 -0.754097 -0.254063 0.201501 0.0357732 0.375061 0.0281468 -0.334261 -0.31575 -0.0265755 -0.267583 0.00728853 0.709811 -0.8293 0.580679 -0.0893951 -0.476716 0.64876 -0.0736521 -0.135772 -0.573224 0.252116 -0.124586 -0.541461 -0.642002 -0.397058 0.377959 0.127721 0.670867 0.329491 0.857151 0.0393705
269 0.133468 -0.619459 0.321667 -0.283095 0.0349292 1.25093 -0.384665 -0.727517 0.984123 -0.0485181 -0.679002 0.454719 -0.0127325 -0.0146942 -0.0822223 0.0625269 -0.835781 0.278386 0.389757 0.127604 0.659199 -0.857967 -0.3622 -1.06142 -0.363105 0.0619737 0.0283059 0.00201528 -0.243605 -1.00895 -1.07744 -0.268486 -0.152646 -0.112497 0.222931 -0.0902618 0.207765 0.147642 -0.802716 0.353427 -0.115702 -0.736582 -0.13212 0.0157472 -0.355841 -0.0881711 0.168622 -0.291911 0.439752 0.985198 -0.138096 -1.08353 -0.56281 -0.152228 -0.162705 0.162386 0.392805 0.139736 0.385629 -0.127497 -0.926535 1.04239 -0.823694 -0.101144 0.610458 -0.386629 -0.148453 0.512531 -0.0635252 0.283386 0.123793 0.0166764 0.260749 0.531787 -0.130717 -0.335585 -0.400872 -0.547831 -0.238609 0.943617 -0.417969 0.00765961 0.197163 0.0111664 0.210209 -0.00639976 0.229696 0.566252 -0.159979 0.0520191 -0.0260336 0.633095 -0.234553 0.250669 -0.40465 -0.42618 -0.274507 -1.1242 0.136364 0.630409 0.244593 0.346172 -0.107981 -0.473096 -0.21121 -0.0273786 -0.619293 0.825467 0.916521 -0.696259 0.657939 0.282693 -1.41903 0.711122 -0.173797 0.289645 -0.928544 -0.0447251 0.0553559 -0.217532 -0.38392 -0.316577 0.738402 0.322308 0.557922 0.81446 0.790486 0.679352
9 -0.431043 0.0146621 0.288614 0.728494 0.061009 0.3561 -0.208437 -0.11645 0.646456 -0.637856 0.0516134 1.07325 0.467193 0.0100223 -0.658484 0.888095 -0.294192 0.430125 0.30553 -0.151064 0.261138 -0.391907 -0.111357 -0.50008 -0.734366 0.103431 0.752081 0.143485 -0.577071 -0.110966 -0.470374 -0.167053 -1.31908 -0.0814262 0.726005 -0.750788 0.534333 -0.364516 -0.115168 0.486242 -0.628511 -0.581757 -0.101985 -0.151406 -0.472079 -0.736132 -0.0772891 -0.558509 -0.283887 0.731304 -0.427919 0.113579 0.0219429 0.0637816 0.92664 0.371339 -0.0571508 0.163986 -0.0612193 -0.200778 -0.357953 0.12914 -0.102535 0.331955 -0.180948 0.0793075 -0.730529 0.89863 1.01553 -0.060413 -0.189567 0.821624 0.0587971 -0.275261 0.0947761 -0.508308 -0.594803 -0.021345 -0.483416 0.649274 -0.226982 0.200439 -0.043204 1.03512 0.506029 -0.10605 0.131661 0.848259 0.244111 -0.646391 0.290823 0.0350346 -0.45425 0.497344 -0.591702 -0.255131 -0.277851 -0.371079 0.748624 0.557825 0.606514 -0.206163 -0.00687785 -0.555071 -0.52872 -0.109471 -0.165796 0.308618 -0.126722 0.249096 0.358541 0.124955 -0.457549 0.611904 0.735827 0.615685 0.212204 1.28424 -1.04755 -0.272262 0.113667 -0.271855 0.293466 0.573758 0.449657 0.357921 0.293501 -0.151929
2614 0.0396462 0.0188038 -0.168997 0.403859 -0.191297 -0.115961 0.147402 -0.924079 0.225547 -0.725723 -0.274946 1.04088 0.402761 0.185444 -0.626295 0.384396 -0.210553 0.523 0.443173 -0.0100853 0.136935 -0.686864 -0.0113198 -0.332523 -0.359685 0.00499961 0.624872 -0.0934821 0.172773 -0.244105 -0.520992 -0.0980151 -0.908547 -0.609699 0.928939 -0.257593 0.726164 -0.774034 -0.144993 0.502118 -0.584602 -0.529782 0.109325 -0.0831322 -0.281025 -0.0596668 -0.0460327 -0.945593 -0.485123 1.31895 0.0422161 -0.588367 -0.268557 -0.236895 0.720398 0.590722 -0.0319841 0.130441 -0.362968 -0.569281 -0.0926604 0.293669 -0.147409 0.178337 -0.0289062 -0.119151 -0.648299 1.0766 1.07459 0.394746 0.0556827 0.572596 0.695815 -0.112855 -0.192842 -0.432007 -0.829479 -0.0288055 -0.416037 1.34609 -0.0758646 -0.0735581 -0.352008 0.886966 -0.0795518 -0.222136 -0.0508293 0.873443 0.122885 -0.683671 0.78748 0.10144 -0.333807 0.475948 -0.223987 -0.00256882 -0.50702 -0.675495 0.784457 1.20995 0.684727 -0.12315 -0.128669 -0.465476 -0.375447 -0.225561 0.151826 0.448324 -0.223956 -0.088251 0.106868 0.109216 -0.00263208 -0.0331164 0.0611586 1.07862 -0.799979 -0.414685 -0.780692 -0.423933 0.130912 -0.0894847 0.446377 0.584249 1.04286 0.0338852 -0.0180491 -0.0990186
723 -0.0551415 0.078333 0.2121 -0.0851089 0.0569694 -0.0898545 0.0373729 -0.716559 0.585489 -0.359232 -0.152581 0.98612 0.280909 -0.0528611 -0.216154 0.405352 0.0673329 0.177788 0.586856 0.0168452 0.160335 -0.565795 -0.244656 -0.73703 -0.671677 0.304717 0.613029 0.0891299 -0.0136237 -0.0692652 -0.540965 0.202475 -0.940927 -0.250583 0.988308 -0.598149 0.654787 -0.914348 -0.763485 0.870734 -0.422504 0.16931 0.132765 -0.124669 0.010818 0.0429324 -0.179818 -0.528187 -0.0494759 0.91702 -0.370162 -0.274348 -0.247793 -0.0274674 0.732082 0.68962 -0.0214224 0.347936 -0.0944513 -0.41365 -0.144244 0.133955 -0.0132085 -0.205355 -0.153983 -0.121464 -0.413561 0.48674 0.806002 0.613041 0.129119 0.656264 0.0375713 0.158643 -0.034258 -0.227506 -0.643588 -0.495587 -0.760031 0.80105 -0.169153 0.0838944 -0.252027 0.838745 0.752837 -0.313078 -0.292026 0.666463 -0.109698 -0.579378 0.324911 0.0767652 -0.585455 0.405125 -0.51106 -0.508755 -0.618267 -0.379539 0.575909 0.371963 1.11809 -0.187321 0.0145429 -0.588369 -0.126854 -0.108826 -0.0188278 0.929405 -0.110112 -0.36197 -0.00568158 -0.109916 -0.510126 0.418336 0.795237 0.790379 -0.476331 0.224842 -0.245401 -0.415065 0.0523505 0.229531 -0.150998 0.582829 1.0611 0.0697912 0.487122 -0.117052
10 -0.874441 -0.0189019 0.126813 0.497698 0.417105 0.116722 -0.211127 -0.468721 0.390834 -0.172133 0.0375956 0.371217 -0.02233 0.168764 0.198621 0.330415 -0.585366 0.173384 0.481134 0.00955345 0.668503 -0.685488 -1.25067 0.0787683 -0.470623 0.497809 -0.0126129 0.478446 -0.347957 -0.118909 -0.380797 -0.441558 -0.191602 -0.602247 -0.0365947 -1.24677 -0.158545 -0.00217024 -0.374965 -0.292997 -0.0703148 -0.361586 -0.431248 0.47705 -0.697149 0.264786 -0.431928 -0.159092 0.223986 0.0548613 0.293728 0.0962425 -0.521545 0.0453524 0.701083 -0.168731 0.3583 -0.117689 0.0814517 -0.139239 -0.168165 -0.21569 -0.633794 0.250926 0.190399 0.188797 -0.600776 0.627734 0.443632 0.288099 -0.603118 -0.19789 0.91142 0.253398 0.101408 -0.142637 -0.289645 0.184289 -0.0991945 0.569891 -0.00638594 0.362526 0.641232 -0.258267 0.1888 -0.112215 -0.0470464 -0.00551045 0.368121 0.254826 0.360715 0.221142 -0.780585 0.31841 0.160032 -0.0797784 -0.831366 -0.208507 0.582151 0.363643 0.786211 0.139697 -0.00737571 -0.0631197 -0.0912578 -0.39807 -0.295096 -0.227171 0.201896 -0.0984039 0.345544 0.696545 -0.289714 0.648626 0.238635 0.474482 -0.851554 0.971376 0.163242 -1.46118 -0.486051 -0.472013 0.642756 -0.09284 0.723816 0.513163 -0.0111033 0.31849
476 -0.0759916 -0.314232 0.144313 0.0447362 0.390982 -0.105736 -0.103915 -0.501549 0.193378 -0.0271666 -0.0446053 0.288297 -0.0615734 0.0152388 0.365422 -0.0641631 -0.170069 -0.311502 -0.0437144 -0.359379 0.31848 -0.963072 -0.293099 0.251203 -0.418499 0.111913 0.287377 0.501003 -0.765692 -0.174779 -0.52416 -0.168899 -0.308852 -0.461703 -0.0537411 -0.316088 0.0293915 0.23696 -0.299269 -0.427508 0.141318 0.274231 -0.186142 0.106428 -0.16087 -0.0396499 0.297399 0.235905 0.472756 -0.0487519 0.125658 -0.0819552 -0.0747726 0.0684321 0.905501 -0.0973026 0.433877 -0.259461 0.154724 0.0195949 -0.0615596 -0.0200887 -0.621477 -0.13758 0.388466 -0.0641964 -0.187979 0.777819 0.00909478 -0.284767 -0.467696 0.089557 1.03641 -0.0226463 -0.644089 0.199607 -0.732526 -0.104232 0.116079 0.266876 -0.105791 -0.121251 1.22712 -0.0985049 0.437417 -0.116502 -0.0840122 -0.0910806 0.396548 0.0535286 -0.125481 0.109911 -0.502468 0.353901 -0.575643 0.0272237 -0.583629 -0.155507 0.73736 0.299466 0.678234 -0.051833 0.0486596 -0.0456965 -0.201095 -0.311425 0.0416798 -0.331731 0.199449 0.0754555 0.183417 0.955423 0.0351988 0.260204 0.0935935 0.475821 -0.171912 0.340998 0.140312 -0.852121 -0.22907 -0.254034 0.464642 0.281756 0.974285 0.505171 -0.118499 0.456552
2545 -0.69724 -0.159142 0.547201 0.0710139 0.372042 -0.016172 -0.570536 -0.421848 0.399679 -1.067 -0.729032 0.533602 0.297638 -0.113663 0.174876 -0.087444 -0.552472 0.0257185 0.0824801 -0.230184 0.982236 -0.71734 -0.988442 -0.021531 -0.295124 0.457862 0.749241 0.42321 -0.852771 -0.0990369 -0.614925 -0.0454678 -0.488108 -0.843159 0.225873 -0.0866651 0.0210407 0.352334 -0.54774 -0.514145 -0.260622 -0.308088 -0.303638 -0.127537 -0.0126227 -0.0564162 -0.282146 -1.04185 -0.0633593 -0.0767117 0.0958861 0.128496 -0.485525 -0.537965 0.457753 0.107635 0.704965 -0.242856 0.533722 -0.0759748 -0.0654042 -0.393983 -0.573762 0.555434 0.0774901 0.289306 -0.380268 0.451034 -0.0808975 -0.19799 -0.808993 0.0699909 0.629843 0.0437947 -0.419455 0.0682273 -0.261195 -0.0293472 0.0565031 0.964426 0.102497 0.160206 0.820551 0.19806 0.763098 -0.265514 -0.0294991 0.19304 0.627636 -0.331832 -0.318173 -0.398768 -0.774056 0.388066 -0.135257 -0.20565 -1.03993 -0.286065 0.557959 1.07273 0.416439 -0.420635 0.232334 0.07078 0.424659 -0.885411 -0.318527 -0.164418 0.233678 0.135313 -0.0412564 1.14777 -1.13068 0.554666 0.116185 0.803742 0.528865 0.259514 0.318494 -0.258843 -1.15526 -0.317061 0.39613 0.0510955 0.79647 0.81351 0.481053 0.821306
11 -0.0955902 0.242802 0.307853 0.35273 0.508257 0.468645 -0.488535 -0.413169 0.176636 -0.185546 -0.197848 0.570679 -0.0127651 0.208234 -0.337858 0.141725 -0.524535 0.495487 0.309386 -0.186603 0.215815 0.203742 -0.124281 -0.0727489 0.110326 0.588292 0.0777723 0.26603 0.158282 -0.563062 -0.025044 -0.0186548 -0.261511 -0.672089 0.406291 -0.108744 0.210956 -0.139008 0.0105673 -0.0707524 -0.107393 -0.362951 -0.0509233 0.452421 -0.133961 0.0757153 -0.104555 -0.806695 -0.146407 0.760998 -0.719536 -0.534584 -0.479422 -0.286515 1.00104 0.333899 -0.169026 0.306915 0.671766 -0.342682 -0.428434 0.0474755 -0.148391 0.168276 0.705642 0.190097 -0.141626 0.731022 -0.166428 0.0223338 -0.347271 0.349559 0.0234187 0.241813 -0.236065 -0.326489 -0.0330183 0.126832 -0.369133 0.662957 -0.496484 0.773206 0.466893 0.0417994 0.128506 -0.00966523 0.490304 0.21174 -0.0337879 -0.381341 -0.171864 0.176294 -0.457335 0.194798 -0.361523 -0.433626 -0.242677 0.0572694 0.337213 0.249765 0.122543 -0.140081 -0.233325 -0.516582 -0.345104 -0.00134625 0.230669 0.454907 0.811557 -0.522657 0.390935 0.355688 -0.0937287 0.22577 0.93913 0.12722 -0.157341 0.371467 -0.171901 -0.159853 -0.659776 -0.0790482 0.0551964 0.205772 -0.0350735 0.0631809 0.28408 -0.23198
1655 -0.0188724 -0.191413 0.524318 0.209615 0.0496093 0.31477 -0.981619 -0.0424915 0.10407 -0.222882 0.151305 0.273755 0.0406764 -0.0241178 -0.229278 -0.0180355 -0.39206 0.411716 0.310879 -0.274582 0.198805 0.0218136 -0.193369 -0.0641683 -0.0544406 0.547106 -0.202006 0.127917 0.0307669 -0.388366 -0.237582 -0.519723 -0.477209 -0.529638 0.305954 -0.0181423 0.424698 -0.135159 0.0689656 0.294858 -0.136863 -0.455319 -0.387506 0.688003 0.171177 -0.073831 0.0329542 -0.427284 -0.151073 0.264257 -0.416468 0.00469691 -0.25009 -0.138328 0.379628 -0.00024298 -0.346584 0.17739 0.0105951 -0.295558 -0.209603 -0.240841 -0.20341 -0.111101 0.675638 -0.503576 -0.101203 0.0721606 -0.1197 -0.0870391 -1.02706 1.02532 -0.00568312 -0.0768634 0.0392122 -0.195961 -0.218123 -0.259894 -0.581109 0.669474 -0.387143 0.487347 0.399283 0.0966002 -0.0224999 0.139012 0.540535 0.867817 0.0574463 -0.613703 0.083285 0.263951 -0.234225 0.901957 -0.262551 0.118717 -0.22144 0.135309 0.139223 0.474752 0.102201 -0.0584459 -0.107659 -0.49831 -0.136234 -0.291763 -0.010614 0.668473 0.538475 0.0358636 0.343557 0.51644 -0.158672 0.120432 0.798146 0.250495 0.0496845 0.277077 0.0661519 0.296878 -0.513601 -0.551363 -0.135596 0.4071 0.0514872 -0.0495126 -0.0590003 0.299933
1839 0.436554 -0.23924 -0.113032 0.62549 0.33879 0.426526 -0.96971 -0.240305 0.35328 -0.224448 -0.501027 0.534266 0.0413188 -0.143692 -0.154932 0.0726096 -0.705283 0.697506 0.33684 -0.250931 0.370127 0.0950554 -0.219987 -0.0691518 -0.249909 -0.253345 -0.09727 0.375734 -0.0221023 -0.389986 -0.0679894 -0.360854 -0.153176 -0.25151 0.359099 0.0114262 0.0680504 0.00437075 -0.0821773 0.172303 0.0487721 -0.440674 -0.364078 0.481956 -0.193774 0.286665 -0.0318203 -0.204564 -0.234334 0.666304 -0.128347 -0.186074 -0.251631 -0.187043 0.782058 -0.194344 -0.517732 -0.14858 0.175528 -0.313083 -0.457677 0.0656688 -0.00287426 0.0244238 0.669935 0.25506 -0.0258373 0.585786 0.0257613 5.74098e-05 0.194073 0.0507482 0.0317548 0.503296 -0.281416 -0.0281466 -0.0420632 -0.110341 0.0611051 0.694111 -0.566067 1.20208 -0.371319 -0.328575 0.661268 -0.116715 0.470587 0.510778 -0.102959 0.00970659 0.182001 -0.172159 -0.0430198 0.0166273 -0.492654 -0.12875 -1.15856 -0.0130691 0.0696091 0.0916345 -0.105435 -0.144699 -0.476713 -0.316931 -0.615368 -0.482877 0.154285 0.427113 0.291215 -0.454241 0.4158 0.421115 0.0779131 0.459326 0.211418 -0.0602044 -0.216516 0.144571 0.0115434 -0.0212995 -0.800167 -0.237145 0.00507451 0.426335 0.176347 0.0246322 0.0843211 -0.159345
12 -0.819739 -1.02822 0.586246 0.168044 0.279305 0.49829 0.0117627 -1.01512 0.312751 -0.99623 -0.824818 0.966178 0.0262612 0.169482 -0.434403 0.9677 -1.21977 -0.200609 0.100768 -1.43965 0.656513 -0.231145 -0.830673 -0.896979 -0.967785 0.112501 0.118605 0.307074 0.121789 -0.16415 -0.143554 0.0889354 -1.07517 0.231466 -0.213833 -0.85551 1.04883 -0.227447 -0.453511 0.116062 0.0788787 0.263271 -0.334319 0.777736 -0.865438 -0.0826615 -0.367648 -0.127059 -0.134749 0.0443735 0.136605 -0.996444 -1.01641 -1.11317 -0.0893461 0.668582 -0.182847 0.913925 0.54556 -0.00268408 -0.344123 0.510893 -0.867899 -0.103324 0.299733 -0.86999 0.0708198 0.711915 0.00743136 0.0153363 -0.17506 0.265203 -0.0515707 0.0170953 0.0907497 -1.01961 -1.15328 -0.333312 0.127347 1.14402 -0.184161 0.704993 0.451587 -0.0371748 -0.0170575 0.134678 1.00677 0.334586 0.0641178 -0.270607 0.109103 0.248666 -0.977562 -0.0800091 0.222528 -0.28427 -1.18169 -0.414768 0.973096 0.00114193 1.07177 0.0900355 0.840332 -0.521266 -0.0370572 -0.384368 -0.382487 0.356755 0.921279 -0.265479 -0.00470754 0.770864 0.0221958 1.11907 0.181659 0.583721 -0.0939945 0.0508548 -0.132496 -0.783407 -0.253766 -0.0831172 -0.232539 0.0528177 -0.0992623 1.03257 0.0567965 0.274294
2661 -0.548339 -0.883686 0.268341 0.429436 0.223296 0.730161 -0.129865 -0.801036 0.474587 -0.51123 -0.476944 0.819654 -0.0300322 -0.139744 -0.576772 0.746673 -1.42521 0.237179 0.232672 -0.981967 0.635986 -0.404624 -0.748443 -0.401025 -1.14534 0.467201 0.235627 0.418535 -0.186467 -0.196514 -0.223636 -0.317522 -1.07809 0.0627863 -0.0272196 -1.13771 0.994533 -0.250567 -0.277614 0.484167 -0.317914 -0.191919 -0.556475 0.660983 -0.713155 -0.40991 -0.568634 -0.642246 -0.401735 0.387095 0.0757359 -0.824309 -0.941877 -0.868152 0.216357 0.495298 -0.0803658 0.597771 0.569816 -0.155911 -0.742209 0.71384 -0.796569 0.232536 0.728486 -0.75072 -0.324704 0.412751 0.399518 0.202143 -0.369321 0.817743 0.476813 0.180178 -0.125606 -1.1677 -0.829757 -0.701652 -0.0633041 0.911946 -0.466777 0.746875 0.617956 0.170709 0.119955 0.0396045 0.913419 0.879184 0.48374 -0.311437 0.385994 0.787458 -0.929495 0.050579 0.0903809 -0.394988 -1.09639 -0.55571 1.05446 0.175633 0.827447 0.355989 1.03663 -1.25461 0.0234502 -0.690922 -0.515099 0.524769 0.936176 -0.535684 0.1107 0.776076 -0.206467 0.945598 0.214831 0.0107579 -0.205651 0.218294 -0.226102 -1.24913 -0.412494 -0.027207 0.138056 0.0159741 -0.0142386 0.995919 0.0419151 0.406068
1001 -1.01192 -0.85186 0.528639 0.568252 0.247236 0.620288 -0.056953 -1.16883 0.7844 -0.692619 -0.313247 1.64554 -0.134526 0.0127426 -0.32148 0.807321 -1.67813 0.0959111 -0.0368025 -0.546091 0.507432 -0.217345 -0.477482 -0.400648 -1.31398 0.451518 0.0686874 0.220976 0.292767 -0.0374671 -0.000659354 0.233625 -1.24106 0.440306 -0.287453 -1.57284 1.49865 -0.10613 -0.0658847 0.224792 -0.108942 0.240925 -0.220405 0.582942 -1.03814 0.120347 -0.549238 -0.321555 -0.241338 -0.0241498 -0.472303 -0.992744 -1.09066 -0.804015 -0.0410085 0.946869 -0.256473 1.09258 0.207854 0.110305 -0.684403 0.147418 -0.879267 0.0837047 0.190034 -1.36779 0.0254677 0.695758 0.436825 0.0271881 -0.334234 0.671543 0.440504 -0.00684293 0.322404 -1.4816 -0.663656 -0.481758 0.262645 1.50136 -0.11264 0.559534 0.630949 -0.108818 -0.0119193 0.32247 1.2072 0.938301 0.0990968 -1.13953 0.118022 0.347759 -1.18428 0.0399406 0.484286 -0.209802 -1.04589 -0.404518 1.51456 -0.112052 0.89403 0.251232 0.795381 -0.758362 0.0754536 -0.315937 -0.348584 0.229469 1.36904 -0.156216 0.352411 0.522316 0.16493 1.41905 -0.0763262 0.33415 -0.0394941 0.13742 0.0109838 -1.23565 -0.156332 0.260978 -0.185516 0.0187296 0.0515273 1.11395 0.0251454 0.45898
1318 -0.838952 -0.414247 1.0722 0.269274 1.0468 0.809287 -0.342798 -0.785836 0.484248 -0.483948 -0.447717 0.876574 0.443859 0.325574 -0.532941 0.883092 -1.45372 0.155473 0.14395 -0.990561 1.33705 -0.320066 -0.412071 -0.803232 -0.786081 0.449991 0.152122 0.412146 0.133193 -0.226444 -0.126953 -0.0282411 -0.931013 0.0295089 -0.0786439 -0.693733 1.0567 -0.335048 -0.730641 0.949216 -0.152658 -0.145924 -0.408653 0.0669651 -0.403435 -0.0457988 -0.419737 -0.259512 -0.24515 0.488867 -0.016267 -0.792342 -0.941412 -0.547054 -0.00508663 0.406288 -0.208019 0.726252 0.775622 -0.181854 -0.497129 0.392333 -0.679178 0.270998 0.449435 -0.748268 -0.0546854 1.26896 0.238906 0.264798 -0.35572 0.751587 0.272865 0.147932 -0.0533203 -0.555855 -0.786104 -0.346245 0.0375852 1.07533 -0.319712 0.722674 0.129225 0.222659 0.114538 0.0471082 1.01361 0.417839 0.0879406 -0.323557 0.182112 0.270722 -0.833667 0.146511 0.190363 -0.394053 -1.01621 -0.364396 0.899074 0.113055 1.21967 0.123364 0.247562 -1.1352 -0.153809 -0.259908 -0.243098 0.639227 0.920927 -0.485153 0.246012 0.947842 -0.0955755 1.08355 0.16882 1.00624 -0.164087 0.0730989 -0.310893 -0.801592 -0.166011 -0.0369299 0.00930828 0.0666397 0.124008 1.22109 0.624218 0.863589
2662 -0.811484 -0.835827 0.495246 0.356408 0.189374 0.430754 -0.574158 -1.06308 0.314803 -0.877878 -0.229711 1.32354 0.121893 -0.654187 -0.556305 0.871035 -1.38668 0.319228 0.204819 -1.39492 1.06338 -0.255445 -1.10312 -0.91321 -1.06637 0.67483 0.24375 0.115384 0.00406845 -0.123529 -0.388886 -0.0183867 -1.15955 0.232429 -0.0877342 -1.22965 1.26916 -0.15085 -0.401367 0.212522 0.14047 0.0208154 -0.33448 1.02034 -1.09834 -0.186961 -0.523139 -0.497854 -0.42445 0.203509 -0.0534797 -0.93996 -0.759988 -1.12606 -0.146578 0.70914 -0.126259 0.756266 0.455868 -0.188922 -1.20212 0.562513 -0.309794 0.611852 0.717784 -1.30333 -0.043744 0.758754 0.108709 0.135666 -0.395959 0.495649 0.0389044 0.141891 0.000447145 -0.767982 -0.917672 -0.162574 0.0626766 1.36689 -0.253096 0.669632 0.677073 0.0150598 -0.0248351 0.0294194 1.28856 1.20248 0.158086 -0.31686 0.750821 0.264299 -1.08014 0.147566 0.345642 -0.286624 -1.35308 -0.5416 1.13551 0.108908 1.17591 0.21479 0.673533 -1.05105 0.0129419 -0.404886 -0.213982 0.350104 0.96815 -0.144613 0.175121 0.591606 0.018249 1.12911 0.246299 0.31437 -0.245184 -0.135901 -0.556448 -1.36924 -0.49301 -0.400644 -0.0923487 0.0897261 0.0745084 1.09652 0.0860997 0.234771
13 -0.167624 -0.499005 0.455673 -0.0582543 0.105193 0.0957175 0.0149298 0.0371204 0.163299 -0.163914 -0.652342 0.385511 -0.198691 0.0491925 -0.280531 -0.103026 -0.461726 0.357321 1.03655 -0.156433 0.241849 -0.116241 -0.107397 -0.0155092 -0.248813 0.114305 0.263803 0.258 -0.740457 -0.150834 -0.069671 -0.592332 -0.794804 -0.182599 0.344181 -0.540941 0.520559 -0.467863 -0.357395 0.060372 -0.240074 -0.414003 -0.0735532 0.245082 -0.696537 -0.0934907 -0.213528 -0.428149 0.000997219 -0.0630942 0.138671 -0.0323752 -0.394635 0.0203869 0.12469 0.105386 -0.261836 -0.0498388 0.327191 -0.258108 -0.186691 0.0194434 -0.330156 -0.30019 0.711089 -0.201013 -0.241497 0.46628 -0.110615 0.374293 -0.180033 0.098018 0.273522 -0.0284728 0.185588 -0.0255181 -0.336155 -0.457784 -0.220361 -0.112424 0.0973966 0.928363 -0.247129 0.189834 0.374682 -0.547597 0.299421 0.265539 0.303496 -0.335949 0.518732 0.0834476 -0.411335 0.300444 -0.229475 -0.170415 -0.148661 0.195592 0.448902 0.348997 0.00958931 0.999894 0.124644 -0.2338 0.0616988 0.0391777 -0.268274 -0.186344 -0.0447271 -0.0876751 0.740298 0.631426 -0.182215 0.234023 0.760631 0.118382 0.00824693 0.318293 0.284573 0.0863435 0.0811998 -0.440438 -0.234691 0.180104 0.707175 0.783534 0.194941 0.309198
1810 0.0767603 -0.495823 0.303927 -0.0933349 0.372807 0.192528 -0.104298 -0.126536 0.162134 -0.332353 0.156382 0.0425685 0.427831 -0.1017 -0.762221 -0.0724436 -1.00123 0.463381 0.376959 -0.556936 0.179583 0.0337331 0.0743953 -0.214633 -0.181398 0.106058 -0.0599434 0.329952 0.0527501 -0.482167 -0.370988 -0.0988921 -0.372305 -0.6939 0.120285 -0.796635 0.44354 -0.580905 -0.898235 0.302965 -0.58432 -0.105986 -0.447228 -0.0860572 0.150402 -0.484297 -0.0916587 -0.139264 -0.198654 0.0570757 -0.220694 -0.975263 -0.448231 0.0763761 -0.0522324 0.143256 -0.11718 0.3028 0.0853712 -0.17597 -0.206125 0.654386 -0.297392 0.149004 0.306502 -0.984272 -0.294102 0.293306 0.445929 0.240178 0.00787116 0.171556 0.118363 0.281022 -0.366547 -0.574561 0.0947854 -0.0726618 -0.204341 0.0378334 0.0162156 1.23024 0.26666 0.194829 0.353758 -0.290868 0.0374207 0.234709 0.0709514 -0.121298 0.228736 0.399397 -0.267144 0.779603 -0.487755 -0.596082 -0.0783347 0.106199 0.373688 0.510082 0.151154 0.197037 0.681514 -0.268187 -0.186043 -0.180375 0.0891175 0.302619 0.209901 -0.218841 0.72121 0.0814173 -0.533165 0.462706 0.763092 0.825423 -0.24036 0.0222266 0.134988 -0.285313 -0.38476 -0.642146 0.706782 0.314598 0.0917603 0.549112 0.269831 0.234988
1701 -0.163713 -0.314186 0.0497957 0.0385096 -0.0361112 -0.133013 0.198485 -0.28153 -0.0178509 -0.130795 -0.0472157 0.453108 0.100581 -0.0246782 -0.357535 0.199138 -0.180436 0.0320119 0.275215 -0.245267 0.136738 -0.0247431 -1.18607 -0.133375 -0.0940391 -0.201842 0.0133763 0.840478 -0.382793 -0.417512 0.0237443 -0.764073 -0.0708595 -0.0606131 0.00466919 -0.0682075 0.357614 -0.0186304 -0.0569067 0.542578 0.213124 -0.57168 -0.260393 -0.0242607 -0.870181 -0.0635709 -0.222824 0.0180465 0.0775874 0.0370319 0.12766 -0.383319 -0.612766 0.0447338 -0.134701 -0.0644187 -0.302069 -0.291774 0.605955 -0.0388405 -0.636478 -0.17322 0.348091 -0.074653 0.771781 -0.386996 0.0831285 0.449408 -0.0117362 -0.205555 -0.147587 0.53149 0.318889 -0.275706 0.162144 0.045317 -0.147553 -0.154695 0.0914652 -0.273578 -0.021153 0.738834 -0.0725435 -0.163418 0.598042 -0.85714 0.0118283 0.0105795 -0.116956 -0.392418 0.467338 0.514738 0.0956981 0.111756 -0.195167 0.0745475 0.105482 0.171182 0.0910261 0.191245 0.132482 -0.184255 -0.174387 -0.210826 -0.123856 0.0613721 -0.619701 0.0429815 -0.165614 0.0183255 0.128144 0.528986 -0.38326 0.100823 0.0385868 0.524254 0.102916 0.205496 0.376947 -0.128786 0.14585 0.0163149 0.910797 0.249561 0.474515 0.401042 0.329916 0.215759
14 -0.177723 0.077393 -0.0782689 0.284079 -0.122589 0.176632 -0.288744 -0.217102 0.281777 -0.232596 -0.352056 -0.225535 -0.208851 0.379191 -0.0813448 0.206207 -0.909277 0.872027 0.517096 -0.913802 0.146803 -0.210603 -0.304164 -0.0264735 -0.611995 0.609726 0.605807 0.0872843 0.11618 -1.09712 -1.30016 -0.152528 -0.419124 -0.182385 0.270981 -0.515302 -0.140314 -0.05624 -0.523761 0.0579614 -0.474661 -0.322919 -0.456841 0.108032 -0.332954 0.426091 -0.516565 -0.521933 -0.335326 -0.143298 -0.339541 -0.213527 -0.99053 0.269363 0.554282 0.290278 0.306143 0.528347 0.233088 -0.757241 -0.111455 0.605046 -0.22582 -0.0549623 0.200514 0.0167295 -0.0804217 0.238884 0.559048 0.0202743 -0.507525 0.275633 0.184284 0.0246329 -0.120302 -0.283725 0.112845 -0.674372 -0.189272 0.0998798 -0.279395 0.0370207 0.207791 -0.0108182 -0.0094879 -1.12416 0.145629 0.285941 0.313769 -0.0896991 -0.172003 -0.0623208 -0.331687 0.0446293 0.0690838 0.115544 -0.493539 -0.0298594 0.449168 -0.0800715 0.100903 0.539367 0.142951 -0.203116 -0.189058 -0.0609309 -0.108062 0.157557 0.26789 -0.290719 -0.0985376 0.614908 -0.253275 0.0970888 0.75635 -0.0170649 -0.300635 0.982497 0.0396893 -0.0828944 -0.408344 -0.431974 -0.164885 0.586485 0.698892 1.19572 0.155414 0.773733
2034 0.0204575 -0.495071 0.148647 -0.00225695 -0.012483 0.292668 -0.563133 -0.236514 -0.00768619 -0.0463334 0.191171 0.000920333 -0.190065 -0.154734 -0.297237 -0.266653 -0.585966 0.626587 -0.0581869 -0.583338 0.157336 0.0328659 -0.533196 -0.00445901 -0.73423 0.40983 0.388595 -0.201911 0.328334 -0.986248 -0.318877 -0.223327 0.0084842 -0.198887 0.804057 -0.183704 -0.195179 0.217582 -0.0155513 -0.154401 -0.0557539 -0.567096 -0.315195 0.63329 0.194667 0.344432 0.120491 -0.157988 -0.0310711 -0.199596 0.0707507 -0.324789 -0.771716 0.233491 0.664612 0.933622 0.258418 0.402796 0.344164 0.00341979 -0.27306 0.60681 0.159039 0.249046 0.286951 0.156417 -0.243895 0.355613 0.726604 -0.000848909 -0.755683 0.466478 -0.322039 -0.150332 0.0153095 -0.261515 -0.0842021 -0.74036 -0.210543 0.22664 -0.247097 0.164577 0.0930173 -0.0969623 -0.0921416 -0.483212 0.184578 -0.283181 -0.308247 -0.103756 -0.0415849 -0.184282 -0.230614 0.253769 -0.576651 -0.0892983 -0.206838 0.126066 0.344635 0.10617 -0.0308422 0.73423 -0.12526 -0.199915 0.0876974 -0.0676582 -0.104235 0.596879 0.848635 -0.441536 0.516099 0.000959088 -0.00368594 -0.0648909 0.213931 0.00918323 -0.0922452 0.138104 -0.623626 -0.547191 0.055175 -0.0922399 -0.0260862 0.400003 0.494544 0.858157 0.246982 0.247578
2075 0.0593517 0.22142 0.138315 0.094385 -0.0473505 0.105303 -0.464478 -0.0837219 0.499579 0.0228089 0.418018 -0.107917 0.301969 0.367937 -0.247839 -0.157504 -0.981648 1.15233 0.629278 -0.194409 0.0706103 0.0782182 -0.437069 0.313599 -0.0994671 0.254383 0.39844 -0.0403232 0.136306 -1.0823 -0.510075 -0.471789 -0.311708 0.220476 0.29402 -0.750238 -0.0905302 0.0624225 -0.561095 0.150343 -0.3593 -0.080928 0.136425 0.38344 -0.0597355 0.0667027 -0.303581 -0.285212 -0.341243 -0.117743 -0.39607 -0.0621486 -0.364315 -0.0340948 0.274273 0.183447 -0.134233 -0.188991 0.019446 -0.449722 -0.055622 0.614771 -0.195567 -0.108404 0.175394 -0.290186 0.13383 0.308129 0.281055 -0.241619 -0.596942 0.239674 0.12416 -0.214923 -0.420255 -0.0965115 0.203779 -0.505371 -0.610772 -0.0121546 -0.446525 0.0556032 0.0698266 0.0897612 -0.0210853 0.491054 -0.254833 -0.0809948 0.181259 -0.252227 -0.0273398 -0.284809 -0.188193 0.0911969 -0.347687 0.236536 -0.551494 0.0793166 -0.0535007 0.422623 -0.20338 0.622654 0.549379 -0.104526 -0.267374 0.136781 0.193865 0.23494 1.11144 -0.176461 0.504419 0.329957 -0.364337 -0.114567 0.35773 0.0731856 -0.457222 0.263967 -0.492258 -0.0432435 -0.349142 -0.723473 0.0591895 0.264349 0.415385 0.848318 -0.179793 0.302329
158 -0.25223 -0.199912 0.0816774 0.171397 0.325174 0.135006 0.159307 0.00695554 0.114498 -0.0920315 -0.325842 0.155209 0.14348 0.134524 -0.353428 0.169326 -0.584851 0.300594 -0.0667136 -0.206849 0.116671 0.274691 -0.0643483 0.145717 -0.44625 0.15617 0.632344 0.187122 -0.123009 -1.26086 -0.397933 -0.654495 -0.82823 -0.547995 0.242207 -0.287659 0.050358 0.0118362 -0.645791 0.185793 -0.623865 -0.134504 -0.536591 0.230177 -0.180324 -0.213735 0.161353 -0.15977 -0.493822 -0.0807702 -0.206185 -0.297594 -0.297291 0.155888 0.392733 0.503964 0.272202 0.325922 0.587682 -0.442004 -0.511987 0.566949 -0.153878 0.1819 0.228185 0.41272 -0.330048 0.157645 -0.194848 0.137535 -0.622981 0.335077 0.0826952 -0.0940065 -0.206697 -0.56833 -0.0471009 -0.602505 -0.347798 -0.145821 -0.0683066 0.682041 0.116691 0.268654 0.239142 -0.772688 0.402373 0.0491521 0.164565 -0.296661 0.29944 -0.134757 -0.381051 -0.0580844 -0.0788615 -0.250157 -0.440181 -0.017196 0.0457339 0.584965 -0.113263 0.143165 -0.130651 -0.163546 -0.821745 -0.0305279 -0.103276 0.0932275 0.264131 -0.237914 0.619267 0.452237 -0.334412 -0.0881038 0.4707 0.66598 -0.426947 0.23472 -0.214392 -0.0631366 0.0342608 -0.34792 -0.2117 -0.0474245 0.402917 1.02382 -0.259072 0.243074
2077 -0.067451 0.0640558 -0.0326121 0.483529 0.0482696 0.398671 -0.278838 0.0526094 1.43532 -0.520132 0.114486 -0.250512 0.121196 0.379229 -0.593715 -0.317753 -0.895577 0.801512 0.46224 -0.120513 0.157129 0.225857 -0.169844 0.20228 -0.2148 0.447958 0.572506 0.0642387 -0.013441 -0.573554 -0.69535 -0.360117 -0.0898202 -0.0833909 0.36005 -0.655511 0.105661 0.0474281 -0.729397 0.357861 -0.172157 0.0633158 0.148535 0.10586 -0.546547 -0.0127844 -0.470253 -0.103299 -0.372516 -0.114513 -0.462263 -0.354861 -0.625486 0.0445605 0.342734 0.31186 0.64096 -0.393624 0.22418 -0.564754 -0.36494 1.03903 -0.167057 -0.490622 0.498548 -0.247873 0.16936 -0.252604 -0.0253075 -0.25751 -0.562224 0.0215027 -0.0112159 -0.21672 0.128691 -0.276988 0.00845928 -0.734196 -0.42445 0.29906 -0.303234 0.015238 -0.160858 -0.0120321 0.0701692 -0.0815105 -0.0323515 0.145993 0.349591 -0.268612 -0.0649491 -0.270148 0.0376947 -0.118355 0.0929175 -0.0171048 -0.824932 0.36086 -0.05199 0.0710648 -0.28844 0.632332 0.249847 0.00472192 -0.148629 0.398684 0.00134388 0.501632 0.393398 -0.18558 0.227238 0.260427 -0.536756 0.0160968 0.366806 0.204926 -0.0901381 0.23978 -0.0857965 -0.334719 -0.190736 -0.447819 -0.125024 0.140142 1.01053 1.25867 -0.352076 0.62637
2668 -0.797896 -0.252099 0.0620922 0.363268 -0.101616 0.255181 -0.716323 -0.0363524 0.574355 -0.167598 -0.174886 -0.102575 0.358459 -0.301484 -0.148047 -0.152053 -1.34217 0.972263 0.387385 -0.581348 0.058652 0.00727491 -0.184662 0.118673 -0.396304 0.381577 0.8594 0.177396 -0.338774 -0.975286 -0.867065 -0.101239 -0.119029 -0.184645 0.531621 -0.341456 0.06174 -0.10494 -0.922379 -0.0635962 -0.622622 -0.387141 0.253905 -0.267856 0.197995 -0.125565 0.0773342 0.114345 -0.664413 -0.0735906 -0.465323 -0.145596 -0.183301 -0.310709 0.254408 0.305086 0.294818 0.239526 0.676901 -0.779372 -0.245395 0.580595 0.0153017 -0.165143 0.481657 0.155735 -0.234587 0.37217 0.664705 0.177711 -0.568513 0.731999 0.167694 -0.163314 -0.321246 -0.415917 0.31788 -0.372281 -0.0461972 0.516155 -0.528418 0.151359 0.298213 0.168348 0.0512146 -1.31058 0.191139 0.409403 0.210977 -0.0869673 0.0901438 0.134464 -0.317155 0.512632 -0.27604 0.27581 -0.382423 0.112445 0.548367 0.17078 0.140661 0.394277 0.327752 -0.182042 0.01943 -0.107925 -0.589258 0.0232628 0.447124 -0.254548 0.701547 0.704964 0.0332705 -0.304998 0.63457 0.243685 -0.621077 0.642535 -0.691181 -0.276227 -0.239371 -0.429414 0.164675 -0.0345661 0.512157 0.50402 0.433914 0.351548
15 -0.614519 -0.0266924 0.186817 0.858173 -0.155485 0.544225 -0.571423 -0.567721 0.276697 -0.128512 -0.149354 0.670345 -0.200444 0.133599 -0.143055 0.912491 -0.802626 0.346898 0.731389 -0.011998 0.232797 0.0109236 -0.619679 -0.825455 -0.262898 0.564859 0.17908 0.574044 -0.473136 -1.00079 -0.00500016 -0.878693 -0.0991756 0.0887735 0.697077 -0.601014 0.562002 -0.222222 -0.0563496 0.272114 -0.751935 -0.652632 -0.683725 0.132548 -0.293894 -0.520526 -0.712017 -0.0170868 -0.243125 1.07297 -0.720875 -0.642721 -0.363439 -0.291703 1.12895 0.106336 0.135884 -0.0515904 0.0734305 -0.249761 0.0799901 0.0809143 0.0729361 -0.178338 0.450522 -0.205767 -0.0164553 0.194758 0.071076 0.193182 -0.104484 0.89234 0.141394 0.117534 0.021779 -0.0645505 0.100891 -0.141708 -0.697155 0.313567 -0.0593174 0.7299 0.65101 0.686767 0.456908 -0.415663 -0.010184 0.575904 0.272217 -0.51295 0.946579 0.849169 0.0350587 0.697171 0.228727 -0.80602 -0.169855 -0.000770728 0.197389 0.609269 0.544059 0.507519 0.222095 -0.675297 -0.203991 0.0429915 -0.233711 0.101375 0.385701 -0.26359 0.0668732 0.429588 -0.2383 0.0100053 0.928861 0.109314 -0.0922694 -0.0289072 0.020418 -0.286453 -0.293911 -0.141313 0.732783 -0.0150932 0.455402 1.11867 0.803354 0.684455
2367 0.194376 -0.437355 0.278551 0.764244 -0.0248818 0.809678 -0.896282 -0.436058 0.183868 0.0311139 0.0261291 0.366733 0.104208 -0.011678 -0.00214011 0.667462 -0.869097 0.181789 0.142238 -0.104772 0.176003 -0.437875 -0.403916 -0.564524 -0.056915 0.262293 0.22647 0.120955 -0.0790876 -0.795731 -0.247471 -0.845146 -0.00530503 -0.013307 0.725649 -0.316002 0.469812 -0.112065 -0.191904 0.451498 -0.626626 -0.635319 -0.67938 0.157224 -0.133374 -0.265371 -0.765424 -0.161818 -0.0579254 0.67173 -0.366815 -0.49518 -0.244348 -0.648121 0.707969 -0.0539752 0.132029 -0.0129702 0.167264 -0.595468 -0.439847 -0.0101641 -0.114916 0.448751 0.412377 -0.0951065 -0.0361293 0.088121 -0.152356 -0.0219501 0.00774597 0.635081 0.226224 0.0369543 -0.1104 -0.154021 -0.999058 -0.307114 -0.352909 0.454131 -0.118636 1.02635 0.66502 0.200894 0.317486 -0.49762 -0.0261328 0.221522 0.04982 -0.336446 0.242775 0.435423 -0.0792268 0.845302 0.180983 -0.715304 -0.113722 -0.153928 0.190122 0.734524 0.486814 0.930888 0.387413 -1.07303 -0.090762 -0.156459 -0.129412 0.126565 0.262174 -0.0653886 0.0189536 0.356125 -0.720825 0.108272 0.467922 0.0500624 0.209551 0.114181 -0.0300801 -0.547331 -0.0406124 -0.0967363 0.551364 -0.179611 0.672954 0.910867 0.642124 0.277537
1093 -0.309989 -0.381215 0.659135 0.783794 -0.306499 1.21238 -0.687516 -1.16665 0.361467 -0.215048 -0.250184 0.348802 0.268089 -0.112588 -0.142251 1.11639 -0.970735 0.450788 0.373946 0.0257188 0.13959 -0.283706 -0.932174 -0.723577 -0.194564 0.981611 0.227443 0.139649 -0.284613 -1.11315 -0.442605 -0.634467 -0.15571 0.367186 0.737486 -0.667704 0.910486 -0.0402785 0.0174393 0.2771 -0.882741 -0.272202 -0.84662 0.540701 -0.126443 -0.153806 -0.915179 0.160052 -0.376101 0.859566 0.145183 -0.819865 -0.657072 -0.779662 0.39434 -0.124375 0.0743369 -0.179458 0.115332 -0.325977 -0.19046 -0.0574016 -0.230232 0.607626 1.08725 -0.391982 -0.108709 -0.117422 -0.0360915 -0.00395161 0.00863576 0.833935 -0.0971099 0.136136 0.0908418 0.162353 -0.78837 -0.356169 -0.401751 0.977003 -0.227312 0.736653 0.521699 0.813534 1.20101 -0.383974 0.0517882 0.609604 0.178798 -0.0960185 0.651778 0.790247 -0.192309 1.10648 0.199003 -0.90879 -0.221105 -0.201084 0.0394738 0.778446 0.221775 0.597135 0.174917 -1.0575 -0.150404 -0.0596015 -0.388996 0.0456793 0.965808 0.312972 0.0415689 0.291929 -0.965056 -0.0804394 0.805278 0.0467511 -0.0640895 0.114231 0.0850407 -0.277734 -0.455473 -0.83165 0.804021 -0.377078 0.564428 1.1467 0.459592 0.773269
1090 -0.772767 -0.972987 0.637944 0.686802 -0.12752 0.642715 -0.672941 -0.455804 0.241338 -0.0511896 0.0674131 0.506984 -0.0468738 0.377492 0.188237 0.705573 -0.517572 0.11522 0.283718 0.134521 0.0878858 -0.223337 -0.780493 -0.54634 0.00817278 0.817188 -0.127292 0.337613 0.163199 -0.848267 -0.426464 -0.527256 0.121601 0.0591999 0.784781 -0.247327 -0.0360224 0.00756215 0.165525 0.690981 -0.73087 -0.947453 -0.691198 0.234036 0.162942 -0.581976 -0.560154 -0.196243 0.0455803 0.825803 -0.310747 -0.494065 -0.611131 -0.653275 0.721472 0.0943 0.22561 0.119765 0.24876 -0.734215 -0.553822 -0.0392185 0.0671879 -0.1266 0.420837 -0.73285 0.00920405 0.000704213 0.658986 -0.157008 0.24378 0.892905 -0.199537 0.0969172 -0.0754025 0.069873 -0.897718 0.0574776 -1.06341 0.123775 0.0130895 0.859969 0.325457 0.621337 0.794073 -0.487689 0.0486378 0.261128 -0.130346 -0.684611 0.460178 0.666203 0.173916 0.787904 0.471792 -0.603037 0.137908 0.0905912 0.0997818 0.625251 0.204183 0.688666 0.185312 -1.15444 0.0659582 0.133895 -0.401319 -0.0397247 0.487982 -0.410255 0.328299 0.285244 -0.58199 0.11868 0.0215866 -0.048666 0.103396 -0.00577042 -0.0524949 -0.385482 -0.433855 0.354228 0.860602 -0.111911 0.554386 1.12294 0.460053 0.736563
1271 -0.546168 0.129063 0.793283 0.874052 -0.180809 0.941069 -0.958947 -0.290874 0.0385859 -0.0868042 -0.0732104 0.634247 -0.0757425 0.161335 -0.0967773 0.478349 -1.39245 0.0304076 0.514979 0.266152 0.118396 -0.0637068 -0.908438 -0.910582 -0.0475763 0.444918 0.166533 0.330831 -0.103717 -0.945875 -0.188997 -1.04084 0.0276858 0.0991479 0.823167 -0.934117 0.649863 -0.108764 0.0471574 0.363065 -0.892056 -0.588432 -0.779194 0.0750969 -0.0542242 -0.650508 -0.689825 0.0274036 -0.0940832 0.845285 -0.726117 -0.572238 -0.585945 -0.611977 0.827706 0.00325538 0.0715564 -0.0115839 0.29057 -0.971535 0.0101293 0.00932591 -0.0855452 0.0693318 0.120779 -0.816567 0.018213 0.283164 0.427195 -0.0549498 -0.0251886 1.08565 -0.253343 0.0350525 0.031568 0.349914 -0.481068 0.00765192 -0.914352 0.158682 -0.0519187 0.992939 0.559718 0.908163 0.693215 -0.0814181 -0.0767081 0.252853 0.599427 -0.931896 0.399049 0.896439 0.0540926 0.68934 0.319756 -0.52468 -0.214865 -0.0425674 0.0588331 0.379874 0.0842743 0.552916 0.0631378 -1.43144 0.0931214 0.153043 -0.0471148 0.049352 0.426061 -0.137842 -0.13773 0.324924 -0.837425 0.169609 0.372962 -0.0633164 0.124755 0.0573668 -0.141653 -0.394153 -0.627156 0.00363177 1.12325 0.0636027 0.696048 1.09439 0.58703 0.985083
16 -0.435196 -0.44634 -0.235834 -0.280955 0.552624 0.686739 0.0382641 -0.466025 -0.045577 -0.194733 0.0465587 0.430032 0.41164 -0.566156 -0.789393 -0.000230136 0.232015 -0.0680505 0.523764 -0.0995781 0.602719 -0.0132659 -0.19683 -0.118216 -0.521086 0.481788 0.0161341 0.775598 -0.487242 0.215088 0.12504 0.00825507 -0.252268 -0.175211 0.448022 -0.511566 0.687041 -0.124085 0.238229 0.149905 -1.17479 -0.0720268 -0.252942 0.116608 -0.00344399 -0.160108 0.129811 0.334949 -0.0972748 -0.00975167 -0.186155 0.0985541 -0.313694 -0.459966 -0.0336804 1.09636 0.0972685 0.110294 0.405579 -0.255916 -0.324873 -0.258026 -0.356714 0.457681 -0.0879702 0.00579977 -0.934482 -0.00869221 0.164998 0.80963 -0.337889 0.180429 0.910965 0.182416 0.184511 -0.087803 0.221855 -0.264707 0.107156 -0.0732541 -0.315117 0.160622 -0.140088 0.178826 0.104516 0.0509504 0.504633 0.223413 1.06771 -0.662755 0.0841562 -0.129 -0.583879 1.11042 -0.0578065 -0.432126 -0.729568 -0.652968 -0.114571 0.205587 0.811606 1.39 0.465482 -0.363916 -0.416751 0.0434193 -0.335546 0.213835 0.217112 0.367954 -0.0235612 0.173932 -0.76723 0.0648711 0.0654059 0.00621328 0.383064 0.69185 -0.950646 -0.691939 0.12591 -0.327604 0.437005 0.68161 0.0823086 1.21467 0.266528 0.222092
2444 -0.410271 -0.399985 0.168339 0.224278 0.676123 0.405699 -0.0707289 -0.0748917 0.827673 -0.412544 -0.113125 0.300905 0.321808 -0.234945 -0.579267 0.276952 0.0968775 0.571 0.47535 0.131107 1.28007 0.141747 -0.545689 -0.168789 -0.267846 0.258316 0.619289 -0.0683668 -0.355748 0.0447152 -0.128419 -0.0856991 -0.888733 0.128615 -0.209138 -0.17444 0.490089 -0.486217 -0.0661939 0.221167 -0.778023 -0.121851 0.221838 -0.15472 -0.120463 -0.106299 -0.0196835 0.202211 0.33331 0.423785 -0.165827 -0.295882 -0.194765 -0.400804 -0.0506392 0.306832 0.137025 0.0357903 0.0663882 -0.27488 -0.419978 -0.0877187 0.087134 -0.210505 -0.0955237 -0.572563 -0.528891 -0.169754 0.806766 0.822363 -0.21451 0.159839 0.512159 0.0666276 -0.168539 -0.450228 0.104278 -0.426177 -0.448013 0.507683 -0.496063 0.080862 -0.0996254 -0.234702 0.578967 -0.0267513 1.08318 0.100717 0.0162715 -0.703978 -0.0821414 0.00281126 0.184267 0.649313 -0.774893 -0.222182 -0.196122 -0.574077 0.388026 0.420769 0.432492 0.757163 0.096524 -0.785182 -0.871231 -0.0998801 0.050174 0.957007 -0.0972296 -0.353215 0.2275 -0.107745 -0.626804 0.359326 -0.100534 0.0920836 -0.389761 0.478255 -0.79393 -0.209956 0.0978918 -0.0193316 0.460519 0.123122 0.745801 0.578969 0.210729 0.203446
1632 -0.451314 -0.153805 -0.0382303 -0.0736543 0.335506 0.360542 0.169558 -0.452437 0.60206 -0.0339766 0.147937 0.527828 0.209674 0.239329 -0.332168 -0.0476518 0.196763 0.413317 0.362486 0.0164764 0.719298 0.14788 -0.22299 -0.229924 -0.50171 0.194258 0.256749 0.509119 -0.182812 0.257737 -0.0671681 -0.205968 -0.209919 -0.250751 0.441375 -0.41219 0.721878 -0.27262 0.163948 0.0548999 -0.802794 -0.1212 -0.0513228 0.127012 -0.128726 0.70241 0.175694 -0.169549 -0.262334 0.102525 -0.225848 0.035592 -0.6919 -0.659171 -0.134186 0.089808 -0.239371 -0.140495 0.5627 -0.315287 0.169387 0.319211 -0.149658 0.369524 0.0177322 0.231305 -0.889691 0.251931 -0.328506 1.08644 -0.203748 -0.0824438 0.685661 0.06916 -0.102582 -0.292213 0.306136 -0.544349 -0.0389164 0.258345 -0.408979 0.207891 0.163659 0.302703 0.228223 -0.023638 0.859592 0.382606 0.672199 -0.289658 0.243322 -0.150111 -0.297299 0.923431 -0.355406 -0.142229 -0.409059 -0.369776 -0.181578 -0.134241 -0.0574248 1.30711 0.305781 -0.661725 -0.568562 0.160706 -0.194087 0.750414 -0.030548 -0.920478 0.0297819 0.207514 -0.622965 0.157078 0.154435 0.173157 0.487135 0.137841 -0.927438 -0.502589 0.148928 -0.349019 0.586479 0.457289 0.0937701 1.04649 0.799336 0.00856923
970 -0.231605 -0.628286 -0.160723 0.16329 0.282869 0.0671016 0.376835 -0.629103 1.02113 0.0198062 -0.175781 0.338441 0.196327 -0.528693 0.241338 0.141626 0.0792829 0.17559 0.298506 -0.0997891 1.10435 -0.482411 0.233932 -0.365711 -0.680749 0.255177 0.414643 0.479249 -0.115437 0.0337743 -0.112612 -0.0412496 -0.958155 -0.540727 0.140472 -0.766832 0.683995 -0.0471902 0.0197905 0.35696 -0.0853789 -0.0785264 0.0248113 -0.146035 0.12228 -0.424668 0.0697606 0.100016 -0.518033 0.492993 -0.00976156 -0.076267 -0.380007 -0.191977 -0.0270301 0.071076 0.0843071 0.140259 0.309159 -0.430334 -0.402398 0.150057 -0.297736 0.400769 0.148163 0.365888 -0.600424 0.104264 0.533099 0.0479681 -0.0600761 0.0925171 0.448613 0.118777 0.0794805 0.22843 0.187545 -0.0756505 -0.272214 0.091352 -0.372355 0.0199116 -0.328386 0.827323 -0.141431 -0.121419 1.09049 0.428362 0.17972 -0.108308 0.0532785 -0.07083 -0.00747328 0.164481 0.141785 -0.35098 -0.14738 -0.483964 -0.0620777 -0.00493506 0.175245 0.382111 0.017237 -0.60336 -0.272607 -0.211537 0.100461 0.367277 0.15603 -0.301979 0.218539 0.149343 -0.96912 0.441785 0.407556 0.250206 -0.475485 0.251697 -0.539735 -0.345947 -0.13762 0.299747 0.230102 0.322616 0.261897 1.08917 -0.108522 -0.146036
2642 -0.262163 -0.200551 -0.222693 0.0299674 0.537455 0.422293 0.149825 -0.344075 0.849727 -0.0106964 -0.094913 0.48198 0.928277 0.0826836 0.0560778 -0.0359034 0.14605 0.0969583 0.547817 -0.00381236 0.895731 -0.138943 -0.797598 -0.306792 -0.288677 0.00657411 -0.271419 0.284702 -0.709113 0.00253241 -0.154916 -0.152282 -1.00208 -0.820096 0.735879 -0.512285 0.433887 -0.0913601 0.211662 0.764074 -0.273913 0.20932 -0.265299 0.0129283 0.0475172 -0.244115 -0.0814608 0.197257 -0.34078 0.128292 0.311565 -0.112497 -0.628519 -0.705573 -0.00403453 0.316694 -0.00934061 0.0764485 0.902127 -0.18351 -0.647279 0.00873662 0.163238 0.298044 0.196919 0.0367431 -1.18649 0.30363 -0.118043 0.720477 -0.500044 0.296594 0.215526 0.171264 -0.0474526 0.0296748 0.192252 -0.133962 0.326307 0.0958288 -0.691538 0.124098 0.227279 1.32733 -0.0733822 -0.0915016 0.856019 0.471074 0.800355 -0.443758 -0.420225 -0.0806875 0.350636 0.279147 0.121677 -0.646575 -0.527798 -0.590407 -0.131708 0.417688 0.0917898 0.761601 0.0828212 -0.402749 -0.874566 0.0471769 -0.699222 0.693718 -0.0595298 -0.426633 0.0638103 0.458922 -0.389467 0.614614 0.319097 -0.0283975 -0.00504021 0.69119 -1.12172 0.175113 -0.180252 -0.0699164 0.17772 -0.0262269 0.713383 1.38765 0.686547 -0.05046
17 -0.808963 -0.639902 0.816549 0.697715 0.57619 0.041869 0.238284 0.0672208 0.499406 -0.196566 -0.634961 0.959828 0.222382 0.12799 0.100887 0.721802 -0.986952 1.02442 0.93285 -0.679982 0.108485 -0.0158136 -0.779353 0.0547582 -0.211263 0.160837 0.324354 0.439531 -0.319387 -0.540888 -0.248264 -0.803676 -0.109973 -0.356325 -0.334768 0.0880027 0.916516 -0.866703 0.0405425 0.469916 0.142067 -1.1121 -0.56003 0.0699868 -0.0194025 -0.640427 -0.308146 -0.271076 -0.0677319 0.152259 -0.0700913 -0.0200544 -0.378598 -0.062854 0.115158 0.0395718 -0.00745064 0.0430082 -0.125069 -0.0728148 -0.479964 -0.254512 -0.420451 -0.245244 0.797572 -0.322535 -0.215794 0.352556 0.886792 0.454518 0.0836743 -0.0671465 -0.118939 -0.347453 -0.0306467 -0.550299 0.235107 0.00189267 -0.920482 -0.252085 0.0703913 0.242288 0.536248 0.152475 0.00456792 -0.439837 -0.188239 0.410694 0.521601 -0.0213934 0.2378 0.353629 -0.444697 0.0300617 0.228532 -0.158813 -0.367203 -0.743562 0.210858 0.223391 0.154811 0.190711 0.0786996 -1.03089 -0.364454 0.227433 -0.378163 0.00532252 0.200953 -0.114352 0.784834 0.262112 -0.784555 0.564336 0.283074 0.495681 -0.289043 -0.059324 0.117105 -0.01455 -0.143934 0.443404 1.02621 0.540178 0.777906 0.243272 0.447144 0.102321
24 -0.440844 -0.282736 0.158214 0.0638809 0.390634 0.0989992 -0.146129 -0.144987 0.593055 -0.806603 -0.260727 0.730558 0.472601 -0.176881 -0.104839 -0.0973059 -0.616234 0.353666 0.665016 -0.329929 0.125003 -0.143014 -1.00136 -0.0312925 -0.11075 0.128682 0.7339 0.869058 -0.551332 -0.241653 0.0391291 -0.510283 -0.548953 -0.101737 -0.140825 -0.199481 0.186318 -0.121601 -0.744802 0.160823 -0.128556 -1.08305 -0.213254 -0.128991 -0.133039 -0.307375 -0.779345 -0.274321 -0.568552 0.0147681 -0.249629 -0.102505 -0.243388 0.0403068 0.283508 0.050983 0.186009 -0.237775 0.142972 -0.0721305 -0.582024 -0.129539 -0.0377649 -0.155223 0.278451 -0.319337 -0.301846 0.285611 0.122899 0.30688 -0.244731 0.320442 0.295807 -0.270905 0.027435 -0.336466 -0.151488 -0.120754 -0.621645 -0.0597118 -0.185644 0.907079 0.154749 0.200606 0.555331 -0.629613 0.183702 0.0790252 0.95674 -0.216678 0.269781 0.28916 -0.675666 0.129636 -0.669013 -0.107656 -0.137332 -0.382399 0.439896 0.00154776 0.294805 0.0554431 -0.124509 -0.27428 -0.098985 -0.192483 -0.0386685 -0.0730454 0.269514 -0.116839 0.613155 0.586525 -0.372043 0.455947 0.129726 0.266204 0.0546016 0.178437 0.0604693 -0.0292456 -0.00227787 -0.273033 0.577722 0.714287 0.597658 0.319032 0.387749 0.323192
2140 -0.200041 0.132572 0.594442 0.393088 0.930771 0.0690758 0.190885 0.251272 1.01465 -0.169316 -0.733299 1.34199 0.216981 0.0742321 -0.131961 0.781722 -1.53091 0.821115 0.875837 -1.09473 0.0713866 0.00972103 -0.753939 -0.261157 -0.65181 0.473603 0.487711 -0.191592 -0.101108 -0.154637 0.0176675 -0.737052 -0.265087 -0.00233225 -0.215576 -0.045516 0.897847 -0.967189 -0.282502 0.348091 -0.0438506 -0.755414 -0.0640487 0.0438441 0.196059 -0.841455 -0.893958 -0.445979 -0.757162 0.278791 -0.220789 -0.202661 -0.0235314 0.109878 0.167865 0.477269 0.0437433 -0.0845101 0.0315445 0.45344 0.147703 0.0117624 -0.202912 -0.0481227 0.795824 -0.055052 -0.307833 0.678065 0.815687 0.300655 0.0756351 0.114808 -0.198473 -0.325703 -0.0725982 -0.0369204 -0.106169 -0.0329353 -0.8426 -0.256233 -0.00154735 0.675808 0.645893 -0.0894964 0.245225 -0.0531777 0.0329939 0.34608 1.03184 -0.0042695 0.0210634 0.198877 -1.03028 0.304071 -0.333292 -0.289908 -0.115782 -0.761045 0.0822417 -0.0673886 0.089159 -0.0560407 0.0339415 -1.00878 -0.473288 0.147379 -0.67807 -0.0523603 0.505156 0.134899 0.762851 0.805031 -0.554445 0.905975 0.224643 0.932713 0.273523 -0.293116 -0.201303 0.13081 0.118014 -0.326403 0.645387 1.0536 0.443858 0.168426 -0.249372 0.332488
1316 -0.544656 -0.0483768 0.608295 0.93993 0.545183 0.300223 -0.0996195 0.205316 0.276696 0.141526 -0.389118 0.786754 1.20667 -0.193404 -0.339242 0.41573 -1.20619 0.436518 0.755845 -0.494418 0.263329 -0.222293 -0.491044 -0.303046 -0.304572 0.241503 0.589719 0.67132 -0.032456 -0.55884 -0.178233 -0.89412 -0.250418 -0.654669 0.231986 -0.395525 0.905382 -0.302551 -0.448509 0.551155 -0.122043 -0.605446 -0.179645 0.169448 -0.253468 -0.555946 -0.0491341 -0.236267 -0.435617 0.234552 0.117365 -0.392231 -0.236711 -0.169121 0.491338 0.459833 -0.0211203 0.237405 0.0831881 -0.154948 -0.224224 -0.0960577 -0.360048 -0.159457 0.900684 0.0106233 -0.876062 0.910133 0.314691 0.364511 -0.00550514 0.0568735 0.0440369 -0.225696 0.123699 -0.554018 -0.212725 0.191624 -0.695755 0.172935 -0.201139 0.198857 0.505676 0.356794 1.09776 -0.524523 0.240452 0.414001 0.356925 -0.462646 0.315409 0.221997 -0.603095 0.192863 -0.240398 -0.0719769 -0.494602 -0.871464 0.180889 0.0763211 0.211341 0.11436 0.0432633 -0.311974 -0.664595 -0.064708 -0.979305 0.326165 0.520465 -0.443564 0.411891 0.608734 -0.123283 0.105257 0.394692 0.7003 -0.335707 0.148406 -0.2672 -0.380079 -0.619018 -0.317866 0.641654 0.287762 0.58979 0.563255 0.299878 -0.0331247
1315 0.209973 -0.190977 0.919641 0.776913 -0.0210622 0.191942 0.0734493 0.0963078 0.727696 -0.0506833 -0.138174 0.31384 0.15939 -0.0656646 -0.151822 0.486786 -1.08721 0.891678 0.801138 -0.518346 0.144266 -0.191305 -0.309114 -0.202323 -0.275412 0.272048 0.873141 -0.0965126 0.358806 -0.228047 -0.360597 -0.651335 0.042278 -0.299985 -0.194163 -0.266932 0.302026 -0.711103 -0.139453 0.600364 -0.329774 -0.490087 -0.662889 -0.439187 0.216906 0.0274453 -0.775285 0.059434 -0.103877 0.0104093 -0.555108 -0.408174 -0.180654 0.144494 0.108492 0.147337 0.427686 0.269091 -0.0737352 -0.100543 -0.339227 -0.0504235 -0.264227 0.0485522 0.744988 -0.405992 -0.0296361 0.205687 0.551 0.224606 0.149832 0.167344 -0.137476 0.0111478 0.182334 -0.620263 0.0863121 -0.310526 -0.498509 -0.0292337 -0.168221 0.0814943 0.707136 -0.0149165 0.281022 -0.21649 -0.025127 0.377213 0.62685 -0.412733 0.480338 0.373845 -0.784349 0.154827 -0.653755 -0.525165 -0.717469 -0.850414 0.19677 0.392311 0.00884757 0.408578 0.170615 -0.630077 -0.471905 -0.0125278 0.127339 0.390675 1.0144 -0.197438 0.853131 0.669922 -0.455353 0.927047 0.491956 0.975441 -0.185401 -0.0933619 -0.250872 -0.229234 0.0361842 -0.156671 0.274691 0.291745 0.402122 0.335792 0.0921338 0.215572
927 -0.351409 0.136673 0.707245 0.277715 0.765628 0.239274 0.149487 0.273538 0.367624 -0.395553 -0.775105 1.16536 0.136668 0.121915 0.268088 1.0699 -1.03134 0.735901 0.998063 -1.21531 0.290182 -0.130823 -0.911923 -0.240801 -0.659246 0.314691 0.914822 0.358054 -0.25532 -0.238709 -0.0517208 -0.633375 -0.0953995 -0.409061 -0.270705 -0.0215843 0.712843 -0.590898 -0.161312 -0.0654371 -0.402379 -0.775801 -0.214759 0.110722 0.360298 -0.749578 -0.657461 -0.207539 -0.104382 0.0139039 0.0637896 -0.162629 -0.18529 -0.042234 0.0678502 0.233795 0.19746 0.210216 0.0276284 0.184579 -0.0377095 -0.168992 -0.242341 -0.0157226 1.00159 -0.457742 -0.425913 -0.0220457 0.55339 0.0196513 0.160937 0.456491 -0.343206 -0.256761 -0.0718619 -0.301198 0.150477 -0.0494351 -0.316908 -0.203518 0.0170713 0.298738 0.28098 0.168877 0.568959 -0.0721056 0.0111802 0.0964405 0.728882 -0.198564 0.51124 0.199409 -0.747981 0.349013 -0.229183 -0.423546 -0.13867 -0.774607 0.633335 0.119086 0.0999113 -0.196698 -0.044931 -0.759537 -0.441525 0.157388 -0.393911 0.109 0.71853 -0.210295 0.940261 0.443613 -0.00629361 0.133307 0.181985 0.565805 0.154937 -0.36162 -0.270278 0.18546 -0.11433 0.230848 0.822064 1.05861 0.528286 0.451002 0.0555965 0.0997645
18 -0.341072 -0.134016 0.634519 -0.178695 -0.262361 0.160452 0.0114953 -0.941623 0.231118 -0.958 0.00244651 0.561403 0.359595 -0.226379 -0.429023 0.722299 -0.242279 0.230481 0.0975237 -0.847196 0.45001 -0.466323 -0.00249045 -0.670843 -0.708511 -0.0184052 0.922866 0.58793 -0.182722 -0.0531767 -0.706346 -1.08385 -0.254132 0.291695 0.582732 -0.740152 0.349566 -0.041528 -0.563083 0.080116 -0.79473 -0.068354 -0.598362 -0.012141 -0.303021 0.0465208 -0.849416 -0.655872 0.0306804 0.0820163 -0.0458904 -0.146822 -0.283643 -0.153984 0.733507 0.380824 0.945855 0.551946 0.384973 -0.0187076 -0.362417 0.0978904 -0.0275557 0.559886 0.00615531 -0.388277 -0.182248 0.837207 -0.035795 0.296634 -0.464533 0.150331 0.128851 0.931822 -0.471297 -0.0665582 -0.717845 -0.271257 0.0658861 0.0632728 -0.261953 0.309152 0.384194 0.426 -0.00264982 -0.94392 -0.0197117 0.342899 0.388299 -0.843486 0.597393 0.616834 -0.535402 -0.0696117 0.331391 0.00838454 -0.619986 -0.704244 0.428374 0.0323094 -0.0543955 0.584435 0.255328 0.0150607 -0.529841 -0.215916 -0.156805 0.520278 0.340493 0.279262 0.939111 0.474139 -0.471866 0.391255 0.117443 0.688281 -0.149344 0.593492 0.0847425 -0.303367 -0.927015 -0.30335 0.0115597 0.0880291 0.923192 0.181735 0.603348 0.154124
2082 -0.263179 -0.597544 0.220237 0.130746 0.00937711 -0.0269839 0.107971 -0.0755391 -0.141662 -0.544753 0.11887 0.448934 0.304211 -0.0328242 -0.463276 0.660371 -0.418138 -0.0430511 -0.0501329 -0.843925 0.266401 -0.540909 -0.194629 -0.570856 -0.257449 -0.0366201 0.0773328 0.322917 0.047862 -0.0644987 -0.48422 -0.968173 -0.119921 0.295567 0.550536 -0.541373 0.359721 0.332481 -0.673105 -0.155161 -0.444712 -0.745155 -0.601212 0.10033 -0.439307 -0.367416 -0.891584 -0.607618 -0.375564 0.0780635 -0.136962 0.0153105 -0.108979 -0.951564 0.243131 0.580814 0.142029 0.480946 0.0692546 -0.07009 -0.106966 -0.249403 0.0918115 -0.0941147 -0.159395 0.240337 -0.0423912 0.168681 0.196854 0.14001 0.145663 -0.0686101 0.200183 0.742099 0.210449 -0.521752 -0.558031 0.128179 -0.390163 0.149853 0.264946 0.275343 -0.415884 0.937621 0.702555 -0.809387 0.210777 0.922577 0.488645 -0.451497 0.370603 0.342614 0.0136534 0.0446815 0.0671212 -0.245671 -0.454295 -0.650014 0.288406 0.0994147 -0.0813586 1.02897 0.519604 0.0541578 -0.488013 -0.665129 -0.154724 0.291607 0.114089 0.0716833 0.974428 0.462714 -0.469625 0.188927 0.271488 1.25379 -0.347778 0.289083 -0.0726182 -0.509024 -0.780712 0.0301528 0.21837 0.226065 0.41597 -0.0449809 0.462506 0.546181
139 -0.317204 -0.0999127 0.402256 0.163294 0.0683669 0.09528 -0.145366 -0.22819 0.0538257 -0.673889 -0.0069365 0.744188 0.357659 0.438439 -0.223129 0.713459 -0.354087 0.130897 0.14567 -0.227466 0.933578 -0.522636 -0.166431 -0.265539 -0.271312 0.143412 0.193877 0.930067 -0.276698 -0.0116092 -0.479838 -0.248895 -0.540776 0.0254034 -0.0910951 -1.19928 0.185422 -0.160847 -0.595395 -0.0445463 0.106506 -0.520447 -0.105492 0.136706 -0.233637 0.10659 -0.465382 -0.173121 0.191282 0.0776264 -0.0458509 -0.0105967 -0.25729 -0.232693 0.608544 0.590586 0.00228842 0.277314 0.363339 -0.119859 -0.0696281 -0.151888 -0.413432 0.205088 0.088064 -0.54578 -0.150935 0.361924 0.0770007 0.00434603 -1.10387 0.302153 0.194666 0.784053 -0.478859 -0.102993 -0.629607 -0.64809 -0.0234971 0.328174 -0.426602 0.0935053 0.190973 0.230627 0.285818 -0.532491 0.118182 0.558668 0.334541 0.0706901 0.497322 0.270068 -0.372753 0.236272 0.282082 -0.409568 -0.479872 -0.872662 0.822418 0.285071 0.109481 0.687348 0.369857 0.00617622 0.1779 -0.371028 0.248769 0.0696226 0.00460604 0.0859841 0.669731 0.742272 -0.161566 0.0483957 0.380891 0.795215 -0.652102 0.488405 -0.0303685 -0.379522 -0.727647 -0.726906 0.534532 -0.107966 0.994765 0.420599 0.152036 0.027759
1786 -0.22835 -0.483317 0.0825386 0.10291 0.0733343 -0.0193546 -0.0666052 -0.791425 0.307349 -1.0651 0.243329 0.725272 0.248096 -0.248111 -0.398372 0.53229 -0.376682 -0.0835501 0.132718 -0.674026 0.92414 -0.300547 -0.013104 -0.137816 -0.136772 0.368098 0.539702 -0.0358232 0.16638 0.164769 -1.00963 -0.330246 -0.190676 -0.235329 0.535127 -0.746628 0.168172 -0.236221 -0.481384 -0.223978 -0.362747 -0.305744 -0.300203 -0.384273 -0.456676 -0.545428 -0.473143 -0.192662 0.0222718 0.13815 -0.257255 -0.0987406 0.149315 -0.389012 0.811431 0.504878 0.0537299 0.36538 0.0910899 -0.0983622 -0.0515148 -0.00495231 0.112564 0.0281085 -0.00851319 -0.388016 -0.124057 0.192734 -0.147587 0.00305834 -0.745704 0.709945 0.135795 0.563395 -0.575802 -0.771248 -0.634109 -1.03257 -0.147529 0.150345 -0.21319 0.0472268 0.948045 -0.184599 -0.125601 -0.798826 -0.0534592 0.479123 1.24901 -0.60805 0.468911 0.298694 -0.397522 -0.0153559 -0.199347 -0.236015 -0.373426 -0.823104 0.491267 0.788693 0.185636 0.444316 0.436419 -0.00228247 -0.269394 -0.283885 -0.199485 0.55521 0.0530744 0.0369491 0.521063 0.79266 -0.487086 0.240257 0.275738 0.453382 -0.258899 0.590607 0.210802 -0.533936 -0.71379 0.0394295 0.180616 0.0280282 0.584764 0.599232 0.670771 0.327778
1560 0.00257316 -0.484519 0.579588 0.0718509 0.240493 -0.0274686 -0.149244 -0.375248 0.136587 -0.405741 0.390816 0.640737 0.711736 -0.0783324 -0.045922 0.160839 -0.00680188 0.279875 -0.139208 -0.674608 0.34812 -0.345292 -0.0684236 -0.337148 -0.450222 -0.121584 0.526287 0.428702 0.611136 0.0165793 -1.29281 -0.68169 -0.221094 -0.00612487 0.54721 -0.834298 -0.0685833 0.00955156 -0.373531 -0.151162 -0.277077 -0.331993 -0.899382 0.567735 0.224603 -0.123007 -0.513597 -0.735809 -0.0440869 0.161624 0.0522299 -0.0625414 -0.0618191 -0.506467 0.967226 0.0486931 -0.213702 0.327909 -0.123875 0.232513 -0.25858 -0.0425097 0.130941 0.622383 -0.224379 0.233338 -0.136059 0.626153 -0.197277 0.0061243 -0.536829 0.00703864 -0.143518 -0.0580852 -0.0982007 -0.599166 -0.424005 0.139011 0.136246 -0.00911206 0.100655 0.218065 -0.489564 -0.0699894 0.146203 -0.606458 0.0107262 0.246133 0.0932073 0.15889 0.784908 -0.425054 -0.320377 -0.0212502 -0.145434 -0.636697 -0.149404 -0.704205 0.256033 0.238111 0.294953 0.033444 0.58959 -0.126875 0.215323 -0.523701 -0.293688 0.200473 -0.199634 -0.181442 0.346137 0.146358 -0.608158 0.0665009 0.209814 0.605084 0.156503 0.542262 0.094731 -0.285574 -0.814537 -0.0936526 0.17252 -0.0518517 -0.160025 0.696622 1.00641 0.440114
2145 -0.425912 -0.37443 -0.0222519 0.0187205 -0.0779535 0.00107175 0.175153 0.104087 0.0226793 -0.596107 -0.404362 0.926963 0.6141 0.0824161 -0.199916 0.591623 -0.213976 0.00086798 0.268812 -0.229655 0.382013 0.113322 0.0780075 -0.652264 0.179937 -0.197562 1.05386 0.0524158 0.016926 0.20698 -1.25745 -0.2018 -0.605597 0.250083 0.10056 -0.973529 0.118608 0.0283133 -0.307551 -0.493913 -0.924071 -0.334438 -0.218439 -0.185871 -0.339814 0.0893246 -0.410972 -0.537297 0.0667099 0.0282491 0.110991 -0.143584 -0.443763 -0.223279 0.312165 0.21148 -0.204411 0.378982 0.0986831 -0.0896651 0.150708 -0.191491 -0.340383 -0.362471 -0.0536095 -0.0269435 -0.502691 -0.188214 -0.217615 0.432821 -0.668427 0.0843895 -0.024478 0.521929 -0.440745 -0.571971 -0.510336 0.134846 0.215428 -0.179154 0.169711 0.0777768 -0.0165968 -0.162634 0.851415 -0.697467 0.146698 1.03545 0.322009 0.0487242 -0.31851 0.057372 0.15538 0.198617 0.188988 -0.142722 -0.609226 -0.967013 0.861804 0.0792793 -0.163763 0.362454 0.520837 0.226594 0.105128 -0.339092 -0.274132 0.0420622 0.27805 0.273388 0.356124 1.04845 -0.631717 0.254675 1.2875 0.396326 0.367031 0.595168 -0.0524849 0.283472 -0.49957 -0.0382624 0.0113203 -0.0603219 0.719963 0.429873 0.366363 0.179454
19 0.262882 0.321816 0.202011 0.511509 -0.177427 -0.0330078 0.113391 -0.813294 0.861909 -0.531764 -0.31792 -0.165097 -0.707429 -0.234636 -0.420455 0.783976 -1.2256 0.987506 1.07318 -0.756439 0.0173501 0.0400207 0.0259544 0.0716351 -0.842707 -0.028519 -0.0894104 -0.0145571 0.417464 -0.971001 0.261637 -0.0621458 -0.356015 -0.675169 -0.0986132 0.337342 1.06671 -0.217074 -0.368342 0.993288 -0.566471 -0.42397 -0.630804 0.185447 -0.167836 -0.621203 0.0397799 -0.945483 -0.380709 0.108262 -0.162105 0.465069 0.243643 -0.278883 -0.163398 0.260049 0.0242083 0.861357 0.103507 -0.508735 -0.308227 -0.0269214 0.467495 0.274265 0.469928 0.195554 -0.849585 -0.0501461 0.400736 1.17679 0.395438 1.13869 0.865641 0.978772 -0.350295 -0.602249 -0.304913 -0.0176388 -0.0641929 -0.0404737 0.0686252 0.109377 0.166445 0.0228968 -0.122381 -0.502362 -0.127906 0.429917 0.548742 -0.8831 -0.0365188 0.211393 -1.00988 0.760256 0.364105 -0.445326 -0.303626 -0.8288 0.810763 -0.252042 0.551958 -0.0872262 -0.317617 -1.41084 0.179678 -0.879007 -0.177225 0.75877 0.844708 0.146339 0.0840956 -0.0539098 0.0720988 0.536613 0.890364 0.904397 -0.448082 -0.203656 0.0514496 -0.00469993 -0.615323 0.467163 1.05048 -0.127186 0.558629 0.546914 0.130091 0.0289661
