2708 128
0 1.16882 -0.134962 0.366548 0.110536 0.289818 -0.114512 0.441025 -0.41584 1.38793 0.398839 0.181268 0.962853 -0.149717 -0.00934858 -0.0874162 0.440136 -0.464364 0.0186249 -0.282318 0.4288 -0.178456 -0.343754 -0.0365226 -0.37274 1.03064 -0.475661 0.336393 0.611833 0.48169 -0.30571 -0.367456 -0.592255 -0.312321 -0.155056 -0.306658 0.0748592 -0.311169 0.916469 0.00351945 0.691685 -0.160476 0.199407 0.573492 0.12095 -0.28333 0.917856 -0.0989617 0.0728515 -0.377189 0.623362 -0.509395 -0.142262 -0.244412 -0.601542 0.514392 -0.0772064 0.691027 0.0198563 0.383882 -0.628073 -0.609879 -0.70501 -0.039782 0.259684 -0.0692834 0.217676 0.113984 0.73692 -1.90599 0.351777 0.283554 0.0849932 -0.538598 -0.382981 -0.267905 0.0205526 0.123006 0.712568 -0.69512 0.675715 0.0192767 0.349918 -0.3733 0.0173081 0.567658 -0.329474 0.277991 0.363875 -0.0446023 0.745573 -0.062259 -0.672355 -0.0958698 -0.690003 -0.846684 0.141719 1.29007 -0.549789 -0.129856 0.0125451 -0.637979 0.00925836 -0.0855388 0.13747 0.201405 -0.0041387 0.388476 -0.754145 -0.124434 -0.429792 0.0863606 -0.609612 -0.772175 -0.0069249 -1.0153 0.507994 -0.490913 -0.0607413 -0.701536 0.757675 0.165674 -0.312363 0.316412 -0.395823 0.137964 0.114039 0.208599 -0.397852
633 0.772072 0.68884 1.20023 0.0405252 -0.709289 0.268797 0.341271 -0.0331572 0.303456 1.02526 0.228233 0.141191 -0.649763 -0.561478 0.159937 0.397241 0.0839856 0.20513 0.765448 0.277706 0.282402 -0.532371 0.321421 -0.127231 0.724634 0.365566 0.685697 0.181306 0.935828 0.0490219 0.630403 0.302054 0.272283 -0.133013 0.0481664 0.123227 0.191135 1.24116 0.0671152 0.0707617 -0.342996 0.269473 0.23073 0.104132 -1.04985 1.16151 -0.380491 -0.0295184 0.357585 0.168176 -0.0630685 0.936072 -0.482568 0.405702 0.84034 0.624849 0.472434 -0.0546219 -0.260056 -0.133369 0.180796 -1.23384 0.382926 -0.645839 -0.165518 0.945666 -0.31274 -0.0765223 -0.280146 0.810418 -0.0741068 0.177283 -0.927581 0.316994 0.519886 -0.581739 0.160349 -0.12773 -0.0557564 0.592589 -0.87364 0.084415 -0.369366 0.228512 -0.518195 -0.262788 0.358476 -0.102173 0.668558 -0.145806 0.663598 -0.843191 -0.0580144 -0.201319 -0.372197 -0.0679324 0.199382 -0.135604 0.422957 0.217139 -0.115233 1.02386 0.772262 0.0714869 0.488782 -0.40196 -0.0503426 -1.22451 -0.379353 -0.0841771 -0.256486 -0.105731 0.731609 -0.456887 -1.11111 0.257724 0.503606 0.253833 -0.516709 0.218079 -0.261169 -0.902112 0.505263 -0.0191232 0.0595894 0.290891 -0.232055 -0.0188242
1862 1.01028 0.457879 0.343183 -0.656398 0.963088 -0.212177 0.129227 0.612092 0.229053 0.24991 -0.482477 0.756981 0.19828 0.802865 0.340219 0.580678 -0.472122 0.728592 0.126446 -0.208693 -0.0229137 -0.195713 -0.564207 -0.269634 0.84335 0.642721 0.477566 -0.378765 0.110761 -0.210662 0.101521 -0.00383007 0.222801 0.10152 -0.141894 0.0921262 -0.147668 1.20943 -0.814506 -0.153754 -0.442483 0.313208 -0.0633224 1.02637 -1.36272 -0.103703 0.21319 -0.816332 -0.760251 0.428113 -0.497456 -0.11264 0.217791 0.111867 0.691583 0.139148 0.363826 0.822511 -0.242145 -0.560654 0.13647 -0.789795 -0.129018 0.599313 -0.573589 -0.342929 0.286417 0.676347 -0.392032 0.499986 0.0870581 -0.387649 -0.842827 -0.26722 0.691185 0.380168 0.176077 0.319588 1.0697 -0.167747 -0.41613 -0.235552 -0.312862 0.0642586 -0.617533 -0.151028 0.0266155 -0.131163 -0.135689 0.210757 0.0414879 -0.137284 -0.292779 0.0150988 -0.596703 -0.100154 1.06828 -0.843455 0.0358854 0.0555342 -0.337344 0.0747374 -0.213084 0.733295 0.193832 -0.176901 -0.479686 -1.9515 -0.225121 -0.337332 -0.66368 -0.0757416 0.0806156 0.188933 -1.02105 0.554705 0.395487 0.587754 -0.655846 0.781946 0.165573 -0.2681 0.469242 0.524939 0.488556 0.036732 0.75586 -0.0301375
2582 0.449314 -0.851855 0.259715 -0.607439 0.362487 -0.137297 1.06488 0.793748 0.456136 0.408468 -0.323541 0.857404 0.779219 0.320341 0.346769 0.496772 -0.507236 0.252947 0.711091 0.298669 -0.856892 -0.147767 0.233916 -0.584904 0.411187 -0.0910745 0.79699 0.994405 0.906683 -0.367267 0.685413 -0.240012 -0.370781 -0.54385 -0.564042 0.0158611 -0.477781 1.56581 -0.731666 -0.50433 -0.260653 0.934786 0.0711705 0.0214546 0.195614 0.110481 0.194566 -0.244053 0.112182 1.39116 -0.804482 -0.120536 -0.557193 -0.538879 0.515033 -0.39492 0.919457 -0.19535 -0.227383 -0.670147 -0.46148 -0.431424 -0.0749277 0.156532 0.0228007 0.312404 0.0534343 0.622088 -0.879842 0.845689 0.0666644 -0.228323 -0.337026 -0.666985 0.399847 -0.0208556 0.36767 -0.030856 0.204276 0.286861 0.14682 -0.0745302 -0.536495 0.275669 -0.250721 -0.172621 -0.0649938 -0.250434 -0.333865 0.46783 0.697216 -0.73178 -0.470715 -0.278015 -0.584335 0.640894 0.826062 -0.494685 -0.0255101 0.17398 -0.49938 0.437987 0.0538775 0.569078 0.231297 -0.494867 -0.220271 -0.783803 0.0792627 -0.903573 0.169765 0.00476698 0.281785 0.23598 -0.415025 -0.171987 0.309305 -0.231787 -0.559989 0.677387 0.174353 -0.534956 0.115838 -0.08289 0.227086 0.808625 -0.0110061 0.85854
1 0.0942208 0.576261 -0.521513 -0.334018 0.11103 -0.187334 -0.626093 0.433384 -0.278898 0.565866 -1.23719 0.553653 -0.878758 0.228411 0.0770551 0.306725 -0.754452 -0.0160994 0.0919995 -0.484342 -0.142298 0.0380959 -0.0977036 -0.255614 1.79709 -0.202145 1.298 -0.600669 -0.189471 0.378128 -0.567169 -0.222988 -0.448205 0.0750578 -1.14197 -0.107835 -0.611846 -0.361311 -1.89663 1.08822 -0.531057 -0.293658 -0.0428427 -0.700101 0.592082 0.206038 -0.117094 -0.389234 -0.124121 0.193987 -0.520711 0.160997 -0.951478 -0.0333983 0.728966 0.296873 0.931415 -0.0976466 -0.411925 -0.627394 -0.0361131 -0.00620765 0.258306 -1.28374 0.00727149 -0.394832 -0.696028 0.934513 -0.623527 0.107969 0.145399 -0.529343 -0.734798 0.284648 -0.179312 0.116451 0.760957 -0.0508436 0.698397 0.408995 0.464663 -0.220708 0.27846 0.536682 -0.226847 -0.481033 -0.150071 -0.0531561 0.598558 0.191307 0.18373 -0.615037 -0.179461 -0.0312605 0.398294 -0.743068 -0.304744 -0.382823 -0.655676 -0.17137 -0.322142 0.574107 -0.199005 -0.804239 0.420465 -0.104018 0.0772145 -0.235222 0.0563485 -0.973337 -0.117441 -0.344273 -0.467032 0.416514 -0.306557 -0.493231 -1.27177 -1.06789 -0.43963 -0.0541004 0.0233347 0.55856 -0.0698056 0.0342258 0.204116 -0.357581 -0.112723 0.307007
2 -0.764968 0.379501 -0.018651 0.258487 -0.280596 -0.620584 0.141003 0.423092 0.16695 0.886082 -0.391812 -0.287382 -0.204896 0.706983 0.158934 -0.551212 -0.441758 -0.482442 0.286535 0.904944 -0.656167 -0.0258802 0.798456 -0.432669 1.01198 -0.248145 0.666071 -0.36031 0.179596 0.02981 0.300819 -0.437379 -0.0999752 0.169764 -0.470969 -0.190281 -0.577366 -0.48828 -0.479416 -0.239116 -0.175969 -0.168266 -0.296645 -0.277717 -0.300253 -0.0593948 -0.261045 -0.70397 0.183481 -0.44616 0.384759 0.0284433 -0.260963 0.0891378 0.637768 -0.0361357 -0.188923 0.340386 -0.919328 -0.0138419 0.440489 -0.484473 0.10063 -0.0420629 0.132069 0.106195 -0.410506 0.498982 -0.653373 0.113079 0.380672 -0.224967 -0.518173 0.105042 0.186376 0.229514 0.174597 0.736476 0.588736 0.279492 0.105383 -0.510084 -0.473842 0.14691 -0.10215 -0.92763 -0.2453 -0.0585746 0.567699 -0.0245577 -0.588299 -0.484664 0.0560952 0.488766 0.575493 -0.573534 0.0786754 -1.21951 0.397798 -0.0135958 -0.979487 -0.134172 1.27919 -0.89036 0.266592 0.205632 0.862003 -0.119257 0.227819 -0.45625 0.241952 0.0215318 -0.0287412 0.0662647 -1.04829 0.149561 -0.361977 -0.326472 -0.433967 0.667327 0.206947 -0.749008 -1.00847 -0.0185162 0.379631 0.136129 -0.72873 -0.0615207
652 -0.627798 0.122809 -1.04914 0.342819 -0.0769271 0.0336667 -0.496148 0.578003 0.133967 0.993177 -0.213526 0.956013 -0.597222 0.0926232 0.507662 -0.163421 -1.07027 -0.327541 -0.26898 0.0475337 -0.963066 -0.471745 0.509145 -0.753493 0.363339 -0.427124 2.59429 -0.709878 0.190655 -0.889752 -0.901721 0.515743 0.258852 -0.525991 -1.34461 -0.194008 -0.219834 -0.719321 -1.8539 0.563796 -0.815239 -0.575404 0.104465 -0.0365535 -0.101403 -0.671629 0.696879 -1.15113 -0.0961477 -0.317648 -0.567822 0.0298414 -0.734064 0.811334 -0.41153 0.723624 0.640084 -0.179686 -0.664106 0.441403 0.976164 -0.604172 -0.187112 0.424828 -0.327149 -0.19502 -0.981954 0.679165 0.0337288 0.0903278 -0.955696 0.0448516 -0.881764 -0.10911 0.153297 0.591962 0.302921 -0.137742 -0.373406 0.194145 0.404223 -0.819953 0.353623 0.583613 0.429271 -2.06657 -0.458203 -0.0309566 1.18086 0.546893 0.172944 -1.4356 1.22428 0.103648 1.23538 -1.24614 0.278233 -0.403476 0.162765 0.267723 -0.35489 0.372238 1.61919 -1.21585 0.489407 0.0471154 2.09637 -0.813561 0.36725 -0.322095 -0.844765 -0.0661942 -0.202291 -0.194887 -0.870329 -1.42561 -1.12603 -0.669636 -0.182151 0.543157 0.141632 0.298266 0.121944 0.460598 -0.365906 -0.125208 -0.478931 0.582659
654 -0.353846 -0.405813 -0.650631 0.621234 -0.460688 0.236242 -0.948389 0.0982324 -0.306102 0.909921 -1.15607 0.489351 -1.01418 1.16727 0.473378 0.45057 -0.840128 -0.434266 -0.582655 0.609311 -1.62966 -0.893034 -0.999415 -0.365941 0.224327 -0.405517 1.61633 -0.209697 1.06641 -0.536924 0.89031 0.891999 0.412525 -0.0895513 -1.28747 -0.778052 -0.625181 -0.450968 -1.92618 1.73114 -0.940264 -0.317888 -0.398405 -0.0348337 0.127368 1.48581 0.456011 -0.887063 0.0736631 0.291114 -0.242471 -1.09885 -0.167033 0.649414 -0.363411 0.152903 0.216158 0.782991 -1.5483 -0.0310385 1.07836 -0.261588 1.62943 0.458542 0.321418 0.781201 -1.32171 0.401192 -0.910106 0.0383153 0.241584 -0.00073776 -1.58121 1.12371 1.17245 0.704275 -0.601325 0.391914 0.195708 0.175883 0.685355 -0.262039 -0.303471 -0.551729 -0.825831 -0.301963 0.304641 0.826726 1.80658 0.0311059 -1.59741 -0.381583 0.31386 0.12636 0.688031 0.376597 0.482018 -0.763327 0.543245 -0.897296 -0.868467 -0.362711 0.0341799 -1.27329 0.99301 -0.479355 1.41134 -1.45662 0.619425 -0.314503 -0.239181 0.814596 -0.445819 0.515252 -0.197819 -0.281032 -1.07171 0.271303 -1.98638 0.303329 -0.598245 0.65586 -0.17787 -0.23885 0.312332 -0.126439 -0.295296 -0.168329
1986 0.0100646 -0.191268 0.284772 -0.033896 -0.0727548 0.0063625 0.235211 -0.0853616 0.183947 0.318144 -0.100473 0.416648 0.195008 0.243445 0.118715 -0.208546 -0.174615 -0.24975 0.00533429 0.0464759 -0.15409 -0.51002 -0.192787 0.158773 0.460986 0.00767013 0.262246 -0.129641 0.436972 0.0502884 0.138054 0.105772 0.154544 -0.206132 -0.38508 0.311382 -0.0491421 -0.0819487 -0.313446 -0.0818149 0.0410032 -0.0886157 0.0324602 -0.0730884 -0.186975 0.247821 0.119486 -0.0194042 0.0989555 -0.0630625 -0.119734 -0.11576 0.0502922 0.331188 0.477957 0.0393563 0.10027 0.0231605 -0.400121 -0.212826 -0.122454 -0.247344 0.0658785 -0.207904 0.08615 0.0193298 0.0429633 0.510882 -0.558322 0.130289 0.0233961 -0.142958 -0.336209 0.173607 0.0226643 -0.058834 0.144472 -0.142101 0.24858 0.0375416 -0.242637 -0.0740759 -0.30368 0.157782 -0.173911 0.129507 0.0335272 0.00998534 -0.134489 0.0673514 -0.0538543 -0.176526 0.00936026 -0.414268 -0.0339992 0.00999641 0.571925 -0.126875 0.0879413 0.0772369 -0.300831 -0.0815669 -0.0816594 -0.263068 -0.255345 -0.0307279 0.259389 -0.242416 0.115904 -0.0674744 -0.0220698 0.0391936 0.044033 -0.148917 -0.563581 0.198826 -0.111408 0.0186877 -0.742489 0.347966 -0.051502 -0.275071 0.0486924 0.0902427 0.257299 -0.0763622 -0.0812517 -0.207325
332 -0.811775 -0.0782279 -0.303939 0.0079058 0.0820027 -0.499517 0.325372 0.481585 -0.0602359 0.816185 -0.0670164 0.290863 -1.03013 0.327145 0.578588 0.0779408 -1.14027 -0.384434 -0.348926 0.705089 -0.509796 0.462148 0.28256 -0.423812 1.2848 -0.199937 1.12723 -0.776956 0.188906 -0.33262 -0.0170871 0.324059 0.436295 -0.282687 -0.649664 -0.68726 -0.298958 0.0969973 -0.730728 -0.193802 0.20627 -0.267441 -0.293752 -0.983274 -0.228175 0.120178 0.106487 -0.192231 -0.129094 -0.470055 0.500554 -0.298158 -0.0346011 0.307455 1.01059 -0.621688 0.179606 0.020399 -0.170172 0.0297618 0.44247 -0.241518 0.0687776 -0.146057 0.473937 -0.593341 0.33443 -0.117797 -0.255364 0.469579 0.268423 -0.0563413 0.171268 -0.505266 0.0522062 -0.202809 -0.0500721 -0.224289 0.324233 0.310119 0.48154 -0.247436 -0.0320645 0.018204 0.141691 -1.12964 0.404138 0.145637 -0.109762 -0.474959 -0.734219 -0.0323635 0.646539 -0.663822 0.670589 0.163401 0.766034 0.404561 0.662419 -0.511501 -1.28087 0.217806 -0.310326 -0.819996 0.442744 -0.994544 0.292387 -0.361724 0.0884509 -0.455843 -0.13834 -0.218138 0.674391 -0.255181 -0.761025 0.0382567 -0.160266 -0.563632 -0.351898 0.193432 -0.0237795 -0.310069 0.17193 -0.187706 0.0167034 0.0466766 0.594923 -0.208639
1666 -0.155227 0.475039 -0.204021 -0.147715 -0.202416 -0.208157 0.59462 -0.05255 0.157951 -0.558355 0.0160864 0.241856 -0.513341 0.536375 -0.172969 -0.489719 -0.761256 0.0692734 -0.0208385 0.207628 -0.334433 0.168358 -0.154044 -0.598799 1.7354 -0.201184 0.532167 0.0332377 0.587831 -0.303876 0.831009 -0.0107805 0.305755 0.0143236 -0.723123 0.141943 -0.148559 -0.197698 -1.03318 0.927033 0.202178 0.020781 -0.581905 0.855652 -0.943195 0.427722 -0.635348 -0.0915059 0.0299591 -0.200926 -0.126091 -0.529036 0.000644648 0.147671 1.0778 -0.192522 0.066048 0.144335 -0.599593 -0.0075715 0.226934 -0.132201 -0.687074 0.0791989 -0.488682 -0.103883 -0.216986 0.600929 -0.258612 0.0109781 -0.0533 -0.420165 -0.407952 0.522437 -0.140395 0.573771 0.124749 0.251793 0.669982 -0.0324663 0.251543 0.198454 -0.328078 0.544914 -0.570896 -0.992032 -0.269042 -0.239737 0.978867 0.67623 -1.29662 -0.590457 -0.407202 0.108311 0.725935 -0.091027 -0.264182 -0.517148 -0.261739 -0.284159 -1.15235 -0.398335 0.435697 -0.644288 0.464616 -0.400183 -0.0138438 -0.997988 0.399071 -0.488663 -0.341129 -0.411846 -0.341194 0.567451 -1.04478 0.133883 0.116727 -0.0892266 -0.693274 -0.0998496 0.73585 0.147073 -0.585583 0.392798 -0.454186 -0.370941 0.0989189 0.551642
1454 0.789015 -0.533116 -1.13321 0.830378 -0.706562 -0.362136 0.0827328 0.297785 0.182508 1.14191 -0.523914 0.796991 0.406564 0.170888 0.260624 0.0476636 -0.129926 -0.348108 -1.37409 0.834104 0.232331 0.00442949 -0.490101 -0.272294 0.650402 0.086829 0.620149 0.500249 1.69905 0.247153 -0.134487 1.19336 0.0169061 -0.217317 -1.39431 -0.19241 -2.20944 -0.229426 -0.939803 0.411081 -0.72864 -0.198061 -0.574108 -0.151066 0.0750016 0.527979 -0.549804 -0.402737 -0.187011 -0.00500402 -0.415098 -0.149105 -0.320046 -0.488025 0.275868 0.0545668 0.919632 0.633717 -0.0574812 0.84693 0.0582496 -1.02322 0.370818 -0.153701 0.828617 -0.241954 -0.941317 1.45339 -1.88107 -0.328742 -0.959868 -0.406246 -0.262508 0.178671 -0.046551 -0.527606 -0.0594593 -0.369059 0.833632 0.0287661 0.732993 0.460202 0.165284 -0.274761 0.0479316 0.306638 -0.210361 -0.590648 0.195631 -0.145059 -0.838603 -0.134793 0.120698 0.173781 -0.0175137 -0.316747 -0.240088 -0.390327 0.198849 -0.59176 -0.229142 0.37612 0.315818 -0.819339 0.769314 -0.535531 1.77539 -1.04696 0.650855 -0.825708 -1.00164 -0.216899 1.14322 0.241186 -0.85551 -0.0554363 -0.802439 -0.352731 -0.569936 1.30539 -0.31398 0.727237 0.832699 -0.171273 0.0608027 -0.457171 -0.321279 0.17662
3 -0.400249 -0.149547 0.15108 -0.655745 -0.785736 -0.816107 0.596181 0.660111 0.795347 1.66377 -0.0885118 0.0575005 1.55082 1.33517 0.678105 0.24878 0.0307569 0.242087 -0.993495 0.294131 0.344213 0.202812 -0.0603212 1.78776 2.59119 -0.769075 -0.0400398 0.60907 0.000304927 0.702648 -0.724455 0.45964 -0.391721 -1.10744 0.170595 -0.367131 -0.578074 -0.042803 -0.634661 1.4491 0.567947 0.117794 1.7982 0.70312 0.465298 -0.350923 0.263671 -0.637783 0.183211 1.27884 -1.70125 0.124503 -0.459988 -0.980911 1.04378 1.38473 2.48753 -1.07202 -1.56477 0.384453 -0.289284 -0.379976 -0.351793 0.95177 -0.4445 1.10781 -1.43076 0.34167 -0.5596 1.06418 -1.83323 -0.121517 -0.0683954 0.442965 0.665406 0.169566 -0.703212 -0.658195 -0.507838 1.12338 -0.518481 -0.452975 -0.00822558 0.887912 -0.131334 -1.09634 0.00159072 -0.265663 0.842547 0.839606 0.407185 -0.027892 -1.6405 -0.398493 -0.807301 -1.28201 -0.126749 -1.4052 1.87182 0.255478 -2.06191 -1.89798 -0.440742 -0.988168 0.543063 -1.00124 0.743184 -1.20993 -0.713663 -1.1482 -1.41967 -1.55009 -0.0299755 -0.118986 0.809613 -1.57998 -1.01983 1.41304 -3.03368 0.645433 -1.46387 -0.639451 -0.313811 -1.16017 -0.781026 -0.0273012 -0.0534131 0.917517
2544 -1.03773 0.224713 -1.22869 0.13719 -0.907116 -0.563178 0.655238 0.209121 0.257885 1.44069 -0.794137 0.366164 1.81914 1.41349 -0.168521 0.112617 0.459874 -0.167365 -0.476318 0.161145 0.562186 0.844493 0.581845 2.09537 2.99775 -0.956339 0.0710969 0.765379 0.711535 0.152021 -1.00702 0.30061 -0.532685 -1.52131 0.37474 -0.38501 -0.152048 -0.270657 -0.191976 1.60857 0.106246 0.0336623 1.27425 0.89116 0.475633 -0.515752 0.325833 -0.626871 0.242322 1.15251 -1.10378 -0.0802595 -0.740139 -1.20384 0.804324 1.07824 2.90008 -0.924896 -2.30194 0.160407 0.247711 0.412923 0.122216 0.350004 -0.134067 0.380279 -2.65347 -0.426981 -0.386591 0.976564 -2.17038 0.693858 0.353344 -0.0552367 0.532051 0.313559 -0.960123 -0.676362 -0.177944 0.93669 -0.657043 -0.51231 -0.0212477 0.756266 -0.850895 -1.14859 0.888549 -0.973179 0.0323242 0.330851 0.269617 -0.0906104 -1.04415 -0.186468 -0.4928 -2.16581 -0.0939214 -1.04132 2.19186 0.759032 -1.77492 -1.79783 0.0534318 -0.794024 0.416882 -0.136785 0.274914 -3.11062 -0.666988 -1.35386 -0.762943 -1.1974 0.0198875 -0.409255 0.602479 -1.9584 -1.30128 3.00044 -3.63029 -0.294981 -1.62575 -1.00554 -0.273081 -1.00156 -0.386809 0.532744 -0.988515 1.04407
4 0.362205 -0.0726499 -0.483175 0.0565618 0.149791 -1.02719 0.838 1.04574 0.828021 0.0157643 -0.051321 1.71974 -0.370467 0.0460892 0.421539 -0.298735 -0.0203983 0.738785 -0.604681 0.304937 -0.10897 -0.527296 -0.228069 0.397452 0.316877 0.505758 -0.00601952 0.76476 0.924795 0.010195 -0.435312 -0.621791 0.524819 0.32624 0.319861 0.371061 0.156336 -0.193282 -1.23769 0.352636 1.03005 0.474298 0.408098 -0.308285 -0.14242 -0.0461834 0.616375 0.0172133 0.21539 0.424247 -0.630612 -0.50144 -0.184453 0.59253 0.930109 -0.272915 -0.321638 0.221512 -1.10502 0.812228 0.375054 -0.497255 -0.232395 0.000413052 0.699327 -0.434379 0.700252 -0.474041 -0.71439 0.868601 0.262142 -0.473654 -0.0323865 0.247718 -0.212039 -0.331545 -0.348245 -0.136 0.115931 1.60672 1.02154 -0.79319 0.258268 1.169 -0.423772 -0.622165 -0.466075 -0.229315 0.309717 -0.451047 -0.129914 -1.57307 -0.571666 -0.250345 0.489848 0.653922 0.862547 -0.776534 -0.327988 -0.36694 0.182496 0.398894 -0.294167 0.101351 0.371041 -0.113977 0.352902 -0.310935 0.463661 0.0614973 0.0270568 -0.750954 0.35581 0.315566 -0.323638 -0.160906 0.429618 0.919508 -1.28621 1.27774 0.497526 0.0395548 0.0335654 -0.20657 -0.212457 0.347394 0.263926 0.350015
2176 0.2111 0.201978 -0.390166 -0.297396 -0.160063 -0.382106 1.00185 1.05958 0.61784 0.435142 0.374825 1.26219 0.133563 -0.00987828 -0.20039 -0.133203 -0.42237 0.376522 -0.888687 0.0442638 -0.129817 -0.387206 -0.345852 -0.0975651 -0.0538717 0.532115 0.499579 0.377196 0.510764 -0.193329 0.178979 -0.366398 0.40098 0.281172 -0.678169 -0.0743954 -0.292416 -0.212525 -0.649509 0.183436 0.410154 0.408636 -0.0376244 0.136527 0.0361297 -0.0194187 0.172542 -0.183146 -0.186137 0.164591 -0.0728449 0.135071 -0.155659 0.299767 0.760498 -0.169799 0.125476 0.539015 -0.832235 0.187081 0.168313 -0.370593 -0.412653 0.326994 0.154686 0.499459 0.438503 -0.262198 -0.190233 0.84389 -0.0796801 -0.599232 0.451492 -0.16101 -0.13952 -0.0735929 -0.433386 -0.25537 0.171484 0.870871 0.40472 -0.848765 -0.0977432 0.936777 0.0680028 -0.595027 0.0726284 -0.313488 0.276797 -0.6999 -0.305755 -1.5422 -0.368284 0.199536 0.166644 0.248293 0.694822 -0.436372 -0.195052 0.14665 -0.0389022 -0.0830484 -0.0944802 0.066395 1.09675 -0.159672 0.344241 -0.706262 -0.26537 0.186069 -0.0278099 -0.467675 -0.0252247 0.451717 0.213204 -0.822384 0.710187 0.217 -1.29026 0.436765 -0.0416587 -0.129465 0.0315913 -0.287851 -0.554504 0.648029 0.440973 0.881875
1016 0.0277069 0.176231 0.145136 0.000433624 0.241685 -0.209427 0.271258 0.695211 0.59148 0.230703 -0.0280107 0.182161 0.581434 -0.431911 -0.202569 -0.216338 -1.35216 1.10261 -0.426246 0.155766 -0.0599178 -0.560155 -0.0409666 0.257885 0.545459 -0.860203 -0.0439394 0.473955 1.65196 0.177759 0.0825995 -0.0683185 0.169039 -0.243048 -0.21292 0.0575931 0.344481 -0.245262 -0.98107 0.155525 0.153821 0.710474 0.561642 -0.130561 -0.472038 0.427174 0.498111 0.239311 0.0837559 0.199429 0.0835933 -0.100728 -0.126879 0.569363 0.924379 0.339202 -0.572478 0.018138 -0.942313 1.35531 0.409689 -1.75334 -0.552235 0.641335 0.0645145 -0.329842 0.341241 0.00103519 -0.60205 1.56664 -0.280897 0.185413 0.489624 -0.0286734 0.028004 0.100222 -0.274692 0.353076 -0.603782 0.595616 0.651566 -0.346516 0.879621 1.73563 -0.0395573 -0.153598 0.410364 -0.505912 0.683003 -0.305992 -0.432133 -1.67514 -0.500065 -0.0798786 0.725632 0.724305 0.124104 -0.980007 -0.0273565 -0.634527 0.155345 0.158387 0.445634 0.154106 0.801592 -0.449168 0.527289 -0.606269 0.413878 0.105768 -0.544345 -1.00957 0.263576 -0.135165 0.238821 -0.0115259 0.6245 0.00917855 -1.09481 0.779253 0.181588 0.737013 0.553309 -0.312584 -0.819564 0.624187 0.194602 0.77158
1761 -0.530095 0.0100008 0.0223309 -0.432602 0.753923 -0.328645 0.640648 0.198119 0.457261 0.305642 0.467532 0.316805 0.12293 -0.301124 -0.549573 -0.693142 -0.59914 0.644438 -0.495063 0.0970476 0.145605 -0.354905 0.466291 -0.0783428 -0.189205 0.195468 0.186095 -0.116234 0.455676 -0.403959 -0.532956 0.387829 0.248733 -0.0948313 -0.262208 0.680679 0.408913 -0.189167 -0.420994 -0.379085 0.0919406 -0.178451 -0.0658661 0.402103 -0.118762 0.469423 0.630551 -0.00191436 0.397495 -0.00540871 -0.00742519 -0.249496 -0.326328 0.35785 1.20533 -0.567993 -0.378252 -0.236125 -0.866587 0.92316 0.0457196 -0.554202 0.93484 -0.0678015 0.476744 0.333133 0.327917 -0.153509 -0.587078 1.45486 0.501697 -0.491682 0.585576 -0.25514 0.130312 0.237427 0.400823 0.126322 0.167446 0.237894 0.640408 0.0670634 1.13399 1.53746 0.460494 0.233732 -0.0993884 -0.423929 0.514529 -0.703261 0.115485 -0.223488 0.0341621 -0.261313 0.147071 0.441542 -0.0105439 -0.497603 0.00633124 -0.277088 -0.0613448 0.0152422 0.108687 0.175149 -0.0193107 -0.560477 0.635284 -0.306363 -0.000756277 0.045813 0.0242986 -0.248861 0.00927265 0.125787 -0.129125 0.0511001 0.224566 -0.223682 -1.05988 0.190764 -0.289494 0.176999 -0.15405 -0.0891394 -0.245206 0.26058 0.258248 0.0662699
1256 0.57436 0.350606 0.174011 -0.249527 0.370222 -0.508505 0.00568953 0.349537 0.671846 -0.197051 0.15734 1.06693 -0.266733 0.127835 -0.0380455 -0.157212 -0.0562292 0.9558 -0.486741 0.364989 0.0505267 0.0221403 0.121238 -0.543426 0.459818 0.266598 -0.258708 -0.375531 0.910644 0.0950248 -0.122018 0.888877 0.382201 0.438104 -0.0633053 -0.000971232 -0.241318 -0.0620318 -0.258477 0.185647 -0.16422 0.461719 0.244199 0.341798 -0.0416311 0.465634 0.639422 -0.195398 0.113577 -0.0535605 0.0361568 -0.283255 -0.674241 0.335789 0.735413 0.624157 0.303212 -0.346828 -0.969992 0.0227947 0.452861 -0.492387 0.138663 0.12992 0.152539 0.296419 0.781692 0.282928 0.109611 1.2628 -0.101401 -0.122109 0.614247 0.208366 -0.0593759 0.164667 -0.833085 -0.235701 0.150016 1.29918 0.81751 -0.777631 0.252611 1.39699 -0.0624027 -0.41712 -0.484029 0.0893043 0.741313 -0.184173 -0.191696 -1.72863 -0.992014 -0.361212 0.555769 -0.077761 0.453051 -0.162609 0.418477 -0.449956 0.308077 -0.310866 -0.118645 0.478002 -0.296485 -0.369859 0.184043 -0.48347 0.492034 0.43111 -0.279124 -0.298036 0.167284 0.616896 0.123747 -0.325216 0.302801 0.718995 -0.675647 0.308066 -0.344972 -0.235664 -0.389894 -0.0302919 -1.02376 0.524486 0.440028 0.639975
2175 0.316342 0.00750143 -0.323205 0.889522 -0.196936 -0.191479 0.77356 1.0156 0.507001 0.408973 -0.0405288 1.62915 0.687524 0.434258 -0.936575 -0.93204 0.326219 1.11364 -0.587764 0.9179 0.651186 -0.382231 0.0119471 -0.133931 0.580707 -0.139054 0.207662 -0.0746797 0.0114641 0.286461 -0.493107 -0.154913 -0.343557 0.473153 0.25982 -0.469222 0.124806 -0.404602 -0.379014 0.59507 0.8424 0.447326 0.709112 -0.11377 -0.341129 0.483485 0.332901 -0.601947 -0.321244 0.947852 0.00952604 -0.160657 0.0891632 0.483641 1.57689 0.212874 -0.251066 -0.405787 -1.00547 0.135945 -0.222742 -0.238426 -0.862823 0.0423558 -0.261115 0.152722 0.472126 0.377704 0.23569 0.789834 0.0391863 -0.0330355 -0.24452 -0.0911196 0.7459 0.538787 -0.460427 -0.476845 0.476979 1.36304 0.236897 -0.434499 0.987044 1.46788 0.193377 -0.29337 -0.451166 -0.288601 0.376252 -0.198941 -0.254911 -1.68602 -0.729238 0.0144042 -0.31256 0.242327 0.762272 -0.426938 0.479533 -0.896697 0.142873 0.853637 0.210568 0.322683 0.165433 -1.20741 0.296466 -1.1635 -0.249468 0.275594 0.365265 -0.517509 -0.108517 -0.106172 -0.0958073 -0.189996 -0.307579 0.229229 -2.13492 0.357616 0.597971 0.230335 0.136438 -0.279254 -0.681739 0.820064 0.147396 0.527738
5 -0.439364 0.436661 -0.249163 0.555024 -0.0304004 -0.206344 0.897955 0.580428 0.900236 -0.169362 0.126068 0.959849 0.606525 0.407551 0.412786 -0.74101 -0.596115 0.992695 -1.25009 0.969416 -0.125911 -0.772062 -0.258405 0.304698 -0.13656 -0.145487 0.864076 -0.4603 -0.699223 -0.40198 0.515985 -0.746912 -0.0475735 0.574407 0.332342 0.01045 -0.132613 0.666949 -1.1068 0.158333 0.103502 -0.525315 0.729649 -0.0509844 0.239578 0.0315307 -0.452979 -0.925927 -0.186692 -0.34429 -0.473901 -0.000953799 -0.961343 0.0158249 0.308645 0.301749 1.45588 -0.197181 -0.426033 -0.0443211 0.0968023 -0.369823 -1.16489 0.287329 0.433041 0.956265 0.116573 0.0235073 -0.306999 1.25656 -0.357679 -0.0446683 -0.670634 -0.941225 0.324732 -0.0243666 -0.342772 0.0996724 0.566145 -0.109173 0.217563 0.406309 0.502299 1.50634 0.859067 0.119521 0.410852 0.740716 -0.375538 0.580248 -0.451433 0.20869 -0.913989 -0.473751 -0.118439 0.0201222 0.0362283 0.284573 -0.0908597 -0.466176 -0.152704 0.335117 0.929899 -0.617503 -0.423192 -0.841134 0.246225 -0.474108 0.0363082 -0.0903206 0.472987 -0.285232 0.668658 -0.151399 -0.681667 -0.0529151 0.494586 0.72246 -2.36846 -0.167742 0.507291 0.701354 -0.245459 -0.200639 0.107389 -0.314139 -1.08388 0.14617
1629 -0.393932 0.147297 -0.755358 -0.171461 -0.58097 -0.269396 0.391575 0.0841192 0.51157 0.698066 0.217872 0.425103 0.617352 -0.124997 0.715816 -0.513389 -0.358228 1.94887 0.219729 0.430781 -0.98078 -0.734801 -0.524399 -0.0728241 -0.544599 0.279966 1.06644 -0.799676 -0.515891 -0.685746 1.14004 -0.0791922 -0.390004 -0.068184 -0.1993 -0.0589967 -0.0597292 1.65382 -0.291298 -0.128595 -0.472674 -0.46139 -0.495977 0.0272383 -0.553598 0.515128 0.117191 0.0927102 0.270067 0.0704963 0.0880397 -0.564074 -0.69553 0.112841 0.860056 -0.582894 1.20886 -0.0706171 -0.341838 0.566792 -0.295865 -0.689565 0.191898 0.864394 -0.0757814 0.774739 0.164561 0.198425 -0.688097 1.39843 0.0638754 0.106482 -0.078873 -0.238484 0.291574 -0.0773911 0.110825 -0.418272 0.387482 -0.397908 -0.0575367 0.452253 1.04092 1.24724 0.380748 -0.0508462 0.132004 -0.0101826 -0.233097 0.076052 -1.08917 0.509526 -0.308886 -0.234579 -0.121795 0.982412 -0.4809 0.462605 0.0931471 -0.0473111 -0.0734123 0.254339 1.0235 -0.182862 0.24347 -0.254327 0.569839 0.0619646 -0.0948766 0.472149 -0.728855 -0.240564 0.207841 0.19633 -0.545739 0.567482 0.905227 0.68382 -1.89138 -0.883153 0.341623 0.510183 0.200188 0.385514 -0.577254 -0.928856 -0.459552 0.311514
2546 -0.335095 -0.560693 -0.0495098 -0.205096 -0.161187 0.158468 0.0329681 0.609475 0.87174 0.0195193 0.274768 0.27399 0.127044 0.0650167 -0.164983 -0.168309 -0.387836 0.763381 -0.678374 0.275082 0.507329 -0.649099 -0.447504 0.131645 -0.230267 -0.236811 0.670771 -0.075384 -0.527077 -0.309107 0.0868671 -0.0804434 -0.47813 -0.349188 0.0343583 0.273794 -0.22275 0.624141 -0.524574 0.170949 0.371677 0.113378 0.428106 0.378515 0.193613 -0.225012 -0.130481 -0.0536584 -0.416184 0.678251 -0.863776 0.295299 -0.602608 -0.35865 0.695495 0.486693 0.307567 0.133015 -0.0436415 -0.120096 -0.274613 -0.0972481 -0.318593 0.58133 0.525445 0.3781 -0.358183 0.191282 -0.427341 1.08002 -0.438134 -0.183753 -0.205856 0.344602 -0.222403 0.315811 -0.0101277 0.352792 0.381334 -0.237988 0.40696 -0.43137 0.802333 1.47256 -0.0345708 -0.442771 0.217297 -0.351264 0.594723 0.618209 -0.363692 -0.092566 -0.906232 -0.657469 0.115969 0.0850975 -0.134658 0.517328 -0.301526 -0.058674 -0.495687 -0.0154681 0.708927 -0.19294 -0.25606 0.0865257 0.0431491 -0.0263151 0.55053 0.0726697 0.352367 -0.659174 -0.0195759 0.189849 -0.430431 0.506894 0.233637 0.191575 -1.03146 0.102695 0.465722 0.309784 -0.396121 -0.687987 -0.358555 -0.168131 -0.426345 -0.177529
1659 -0.156631 0.303862 0.313054 -0.368159 -0.341869 -0.333968 0.262288 0.327373 0.737425 0.385135 -0.246144 0.186044 0.531598 -0.113812 -0.683026 -0.732453 -0.483017 1.45465 -0.0211014 0.672725 -1.07347 -1.35726 -0.472715 0.621384 0.145805 0.296252 0.532147 -0.170633 -0.545293 -0.4731 0.671506 -1.36392 -0.319567 -0.38291 0.0533582 -0.347998 -0.273214 0.557986 -0.547829 -0.0653417 -0.306836 -0.0613644 0.454843 -0.398543 -0.582214 -0.0445236 0.581983 -0.91227 0.364506 -0.252992 -0.632216 -0.316919 -0.401695 -0.550528 0.112414 0.237142 1.88305 0.29948 -0.837007 0.0479658 -0.276673 -0.613919 -0.13435 1.56409 -0.0223139 1.9298 0.142864 0.561029 -1.50324 2.19843 0.0354222 -0.318442 0.0824923 -0.545695 -0.213419 -0.577958 -0.727845 1.48627 -0.477186 0.0121814 -0.136874 -0.55516 1.90654 1.7471 0.699231 0.426387 -0.274445 0.773876 0.298115 0.0905444 -0.885893 -0.647132 -1.49352 -0.45692 -0.175193 0.0651939 0.223146 0.928481 0.082203 -0.368951 -1.03265 0.208538 -0.461065 -0.363307 -0.52939 -0.251906 -0.0747555 -0.264556 0.165694 -0.0225566 0.0425863 -1.37441 -0.512406 0.276768 0.0841994 -0.27486 0.869783 0.0103699 -0.567077 0.763827 0.405743 -0.136567 -0.314819 -0.187184 0.0897209 0.509782 -0.0350877 0.11403
6 0.206427 0.0543956 0.0942352 0.184414 0.400284 -0.130898 -0.134082 1.2017 0.31469 -0.628991 -0.705867 -0.274948 -0.40069 0.976111 0.141891 -0.0478326 0.300334 0.626227 -0.586395 -0.179187 -0.104887 0.467198 0.618723 0.83122 -0.421693 -0.715413 0.231492 -0.462331 0.307496 -0.243347 0.0574485 -0.249467 0.500178 -0.0775156 -0.294925 -0.0624272 -0.410039 0.352103 0.0982847 0.701101 0.257938 0.530123 0.456616 0.171843 -0.0969236 -0.354772 -0.00903413 0.355883 -0.0616924 0.757463 -0.336889 0.392633 -0.732052 -0.220357 0.721634 -0.11885 -0.166282 -0.0967548 -0.288282 -0.251792 -0.553476 -0.506143 0.0254099 -0.232717 -0.703496 -0.107993 0.0358305 1.04654 -0.118148 2.17687 0.208542 -0.312461 0.042988 0.0693514 -0.142685 0.609432 -0.421615 -0.258607 -0.371451 0.508717 0.376052 -0.133146 -0.160262 -0.477362 0.242972 -0.904201 -0.0234623 0.0652149 0.512248 1.08416 -0.291163 -0.1593 -0.541166 0.0368783 0.483997 -0.827387 -0.104072 -0.176237 -0.0391058 -0.525184 -0.457036 -0.310528 0.159884 -0.375222 -0.422394 0.259732 0.251696 -0.417257 0.286267 -0.879371 0.0117196 0.39186 0.81456 0.222964 0.356694 0.249363 -0.232043 0.439839 -0.311404 -0.139387 -0.401228 -0.531524 0.166868 0.322385 -0.521455 -0.0202905 -0.0583739 0.960896
1416 0.16646 0.155954 -0.241603 0.0199507 0.194267 -0.52448 -0.412325 0.537044 0.0332207 0.132163 -0.0525851 0.0935936 0.0777142 0.382079 0.0651444 0.0780181 -0.126189 -0.0448402 -0.0643028 0.0441987 0.203123 0.0695503 -0.271939 0.248425 0.194655 -0.115999 0.175459 -0.569334 0.00680681 -0.279212 -0.46817 0.320762 0.394128 0.186239 -0.0485312 -0.0899056 -0.396273 0.308085 -0.189593 0.549503 0.592193 -0.197434 0.185963 0.145225 0.161297 0.219614 0.393194 -0.242165 0.267294 0.153567 -0.26384 0.1093 -0.681088 0.21251 1.03949 -0.117826 -0.126751 0.0550746 0.209246 -0.00865198 -0.288587 -0.0854481 -0.149917 -0.0449936 -0.266466 -0.222445 -0.126682 0.42545 0.11296 0.667058 0.383455 0.0651836 -0.535997 0.0854543 -0.434259 0.469824 -0.648484 -0.316009 -0.158812 0.0828763 -0.00473658 0.053272 0.127702 -0.194789 0.153119 -0.324967 0.104634 0.0682065 -0.0225884 0.562212 -0.265183 -0.158204 -0.371607 -0.128732 0.293325 -0.49858 0.0239511 0.0292347 -0.504842 0.0955415 -0.285971 0.0882845 0.0841337 0.0728246 -0.132654 -0.261551 0.359217 -0.0121016 0.536149 -0.776569 -0.219207 0.0522961 0.375447 0.592272 0.0486209 -0.0963946 0.0545005 0.142988 -0.197962 0.392074 -0.90288 0.484809 -0.252069 0.182585 0.163691 -0.463027 -0.2674 1.03193
1602 -0.267951 -0.333711 -0.195251 -0.146558 0.185617 0.0600472 0.458714 0.888749 -0.117526 -0.0284177 -0.278228 -0.025144 -0.255748 -0.117122 -0.117758 0.00518687 -0.227462 0.502054 0.0935813 0.40604 0.14361 0.266143 0.71623 0.000434004 -0.238827 -0.147187 -0.267116 0.0534878 -0.0285508 -0.512727 -0.275665 -0.0961942 0.313656 -0.211544 0.0398988 -0.00661736 -0.214928 -0.187042 -0.257283 0.30267 0.322918 0.518203 -0.284029 -0.25708 -0.0202549 -0.129578 0.276147 -0.0529642 0.362418 0.61077 -0.484126 -0.00931744 -0.629839 0.689397 0.722738 0.135747 -0.0783554 -0.0291805 -0.191858 -0.058936 -0.00593588 0.0192711 0.236765 -0.151909 -0.434635 -0.25827 -0.202 -0.1042 0.138177 1.11453 -0.272414 0.124167 -0.478474 0.595152 -0.0288787 0.499431 -0.326632 -0.65373 -0.510919 0.375922 -0.287477 0.411527 -0.00507797 -0.471028 0.370267 -0.190906 0.462841 0.0157928 0.102961 0.971073 -0.068485 -0.0375828 -0.743321 -0.209471 -0.332048 -0.0695235 -0.142728 -0.527193 0.23643 -0.510893 -0.439757 0.0638953 -0.452493 -0.269058 -0.0594372 -0.530878 -0.0436029 -0.128718 0.0375466 -0.533748 -0.414689 0.11112 0.474774 0.0903312 0.19094 0.254492 0.339711 0.333716 -0.302813 -0.168614 -0.418966 -0.268244 -0.67552 0.449425 -0.30003 0.00409779 -0.293223 1.63282
1042 0.310079 -0.225981 -0.114664 -0.458163 -0.285895 0.0398788 -0.0958008 -0.0503382 0.421226 -0.131911 -0.376469 -0.297737 0.209684 0.447029 0.0555368 -0.419637 0.115427 0.371666 0.0780805 0.0300564 0.108462 -0.425474 -0.0598 0.0936417 0.166377 -0.0435866 0.00644039 0.291007 0.19097 0.0822434 0.528372 0.310306 0.291965 0.37112 0.0661943 -0.55521 -0.48168 0.682355 -0.105717 0.34858 0.345978 -0.0601949 -0.0177441 -0.0606354 0.163904 -0.427402 0.127012 -0.316886 0.0507396 -0.480809 -0.643403 -0.0818927 -0.542719 0.0294168 0.914873 -0.338529 0.0824467 -0.213667 0.0529583 0.673412 0.000464524 -0.0573504 -0.138921 0.0734275 -0.0618 0.183084 -0.542055 0.804142 0.287567 0.758444 -0.153142 -0.11306 0.0894688 0.00583799 0.101736 0.0416483 -0.623253 -0.414449 0.185544 0.338339 -0.0802138 -0.190143 -0.156776 -0.418446 0.155834 -0.142516 0.188783 -0.0279259 0.184097 0.547479 -0.338193 -0.246817 -0.237193 0.142465 0.483199 -0.263524 0.295572 -0.434885 0.06301 -0.0957034 -0.0703584 -0.104147 0.0586697 0.511815 0.254273 0.343331 0.187149 0.121231 0.235673 -0.529547 0.0255889 0.19321 -0.0690821 0.142123 0.456872 -0.292345 0.134915 0.624259 0.24585 0.00477175 -0.936931 0.151464 -0.306674 0.0468321 0.225064 -0.0124174 -0.493476 1.31721
373 0.262537 -0.642807 -0.35349 -0.137375 0.512082 0.144348 -0.132663 -0.038446 1.02097 -0.859901 -0.49913 -0.283398 -0.41519 0.948259 0.00638784 -0.328359 0.119176 0.528168 -0.800592 0.316077 -0.697811 -0.202948 0.806089 0.197217 0.248087 -0.333762 -0.0178298 -0.260206 0.54237 0.28162 0.868038 0.424521 0.751954 0.016306 0.29982 -1.47776 -1.56437 0.259344 0.379172 1.01735 0.623973 0.405545 0.162729 -0.820004 0.538397 0.349795 -0.488412 -0.406536 0.294857 0.263132 0.092196 0.242876 -0.792655 -0.475299 1.32569 0.0317705 0.882186 -0.227061 0.0541852 -0.820775 0.043126 0.127291 -0.204909 -0.852297 -0.942637 0.203553 -0.35732 1.16035 0.702396 1.3823 -0.470183 0.127185 -0.321855 -0.583603 0.339391 0.214969 -0.843756 -0.502113 -0.119854 0.279599 0.231487 0.439277 -0.212573 -0.503708 1.1985 -0.764378 -0.0061365 -0.356402 -0.149409 1.35084 -0.535998 -0.587002 -0.0777327 0.365169 -0.099559 -0.485439 -0.304496 -0.363043 0.183953 -0.401433 -0.777562 -0.0789229 -0.261386 -0.00228853 0.430064 0.0643344 0.590193 -0.635484 0.812339 -1.20472 -0.0683209 0.368577 0.545612 -0.0520963 0.0149309 -0.562417 0.217669 0.0913678 0.287961 -0.657128 -0.728169 0.215758 -0.726212 0.413616 0.426771 0.0672656 0.404974 0.59856
7 0.827891 0.790198 0.0596153 -0.797691 1.1859 -0.171908 1.26655 1.61773 -0.244733 0.161332 -1.61347 1.40904 -0.233148 -0.304541 -0.0976994 -0.49438 -2.63384 2.83333 0.208394 0.189347 -0.283295 -0.36143 -1.17029 -0.46896 1.1551 -0.570331 1.57134 -0.0937742 1.56058 -1.62308 0.482264 0.584195 1.55145 0.879321 -0.0720224 0.115838 -2.47931 -0.485859 -0.228039 -0.562593 -0.968527 0.153549 1.08931 -0.501328 -0.976335 -0.111789 0.895031 -0.460176 0.038712 0.995 -0.606654 -0.00185863 0.194574 0.803232 0.706521 -0.556551 2.27618 -0.128634 -0.840937 1.10301 0.582897 -1.05828 -0.360848 1.88057 -0.459463 1.15138 -0.804927 1.70345 -0.117368 2.8214 -0.538643 -0.207053 -0.365015 0.0300517 -1.49998 -0.636042 -3.29642 0.480911 1.35065 0.854245 0.317235 -0.48452 0.793417 1.94871 0.117589 -0.696491 -0.817837 -0.180213 -0.461767 0.200028 -0.976462 -0.563363 -0.918142 -2.2697 1.16213 -0.944337 1.57275 0.0153977 0.620893 0.275225 -0.881146 -1.16856 0.3245 -0.841855 0.677877 -1.2289 -0.724564 -0.144524 0.984372 -3.57393 -1.3539 -0.382412 -0.538721 -0.129896 -0.345172 -0.748571 -0.751405 2.06305 -2.61601 -0.177799 -0.329679 0.298817 0.767635 -1.46863 -0.56175 0.0108789 -1.34127 1.48305
208 0.359167 -0.131666 0.266413 -0.83441 1.26175 0.378138 1.66672 2.57938 -0.588046 -0.657374 -1.78315 1.45035 -0.250866 -0.323173 0.644944 -0.471402 -2.32022 2.82404 -0.298681 0.1312 -0.321639 0.355362 -1.53485 -1.07907 1.57311 -0.44357 0.889907 -0.290714 1.57862 -1.4253 -0.33588 0.663912 2.78002 0.523825 -0.0537456 0.37102 -2.6121 -1.07325 -0.187917 -0.694432 -1.31361 -0.260336 0.62667 -1.33105 -0.740553 -0.0568114 1.79552 -0.988892 -0.496146 1.01882 -0.253517 -0.104734 -0.40816 0.664798 0.811077 -1.10499 1.93419 -1.16737 -1.73341 1.44478 1.21078 -1.69025 -0.213776 2.37401 -0.63227 1.09141 -1.28979 1.98143 -0.126082 2.5525 -0.00623865 -0.659539 -0.996627 -0.127348 -1.43607 -1.26983 -3.145 0.998252 0.554485 0.719187 -0.727337 -0.341846 0.28181 1.85668 0.52153 0.154776 -1.05004 -0.722634 -0.830836 0.164413 -0.459377 -0.599049 -1.72719 -2.94538 1.04046 -0.844695 1.23953 -0.235674 0.620837 -0.216016 -0.957479 -2.24231 0.140952 -0.991536 0.549335 -2.14237 0.104468 -0.254546 0.839106 -2.31976 -1.20972 -0.342733 -1.46288 -0.426743 -0.35587 -0.7505 -2.01365 2.1659 -2.95059 -0.366608 -0.484758 0.463548 0.738973 -1.3436 -0.0565559 -0.0926011 -1.88958 0.839212
8 0.727026 -0.600347 0.445084 0.427934 -0.0235711 -0.183621 0.560689 0.210105 0.630454 0.995146 -0.0187162 1.17015 -0.461595 0.231462 0.189096 0.36257 0.248257 0.200297 -1.03176 0.974166 0.713451 -1.05693 0.415699 -0.0487809 -0.0771311 -0.48635 -0.17417 0.873564 1.04901 0.156228 -0.938169 0.3568 0.811743 -0.368973 0.299183 0.288491 -0.668237 -0.0377438 -1.45922 -0.155436 1.22027 0.405508 -0.621929 -0.233537 0.545762 -0.104168 0.32101 -1.04918 0.0843385 0.283661 -0.817947 -0.533157 0.29328 0.426493 0.374568 0.508925 -0.379812 0.00938771 -0.237476 -0.285181 0.067105 -1.15176 -0.346926 -0.56884 0.559192 -0.247962 0.349224 0.746553 -0.493401 0.764646 0.0823938 -1.04859 -0.177321 0.0162055 -0.0666842 -0.433387 0.134337 -0.877031 0.112286 0.181093 -0.10929 0.349895 -0.93005 -0.536435 0.90118 0.637521 0.431733 -0.120135 0.0570512 0.200643 -0.0704162 -0.202721 -0.844645 -0.496928 0.0970876 0.235038 0.125852 -0.424185 -0.915858 0.249364 -0.387385 -0.550123 -0.307682 -0.0769546 0.469795 0.0551266 0.437312 -0.27998 -0.307288 -0.530317 -0.783137 -1.31986 -0.179038 0.00891551 -0.57776 0.117951 0.682757 1.7645 -0.80924 -0.287483 -0.947527 0.565455 -0.250613 0.580852 -0.109345 -0.00342275 -0.458316 -0.115222
281 -0.201917 -0.0379834 -0.759832 0.223747 0.18183 -0.151995 0.032277 -0.219638 1.01862 0.356028 0.0450622 0.702931 0.0911366 0.726422 0.678947 -0.457099 0.436196 -0.332107 -0.453998 -0.202667 0.0550299 -1.05743 -0.225656 0.606351 -0.27992 0.433428 0.0344534 0.381386 0.514857 -0.380341 0.59769 0.00536252 0.190373 0.71423 0.0255653 -0.354694 -0.256546 0.212153 -0.890699 -0.0600684 -0.0705565 0.143842 -0.032676 -0.598794 -0.0828024 0.0488505 0.171424 -0.293246 0.102474 -0.151513 -0.123906 -0.346679 -0.484399 0.186007 0.380226 -0.201473 0.00365661 -0.460076 -0.495254 -0.134718 -0.758225 -0.291255 -0.306858 0.181654 0.289107 -0.0221595 -0.130536 0.357263 -0.974479 0.651664 -0.127476 -0.237795 -0.0726754 0.206816 -0.133342 0.270481 -0.380013 -0.260744 -0.330874 0.991517 0.00838805 -0.099508 -0.771779 0.704224 -0.678108 -0.190189 0.766053 0.141495 0.18676 -0.0846834 -0.292288 -0.231682 -0.375375 -0.786706 -0.257692 -0.595101 0.155243 -0.759979 -0.257458 -0.405505 -0.372499 -0.215068 -0.0598256 -0.107187 0.243095 -0.139594 0.324854 -0.458033 0.142954 -0.328336 -0.450508 -0.118534 -0.233271 0.500628 -0.691654 -0.419605 -0.0224547 1.0369 -0.878732 -0.114372 0.120483 0.253803 -0.589366 0.206494 0.311142 0.073659 -0.439659 0.307226
1996 0.417997 0.0744155 -0.299214 0.0703292 0.289282 -0.961872 -0.0412752 0.552939 1.27259 0.177455 0.531827 0.708054 -0.0422576 -0.124555 0.233221 -0.389141 -0.587714 -0.0953147 -0.474067 0.843607 0.317642 -0.869367 0.00751452 0.104741 0.485466 -0.323739 0.69522 0.0173751 0.93539 0.202225 -0.197376 0.156511 0.373037 0.0639142 -0.415412 -0.0596114 -0.557147 -0.152237 -1.39546 0.137301 0.355418 1.0444 0.819137 -0.332725 0.514328 -0.242005 -0.199453 -0.58228 0.231581 0.441816 -0.395448 -0.131707 0.00179689 0.143558 0.420219 0.301106 -0.490567 0.102769 -0.822066 0.565492 0.253079 -0.716545 -0.268403 -0.743562 0.551722 0.234369 -0.49497 0.530624 -1.03231 0.909748 0.294402 0.481861 -0.356396 0.303675 -0.0517499 -0.120775 -0.553071 -1.26308 0.19914 0.6318 0.178584 0.107402 -0.338318 0.356622 -0.579107 -0.0210212 0.159014 0.355374 0.672651 0.0527848 0.244685 -1.25858 -0.345043 -0.494573 0.716499 -0.27694 1.11114 -0.531065 -0.509542 0.676824 -0.218603 0.559027 0.521597 -0.108097 0.3984 0.252239 0.100604 -0.264441 0.30128 -0.361767 -0.979099 -0.65545 -0.106656 0.198279 -0.412803 -0.192302 0.576848 0.355248 -0.769897 -0.169675 -0.728235 0.413737 0.0741652 0.120012 -0.296523 -0.4469 -0.00452653 0.216975
269 0.258518 -0.0370318 -0.661942 0.1639 0.5162 -0.572686 0.112337 0.487022 1.80139 -0.46502 -0.151349 0.159694 0.357647 0.104162 0.0528449 -0.887848 -0.653233 0.0249121 -0.353197 0.784452 0.451706 -1.01283 -0.540776 0.497503 0.0525407 -0.120564 0.0832005 0.0724793 1.11131 0.0663025 0.388356 -0.255657 0.773158 0.315736 -0.0709854 0.201853 -0.310783 0.548295 -0.998037 0.337483 0.19963 0.714854 0.202157 -0.0864419 -0.0693339 -0.519553 -0.380166 -0.792166 -0.0798337 0.0067568 -0.100323 -0.208505 -0.344255 0.172555 -0.0809685 0.47347 0.211276 -0.282055 -0.6693 0.415316 -0.466869 -0.433256 -0.147104 0.57188 0.390677 0.477456 0.491393 0.592314 -0.667607 1.01995 0.23313 -0.185594 0.148655 0.111611 -0.154468 -0.212033 -0.566531 -0.467535 0.137827 0.359188 -0.298937 -0.214308 -0.728852 0.0668849 0.329162 -0.452777 0.58745 0.131337 0.0954951 -0.232939 -0.270278 -0.28523 -0.31113 -0.337323 0.0626122 -0.705123 0.834282 -0.349755 -0.257163 -0.105923 0.184459 -0.213542 0.259573 0.106902 0.228753 0.0783423 -0.214803 -0.34053 -0.0972472 -0.397601 -0.182878 -0.677388 0.0690203 -0.0275809 -0.517966 -0.559822 0.123974 0.491167 -0.516874 0.130275 0.241097 0.00752854 -0.832566 0.231286 0.110707 0.165101 -0.46746 0.512995
9 -0.0866614 -0.233 -0.220055 0.462079 -0.630084 0.801186 0.562267 -0.0359637 0.25967 -0.386543 0.931041 0.94033 0.34751 0.494466 0.49985 0.591957 -0.253365 1.01369 0.74377 -0.717348 0.787538 0.706004 -0.303321 0.653169 0.205559 -0.449678 0.79877 0.67924 -0.533346 0.401322 -0.309208 0.630037 0.264566 0.788625 0.250984 -0.853065 -0.413718 0.306188 -0.404773 0.773691 0.384023 0.827817 0.691625 -0.45647 -1.61423 -0.752905 0.402636 -0.772076 -0.257226 0.680472 -0.880796 0.399292 -0.214967 0.0293403 1.92686 -0.246053 0.134178 0.662015 0.345032 0.473822 -0.220251 -0.918724 0.341912 0.286894 -1.0524 1.08228 -1.56863 0.189285 -0.0119587 0.0583862 0.446545 -0.0473696 -0.140143 -0.609631 0.0806158 -0.774809 -1.87843 0.224847 -0.563133 0.0478731 -0.175759 0.4868 0.62329 1.77833 -0.18556 -0.726204 0.00373425 0.736518 -0.566379 -0.0564655 0.475858 -0.650517 -1.60985 0.428317 -0.500356 -0.981983 0.115603 -0.094255 0.756992 -0.399981 -0.81524 0.202563 -0.243061 -0.831881 -0.289588 -0.259484 -0.256532 -0.485784 -0.481371 -0.842546 0.150564 -0.453685 0.113335 -0.283558 -0.34023 -1.43358 -0.323525 -0.109197 -0.910614 0.564888 0.275872 -0.453002 0.360435 0.00438667 0.141956 -0.108099 -0.906692 0.293358
2614 0.0181893 -0.0720252 -0.200777 0.747992 0.0175472 -0.0796064 0.229454 -0.16307 -0.249307 -0.331733 0.110335 0.366073 0.00726864 0.417778 -0.113262 -0.0422245 -0.336706 0.270449 0.397394 0.0175041 1.0514 0.445903 0.273237 0.218024 0.0923517 0.527984 1.07457 0.159219 0.152442 -0.166234 -0.17634 -0.0316252 0.667678 0.0112434 -0.442973 -0.593786 0.255632 -0.594723 -0.267043 0.833095 0.223403 0.117677 0.360041 -0.659459 -0.631107 -0.0488221 0.085903 -0.0961055 0.202347 0.359422 0.0925408 -0.0951862 -0.515862 -0.290409 0.934666 0.162467 -0.0223439 0.480562 -0.1264 0.457814 -0.322063 0.64809 0.314168 -0.0163945 -0.439032 0.460628 -0.570504 0.0716386 0.178992 0.196256 0.14135 0.308318 0.581398 -0.0713767 -0.285489 0.293935 -1.32992 0.630402 0.0656833 0.216154 0.150387 0.754417 0.143445 2.56796 -0.0675471 0.174464 -0.0516116 0.429422 -0.245068 -0.00581206 0.415385 -0.427161 -0.626448 0.642134 -0.0333219 0.000843603 -0.152903 -0.118264 0.487688 0.0747341 -0.732844 -0.327575 0.712097 -0.23328 -0.64466 0.103338 0.0518269 -0.0966572 -0.564012 -0.413445 0.332533 -0.240705 -0.000233612 0.32474 -0.492754 -0.283313 -0.305139 0.614482 -1.41036 -0.131912 0.545162 0.169829 -0.0245458 0.0755056 -0.0429999 0.50166 -0.0825884 0.265613
723 0.497796 -0.0377499 -0.172775 -0.357166 -0.597414 -0.459149 1.00545 -0.358523 0.61843 -0.227446 -0.244548 1.12091 -1.64983 0.60908 1.34185 1.2183 -1.22112 0.330846 0.282295 -1.10443 0.236557 -0.487913 0.153037 0.513081 0.382292 0.0983306 0.141408 0.366138 0.27684 -1.84422 0.0744484 0.292142 1.20286 0.405666 -0.642663 -1.01702 -1.02605 -0.298471 -0.439389 1.04837 -0.213306 1.58559 0.344198 -0.832887 -0.698366 0.00837527 0.140407 -0.135853 -0.364104 -0.443975 -0.112837 -0.202748 -0.341951 0.312746 0.0177898 -0.319383 -0.298595 -0.548584 0.461136 0.4608 -1.16098 -0.866399 0.421668 0.422296 -0.00280849 1.87476 -0.90705 0.0481905 0.498313 0.359216 -0.335932 -0.144034 -0.260717 -0.792177 -1.14679 -0.748456 -2.73772 0.2275 -0.691672 0.211074 0.512701 0.762782 0.552767 2.29069 0.304087 0.343195 0.0769978 0.716222 -0.609999 -0.141138 0.271007 -0.00886306 -0.68966 0.0906531 0.872124 -0.137977 0.0669077 -0.0835193 1.03194 -0.146548 -0.968996 -0.889075 0.226955 -0.608895 0.794938 0.025667 0.834921 -0.949381 0.230098 -0.0217279 0.0458755 -0.275421 -0.108206 -0.249162 -0.674297 -1.28323 0.126022 -0.755233 -1.62486 0.254651 -0.122247 -0.12875 -0.399721 1.15914 0.207683 -0.339424 0.215301 0.0370615
10 -0.0740042 -0.807641 0.168728 0.475872 -0.10336 -0.203535 0.168755 -0.246709 0.130868 -0.236789 0.502362 -0.275826 -0.179171 0.171942 -0.170061 -0.294254 0.442743 0.516843 0.193891 0.194532 0.415799 -0.496122 -0.249661 0.638192 0.149858 -0.0787416 1.25764 0.176848 -0.0448751 -0.817627 0.019714 0.866993 0.278435 0.843375 -0.390427 -0.199782 -0.946051 0.238316 -0.70557 -0.234051 -0.501202 -0.279554 0.394228 -0.239362 -1.16319 -0.281728 0.437741 -0.279686 0.367283 -0.0305561 0.232524 -0.757824 0.579602 -0.578216 1.02581 0.0967624 -0.506403 0.0335039 -1.73008 0.157091 -0.704358 -1.38462 -0.0582664 0.172416 0.229297 0.666032 -0.539148 0.929163 0.0299346 0.276612 -0.623043 0.0235013 0.0821491 0.328589 -0.294556 -0.0857748 -0.10924 -0.0139716 0.183305 -0.184413 -0.452916 -0.788605 0.979592 0.353519 -0.811752 -0.883879 0.363605 0.839774 -0.418201 -0.154642 -0.0958349 0.0858799 -0.832136 0.16062 -0.274312 0.19621 0.46354 -0.0800593 -0.203785 0.425656 -1.18418 -0.595124 -0.164986 -0.349098 -0.422426 -0.654127 0.101322 0.0474279 0.95476 -0.0893963 0.333028 -1.36459 0.786708 -0.513768 -1.21937 0.301582 -0.0174973 0.502815 -0.185773 -0.12126 -0.185024 0.0551366 -0.270158 -0.352155 0.260859 0.109272 0.34407 0.941373
476 -0.415697 0.0286034 0.161361 0.454576 -0.0657371 -0.645621 -0.150749 -0.314985 0.0967049 -0.659771 0.450668 -0.0390657 -0.218843 0.389407 0.0572521 -0.293508 -0.145823 -0.0760052 0.352449 1.08521 -0.380711 -0.795574 0.128762 0.159616 0.150238 0.496552 0.456408 0.584333 0.148126 0.479084 -0.0675277 0.458417 0.284535 0.438892 -0.440463 -0.31998 -0.0449652 -0.624924 -0.885081 -0.47751 -0.399847 -0.0515637 -0.128965 0.308748 -0.876788 -0.0963442 0.731618 -0.0404767 0.111554 -0.397592 0.678929 0.185028 0.0583786 0.30387 0.642408 0.0578801 -0.250948 0.150838 -0.73349 -0.414258 0.0575134 -0.943621 0.159359 0.0378981 -0.164504 0.238408 -0.476049 0.228325 -0.580286 0.0422306 -0.419289 -0.22824 -0.507525 -0.0274688 -0.139344 -0.139863 -0.0572395 -0.390151 0.647311 -0.0754345 -0.792227 -0.487656 -0.109361 0.254329 -0.284687 -0.110915 -0.282032 0.730387 0.0395296 -0.488082 -0.27969 0.419593 -0.408592 0.302389 -0.564556 -0.112339 1.08413 0.018076 -0.231482 0.0377627 -0.798747 -0.284849 -0.247744 -0.0846586 0.534263 -0.546338 0.30466 -0.486179 -0.237723 0.133595 0.230717 -0.576807 0.455851 -0.604306 -0.56119 0.103067 -0.476966 0.0219195 -0.18022 0.696663 0.601685 -0.0843076 0.164275 -0.313682 -0.0396266 0.465198 0.173529 0.545032
2545 0.102663 -0.85916 0.505205 -0.106392 0.178883 -1.49821 0.508454 -0.651764 0.932076 0.270247 -0.21614 -0.27067 0.0975138 0.735238 0.252911 -0.325166 0.0130478 0.190076 0.868325 0.664377 -1.25597 -1.22427 -0.201895 -0.265976 -1.26763 0.36415 1.26351 0.357551 0.0601934 -0.939208 -0.754867 0.823586 0.560204 -0.448431 -1.07836 0.262968 -0.496085 0.316144 -0.376572 -0.417739 0.277978 -0.0543199 0.656273 -0.0550732 -1.01154 1.09954 0.753124 -0.00434019 0.167436 -0.290182 0.378756 0.603069 -0.0280448 -0.245172 1.27564 0.0926209 0.341112 -0.72851 -1.61357 0.63841 -0.477469 -1.76002 -0.202144 0.257039 0.511244 0.0375972 0.247758 1.21376 -0.762744 0.622369 -0.306525 0.704576 -0.349352 -0.286137 -0.759596 -0.0239238 -0.791771 1.0741 -0.216742 -1.01362 0.438928 -0.4012 0.522309 1.34664 -0.542444 -0.587261 -0.898616 1.41249 0.242626 -0.702779 0.0221761 0.202582 -1.36785 -0.479259 0.594998 -0.201784 0.92656 -0.911056 0.820618 -0.375465 -0.748344 -0.929723 -0.550556 -0.480802 -1.20782 0.222889 0.654514 -0.913471 -0.358216 -0.129338 0.432113 -1.36689 1.15906 -0.148653 -1.02265 -0.388822 1.4128 0.172304 -0.330723 0.295181 0.124785 0.550721 0.291627 -1.35398 -0.403114 0.222704 0.591772 2.03229
11 -0.053502 0.422854 -0.850184 -0.518191 0.645407 -0.374124 -0.167008 -1.19921 0.136842 0.137888 0.649924 0.859212 -0.360508 -0.680309 0.561945 -0.616899 0.161262 0.1527 -1.41657 0.374506 0.646468 0.424764 0.456764 0.0451385 0.0691096 -0.725994 0.0297497 -0.200664 -0.40825 -1.21616 0.594294 2.09255 -0.216883 0.865933 -0.159095 0.705421 0.274556 0.143006 0.165649 0.218027 -0.290476 -0.937397 0.19048 0.00256337 -0.189279 -0.334652 0.277934 -0.286379 -0.297609 -0.00898814 -0.161382 -0.032746 -0.884849 0.117332 -0.06762 0.0346469 -0.102699 0.426721 -0.53572 -0.0885754 0.341829 0.300413 -0.230043 -0.46901 -0.246851 -0.231374 -0.534119 1.26201 0.686358 0.710777 -0.582869 0.821579 -1.38548 0.0791757 0.497065 -1.08541 0.16277 0.580575 0.24367 1.19088 1.19593 0.996258 -0.258982 -0.144624 0.56785 0.283165 0.446176 0.214345 0.283124 0.531622 -0.33594 -0.447095 0.544298 -0.827484 0.14606 0.456155 0.214442 0.662606 2.02376 0.379764 -0.223555 0.0187598 0.382939 0.00927069 -0.0667966 0.691397 0.163818 -0.71163 -1.24193 -0.835713 0.980274 -0.51112 0.715624 0.253342 0.652184 0.74379 0.471218 0.512825 0.760008 0.521495 -0.415682 -0.125769 -0.594582 -0.0553567 -1.06552 -0.0735099 -0.596916 1.47754
1655 0.322926 0.3592 0.129624 -0.062172 -0.313582 -0.283238 0.253024 -0.404568 0.264518 0.356561 0.694709 0.913072 -0.0469496 0.00142854 0.498397 -0.646543 -0.0066549 0.583636 0.500255 0.55516 0.224471 -0.298407 -0.173684 -0.0621487 0.0519674 0.303144 -0.265026 0.153016 0.291157 -0.590065 0.0169201 0.381679 0.0506966 -0.66767 0.314038 0.304527 0.788157 0.105589 -0.0845338 -0.161154 0.435422 -0.0534787 0.145394 -0.161854 -0.0406061 -0.0272228 -0.0380259 -0.80376 0.117659 0.455239 -0.328301 -0.135133 -0.830496 0.731937 0.524465 -0.234411 -0.223779 0.770051 -0.384153 0.408278 -0.174076 0.47052 0.309455 -0.243252 -0.0375511 0.179186 -0.632921 0.0191465 -0.160262 0.420655 -0.203242 0.159713 -1.00907 0.263693 0.0596941 -0.611853 0.0134142 0.162657 0.277599 0.219778 0.114285 0.675242 0.574713 0.00131346 -0.251983 0.126017 -0.0214554 -0.000850724 -0.0652455 -0.176308 -0.0214853 -0.408278 0.138055 0.112754 0.0739645 0.550669 0.287623 -0.167186 0.00260579 0.124369 -0.436067 0.177371 0.120262 -0.0186676 -0.0283143 -0.0592155 0.043611 -0.255979 0.0963345 -0.425735 0.219539 -0.406538 -0.0282182 0.320874 0.140271 0.145237 0.487318 -0.180184 -0.586557 0.280619 -0.373068 0.0772436 -0.630236 0.571976 -0.0588927 -0.27339 -0.220737 0.707368
1839 -0.0374479 -0.196415 0.141393 0.182216 0.263451 0.265415 0.487469 -0.165012 0.508871 -0.243792 0.251592 0.232611 -0.736062 -0.186869 0.338374 -0.81645 -0.20745 0.117377 -0.120068 -0.109065 0.471664 -0.354765 0.668792 -0.015753 -0.38444 -0.977101 -0.39049 -0.723133 0.461081 0.250029 -0.0444484 -0.0453637 -0.313035 0.124782 -0.219499 -0.0275502 -0.187906 -0.429855 0.432461 -0.0571858 -0.128363 0.728366 -0.206307 0.0896441 0.393175 0.0179963 0.424702 -0.813739 -0.122614 0.373015 -0.598794 -0.11604 -0.899383 0.303683 0.729889 -0.669199 0.0966529 0.337096 -0.16892 0.406037 0.159715 0.15121 0.0204357 -0.370614 -0.361618 0.170873 -0.113039 0.756121 0.0420539 0.833376 -0.387481 -0.200762 -0.986449 0.897833 0.0265877 0.766367 -0.0548218 0.247544 -0.102581 0.939596 0.224855 1.33422 0.0720218 -0.373055 0.235325 -0.055567 0.0207184 -0.00994482 -0.120775 0.144119 -0.32276 -0.20892 -0.269259 -0.258775 0.240631 0.0948709 0.0427335 -0.367926 0.619113 -0.80456 -0.430425 -0.106418 0.167488 -0.431208 -0.410507 -0.274562 -0.120542 -0.419713 0.126451 -0.601882 0.454171 0.00218983 0.738854 0.149121 0.0563005 0.629104 0.655624 0.229632 -0.592123 0.108024 -1.08231 0.299723 -0.372564 -0.159806 -0.444158 -0.121909 0.0832506 1.47162
12 -0.73996 -0.18481 0.0921415 -0.354866 0.908017 -0.597902 -0.309804 1.24609 -0.0214143 1.06897 -0.130732 0.520047 -0.326682 1.2967 -0.581852 0.168501 -1.79495 1.73153 -0.970727 0.469641 1.1071 -0.170861 0.418761 0.0469283 -0.0990584 -0.320736 0.240381 -0.302744 1.15524 -0.526167 0.853011 -0.260922 -0.57451 0.70715 -2.28915 -1.74257 0.364401 1.79289 -0.630722 -0.599842 -0.272947 1.69056 -0.216631 -0.190228 -0.312842 0.341967 0.210478 -0.786817 0.0678494 1.19123 -0.781607 0.0655106 -1.94349 -0.0433217 0.0406434 -0.183104 -0.110875 0.421063 -0.436959 0.913341 -0.544188 -0.021007 0.295148 -0.476427 -1.67075 -0.263795 0.446712 0.227095 0.020051 1.80718 0.227852 -0.0142831 -1.16689 -0.332953 0.609818 0.720133 -1.01484 0.156665 1.52482 2.02819 1.16496 -1.19003 0.0029965 0.227073 -0.844079 -0.373403 -0.325014 0.0191761 -0.44104 0.776701 -0.517679 -2.40359 -1.54295 -0.661535 0.774665 0.0209009 2.41068 -0.149203 0.66429 -0.0887736 -0.294965 -0.154418 -0.656651 0.259882 1.16312 -0.0773933 0.440157 -0.272818 0.0383725 -0.306801 -0.796627 -1.28632 -0.0803041 0.828504 -1.71191 -0.55936 0.816515 -0.423864 -0.150411 0.540886 -0.577859 0.14213 0.236666 -0.0346472 -2.07224 2.01423 -1.31179 0.712122
2661 -1.20135 1.25492 -0.288613 -0.840226 1.57904 -0.296983 0.495023 1.58772 -0.213832 0.489505 0.193567 0.553117 -0.213283 1.46282 -0.858614 0.313974 -2.35717 1.51749 -1.3394 0.368374 1.81688 -0.135645 -0.405487 0.721074 -0.412277 0.138847 0.00652401 -1.15429 0.615216 0.548096 1.30789 -0.673694 -0.480798 -0.050093 -2.84554 -2.10166 0.359019 1.87758 -0.350978 -0.731391 -0.295119 2.10393 -0.449482 -0.232216 0.401561 0.245647 0.615406 -0.2835 0.160065 1.68429 0.161022 -0.989952 -1.6867 0.382213 0.234071 -0.0654452 -0.635916 1.2665 -0.335478 1.97344 -1.0491 0.19525 1.1041 -0.716069 -0.644953 -0.406391 0.693501 -0.0947852 0.333235 1.32264 0.497465 0.12587 -1.06489 -0.522501 0.263035 1.62725 -0.823675 -0.368651 1.56236 1.18775 1.27196 -0.904325 -0.26624 -0.0831508 0.0481558 -0.160696 -1.02815 -0.00633648 -0.659117 1.24186 -0.780547 -1.37133 -1.94978 -0.421638 0.585835 0.885171 1.50476 0.227311 1.49143 0.299484 -0.389861 -0.966631 0.445945 0.200657 0.76134 -0.362508 0.827537 0.37428 0.368867 -0.883241 -0.919537 -3.01847 -0.51709 0.753231 -1.74368 0.630078 0.375499 -0.730242 0.400506 -0.0451169 0.188572 -0.473717 0.13582 -0.16182 -1.73298 1.42418 -1.73517 0.915518
1001 -0.931522 -0.339005 -0.0740352 -0.596428 1.65683 -1.2629 -0.0885548 1.38519 0.142643 1.38646 0.430664 0.588102 -0.340779 1.862 -0.288948 0.0411351 -1.5578 1.13085 -0.892859 0.313423 0.666509 0.219825 0.448335 0.355258 -0.152551 0.30041 0.571743 -0.435411 1.1035 -1.01824 1.20098 -0.173232 -0.127802 1.0018 -2.21587 -2.27764 0.171195 2.68819 -0.633103 -1.11073 -0.584872 1.59833 -0.204653 0.419551 -0.148732 -0.119613 0.224405 -0.759978 0.503351 1.32093 -0.220517 -0.132392 -1.92987 0.210543 0.2248 -0.506367 -0.227894 0.240318 -0.399633 1.22629 -0.5549 0.287789 0.12914 -1.22977 -1.20004 -0.347938 0.553699 0.133795 0.109936 1.54182 0.158353 0.104216 -1.06288 -0.207528 0.829309 1.16564 -1.0659 -0.320462 1.66776 2.57663 1.06124 -2.04959 0.285615 0.427603 -0.0311907 -0.361545 -1.10777 0.14234 -0.875873 0.726735 -0.483095 -1.92343 -2.12522 -0.837541 1.1301 0.719543 1.70725 -0.0728143 1.13549 0.579149 -0.224201 0.293959 -0.105514 0.254384 1.5266 -0.214193 0.0570165 -0.270249 -0.00756606 -0.613373 -0.817159 -1.59403 0.000252056 0.962973 -0.723394 -0.447461 1.27737 -0.433429 0.132128 0.443177 -0.41479 0.493002 0.198288 -1.31267 -1.358 1.15972 -1.79734 1.36105
1318 -1.16129 -0.189635 0.412808 -0.862151 0.88909 -0.899088 -0.80615 1.77811 -0.515413 0.932615 -0.334457 0.0304002 -0.272267 2.00666 -0.412198 0.405766 -1.50971 1.53696 -0.637446 0.336674 1.3565 -0.157123 0.52533 -0.0605669 0.0488736 -0.300905 0.525241 -0.806833 0.999141 -0.482614 0.553585 -0.104717 -0.393151 0.598081 -2.75412 -2.09738 0.0142168 2.61689 -0.553417 -0.672453 -1.01436 1.59532 -0.295739 -0.0448623 -0.848885 0.296448 0.113728 -0.877482 0.15066 1.54672 -0.369497 -0.000382429 -1.50391 -0.0550366 0.130616 -0.121316 -0.295368 0.640171 -0.289013 1.9325 -0.567637 0.27063 -0.368342 -0.430162 -1.81093 -0.271064 0.59251 0.103494 0.120483 1.54854 -0.100161 -0.0359782 -1.4408 -0.50397 0.390951 1.17212 -0.923547 0.0234624 1.60726 2.64586 0.925274 -1.53093 0.0413733 0.258965 -0.580633 -0.676277 -0.394458 0.2585 -0.559044 0.46066 -0.574594 -2.67356 -2.58254 -0.837136 1.14262 -0.0191452 1.87344 -0.452279 1.26525 -0.385668 -0.641265 -0.0191155 -0.25142 0.978361 1.11696 -0.171197 0.587811 -0.120093 0.263817 -0.545885 -0.972677 -1.00071 -0.0224731 1.00922 -0.865759 -0.671599 0.361919 -0.446866 0.0147252 0.113483 -0.522749 0.328203 -0.141944 -0.679461 -1.69376 1.16232 -1.86364 1.16541
2662 -0.905816 -0.275216 0.0657619 -0.865517 0.3841 -0.17306 0.685629 1.38502 -0.0856567 1.72486 0.181187 0.528581 -0.29693 1.24238 0.625409 0.156184 -0.793343 1.75254 -1.26792 0.21284 1.21689 -0.694892 -0.150869 0.883978 -0.0414622 -0.698564 0.445634 -0.0720224 2.18713 0.251886 0.864701 -0.323281 -0.70339 -0.141837 -3.11646 -2.33887 0.192905 3.20175 -0.522141 -0.760837 -0.917549 2.04555 -0.565106 0.148103 0.113984 0.592754 0.666698 -1.2325 0.432383 1.15799 -0.567756 0.25075 -1.89174 -0.0456825 -0.0959541 -0.3633 -0.403364 0.715377 -0.539353 1.07415 -0.755587 0.253495 -0.20651 -1.2142 -2.06656 -0.247866 0.45578 0.403228 0.231267 1.56365 0.65033 0.133214 -1.40574 -0.390072 0.644947 0.37956 -1.16855 0.639203 2.32664 2.01437 2.05729 -0.57499 -0.0434527 0.436189 -0.242729 -0.407599 -0.94495 0.309423 -0.744229 1.00684 -1.33944 -1.90788 -1.62797 -0.658267 1.03736 0.25003 2.18884 -0.222707 1.64072 0.143585 -0.899084 0.126773 0.596341 -0.071904 1.30102 -0.20582 -0.525128 -0.143229 0.460018 -0.543684 -0.700707 -1.82916 0.420786 0.405669 -2.32925 0.406067 0.966903 -0.900624 0.0965796 0.0139123 -0.0760862 -0.0628149 0.527428 -0.811781 -1.7854 1.84964 -1.39486 1.15862
13 0.8511 1.11043 0.554749 0.44287 -0.0292345 -0.286537 -0.315657 -0.147306 -0.0331383 -0.13508 -0.649846 1.44474 -0.445152 -0.0997319 0.191929 0.242565 -0.883833 -0.00600736 0.810031 -0.245318 -0.190314 -0.573561 -0.295808 0.441956 1.28632 0.51408 0.268187 -0.385728 0.223082 -0.103765 0.620282 -0.3499 -0.19542 0.463159 -0.611014 -0.197574 -0.0208904 1.09003 -0.214548 0.394874 0.197419 1.27479 0.735418 0.540386 -0.124796 1.22629 -0.950333 0.0889896 -0.0670197 0.0718555 -0.0684666 -0.382312 0.497806 -1.04201 0.699083 0.229871 0.320001 -0.169056 -0.467851 0.867924 -0.100462 -1.56644 0.643979 0.0354522 -0.332894 0.464461 0.34034 0.868721 -0.184533 0.00469505 0.156028 0.190146 -0.261478 0.496525 -0.436039 0.595098 0.624409 -0.151422 -0.111199 0.0606373 0.358459 -0.59091 -0.349734 -0.368167 0.491622 -1.44246 0.530517 1.14269 0.400851 0.299774 0.0910587 -0.959227 0.862336 -0.926985 -0.156703 1.03877 1.29091 0.162816 -0.0209536 0.656718 -0.621325 -0.542402 -0.515878 -0.816591 0.0436863 0.292203 -0.0942706 -0.460738 0.235175 -1.94589 1.03248 -1.52004 1.07648 -0.448987 -0.907873 0.0583588 0.0864159 -1.08103 0.267142 1.19382 -0.0183124 0.349418 0.186383 -0.183489 -0.875306 1.06653 0.421966 0.333023
1810 0.0981847 0.0970673 -0.00243039 0.372298 0.329048 -0.22007 0.104626 -0.029 0.293193 -0.0344308 -0.0296081 0.223967 0.362431 0.179811 -0.244888 -0.258474 -0.313413 0.20683 0.0538149 -0.171147 -0.00611224 -0.311838 0.089552 -0.152436 1.14981 -0.00561157 0.178753 -0.115245 -0.069639 0.302174 -0.0446625 -0.169185 -0.350897 0.00330114 -0.27905 0.529429 0.295014 0.0887362 -0.344152 0.476396 0.0816799 -0.117212 0.228579 0.39217 0.000355551 -0.199176 -0.0633008 -0.0716174 -0.290269 0.411683 -0.0447274 -0.254546 -0.0200484 -0.00991223 -0.0571453 -0.376024 0.26248 -0.220284 -0.24089 0.164298 0.0995726 -0.0567377 -0.0869458 0.112914 -0.176782 0.504255 -0.404488 0.71472 -0.115962 0.179173 0.350268 -0.043163 -0.549516 0.359177 -0.199747 0.0410483 -0.0641517 -0.250756 -0.00759512 0.020025 -0.0909523 -0.0250149 0.254994 -0.0313515 -0.121325 -0.176011 -0.0440453 0.517881 -0.110274 -0.0560319 -0.0280329 -0.218376 0.081235 -0.239987 -0.229772 0.134304 0.517526 0.224818 0.0289184 0.126589 -0.248629 -0.00320866 0.0824555 -0.18999 -0.133919 -0.265701 -0.0584236 -0.238112 0.167024 -0.177914 -0.254828 0.0751385 0.290158 -0.0898335 -0.534834 0.0848256 -0.158561 -0.0557704 -0.610781 -0.0357193 -0.191887 0.380153 -0.48754 0.0413999 -0.391165 0.263861 -0.11428 -0.317108
1701 0.325154 0.141784 0.158745 0.116549 -0.0909674 -0.322587 -0.0941988 -0.00334923 0.220685 0.49883 0.169117 0.488498 -0.109129 0.0627362 -0.27405 0.0179947 -0.0854905 0.117677 0.0603663 0.0113944 -0.0879992 -0.41854 0.0283985 -0.252681 0.766672 0.14377 0.0107168 0.138928 0.571403 0.0128783 -0.0974996 -0.181226 0.168132 -0.21555 -0.171856 -0.168498 -0.185964 0.782404 -0.209858 0.290626 0.115131 0.086742 0.441995 0.0188784 -0.0436905 0.395867 0.161122 -0.160093 -0.288459 0.286345 -0.151785 0.306242 0.119809 0.196032 0.363429 0.118953 0.0712838 0.0800077 -0.00918907 0.03483 -0.490902 -0.620692 -0.0242791 0.0273601 -0.257529 0.00144429 -0.0241016 0.164607 -0.424494 0.168442 -0.210665 0.365532 -0.262826 0.00716192 -0.0455282 -0.159563 -0.120262 0.270885 0.0145949 -0.19931 0.106617 0.149473 -0.0447446 0.0189012 -0.055184 -0.233862 0.137024 0.0890826 -0.0367757 -0.172802 0.0841459 -0.0284894 0.0328948 -0.405066 -0.21844 0.125755 0.709519 -0.116282 0.00601439 -0.0717075 -0.307211 0.217603 -0.0964512 -0.32778 -0.0391603 0.0425862 -0.289611 -0.413664 -0.323118 -0.0519772 0.0951596 -0.271025 0.126263 0.100344 -0.509968 0.276311 -0.0446879 -0.0877224 -0.171606 0.699326 -0.0386112 0.0765855 0.223181 -0.237247 -0.216694 0.14142 -0.0759333 -0.0013066
14 -0.31547 -0.158608 0.585945 0.706758 -0.170642 -0.16366 -0.0339271 0.00760663 0.197117 0.261901 -0.036884 -0.354099 -0.384459 -0.24014 0.402753 0.0742085 -0.526992 0.222034 0.640694 0.637719 0.4326 -0.987889 -0.044176 0.0131642 1.53235 0.296762 0.070811 1.00725 0.246559 -0.136811 0.186696 0.455431 0.667557 0.349303 0.507413 0.345466 0.291817 0.50558 -0.177688 0.511413 -0.457153 0.370083 -0.405629 0.253249 -0.579754 -0.461658 0.18195 0.0961967 0.0186603 0.151899 0.143529 0.742658 0.040081 0.443291 0.534353 0.936944 0.312798 0.0748472 -0.207324 -0.351036 -0.239175 0.315009 -0.543603 -0.834613 0.143305 -0.0551373 -0.00333404 0.400833 -0.701059 0.191411 -0.107038 0.0684625 -0.493444 -0.0558004 0.287124 -0.690571 0.410767 -0.233004 -0.345174 -0.0996307 0.462465 0.0545185 0.681587 0.627032 -0.563372 -0.797221 -0.630404 0.0352338 -0.0572893 0.105694 -0.460488 -0.976531 -0.0870155 -0.161052 -0.208441 0.460979 0.237095 0.32007 -0.40057 0.116489 -1.03834 -0.465655 0.0125905 -0.0666241 -0.0569811 -0.812653 0.455428 -1.18876 0.426641 -0.519245 0.276522 0.143116 0.539945 0.00421713 -0.582516 -0.130429 0.0237995 0.201947 -1.33238 0.281908 -0.0221492 -0.878287 -0.274486 0.427269 0.0906032 0.975301 0.715452 0.731262
2034 0.00954933 -0.0270274 0.249315 -0.0459649 0.0781026 0.0779772 -0.161649 -0.250255 0.189934 -0.142226 -0.238821 0.0892912 0.119372 0.0250636 0.256449 0.101046 -0.879662 0.432092 -0.0739452 0.016943 0.30926 -0.00465705 0.274422 -0.0580342 0.778814 -0.136098 -0.270885 -0.3277 0.14254 -0.165442 0.223933 0.248467 0.0998313 -0.0725153 0.0751012 -0.16025 0.0636785 0.138384 -0.00796588 0.447091 -0.222159 0.0893951 -0.133409 -0.176536 -0.183829 0.0440804 -0.294147 -0.160451 0.131529 0.224148 -0.451473 0.168975 0.156347 0.208155 0.463391 0.145895 -0.0307353 0.351421 -0.153932 -0.23064 7.14205e-05 0.132421 -0.163799 -0.0451537 -0.479033 0.358868 -0.058602 0.0289273 -0.673606 0.220558 -0.199442 0.116124 -0.404193 -0.449549 0.0393366 -0.201116 0.328382 0.19203 0.507307 -0.169047 0.50783 -0.06115 0.59337 -0.013242 -0.206023 -0.365752 0.374051 0.342278 -0.0684215 -0.0937462 -0.0749559 -0.205299 0.0882142 0.0823432 -0.122106 0.0617151 0.322961 -0.0917191 0.0523073 -0.345108 -0.493071 0.180869 -0.0839793 -0.0578556 -0.0313877 -0.07817 0.107758 -0.627724 -0.0330656 -0.589361 0.0816239 0.365406 0.279644 -0.0166641 -0.178338 -0.212426 -0.0117902 -0.0977724 -0.307381 0.250084 -0.204755 -0.129535 -0.11551 0.220032 -0.0656276 -0.0818873 0.14453 0.33725
2075 -0.158017 0.300659 0.14677 0.522622 0.273127 0.155922 0.0972582 0.204937 -0.0144271 -0.0503012 0.400105 0.275519 -0.181904 0.176834 0.0295899 -0.105228 0.581207 0.290336 0.650359 0.352642 -0.115755 -1.45909 0.32565 0.647786 1.84442 0.615241 0.134054 0.0355848 0.608323 -0.204894 0.0447577 -0.613545 0.514996 -0.0449551 0.164484 0.611271 0.692992 -0.26023 -0.110469 -0.0546565 -0.72599 0.413136 0.183269 -0.165052 0.139807 -0.417045 0.502465 -0.287443 -0.063348 0.107279 0.105893 0.0580713 0.7983 0.00969403 0.11384 0.179791 0.291178 0.441735 0.000385245 0.107797 -0.206262 0.0496758 -0.433634 -0.541038 -0.539032 0.298668 0.407821 0.337796 0.245074 0.15985 -0.729772 -0.634652 -0.390504 -0.112087 0.183661 0.286542 0.0026591 -0.325587 -0.383508 0.203227 -0.127369 0.047436 0.852485 0.301439 0.0228503 -0.531583 -0.612882 0.191135 -0.0839812 -0.163605 -0.127418 -0.528613 -0.386031 -0.579696 0.258895 0.761755 0.0876611 0.0545622 0.259918 -0.153057 -0.454674 0.00349837 0.0731758 -0.326189 0.343815 -0.878082 -0.325207 -1.00784 -0.408878 -0.457859 0.217798 0.22186 0.166691 0.680267 -0.567409 -0.394873 0.277304 0.212887 -1.1304 0.222946 -0.316891 -0.270182 -0.414949 -0.219196 -0.401724 0.463347 0.414478 0.408004
158 0.490009 0.337055 0.842058 0.357875 -0.356182 -0.505201 -0.298603 0.289275 -0.252306 0.422333 -0.0511873 1.12172 -0.268541 0.255237 0.287267 0.178517 0.0792621 0.827734 0.499451 1.14905 -0.470564 -1.18548 -0.104715 0.689238 1.4838 0.482315 0.347854 0.0568145 0.993607 -0.376117 0.123312 -0.286331 0.798806 0.480191 -0.372183 0.164473 -0.163179 0.128164 -0.644526 0.707658 0.557381 0.753706 -0.0330162 -0.581802 -0.635529 -0.288815 -0.0790646 -0.299528 0.564447 0.183982 -0.204385 0.0622562 0.471936 0.302434 0.300341 0.704235 0.176435 -0.294913 -0.236472 -0.120327 0.413432 0.540071 0.475578 -0.380692 -0.737815 0.496604 0.286305 0.0635918 -0.714787 0.332044 -0.9337 0.278707 -0.94338 -0.133224 -0.108107 -0.17231 0.410144 -0.274409 0.397555 -0.227515 -0.35279 -0.492599 0.714972 -0.040055 -0.498868 -0.50986 -1.26846 0.40325 -0.292967 0.339018 0.453987 -0.119963 -0.590316 -0.0498784 0.166299 0.609061 -0.0130181 0.0719616 0.140997 -0.187581 -0.540616 -0.623134 0.368615 -0.320253 0.344419 -0.385323 0.411253 -1.41031 -0.249208 -0.549069 0.76037 0.474905 0.327877 0.201936 -0.0700016 0.493197 0.27378 0.149178 -1.45489 -0.14078 -0.20373 -0.271876 0.262255 0.992333 -0.473505 0.695869 0.0353238 0.210559
2077 0.521739 0.318481 -0.356502 0.155336 0.197995 0.136598 0.730968 -0.318066 -0.0537667 -0.459608 -0.0444057 0.342195 -0.248993 0.376547 0.0121639 -0.22893 0.0668504 0.423806 0.572667 0.415883 -1.06101 -1.92079 0.309057 0.605738 1.75489 0.187123 -0.199131 -0.485951 0.567767 -0.334942 -0.654784 -0.354846 0.153859 0.359591 -1.01716 -0.179768 0.732289 0.0159535 0.0556473 -0.84597 0.335801 0.705891 -0.14453 0.136864 -0.116195 -0.561957 -0.0297156 -0.869587 -0.31018 0.480495 0.0579818 0.363206 -0.00572838 0.487821 -0.0995179 0.226095 -0.0932431 0.0349017 -0.580079 -0.565051 -0.222552 -0.619363 -0.384549 -0.261746 -0.75953 0.416245 -0.119853 -0.301082 -0.40703 0.302516 -0.323493 -0.364325 -0.478911 -0.324271 -0.705915 -0.473927 -0.0640109 -0.295916 -0.00872126 0.262659 0.201688 -0.208322 0.603809 0.64766 0.1264 -0.0836873 -0.795947 0.543648 -0.0431979 0.182983 0.287057 -0.179124 -0.0769056 -0.524782 0.115269 0.515145 -0.27374 0.153188 0.581314 0.318291 -0.46782 -0.35416 0.570105 -0.0116169 0.0128042 -1.41389 0.102529 -0.457921 0.0284157 0.0174998 -0.0783252 0.155716 0.181621 -0.271145 -0.481716 -0.142103 0.132509 0.0477282 -0.856897 -0.186946 -0.389415 0.251695 -0.43629 -0.0608327 -0.280968 0.66614 0.051356 0.454564
2668 0.53243 0.800706 0.689969 -0.0183758 -0.039922 0.213547 0.322526 -0.92104 0.239038 0.341835 -0.158098 0.0503788 0.136499 0.121255 0.104094 -0.0278527 0.0661573 0.885976 0.723716 0.164992 -0.72281 -1.38984 -0.367613 0.525996 1.9388 0.548368 -0.358041 -0.029506 0.91219 -0.364097 0.317668 -0.251314 0.46676 0.849205 0.179577 -0.695478 -0.798 0.250539 -0.289907 -0.194455 -0.0350869 0.0970067 0.385376 0.159802 -0.567967 0.315745 0.742802 -0.104567 0.112267 0.238376 -0.358325 0.635445 0.373674 -0.134422 -0.0948432 0.629382 0.209672 -0.0269323 0.120481 -0.224433 -0.198755 0.0294188 0.229009 -0.656043 -0.838299 -0.810472 -0.498194 0.367321 -1.12546 0.656937 -0.0370812 -0.778704 -0.999614 0.196087 0.618579 0.192609 0.18167 -0.0437784 0.125067 -0.191999 -0.118844 -0.0715937 0.304575 0.402272 -0.247308 -0.301162 -0.983569 0.297125 0.142004 -0.0578478 -0.325906 -0.489994 -0.334816 -0.115674 -0.496255 0.649391 -0.277968 -0.170323 0.367994 0.537471 -0.300864 -0.0586563 -0.163883 0.0302772 0.400729 -1.26473 0.0565443 -1.16341 -0.455822 -0.438512 0.0915774 0.485656 0.931585 0.64202 -0.0251978 0.313352 0.135449 -0.102657 -1.15628 0.0766945 -0.144198 -0.318321 -0.132234 -0.591683 -0.178544 1.03037 0.0897954 0.438021
15 1.18519 -0.215486 -0.611801 -0.854099 0.238322 0.695095 0.466899 0.809178 0.484034 0.47075 0.507669 0.530654 0.635312 1.46571 -0.119797 0.711805 -1.1299 0.183128 0.019444 0.400372 -0.0282894 -0.0198461 0.386266 1.19911 2.38691 0.425256 0.00809439 0.0286376 0.83515 -0.49079 -0.312003 -0.160638 -0.319233 0.357046 0.177454 -0.265468 -0.369191 1.40835 -0.0823783 0.123758 -0.247552 0.3076 -0.807147 -0.852685 0.139936 -0.108312 -0.0595437 -1.3338 -0.666336 -0.748436 -1.05782 -0.571006 -0.488185 0.377247 0.347261 -0.213811 0.499517 -0.427512 0.0631292 -0.0392672 0.122495 -0.779126 0.0887647 0.476621 -0.74125 0.22917 0.469899 0.433073 -0.447237 0.890165 0.176669 0.832517 -0.317425 -0.076165 -0.0674957 0.47084 -1.91492 0.234769 0.108424 0.850447 -0.168044 0.560105 1.11509 1.35442 0.437087 -0.299818 -0.109472 0.664668 -0.27193 0.382938 0.492283 -0.566243 -0.0650521 -0.607905 1.34858 -0.575451 1.20206 -0.989659 0.486394 0.00416345 -1.40367 -1.07492 1.36648 -0.222776 0.0196746 -0.115533 -0.0274358 -1.27412 -0.0782773 -0.952719 -0.636058 -1.09281 -0.976868 -0.20753 -0.317526 0.762773 0.297589 -0.128946 -0.896599 0.435427 -1.39898 0.0382394 0.9942 -0.236263 -0.643058 0.931141 0.353974 1.25175
2367 0.501369 0.0878305 0.378553 -0.0589698 -0.237502 0.188781 -0.434464 -0.0862318 0.154432 0.0371959 0.246876 0.322041 0.146682 0.776453 -0.0444493 0.417857 -0.444596 -0.0667496 -0.288512 -0.244838 0.06409 -0.208825 0.447676 0.0956288 1.46597 0.0382572 -0.244141 -0.461123 0.211993 -0.417304 0.102395 0.0603346 -0.447466 0.149116 0.283158 0.0532302 -0.226764 0.434421 0.0934202 -0.450149 0.0286311 0.383475 -0.284533 -0.15816 0.294401 0.0510206 -0.212103 0.0204313 0.436794 0.127022 -0.0110193 -0.552031 -0.37675 0.0610642 0.383409 0.365144 -0.153017 -0.541755 0.395878 -0.154318 -0.146453 -0.216818 0.211846 0.457308 -0.327466 -0.204167 0.0454755 0.0626672 -0.561741 0.687811 0.262969 0.196879 -0.0627122 -0.098973 0.228393 0.448528 -1.36398 0.0284934 0.0432302 0.694772 -0.0912331 0.908419 0.483368 0.890128 0.436641 -0.519376 -0.40324 0.239498 -0.00777163 0.578302 0.260732 0.326649 0.325517 0.0641635 0.314859 -0.534388 0.932828 -0.0186231 0.0875741 -0.191248 -0.964143 0.0206909 0.134052 0.779366 -0.221056 0.293581 -0.177449 -0.519487 -0.281913 0.0923987 0.218839 -0.924857 0.0958098 -0.0514431 -0.360535 -0.0260905 -0.815143 -0.144389 -0.263031 -0.204061 -0.664696 -0.269931 0.538658 0.0812349 -0.703806 0.613299 0.365344 1.02517
1093 0.103879 -0.0806352 0.115091 -0.0601087 -0.0384975 0.00844022 0.187433 0.855031 0.212769 0.162403 0.0476223 0.651041 0.878479 1.40139 0.0769774 0.696112 -1.37855 0.263919 -0.204614 0.863916 0.0465527 -0.448738 -0.27835 0.360061 1.81805 0.116214 -0.43742 -0.93206 0.489886 -0.303027 0.178145 0.167114 -0.450473 -0.00455741 0.381253 0.0249763 -0.235097 0.6176 0.0762113 0.0965831 0.249903 0.136569 -0.440404 -0.326751 0.605148 -0.579864 0.211549 -0.354737 0.180996 -0.167757 -0.333476 -0.702095 -0.366578 0.250496 0.199574 0.390938 -0.0882821 -0.625198 0.245468 0.65209 0.0494052 -0.0403118 -0.0473925 0.662307 -0.185808 0.669648 -0.0652589 -0.467133 0.0392025 0.41587 0.427942 0.473889 -0.0809676 0.10752 0.0752861 0.599191 -1.55003 -0.153304 -0.143448 0.729593 0.0375527 0.316759 0.39596 0.676828 0.313539 -0.530426 -0.466147 0.18239 0.23419 0.24799 0.162539 -0.449818 0.143659 0.121408 0.560638 -1.08205 1.00622 0.143759 -0.107656 -0.044976 -1.34642 0.0646445 0.597525 0.387376 -0.13757 0.266497 0.0260489 -0.961933 -0.184758 -0.0684819 -0.212242 -0.575271 -0.0690227 -0.190541 0.0487605 -0.326467 -0.526615 -0.114955 -0.196649 0.460075 -0.686386 0.12182 0.536077 -0.462077 -1.21702 0.361606 0.52823 1.27889
1090 0.478741 -0.294269 -0.0182846 0.0417199 -0.0957065 -0.145996 0.315493 0.390488 0.196206 0.214058 0.37117 0.426703 0.666272 1.49337 -0.0178946 0.513344 -0.577077 0.0555758 -0.412214 0.83513 -0.0136812 -0.514251 0.094026 0.362935 1.1417 -0.059001 -0.56274 -0.606273 0.824976 -0.86344 0.480365 0.386881 -0.540723 -0.0571445 0.361886 0.0688203 -0.0923154 0.892408 0.12254 -0.232922 -0.0631322 0.1119 -0.442279 -0.664311 0.64734 -0.0768325 -0.463219 -0.229642 0.379766 -0.0179775 -0.424494 -0.0200366 -0.460849 0.034992 0.0878206 0.0356477 -0.224824 -0.814138 0.168297 0.292044 0.0229641 -0.0679919 0.30093 1.01512 -0.354532 0.777167 -0.029607 0.11655 0.0426498 0.219322 0.31986 0.467069 -0.515659 0.0775009 -0.407856 0.552051 -1.98025 0.0477829 -0.249717 0.236718 -0.316559 0.484702 0.393657 1.20051 0.702924 -0.342369 -0.270666 0.0957548 0.0692459 0.270627 0.534892 -0.041446 0.0113578 -0.248198 0.479637 -0.215556 0.978234 -0.117135 -0.462778 0.18368 -1.84239 -0.253585 0.70511 0.00355404 -0.443713 -0.0032956 -0.218557 -1.20762 -0.258599 0.0165173 -0.517344 -0.289683 0.0889523 0.316796 -0.42789 -0.533266 -0.185567 -0.532791 -0.367022 0.285462 -0.402778 0.227866 0.76914 -0.349015 -0.892745 0.579911 0.197635 1.29592
1271 0.388835 -0.562861 -0.469319 -0.443535 0.744799 0.260329 0.474416 0.781905 0.598105 0.784076 -0.378597 -0.151563 0.919804 1.23473 -1.11136 0.621698 -1.35079 0.090807 0.14346 0.262273 0.619616 0.215767 -0.113945 1.25448 1.69007 -0.138208 -0.417057 -0.829545 0.70042 -0.204125 -0.419304 0.592116 -0.181593 -0.0166136 0.44831 -0.0185216 -0.903669 0.22735 -0.00325502 0.453615 0.00234061 0.582368 -0.681014 -0.792535 0.937816 -0.357212 -0.0452216 -0.813562 0.220182 -0.602358 -0.629266 -0.0622655 -0.309526 -0.00815709 0.244315 -0.170918 0.465844 -0.461106 0.143885 -0.073456 0.391734 -0.20461 0.301508 0.706822 -0.54222 0.298174 0.0774794 0.140018 -0.526097 0.600336 0.47179 0.419249 -0.238321 0.160074 0.178664 0.250994 -1.22045 0.277154 -0.344214 0.992564 -0.525771 0.724184 0.946894 1.11737 0.319842 -0.652211 -0.280032 -0.130222 0.233918 0.366866 0.897785 -0.0124058 -0.199719 -0.257886 1.06427 -0.0645011 1.00916 -0.551514 -0.0442167 0.232722 -1.62227 0.0520459 0.713984 -0.0449348 -0.519407 0.0428947 0.339599 -0.629978 -0.141506 -0.161744 -0.283926 -1.15935 -0.107642 -0.360589 -0.171449 -0.437844 -0.327594 0.181241 -0.190692 0.768742 -0.904634 -0.161556 0.827452 0.129632 -1.55927 1.16682 0.427963 1.11078
16 0.512958 0.384431 0.0966133 -0.11972 0.951364 -0.305775 0.613235 0.612668 1.01501 0.463746 0.757864 0.889609 0.42997 -0.103588 -0.494631 -0.492111 -0.901708 0.849685 -0.0497911 0.435724 -0.346357 0.0677266 0.552676 0.540704 0.280067 -0.482683 1.17967 0.713328 0.163755 0.312395 0.294996 -0.606349 0.012386 0.734198 -0.287635 0.281968 -0.135314 -0.465277 -1.06902 -0.258902 -0.984147 0.604774 -0.219942 -0.634142 0.0110016 -0.0222323 -0.411833 0.186825 0.124022 -0.477967 0.01399 -0.0435303 -0.54544 0.114136 0.239759 -0.0256409 0.75976 -1.30752 -0.26482 0.0201919 0.274599 -0.981929 1.01287 0.736314 0.26555 0.454608 0.5833 0.137615 -0.453694 1.57468 0.135094 -0.580262 0.206991 0.472191 -0.723864 -0.123031 0.0223671 -0.226786 -0.65214 -0.234422 0.926968 0.038834 -0.684726 1.87475 -0.562645 -0.179177 0.183018 0.00471297 0.102416 0.271078 -0.213837 -1.16417 0.456333 -0.307566 -0.112576 0.132787 0.343421 0.164578 0.315837 0.450358 0.544925 0.110656 -0.289039 -0.0765435 -0.505784 0.0929795 0.360317 0.0938068 0.389561 -0.396535 -0.186557 -0.120022 -0.125729 -0.436511 0.169622 -0.802828 0.356194 -0.557789 -0.841392 0.00298091 -0.53883 -0.257449 0.24433 -0.163113 -0.73095 1.21683 -0.521127 0.250773
2444 -0.127193 0.361663 -0.0373269 -0.165951 0.114459 -0.508434 -0.214529 0.554395 0.609332 0.21945 -0.0043493 -0.165838 0.408644 0.0264575 -0.661178 -1.25355 -0.33506 0.438317 -0.411889 0.513901 -0.196042 0.264219 0.189378 0.66554 -0.157318 0.149705 0.08668 -0.0566465 0.106256 0.822495 0.0429162 -0.506826 -0.0292935 0.379014 -0.00960304 -0.606505 0.281188 0.0925872 -0.276403 -0.466642 -0.101061 0.86562 1.12188 -0.312777 -0.250362 -0.277047 0.368934 0.1287 0.525941 0.237623 -0.203801 -0.372416 -0.347613 -0.00792622 0.737723 -0.427353 -0.149113 -0.268865 -0.355328 0.0567869 -0.0211315 -0.134263 -0.604988 0.23833 -0.676382 -0.254862 -0.48541 0.032063 -0.311456 1.11865 -0.756004 0.542031 0.153963 -0.163295 -0.175608 -0.334718 0.0342793 -0.171986 -0.0858161 -0.23769 0.637564 -0.412356 0.035106 1.51888 -0.314611 -0.113891 0.00121907 -0.564466 0.266283 -0.0528779 -0.234017 -0.294927 0.224913 -0.683199 -0.334099 -0.00544283 0.0901764 -0.134873 0.115061 -0.704849 -0.48114 -0.0955558 0.547251 0.894799 -0.017598 -0.0513582 0.702904 -0.00955722 -0.308933 -0.00882447 -0.736273 -0.584125 -0.437253 0.384668 -0.353101 -0.0475451 -0.600438 -0.386032 -1.09843 -0.0984331 0.309212 -0.354975 -0.276925 -0.916787 0.418117 0.647832 -0.209718 -0.0900919
1632 -0.0183994 0.583886 -0.0943447 -0.577126 0.21238 -0.489113 0.806386 -0.091477 0.646571 0.18167 -0.472819 1.06732 0.30654 0.454312 -0.47075 -0.589362 0.192429 -0.0635791 0.269713 -0.393371 -0.495127 -0.388816 -0.183532 0.231757 -0.208602 -0.320388 0.870575 0.0287473 -0.643031 -0.13147 0.120906 -0.194048 -0.117882 -0.0850916 -0.940498 0.0419002 -0.415542 0.638784 -0.492708 0.441455 0.059588 0.621809 -0.161043 0.785782 0.926363 0.325728 0.632289 0.259586 -0.0824709 -0.11884 0.071583 0.0190686 -0.828566 -0.292507 0.666669 0.729447 0.0771301 -1.38979 0.245406 0.104245 0.181799 -0.575194 -0.217687 -0.831047 0.107061 -0.202256 -0.537202 0.669905 -0.674949 2.03802 -0.164218 0.429407 -0.717862 -0.110501 -0.857903 -0.570395 -0.387883 1.0458 -0.0499871 -0.433812 0.856754 0.114932 -0.606879 2.04996 -0.360319 -0.277668 -0.565559 0.415867 -0.327579 -0.104196 -0.993497 -0.666113 -0.488121 -1.26888 1.05627 -0.603195 0.0329911 -0.671359 -0.381708 0.0920877 -0.28793 0.908579 0.874347 0.425377 -0.274505 0.467093 -0.142813 0.0935744 0.0862603 0.216372 -0.255579 0.0592607 0.210172 0.209152 0.244453 0.0704341 -0.225334 -0.207448 -2.46227 -0.473868 -0.324674 -0.901819 0.86882 -0.378513 -0.624218 0.0318186 -0.911506 -0.595321
970 0.00621237 0.746172 -0.0231771 -0.155934 -1.26162 -0.151623 -0.0639198 0.084714 1.24507 0.199323 -0.162617 0.175262 0.630001 -0.0630122 -0.0652697 -0.925599 -0.341765 0.553789 -0.469803 -0.303787 0.204446 -0.0266595 -0.0208095 -0.467894 -0.311275 -0.0314461 0.553495 0.379377 -0.227707 -0.3713 0.480713 0.0290507 0.221478 0.197503 -0.806508 -0.127905 -0.125754 0.863647 0.151209 0.277257 -0.504848 0.0327402 0.208494 -0.837206 -0.214583 0.187789 0.505862 0.113668 0.207738 -0.676387 0.295244 -0.396915 -0.214194 -0.475144 0.0233788 -0.151479 0.124784 -0.600813 -0.662812 -0.222108 -0.343977 -0.330997 0.404278 0.39138 0.610203 0.582364 0.0585675 -0.495974 -0.518798 1.54216 -0.304651 0.389826 0.0246899 -0.307861 -0.427798 0.459588 0.255131 0.766246 -0.294252 -0.231346 0.32301 0.352059 0.0382573 2.33671 -0.375211 0.0959123 -0.62979 -0.0838115 -0.1407 0.832842 -0.150087 -0.50458 -0.375151 -0.0398915 0.836315 0.6927 -0.115066 0.404659 -0.0676051 0.037779 -0.729646 0.403029 -0.039427 0.178505 0.279557 0.446487 0.57146 0.151727 -0.00215893 -0.414995 -1.41726 -0.520121 -0.327949 -0.317323 0.089495 0.537094 0.327463 0.0365482 -1.53475 0.188595 -0.544946 -0.364284 0.169639 -0.23558 -0.322325 0.977845 -0.698326 -0.420098
2642 0.95685 1.30182 -1.04864 -0.777271 0.205844 -0.0644964 0.411935 0.488127 0.916273 -0.218837 0.00430029 1.11105 1.16266 0.0402191 -0.314946 -1.26499 -0.636167 0.453965 0.290478 0.409733 0.169576 -0.324758 -0.441083 1.0725 -0.067863 -0.818135 0.339642 0.732579 -0.160317 0.148306 0.183715 0.530354 0.0956861 0.136359 -0.50045 0.0207687 -0.044721 0.201626 -0.270587 -0.509971 0.0552936 0.371648 0.58556 -0.644831 0.121365 0.455863 0.26243 0.320443 0.827892 -0.143613 0.390033 0.0822604 -0.496572 -0.0405778 0.128517 0.131217 0.842988 -0.48903 -0.476014 -0.818684 0.651674 -0.768058 -0.180947 0.332303 0.401702 0.117934 0.151848 -0.00888818 -0.244497 1.53496 -0.231088 0.565921 0.160663 -0.198433 0.186927 0.931278 -0.705305 -0.118525 0.0731222 -0.260908 -0.316538 -0.332134 -0.518594 2.06689 -0.416562 0.20613 0.4067 0.158392 0.318145 0.495611 -0.636075 -0.446042 -0.449521 -0.164658 -0.216558 1.09277 0.385094 -0.0681328 -0.0771524 0.265725 -0.352682 0.40178 0.289872 0.191703 -0.0257394 0.545354 0.479571 0.208311 0.506273 0.0706693 -0.325121 -0.414169 -0.440647 0.429453 0.188886 0.618156 -0.262532 -0.721809 -1.7408 0.284661 0.428549 -0.943075 0.31014 -1.01395 -0.567778 0.516496 -0.298297 -0.00464777
17 -0.561457 0.207428 -0.319559 0.0183654 0.10995 -0.488796 -0.112611 -0.34958 0.238115 -0.417979 -0.73681 0.343028 0.336741 0.555539 0.407866 0.45967 -0.807482 1.0568 -0.182393 -0.0861326 -0.524547 -0.662214 0.282667 0.00569527 1.39819 -0.286466 0.577279 0.376551 0.553774 -0.679986 0.388753 0.880209 0.611062 -0.0267625 -0.36818 -0.0429333 -0.149374 -0.228233 0.186444 0.380362 0.880309 -0.274325 -0.0502932 -0.868876 -0.467874 -0.18063 0.899548 0.213795 -0.291979 0.256768 -0.0439499 0.496897 -0.292473 -0.30602 0.543805 0.382198 0.313723 -0.581927 -0.380573 -0.896639 -0.705477 -0.666327 0.0574434 -0.157146 -0.873583 0.593415 -0.177196 0.475319 -0.614289 0.726389 0.206125 -0.336133 -0.716469 0.548978 0.534905 -0.824363 -0.136109 -0.535792 0.500674 -0.0386329 -0.254685 0.00428799 0.172059 0.3161 -0.315173 -0.460636 -0.699126 -0.0107938 0.0354489 0.165964 0.686813 0.328188 -0.659399 -0.41167 -0.361596 -0.428418 0.169726 -0.6662 0.554821 -0.215675 -0.470278 0.183599 0.323381 -0.0821734 0.722127 0.392282 0.143447 -0.104582 -0.0727374 0.136806 -0.187633 -0.409772 0.0656743 -0.060206 0.075782 0.49729 0.515378 -0.260521 -0.260335 0.153042 -0.388392 0.118718 0.157818 0.216578 -0.606523 -0.291251 -0.192165 -0.453604
24 -0.198805 0.578322 0.674263 -0.0691176 -0.0417937 0.104849 0.120774 -0.269176 -0.537599 0.227356 -0.085991 0.433204 0.0584468 0.275531 -0.379794 -0.00405048 -1.09553 -0.0546528 0.254603 0.0422679 -0.0486591 -0.865434 0.190203 -0.269924 1.45037 0.334018 -0.0439704 0.0426362 0.460769 -0.212318 0.119569 -0.493594 0.777843 0.249338 -0.245682 0.183208 -0.335371 0.332472 -0.299124 -0.463879 1.29048 0.368713 0.0819725 -0.31856 0.216336 -0.339938 0.273907 -0.521786 -0.782294 -0.0976487 -0.013606 0.0642776 -0.213899 -0.291996 0.311047 0.241693 -0.0949852 -0.579202 0.0852447 -0.164188 -1.21351 -0.679047 -0.772746 0.652955 0.135336 -0.359785 0.289216 0.453885 -1.41278 0.357423 0.0514395 -0.584715 0.0157228 0.55424 0.371775 0.241949 -0.10244 -0.41218 -0.252509 0.422512 0.292402 -0.226669 -0.48033 -0.254975 -0.366472 0.219446 -0.569465 0.0945238 -0.464688 0.0301655 -0.194915 0.223555 -0.238872 -0.617443 -0.291424 -0.411081 0.80117 -0.861381 -0.257398 -0.319412 -0.0969431 0.790485 0.324951 -0.516767 0.123898 -0.334774 -0.112153 -0.44195 0.75464 -0.621136 -0.457045 -0.291478 0.144389 0.889813 -0.710463 0.283657 0.180096 -0.42125 -0.364903 -0.0804458 0.145952 0.0841706 0.291767 -0.404578 0.0815026 0.70359 -0.359984 -0.10665
2140 -0.209374 0.0960336 0.321548 -0.503324 0.523347 -0.843011 -0.0107739 -0.0508285 0.340654 -0.210221 -0.612557 -0.493901 -0.190657 0.694478 -0.630274 -0.418018 -0.749269 0.98965 0.107014 -0.145061 0.0608755 -0.66074 0.22988 -0.0337164 1.57913 -0.424728 0.445866 0.577531 0.831054 -0.0111663 -0.0854773 0.0626549 0.383437 -0.104005 -0.478262 0.201246 -0.0299793 0.248813 -0.165904 -0.125549 0.524003 -0.109675 -0.100133 -0.0506833 -0.715421 -0.696767 0.511461 -0.243866 -0.529983 0.881414 0.226827 0.485363 0.404185 -0.817254 0.577728 0.104998 0.48153 -0.40063 -0.558006 -0.403599 -0.0951631 -0.575664 0.458705 0.704605 -0.0467958 -0.0617923 -0.12899 1.12814 -0.489909 0.967098 0.352455 -0.714386 -0.296613 -0.0885254 -0.117399 0.0855929 0.0634099 -0.0206233 -0.0789119 -0.0396224 -0.26433 -0.465103 0.49391 0.189867 -0.243585 -0.0571654 -0.183449 0.110657 -0.409597 0.328023 0.667933 -0.238728 -0.205229 -0.544126 0.143365 -0.911581 0.741181 -0.321524 0.765974 -0.562617 -0.190317 -0.0606008 -0.211452 0.0353037 0.0713402 -0.262407 -0.0969549 -0.501251 -0.485194 -0.91668 -0.979606 -0.417556 0.776296 -0.042892 -0.555188 0.029277 0.0268615 0.183937 -0.272652 -0.170158 -0.395324 0.423033 0.15405 0.0354008 -0.344693 0.346595 -0.556692 -0.526987
1316 -0.152497 0.176042 -0.432642 -0.084229 -0.0635661 -1.43501 0.615913 -0.00713399 -0.123931 0.564428 -1.18775 0.758142 0.734268 0.376995 0.290588 0.159742 -0.570571 1.68069 -0.0444045 -0.0216513 0.489682 0.154783 0.297032 -0.797388 1.09972 -0.16218 -0.176074 0.454924 0.698404 0.564629 -0.751912 -0.192556 0.348111 -0.16127 -0.70219 -0.391328 -0.638587 0.214357 -0.208657 0.0844477 0.647141 -0.198372 1.11974 -0.84974 -0.0249608 0.0640801 0.0167824 -0.582462 0.289632 -0.244447 -0.0931693 0.741247 0.458106 -0.0531085 0.835705 -0.0774073 0.367308 0.202597 0.147589 -0.920905 -0.815834 -0.732985 0.339458 0.713153 -0.778654 0.625384 -0.521464 0.627207 -0.203825 0.784802 0.499548 -0.543496 -0.416538 -0.177103 0.171628 -0.158287 0.125363 -0.350122 -0.263369 0.0470634 0.200953 -0.710213 0.0372074 -0.256026 -0.497901 -0.0395892 -0.843752 -0.103306 -0.596887 0.66441 0.13006 -0.457639 -0.194763 -0.0600516 -0.76098 -0.707493 1.44029 -1.35146 0.340891 -0.824564 -0.20746 0.329159 0.507779 0.82731 -0.811925 -0.161994 -0.287523 -0.262428 -0.282563 0.351382 -0.690552 -0.0573844 -0.0610907 0.576416 -0.442932 0.256121 0.527754 0.0886393 0.05508 0.946692 -0.703683 0.458304 0.293704 -0.175744 -0.624371 -0.096308 -0.351052 -0.497775
1315 -0.0330002 0.60329 0.241304 -1.10673 0.653921 -0.747591 0.0436332 0.65349 0.525001 0.350493 -1.68502 1.06588 1.66206 0.444344 -0.340173 0.0746827 -1.48955 2.4081 0.469853 -0.0213098 0.532325 -0.511154 0.521322 0.592966 1.85105 -0.714355 0.533107 0.117927 0.750421 0.320223 -0.111655 0.214492 0.268275 0.183832 -0.168359 0.390933 0.00783382 -0.10851 -0.120596 -0.107905 1.33714 -0.330179 0.123448 -0.456088 -0.757279 -0.507381 0.0474879 0.0686624 0.222379 0.790663 0.22014 0.298013 -0.219045 -0.449857 0.790924 -0.0664718 0.741659 0.463105 -0.0878249 -0.673559 -0.465272 -1.19339 -0.745081 0.951244 -0.164211 0.516346 -0.685249 0.739762 -0.420904 1.06544 0.121749 -0.212871 -0.863418 -0.22311 0.0226463 -0.497943 -0.736575 0.286989 -0.363305 -0.0180286 0.263449 -1.05152 0.405152 -0.355298 0.406886 -0.0533714 -1.15435 0.154989 -0.838712 0.932997 -0.366417 0.019165 -0.320756 -0.402497 -0.174638 -1.31199 1.15851 -0.668709 0.304028 -1.09286 -0.638241 -0.62594 0.38421 -0.531267 0.0446842 0.228916 -0.245134 -0.463984 0.217941 0.377298 -0.956236 -0.264964 -0.318696 1.0059 -0.252339 1.55841 0.088779 0.0435299 0.0178268 0.275142 -0.0136903 0.416663 0.690897 0.0189295 -0.245275 0.208399 -0.321989 -0.404055
927 -0.849415 -0.00290598 -0.308707 -0.885163 -0.796037 -1.36525 0.802985 -0.613028 -0.194768 0.820686 -0.280273 0.451713 0.866827 1.39966 0.605405 -0.559295 -0.534053 1.2315 -0.252785 0.313562 0.160497 -0.739147 0.570846 0.512979 1.66445 -0.18232 0.637978 1.29303 0.719439 -0.963306 0.924384 0.129103 1.28167 -0.129796 0.458093 -0.13712 -0.360908 0.112128 0.0839802 -0.0209062 0.437817 0.568893 -0.332178 -0.405535 -0.852051 -0.119383 -0.39233 -0.0651627 0.0848413 0.366025 0.757684 -0.500019 -0.0248687 -0.299686 1.24414 -0.000778825 0.665502 -0.543853 -0.356624 -0.885319 -0.817284 -1.37297 0.162695 0.132147 -0.435754 -0.303917 0.196698 1.13022 -1.6624 0.334626 0.434481 -0.0274076 -0.131194 0.169156 0.0426554 -0.999669 -0.333874 0.56814 -0.352776 0.50292 -0.448466 -0.984538 0.126201 -0.0933366 -0.172351 0.0573623 -0.80311 0.697302 0.715381 0.413939 -0.400582 0.0962336 -0.346605 -0.970596 0.00747927 -0.551948 0.922827 -0.105429 0.0127378 -0.631621 -0.422308 0.177221 0.0746502 -0.343283 -0.589177 0.0960051 0.131703 -0.661461 -0.0114469 -0.413131 -0.167205 -0.932157 0.945639 0.515987 -0.906804 1.14274 0.698088 -0.23253 0.0184993 -0.0989319 0.524381 -0.00608838 -0.256859 -0.207197 -0.400054 0.0236733 -0.333668 -0.634615
18 0.00807146 0.37092 -0.432989 -0.258863 0.177607 -0.0759333 0.0144211 -0.0241178 -0.441168 -0.598237 0.0498505 -0.290902 0.285802 0.188918 0.305126 -0.584859 0.484938 0.135815 -0.0121831 -1.0454 0.264174 -0.179064 -0.301456 -0.80255 0.402079 -0.79029 0.904509 -0.369744 0.161088 0.398922 0.0938077 0.721894 0.30542 0.0228573 -0.787297 0.063779 -0.150681 -0.40239 -0.440636 -0.461749 0.402111 -0.169018 0.609681 0.234273 -0.050837 -0.395652 0.147918 0.247157 -0.172738 -0.0348953 0.00731236 0.531842 -0.664086 -0.482959 1.22265 0.012122 0.700863 0.0732506 0.0526507 0.851301 -0.389528 -0.73878 0.26574 -0.288795 -0.228054 -0.0348726 0.13306 0.373041 -0.0740122 0.132098 -0.893336 0.536506 -0.436645 0.245401 -0.715989 0.292122 -1.02355 -0.00595598 -0.567195 0.473453 -0.0133531 -0.407564 1.26378 -0.18511 0.0226821 -1.07973 0.235333 -0.00725522 -0.642728 -0.514609 0.372638 -0.100616 -0.579953 -0.277852 0.0558275 0.572251 0.445763 -0.100085 0.128927 0.266694 -0.720867 0.175256 -0.0653202 0.452897 -0.450382 0.266422 0.150895 -1.02855 1.22224 -0.0875338 0.278726 -0.672489 0.225637 0.168005 -0.176316 0.250315 0.515266 -0.403543 -0.233341 0.426246 -0.707362 -1.08466 0.225961 0.155305 -0.855662 -0.0740474 0.402399 1.50972
2082 0.770216 1.04339 -0.111595 -0.914403 -0.50343 -0.886047 -0.926512 -0.0818849 -0.241308 -0.302092 -1.04694 -1.12824 0.159796 -0.0296513 0.959174 0.129303 0.156282 0.0793552 0.0899232 0.0209656 0.323309 0.389333 0.396274 0.346319 0.955698 0.00450487 1.43045 -0.20038 0.158441 0.43527 -0.627147 0.828611 0.332891 0.879668 -0.0950702 -0.8198 -0.890311 0.204269 -0.272059 0.00302723 -0.251335 0.210658 -0.627638 0.242005 0.792803 -0.295704 0.377019 -0.108167 0.134489 -0.617346 -0.465926 0.711459 0.662512 -0.689466 0.900837 0.152946 0.382515 -1.49016 -0.715214 0.604491 0.718453 -0.59767 -0.62329 0.897031 0.446765 0.0347871 0.138748 0.787416 -0.129597 -0.408149 -1.15406 0.0288224 -0.109287 -0.0166749 -0.637262 0.419056 -0.487358 0.996638 0.289876 0.0729187 0.225772 0.193803 1.07178 -0.5001 -0.541725 -0.263957 -0.240843 -0.486763 0.907552 0.266645 0.215809 0.523966 -1.28743 -0.216707 -0.228041 0.144167 -0.395372 -0.213475 0.559759 -0.984344 -0.99969 0.381754 0.511596 -0.625823 1.0637 -0.281205 -0.08169 -0.814678 0.611814 -0.351229 -0.399087 -0.779404 -0.0685579 0.605916 -0.168581 0.514473 0.0658095 -0.195552 -0.932481 0.209047 -0.135228 0.164046 -0.0983198 -0.436745 -0.753828 -0.754864 0.942617 0.106181
139 -0.10106 0.00912935 0.324821 -0.248194 0.0699083 0.0598596 0.0928828 -0.0388154 0.0874672 -0.134621 -0.228258 -0.354651 0.494219 0.206908 -0.205085 -0.117374 0.388814 -0.482362 -0.116333 0.277975 0.117016 0.634364 -0.425031 0.248942 0.484833 -0.504406 0.654026 -0.0634669 0.226779 -0.0383302 -0.0478081 0.0052755 0.678026 0.598654 0.183557 -0.178461 0.416696 0.272506 -0.370478 -0.333297 -0.310068 -0.161606 0.336394 -0.00924599 -0.103831 -0.0354054 -0.500539 -0.0564873 0.188665 0.0600528 -0.311812 0.479658 -0.457676 0.26175 0.844849 0.598656 0.570127 -0.155252 0.515227 0.51091 -0.319308 -0.90265 -0.217882 0.314619 0.0162294 0.0371352 -0.510556 0.703741 0.301148 0.202461 -0.184955 0.0610693 -0.557627 -0.526749 0.244681 0.474094 -0.392945 -0.11343 -0.0446089 0.778057 0.176404 0.0251741 0.2469 -0.324487 0.641264 -0.339995 0.00900983 0.586508 -0.313324 0.212271 -0.130999 0.274617 -0.0410502 -0.334809 -0.482342 0.275089 0.249818 -0.192898 -0.110296 0.375501 0.223977 -0.382702 -0.201928 0.58647 -0.201665 -0.519305 -0.354578 -0.178008 0.485174 -0.285124 -0.117713 -0.978266 0.727153 0.131983 -0.268912 -0.304471 0.841631 0.43837 -0.429399 0.429111 -0.509419 -0.499316 -0.107577 -0.0569164 -0.324311 -0.106273 -0.0357679 1.30931
1786 0.644879 0.757643 0.0246522 -0.122965 -0.0237906 -0.882657 -0.363521 0.113384 0.416565 -0.502619 -0.512238 -0.504276 0.79069 0.232702 0.143238 0.476768 0.671994 0.398974 -0.0346468 -0.159583 0.194772 -0.516767 -0.247078 0.0796236 0.352849 -0.26751 0.461482 -1.03084 -0.236103 0.848257 0.157139 -0.276932 0.139958 0.386304 0.528232 -0.52651 0.164827 -0.107526 -0.544834 -1.01541 -0.517158 1.00638 0.712413 -0.203217 -0.399861 -0.617722 -0.2805 -0.643055 0.0311354 0.291336 0.601767 1.42949 -0.182185 -0.103731 1.5376 -0.0465606 0.00610086 -0.235127 -0.4874 -0.200575 -0.0958291 -0.563889 0.289501 0.700195 -0.91092 -0.239288 -0.656204 0.392447 -0.496322 -0.0692849 -0.420856 -0.0856446 -1.92187 -0.146613 -1.03862 0.523533 -1.18165 0.50829 -0.0336077 0.55073 0.295303 -0.680131 0.180705 -0.363808 0.43121 0.117644 -0.761288 0.419016 -0.448581 0.336735 -0.708187 0.484904 -0.56615 -0.373202 0.309766 0.868597 1.2784 -0.338838 0.377993 -0.444292 -0.412574 -0.516813 -0.929951 0.891092 -0.328112 -0.0684369 0.175818 0.124664 1.09321 -0.221778 -0.234254 -0.255972 0.296112 0.411722 -0.0203122 -0.690562 0.824439 0.378819 0.180968 0.0470567 -0.261139 0.193724 0.110693 0.123369 -0.253859 -0.701764 0.532881 1.16888
1560 -0.752036 1.10916 -0.691946 -0.112064 -0.218945 -0.383198 -0.693719 -0.553924 -1.02968 -0.0152112 1.01857 -0.263769 0.234685 0.203943 -0.0946838 0.188995 -0.0954406 0.261867 -0.172875 -0.25951 -0.481892 -0.473465 0.485217 0.718138 0.688879 -0.923013 0.242488 -0.414248 0.146033 -0.336488 0.202148 -0.192719 0.272442 0.790755 0.236407 -0.135756 -0.625173 0.225412 -0.965592 -0.642373 -0.210162 0.0226941 -0.322739 0.553146 0.440811 -0.300291 -1.05744 0.777305 0.848369 0.0123294 0.127471 0.687066 -0.377807 -0.339993 0.736932 1.29031 0.719057 -1.35474 -0.463623 0.943483 -0.56053 -0.0759501 -0.386907 0.517884 -0.217796 -0.458266 0.426213 -0.189693 -0.543032 -0.0876568 -0.673059 0.103401 -1.12061 0.53628 -0.539132 0.592104 -1.84292 0.62502 0.219829 -0.0815141 0.442233 0.198209 1.45081 -0.82384 -0.45925 -0.624614 0.506548 0.630338 0.243372 0.125306 -0.607584 -0.715568 -0.728999 0.59527 -0.698849 0.643428 0.635279 -0.7182 0.810176 0.435778 -0.596124 1.10799 -0.145729 -0.621585 -0.136745 -0.00828938 0.144784 -0.701704 1.16469 0.302888 0.150838 -1.33289 0.372727 0.496412 -0.239893 -0.088737 0.534511 -0.163886 -0.0863703 0.274066 -0.249871 -0.368937 -0.105148 -1.30586 0.0599198 0.453653 0.192775 1.34469
2145 0.223584 0.345778 0.0813639 0.0707086 0.325898 -0.313989 -0.559229 -0.264482 -0.0681603 0.260992 -0.275754 0.496281 0.0164951 -0.710623 -0.0847031 -0.500055 -0.354567 -0.218029 -0.354578 0.678744 0.111955 0.663446 -0.36552 -0.00506956 0.815946 -0.578305 0.825046 0.857209 0.0391032 -0.239637 0.0449493 0.621068 -0.546251 0.477837 0.219024 -0.0507389 0.316668 0.581075 -0.833877 -0.403851 -0.564572 0.252239 1.20344 0.426582 0.0536283 0.10683 -1.04055 -0.273419 0.222944 -0.4339 0.402165 0.530775 -0.960237 0.364733 1.05587 -0.372403 0.592253 -0.282399 -0.562388 0.818482 0.68625 -0.610962 0.76922 -0.471608 -0.584318 0.130229 -0.669744 -0.232362 -0.321525 0.000655242 -0.730546 -0.206388 -0.589727 0.331463 -0.0874638 -0.42893 -1.18866 0.74173 -0.289782 1.0287 0.368102 0.102348 0.168407 0.185503 0.396196 -0.553597 0.091979 0.529809 -0.128356 0.385721 0.392663 0.261772 -0.244756 -0.629921 -0.950114 0.0834728 0.982022 -0.308063 0.330062 -0.448141 -1.11247 -0.449959 0.118994 -0.120613 -0.224086 0.127172 -0.423091 -1.36872 1.02023 0.0816899 0.304906 -0.135097 -0.352557 0.272765 0.0192961 -0.637395 1.02834 0.389097 0.22066 0.217825 0.256611 -0.277657 0.0238109 0.796179 -0.386374 -0.463292 0.443824 1.06858
19 -0.700311 -1.12818 -0.0227997 0.0169099 -0.780148 -0.995276 0.345228 0.21197 0.418926 0.341925 0.239062 0.345427 0.868596 0.57069 -0.10307 -0.547044 -1.37585 1.10285 0.448453 0.00838715 0.399003 -0.0815962 0.0896421 0.12047 0.197083 -0.323752 0.134653 -0.261334 1.30629 0.210506 -0.0889464 0.196193 0.773357 0.364393 0.0604024 -0.959852 -0.437729 -0.165649 -0.142934 -0.00695035 -0.08805 -0.345551 0.230009 -0.24582 0.468784 0.510038 -0.194774 -0.252265 -1.04173 0.196956 -0.232248 0.00200443 -0.907012 0.429059 0.451701 0.0438984 1.55508 -1.43029 -0.381268 -0.504972 -1.14608 -0.573509 1.04259 0.949268 0.240669 0.0619173 -0.774177 0.993833 0.423388 0.840177 0.203624 0.967511 0.441123 0.757021 -1.24582 0.160773 -0.153832 -0.0282847 0.123738 1.32983 0.932343 -0.364941 -0.0882507 0.105717 -0.848003 0.00500032 0.294393 -0.327319 -0.191666 -0.266625 -0.0424555 -0.698006 0.0512177 -0.359747 0.271175 -0.619107 1.3027 -0.746241 1.59819 -0.439427 -0.350221 0.227478 0.0241822 0.405412 0.918569 0.0256545 0.0179654 -0.102959 0.493752 0.15495 -0.418198 -1.3757 -0.410748 -0.133374 -0.724617 -0.616657 -0.828842 1.16554 -0.257162 0.587092 -0.819011 -0.440729 0.635948 0.159487 -1.18178 0.134329 0.238481 -0.308505
1939 -0.0855991 0.00320464 0.111677 -0.102154 -0.4058 -1.42893 -0.707325 0.696187 0.43934 0.129036 -0.845739 0.556092 0.756026 -0.0610501 0.321916 -0.0940003 -1.34236 1.43695 0.640741 -0.127185 0.24558 0.172961 -0.274175 0.851439 0.0417457 -1.00648 -0.176224 -0.222685 1.27674 -0.312763 0.0707909 -0.44292 -0.272032 0.60065 0.435696 -0.483422 0.0712963 0.254012 -0.336869 0.0021188 -0.386635 0.447812 0.170572 0.148229 -0.173586 0.734305 -0.173937 -0.0774245 -1.45892 -0.0503391 -0.923853 0.553578 -0.354499 0.105375 -0.0820299 0.0723757 1.33208 -0.389057 0.10301 -1.15497 -0.470999 -0.624045 0.734893 0.238308 -0.785291 1.01246 0.117759 1.23864 0.00639797 0.55452 0.352442 0.268758 0.123867 -0.19408 0.126086 0.875247 -0.13412 -0.224034 -0.21066 1.31251 0.0558504 -0.288524 0.124959 -0.0689296 -0.367014 0.321836 0.264427 0.121406 -0.4892 0.393124 0.384516 -0.443769 -0.147775 -0.687032 -0.354207 0.530776 1.57984 -0.632382 -0.176076 0.156094 -1.29155 0.138471 -0.655646 0.430511 0.896846 -0.308548 0.193462 -0.295717 0.676304 -0.0616536 -0.747484 -0.074207 0.535919 -0.0956739 -1.26043 0.554738 -0.0338517 -0.554012 -0.46726 1.06422 -0.598619 -0.232861 0.782627 -0.0405394 -0.339237 -0.0906349 0.330694 -0.484067
