2708 128
0 0.0556807 -0.727751 -0.511902 -0.380887 -0.559046 -0.283421 -0.395691 0.103762 -0.694049 0.0294278 0.793744 -0.302888 0.910213 0.480468 0.951765 0.0949064 0.132865 -0.392638 -0.538035 0.662068 -0.197387 0.51734 -0.470987 -0.361806 0.702287 -0.30123 -0.87921 0.0253429 0.285469 -0.317082 0.226321 -0.613095 0.225685 -0.698013 0.32406 -0.768252 -0.16913 0.151135 0.308427 -1.16576 -0.172159 0.305774 -0.661481 0.0906388 0.263835 0.360801 0.0057362 0.302886 0.0359065 0.451691 -0.598049 -0.0104138 0.0688172 0.214323 -0.0770806 -0.72837 0.148865 0.946629 0.520967 0.221094 0.022037 -0.374616 -0.234944 -0.138903 -0.526399 0.587065 -0.104569 -0.432061 -0.833137 -0.48122 -0.383471 0.469438 -0.466539 -0.754747 -0.355971 1.06425 -0.593943 -0.0731091 -0.220726 0.432599 0.411433 0.599326 -0.229498 -0.807145 -0.0938856 -0.43957 0.548244 -1.29478 -0.0214446 -0.0568399 0.026708 0.172785 0.692907 -0.271597 0.421872 0.0754041 0.31928 -0.291836 -0.855467 -0.503082 -0.51209 -0.366247 -0.0851863 -0.312737 0.271739 1.05459 0.129421 0.183062 -0.30542 -0.150649 -0.494445 -0.157878 -0.831116 0.0412037 -1.01457 1.06852 -0.280494 -0.219359 0.582156 -0.0330372 -0.442535 -1.32624 -0.22297 -0.229676 -0.779448 0.116248 -0.108078 -0.875323
633 -0.281047 -0.150188 -0.471565 0.0261316 0.33873 -0.391669 0.573209 -0.206891 0.49122 1.43095 -0.0741368 -0.124162 0.769395 0.619473 -0.202883 0.139434 -0.794174 0.934811 -0.107949 -0.0446457 0.251891 0.297148 0.371306 0.204916 0.297804 -0.722812 -0.378238 0.240749 -0.222126 -1.07395 0.934204 -0.0930085 -0.154617 -0.155445 -0.487768 -0.398699 -0.166997 -0.965299 -0.858135 0.0424571 -0.205989 -0.345612 0.0737942 -0.314111 -0.891603 -0.389318 -0.529143 0.0116079 0.220009 0.434369 0.304041 -0.292682 0.139905 0.301533 -0.318976 -0.301972 0.319996 -0.00181204 -0.271418 0.308115 -0.522811 -0.0389176 0.567409 -0.7777 -0.493729 0.41136 0.0668979 0.502555 -0.371111 -0.187239 -0.0917406 -0.230392 -0.309764 -1.03943 0.699459 0.0382275 -0.566576 0.182476 -0.148549 -0.294101 0.39881 0.437624 0.322378 -0.336058 0.0912081 -0.0215693 0.492586 -0.345132 0.754051 0.0505209 0.172865 0.320487 0.048265 -0.688363 -0.379131 0.219229 0.843272 -0.765574 -1.47869 0.0993505 -0.0629146 -0.658744 0.128293 0.185733 -0.337564 0.576412 -0.360033 0.384095 -0.205351 -0.252104 -1.12142 -0.0169404 -0.723582 -0.122065 -0.440527 0.43806 -0.120185 -0.660184 0.390118 -0.136488 0.826864 -0.220987 0.414294 -0.16126 -0.00811213 0.0351229 0.0750951 -0.204188
1862 0.635559 -0.346825 0.0948096 0.419229 0.870125 -1.24952 -0.417181 -0.601018 0.197153 0.824898 0.114665 -0.267257 0.367084 1.33373 -0.0692798 -0.523052 -0.0503201 -0.0278093 -0.0510407 0.432817 0.293072 -0.51053 0.155947 0.204465 1.07178 -0.411318 -0.492661 -0.143059 0.578639 -1.00932 0.420562 -0.429019 0.102313 -1.08965 0.338064 -0.437038 -0.113794 0.498214 -0.701902 -0.481611 0.42595 -0.526053 0.670411 -0.0435157 -0.273774 0.287188 0.264272 -0.113803 0.866983 0.962983 -0.0214015 -0.490539 -0.111361 0.130976 0.579995 -0.588358 0.421715 0.593415 0.0463256 0.00619101 -0.161473 0.766192 0.531569 -0.577435 -0.433853 0.268821 -0.422524 0.773544 -0.8027 0.55003 -0.37039 -0.645104 -0.30404 -0.479736 -0.63269 0.717232 0.166595 -0.159335 0.0298418 -0.915982 0.0758862 0.251413 -0.76597 -1.16986 -0.424498 -0.0178528 0.0319167 -0.553525 -0.0422556 -0.270967 -0.186182 0.228972 0.870384 1.16658 -1.05972 -0.263478 0.451406 -0.0513973 -0.327768 -0.00583621 0.694699 0.226912 0.84284 -0.129907 0.223904 0.52994 -0.565875 0.177826 -0.899413 -0.327032 -0.300527 -0.0129131 -0.436644 -0.271857 -0.979049 -0.0899288 -0.00335195 0.389803 0.291279 0.104355 1.28111 -0.340754 0.459442 -0.1847 -0.00519793 0.0562319 0.297734 -0.194815
2582 -0.0793989 -0.930378 0.276117 0.228065 -0.140043 -0.390217 -0.362694 -0.465264 -0.0846035 0.743028 0.313103 -0.880061 -0.36742 0.997451 0.598692 0.0405938 -0.225025 -0.240499 0.207167 0.36523 0.641161 -0.250239 -0.404117 0.37153 0.486207 0.109548 -0.435691 -0.228388 0.330215 0.293105 0.25547 -0.601447 -0.331549 -0.774952 -0.691417 -0.21294 0.0562181 0.403969 -0.744775 0.47695 0.508694 -0.538614 0.0498093 -0.0799673 0.117333 -0.0121956 0.117326 0.428881 0.976967 0.836814 1.17954 -0.106842 -0.0262121 0.562077 0.280889 0.032125 -0.54494 0.695378 1.06158 1.41325 -0.337786 0.269663 -0.309618 -0.511178 -0.232922 0.246253 -1.0754 0.87627 -1.80633 -0.323362 0.121906 0.0730782 -0.327246 0.248427 -0.00136486 0.989214 -0.802705 -0.0944827 0.800933 -0.0420791 -0.259732 0.43624 -0.256968 0.389995 -0.0354957 -0.559998 -0.000768483 -1.09992 0.169317 0.747812 0.905754 0.318584 0.642699 -0.210893 -0.185057 -0.169826 0.44383 -0.565556 -0.756407 -0.603697 0.123586 0.398303 -0.480988 0.26741 0.435496 0.475741 -0.0333955 0.00302607 -0.952875 -0.1607 -0.0197207 0.272163 -0.633032 0.30248 -1.12663 -0.338092 -0.0680269 -1.11644 0.620147 -0.810192 -0.2388 -0.42138 -0.0740856 0.0214427 0.120086 -0.159926 -0.468246 -0.349444
1 0.236413 -0.382618 1.07856 0.628711 -0.703109 -0.596288 -0.859515 -0.723378 0.0168124 0.212487 0.414176 0.494586 -0.106954 0.559933 0.0198922 -0.63866 0.21001 -0.38588 -0.218396 -0.0330836 0.21891 0.57524 0.290668 0.525757 1.06084 -0.443633 0.205469 -0.188051 -0.0792447 -0.0329736 0.310819 -0.556133 -0.142573 -0.487792 -0.193449 -0.40878 0.373467 0.238694 0.490523 0.0782544 0.213906 0.48324 -0.5513 0.446621 0.63344 0.518609 -0.176683 0.658019 0.0621545 -0.0295293 -0.368267 1.0201 0.870877 0.195874 0.924005 0.179693 0.187394 0.211282 0.149661 -0.433795 0.588223 0.75556 0.671681 0.292095 0.0971674 -0.350998 -0.103794 0.316291 0.0134717 -0.221186 0.293233 -0.210675 -0.0449472 -0.580909 0.236208 -0.336518 0.412667 -0.0847097 0.893231 -0.476614 -0.196517 -0.32034 0.0645035 1.05343 -0.124227 -0.898725 0.104826 -0.108169 0.114112 1.42097 -1.45343 -0.000613535 -0.327963 0.0321881 0.22793 0.447222 0.0286564 -0.228751 -0.445902 0.0894225 -0.142725 0.85551 0.045082 -0.762791 0.347238 0.0264195 0.302031 0.889574 -0.526674 0.139738 0.35869 -0.607419 -0.239765 -0.169753 -0.931545 -0.254804 0.0340702 -0.713692 0.471689 -0.090126 0.604653 -0.500375 -0.198887 0.326658 0.040709 -0.349156 0.53197 -0.151082
2 -0.838475 0.275368 0.190196 0.0368277 -0.0800266 -0.728845 -0.142348 -0.603617 -0.347536 0.278078 0.746993 0.353257 -0.657434 0.496748 0.689101 -0.240494 -0.371015 0.263703 -0.454598 0.567308 0.267441 0.0388549 0.559571 0.418347 0.304953 -0.349793 -0.213542 -0.610363 -0.341206 -0.380684 -0.162896 0.518849 1.22674 -0.500575 -0.760693 0.24662 0.207048 -0.277828 -0.254303 1.08094 -0.400679 -0.443077 -0.44163 -0.23999 0.997634 -0.136439 -0.423577 -0.239201 -0.402079 -0.30173 -0.196566 0.87581 -0.316732 -0.309404 0.481183 -0.445031 -0.0696587 0.340799 0.136344 -0.249043 0.33762 0.334781 0.0250056 0.68665 0.108197 0.406155 0.187855 0.484333 -0.0507112 -0.374526 0.351906 0.12177 -0.776238 0.20463 0.0478991 0.593431 0.767418 -0.932532 1.50174 -0.522124 -0.456975 -0.106214 0.206302 0.42583 -0.174813 0.268099 -0.194113 -0.0480881 -0.338989 -0.00261729 -1.3029 -0.681181 0.174742 0.56941 0.20718 0.334754 0.363522 -0.279031 -0.263273 -0.282358 -0.33973 -0.0326519 0.494662 -0.631675 0.329777 -0.591191 -0.267459 -0.463835 -0.243293 -0.53223 -0.119551 -1.00647 -0.481891 0.866216 -0.221952 -0.473521 -0.195512 -0.354719 -0.75739 0.0402004 -0.00514361 -0.983133 -0.965367 -0.44353 0.733652 -0.213751 1.0481 0.215212
652 -0.419159 0.35448 -0.19789 0.68868 0.447436 -0.819402 -0.348559 -0.800991 0.286379 0.549908 -0.247591 0.347911 0.196251 -0.130937 0.335079 -0.45616 0.0822854 0.120732 0.100169 -0.0681099 0.235723 -0.218542 0.0573113 0.14998 0.77891 0.0758594 0.0275837 -1.22289 -0.0454204 -0.380879 -0.513897 -0.176599 -0.58167 -0.299155 -0.139317 0.528528 0.0229567 0.00300411 -0.0603616 -0.335081 -0.156599 -0.245099 -1.39849 -0.212516 1.03737 -0.694826 -0.737693 0.614818 -0.259814 -0.476406 0.159682 0.574261 0.571814 0.210687 0.97606 -0.213075 -0.59364 0.257478 -0.0236367 -0.204311 -0.607783 0.888512 0.25538 0.777259 -0.131751 -0.50105 -0.0342407 0.231655 0.499811 -0.613423 0.557768 0.0585715 -0.361094 -0.00806424 0.18345 -0.0196597 -0.502206 -0.705021 0.000428364 0.146742 0.363281 -0.107574 -0.572491 0.434564 -1.07292 0.416253 0.0445714 -0.504136 0.0839182 1.00924 -1.38244 0.125994 0.591945 -0.0874882 -0.0356402 0.241723 0.545839 0.00737907 -0.629383 -0.55882 0.338769 0.267739 0.562092 -0.535785 0.390869 0.0811796 -0.08618 0.797331 -0.896621 -0.201266 0.495076 -0.597617 -0.175199 0.761021 -0.562596 -0.279562 -0.422884 -0.557825 -0.0960628 -0.97918 0.582208 -0.499256 -0.852812 0.55435 0.651091 -0.123829 0.563471 -0.155517
654 0.0662125 1.0173 -0.475607 0.604519 -0.40317 -0.772064 -0.59836 -1.29054 -0.0727287 0.179915 -0.252988 0.33882 0.29282 0.00654432 0.758883 -0.461447 0.100188 0.386451 0.0364494 0.713312 0.157166 -0.249703 0.577131 0.621072 0.885392 0.16056 -0.180536 -1.11171 0.693163 -0.556662 -0.425753 -0.505795 0.00598867 -0.137779 -1.05079 0.132878 0.441523 -0.136985 -0.527464 -0.0964199 -0.153906 0.124121 -1.20386 -0.0314973 0.173266 -0.42735 -0.0811734 1.1429 0.630388 -0.381027 -0.166499 1.13785 0.554947 0.3373 0.924988 -0.404573 0.218515 1.02813 -0.295414 0.855099 0.733428 0.317618 -0.141183 -0.427398 0.153308 -0.19764 -0.295173 0.130438 0.225563 -0.174513 0.297491 -0.511413 -0.613666 0.664003 0.0216438 0.579657 0.651572 -0.740726 1.06345 -0.0449499 0.150615 -0.373436 -0.367861 0.977087 0.324041 0.271013 0.174764 -0.933114 0.25485 0.113498 -1.25476 -0.175518 0.569715 0.128928 -0.569448 -0.0457348 1.21648 -0.120431 -1.39492 -0.442881 0.308836 0.0526339 0.0904128 -0.418531 0.249004 0.112867 -0.335142 -0.262985 -0.958117 -1.2185 0.203392 0.0706256 -0.102906 -0.0842835 -1.02467 -0.210331 -0.271475 -0.477439 -0.333726 -1.52533 0.448567 -0.289981 -0.768266 -0.0980021 0.649255 -0.899486 0.477963 -0.393557
1986 -0.344348 -0.438233 -0.0469697 -0.968493 0.00708643 -0.195906 -0.686647 -0.375437 -0.380411 0.703054 -0.724047 0.842882 -0.736583 1.09406 -0.265823 -0.612113 -0.34247 0.721758 -0.0610993 -0.38115 0.30085 0.200311 0.66551 0.504078 0.0496696 -0.166742 -0.016438 -0.0160797 0.22163 0.518007 0.2509 -0.303437 -0.695706 -0.00604047 -1.00023 -0.0851283 -0.0524607 -0.00619358 -0.274307 -0.334943 -0.820089 0.152993 -0.335365 -0.76367 -0.176361 -0.313335 -0.368791 0.454602 0.865692 0.626414 0.0653373 0.0632909 0.154307 0.212757 -0.109769 -0.159149 -0.153877 -0.0248061 -0.778462 0.233242 -0.272802 0.220897 -0.321562 -0.0482611 0.46973 0.0716055 -0.405419 0.0354094 -0.429833 0.00458172 0.353937 0.478528 0.27227 0.512581 0.347561 0.534068 0.0871726 -0.178946 0.63718 0.0387189 0.0765738 0.304225 0.137267 0.307646 -0.161346 -0.523364 0.28163 0.048228 -0.416442 0.273784 -0.00788843 0.00348787 0.762508 0.117394 -0.0626579 -0.117252 0.521757 0.588449 -0.676357 -0.0878018 -0.0953315 0.666843 0.163482 -0.356112 0.485804 -0.131719 0.282327 0.209237 -0.647119 -0.246629 -0.752086 -0.311732 0.162187 0.30373 0.0696862 -0.222899 0.0487111 -0.623945 0.618221 -0.532011 -0.0940567 -0.0658771 0.0815534 -1.19226 0.91963 -0.752523 -0.0161473 -0.418916
332 -0.295521 -0.289919 -0.608057 -0.225077 -0.251106 -0.330418 -0.448505 -1.21056 -0.195359 0.23613 0.468076 0.549694 -0.366874 -0.0836406 0.494628 -0.457269 -1.07357 0.0349065 -0.345109 0.81745 0.0601018 0.827664 -0.694805 0.104765 0.734729 -0.178576 0.289276 -0.60264 0.14443 -0.0272811 0.192035 -0.0169469 0.595599 -0.698433 0.17481 -0.134297 0.395635 -0.539677 0.788764 0.194917 -0.525727 0.673652 -0.572313 0.26743 -0.0670736 -0.746977 -0.293033 0.311176 0.561664 -0.318981 0.036002 0.782307 -0.601672 0.0664087 1.58592 0.0247112 -0.103635 0.743567 -0.0435177 0.160697 0.0707714 -0.40986 0.955582 -0.206871 0.962228 -0.209852 -0.304131 0.0336944 0.408226 -0.262333 -0.047834 -0.393067 -0.0631586 0.420319 -0.229437 -0.286597 1.16995 0.0718998 1.09598 -0.521021 -0.998901 -0.904274 0.163194 0.826605 -0.30198 -0.152458 0.517111 -0.378699 -1.07542 1.11916 -1.47175 -0.00903382 -0.151998 0.441023 0.278371 -0.184184 0.234543 0.304922 0.552217 0.0413564 -0.409541 0.773573 -0.0968985 -0.0384763 0.15977 -0.37279 -0.188712 -0.130828 -0.820379 -0.692818 0.22379 -0.711204 -0.761515 -0.426269 -1.03319 -0.71883 0.0625576 -1.1549 -0.712866 -0.118709 -0.0140393 0.0675208 0.0106615 -0.215278 0.358461 -0.126111 0.0293434 0.13964
1666 -0.421243 0.7479 0.142862 0.201359 -0.158327 -0.170429 -0.418954 -0.223356 -0.295792 0.664162 -0.313667 0.499671 0.411448 0.880764 0.37517 -0.197681 -0.927742 0.10057 -0.46673 0.492497 0.414876 0.767373 0.536056 0.696335 0.51961 0.027338 -0.647995 -1.05058 0.897873 -0.144007 0.0729441 0.32412 0.271293 -0.192103 0.0109587 0.500367 0.194116 -0.215625 -0.121332 0.298159 -0.482126 -0.528309 -1.22326 0.115652 -0.151356 -0.437207 -0.626404 0.548414 1.05329 -0.130191 -0.288258 -0.00313725 -0.0935228 -0.279917 1.00911 -0.0336348 0.670267 0.00536377 0.0674469 0.341171 0.114009 0.727765 0.599904 -0.273068 -0.521761 0.408699 -0.351786 0.380455 0.361555 0.156888 0.17162 0.0678497 -0.423409 0.0820898 0.0862158 -0.407063 1.0431 -0.0828815 1.31643 -1.09648 -0.190508 -0.343305 0.133119 -0.299247 -0.508532 -0.49027 -0.0281807 -0.219319 -0.345245 0.110938 -0.740656 -0.505863 0.413966 0.439555 -0.232629 -0.628751 -0.105398 -0.627912 -0.0533676 -0.259876 -0.566898 0.354224 -0.346346 -1.03164 0.553717 -0.0109399 -0.327656 0.190267 -0.344256 -0.594383 -0.720003 -0.640315 -0.460508 0.657985 -1.38038 -0.419093 0.550899 -0.378803 -0.313452 -0.258164 0.345678 -0.279858 -0.186755 0.403979 0.985529 -0.25158 0.21192 0.513869
1454 -0.105802 -0.785241 0.158489 0.446549 -0.246004 0.918234 -0.764851 -0.24544 -0.0447838 -0.0564751 0.29795 0.478662 -0.550852 -0.218575 0.820236 -0.377189 -0.513483 0.161638 -0.693301 0.00632186 0.285051 -0.870737 0.310036 0.399571 0.590737 0.0309392 0.241131 -0.346172 -0.208888 0.0613699 -0.162011 0.390728 0.143948 -0.147495 -0.196991 0.626963 -0.0972387 -0.234933 -0.429023 0.422678 0.566905 0.12154 -0.658089 0.0102763 0.213392 1.07608 -0.0702339 0.258359 0.508257 -0.594835 0.0781248 0.314037 0.33855 -0.427498 0.124847 0.339231 -0.665946 0.37575 -0.010928 -0.556011 -0.123659 0.0748076 -0.549791 0.0699684 0.370934 0.039055 -0.764674 1.27325 0.191828 -1.13707 0.318953 0.151013 -0.450108 0.232425 -0.275532 -0.149367 0.00986439 -0.403743 0.761944 0.263193 -0.457352 -0.479276 0.220798 0.507678 0.160819 -0.690961 -0.124795 -0.344709 -0.554442 0.14213 -0.212632 -0.314382 -0.26228 0.261844 -0.740028 0.107787 0.549704 -0.252348 -0.937534 -0.172568 0.686166 -0.0119937 1.09981 -0.32068 -0.384748 -0.10655 -0.640571 0.269507 -0.40733 -0.340734 0.188254 0.46205 -0.466066 0.525018 -1.30613 -0.220831 0.0302937 -0.339834 -0.329359 -0.215426 0.834243 -0.961077 -0.929962 -0.685964 -0.106344 -0.382032 0.81588 0.412786
3 -0.49363 0.0232763 -0.606419 -0.265211 -0.484265 0.592779 -0.16976 -0.0961248 -0.56206 0.369697 -0.0644468 -0.586464 0.957627 1.04549 0.489535 -0.76368 -0.133734 -0.580597 -0.0998159 0.302221 2.15593 0.511355 0.041895 0.562895 0.964083 -0.223306 0.358091 -0.126188 0.84466 0.0537254 -0.432332 0.57948 0.588551 -1.46878 0.203374 -0.766911 1.43378 0.15577 0.26211 -0.0158712 -0.234563 -1.0678 0.576728 0.0913637 0.534496 -0.598474 -0.0592899 0.552536 1.87503 -0.453797 -0.44564 0.189779 -0.425591 -0.119533 0.146947 -0.851167 1.15779 0.0496213 -0.883428 0.403334 -0.391774 -0.0447808 0.197353 1.55023 -0.877614 1.4372 -0.322443 1.40459 -0.39479 0.049918 -0.59841 -0.178026 -0.963814 -0.922141 -0.261101 0.147895 0.87107 0.0728289 0.068121 -0.51679 0.271553 0.95639 -0.63466 -0.298253 -0.647218 -0.168075 -0.699349 -0.584517 -0.523697 0.463625 -0.664887 0.663149 1.07347 0.0995377 -0.685546 0.0577115 -0.117351 -1.46255 0.260164 0.424587 -0.203555 0.206662 -0.484792 -1.38013 0.418952 0.428893 -1.86868 -1.43134 -2.18292 -0.0859749 -0.48939 0.470039 -1.26524 -0.0607135 -0.0294667 -0.448229 -1.12927 0.670467 -0.475506 -1.0518 -0.600244 0.0597325 -0.487612 0.116278 -0.722148 -1.46269 0.372501 -0.19104
2544 -0.70544 0.196258 -1.10865 -0.25862 -0.46949 0.934148 -0.0476957 -0.238921 -0.685065 0.846136 -0.211428 -0.856208 0.585923 1.43375 1.05694 -0.886391 0.0245051 -0.575947 -0.407042 0.515278 2.86197 0.647666 0.0927227 -0.0259626 1.2005 -0.485632 0.125616 -0.192638 0.584616 0.125664 -0.379691 0.891996 0.871603 -1.74918 0.573745 -1.00102 1.25587 -0.0307007 0.0636663 0.222358 -0.0361734 -0.942748 0.47039 0.475387 0.532205 -0.769652 -0.479997 0.342189 1.74508 -0.796814 -0.745449 0.206202 -0.558421 0.249191 0.549249 -0.856736 0.982708 -0.364244 -1.28653 0.121361 -0.313061 -0.12035 0.201248 2.07656 -1.13625 1.72777 -0.76731 1.09476 -0.130173 0.270492 -0.457584 -0.0868362 -1.35124 -1.38898 -0.138892 0.202497 1.37406 0.295641 0.229517 -0.263845 0.386676 1.09094 -0.897882 -0.662723 -0.504584 -0.474766 -0.19131 -0.721014 -0.501449 0.205718 -0.747602 1.04068 1.40289 0.26943 -0.210429 -0.341683 -0.0678175 -2.16495 0.282626 0.0302188 -0.37048 0.031096 -0.572909 -1.67341 0.786541 0.112091 -2.19471 -2.25386 -2.31901 -0.132933 -0.350408 0.108587 -0.403108 0.215183 -0.0189951 -0.725708 -1.06087 0.654535 -0.651722 -0.644088 -0.754891 -0.425776 -0.944895 0.278812 -1.23799 -1.39054 0.212382 -0.0618675
4 -0.313176 0.16902 0.11089 -0.226362 0.281283 -0.238839 0.505485 0.140081 -1.01554 0.193872 0.0161928 0.750599 0.228371 -0.343267 -0.483252 0.45936 -0.21888 -0.125908 -0.294624 0.559869 1.66443 0.338582 -0.0834328 -0.316643 0.144742 0.251487 0.0313343 -1.20582 0.812802 -1.09484 0.238715 -0.624963 -0.75886 -0.610667 -0.914471 -0.796263 1.56012 -0.173165 0.517707 0.201556 0.544388 -0.262334 0.469914 0.2844 0.684216 0.24544 0.168377 -0.479965 0.0523112 0.570798 -0.360395 0.657952 0.42907 -0.00975289 0.159947 -1.25535 -0.0850329 0.321453 -0.767069 0.789588 0.163112 0.107279 0.269612 0.48046 -0.0171011 0.113868 0.841373 1.24259 -0.431444 0.550909 0.668915 1.11451 0.1557 -0.0357926 0.92664 0.908128 0.0221851 -0.623668 -0.0273959 0.285738 -0.639065 0.0651718 0.629729 0.309902 -0.108966 0.465498 -0.00495864 -0.40785 -0.567354 -0.0451088 -0.311224 -1.02495 -0.530166 -0.0291758 -0.912662 0.0583995 0.599549 -0.0414857 0.142172 0.159639 0.182391 0.950566 0.885795 -0.664909 -0.273721 -0.722254 -0.810996 -0.303913 0.159069 0.67123 0.315622 -0.575539 0.248122 0.119879 -0.288348 0.584143 -0.865395 0.277613 -0.00437809 -0.0465412 0.198311 -1.49358 -0.0717698 0.424084 -0.026998 0.0708556 0.854235 -0.648424
2176 -0.373501 -0.794817 -0.676738 -0.199562 -0.0641681 -0.368803 0.776161 -0.00871549 -0.264219 0.86278 0.178574 0.155164 -0.11783 0.319529 -0.528501 0.403897 -0.795092 0.463807 -0.806621 1.05484 0.897487 -0.0975686 -0.00971155 -0.582065 0.365173 -0.0278407 -0.137051 -1.19323 1.13792 -0.958068 0.0638667 -0.523247 0.236811 0.0257116 -0.995613 -0.423341 0.701235 -0.38912 0.467914 0.214539 0.296263 0.350198 0.0925065 0.21895 0.323604 0.998819 0.0925723 -0.715342 -0.299213 0.262822 -0.563236 0.14781 -0.0902963 0.337654 0.483218 -0.179486 0.294939 0.219021 -0.849415 0.0107299 -0.141526 -0.326811 -0.83749 0.436498 -0.109845 0.104152 0.294412 0.805013 -0.616016 -0.0444011 1.34496 1.12703 -0.12986 -0.614818 0.393482 -0.163096 0.860588 -1.14888 -0.554125 -0.249532 -0.316559 0.0326762 0.941286 -0.616164 -0.293119 0.472198 -0.734467 -0.385376 -1.50663 -0.50218 -0.423244 -0.106381 0.475655 0.0454349 -0.387022 -0.126953 0.668326 0.143694 -0.672766 0.0657593 0.672713 0.499482 1.36617 -0.854077 0.118487 -0.606241 -0.326948 -0.337892 0.129395 0.593787 -0.504786 0.0453043 0.233269 -0.278036 -0.0269025 0.149114 -0.418681 0.571241 -0.013265 0.64908 -0.203135 -0.881454 0.553671 -0.136013 0.251001 -0.168168 1.60833 0.696704
1016 0.34619 -0.344258 -0.332022 -0.414962 0.222476 -1.163 -0.0776898 -0.0682436 -0.214341 0.656873 1.5904 0.783301 0.599952 0.469324 -0.616621 0.533864 -0.773815 -0.690748 -0.812132 0.864527 1.02423 -0.586694 -0.0676042 -0.960841 0.167243 -0.371384 -0.70182 -0.642035 0.677968 -0.0936574 -0.0127432 0.345079 -1.12414 -0.589875 -0.918585 -0.39862 1.79499 -0.0583705 0.404202 0.559723 0.0964437 -0.321829 -0.0657482 -0.788168 0.392127 0.165603 0.274449 -0.895558 -0.250008 -0.181156 -1.17422 -0.490281 -0.443457 -1.05758 0.218116 -0.824042 0.27269 0.928089 0.0667283 0.402636 0.246516 -0.522659 0.375668 0.414812 -0.470345 0.496455 0.173631 0.509584 -0.704533 0.498666 0.682899 0.673585 0.332456 -0.620493 0.469849 -0.0449563 0.72345 -0.911682 0.0304118 -0.125002 -0.558718 0.736313 0.562116 0.655793 -0.32914 1.04275 -0.180957 -0.443028 -0.479827 -0.528306 -0.331895 -0.9215 0.0949524 0.452788 -0.188302 -0.156884 0.449148 -0.402358 -1.03684 -0.519721 0.606063 0.483227 -0.384314 -1.07284 0.0207404 -0.0296269 -1.0246 -0.13372 -0.119969 0.274468 -0.925195 0.121228 -0.0173898 -0.272419 0.369532 0.644039 -1.16074 -0.988374 -0.741452 0.151896 0.00288523 -1.2657 0.703179 -0.0667091 0.219214 -0.398481 1.63164 -0.170982
1761 0.825049 0.484744 -0.330556 -0.182652 0.495588 -0.737428 0.588886 -0.640099 -0.0833249 1.33313 -0.0291049 0.30328 0.813944 0.415226 -0.107733 -0.109735 -0.159206 0.999313 0.0785273 0.473521 1.67826 -0.729716 -0.217572 -0.134263 -0.00362622 0.398069 0.83294 -0.50676 0.285702 0.0301943 -0.139413 -0.195897 -1.5397 0.186671 0.149284 -0.179956 0.656903 0.437132 0.0600177 0.0788079 -0.35102 -0.273556 0.134622 -0.460266 -0.383316 -0.219967 0.00454703 0.44947 0.0400984 -0.0870893 -0.251095 0.390164 -0.893812 -0.698743 0.0447343 -0.674836 0.42431 0.510418 -0.402191 0.0826957 -0.686403 -0.0717511 0.508963 0.254248 0.00463961 0.187179 -0.684153 0.766822 -0.30294 0.251442 0.513047 0.0766166 -0.206843 0.0334544 0.39402 0.431772 -0.160383 0.328858 0.0988502 -0.0980729 0.313671 0.0635814 0.627646 0.127512 -0.399287 0.613698 0.696789 -0.00534832 -0.692641 -0.802143 -0.186087 -0.2638 0.135068 0.331676 -0.635832 -0.0919167 0.105955 0.366352 0.272865 0.381802 -0.695777 0.627356 -1.29408 -1.25989 -0.247194 0.293322 -0.174778 -0.637809 -0.778682 0.486462 -0.180706 0.0795582 -0.515949 -0.234305 0.216602 0.907487 -1.16674 0.57449 -0.970419 -0.396405 -0.688253 -0.449457 -0.181648 -0.406065 -0.0976937 -0.0947835 1.0503 -0.105797
1256 0.297278 -0.608516 -0.522612 -0.272775 0.0717951 -0.150101 0.477632 -0.645139 -0.0872759 0.305789 0.43637 -0.674802 -0.0713575 -0.128083 -0.694775 0.767118 -0.285434 0.0981771 -0.452615 1.64871 0.531623 -0.649562 0.183862 0.159117 0.623342 -0.0224002 -0.316295 -0.662266 0.485342 0.0600107 -0.0370937 -0.307087 -0.567265 -0.695262 -0.947887 -0.715129 0.961808 0.186547 0.307192 0.146404 0.15888 -0.109956 0.0923917 -0.536632 0.000202296 -0.344025 0.631826 -0.16523 0.0248866 0.0698805 -0.713246 -0.354554 -0.468672 0.0788483 -0.22236 -1.41555 -0.00610676 0.743831 -0.474984 0.0583249 -0.180454 -0.0918586 -0.232573 0.729153 0.140595 -0.0514909 0.513788 0.429548 -0.281295 0.262924 -0.158454 -0.0953817 0.100345 0.269988 0.362827 0.976258 0.619714 -1.78849 -0.102815 0.0569039 -0.166238 0.640327 0.398602 0.222171 -0.981334 0.409445 -0.304948 0.0548811 -1.51611 0.251545 -1.10272 -0.931345 0.168046 0.393856 -0.576384 -0.283273 0.602256 -1.22518 -0.42681 -1.08489 0.426965 0.639824 -0.25202 -1.00563 0.531088 -0.373186 -0.0756752 -0.741452 -0.282646 0.0648318 -0.119967 -0.293295 -0.0380029 -0.144581 -0.154594 -0.793128 -0.163281 0.567286 0.805916 0.398309 -0.30679 -0.325617 0.433586 -0.704452 0.0735325 -0.459353 1.23667 -0.0136691
2175 -0.392758 -0.0945761 -0.0940694 -0.446761 0.295471 0.520719 0.493061 0.154058 -0.799777 0.195188 1.27842 0.0504991 0.372567 0.504327 -0.934102 0.359666 -0.369647 -0.346731 -0.267686 0.177135 1.12096 -0.0811548 -0.259344 -0.433829 0.347621 0.239743 -0.763021 -0.781598 0.301737 -0.074867 -0.154672 0.394409 -0.811754 -0.265982 -1.90479 -0.694725 1.55358 0.453603 0.250746 0.736059 0.298726 -0.561853 -0.543456 -0.12555 0.133898 0.762314 0.327766 0.00115845 0.270857 -0.0541115 -0.306395 -0.0398878 -0.681274 -0.372839 0.0573906 -1.09232 0.330468 1.17456 -0.710541 0.268103 0.622183 -0.0477855 -0.00211919 0.931455 -0.470464 0.0492379 0.38715 0.856009 -0.673022 0.4091 0.613906 0.51258 -0.133475 -0.888862 0.727208 0.320749 0.685819 -0.621832 0.20321 -0.114745 -0.833089 0.451674 -0.0839463 -0.125621 -0.246792 0.67934 -1.14664 -0.905666 -0.736709 -0.229108 -0.438034 -1.07623 -0.0837733 0.307126 -0.117063 -1.10725 0.646128 -0.723663 -0.36115 0.0163016 0.929976 1.58061 -0.204142 -1.05336 -0.816715 -0.701489 -0.534734 -0.801269 0.401584 -0.188638 -0.909172 -0.401931 0.265896 0.26836 -0.0398138 0.56407 -0.972761 -0.347768 -0.0234757 0.595073 0.228869 -0.640155 0.234033 -0.646615 -0.513168 -0.359462 1.54159 -0.423749
5 -0.721477 0.224941 -0.240142 0.703369 0.27749 0.309831 -1.4946 0.00862649 -0.101984 0.564406 0.0913604 0.0917944 1.09763 0.171627 -0.53122 0.0426538 0.0771526 0.524193 -0.227124 0.776218 0.966636 -0.233178 -0.0917855 -0.866996 1.53325 0.551501 -0.373613 0.0357713 0.248546 0.753781 0.000387826 0.0166136 -0.950202 -0.874182 -0.485522 0.281088 2.02019 1.08183 0.744983 0.3542 -0.481676 -0.339251 0.763077 0.071425 -0.347146 -0.110835 0.420553 0.0372159 0.34226 0.458336 -0.674795 -0.0513697 -0.88701 -0.250487 -0.373854 -1.18857 0.477428 1.03571 -0.26703 -0.0356345 -0.275784 -0.116366 0.259157 0.481159 0.713395 1.09245 0.654572 0.46306 0.131284 -0.13766 0.657737 0.168898 -0.521876 -0.79278 0.300639 0.635163 0.474847 -0.303435 0.217039 -0.0435258 -1.15129 0.618569 1.28813 -0.090998 0.103082 -0.281522 -0.42682 -1.12337 0.120834 -0.439618 -0.534465 -0.432356 -0.43157 0.117467 -0.0765397 0.265625 0.0659967 -0.137465 -0.639661 -0.172019 -0.353567 0.267095 0.402571 -0.641965 -0.723343 0.129514 -0.178639 -0.25197 -1.1273 -0.0911839 -0.392996 -0.409887 -0.13214 -0.239091 -0.0624796 -0.150516 0.225549 0.42974 -1.23644 -0.0301091 -0.6027 0.719683 -0.289451 -0.394196 0.679954 -0.106713 0.510887 0.0260812
1629 0.170134 0.254865 -0.411704 -0.128558 1.00518 0.573858 -0.115319 0.185186 -0.398591 -0.0066565 -0.191877 0.193644 0.502135 0.901169 -0.467794 0.0198073 0.0321172 -0.0865572 -0.701797 -0.398604 1.26218 -0.5152 -0.0863898 -0.338077 0.874928 1.01877 -0.00130534 -0.0356414 0.542627 0.590853 0.238637 0.716649 -0.298961 -0.546636 -0.172997 0.0975226 1.60889 1.11926 -0.190568 -0.0726589 -0.148795 -1.10713 -0.11292 0.0104159 -0.658222 0.125097 -0.249105 0.130084 0.960165 0.878531 -0.598332 0.766341 -0.122837 -0.546996 0.0124777 -0.708911 0.0383516 0.0105489 -0.437257 0.0252997 0.173957 0.201744 0.16498 -0.723691 0.318365 1.50867 0.47336 0.401964 0.0799449 -0.206597 -0.0796124 0.262488 -0.0304165 -0.443195 -0.171396 0.355028 0.283899 0.0163612 0.151695 0.0730889 -0.954448 0.102656 0.190416 -0.27006 0.0955791 -0.293873 -0.778973 -0.17044 0.62402 0.158856 -0.217087 -0.620048 -0.883581 0.140816 -0.54793 -0.185026 0.194955 0.164154 0.373411 0.17855 -0.386225 0.381231 0.0629693 -0.91406 -0.305121 -0.66391 -0.0477196 -0.502169 -1.07506 0.106849 -0.888142 0.301555 -0.357104 0.245699 -0.560574 0.581047 -0.0203315 0.00435686 -0.759362 -0.397505 0.0113253 -0.157823 -0.740377 0.310678 0.751564 0.0762359 0.161453 -0.0979306
2546 -0.187813 0.411254 0.84562 -0.174228 0.894826 -0.121064 -1.1819 0.0560067 0.0139584 -0.0640817 -0.553971 -0.0195553 0.34846 0.900786 0.058979 -0.296934 0.585278 -0.0288058 -0.580748 0.0193984 1.00978 -0.44291 -0.155464 0.17936 0.683073 0.819172 -0.117646 -0.828636 0.770728 0.454198 -0.184582 0.87858 -0.447481 -0.797572 -0.0273462 0.804598 1.34895 0.103899 0.135522 -0.227878 -0.400305 -1.43325 0.248981 -0.302943 -0.0959938 0.0466823 -0.230915 0.99486 0.132191 -0.0752516 -0.20148 1.17478 -0.433069 -0.0979792 -0.246004 -1.14926 1.29886 0.085831 -0.720797 0.186603 -0.301046 0.933327 -0.269023 -0.327367 -0.0726549 1.01988 0.550514 0.40129 1.21703 0.0977491 0.0774977 0.780727 0.291239 0.0348419 0.153506 0.750261 0.929908 0.0410878 0.248837 0.307217 0.159199 0.519405 0.231139 -0.139487 -0.0431404 0.164317 0.268821 -0.272173 0.0931274 -0.677827 0.0346637 -0.0680119 -0.740306 0.38019 -0.137939 0.198768 0.547712 0.293521 0.0132558 -0.168147 0.204809 -0.284545 -0.145431 -0.912024 -0.092671 0.0675334 -0.00748312 -0.285211 -1.41471 -0.430309 -0.541888 0.225534 -0.0851641 0.439745 -0.0155627 1.15269 0.0386397 0.0524026 -0.62347 -0.550932 0.599159 0.185201 -0.114292 -0.533934 0.551894 0.455374 0.595776 -0.932076
1659 -0.565712 -0.168039 0.00912837 -0.00274419 0.324642 0.39646 -0.541132 -0.218866 0.0951467 1.23228 -0.0132163 0.544328 -0.0375889 0.33403 -0.883839 0.147657 0.329993 0.814078 0.59013 0.711998 0.627175 -0.674724 0.404226 -0.205677 0.824892 0.336151 0.230883 -0.574413 -0.644234 0.443993 0.041232 -0.0685898 -1.1302 0.0745908 -0.0131177 0.941098 1.36793 1.05554 0.139758 -0.496259 -0.383907 -0.208416 0.836281 -0.321756 -0.543914 -1.05661 -0.807891 0.455263 0.510057 -0.0717182 -0.242998 1.00422 -0.178209 -0.0739769 0.0909416 -0.881963 0.0471274 0.65961 -1.09083 -0.00829004 -0.197772 0.122734 0.312645 -0.108246 0.376692 1.37411 0.230779 0.688533 0.2289 0.0846136 0.312448 0.0858488 -0.545627 -0.341736 0.0910271 0.722827 0.214799 -0.801872 -0.056312 0.0102313 -0.511029 0.90884 0.0976829 0.237695 -0.812188 -0.321462 0.634917 -0.646228 0.100645 -0.336324 -0.00308428 -0.225704 -0.165415 0.556446 0.00282962 -0.302887 0.321757 0.00137638 0.446913 -0.223712 -0.305574 -0.100164 0.341709 -0.825743 -1.15102 0.342311 -0.552494 0.00747943 -1.39491 0.0636726 -0.591032 -0.664524 0.447359 0.434036 -0.524908 0.87091 -0.72109 0.246168 -0.243673 -0.637729 -0.276251 0.170986 -0.207989 0.425804 0.307515 0.0499469 0.851174 -0.343506
6 0.505808 0.420837 0.294174 0.580753 -0.127213 0.403941 -0.257962 -0.343482 -0.106412 -0.45368 -0.593269 -0.485486 -0.0108238 0.813383 0.424619 0.0481583 -0.319243 -0.118031 -0.156689 0.0943893 0.976253 0.1778 0.381572 0.595593 -0.765328 0.516172 0.581944 -0.0277103 -0.182067 -0.488201 0.565278 0.35413 0.215965 -0.525496 -0.29408 -0.198384 0.48478 -0.233721 0.373709 0.104772 0.0885264 -0.946739 0.624145 0.0535597 0.196469 -0.086892 -0.314844 0.935969 -0.105318 1.09209 -0.253455 1.57425 -1.37663 0.00612495 0.346564 -0.794819 0.513733 -0.00486771 -0.230358 -0.259336 -0.347268 0.00581587 0.423787 0.414073 0.42062 0.456144 0.401639 0.163891 0.0961518 -0.267575 0.219444 -0.268042 0.283576 0.128411 0.804161 -0.458026 -0.475862 0.409224 0.412718 -0.12975 0.116785 1.12498 -0.0499765 0.271014 -0.0796207 0.250269 0.130284 -0.68615 -0.520047 0.541609 -0.519608 -0.7101 0.61586 0.0616396 -0.421078 -0.671327 0.398754 0.268016 0.124821 0.698044 0.402815 0.0305448 -0.103351 -0.324955 -0.0672399 0.522653 -0.731527 -0.783859 0.419209 -0.463643 -0.53041 0.271416 -0.0591222 0.152894 0.196852 0.767687 -1.33578 0.265076 0.171982 -0.213294 -0.211462 -0.544965 -0.124272 0.407713 0.319132 -1.27077 0.23628 -0.458486
1416 0.461065 -0.0773219 0.0023004 0.673242 0.752646 0.0967 0.162386 0.0368671 -0.547678 -0.317069 -0.34489 0.128736 -0.112339 0.0495994 -0.904076 0.259072 0.333782 -0.250489 0.826045 -0.0573693 0.959939 0.250377 -0.0512256 0.880331 0.63673 1.34102 -0.114686 0.227692 -0.137999 0.0816813 0.495049 0.383759 0.190705 -0.415342 0.2811 0.336657 0.129165 -0.155873 0.0379377 -0.253945 -0.55236 0.0541793 -0.447115 0.339506 -0.10346 0.15245 -0.958537 0.239463 0.268539 0.351521 -0.157904 0.518377 -1.08416 0.476126 0.362674 -0.509882 -0.16526 0.502207 -0.510864 0.247169 -0.0537865 -0.331396 0.0474522 -0.122068 -0.0795824 0.732289 -0.132074 0.141159 -0.065126 -0.109887 0.628955 0.706163 0.0973283 0.448712 1.18717 0.317124 -0.583133 0.204451 0.148638 -0.379469 -0.829201 0.46824 0.454412 0.33801 -0.354088 -0.306281 -0.0711624 -0.910865 0.233418 -0.257021 -0.525774 0.64983 0.0159603 0.403699 -0.60858 0.120184 0.128918 -0.489289 -0.322962 0.301237 0.206303 0.590857 0.75095 -0.45871 1.10908 -0.415465 -0.343691 -0.419353 0.334676 0.215487 -0.412173 0.205634 -0.3263 -0.345743 -0.0801851 -0.360354 -1.07142 0.20981 0.246597 -0.446558 -0.4028 -0.821324 -0.527098 -1.0975 0.16825 -0.876004 0.201881 -0.130844
1602 0.142431 0.312261 -0.00135718 -0.194213 0.0629407 0.268135 0.250242 0.0484655 -0.356732 0.148937 -0.342756 0.319352 -0.217537 -0.252881 0.0851945 0.371167 -0.0800181 -0.0328675 0.0808901 0.595711 0.525689 -0.252625 1.18776 0.324975 0.208108 1.46607 -0.0231972 0.128809 0.650141 -0.0727519 -0.375826 0.82028 -0.216598 -0.648555 -0.0770135 0.240722 0.461637 0.0496976 0.05734 -0.447124 -0.218061 0.193215 -0.430153 -0.346501 -0.801258 -0.351068 -0.602067 0.802621 0.0342016 -0.214545 -0.690986 1.09471 -0.995465 -0.300603 0.364216 -1.13049 0.521312 0.41087 -0.159436 0.168447 -0.364399 -0.352324 0.10008 0.286279 0.291379 0.219905 -0.394448 0.471462 -0.659761 0.678352 0.884305 -0.321655 0.184106 1.15183 1.00026 0.466528 0.0242303 -0.280196 -0.369424 0.0828043 0.512866 0.558057 -0.413791 0.617528 -0.184983 0.252622 0.0171787 0.143852 -0.184638 0.0782233 -0.516209 0.634474 0.535798 0.243679 -1.02082 -0.794791 -0.257285 0.40329 -0.265924 -0.166184 0.181234 -0.57825 0.8875 0.0203115 -0.0399917 0.749694 -0.816138 -0.336277 0.141023 0.267035 0.140315 1.14365 -0.510059 0.551867 0.200487 0.407078 -1.04159 -0.0406903 0.662431 0.124779 -0.644966 -0.908106 -0.318824 -0.397378 0.0747825 -1.57093 -0.14354 -0.800682
1042 0.64838 0.377072 -0.145195 0.318533 -0.404239 0.562064 0.325581 -0.606346 -0.0855339 0.173937 -0.280328 -0.525165 -0.0258487 0.687707 -0.0124082 0.317095 -0.703032 0.0487146 -0.269168 0.27541 0.158749 -0.299921 0.34782 0.20565 -0.12949 0.531162 0.756481 0.149886 0.47229 0.0494724 -0.205575 0.131582 0.0325422 -0.457567 -0.0682444 -0.286468 0.176278 -0.842746 0.0556195 -0.240197 -0.684324 0.0268893 0.344503 -0.0354479 1.0223 -0.121859 0.226251 0.573917 0.180281 -0.445446 -0.0815865 1.07206 -1.52537 0.39596 -0.0908514 -0.770827 0.195043 0.614923 -6.40323e-05 0.11416 0.0586964 0.364963 0.31862 -0.0559754 0.0721753 0.275694 -0.0696768 0.673752 -0.8362 -1.10829 0.704691 0.0972669 0.00637979 0.097371 0.870891 0.283873 -0.69567 -0.443374 0.43914 -0.0334065 -0.19196 1.24956 -0.459273 0.0154156 -0.0776384 0.160378 -0.403319 0.415954 -0.120098 -0.248746 -0.742534 -0.197024 0.906993 0.618878 -0.64241 0.144248 -0.0213748 -0.218438 -0.221278 1.14829 0.282025 -0.160438 0.102182 -0.226144 0.968706 0.675824 -0.709666 -0.63776 0.0408487 -0.282217 -0.0600647 0.130543 -0.202516 1.15459 0.208607 0.803155 -1.35982 0.182522 0.0110555 -0.593924 -0.376381 -0.271256 0.141869 -0.307262 -0.093523 -0.480168 0.539715 -0.361639
373 -0.00393552 0.144892 -0.40957 -0.215108 -0.239576 0.455027 -0.424423 -0.247507 -1.0041 -0.021506 -0.277316 0.0967644 0.127362 0.487301 -0.550043 0.189879 0.0554536 -0.319206 -0.754385 -0.174562 -0.353232 -0.542792 -0.072199 0.378735 0.415835 0.509088 -0.316113 0.222341 0.0815026 -0.1737 0.95654 0.305055 0.308948 -0.105908 -0.0338453 -0.121528 0.237641 -0.250946 0.709485 -0.695312 -0.0858989 0.0764208 0.365754 0.273594 0.653276 -0.388364 -0.709832 0.443183 0.493459 -0.153472 0.551268 0.63547 -1.58792 0.307877 0.59972 -0.523521 -0.0242701 0.27599 -0.208843 -0.200524 -0.901535 0.0140973 0.309133 0.575803 -0.123802 0.543937 -0.519239 0.275136 -0.502332 -0.225364 0.157791 -0.298999 0.153358 -0.064695 0.398035 -0.0421374 -0.968491 0.178086 0.131162 -0.359934 -0.131346 0.830428 0.0567576 0.211573 -0.376679 0.499173 -0.675681 -1.16569 -0.557907 0.171477 -0.0410074 -0.293265 0.670688 0.262541 0.269914 -0.383014 -0.00361903 0.657426 0.103363 0.399089 -0.171155 -0.786885 0.508192 -0.571282 0.653621 -0.852606 -1.23871 0.286307 0.431501 -0.588183 0.0692878 0.470794 0.0964076 0.555075 0.259549 0.316475 -1.27228 -0.550512 -0.135218 -0.289149 -0.411364 -0.0394027 -0.465176 -0.302073 0.522825 -1.95391 -0.214643 0.157648
7 -0.285783 -0.891442 0.0864925 -1.34025 0.502719 0.0634091 0.871309 -1.53763 -1.46072 -0.929436 0.100425 -0.0662824 -0.0512236 -0.388124 0.62 0.725755 -0.193606 0.871831 -0.814663 0.772907 1.11179 1.1705 1.36205 -0.838323 -0.440873 1.57179 -0.213805 -0.789211 1.51506 -1.23823 0.315025 -0.118244 1.00157 -0.297059 0.659624 -1.37398 0.566991 0.269793 0.842783 -0.901907 -1.10375 -0.213011 1.61394 -0.713198 -0.149615 0.0115733 0.969953 -0.101549 1.69425 0.345036 -0.446053 0.139438 -1.40278 -1.57779 1.19161 -2.39372 2.02399 0.970908 -0.0510442 0.837214 1.60859 -0.0395513 0.637535 1.37916 -0.538486 0.659882 -0.276616 1.14864 -0.921169 -0.427221 0.265693 -0.243504 -0.859181 -0.0510873 0.110295 1.07405 -0.0311891 -0.510402 0.559662 0.627218 -2.06605 -0.0280668 0.242723 -0.858749 -0.0682783 1.25496 -0.827614 -1.11537 -1.50682 1.01416 -1.07175 0.187007 0.694291 -0.305283 0.661357 -0.669864 1.27889 -1.65429 -1.60899 0.44072 -0.00585167 0.53404 0.213348 -1.40553 0.727825 0.531931 -1.65996 -0.0436594 -0.446353 -1.35302 -1.9051 -0.82246 -0.864658 0.0241385 -1.4853 0.436101 -1.26535 -0.927197 -1.53362 -0.280491 1.474 -0.161949 0.255876 0.281929 0.409414 -0.896094 0.424167 -0.940579
208 -0.309649 -0.785639 -0.0304205 -1.11001 0.174639 -0.0681515 1.16727 -1.44655 -1.29877 -1.25569 -0.0547883 0.0828256 -0.172102 -0.362235 0.505484 0.943756 -0.297149 1.19596 -0.803118 0.612391 1.09444 0.96236 1.10998 -1.01583 -0.673024 1.19472 -0.374895 -0.687855 0.914926 -0.877929 -0.00691317 -0.356025 0.830543 -0.381848 0.56791 -1.18027 0.705015 -0.0673331 0.897314 -0.905627 -1.53066 -0.389535 1.13764 -0.50886 -0.556707 -0.373449 1.15748 -0.364893 1.56175 0.351252 -0.297624 0.32917 -1.00591 -1.68082 1.37717 -2.30887 2.09373 0.556655 -0.0612906 1.06314 1.93535 -0.417393 0.776955 1.50266 -0.884992 0.466916 0.0560031 0.719495 -0.963897 -1.28031 0.301954 -0.110626 -0.542806 0.236742 -0.201033 0.403836 0.161938 -0.894606 0.657528 0.793495 -1.98129 0.216351 0.25974 -0.871131 -0.220764 1.18105 -0.81143 -1.32184 -0.818008 0.936259 -0.948321 0.541815 0.777205 -0.336451 0.385897 -0.698798 1.248 -1.47393 -1.27582 0.649203 -0.00542715 0.406576 -0.173977 -1.69276 0.671586 -0.159011 -1.44174 -0.468649 -0.605766 -1.73712 -2.02274 -1.24325 -0.739105 -0.270261 -1.36985 0.805634 -1.46381 -0.899578 -1.21159 -0.361738 1.23386 0.116374 -0.125091 0.499959 0.762112 -0.910039 0.462773 -0.82506
8 -0.439473 -0.738157 -0.693112 -0.526879 -0.129795 -0.498104 -0.218875 -0.704075 -0.304913 0.287249 0.0925861 -0.0152765 0.0949021 0.210463 -0.215826 0.212274 -0.74314 -0.0105647 -0.216508 0.853032 0.619518 -1.00469 0.1192 -0.224617 1.1614 -0.166474 -0.424171 0.415829 0.154192 -0.0134718 -0.448011 0.329474 -0.913737 -0.246295 -0.538465 -0.376716 0.524737 0.249099 -0.968512 0.316304 0.292862 0.389722 -0.0826257 -1.12698 0.172243 -0.313133 -0.0747284 0.0668432 0.210764 0.387795 -0.112819 -0.387912 -0.596757 -0.387076 -0.0348634 -0.547835 1.48348 0.27513 0.17957 0.170092 0.779197 0.52319 -0.289057 0.678268 -0.660419 0.312478 0.735218 0.548567 -1.07598 -0.403407 0.734264 0.224647 -0.238627 -0.152676 0.17073 0.0891884 0.713072 -0.0859803 0.16839 -0.113 -0.000465503 -0.367963 0.129176 -0.131427 0.168083 0.625829 -0.0336547 0.276314 -0.805351 0.271509 0.204146 0.0166631 0.213626 -0.708184 -0.106967 -0.00837039 0.729733 -0.73536 -0.269627 -0.249696 0.799084 0.974697 0.310017 -0.157979 0.0147188 0.0957516 -0.251497 -0.322894 -0.531591 0.211971 -0.316649 -0.537618 -0.118146 0.968974 -0.625093 -0.0274819 -0.0628366 -0.630635 0.24982 -0.625759 -0.522757 -0.324258 0.216415 -0.141593 0.65991 -0.526439 0.51122 -0.520964
281 0.205028 -0.830447 -0.818286 -0.732128 0.140699 -0.426561 0.590361 -0.191239 -0.283466 0.340236 -0.410109 -0.8993 -0.0466771 -0.103192 -0.614302 0.294407 -0.424031 0.675756 -0.194774 0.804326 0.219863 -0.0267045 0.645622 -0.696203 0.907745 -0.600682 -0.551913 -0.395922 -0.308722 -0.19559 0.0505546 -0.796658 0.0013449 0.0842935 -0.64384 0.726613 0.29146 0.111125 0.207587 0.474902 -0.315654 0.689145 0.312924 -0.671709 -0.0857479 -0.360207 0.298072 -0.40295 0.319734 0.581223 0.196547 -0.224655 -0.652173 0.129136 -0.132929 -0.0849058 0.707042 0.751842 0.0515923 0.285049 0.211007 -0.0439047 -0.288676 0.884425 -0.142644 0.0317056 0.526275 0.719301 0.189668 0.63257 0.229417 0.726719 -0.0321928 0.174063 0.591193 -0.434102 0.149339 -0.801828 0.0279962 -0.355966 0.769206 -0.328086 0.0646594 0.102629 0.159796 0.39929 -0.467997 -0.199204 -1.3901 -0.266083 0.17233 0.122521 -0.189997 -0.131494 0.237415 -0.797795 0.230308 -0.316764 -0.832712 -0.907217 0.694621 0.777548 0.688371 -0.368087 -0.0300374 -0.125016 -0.0395351 -0.576064 -0.162856 -0.158914 -1.32581 -0.0473718 0.264892 1.08979 -0.616628 0.0302716 -0.291152 -0.406018 0.459036 -0.25834 0.119 0.277695 0.0919376 -0.188675 0.366369 -0.475678 0.264861 -0.816337
1996 0.015047 -0.706595 0.159955 -0.865684 -0.278609 -0.0950866 -0.315056 0.0135874 -0.171557 0.825641 -0.560107 -0.0402305 -0.241652 0.56133 0.503042 0.303527 -0.203395 -0.18865 0.223876 0.393945 0.213368 -0.218351 -0.332204 0.054382 1.06455 -0.902949 -0.306792 -0.019861 0.879893 -0.508859 0.49249 0.789335 -0.0707823 0.222891 -0.905544 0.473594 -0.0354542 0.590679 0.566255 0.254335 0.321841 -0.231825 -0.340625 -0.563472 -0.262122 -1.17998 -0.141433 -0.112434 0.204687 -0.185984 0.419772 0.223965 -0.0931198 0.101609 0.269684 0.23243 0.691571 -0.294851 0.382032 0.80483 -0.292305 0.793716 -0.0778802 0.69245 -0.156344 0.549681 -0.604559 0.88154 -0.522812 -0.727536 -0.189087 -0.457047 -0.535155 0.2422 -0.0431263 0.314906 -0.257185 -0.166328 0.213631 -0.392579 0.740325 -0.397078 -0.27973 -0.488472 0.214731 0.53238 -0.0444722 -0.0509669 -0.421286 0.563252 -1.05742 -0.0870542 -0.267556 -0.0340821 -0.0272406 -1.08333 0.894325 -0.481125 -0.616656 0.812448 0.434247 1.50023 0.327819 -0.334944 -0.0839046 -0.0433329 -0.242686 0.230874 -0.0352648 -0.358429 -0.11933 -0.379313 -0.323065 0.207354 -1.12609 -0.477236 -0.882701 -1.0245 -0.209545 -0.151697 -0.336426 0.0322208 0.266405 0.0613812 0.538358 -0.498204 0.103986 -0.566186
269 -0.086239 -0.800727 -0.148595 -0.187014 -0.156804 0.219333 0.490047 -0.48428 -0.0503753 0.0811306 0.00460888 -0.328824 0.773237 0.439969 0.114531 0.168004 -0.318447 -0.422017 -0.163591 0.0697853 0.197626 -1.10744 0.304882 0.476906 1.40124 0.240036 -0.552333 -0.0111749 -0.473733 -0.180696 -0.864314 0.891664 0.504557 0.0996131 -0.741842 0.0858902 0.551336 1.40483 -0.0981015 -1.00405 0.452221 -0.0738332 -0.339744 -1.17839 -0.226713 -0.379405 0.245763 0.218274 -0.139087 -0.134774 -0.335915 -0.563773 -0.565006 -0.273516 -0.361297 -0.307071 0.279474 0.92932 -0.749941 -0.222456 -0.589353 0.738927 0.48663 0.107121 -0.103408 0.466359 1.11449 0.784602 -0.367271 -0.704047 1.03982 0.418306 -0.543423 0.110279 0.620229 0.59459 0.665261 -1.19109 -0.182155 0.333578 0.660547 0.42156 -0.232221 -0.0383278 -0.0981761 1.05982 0.271306 0.229593 -1.26209 -0.0113854 -1.86268 -0.0229424 0.0863918 -0.624552 -0.154561 -0.944509 0.634857 -0.869104 -1.38585 0.208906 0.907628 -0.42921 -0.721539 -0.0550457 -0.0728037 0.811426 0.0934743 -0.641398 -0.753707 -0.540353 -0.202842 0.370839 -0.0229263 -0.285696 -1.81158 0.132855 -0.795285 -0.0782581 -0.109701 -0.717997 -0.915679 -0.649914 -0.110385 -0.358995 0.194128 -0.73517 -0.176689 -0.381595
9 0.13345 0.332759 -0.245711 -1.13076 0.21369 0.0418815 0.289388 -1.26554 -0.148699 0.06397 0.843687 -0.359309 1.02834 0.463167 0.29584 -1.05328 -0.325631 0.249437 0.251316 1.07667 0.754797 0.712617 0.476788 -0.219266 0.0933305 0.329227 0.745946 -0.0831862 0.422908 0.579174 0.372138 0.247356 0.181087 -1.13109 -0.535742 -0.620811 0.0621652 0.176639 -0.428769 0.663351 -0.358603 -0.475932 0.356922 -0.0468252 -0.240296 -0.536203 -0.444973 0.0347396 0.322619 -0.0186207 -0.613278 -0.163702 -0.377057 -0.321824 0.2209 0.329341 0.55673 -0.794001 -0.268959 0.564613 -0.0546067 0.529555 0.617238 -0.561209 -0.5096 0.153486 0.379704 1.9515 -0.0786867 -0.447249 1.38126 0.820074 0.040259 -0.657223 -1.04067 0.276331 -0.31556 -0.136457 0.200781 -0.339131 -0.220918 1.85851 0.0754973 1.3686 -1.025 0.387735 -0.291793 0.241122 -1.17179 -0.374364 -0.793379 -0.0286419 0.167504 0.0551501 -0.492744 -0.737827 0.0574101 0.217973 0.721491 0.422562 -0.678343 -0.286212 -0.681246 -1.17122 0.518635 -0.112978 -0.746237 -0.804231 -2.19375 -0.433713 -0.102036 0.0943129 -0.324359 0.0577445 -0.527452 0.0207168 -1.31942 -0.374343 -0.0506733 -0.232575 0.0560399 -0.196151 -0.386735 0.747416 0.383408 -1.17584 0.818439 -0.281585
2614 0.268259 -0.130597 -0.054802 -0.435419 0.155481 -0.609275 -0.112702 -0.54785 -0.10934 0.602585 0.943304 0.232926 0.694898 0.0226856 -0.183178 -0.219172 0.983 -0.10824 0.610886 1.78447 0.241049 -0.653002 0.190389 0.156673 0.2848 0.414344 -0.122766 -0.0272453 0.194181 0.196404 1.05285 -0.0258364 0.00431298 -1.11285 0.011729 -0.639723 -0.757118 0.0206103 0.136805 0.181298 -0.37785 -0.270283 -0.456237 -0.687036 -0.685937 -0.864537 0.536453 0.164 -0.0553947 -0.676374 -0.777889 0.637677 -0.333993 0.534304 0.273769 0.358413 -0.110193 0.23215 -0.458603 1.09951 -0.571511 0.310153 0.282478 -0.411 -1.03204 0.379452 0.337839 1.35126 0.686115 -0.0990766 -0.200575 0.32935 0.610022 -0.464879 -0.353971 0.252548 0.411659 0.774854 -0.243337 -0.339901 -0.619029 0.860731 -0.292371 0.588381 -0.524508 0.508759 0.393616 0.102064 -0.545065 0.231719 0.55112 0.0390888 0.473177 -0.0496634 -0.372995 -0.698383 0.250044 -0.548028 -0.0139669 0.575555 -0.680805 0.160381 -0.193211 -0.606774 -0.355031 -0.0780883 -0.0992446 -0.0964514 -1.16974 -0.568193 -0.253693 -0.0257541 -0.483431 0.640848 -0.140241 0.450493 -0.927002 -0.18767 0.14106 0.513874 0.567103 -0.0658741 -0.147285 0.0970846 0.0395308 -0.832118 0.715241 0.000306967
723 0.93315 -0.218326 0.622321 -1.05598 0.348703 -0.791794 -1.03961 -0.982337 -0.0880786 -0.0881949 0.675092 0.738863 0.0246127 0.481847 -0.580643 -0.120724 -0.629506 0.111873 0.276776 0.588525 0.757917 -0.252713 -0.0529233 -0.685262 0.00888741 0.239172 0.174929 -0.478262 0.788846 0.409768 0.415294 -0.334167 0.0055055 -1.44436 1.08507 -0.577462 0.0632456 -0.172497 -0.609856 0.444102 -0.394177 -0.671727 0.314915 -1.18705 -0.58528 -0.717535 0.516337 -0.250017 0.255816 -0.24093 -0.864965 0.0656547 -0.649872 0.515451 -0.303492 -0.0758219 -0.254633 -0.164102 -0.841427 0.613204 -0.155774 -0.209344 0.785193 0.28281 -0.583418 0.628197 -0.055471 1.68981 0.500989 -0.206374 0.487073 1.56239 -0.198266 -0.950092 -0.0796999 0.557916 0.864729 -0.833573 0.0577968 0.0823212 -0.0396998 1.79971 -0.902861 0.562404 -0.169146 0.328035 0.353159 -0.174112 -0.152227 -0.0163248 -0.275005 -0.00313488 -0.00125641 0.36954 -0.273434 -0.57711 -0.290603 -0.878997 0.0778996 0.273649 -1.12982 0.166264 -0.195512 -1.1284 -0.425913 -0.325174 -0.143257 0.0541933 -1.30904 -0.12864 0.153908 -0.161711 0.266065 0.530861 -0.036521 -0.454144 -0.8608 0.0873467 -0.581127 0.190195 -0.447831 -0.810262 -0.167865 0.115705 -0.381492 -1.17695 1.07305 -0.233041
10 -0.84557 -0.515807 -0.22174 0.00644494 0.0663376 0.714561 -0.523984 -0.491607 -0.613363 -0.217613 0.17062 -0.528511 0.484985 -0.0948204 0.28653 -0.244439 0.268912 0.130929 0.0293508 0.112153 0.322256 -0.430745 0.0102496 0.601751 0.222983 0.418206 -0.292118 0.352289 -0.24887 0.0387884 -0.491334 0.0196802 0.342484 -0.284603 -0.730636 0.215259 0.434408 0.0990945 -0.714863 -0.591755 0.0412509 -0.789989 -0.511629 -0.89738 0.132339 0.796117 0.0320813 0.211785 0.103498 -0.327201 0.593819 0.845661 0.634758 0.0352826 0.918416 -0.302545 1.55401 -0.0701971 0.304728 -0.0553285 -0.365917 0.0742653 0.0745992 0.0672973 0.332657 0.801405 1.26098 0.643523 0.169704 -0.554519 -0.959791 0.574192 -0.82175 -0.787527 0.459832 -0.498379 0.68825 0.076985 0.275258 -0.102527 0.0670704 0.091453 -0.0115982 -0.354916 0.408494 -0.660986 -0.443224 -0.215603 -0.791945 0.247679 -0.0997972 0.00422998 0.153364 0.151557 -0.368773 0.350296 0.435899 0.1436 -1.08834 0.586803 -0.443384 -0.0849643 -0.335946 -0.064398 0.199731 0.652854 -0.157371 -0.0756177 -1.56572 -1.4482 0.797715 0.218584 0.0904228 0.0262909 -0.613391 0.9324 -0.11475 -0.314535 0.689055 -0.949874 0.319529 0.566304 0.414205 -0.926704 -0.215275 -0.00379604 0.0714875 0.316363
476 -0.150001 0.573491 -0.565098 0.270891 0.184388 -0.76948 -0.0972447 -0.855745 0.0386002 -0.0242983 0.861298 -0.441224 -0.241887 0.334759 0.373639 0.113416 0.0193803 0.410634 -0.573383 0.374338 0.557872 -0.15506 -0.0702259 0.0219981 0.4301 -0.135027 0.142103 -0.470674 0.45564 -0.0460766 0.529241 0.743763 -0.0561938 -0.685623 -0.120422 0.777771 0.509736 0.678635 -0.0270928 -0.267044 -0.25364 -0.944931 -0.606676 -0.777794 -0.115611 0.542073 -0.457271 0.347954 -0.043487 -0.252979 0.791717 0.738798 0.192782 -0.347036 -0.132183 -0.614128 0.541636 0.011359 -0.267314 -0.274522 -0.797937 -0.0408669 -0.406373 -0.22224 0.208383 0.320102 0.213026 0.427627 -0.693911 -0.207941 -0.651785 0.0945535 -0.15607 0.354823 -0.186892 0.485407 0.499448 0.469471 -0.37733 -0.286318 0.0523861 -0.164771 0.113818 -0.554712 0.43495 -0.244002 0.386559 0.224901 0.857823 -0.0255772 -0.283939 -0.183909 0.281976 0.651706 0.180845 -0.0472806 0.306023 0.263764 -0.226981 -0.610027 -0.155673 -0.160943 0.470171 -0.613648 0.174575 0.160973 0.284936 -0.050727 -1.0086 -1.07385 0.235084 -0.688931 0.875628 0.393118 -0.814143 0.237923 -0.275515 -0.508153 0.0181216 -0.984014 -0.375623 -0.11561 -0.173003 -0.561513 0.65235 0.19246 1.14453 0.369366
2545 -0.612522 -0.389023 -0.0556112 0.0335473 -0.106794 -0.405324 -0.186568 -0.664338 -0.352973 1.12246 0.00824157 -0.231626 -0.610855 -0.28505 1.10264 -0.187497 0.0356641 0.0541856 -0.130583 0.665489 0.273093 -0.676153 0.690479 1.33537 1.18141 0.186213 0.270611 -0.723905 0.2247 -1.07258 0.0403793 0.329571 0.0957719 -0.508768 -1.36856 0.389516 0.0805015 0.363516 -0.639588 -0.18975 -0.139961 0.128468 -0.131824 -1.16958 -0.19557 0.608213 -0.706613 1.04554 0.971511 -0.877944 0.342612 0.824279 0.232112 0.563579 0.557469 -0.656293 0.355379 -1.04152 0.208049 -0.924557 -0.403824 -0.00385438 -0.123532 0.576343 -0.167952 0.663827 0.105099 0.785282 -1.29089 -0.595481 0.0305781 -0.0289476 -0.630866 -0.155411 -0.615724 0.41312 0.997311 -0.555456 0.19167 0.217806 0.740941 -0.271762 0.0242336 0.367129 0.416951 -0.159746 1.08626 0.467438 -0.241363 -0.158694 -0.922863 0.78796 0.237155 1.04403 -0.147393 -0.215459 0.500372 -0.0141362 -1.02824 -0.323906 -0.0258586 -0.0652784 0.239885 -0.670821 0.136914 0.21726 0.0188663 0.546788 -0.217958 -1.20471 -0.0241029 -0.472305 -0.108586 0.463061 -0.625826 -0.379938 -0.597125 -0.311696 1.00731 -1.23243 -0.0970566 0.359707 -0.54444 -0.178921 0.785615 -0.249765 0.740513 0.113062
11 0.14965 -0.0118046 -0.710295 0.156593 -0.125898 0.0510566 -0.96905 -1.37562 0.218296 -0.185403 -0.387487 -0.143333 0.0600529 0.548013 0.551095 -0.610438 -0.053493 -0.0457917 -0.110809 0.274251 0.202213 -0.554338 0.22799 0.0650887 -0.268995 0.972314 -0.901897 -0.00349484 0.339166 -0.495493 0.0476474 0.0515381 0.560602 -0.8123 0.873315 -0.49835 -0.00776434 -0.242959 0.14382 0.234107 0.178357 -0.397471 -0.0865562 0.148676 -0.00979857 0.268579 0.375082 0.261705 -0.138327 0.737388 0.233827 0.249935 -0.397741 -0.546727 0.783607 0.0250584 0.109121 0.359027 0.516149 0.188229 -0.57623 -0.544461 0.327656 0.61645 0.161071 1.43744 -0.177414 -0.146315 -1.44277 -0.158815 0.350991 -0.032533 -0.283343 -0.224532 0.0372723 -0.0751681 -0.111037 0.664828 0.100921 -0.871062 0.0789463 0.960226 -0.22934 0.0641996 -0.192813 -0.0504465 0.730073 -0.307648 -0.958535 -0.331129 0.347833 0.0396678 0.929401 0.117966 -0.192122 -0.390522 -0.175232 0.693396 -0.753118 0.287126 -0.0209152 -0.0958572 -0.399508 -0.0427255 -0.512007 0.407852 -0.250238 -0.39159 -0.133647 -1.27613 0.135927 0.487162 0.193122 0.181436 0.256683 0.0358514 0.103122 0.0867016 -0.475387 -1.07398 -0.298992 -0.863706 0.414715 -0.458023 0.0864207 -0.707234 0.703214 -0.216815
1655 -0.00881661 -0.0789503 0.193776 -0.246802 -0.463397 -0.30581 -0.611426 -0.409968 -0.484282 0.177057 -0.978375 -0.287849 -0.581452 0.357085 -0.526769 -0.775684 0.145369 -0.0603262 -0.395437 0.725691 -0.0383042 -0.344271 1.08481 -0.209399 0.632755 1.16821 -0.552651 -0.710608 0.0169263 0.120298 -0.118084 -0.311606 0.533487 -0.272005 -0.134437 -0.109729 0.0951756 0.581519 0.87032 0.00792855 0.250275 0.156359 -0.340694 -0.537011 -0.443912 -0.317731 0.322139 -0.443884 -0.396887 0.491411 -0.13515 1.16301 -1.03749 -0.186392 0.297277 -0.469769 -0.0775295 0.373909 -0.188248 0.383473 0.15848 0.10203 1.23858 0.394407 -0.20443 0.498439 -0.155847 0.0166368 -0.409513 -1.22281 0.274625 0.580938 -0.147355 -0.247244 0.592659 0.577413 0.00958312 0.396431 -0.233536 -0.764713 0.119826 0.285703 -0.196334 0.316098 -0.35234 -0.0205292 -0.29208 -0.287423 -0.31788 -0.114049 -0.372775 -0.124462 -0.0019439 0.0572877 -0.0346354 -0.786708 -0.210796 0.393752 -0.204636 0.125038 -0.369358 -0.668724 -0.357781 -0.232731 -0.687037 0.221751 -0.368185 0.31285 0.00543631 -0.129317 -0.0280595 0.617647 0.336968 0.712646 -0.144224 0.0150219 -0.431679 -0.406139 -0.497548 0.0858721 0.310696 -0.298831 -0.0594749 0.0905231 0.326032 -1.19715 0.764464 -1.06974
1839 0.70597 0.082351 -0.0591618 0.325359 0.175943 0.373659 -0.235655 -0.461042 0.508436 0.34069 -0.326995 -0.801679 -0.171978 0.113433 0.835843 -0.148255 0.0425412 0.108436 0.249993 0.796677 0.672273 -0.418498 0.253906 -0.501758 -0.351998 0.632677 0.0211033 -1.2009 0.0646763 -0.316717 -0.200405 -0.0485851 0.57088 0.138217 -1.12369 -0.485293 0.687122 -0.162091 0.365008 0.0959218 -0.532679 -0.269474 0.267823 -0.00141739 0.0630643 0.418379 0.501641 0.3965 -0.0387239 -0.531949 0.674473 0.05419 0.0972835 0.0528003 0.460946 -0.648731 0.609034 -0.116384 0.000535336 -0.397736 -0.815867 0.369347 0.174492 0.553602 0.301711 0.969119 0.907534 0.461466 0.0428822 -0.714138 -0.268027 0.891877 -0.213334 0.0320653 -0.241354 -0.0455011 -0.471111 0.170779 -0.286364 -1.18559 0.0922622 -0.0649966 -0.0647617 0.279661 -0.319269 0.319629 -0.300968 -0.488068 -0.76316 -1.25884 0.368836 -0.903078 0.418924 -0.115541 -1.09232 0.0651006 -0.379884 -0.215249 -0.0938107 0.0854711 -0.347319 0.125043 0.160718 -0.0442262 -0.372321 -0.231054 -0.0498055 -0.229322 -0.33859 -0.773967 -0.722092 0.411583 0.601147 0.292977 -0.154956 0.404821 -0.0774855 0.447091 -0.420089 -0.183556 0.271968 -0.479837 1.05587 -0.538191 -0.328102 -0.851564 0.506744 -0.703997
12 -0.320988 -0.122479 -0.139508 0.260977 0.817186 -0.0771411 0.213166 -2.84667 -2.81272 0.167867 0.16823 1.21467 -0.0580709 1.40973 -1.16104 0.60312 -0.453117 -0.0556772 -0.502731 0.583761 1.87177 0.365488 -0.322693 -0.479668 -0.494446 0.394109 1.62079 0.354651 -0.538133 -0.989986 1.25081 -0.123787 -0.610162 -1.08879 -1.291 -1.28368 1.25508 -0.214054 -0.864408 -0.924986 0.44126 0.163048 0.294731 -0.0377874 -0.272774 0.0914556 -0.217888 -0.0923615 0.0570967 -1.26057 -0.850692 0.549104 -1.36228 -0.858396 1.96209 -0.246992 -0.346909 1.07312 -0.0449866 1.07251 -0.682002 1.93013 1.07815 1.26487 0.250709 0.741841 0.340835 0.861595 -0.873237 0.044889 -0.835564 0.269103 -0.442925 -1.10373 0.476659 1.20483 0.359763 0.549811 1.3622 0.141708 -0.441818 0.610282 -0.886058 -0.603847 -1.41786 1.4972 0.175475 -0.937816 -0.98833 0.735036 -1.61472 -0.291272 -0.464016 0.109352 -0.526892 -1.06323 0.168229 0.254341 0.48117 0.166599 -0.168926 0.441676 0.0391626 -0.756785 0.869767 0.852919 -0.387779 -0.0355604 -0.886986 0.0291542 -0.564526 -0.244444 0.771655 0.269932 -2.00271 -0.682184 0.231421 -0.133576 0.297847 -1.15043 0.473358 0.315787 -1.26117 0.0335294 0.05134 0.260672 0.546598 0.0205717
2661 -0.0979113 -0.634251 -0.199465 0.0343171 0.160192 -0.869463 0.00836807 -2.12785 -2.02091 0.139961 0.0756636 0.458098 -0.052735 0.995299 -1.15109 0.343617 -0.641484 -0.101758 -0.483332 0.416296 1.25346 0.447804 0.0830501 -0.903847 -0.453687 0.379999 1.90849 0.0370117 -0.438656 -0.495241 1.41268 0.437495 -0.0634902 -1.01131 -1.1054 -1.23162 1.02135 -0.139929 0.0439525 0.00800599 0.222112 0.125236 0.301119 0.053079 -0.392558 -0.03444 -0.218403 -0.0977019 0.086869 -0.350119 -0.734388 0.862261 -1.19948 -0.645415 1.92309 -0.203401 -0.331308 0.967951 -0.0982185 0.597643 -0.745036 1.46979 1.89782 1.44866 0.195854 0.294727 0.447664 0.883771 -1.06735 -0.184815 -0.560916 0.687989 -0.605515 -1.21809 0.533611 0.330567 0.244702 0.456594 0.746788 0.225395 -0.0305119 0.564636 -0.713861 -0.643364 -0.967579 1.53698 0.199608 -1.39373 -1.56064 0.396439 -0.907005 -0.791018 -0.483672 0.191569 -0.226164 -0.930524 0.867099 0.0768614 0.0252709 0.248699 0.392338 -0.117496 -0.626783 -0.734763 0.809267 0.93451 -0.712606 -0.148985 -0.982093 0.202427 -0.271149 -0.157544 0.899931 0.119731 -1.97144 -0.450326 0.290545 0.432146 0.702378 -0.555735 1.09315 0.400259 -1.24711 -0.951221 0.265869 0.139413 0.227762 0.277895
1001 -0.11382 0.292627 0.413703 0.154116 0.237335 0.242494 0.341736 -2.52432 -1.68053 0.343168 0.141458 0.640456 0.0837769 0.640715 -0.905134 0.319283 -0.766505 -0.0888383 0.518253 0.163286 2.188 0.317991 0.0338498 -0.506118 -0.47201 0.27581 1.51753 0.225788 0.041859 -1.53348 0.713418 -0.536083 -0.603801 -0.741927 -1.34357 -2.05859 1.41256 -0.350171 -1.25839 0.0485055 0.516285 0.355777 0.294507 0.125015 -0.337102 -0.611309 -0.225 0.145585 0.035427 0.275316 -1.13608 0.989532 -1.09292 -1.21374 1.21337 -0.233272 -0.340525 0.6414 0.262294 0.760263 -0.58052 1.29358 2.47604 1.39316 0.250166 0.343909 0.779547 0.75389 -1.82182 0.294943 -0.43533 -0.0486645 -0.469684 -0.643769 -0.267575 0.727853 0.447941 0.375072 1.23221 0.151522 0.130982 0.403779 -0.674652 -0.337415 -0.731212 1.01969 0.260616 -0.802629 -1.16543 0.785194 -1.23546 -0.562292 -0.596765 -0.168018 -0.309829 -0.820147 0.10203 0.262905 0.349934 0.169035 0.351391 0.589316 -0.0657187 -0.702253 0.68092 0.760465 -0.397236 0.0189031 -1.01817 -0.107411 -0.0229959 -0.125757 0.818512 0.350471 -1.21159 -0.442086 0.0282486 -0.401966 0.263952 -0.472456 0.880594 0.450417 -0.883268 -0.0391668 -0.286678 0.320767 0.0935639 0.121583
1318 -0.272362 -0.159732 0.518443 0.119964 0.0743601 -0.0630277 0.235182 -1.68763 -1.61842 -0.0321587 0.538048 0.748958 -0.0960926 1.23062 -0.621469 0.38576 -0.992635 -0.0841281 -0.384234 0.801985 1.53085 0.00912007 0.170647 -0.546513 -0.565875 0.450417 1.22974 -0.221559 -0.210654 -1.14757 1.02837 -0.216899 -0.722372 -0.995675 -1.31972 -1.2348 1.25931 -0.24012 -0.360538 -0.0564435 0.304877 0.293203 0.492382 -0.138972 -0.254444 -0.213555 0.084667 0.0646213 0.198106 -0.359614 -0.771121 0.984477 -1.24789 -0.644496 1.32308 -0.381464 -0.227448 0.247709 -0.0516662 0.872613 -0.329365 1.20427 1.35546 1.35637 0.0955749 0.66162 0.689725 0.88312 -1.06048 0.0299945 -0.719841 0.223281 -0.662549 -0.773967 0.180366 0.492238 0.974155 0.0712077 1.2015 0.0659073 -0.219009 0.313687 -0.697769 -0.473604 -0.496836 1.34231 0.197397 -1.146 -0.990917 0.766001 -1.35571 -0.342713 -0.368028 -0.0234636 -0.411584 -0.251444 0.618932 0.220343 0.16571 0.38428 -0.0188358 0.194475 -0.140695 -0.724388 0.569059 0.697342 -0.536167 -0.342373 -0.671616 -0.100886 -0.295582 -0.237558 0.620795 -0.0476838 -1.5983 -0.565998 0.124153 0.147446 0.084626 -0.688836 0.417678 0.296458 -0.640851 -0.126232 -0.242288 0.264439 0.276556 0.332841
2662 -0.195602 0.0249514 0.586664 -0.0185189 0.441502 -0.367701 -0.106321 -2.23418 -2.30548 0.51196 0.56137 0.61984 0.195061 1.82235 -0.829223 0.361083 -0.576897 0.338778 -0.25323 1.0717 1.97159 0.140446 0.342835 -0.347073 -0.10431 0.475919 1.13958 -0.129291 -0.147942 -1.33557 0.54941 0.35354 -0.420256 -1.12548 -0.70754 -1.68573 1.62389 0.153781 -0.48964 -0.457012 0.438235 -0.286755 -0.200423 -0.440242 -0.0685099 -0.281342 -0.381201 0.1011 0.229268 0.344061 -0.694304 1.13963 -1.65256 -0.886517 1.187 -0.386689 -0.15669 0.515434 -0.0605969 0.461859 -0.265435 1.16547 0.862279 0.875332 0.100479 0.648451 0.0822447 0.886161 -1.91854 -0.212547 0.134072 -0.00541967 -0.897215 -1.06639 0.268528 0.54569 -0.11336 -0.0193405 1.45788 -0.239974 -0.522181 0.696678 -0.631697 -0.359912 -1.35827 1.14887 -0.052769 -0.950221 -1.12118 0.501097 -0.724169 -0.128803 -0.207406 0.0820215 -0.347553 -1.50514 -0.115258 0.075176 0.173648 0.32991 -0.0372723 0.423432 0.0558625 -1.02752 0.419814 0.169581 -0.882339 -0.580549 -0.843955 0.0285715 -0.34014 -0.375689 0.0857254 0.548971 -1.77381 -0.512385 0.194226 -0.276733 0.125632 -0.240756 0.376709 0.113022 -0.867823 -0.316638 -1.03107 0.113221 0.689801 -0.283427
13 -0.0887673 -0.0264671 0.425985 -0.661788 -0.282973 -0.639454 -0.25436 -0.593699 -0.00976064 0.475176 0.56798 -0.156405 0.589562 0.228548 0.133381 -0.0354655 0.0153667 0.578435 0.412752 0.369626 0.0520901 0.0150413 0.209532 0.470411 0.51333 0.311334 0.0624722 -0.104738 -0.335397 -0.845303 0.500911 0.0847159 -0.0382498 -0.635426 -0.358426 -0.143966 0.221979 0.244368 -0.249128 -0.182614 1.20724 -0.099129 -1.31374 -0.482788 0.715074 -0.368689 -0.0352403 -0.122402 -0.0791565 0.416674 -0.538379 -0.216763 -0.0356952 0.139105 0.154926 -0.218005 0.0518627 0.234929 0.0740845 0.460175 -0.269325 0.0540926 0.210601 -0.0482113 -0.753402 0.169575 0.0116668 0.321406 -0.354775 -0.147739 -0.0531715 0.272667 -0.455988 -0.303541 0.0576246 -0.0222866 -0.470983 0.0495062 0.329252 -0.708915 0.774951 0.839372 0.214796 0.306637 0.342927 0.392132 0.629663 -0.123503 -0.388377 -0.484533 0.106437 0.00301364 -0.28308 -0.356884 -0.935723 -0.103425 0.129587 -0.265993 -0.519443 0.10028 -0.259191 -0.41618 0.0952359 0.247609 0.50791 0.123201 -0.534411 -0.230448 -0.274933 -0.348218 -0.0370865 -0.752985 -0.511154 -0.343702 0.0354555 -0.199507 0.240463 -0.0237102 -0.510337 0.372991 -0.147308 -0.494427 -0.0530506 0.040004 -0.508279 0.214358 0.0075042 -1.2005
1810 -0.483958 -0.300837 0.481077 -0.241113 -0.148713 0.420153 -0.0605352 -0.401889 -0.722175 0.12075 0.246363 -0.0639812 0.20553 -0.442692 0.478568 -0.160928 0.146098 0.715738 -0.0505302 0.172355 0.0900363 0.0899165 0.611417 -0.512005 0.618639 0.574075 -0.162886 0.479868 0.544588 -0.696322 0.0817353 0.784988 0.579033 -0.269713 -0.0383682 -0.16361 0.162282 -0.00377926 -0.363518 0.411022 -0.00484878 -0.316855 0.129529 -0.371461 -0.0712074 0.40286 0.281755 -0.852414 0.512151 0.241324 -0.325016 0.174999 -0.29444 -0.132316 -0.024118 0.0655894 0.560217 0.357703 0.638647 0.367643 -0.39179 0.42537 0.736557 0.397861 -0.967466 0.43308 -0.504133 0.00307642 -0.658853 0.38433 -0.158552 -0.651358 -0.922188 -0.710606 0.183468 -0.591668 0.0598349 -0.194388 0.237997 -0.670539 0.268118 0.670338 0.425727 -0.192327 -0.446004 0.139251 -0.0946546 -0.859956 -0.937794 -0.1198 0.051457 0.0132489 0.60203 -0.285285 -0.00154202 -0.504576 0.267946 0.274746 -0.364733 -0.440799 -0.136788 -0.147185 0.396126 -0.412377 0.646209 0.153784 -0.669059 -0.0303312 0.257034 -0.277815 -0.064729 -0.434279 0.128215 -0.188624 -0.751325 -0.0977959 0.292728 0.706791 0.0764807 0.372556 0.666588 0.238887 -0.299949 0.0551813 -0.575424 0.297935 -0.291849 -0.22529
1701 -0.0261857 -0.735983 0.130941 -0.258457 -0.285006 -0.0772241 0.147871 -0.613488 0.377096 0.496254 -0.182495 0.345761 0.947358 0.124602 0.741282 0.43266 -1.01678 0.628086 -0.072444 0.282795 0.873325 0.0211486 0.449387 0.0966069 0.519475 -0.0315101 -0.107397 -0.166316 0.858658 -0.743931 0.0622885 0.172951 0.629098 -0.526503 -0.0798235 -0.18741 0.340736 0.172851 -0.523001 -0.259907 0.422759 -0.154218 -0.186086 -0.135777 -0.0679117 0.526848 0.235698 -0.105861 0.292032 -0.0366945 0.421507 0.23628 -0.0127907 0.319776 0.702728 -0.338812 0.0291679 0.614191 -0.217651 -0.487192 -0.343889 0.717748 0.101394 -0.398282 -0.328705 0.229288 -0.0316634 0.250592 0.0529767 -0.609469 -0.202112 0.367942 -0.253843 -0.15666 -0.17949 -0.085811 -0.379397 -0.388833 0.133525 -0.597295 0.329627 0.497916 0.0889712 0.196932 -0.0469762 -0.334906 0.331086 -0.181258 -0.77081 -0.543013 0.246488 0.183465 0.0260253 -0.177731 -0.562425 0.329906 0.0789777 -0.559648 0.026605 0.253779 0.27381 0.00820571 -0.309927 0.0112687 0.160745 0.300561 -0.134892 -0.237723 -0.223875 -0.77396 -0.124062 0.935717 -0.761028 -0.065361 -1.04992 0.868007 0.357675 0.401894 -0.00454594 0.467902 0.708826 -0.234231 -0.0656908 0.340229 -0.325751 0.32237 -0.122908 -0.398333
14 0.197182 -1.07401 -0.275361 -0.0136889 0.0542194 0.616162 -0.0736918 -0.434551 0.0772802 0.335178 -0.0572326 -0.169582 1.06814 -0.0900915 -0.420219 -0.322287 -1.14147 -0.286785 -0.141876 -0.133539 0.454184 -0.083503 0.0622014 0.490981 0.305216 -0.186972 -0.10667 -0.640539 0.77763 -0.614252 0.238197 -0.177532 -0.299434 0.133005 0.468732 -0.518426 -0.0560826 0.309306 0.0632652 -0.142998 -0.114844 -0.327135 -1.004 0.373257 -0.111008 0.21811 0.389446 0.396752 0.394308 -0.0276612 0.0414471 0.68788 -0.345427 0.185056 0.0902622 -0.230658 0.504669 0.863585 0.246808 -0.392102 -0.297818 0.815166 -0.0075408 0.819755 -0.49364 0.257934 0.0687712 0.213281 0.468229 -0.101623 -0.171432 0.707651 -0.820111 0.579288 1.0742 0.205318 0.503435 -0.355634 0.654925 -0.706288 0.144772 -0.382713 -0.554874 0.386285 -0.431476 0.191028 -0.429635 0.143142 -0.515235 -0.346981 0.285601 -0.288863 -0.0385452 -0.253798 0.185555 -0.458162 0.298418 0.470083 0.00284893 -0.310153 0.419079 0.789054 0.187292 -0.662233 0.00951628 -0.00134087 0.00928207 -0.807387 -0.0161981 -0.379907 -0.223043 0.823466 0.148634 0.274188 -0.861337 -0.227268 0.150192 0.553825 0.0366864 0.0724306 0.790704 -0.413173 -0.111148 -0.0516427 0.285241 -0.205515 0.118416 -0.0106332
2034 -0.480516 0.352117 -1.07359 -0.00992807 -0.263658 1.11867 0.666124 -0.0222619 -0.845554 0.337555 0.124663 0.525642 0.230589 -0.300404 -0.83962 -0.175176 -1.00517 0.63341 -0.118554 0.0979274 0.65964 -0.415001 0.0523157 -0.296097 0.385111 0.82846 -0.179635 -1.22822 -0.527029 -1.301 -0.693486 -0.0816693 -0.0714685 0.165176 0.354293 0.567393 0.0263572 -0.0391852 0.0725193 0.148417 -0.372545 -0.72989 -0.175974 0.30088 -0.31613 0.358959 -0.0750854 0.0143408 0.868259 -0.0261644 -0.118263 -0.388969 -0.40658 -0.121085 -0.511185 0.426925 -0.180334 0.808453 -0.0681228 0.0283823 -0.0343626 0.67466 0.419876 0.578113 -0.555563 0.296816 -0.296875 -0.344846 -0.0944545 -0.61504 -0.398871 0.871464 -1.08482 -0.825058 -0.53332 0.250999 -0.00939302 0.115187 0.597373 -1.24192 0.39454 0.438041 -0.00972759 0.35568 -0.62901 -0.364887 -0.568643 -0.24538 -1.27447 -0.636335 -0.38904 0.249119 0.011568 -0.357402 -0.321328 0.345594 0.602051 -0.118699 -0.159033 -0.247916 0.312194 0.140306 -0.221568 -0.587287 0.159936 -0.384997 -0.604759 0.443464 -0.302166 -0.419096 -0.00285017 0.0108436 0.0895125 0.445641 -0.858169 -0.270684 0.553145 -0.295637 -0.537478 -0.435699 0.238496 -0.141994 0.028209 0.0307319 0.286803 -0.0165774 -0.0186417 -0.300686
2075 1.0771 -0.370237 -0.368493 0.420667 -0.405991 -0.312201 1.42544 -0.0390822 0.679175 0.226688 -0.306251 -0.612252 0.433968 0.323887 -0.78616 0.0997434 -0.387881 0.380241 -0.365671 -0.0973593 0.246069 -0.515634 -0.844897 -0.344582 0.481887 0.583821 0.0384085 -0.565423 0.564038 -0.121109 -0.181655 0.532615 0.86659 -0.0784843 -0.405785 0.455272 -0.269402 0.0588725 -0.226872 -0.391467 -0.244 -0.131116 -0.224263 -0.457785 -0.144661 0.0874188 0.102546 0.302975 0.494135 -0.0211393 0.637295 -0.414761 -0.519222 0.375267 -0.658116 -0.583998 0.915982 1.33166 -0.269676 0.226054 -0.483433 0.601201 -0.407262 0.0126433 -0.289167 1.10727 0.613925 1.18917 0.17817 -1.25941 0.765465 0.516816 -0.610792 -0.120659 -0.431574 0.143525 0.395311 -0.526835 -0.0296849 -0.368859 0.477987 -0.191011 0.0351301 0.135496 0.252444 -0.794202 -0.0613313 -0.487777 -1.68087 -0.17902 -0.221874 -0.0565301 -0.220954 0.259183 -0.357896 -0.464123 0.424165 0.0442286 -0.240586 -0.262978 0.523046 0.469715 0.467373 -0.210026 0.829027 0.423022 -0.18995 -0.480648 -0.129626 0.309687 -0.438223 0.48927 0.340346 0.682356 -0.80482 -0.358043 -0.0732266 0.889529 0.0466011 -0.114324 -0.0516212 -0.415185 0.217422 -0.410981 0.771622 -0.128519 0.782798 -0.353321
158 0.256526 -0.816512 -0.0494047 0.258404 -0.0061067 -0.0457393 0.13474 0.163152 -0.203077 0.969048 -0.432227 -0.234907 -0.213718 0.713147 -0.337935 -0.421924 -0.696095 0.790968 0.255757 -0.00318056 0.383273 -0.107496 0.591269 0.0102765 0.592877 -0.489372 -0.418602 -0.372115 -0.108206 -0.626495 0.466835 0.0109715 -0.159008 -0.269038 0.309053 -0.245293 -0.224182 -0.000805076 -0.103749 -0.258602 -0.93168 -0.0245749 -0.511551 0.281132 -0.186407 -0.172943 0.590244 0.026491 0.718458 0.0431081 -0.024702 0.242176 -0.220099 0.252607 -0.324057 0.0533314 0.173025 0.179343 0.0232554 -0.213033 0.398104 1.23216 0.13416 0.286913 -0.626981 0.421914 0.754957 0.419782 0.34851 -0.283317 -0.0975096 0.318981 -1.00358 -0.636918 -0.162403 0.39883 0.416633 -0.278854 0.196998 -1.1287 0.565938 0.248706 0.6252 -0.484057 -0.569209 -0.0697985 0.052023 -0.414221 -0.411699 0.00159503 -0.0929895 0.379999 0.267737 0.441662 -0.247837 -0.19539 0.218894 0.122141 0.0825823 -0.664767 0.661704 0.565499 -0.372895 -0.526076 0.0880099 -0.308017 -0.178013 -1.15254 -0.283066 -0.236885 -0.231079 -0.141973 -0.308537 0.355986 -0.984737 -0.0301514 -0.257171 0.244068 0.479546 -0.8716 -0.0853032 -0.903206 0.00356357 -0.297566 0.172963 0.208433 0.571594 -0.264249
2077 0.234445 -0.82284 0.511873 0.119601 -0.0760792 -0.257594 0.381681 -0.219859 -0.293304 -0.229529 -0.343328 0.0393038 0.028918 0.766849 -0.811666 -0.935173 -0.335037 -0.291678 0.523081 0.705101 0.0590936 0.00605949 1.00467 -0.261633 0.573297 0.260881 -0.110388 -0.553159 0.781479 -0.120135 0.315666 0.475878 0.149445 -0.142781 -0.370077 -0.46126 0.289199 0.180282 0.626363 -0.0958688 -0.243775 0.463261 -0.88241 -0.611234 0.258498 0.674593 -0.288381 -0.0814777 0.953677 0.127062 0.228355 0.179091 -0.422217 0.263058 -0.0170626 0.33082 0.63075 0.698822 -0.780456 -0.23194 -0.958645 0.456641 -0.846108 0.117106 -0.35865 0.438819 -0.0021402 0.438122 -0.134475 0.0591101 0.156684 0.514926 -0.524268 -0.632519 0.639098 0.0568799 -0.0839411 -0.51695 0.447005 -0.228657 0.00726121 -0.00908647 0.348621 -0.403138 -0.3046 0.165121 -0.390125 -0.496841 -0.580284 0.454539 0.130343 0.316708 0.830414 -0.376843 0.198545 -0.367004 1.00881 0.157667 -0.201644 -1.53629 0.505791 0.906488 1.13603 -0.241779 0.35693 -0.0769954 0.128804 -0.150602 -0.705777 0.080937 0.371237 0.217067 -0.271574 0.919243 -0.901877 0.15208 0.198105 0.408006 0.229333 -1.06356 0.0705791 -0.113409 0.0300165 -0.632524 -0.385171 -0.286537 0.869985 -0.310525
2668 0.253029 -1.06564 0.23391 -0.371173 0.413105 0.775308 -0.273516 -0.0692089 0.17712 -0.0177911 0.389682 -0.219393 0.316783 0.428036 -0.738368 -0.825061 -0.647016 -0.215831 -0.248772 0.0376066 0.312833 -0.0355146 0.835041 -0.177019 0.544073 0.155897 -0.238154 -0.585632 0.60525 -0.564372 0.164569 1.43412 0.107008 -0.373492 -0.242378 -0.566387 -0.123917 -0.215397 -0.588986 -0.238051 -0.473398 -0.486868 -0.667225 -0.0349671 -0.466104 -0.166312 0.0473768 1.10508 0.99964 -0.147605 0.398783 0.240117 -0.486387 -0.593868 -0.270002 -0.917697 0.410007 0.476136 0.119481 -0.368947 -0.503692 1.18735 -0.474564 -0.231023 -0.504033 0.292556 0.544885 0.288426 0.443955 -0.162557 -1.08711 0.278635 -0.821442 -0.387353 0.150546 0.420098 0.666333 -1.0177 0.284891 -0.122661 0.1415 -0.372474 0.826275 0.081816 -0.0542302 -0.365567 -0.412913 -0.131192 -0.828158 0.0441466 0.184 0.709275 0.147246 -0.716204 0.275007 0.318853 0.149438 -0.0711302 -0.34859 -0.535193 0.761809 0.807083 0.158144 -0.082701 0.263974 -0.178867 -0.358953 -0.631781 -1.13558 0.240546 0.196936 0.351311 0.3743 0.696676 -0.29561 -0.0664046 -0.438909 -0.0149952 -0.00696807 -0.416387 0.479522 -0.632522 -0.0107844 0.0120512 -0.093064 -0.36042 0.941303 0.010252
15 0.419621 0.341522 -0.0187752 -0.100953 0.0668315 -0.0646992 0.307741 -0.263184 -0.854336 0.331404 0.204127 0.706419 1.00708 0.387787 1.02894 -0.875574 -0.118307 -0.451285 -0.0580029 0.865339 -0.00838283 0.307589 -0.0906114 -0.46565 1.09064 0.960381 -0.617174 -0.253828 0.513541 -0.613444 -0.337121 -0.108115 0.508147 -0.220257 0.0836321 -0.796572 1.13502 -0.149115 0.695574 -0.282451 -0.272348 -0.22852 0.0999731 0.155677 0.504669 0.0968063 -0.937769 0.8565 0.334488 -0.368344 -0.205672 0.187316 -0.0129776 0.197426 0.699134 -0.652893 0.552386 -0.111801 -0.758704 -0.498781 -0.00452492 0.142234 0.523805 0.355746 0.390855 0.379434 1.16193 0.0592208 -1.29994 -0.658208 0.124133 0.629934 -1.08626 -0.677928 -0.0262547 0.716494 -0.129117 -0.355536 0.139528 0.196236 0.660601 1.09837 -0.6773 -0.447085 -0.326679 -0.276495 -0.503622 -0.160318 -0.357497 -0.0686596 -0.266879 0.207306 0.650058 -0.465924 0.489379 -1.06233 -0.0135663 -0.664163 -0.446889 -0.103946 -0.231308 0.363925 0.0513563 -0.585518 -0.0169329 1.21664 -0.40617 -0.278961 -0.397947 -0.340122 -0.622964 0.132442 -1.19407 -0.138156 -0.247826 -0.0690283 -0.458677 -0.206821 0.255934 -0.156014 0.738367 -0.0756828 0.191688 -0.669392 -0.38008 0.168939 1.07435 -0.605214
2367 -0.0281971 0.123783 -0.31947 0.42253 -0.0453147 0.605631 0.225732 -0.549373 -0.534341 -0.146719 0.571865 0.482602 0.231453 0.910349 0.569917 -0.864864 -0.143222 -0.307693 -0.362564 0.924408 0.260116 0.423683 0.487777 -0.49561 0.455514 0.62815 0.123662 -1.07343 0.405246 -0.159012 -0.0428813 -0.212702 0.451602 -0.142834 0.0565269 -1.35707 0.941976 0.187221 0.749354 -0.247522 -0.686383 -0.287794 0.0966705 -0.0787098 -0.0801562 -0.052327 -0.453553 0.179403 0.543547 -0.295536 0.118071 0.154454 -0.518478 -0.163043 0.916699 -0.494894 1.08251 -0.505764 -0.434105 -0.426755 0.309165 0.231442 0.477371 0.223445 -0.184944 0.272139 0.700644 0.1293 -0.926129 -0.960208 0.212085 0.635975 -1.09687 -0.192696 -0.13201 0.593541 0.00548215 -0.667233 0.216557 0.27703 0.192425 1.73107 -0.602155 0.480323 -0.264999 0.173142 -0.656795 -0.925523 0.0360057 0.22284 0.112336 0.089707 1.07632 0.369221 0.31081 -0.435074 0.446605 -0.539459 -0.181309 -0.240341 -0.295012 0.941878 -0.148497 -1.10207 -0.490579 0.200255 -0.312749 -0.724193 -1.03379 -0.782282 -1.1866 0.183388 -0.479937 -0.108566 -0.533974 0.342983 -0.644976 0.0955659 0.439348 -0.205233 -0.156491 -0.26756 0.587722 -0.410588 -0.488565 -0.147103 0.625456 -0.253661
1093 -0.0811169 0.305838 -0.168551 -0.20947 0.428928 0.120905 0.599127 -0.273365 -0.436973 0.417774 0.42705 0.892445 0.554409 0.642588 0.867917 -0.910999 0.150142 -0.00901612 -0.913338 1.09501 0.0798208 0.603489 0.00136334 -0.525191 0.475505 0.818753 -0.613078 -0.771845 0.122415 -0.654069 -0.139175 -0.272578 0.405656 -0.118294 -0.131318 -0.848524 1.03532 0.202003 0.310245 -0.265567 -0.749996 0.0298634 0.0136001 0.53746 0.547193 -0.301009 -0.785865 0.718855 1.35095 -0.343656 0.703216 -0.197101 -0.358295 0.0161867 0.318285 -0.866306 0.189147 0.104319 0.212673 -0.43764 0.400977 0.163803 0.750964 -0.195363 0.123693 -0.19615 0.704009 0.129568 -0.65 -0.868733 0.218521 0.78589 -0.916208 -0.700486 -0.113845 0.66444 -0.633068 -0.725351 0.0624809 0.830305 0.64952 1.24958 -0.749789 -0.515836 -0.0678046 -0.233308 -0.49997 -0.98482 -0.179167 0.165255 0.305733 0.0210199 0.157201 -0.419798 0.521288 -0.490939 0.0386172 -0.541879 -0.584905 0.104478 -0.505995 0.469538 -0.0882873 -0.663764 0.164821 0.269499 -0.622697 -0.568972 -0.712532 -0.823117 -0.819141 0.0374424 -0.684318 -0.431692 -0.0947905 0.309598 -0.355874 -0.402516 0.170839 -0.0361463 0.025689 0.238139 0.379453 -0.961782 -0.536745 0.107232 1.11591 -0.364897
1090 -0.0367458 -0.194524 -0.29936 0.225114 0.035208 0.704043 0.0439725 -0.395771 -0.521539 0.647404 0.324438 0.293068 0.710284 0.664646 1.19164 -0.439416 0.279573 -0.44697 -1.00665 0.885467 0.219956 0.194711 0.341609 -0.0995349 0.563681 1.06569 -0.430741 -0.612338 0.0895662 -0.253085 0.15546 -0.353631 -0.0675041 -0.0560237 0.0829008 -0.82477 -0.16894 0.458211 0.614238 -1.53079 -0.212737 -0.397063 -0.70236 -0.399627 -0.238597 -0.438807 -0.558851 -0.137552 0.0697463 -0.644325 -0.640295 0.192271 0.134922 -0.278469 0.363877 -1.37574 0.44059 -0.0567425 -0.00930396 -0.398676 0.0161867 -0.454133 0.520472 -0.371733 -0.330655 0.1412 0.278331 0.188533 -1.0086 -1.09227 0.618797 -0.288837 -0.773839 -0.703453 0.362881 1.17493 -0.857543 -0.30583 -0.414648 0.649329 -0.111812 1.33981 -0.406426 -0.121056 0.591389 -0.0583601 -0.858751 -2.40227 -0.766981 -0.549919 0.444707 0.49087 1.33474 -0.961919 0.838567 -0.616563 0.243195 -0.360035 -0.386953 -0.4023 -0.905692 -0.119633 -0.211464 -0.380628 1.14884 0.257839 -0.75917 -0.323556 -1.3027 -1.36771 -1.03692 -0.619309 -0.410371 -0.437402 -0.350214 0.608989 -0.379802 -0.206485 0.476243 -0.00217894 0.0797738 0.228584 0.0586468 -1.05622 0.101161 0.67473 1.05562 -0.840243
1271 -0.68527 0.093357 0.0452741 0.485223 -0.448622 0.159971 0.538411 0.0213561 -1.06373 0.230511 -0.0207607 0.591545 0.276296 1.4574 0.428464 -0.437448 -0.186758 -0.0770215 -0.915461 1.13967 0.250067 0.486415 0.00805047 -0.62526 0.706229 1.33315 -0.664739 -0.544093 0.188875 -0.615337 0.118107 -0.0556471 0.251772 -0.325709 0.203665 -1.4507 1.04118 -0.175043 0.52467 -0.584143 -0.179883 0.25077 -0.64742 0.331709 -0.0117736 0.0675424 -0.266503 0.136245 0.613749 -0.326722 -0.405136 0.121638 -0.197743 0.24773 0.193481 -0.844148 0.711087 0.155352 0.0848804 -0.577195 -0.152807 0.57559 0.515478 0.344314 0.0260874 0.14234 0.794177 0.171793 -1.22163 -0.33151 -0.281573 0.216617 -1.17123 -0.571667 0.513607 0.64231 -0.485208 -0.141633 -0.257852 0.0280608 0.212455 1.34335 -0.553315 -0.106858 0.00441773 0.0195616 -0.726507 -1.68569 -0.51834 0.0586687 -0.039438 0.0168361 0.499824 -0.199812 0.790757 -0.612803 -0.0986667 -0.280535 -0.460484 -0.350966 -0.472041 0.0440609 -0.123786 -0.859082 0.0916134 0.371204 -0.286248 -0.524349 -1.00391 -1.69308 -0.722975 0.481904 -0.563004 -0.644829 -0.107538 0.371669 -0.611404 -0.187658 0.35912 -0.0391238 0.467276 -0.00688164 -0.0426221 -0.657666 -0.167735 0.14422 1.55993 -0.627853
16 -0.184611 0.0748913 0.0555579 -0.076941 0.18537 0.230204 -0.297004 -0.175118 -0.263845 -0.242234 -0.0913656 -0.417977 -0.102287 0.426059 -0.188395 -0.206398 0.591593 0.0391528 0.180385 0.192898 1.02967 0.0482946 0.483172 -0.56806 -0.274881 0.865908 0.192559 -0.21687 -0.0646987 -0.424568 0.311323 -0.27509 0.300633 -0.647129 -0.219852 -0.736315 0.0711034 0.652897 0.217416 0.0510025 0.011012 -0.763221 -0.13822 -0.237296 0.0118122 -0.301522 -0.0926826 0.320683 0.260638 -0.510727 0.254234 0.0895344 0.072609 0.315116 0.192932 -0.445032 1.01896 0.197191 -0.109965 -0.123435 0.810071 -0.673918 -0.581624 -0.432502 -0.362191 0.619045 1.02248 0.34734 -0.31952 0.490199 0.732591 -0.265832 -0.0199124 -0.814771 -0.274319 1.0023 1.21102 -1.39048 0.551434 0.797394 -0.238252 0.0736907 -0.164187 0.204905 -0.548816 -0.295701 0.137477 0.538832 -0.266127 0.596763 0.127177 -0.000638265 0.0685864 -0.364083 -0.467337 0.073326 -0.204776 -0.436409 -0.315464 0.382395 0.193655 0.742307 0.508564 -0.459383 -0.125589 0.172895 -0.168925 -0.680858 -1.32955 -0.0815015 -0.415341 -0.608754 0.127008 1.08906 -0.414572 -0.152313 -0.4999 -0.619033 -0.949499 -0.719127 0.849367 -0.472399 -0.591943 0.474147 0.835327 0.311358 1.16613 -0.637568
2444 0.525806 -0.144934 -0.407992 -0.471837 0.131584 0.143145 0.419344 0.201449 0.0162832 0.443131 0.494672 -0.302713 0.776563 0.107861 -0.647831 -1.00649 0.701318 0.704834 -0.136882 -0.32571 0.458636 -0.4412 -0.0278438 0.26615 0.0846406 -0.351654 0.439324 -0.0953431 0.464189 -0.0864474 0.356877 -0.140546 -0.101847 -0.18429 -1.38036 -0.379441 -0.0209408 0.569194 0.0369729 -0.00446697 0.113532 -1.72907 -1.03744 -0.415656 0.0565413 -0.231668 0.0832533 0.216854 0.756704 0.427365 -0.616508 0.25676 -0.583293 -0.275178 -0.0786888 -0.49432 0.520197 0.146113 -0.792525 -0.399898 0.851907 0.0198224 -0.652965 -0.572123 -0.629526 -0.00993715 0.707647 -0.340527 -0.606706 0.367337 -0.0879784 -0.284997 -0.405094 -0.0190097 0.260748 -0.337955 -0.447559 -0.526966 0.434358 -0.077615 -0.0589779 0.0661891 -0.373163 -0.396617 -0.432575 0.36583 0.69302 0.11938 -0.303666 -0.0732836 0.455655 -0.66789 0.16226 0.0845995 -0.320515 0.0953837 -0.181211 -0.62186 -0.0946298 0.0766589 -0.0158588 -0.242222 0.0330959 -0.934905 -0.789399 0.281753 -0.0524875 -0.534006 -1.01841 0.105316 -0.978105 0.158282 0.511112 -0.340849 -1.0382 -0.146127 -1.1704 0.223194 0.293596 0.47285 1.11785 0.0669452 0.656012 0.0309637 0.393745 0.330519 1.70057 -0.286571
1632 0.286537 -0.171606 -0.22317 -0.910874 -0.432087 -0.461208 -0.458481 -0.0408184 0.0208737 0.55194 0.67884 -0.0693254 -0.00679772 -0.00604351 -0.239691 -0.342245 0.323471 0.251322 -0.705796 0.570744 0.907759 -0.106104 0.73854 0.00386356 -0.388062 0.846056 -0.203387 -0.03392 0.123143 -0.377371 0.179082 0.100462 -0.135629 -0.841014 0.175128 -0.761426 0.844201 0.337885 0.451931 -0.044522 -0.0334454 -0.792629 -0.369288 -0.34903 0.198192 0.0315066 0.463779 0.104945 0.530334 -0.141158 0.537024 0.735413 -0.325535 -0.207281 0.43842 -0.540698 0.847706 0.0349417 -0.533895 0.276074 0.573201 0.712969 0.0925289 0.138945 -0.732707 0.360316 0.439465 -0.172391 -0.500695 0.884933 0.537514 -0.196166 0.327168 -0.493106 -0.262643 1.59208 -0.239063 -0.636834 0.779763 -0.0367735 -0.0830898 0.778159 -0.344749 0.904616 -0.612018 0.573627 -0.6091 -0.146867 -0.0323587 0.269022 -0.107499 -0.849688 -0.0311826 -0.156938 0.0574391 -0.187179 -0.306965 -0.152639 0.242104 0.428481 -0.450938 0.372549 0.127721 -0.452586 0.610374 0.329763 -0.216377 -0.664004 -0.83339 -0.158877 0.169269 -0.660215 -0.124503 0.593615 -0.527622 0.226163 -0.747459 -0.3737 0.0572071 -1.03592 0.313991 0.0888553 0.0146421 0.548486 -0.365401 0.502967 1.36224 -1.02896
970 -0.53012 -0.132192 -0.153364 -0.692865 0.125793 0.247891 -0.607418 0.0630376 0.238031 0.600512 0.106289 0.445389 0.304228 0.302263 0.365188 -0.361857 0.451442 0.12826 -0.226037 0.0748854 1.4535 -0.115352 0.277117 0.798795 -0.119512 0.496731 0.727807 -0.16954 -0.166586 0.0725903 0.575394 0.154821 0.228639 -0.345699 -0.248681 -0.615445 1.17053 0.917193 0.268278 -0.841434 -0.292673 -0.443188 0.461953 -0.467864 -0.238146 0.238798 -0.392949 1.04383 0.459761 0.242399 0.479295 0.648219 -0.477163 -0.0524777 -0.201171 0.296046 0.803584 0.0565424 -0.174263 0.456531 0.0548703 -0.217337 -0.445036 -0.409532 0.0124837 0.28963 0.72625 0.301343 -0.398817 0.565733 -0.210581 0.384048 0.156182 -0.230783 -0.201743 0.375609 -0.596781 -0.312579 -0.124136 0.11696 0.194658 0.345703 -0.326508 0.151597 -0.32837 0.0337617 -0.145678 0.626413 -0.337704 0.191165 0.139461 -0.134961 -0.205919 -0.241885 -0.0555857 0.361573 0.164639 -0.165653 0.230055 1.11443 0.0372394 0.171931 0.00339779 -0.628681 -0.0586593 -0.191766 -0.197465 -0.115886 -0.699032 -0.222553 -0.505363 0.504982 -0.37557 0.843744 -0.671415 0.569527 -0.312726 -1.02353 -0.396184 -1.01928 0.0191412 -0.823026 -0.102129 0.214326 0.44871 0.401839 0.585352 -0.389027
2642 -0.108237 0.179806 -0.814943 -0.8756 0.702347 -0.161648 -0.159543 -0.243129 -0.495651 -0.387183 0.566165 -0.127658 0.422922 0.131338 0.0332237 0.0489002 0.528712 -0.350067 -0.319938 0.0158126 0.919055 -0.363557 -0.328123 -1.00001 0.101758 0.138936 -0.582087 -0.44219 0.398252 0.307545 0.426909 0.430896 0.00558295 -0.823787 -0.323521 -0.396843 1.1548 0.596594 -0.117095 -0.075653 -0.417965 -0.593374 0.214868 0.122626 0.398236 -0.554383 -0.168852 0.14231 -0.00837938 0.544479 0.18367 1.44691 0.56311 -0.183 0.265999 -1.01828 0.330747 -0.219431 -0.763264 0.42121 0.717305 0.681045 0.303036 -0.14302 -0.186705 0.339777 0.547903 -0.154133 0.309425 0.23631 -0.0713299 0.326914 -0.11084 -0.902041 -0.714121 0.528727 -0.407405 -0.0453432 0.278346 -0.165769 0.179333 0.207017 0.0371922 0.688096 0.177751 0.425075 -0.670021 -0.104129 0.253902 0.219323 0.353214 -0.118771 -0.667016 -0.437766 -0.624067 0.155819 0.176412 0.723234 0.526493 0.340438 -0.133344 0.804482 0.706664 -0.750775 -0.030173 0.0886588 -0.600152 -0.139509 -0.452528 -0.108405 -0.236139 -0.65001 0.0147354 0.876087 -0.7969 0.192947 -0.0626618 -0.00255258 -0.415829 -0.563931 0.730784 -0.413273 -0.335092 -0.296244 -0.131202 0.472511 0.674651 -1.14005
17 0.0248267 -0.403747 0.362353 -0.288698 0.789686 -0.23435 -0.438089 0.376952 -0.280643 0.91869 -0.421649 0.257421 1.61423 1.57609 0.48169 0.830584 -0.359033 0.314873 0.0964247 0.384734 0.289098 1.17972 0.32454 -0.0155739 0.138952 0.270163 0.275633 -0.365643 -0.125105 -0.721739 -0.446807 -1.15631 0.331349 -0.461428 0.937774 -0.144261 0.828089 0.0668082 0.841993 0.506718 -0.174631 -1.00345 -0.971131 0.558132 -0.112827 -0.275747 -0.845196 -0.192526 0.578867 0.0543211 -0.093721 -0.636853 -0.0437863 -0.204373 0.523744 -0.68837 0.863795 0.42484 -0.353972 -0.391635 0.172222 0.44993 0.917198 -0.351128 0.0808945 0.260517 0.162728 0.2126 -0.913315 -0.564143 -0.308139 -0.46857 -0.734355 -0.954354 0.359324 0.13829 -0.374522 -0.445338 0.0546634 -0.620195 0.617197 0.367973 -0.176055 0.337247 -0.191775 0.715503 -0.310994 -1.19315 -0.110572 0.179577 -0.529742 0.864953 0.056497 -0.535717 -1.13448 -0.0700225 0.499646 -0.953683 0.228423 -0.496033 -0.0134426 0.0955495 -0.36566 0.175436 -0.405401 -0.36409 -0.973523 -0.733035 -0.560316 -0.58858 -0.396671 -0.431784 -0.539855 -0.364716 -0.67249 0.0732708 -0.737869 0.0150795 0.51469 0.102366 0.311464 0.0433735 0.140468 0.454407 -0.58041 -0.216128 0.572023 0.57007
24 -0.28257 -0.879974 -0.209084 -0.116785 -0.063835 -0.984417 0.246242 -0.600718 -0.300354 0.798204 -0.234732 0.027875 1.09325 0.904971 0.503789 0.341647 -0.852737 0.154498 0.260654 0.468178 -0.00261188 -0.516208 -0.168838 0.419481 0.271999 -0.265833 0.0926971 0.484703 0.0161641 -1.01275 -0.152903 -0.267469 0.35502 -0.777549 -0.141799 -0.247997 0.0668505 0.237902 0.241372 0.706518 -0.283812 -1.15535 -1.51549 -0.931103 -0.254623 0.077719 -0.200162 -0.146076 0.66692 0.508059 0.24704 0.0922054 0.137435 0.0870684 0.192929 -0.345092 0.50441 0.522916 0.110092 -0.395317 -0.356516 0.179194 -0.00298451 -0.105111 0.0147732 0.461655 0.30585 0.421587 -0.835045 0.106417 -0.199111 -0.398469 -0.312637 -0.499768 0.908722 0.125408 0.615613 0.108981 0.375163 -1.05902 -0.455919 0.215654 -0.207533 0.72367 -0.0551117 -0.100749 0.025887 -0.335276 -0.450765 0.53092 -0.533318 -0.040685 -0.224199 0.116745 -0.367921 -0.119911 -0.10022 0.16015 -0.194291 -0.222249 -1.12151 0.993357 0.0702928 -0.461275 0.670585 -0.0124083 -0.920184 0.187985 -0.362387 -0.296341 -0.626233 -0.97948 -0.535643 0.408105 -1.62919 0.0132816 -0.0374718 -0.112753 -0.15033 -0.225947 -0.368632 -0.604688 -0.464774 0.615721 0.129367 -0.283718 0.411374 -0.544611
2140 0.137312 0.110262 0.0904465 -0.746481 0.516272 0.0160919 -0.0807014 0.282187 -0.217896 0.919151 -1.0496 -0.275074 1.71684 0.451733 0.457807 0.482472 -0.821172 1.22324 0.177109 -0.545089 0.0557326 0.715367 0.317233 0.173888 0.315211 0.325427 0.221513 0.121267 -0.456196 0.244098 -0.0705144 -0.198233 0.318375 -0.0480347 -0.0456591 -1.00302 0.561656 0.0197324 0.228619 -0.386804 -0.139481 -1.51665 -0.445425 -0.27974 -0.824553 -0.382335 -0.38243 -0.0902232 0.826426 -0.355743 -0.194582 0.882321 -0.158623 -0.521347 1.11611 -0.909862 0.640505 0.592048 -0.045125 -0.788695 -0.272069 -0.303596 0.430238 -0.185247 -0.177924 -0.173898 0.357059 0.652395 -0.486532 -0.142247 -1.00286 -0.648232 -0.63713 -0.0205468 0.348493 -0.364467 0.252911 0.245796 0.597111 0.320743 -0.0421071 0.053883 0.0592106 -0.461382 -0.757285 0.73696 -0.440532 -0.362573 0.359875 0.691366 -0.507124 0.0638633 -0.672806 -0.264337 -0.435029 -0.17823 0.698343 -0.102738 -0.133497 -0.516642 0.309557 -0.00946243 0.0663643 0.28009 -0.258963 -0.00406297 0.282099 -0.0813594 0.139296 -0.0237306 -0.796886 -0.498123 -1.41287 -0.403049 0.416551 0.22035 -0.208215 -0.0222575 -0.0171217 0.659791 -0.123124 0.567835 -0.654789 0.0941703 -0.0787244 -0.692338 0.407468 0.709021
1316 -0.425545 -0.0748135 0.898514 -0.670476 0.250954 -0.452547 -0.188652 -0.497176 -0.246643 1.60053 -0.687966 -0.275714 1.54332 0.788379 -0.035584 -0.410379 -0.327408 1.09 -0.289427 -0.283636 -0.156662 -0.259382 0.271054 0.156064 -0.561767 0.193863 1.14007 -0.192858 -0.967401 -1.11193 -0.300706 -0.593137 0.211724 -0.620226 -0.532023 -0.862667 1.00825 -0.285694 0.170038 -0.178702 -0.244399 -0.256649 -0.827395 -0.185909 0.203936 -0.02021 -0.208391 0.755291 1.68691 0.211703 -0.0566389 0.0717327 -0.349714 0.340352 0.718236 -1.11418 0.0993127 0.728933 0.302172 -0.598369 -0.307286 -0.514237 0.348225 -0.313286 -0.0129862 0.215689 0.331746 0.579416 -0.921118 -0.154049 -0.179921 -0.56276 -0.0237293 -0.060979 0.464329 -0.343969 -0.324297 -0.0456082 0.54266 -0.303953 0.302605 0.576068 0.936436 -0.300763 -0.593694 0.683355 -0.444683 -0.720174 0.155062 0.468959 -0.311124 0.166386 0.27925 -0.74566 -0.610101 -0.913097 0.138883 -0.178867 0.10368 -0.448938 -0.0888894 0.442736 -0.551567 -0.0747645 -0.219805 0.473263 -0.944851 -0.583721 -0.44599 -0.705155 -0.370244 -0.894473 0.492734 -0.334809 -0.560174 -0.568496 -0.965363 -0.148193 -0.0518318 0.304744 -0.67507 -0.299209 0.142423 -0.294005 0.856794 -1.12161 0.0592805 -0.54932
1315 -0.48419 -0.0516125 0.129406 -0.733328 0.411585 -0.282716 0.0942339 -0.611957 -0.294457 1.2368 -0.510798 -0.356635 1.53759 1.5433 0.150895 -0.623777 -0.446575 1.25506 -0.154163 0.115448 0.311467 -0.0599471 -0.278659 0.182041 0.0922148 -0.0652825 0.722051 0.202803 0.0872302 -0.391519 -0.308587 -0.610605 0.197501 -0.706907 0.557561 -0.626178 0.114355 -0.193784 -0.411512 0.0394718 0.151607 -1.00848 -0.91245 -0.827011 -0.430743 0.134818 -0.561274 0.2143 -0.110176 0.631323 0.398808 0.380017 0.101127 0.501099 0.494995 -0.677222 0.322137 0.696005 -1.52713 -0.744081 -0.32075 -0.0795682 -0.027638 0.081885 -0.5968 0.0970764 -0.337906 0.390872 -0.770615 -0.433276 -0.685285 -0.519538 -0.586448 -0.906857 0.923315 -0.155135 0.482384 0.0590368 0.534344 -1.58069 0.0268792 -0.146487 0.1457 0.170812 -0.540896 -0.62369 -0.333892 -0.905425 0.133642 0.552374 -0.164549 0.00593495 -0.295706 -0.482788 -0.260328 -0.247579 0.508753 -1.4245 -0.365282 -0.869305 0.328412 -0.279925 -0.416612 -0.284311 0.235141 -0.365928 -0.607335 -0.362803 0.0973288 -0.0954561 0.0824787 -0.419776 -0.404452 0.215236 -0.641539 -0.0446942 0.506968 0.553349 0.503995 -0.0226419 -0.207737 -0.752015 0.437754 -0.121853 -0.208458 -0.0838851 0.338357 -0.744611
927 -0.130496 -0.735731 0.31731 -0.327644 0.0377771 -0.243991 0.395711 0.225694 -0.0213404 1.83024 -0.119976 0.306003 1.36492 1.19146 -0.0892855 0.216679 -1.09416 0.664211 -0.140748 0.299665 0.139052 0.250617 -0.471074 -0.450901 -1.0449 -0.175611 0.686646 -0.164759 -1.36439 -0.830575 -0.323289 -0.808584 0.861386 -0.0064887 0.305843 -0.540697 0.368739 -0.505926 0.0567662 -0.503834 -0.0844652 -2.1957 -1.40922 -0.443463 0.366929 -0.176559 -1.102 0.544375 0.615198 0.918499 0.205126 0.335269 -0.110944 0.261554 0.516173 -1.0467 0.86249 0.562325 0.429243 -0.5345 -0.334217 -0.250894 -0.0395593 -0.144664 -0.185846 0.164609 -0.0582126 0.138727 -0.466068 -0.374828 0.831332 -0.10067 -0.735516 -0.484769 1.56192 -0.441549 0.0849029 -0.547108 0.289653 -1.63898 -0.478666 0.700734 0.730214 -0.0665488 0.117368 -0.0201134 -0.687734 -0.177572 -0.512551 0.412087 -0.28022 0.0241717 -0.409364 -0.126003 -0.514314 -0.123039 -0.178073 -0.445707 -0.340204 -0.161037 -0.387721 -0.146225 -0.277909 0.180398 -0.34983 -0.442824 -1.05193 -1.18322 0.00440005 -0.938034 -1.1705 -0.596839 0.273005 -0.170226 -0.576475 0.916275 -0.163009 0.132865 0.962019 0.0602031 0.227506 -0.971769 0.100533 0.606017 -0.0339096 0.115252 0.722482 -0.425732
18 0.452608 0.139734 0.101107 -0.0516725 0.640615 0.408049 -0.526634 -0.253591 0.136434 -0.0886215 0.825568 -0.877387 0.577197 0.221713 0.585746 -0.227812 0.315677 -0.293633 -0.299273 0.436474 0.851251 -0.238082 0.462071 -0.227965 0.382874 0.187474 -0.429816 -1.21105 -0.494182 -0.882127 0.272225 -0.88718 0.144826 0.701092 -0.635396 -0.253508 0.105132 0.260306 -0.891974 0.0988708 0.165614 -0.487617 0.523691 -0.146856 -0.679113 0.702079 0.185407 -0.496495 -0.0350362 0.236115 -0.333795 0.0349065 -0.125573 -0.517033 0.224731 -0.277559 0.21921 -0.0217032 0.103338 -0.0762434 -0.204681 0.460838 0.423772 1.26792 -0.196219 -0.526764 0.19948 0.39622 -1.2259 -0.0852923 0.00440699 0.284783 -0.53203 0.288662 0.492231 -0.703012 0.44463 -0.0576903 -0.407303 -0.0506808 -0.468179 -0.444167 -0.475376 -0.840594 -0.0905896 -0.773466 -0.46865 -0.386932 -1.01321 -0.183237 0.0295469 0.451965 0.43314 -0.246685 -0.854503 0.518018 0.211797 -0.358469 -0.347719 -0.319938 0.011682 0.555446 -0.288981 0.344246 -0.57261 0.0251149 -0.577517 -1.43598 -0.0569173 -0.2004 -0.122145 -0.435281 -0.464725 -0.0044583 -0.409757 0.468995 0.427113 0.023614 -0.239154 -0.53949 -0.24364 0.934303 0.442063 0.266562 -0.331868 -0.386526 0.473223 -0.291378
2082 -0.323762 -0.611981 0.269949 0.289968 0.00874293 0.212842 0.145252 -0.512558 -0.145379 -0.0833056 0.572294 -0.753744 0.258337 -0.137652 -0.344784 -0.498519 0.336038 0.535911 -0.692009 -0.144957 0.0522911 -0.100332 1.00478 0.392285 0.347609 0.0310048 0.0888775 -0.0728677 0.079091 -0.157323 -0.188149 0.608379 0.378309 0.0184875 -0.934977 -0.175354 -0.23698 0.266866 -0.98646 -0.487471 0.944247 -0.479903 0.602203 -0.392516 0.0837036 0.0518102 -0.672875 -0.776305 0.476195 0.16011 0.609861 0.212431 -0.0625925 -0.646384 0.222653 -0.804319 -0.113934 0.437423 0.305429 0.511823 -0.412585 -0.0572993 -0.0491176 0.112226 -0.0974182 -0.077569 -0.318244 0.210682 -1.36597 -0.405878 -0.0623503 -0.644252 -0.147802 -0.529764 -0.641631 -0.332043 0.204443 -0.544624 0.180363 -0.785049 -0.633348 0.211069 0.51115 0.304518 -0.0992515 0.114689 -0.0190536 -0.44884 -0.617128 0.00347193 -0.212123 -0.403455 0.809958 -0.319692 -0.262999 0.449697 0.000257853 0.188239 -0.66629 0.478166 -0.168092 0.08642 -0.729267 0.0539149 0.558133 0.19623 -0.973955 -1.0763 -0.577179 -0.629541 0.486293 -0.532354 -0.138342 0.358355 -0.30562 -0.208406 0.752056 0.460073 -0.217591 -0.183201 0.0399458 0.147637 -0.930436 -0.293562 -0.155734 0.345478 0.0733237 -0.173626
139 0.0625028 0.255774 0.299757 -0.458492 -0.102522 -0.523026 0.407799 -0.0501296 -1.40047 -0.449331 0.266912 -0.364094 -0.295841 0.0286839 -0.104019 -0.0438048 0.487355 0.050473 0.194339 0.40799 0.0601071 0.0817526 0.781737 0.135572 -0.266929 -0.167093 0.399318 -0.651808 -0.0484008 0.00821831 -0.538181 -0.0544413 -0.0228299 -0.141027 -0.63693 0.236896 -0.222225 -0.20162 -0.317067 -0.45658 -0.180825 -0.866107 0.149995 -0.384837 0.332401 0.0493718 -0.00130237 -0.249232 -0.0296877 -0.380233 0.017967 1.56155 -0.29819 0.646996 0.155598 -0.441571 -0.0194474 0.102867 0.0601526 0.00404436 -0.222078 0.383707 -0.058202 0.680859 0.0856924 0.800722 -0.351614 0.220306 -0.687348 -0.11283 0.544395 0.198937 0.187336 -0.502033 -0.681978 0.365577 0.883407 -0.31464 -0.409156 -0.635424 -0.252552 -0.122179 0.50663 0.183684 0.533616 0.289715 -0.50028 -0.138617 -0.48342 0.136954 0.202542 -0.104378 0.733203 0.765788 -0.302907 0.341712 -0.230729 -0.936045 -0.236779 0.12736 -0.08808 0.36148 -0.323117 0.262504 0.588184 0.306159 -0.291268 -1.30937 -0.596304 -0.508054 0.628493 -0.0636477 0.241059 -0.0927897 -0.734577 0.622439 0.279966 -0.547679 0.179081 0.244719 0.390558 -0.771549 -0.336713 -0.891619 -0.452613 -0.557485 0.231248 -0.0573099
1786 0.338989 -0.840438 -0.063673 -0.581828 0.274679 -0.0880522 -0.530638 -0.426585 -0.359445 -0.367158 1.8841 -0.181605 0.431145 0.442294 0.267874 -0.615993 -0.110387 -0.276922 -0.050807 -0.623519 0.552816 0.205689 0.963828 -0.210356 0.00197092 0.449872 0.658124 -0.0123347 -0.708118 -0.33836 -0.0474386 0.498408 0.618317 -0.150269 0.498914 -0.134576 0.111496 -0.162262 -0.332552 -0.443797 0.409756 -0.342196 0.672764 -0.590207 -0.00816137 0.0360696 -0.382548 -0.442741 0.724367 0.44766 -0.138005 0.675761 -0.259139 -0.145329 0.438222 -0.798685 -0.357856 0.871218 0.948682 0.171055 -0.672435 0.834427 -0.1689 0.229739 -0.957243 0.641853 0.802585 0.334217 -0.618189 0.320577 0.689198 0.498251 -0.0758976 -0.916962 -0.648393 -0.34963 0.452528 -0.961457 -0.207398 -1.05415 -0.589219 0.284359 0.0580243 0.0482073 -0.120965 -0.123808 0.353451 -0.278403 -0.444047 0.263183 -0.272471 0.348668 0.37338 9.44628e-05 -1.09268 -0.196029 -0.0870256 -0.610932 -0.14522 0.232762 -0.119501 -0.0211317 0.297749 0.00214662 0.34149 -0.268903 -0.0315926 -0.857043 -0.561097 -0.534392 0.158441 -1.27814 0.0200038 0.465766 -0.376356 0.722506 0.485346 0.383624 0.292344 -0.45237 -0.59579 -0.692354 -0.495325 -0.222415 0.495103 -0.481926 0.939764 0.319719
1560 0.313769 -0.338223 0.202198 0.282812 0.232713 0.222976 -0.101264 -0.617472 -0.963067 -0.900343 1.03038 -0.340704 0.284299 -0.142979 0.138942 -0.256498 0.0270259 -0.415023 -0.351359 0.253707 0.92601 -0.117864 0.863629 0.378181 -0.0553413 -0.19082 0.45914 -0.772925 0.543716 0.366364 -0.426123 0.536493 0.0772976 -0.16935 -1.0747 -0.521768 0.000736086 0.461317 -1.02038 -0.642707 0.409247 -0.714679 0.0214158 0.283827 -0.0293977 -0.0157367 0.320946 0.361398 0.615235 -0.0218821 -0.333957 0.892142 -0.246915 0.095 0.216082 -0.737021 0.0256373 -0.455199 -0.145704 0.284817 0.216688 0.039127 -0.381959 0.23886 0.0565641 0.391886 -0.589231 0.0749386 -0.418383 -0.682202 -0.607357 0.6624 -0.440269 -0.631365 -0.115375 -0.521088 0.00769704 -0.936206 0.0981712 -0.546204 -0.130039 -0.124189 0.704707 0.0291255 0.229006 -0.56652 0.245032 -0.333224 -0.269787 0.197797 0.388234 0.2119 -0.232759 -0.035951 -0.43823 0.225659 -0.225385 -0.421279 0.205075 0.0138117 0.523661 0.15634 0.148627 -0.592894 0.259665 0.476069 -0.861043 -0.441811 -1.31235 -0.0674535 0.369595 0.12105 -0.693555 0.729465 0.271206 -0.0669533 0.477947 0.275103 -0.154576 -1.17232 -0.0918883 -0.315568 -0.0106335 -0.514283 -0.0558307 -0.277162 0.116734 0.118948
2145 0.14547 -0.360629 0.535795 -0.947579 0.202739 -0.519438 -0.00140211 0.0676668 0.116073 0.0643921 0.62438 -0.480198 1.19586 0.203056 0.322038 0.735577 -0.187618 -0.333758 0.208329 0.300761 0.349935 0.558483 -0.0065191 0.222977 0.0247921 0.675128 0.99673 0.00239972 0.065663 0.704961 0.4171 -0.380423 0.126853 0.0670443 -0.304175 -1.25437 0.246519 0.0134245 -0.611919 -0.0463522 -0.113841 0.344396 0.900513 -0.599555 0.030335 0.59085 -0.868659 -0.748221 0.952502 0.303295 0.896034 1.19213 -0.148207 -0.214435 1.16152 -1.33426 0.477955 -0.359236 -0.6931 0.651552 0.168608 0.419378 0.325632 1.29029 -0.0543579 0.33321 0.98245 -0.239864 -0.3613 -0.655449 -0.51084 -0.277732 -0.710104 0.0412861 -0.488173 -0.669511 0.658292 0.30825 -0.34675 0.0143142 -0.0383775 0.160512 -0.0378598 0.409411 -0.157608 -0.824329 0.0992151 -0.475022 -0.0252064 0.0254901 -0.201336 0.21148 -0.0459974 -0.563372 -1.3189 1.12329 0.0818454 -0.583282 0.187244 0.00404608 -0.705789 0.393416 0.770037 -0.339849 -0.153938 -0.251187 0.207663 -0.321427 -0.0567446 -0.682687 -0.0673174 0.242152 -0.669775 0.291313 -0.131788 0.513533 0.55136 0.953556 -0.0866995 -0.749867 -0.248993 0.192814 -0.618031 -1.51588 0.316002 -0.125498 1.09931 -0.102551
19 -0.34342 -0.0494478 0.193449 -0.581953 0.681114 0.110083 -0.185503 -0.364749 -0.355182 0.361058 0.584357 -0.0243496 1.44423 0.298835 0.818104 -0.074366 -0.380207 0.335383 -0.565745 -0.243231 -0.0885648 0.554496 -0.0666865 -0.229484 0.435264 -0.307732 0.469798 0.128348 0.789034 -0.614273 -0.287798 -0.0844172 0.876617 -0.968808 0.239762 -0.210831 0.705499 0.290771 0.119124 0.0393027 0.202177 -0.467125 -0.614644 -0.720198 -0.647452 0.212399 0.178744 -0.334864 0.0618757 -0.114364 0.340873 -0.283636 -0.571988 -0.342849 -0.227353 -0.588159 0.190828 0.878139 -0.191642 -0.50866 -0.392489 0.261246 0.800977 -0.253401 -0.727997 -0.210993 0.46735 1.9481 -0.815019 -0.794677 0.0860832 -0.0110538 -0.367167 0.347121 0.28326 0.570989 0.0579948 0.0539924 1.48777 -0.163989 0.373872 0.280222 0.0166451 0.138378 -0.545149 0.214649 0.0597842 -0.353105 0.314273 -0.505135 -0.353175 0.083017 0.227144 0.528773 -0.805839 -0.15749 0.0664728 -0.432987 -0.165702 -0.276339 0.283668 0.527718 -0.757156 0.0466828 -0.311835 0.80772 -0.677548 -0.188546 -0.744004 -0.552282 0.0674777 -0.495653 -0.685505 -0.375757 0.143625 -0.0534437 -0.76327 -0.328269 0.080661 0.252176 0.257044 -0.0320627 0.312878 -0.008977 -0.585444 0.23205 -0.200275 -0.841316
