986 128
0 0.0219417 0.231333 0.120695 -0.195804 0.147951 0.061342 0.0298766 -0.18837 0.26503 0.306793 -0.257507 0.196022 -0.182982 -0.0658669 0.191565 0.213933 0.0676784 0.15834 0.0332339 -0.109557 0.175357 0.0878439 -0.100645 0.194161 -0.0309306 0.106757 -0.261948 -0.0116047 0.293045 -0.00753921 0.219972 0.33174 0.0172457 -0.153032 -0.0132036 -0.132257 0.168219 0.10789 -0.218507 0.137984 0.0188317 0.227051 0.0870596 0.0850714 -0.25852 -0.16555 0.150216 0.245736 0.036121 -0.322956 0.137021 -0.160884 -0.15055 -0.128036 -0.23967 0.00163436 0.186895 0.150937 -0.220245 0.0577157 0.0609303 0.291456 0.0651207 -0.08274 -0.218726 0.175805 -0.0215032 -0.0179536 0.000924529 -0.0185459 -0.179434 0.138026 -0.140911 -0.234827 0.186535 -0.0397393 -0.142348 0.293422 0.195617 0.00671945 -0.0350941 0.106166 -0.00347162 0.144259 -0.0933877 0.119382 0.116034 0.202228 -0.0956321 -0.146174 -0.160787 0.122138 -0.312604 0.0142303 0.291521 -0.253666 0.411264 -0.194214 -0.0650177 -0.206925 -0.25229 -0.164575 -0.078136 -0.166868 -0.102595 0.00167742 -0.196074 -0.240673 -0.209235 0.183767 0.164518 -0.0406219 0.0789005 -0.161212 0.217577 -0.374764 0.185124 -0.264051 0.0311666 -0.447656 -0.113229 0.15974 -0.0359215 -0.02661 -0.026373 0.148798 -0.235302 -0.255039
1 0.137698 0.258079 0.147727 -0.120503 0.119438 0.159519 -0.135437 -0.30744 0.247513 0.301084 -0.27004 0.246907 -0.191037 -0.174004 0.120773 0.107981 0.0923494 0.20644 0.241778 -0.140071 -0.00503956 0.115094 -0.210403 0.138947 -0.096395 0.0388244 -0.218878 -0.0360713 -0.12332 -0.229168 0.247295 0.185062 0.0995032 -0.0940687 -0.0128067 -0.146135 0.166065 -0.0928853 -0.086484 0.0220614 0.262648 0.134748 0.192015 0.10114 -0.285692 -0.0858913 0.125916 0.0805779 0.36358 -0.1229 0.0460694 -0.132405 -0.0690914 -0.205117 -0.0512398 -0.0134324 -0.0313946 0.165277 -0.168689 0.0161358 -0.12495 0.136967 0.287004 -0.0452189 -0.212158 -0.112024 -0.00125659 0.104094 0.0397976 0.100104 -0.0436176 0.145151 -0.165049 -0.239615 -0.0534068 -0.097026 -0.115386 0.0737942 0.126296 0.0112789 -0.137546 0.126375 0.0776889 0.0448313 0.00853517 0.305952 -0.0428069 0.0396425 -0.139679 -0.0361651 -0.0859694 0.102934 -0.112016 -0.119696 0.060024 -0.276358 0.381072 -0.150689 -0.272907 -0.159666 -0.203597 -0.18871 -0.0471259 -0.172078 0.186783 0.146558 -0.136333 -0.133878 0.00780413 0.0463762 0.00127114 -0.0465948 0.086031 -0.161544 0.2819 -0.0250062 0.0305419 -0.00959637 0.134966 -0.281418 -0.134606 0.18183 0.0515103 -0.316717 -0.237583 0.138373 -0.230069 -0.166028
2 0.160984 0.0493304 0.0271077 -0.168807 0.260746 0.178265 -0.123857 -0.0241964 0.220937 -0.159495 0.258418 -0.216512 -0.253771 -0.092141 0.191608 0.211181 0.0277638 0.065689 0.0819702 -0.152275 -0.147058 0.0470591 -0.153144 0.259555 -0.130992 0.13161 0.286136 -0.0149524 0.423948 -0.21569 0.273691 0.169436 0.0687353 -0.198921 -0.0646269 -0.181277 0.192055 -0.144547 -0.104384 0.206113 0.122101 0.100254 0.117651 0.0597801 0.122765 -0.0103814 0.221411 0.385162 0.105652 -0.286224 0.0370697 -0.225245 -0.0675881 -0.0996723 -0.0934705 0.261733 0.202655 0.0534077 -0.19889 -0.0777313 -0.233324 0.140262 0.20683 0.0937969 -0.171797 -0.146728 -0.160507 0.0766798 -0.110612 -0.0151476 -0.243651 -0.162778 -0.140063 -0.017376 0.139429 -0.0902003 -0.0160844 0.167579 0.180833 -0.155373 -0.123004 0.207231 0.374205 -0.0426921 -0.162677 0.161065 0.0865061 0.112037 -0.0606706 -0.234801 -0.0123073 0.0538304 0.496786 -0.244488 0.132186 -0.223742 0.111606 0.00401416 -0.109746 0.00454512 -0.10735 -0.16053 -0.100909 -0.0771985 0.0900908 -0.0497815 -0.180737 -0.0611805 -0.0103968 0.0624475 -0.076561 -0.0901218 0.158403 -0.125813 0.0638384 0.263366 0.298689 -0.124253 0.110489 0.32393 -0.176598 0.354664 0.189234 0.424093 0.20369 0.0625841 -0.0980507 -0.213598
3 0.0977289 0.121396 0.0618497 -0.160319 0.103328 0.0535204 -0.107375 -0.192161 0.333749 -0.165119 -0.129914 0.0474812 -0.215892 -0.143062 0.15515 0.254124 -0.0779138 0.0627395 0.100746 -0.0976924 -0.217129 0.127857 -0.0324277 0.346475 -0.184392 0.117195 0.28372 -0.0494111 0.424469 -0.172213 0.182336 0.031982 0.200789 -0.166493 -0.00562088 -0.101175 0.300509 -0.146757 -0.0343468 0.189073 0.180457 0.184625 0.128012 0.22131 0.00659073 -0.104347 0.200876 0.28645 0.0437846 -0.223931 -0.0130508 -0.205327 0.0254435 -0.156736 0.220518 0.209079 0.264371 0.200083 -0.132092 -0.127453 -0.144583 0.145026 0.121221 0.0514723 -0.17223 0.031966 0.0683695 0.105179 -0.159682 0.0687024 -0.107277 -0.250793 -0.11852 -0.382011 0.143507 -0.318811 0.014149 0.22873 0.145818 -0.197935 -0.092022 0.0584875 0.174502 -0.111133 0.0636357 0.251132 0.239215 0.120072 -0.144531 -0.198246 -0.244225 -0.0965496 0.276769 -0.168501 -0.115315 -0.16096 -0.0225196 0.0458111 -0.154893 -0.071225 -0.191698 -0.102664 -0.108912 -0.115481 0.075679 -0.21684 -0.174516 -0.137517 0.00886474 0.0405023 -0.072833 -0.0475809 0.0664858 -0.104124 0.218297 0.0158362 0.202373 -0.134369 0.103898 0.304023 -0.229428 0.0281835 0.293735 0.42909 0.331567 0.0622606 -0.0944787 -0.298068
4 0.240919 0.0417266 0.089796 -0.1885 0.127306 0.180281 0.0392664 -0.150191 0.170611 0.0167025 0.111953 -0.151774 -0.223433 -0.117572 0.135449 0.2563 -0.0285343 0.0180802 0.124197 -0.240503 -0.318176 0.106708 -0.0339115 0.374665 -0.0577803 0.109899 0.317311 -0.0859034 0.227584 -0.175892 0.182201 0.0856826 0.224297 -0.254104 -0.123039 -0.117269 0.198989 -0.096325 -0.0696768 0.26673 0.175272 0.0445656 0.0434016 0.0244402 -0.209991 0.185207 0.121183 0.216561 0.135831 -0.180845 -0.0527893 -0.222689 -0.0320363 -0.179719 0.0702431 0.169153 0.212082 0.132765 -0.125934 0.0253834 -0.201714 0.114581 0.161548 0.0109338 -0.230169 -0.0517888 0.0157359 0.162238 -0.0984747 0.0243081 -0.1592 -0.095261 -0.184422 -0.13376 0.116787 0.0571873 0.0279594 0.122621 0.240464 -0.0569642 -0.118669 0.109175 0.0460974 0.0145119 0.0386468 0.0934866 0.279058 0.0800576 -0.246249 -0.175768 -0.00195808 0.00468129 0.433678 -0.227107 -0.0847436 -0.215137 0.0635874 -0.111705 -0.0387616 -0.0505155 -0.0907295 -0.244302 -0.139965 -0.146542 0.0205026 -0.271206 -0.159156 -0.211655 0.0036096 0.0754918 0.0174179 -0.236881 0.210671 -0.0964537 0.178385 0.190888 0.2177 -0.208259 0.158374 0.299918 -0.232919 0.0751615 0.0551365 0.216785 0.280339 0.0654728 -0.115481 -0.237918
5 -0.0107022 0.19021 0.0800464 -0.201836 0.329436 0.117114 0.0547326 -0.246947 0.135506 0.0408356 0.0215244 -0.0684676 -0.226457 -0.00876465 0.11133 -0.00121061 0.0226197 0.0623185 0.147847 -0.248718 0.221333 0.113214 -0.173355 0.0944005 -0.118479 0.141672 0.108413 -0.00804677 -0.0738793 -0.0844404 0.263371 0.141013 -0.0763284 -0.210073 -0.0983812 -0.209955 0.300351 -0.220921 -0.149038 0.135203 0.148822 0.0199742 0.0943262 0.149753 0.0831735 -0.021308 0.205664 0.0868045 0.0252841 -0.143621 -0.0965749 -0.19902 -0.26684 -0.116081 0.0148795 0.0409764 0.162068 0.146645 -0.0778698 0.0474494 -0.213232 0.203136 0.101193 -0.00840813 -0.265681 -0.0786979 -0.0974342 0.201012 -0.0308924 -0.0365476 -0.228478 -0.0115811 -0.189905 0.070635 -0.112324 -0.0551615 -0.00787026 0.124517 0.154264 -0.185148 -0.110508 0.0556655 0.130222 0.030313 0.00712817 -0.0821158 0.11335 0.156053 -0.126904 -0.128319 0.0836379 0.103941 0.336843 -0.125104 0.224834 -0.178488 0.0417043 -0.229639 -0.0208755 -0.172148 -0.222343 -0.234432 -0.21045 -0.0984883 0.0155597 -0.132421 -0.211997 -0.0964428 0.152258 0.130289 0.0609928 0.0996945 0.130478 -0.0858977 0.137069 -0.199894 -0.13547 -0.209549 0.205366 0.104023 -0.0451525 0.165148 0.0638089 0.0255768 0.138861 0.0662183 -0.15829 -0.0892322
6 -0.0205374 0.262449 0.0528273 -0.270853 0.110818 0.111915 0.111235 -0.242185 0.261937 0.00168809 -0.150815 0.0286736 -0.298445 -0.0741531 0.103384 0.241462 0.0481222 0.0363043 0.0314283 -0.125127 -0.0184934 0.104948 -0.0737872 0.304469 0.0605364 0.18988 0.144091 -0.0749834 0.254352 0.0276561 0.16869 0.0522009 0.11986 -0.232231 -0.213858 -0.102708 0.175789 -0.0960703 -0.130105 0.266953 0.133316 0.0250539 0.0091896 0.150668 0.0243611 -0.0487508 0.19069 0.170056 -0.0977456 -0.0972909 -0.11035 -0.220986 -0.331107 -0.207476 0.149684 0.0076983 0.11296 0.114336 -0.159977 -0.108982 -0.115868 0.189463 0.13206 0.00982998 -0.112456 0.0784917 0.0129452 0.00381204 -0.111705 -0.265826 -0.197645 0.0849158 -0.249991 -0.124076 0.137697 -0.0389412 -0.125055 0.170892 0.1239 -0.121056 -0.0131327 0.102407 0.0686927 0.00238748 0.0267263 0.132652 0.0261463 0.10655 0.000574278 -0.18928 -0.123232 0.0525127 0.488658 -0.174408 0.170291 -0.169956 0.0894116 -0.23567 -0.127247 -0.138634 0.030319 -0.139895 -0.0792785 -0.152793 0.131024 -0.171513 -0.203879 -0.231728 -0.055051 0.1049 0.126029 -0.042655 0.198944 -0.123191 0.128962 -0.0101534 0.1217 -0.0333475 0.102408 0.304796 -0.083888 0.18315 0.292901 0.0130342 0.225856 0.124121 -0.197635 -0.322997
7 0.040643 0.208223 0.263987 -0.0954297 -0.269647 0.12203 -0.230436 -0.0970811 0.0954485 0.0726418 0.565784 -0.300465 -0.160537 -0.0346774 0.0816342 0.164459 -0.377328 0.0974841 0.185052 -0.105163 -0.0280685 0.204715 -0.255174 -0.495327 -0.433683 0.126774 -0.095298 0.0923791 -0.000765281 0.0116645 0.22523 0.0742971 0.116128 -0.320921 -0.265945 -0.403737 0.181512 -0.222171 -0.298317 0.250965 0.294496 0.175496 0.271487 0.114376 0.117488 -0.170926 0.229999 -0.135724 0.0577726 -0.0581868 -0.221895 -0.198657 -0.0816692 -0.227814 0.0567999 0.0188719 -0.20843 0.121719 -0.14592 -0.048588 -0.0609382 0.198664 0.0432608 0.191881 -0.196556 -0.3765 -0.132258 0.264746 0.0121528 -0.116602 -0.187731 0.307559 -0.12899 0.000505479 -0.170078 0.134789 0.0868937 0.160822 -0.0130208 0.233098 -0.0488291 0.23119 0.0727849 0.119971 0.306877 0.093064 0.050655 0.15443 -0.159282 -0.284396 0.332417 0.225351 -0.183909 -0.014517 -0.1236 -0.0893565 -0.0640185 -0.115382 -0.0663427 -0.0400331 -0.31858 -0.158862 -0.251481 0.0276067 0.0653958 0.394104 -0.260296 -0.0603942 -0.0875239 0.0225545 0.487628 0.0664191 0.183731 -0.200895 0.240124 -0.237665 0.377803 -0.146321 0.239042 -0.371058 -0.0654534 0.184456 0.182804 0.286901 -0.0463584 -0.0268102 -0.0648344 -0.197596
8 0.0907426 0.137173 0.288648 -0.114101 -0.105356 0.0228843 -0.195686 -0.11356 0.312237 0.0726161 0.697591 -0.405101 -0.247875 0.0338782 0.0436612 0.0833399 -0.172113 0.170641 0.210076 -0.142944 0.0261522 0.178797 -0.0944147 -0.43313 -0.334484 0.261364 -0.158396 0.278122 0.333951 -0.00811993 0.119093 0.260422 0.186972 -0.161419 -0.14386 -0.201244 0.167283 -0.14399 -0.316281 0.377479 0.241432 0.162099 0.168176 0.165506 0.0652036 -0.136614 0.150992 -0.27418 -0.0875292 -0.0641449 -0.0767534 -0.174978 -0.0811889 -0.0674865 0.0641028 0.0125996 -0.105292 -0.00722648 -0.245379 -0.136093 -0.123125 0.184138 0.251423 0.11806 -0.194364 -0.186781 -0.0549168 0.35141 -0.14229 -0.153591 -0.148777 0.403099 -0.109685 0.000734505 -0.226098 0.0572181 0.16348 0.128585 -0.00144927 0.215642 -0.0518358 0.2354 0.141719 0.180921 0.259664 0.0518539 0.184501 0.0668486 -0.374557 -0.248301 0.217394 0.103939 -0.0692117 -0.0094781 -0.0263318 -0.0978762 -0.0678397 -0.0849838 -0.192841 0.0104001 -0.305585 -0.187115 -0.372603 -0.13326 0.0753325 0.290776 -0.231323 0.0062311 -0.163293 0.0729534 0.309746 -0.0256329 0.123637 -0.0782365 0.153881 -0.0899798 0.176121 -0.344606 0.203856 -0.317781 -0.257492 0.253257 0.154047 0.512005 0.0807868 -0.0128955 -0.144063 -0.171854
9 -0.0782159 0.239238 0.230164 -0.139108 -0.432068 -0.0680371 -0.266622 -0.0711188 0.208977 -0.0217324 0.525611 -0.44987 -0.168784 -0.135756 0.082238 0.246689 -0.401631 0.141292 0.150642 -0.0863767 -0.00618545 0.265747 -0.0721588 -0.375637 -0.426179 0.164051 -0.219654 0.13776 0.123448 -0.0582141 0.198658 0.183692 0.274931 -0.250413 -0.0488025 -0.271056 0.205966 -0.162152 -0.161761 0.363117 0.331149 0.101518 0.198927 0.0594882 0.133169 -0.295136 0.178044 -0.196161 0.10766 -0.12451 -0.0807167 -0.190059 -0.0411401 -0.092126 0.158534 0.147678 -0.282804 0.24189 -0.189454 -0.184835 -0.0950575 0.249817 0.342166 0.413242 -0.218674 -0.227009 -0.16204 0.312538 0.0283195 -0.0518143 -0.196248 0.367294 -0.151722 -0.137983 -0.0938007 0.0972219 -0.0767039 0.106241 -0.0999858 0.277205 -0.0381519 0.21031 -0.0805319 0.213159 0.576783 -0.18163 0.124213 0.22234 -0.306242 -0.261318 0.134948 0.437943 -0.390067 -0.198692 -0.195827 -0.152401 0.051879 -0.233992 -0.161276 -0.185591 -0.253689 -0.210054 -0.304709 -0.172545 -0.00915304 0.361724 -0.212008 -0.092224 -0.326234 -0.0230646 0.474136 0.0722176 0.0841872 -0.0872934 0.247428 0.021435 0.303328 -0.320404 0.209629 -0.447656 -0.137643 0.215317 -0.00449598 0.355767 0.130812 0.0127244 -0.134996 -0.141515
10 -0.0318575 0.119419 0.167716 -0.046258 -0.308062 0.0960676 -0.134934 -0.108213 0.178114 -0.220531 0.191046 -0.0151237 -0.154495 -0.00621663 0.0837055 0.134606 0.193433 0.206629 0.185466 -0.126662 -0.0761709 0.0526923 -0.0793701 -0.23792 0.019504 -0.00784934 -0.0324074 0.18494 0.114287 -0.206079 0.190366 0.0552376 0.403146 -0.0355431 -0.0252728 0.000190316 0.16916 -0.0922246 -0.0494882 0.233973 0.180815 0.209893 -0.00233245 0.192724 0.117752 -0.271015 0.0402749 0.0503303 0.191095 -0.100069 -0.0928325 -0.16958 0.0158984 -0.109771 0.0883167 0.16754 -0.160028 0.175963 -0.113296 0.174779 -0.0562281 0.0558862 0.231631 0.0610834 -0.107912 -0.0961374 -0.13812 0.161371 -0.144644 0.225027 -0.134404 0.105479 -0.0910645 -0.2151 -0.0464968 -0.0870692 0.0877643 0.120952 0.110964 0.0619407 -0.397691 0.129039 -0.0107947 0.236858 -0.0529727 -0.00562371 0.30984 -0.0524003 -0.194371 -0.248488 0.164943 0.303688 0.0706952 -0.0113511 0.0499427 -0.188243 0.274042 -0.0806825 -0.154514 -0.0418426 -0.0402479 -0.194683 -0.158405 0.0469303 0.0770526 -0.14049 -0.168736 -0.21312 -0.233475 0.0315279 0.0806307 -0.274434 0.103483 -0.0738047 0.135964 0.259129 -0.0956671 0.104244 0.0325304 0.0493396 -0.182325 0.174886 0.117686 0.150424 0.12097 0.0503056 -0.330103 -0.132443
11 0.0492434 0.265988 0.12233 -0.0848894 -0.32965 -0.00560628 -0.0630162 -0.0969868 0.277944 0.118048 0.400685 -0.474662 -0.214566 0.0621874 0.0565978 0.150075 -0.155857 0.104567 0.312719 -0.110411 -0.136786 0.204304 -0.154632 -0.346741 -0.294914 0.141088 -0.0825326 -0.0397937 0.00892986 -0.162943 0.166896 0.0610771 0.105637 -0.0939151 -0.0636284 -0.241262 0.0462839 -0.182599 -0.0306723 0.147617 0.314869 0.126046 0.162444 0.130327 0.0896908 -0.102952 0.0725646 -0.0268626 0.00677449 -0.148707 0.108054 -0.160338 -0.101838 -0.264427 -0.0364315 0.0255863 0.0896068 0.165001 -0.179642 0.0132504 -0.0476497 0.115537 0.029706 0.245945 -0.164429 -0.205716 -0.271442 0.299987 0.0849961 -0.0474118 -0.333725 0.167039 -0.188348 -0.0847894 -0.135307 0.135717 0.119357 0.0174106 0.0523832 0.0500963 -0.0530732 0.149072 0.170434 0.372102 0.209253 -0.0581218 0.114896 0.0599462 -0.258755 -0.29669 0.221228 0.406079 -0.201942 -0.065734 -0.0601464 0.0745618 0.238276 -0.00203009 -0.00829116 -0.00566262 -0.137473 -0.263473 -0.275236 -0.0893636 0.138516 0.296919 -0.212533 -0.148658 -0.13595 0.0305251 0.34611 0.015525 0.0830847 -0.0719267 0.184571 -0.142512 0.265625 -0.226051 0.0869341 -0.190653 -0.0274216 0.318834 0.0737744 0.214944 0.0358692 -0.056919 -0.293547 -0.180112
12 0.0828824 0.208678 0.302673 -0.127588 -0.247098 0.0018451 -0.0656491 -0.0982676 0.295053 -0.0102377 0.554004 -0.45429 -0.102566 -0.159507 0.0768981 0.159342 -0.101204 0.0656604 0.210375 -0.0418615 0.0115339 0.135112 0.0137088 -0.233838 -0.167346 0.0502705 -0.120971 0.220178 0.0980671 -0.282005 0.184112 0.162815 0.150759 -0.222372 -0.0478218 -0.270975 0.0958393 -0.140398 -0.0704557 0.225402 0.335024 -0.0130949 0.156999 0.0540589 0.0227924 -0.246501 0.0395602 0.0231635 0.0698947 -0.135525 0.0805883 -0.158733 0.02162 -0.200555 0.0672079 0.225198 -0.0314809 0.0810086 -0.0868099 -0.0137605 -0.0106173 0.139027 0.155243 0.0271157 -0.185605 -0.246911 -0.105719 0.337662 0.0465151 -0.0802686 -0.126966 0.190509 -0.0365448 -0.113176 -0.173538 0.213583 0.0456677 0.174539 0.0104387 0.106438 0.00378979 0.121492 0.17675 0.12612 0.0245999 -0.045919 0.0715669 0.105569 -0.283992 -0.159042 0.144884 0.290481 -0.0944163 -0.241649 -0.0710262 0.0370984 0.0141851 -0.247632 -0.103148 -0.0702467 -0.135894 -0.219151 -0.162324 -0.150219 0.155014 0.39671 -0.259509 -0.171163 0.0731649 0.0161619 0.266161 0.0281915 0.101297 -0.0837393 0.301441 0.17972 0.245848 -0.346277 0.19939 -0.261044 -0.130418 0.278443 0.0686782 0.214986 0.012848 -0.0671431 -0.215299 -0.151469
13 0.110574 0.13269 0.155249 -0.0594755 -0.0873805 0.19726 -0.0716354 -0.073313 0.118545 -0.17197 0.101998 -0.0609593 -0.209146 -0.169921 0.0756768 0.0864206 0.0641795 0.239424 0.139792 -0.212316 -0.138913 0.283915 0.0462635 -0.0386279 -0.146257 0.280109 -0.0684994 -0.0793787 -0.0679817 0.0412949 0.238309 0.163454 0.0839432 -0.207405 0.0351986 -0.0424407 0.167409 0.100015 -0.129798 0.161598 0.175459 0.0620108 0.199465 0.140187 0.183227 0.00622792 0.142376 0.087266 -0.0350013 -0.0805353 -0.0363836 -0.146028 -0.0926536 -0.253268 0.0348468 0.0186264 -0.00687114 0.212007 -0.182621 0.147716 -0.100074 0.13216 0.186091 0.0667856 -0.103779 -0.198693 -0.0674568 0.0771377 -0.00583787 0.3517 -0.182357 -0.0861838 -0.105228 0.0422032 0.0455125 -0.0544065 -0.0556299 0.0721014 0.100239 0.076675 -0.0207992 0.108084 0.0781774 0.0725537 0.257146 -0.0794111 0.120307 0.0716344 -0.16448 -0.0849778 -0.221597 -0.0204015 0.0609966 -0.103297 0.0701155 -0.162693 0.150507 -0.0459361 0.00640724 -0.274967 -0.209849 -0.196386 -0.159917 -0.076351 -0.0112844 -0.183852 -0.178422 -0.247067 -0.0910337 0.00436426 0.177134 -0.0667521 0.222246 -0.160489 0.160552 0.140771 -0.106106 0.0896594 0.135533 0.258547 -0.155759 0.125859 0.0446806 -0.118002 0.170888 0.131472 -0.118203 0.000767247
14 -0.0145665 0.153719 0.103684 -0.179549 -0.517541 -0.0283781 0.331389 -0.207254 0.18797 0.276794 -0.287157 0.281494 -0.264024 -0.143371 0.017979 0.0609745 -0.292232 0.14753 0.0379114 -0.268067 0.0272624 0.0988371 -0.137089 0.0222188 -0.0019957 0.125264 -0.0103921 0.137108 0.0559137 -0.0602788 0.0124707 0.194534 0.188218 -0.132598 -0.0992865 -0.096546 0.172018 -0.177889 -0.161734 0.0722131 0.175445 0.0727556 0.133317 0.0191377 -0.0189275 0.27946 0.127814 -0.181373 -0.0365771 -0.158153 -0.261177 -0.214557 -0.0300492 -0.218326 0.0639256 0.212277 0.17483 0.223985 -0.214882 -0.110104 -0.0107607 0.174333 0.26231 0.222558 -0.218885 0.171493 -0.158263 0.0194072 -0.157392 0.169451 -0.204498 -0.0481031 -0.223496 0.0399999 0.168604 0.0438592 0.0828751 0.178064 -0.0324413 0.122838 -0.121659 0.168995 -0.0396907 0.167931 0.00776081 -0.23982 0.0871026 0.153652 -0.0802244 0.0783428 -0.333636 0.0959153 -0.277136 -0.0698823 0.00511401 -0.0308853 0.0640953 -0.119179 -0.202078 -0.179813 -0.15034 -0.217145 -0.236968 -0.0941358 0.248956 0.349184 -0.119924 -0.227886 -0.166519 0.225697 0.110849 -0.0402739 0.304278 -0.112129 0.155228 -0.168688 0.351804 -0.141301 0.132857 -0.13016 -0.232871 0.180019 0.0995881 -0.167907 0.0691395 0.141847 -0.00716931 -0.125697
15 0.14174 0.0449474 0.210937 -0.143912 0.14233 0.212706 0.183127 -0.0909845 0.200816 -0.130521 0.232363 -0.156886 -0.10701 -0.161885 0.221784 0.0626437 -0.116923 0.0281644 0.253337 -0.174049 0.086493 0.311009 -0.0355443 0.190387 -0.151839 0.272813 0.0291308 0.0797275 -0.0317605 0.12234 0.23923 0.0332249 0.0800216 -0.00872746 -0.206028 -0.0763292 0.126633 0.011786 -0.108578 0.0953677 0.0796293 0.223605 0.283856 0.0911758 0.278008 -0.629284 0.291934 0.271916 -0.0166504 -0.151032 -0.0556802 -0.217046 -0.00663774 -0.1106 0.0993833 -0.102835 0.0223878 0.280033 -0.276368 0.0252233 -0.039154 0.089557 0.136341 0.0527456 0.0365506 0.0626254 0.0314548 0.0307945 -0.0969466 0.14809 -0.0688448 0.0187633 -0.25418 0.0313376 0.463796 -0.735028 0.0122575 0.0866194 0.176371 0.361599 -0.0504755 0.203112 -0.0535634 0.200987 0.468574 -0.0872518 0.180397 0.188182 -0.134812 -0.0861901 -0.14725 0.0869617 -0.0923017 0.0265279 -0.240485 -0.0595379 0.07894 0.0595841 -0.0789419 -0.238546 -0.19959 -0.160043 -0.211687 -0.149245 -0.110981 0.0768197 -0.116123 -0.197351 -0.0449125 0.0396816 -0.0740866 -0.125542 0.185557 -0.134149 0.262952 0.118046 0.25389 -0.0673737 0.0820569 0.141453 -0.137631 0.270904 0.227317 0.457092 0.228313 0.218925 0.0395308 -0.133864
16 0.0852043 0.238324 0.165631 -0.0876081 -0.00349093 0.0914403 -0.0795508 -0.0242481 0.142242 -0.131871 0.0948066 0.0497744 -0.103293 -0.205094 0.0695365 0.228444 0.0213489 0.0527341 0.105305 -0.261642 -0.106097 0.107272 -0.0651802 0.105441 0.0245043 -0.0261491 -0.308701 0.079059 -0.0837298 -0.185773 0.175078 -0.0347186 0.169471 -0.0922689 -0.171018 -0.0420882 0.154862 -0.018336 -0.0658278 0.207959 0.0957331 0.0458411 0.109871 0.0540023 -0.0887108 -0.270259 0.155441 0.170264 0.121656 -0.144349 -0.130922 -0.180512 0.0215881 -0.249648 0.242751 0.0222144 -0.195099 0.161078 -0.0754977 0.274316 -0.0761971 0.179923 0.120294 0.114035 -0.128064 0.0501522 -0.213355 0.164963 0.0338044 -0.177432 -0.107102 -0.309531 -0.227596 -0.266125 0.223527 -0.0446521 -0.0817534 0.0675008 0.204986 0.0598092 -0.332931 0.164219 0.169131 0.236624 0.0810916 -0.0943477 -0.0297525 0.220938 -0.0233052 -0.159373 -0.238323 0.0248078 0.0664915 0.0738174 -0.155571 -0.150855 0.064105 -0.15892 -0.123691 -0.211961 -0.0931956 -0.133839 -0.251608 -0.0853697 0.0776894 -0.0174994 -0.151339 -0.0639703 -0.133866 0.0182618 -0.261228 -0.022853 0.124117 -0.012884 0.15651 0.176184 0.15925 -0.0857245 0.188251 0.125002 -0.102947 0.0835923 0.0242787 0.0771779 0.0601697 -0.00900179 -0.134771 -0.17215
17 0.192352 0.0749229 0.00385356 -0.133061 0.30899 0.21549 -0.146314 -0.0426018 0.191981 0.27952 -0.114971 0.218967 -0.135876 0.00288481 0.298673 0.131401 0.00751801 0.134934 0.183715 -0.118486 -0.105891 0.176485 -0.213948 0.142804 -0.120373 0.132532 -0.254945 0.156788 0.140248 -0.100684 0.273579 0.0916299 0.0654384 -0.0528435 -0.0900612 -0.154291 0.182966 -0.0492481 -0.117063 0.22914 0.183268 0.0886117 0.0504597 0.0864447 -0.346832 -0.0955429 0.132211 0.0709074 0.448462 -0.229171 0.0994115 -0.217978 -0.021001 -0.0931605 0.0624576 -0.0281676 -0.0482829 0.110598 -0.15649 0.160397 -0.0707659 0.200442 0.0815251 -0.109031 -0.207062 -0.134815 -0.116483 0.0628479 -0.0520934 -0.0654074 -0.118834 0.0834954 -0.132163 -0.266593 0.0825723 0.0631365 0.0340927 0.197832 0.167629 0.234423 -0.074921 0.122934 -0.0133765 0.0330028 -0.0847515 0.159684 -0.040819 0.139689 -0.124549 -0.140937 0.0924035 -0.0297775 -0.420429 0.0883196 0.230986 -0.285161 -0.00432116 -0.00847573 -0.218458 -0.253854 -0.241399 -0.161563 -0.186648 -0.227712 -0.0335709 0.0334389 -0.205176 0.0609747 -0.176643 0.121531 -0.100632 -0.222716 0.148163 -0.146774 0.167186 0.0178412 0.0383683 -0.0303651 0.0832942 -0.276455 -0.238271 0.216507 0.0864458 -0.0679308 -0.00103107 0.0499794 -0.131046 -0.159895
18 0.0635247 0.118866 0.0787051 -0.207549 0.188405 0.187261 0.143291 -0.0318427 0.112181 0.236993 -0.0200106 0.238691 -0.165322 -0.0628732 0.255342 0.074127 -0.0775027 0.212528 0.204669 -0.110753 -0.123622 0.054311 0.00531733 0.242637 -0.0790126 0.124844 -0.317352 0.0789649 0.16862 -0.240729 0.259473 0.151126 0.142019 -0.0954134 0.027421 -0.194814 0.224255 -0.130945 -0.181046 0.189229 0.146118 0.230937 -0.0301388 -0.0663173 -0.249073 -0.223943 0.141208 0.0879326 0.17648 -0.220429 -0.196775 -0.241465 -0.0669096 -0.0921884 -0.097791 0.0592525 0.052118 0.102251 -0.161156 0.27446 0.0432434 0.158118 0.112578 0.0437049 -0.245086 0.0542735 -0.059064 -0.0414783 0.00687667 0.0527002 -0.251215 -0.154441 -0.1814 -0.232641 -0.0318392 -0.122263 -0.0606681 0.231626 0.119061 0.0719438 -0.263381 0.133478 0.0149349 0.124499 0.0279663 0.210048 0.242047 0.155631 -0.105048 -0.0513231 -0.108438 0.0887503 -0.456809 0.17076 0.399879 -0.103538 0.0148452 -0.0652791 -0.221076 -0.142899 -0.139864 -0.129488 -0.21541 -0.263869 0.0529641 0.149804 -0.044541 -0.0319032 -0.0278637 0.0779653 0.193314 0.0479333 0.0869474 -0.13872 0.23115 -0.143053 0.176274 0.0243596 0.00147897 -0.377179 -0.322007 0.1841 0.000404383 -0.162846 -0.000690587 0.177683 -0.189206 -0.0973062
19 0.0687033 0.171485 0.254158 -0.0509584 -0.25718 0.0278856 -0.193261 -0.00457144 0.140136 0.038198 0.471044 -0.360614 -0.219557 -0.142009 0.0543624 0.0584277 -0.191928 0.110703 0.286008 -0.0910193 0.0334848 0.244616 -0.0429159 -0.354003 -0.126712 0.148648 -0.131724 0.128698 -0.0103073 -0.273694 0.224629 0.209698 0.0463867 -0.118808 -0.0322845 -0.229641 0.0424848 -0.0934236 -0.218321 0.22949 0.270724 0.113711 0.108034 0.164585 0.00278878 -0.300242 0.225237 0.0177719 0.252434 -0.14677 -0.0134349 -0.136399 -0.136496 -0.0136246 0.0667926 -0.0143302 -0.0664454 -0.00144342 -0.222918 0.00509424 0.0049272 0.146155 0.114868 0.204187 -0.118655 -0.273504 -0.246631 0.0638538 0.0996168 -0.0485905 -0.275276 0.259445 -0.143743 -0.0621064 -0.113418 0.199714 0.0712318 0.180859 0.134664 0.19005 -0.133915 0.164727 0.147166 0.15292 0.0481736 -0.023789 -0.0155297 0.0689595 -0.133109 -0.159639 0.170028 0.12963 -0.176962 -0.035292 -0.0725708 -0.132534 -0.121631 -0.101075 -0.0621628 -0.0859717 -0.26026 -0.264481 -0.251823 -0.180714 0.0140104 0.269077 -0.264106 -0.207955 -0.0952964 0.0294686 0.369479 -0.0637631 0.103782 -0.167303 0.145302 -0.040224 0.0709352 -0.0804238 0.0998944 -0.49511 -0.183356 0.274275 0.0821899 0.0575193 0.0761415 0.0386336 -0.105485 -0.126107
20 -0.0283114 0.0728556 0.110175 -0.0699543 -0.0733776 0.245457 -0.324316 -0.0276149 0.158981 -0.229525 -0.0250205 0.0925132 -0.154058 -0.143888 0.258565 0.285791 0.114888 0.216333 0.203982 -0.162335 -0.154024 0.140448 -0.101583 -0.161052 -0.183574 0.0261998 0.139245 -0.000730515 0.0149766 -0.543572 0.250995 -0.0610384 0.0448706 -0.113063 -0.0449629 -0.176142 0.17924 -0.125789 -0.131955 0.20687 0.180596 0.199141 -0.0294681 0.189042 -0.186105 -0.306028 0.00156763 0.147095 0.0565023 -0.00628556 -0.0136675 -0.202241 -0.0624965 -0.12322 0.11321 0.10226 -0.29136 0.139067 -0.135179 0.0518859 0.0890264 0.189163 0.0666857 0.0166272 -0.167187 0.116874 -0.148578 0.171493 -0.0312444 0.28662 -0.090409 0.0479335 -0.129044 -0.240124 0.0932916 -0.166496 0.0691276 0.028181 0.242479 0.0117196 -0.263073 0.0350106 0.0230233 0.076516 -0.13781 -0.0612289 0.09441 -0.0853246 0.0257646 -0.204348 0.154804 0.274272 -0.06312 0.00228516 0.0297469 -0.300057 0.345852 -0.15902 -0.101118 -0.0504761 -0.119743 -0.293969 -0.146691 -0.11461 0.19752 -0.0666758 -0.105505 -0.136313 -0.187734 0.157647 -0.181713 -0.267637 0.00223149 -0.150206 0.143126 -0.073636 -0.0166079 -0.0711153 0.0711505 -0.142999 -0.116753 0.114297 0.0655131 -0.0715645 -0.13919 0.086252 -0.163276 -0.0913247
21 0.106165 0.22096 0.114028 -0.122321 0.0307234 0.180676 -0.201089 -0.100634 0.114482 -0.142496 -0.0251342 0.244012 -0.209456 -0.0774372 0.108995 0.231862 0.139372 0.0576552 0.125158 -0.10157 -0.0571067 0.0621999 -0.153674 -0.0424425 0.00885536 0.0679907 0.0274687 -0.0952178 0.0496827 -0.15264 0.0740407 -0.0579394 -0.0163969 -0.121029 -0.135573 -0.140721 0.22932 -0.0224857 -0.129047 0.141576 0.1728 0.255044 -0.00236724 0.130358 0.0266781 -0.21675 0.0627748 0.120812 0.181339 -0.159384 -0.155269 -0.197356 -0.0826037 -0.0890331 0.125568 0.208356 -0.161534 0.144133 -0.16186 0.246973 -0.155635 0.171598 0.0156494 0.0799183 -0.143003 -0.0369055 -0.103419 0.123832 -0.0298123 0.0942407 -0.27564 0.02056 -0.124153 -0.236083 0.114727 -0.0742078 0.148093 0.0405756 0.240083 -0.150017 -0.188006 0.0814658 0.0686226 0.164781 0.0547259 -0.0722902 0.0979359 0.0309422 0.0392973 -0.233816 0.0194419 0.232464 -0.243598 0.0698088 0.124496 -0.169022 0.254174 -0.211668 -0.0946891 -0.0887097 -0.0454121 -0.177703 -0.125817 -0.0803054 0.206267 -0.278918 -0.103651 -0.170907 -0.0268478 0.162948 -0.108508 -0.201714 0.0826356 -0.199056 0.187113 0.1195 -0.131253 -0.0425137 0.0975032 -0.0565089 -0.0177014 0.135882 0.101643 -0.12469 0.0110759 -0.0329638 -0.280062 -0.246704
22 0.0478009 0.274844 0.154227 -0.305754 -0.10781 0.31993 -0.48065 -0.0467822 0.186352 -0.00729868 0.32203 -0.0969556 -0.249354 -0.138286 0.114955 0.232199 -0.0685643 0.181073 0.267513 -0.228 -0.0947539 0.0415885 -0.166309 -0.0432174 -0.141819 -0.104264 0.145305 0.0893926 0.313255 -0.500308 0.132236 0.056745 0.0351045 -0.156279 -0.146587 -0.0989483 0.219108 0.0113021 -0.167354 0.20873 0.237216 0.207217 -0.061489 0.0891999 0.018621 -0.171358 -0.105388 0.135019 0.167628 -0.00245553 -0.0461533 -0.171048 -0.232958 -0.145767 0.0890095 0.288533 -0.11912 0.0205368 -0.0890673 0.0163173 -0.175403 0.225285 -0.0271688 0.154053 -0.0852793 -0.164174 -0.227704 0.216018 0.0460416 0.0124159 -0.170852 -0.0333006 -0.0301492 -0.168952 0.0599679 -0.0175153 0.208626 0.0298088 0.10396 -0.177249 -0.00738212 0.0718027 0.0962295 0.20544 0.0736999 -0.0990065 0.106712 0.112997 -0.157794 -0.171786 0.16025 0.229053 0.0501575 -0.0218044 0.0125724 -0.0885883 0.286017 -0.00989734 -0.0719352 0.022188 0.00969447 -0.210264 -0.11611 -0.121134 0.0416547 -0.263455 -0.0415412 -0.219677 -0.0102494 0.23219 0.014366 -0.151475 0.0902503 -0.0965434 0.0863166 -0.0894809 -0.130049 -0.0396121 -0.0245111 -0.0870529 -0.097341 0.0894444 0.0837184 -0.0759644 0.189655 0.0693353 -0.227287 -0.208994
23 0.103438 0.0122826 0.146436 -0.114587 -0.314425 0.252059 -0.235251 -0.156319 0.0625102 0.211312 0.117325 0.0776781 -0.232516 -0.164362 0.267439 0.130422 -0.112367 0.151084 0.174212 -0.212087 -0.248899 0.126549 -0.0963769 0.20603 0.0654885 0.135978 -0.103466 0.00920044 0.0820822 -0.0619212 0.139393 0.0902746 0.147069 -0.190414 -0.151673 -0.181824 -0.0236743 -0.0228463 -0.223681 0.12354 0.197197 0.0323418 0.0309277 0.113258 0.0729116 0.0935092 0.0651956 0.333092 0.086073 -0.133057 -0.204387 -0.104272 -0.170941 -0.107326 0.156949 0.223732 -0.22315 0.182141 -0.243263 0.0299609 -0.263627 0.0634734 0.180455 -0.0186278 -0.110612 -0.399189 0.00224506 0.0444493 -0.0461876 0.0408722 -0.244242 -0.38835 -0.268284 0.16761 0.185779 0.0806794 0.432211 0.0953538 0.233794 -0.080452 0.0331489 0.137808 0.0890873 0.117507 -0.193044 -0.14962 -0.0644479 0.139971 -0.0648898 -0.172825 -0.15444 -0.0146183 -0.0840008 -0.0884905 0.200974 -0.16803 -0.094679 -0.0327126 -0.224695 -0.110885 -0.188922 -0.173431 -0.215183 -0.150051 0.0262704 -0.335679 -0.21755 -0.0734122 0.0221279 0.0815848 0.138083 -0.0206593 0.206428 -0.0942846 0.113484 -0.109937 -0.16116 0.0731868 0.027106 -0.0821412 -0.0479694 0.00801327 0.169756 -0.00353438 0.218469 0.116192 -0.112676 -0.0659356
24 0.287473 0.0233638 0.0690955 -0.154101 -0.538799 0.239671 0.147237 -0.0435283 0.0983303 0.289789 0.0636829 0.221864 -0.185737 -0.289039 0.114664 0.119464 -0.312412 0.124858 0.297853 -0.080542 -0.393704 0.325783 0.0220772 0.0774228 0.159177 0.151883 -0.426348 0.101161 0.113872 -0.0625292 0.222941 0.0620281 0.309941 -0.296101 -0.27066 -0.0642126 0.0340268 -0.00221986 0.00585576 0.0946644 0.1248 0.213948 0.183164 0.0727145 0.275308 -0.04943 0.0987819 0.287165 -0.216626 -0.124434 -0.122806 -0.167246 -0.171819 -0.148742 0.20588 0.0222803 -0.037565 0.268006 -0.0756444 0.131775 -0.162481 0.0462771 0.174314 -0.0554985 -0.02216 -0.41519 0.0209683 0.0536872 -0.13907 0.37465 -0.118329 -0.541161 -0.276083 0.043028 0.244719 0.0438376 0.276044 0.200107 0.126396 -0.168 -0.115959 0.148928 -0.121312 0.126299 -0.231187 -0.171661 0.325269 -0.00453562 -0.0841608 -0.137464 -0.24566 0.0607666 0.0909095 -0.203607 0.166304 -0.17485 0.0289204 -0.114527 -0.232843 -0.130172 -0.227662 -0.281807 -0.125835 -0.0747548 -0.00505796 -0.36665 -0.192041 -0.068594 -0.117586 0.0697784 -0.00918011 -0.0833854 0.162336 -0.249078 -0.0576436 -0.0855527 -0.167253 -0.0144209 0.0467474 0.0570148 -0.189446 0.200592 0.175401 -0.102177 0.289843 0.219814 -0.100307 -0.0656779
25 0.35931 -0.0295598 0.0234012 -0.232693 -0.424524 0.174136 0.0242479 -0.183199 0.1047 0.287527 0.0332077 0.0309576 -0.106453 -0.286719 0.211797 0.146012 -0.268414 0.235328 0.182652 -0.031397 -0.325061 0.237508 -0.0343236 0.244607 0.0342051 0.130197 -0.393433 0.201703 -0.0933784 -0.0835391 0.0985396 0.0417141 0.220997 -0.271602 -0.175195 0.020329 0.147959 -0.0771279 -0.0537478 0.186215 0.0684378 0.144109 0.226275 0.00294568 0.19099 -0.297235 0.0684916 0.289919 0.0271608 -0.0956706 -0.0836487 -0.190822 -0.205484 -0.139972 0.172942 0.0433061 -0.171419 0.25145 -0.0677254 0.254076 -0.173058 0.122401 0.24899 0.00533065 -0.00297134 -0.394746 0.0850121 0.084275 0.00683534 0.325882 -0.125407 -0.421416 -0.172388 0.0830588 0.367018 0.0444394 0.156351 0.1376 0.108736 -0.0980585 -0.105005 0.218421 0.0339959 0.163265 -0.223269 -0.0965934 0.0279274 0.0485225 0.00336611 -0.184493 -0.397451 0.189317 0.0304713 -0.234556 0.37569 -0.0104655 -0.0944132 -0.142654 -0.0887427 -0.126669 -0.22656 -0.181365 -0.16334 -0.0349293 -0.0607855 -0.201533 -0.204336 -0.232384 -0.0559358 0.249339 -0.0392701 -0.0101283 0.114123 -0.171938 -0.0117012 -0.115983 -0.117642 0.00133383 0.100754 -0.314212 -0.204419 0.26368 0.190117 -0.244915 0.00481426 0.243151 -0.129641 0.0772242
26 0.278273 -0.00721914 0.130286 -0.0484262 -0.457062 0.211504 0.107512 -0.0412162 0.0647336 0.332603 0.283961 0.156953 -0.19265 -0.355531 0.060264 0.0761299 -0.259676 0.301459 0.205265 -0.0544413 -0.27989 0.170062 0.0550454 0.0227408 0.139986 0.230846 -0.450742 0.279598 -0.0518069 -0.000196174 0.103609 0.339579 0.144937 -0.327787 -0.0883824 -0.0877255 0.131025 0.160975 -0.0923642 0.239334 0.23275 0.131003 0.128132 0.190087 0.266005 -0.0638485 0.0792636 0.149676 -0.146591 -0.125168 -0.370016 -0.21153 -0.249219 -0.16652 0.17298 -0.024044 -0.187361 0.183176 -0.144679 0.192757 -0.164479 0.133573 0.268836 0.263579 0.00133492 -0.426574 0.0274117 -0.0373391 -0.214689 0.369406 -0.292931 -0.409635 -0.12695 0.100115 0.251749 -0.00127649 0.220818 0.136745 0.0870358 -0.143754 -0.0519119 0.08139 0.158418 0.222022 -0.206924 -0.349961 0.165403 0.205249 -0.0761557 -0.100637 -0.245971 -0.0588494 0.130017 -0.204954 0.248549 0.0399934 -0.233422 -0.114127 -0.12982 -0.142776 -0.272026 -0.21508 -0.126234 -0.137099 0.0241387 -0.270675 -0.159794 -0.234012 -0.0556074 0.0702605 0.435506 0.0859395 0.202906 -0.0922648 0.033372 -0.0217793 -0.13058 0.0265475 0.241909 -0.0293498 -0.155548 0.159745 0.181921 -0.0981573 0.106453 0.124934 -0.0686935 0.0913009
27 0.236269 -0.01118 0.12423 -0.113429 -0.527172 0.11274 -0.0847714 -0.0929521 0.0237258 0.102953 0.0244951 0.0974309 -0.240493 -0.344076 0.264796 0.0511362 -0.136768 0.269036 0.378748 -0.188293 -0.26476 0.175015 0.0884833 0.365283 0.099436 0.21501 -0.0427649 0.090656 -0.0461417 -0.00708304 0.168365 -0.0360257 0.0875082 -0.302715 -0.108956 -0.154823 0.184573 -0.0785898 -0.157178 0.164479 0.179396 -0.0373589 0.0633998 0.16605 0.234553 -0.132433 0.0279068 0.185928 -0.198565 -0.20023 -0.225127 -0.299292 -0.209017 -0.190717 0.182193 0.0829859 -0.295679 0.219613 -0.257198 0.245952 -0.296937 0.0249695 0.0652036 -0.0243113 -0.211122 -0.599645 0.01066 0.0404871 0.0364878 0.331208 -0.142061 -0.501952 -0.209064 0.18953 0.34298 -0.100897 0.344847 0.246636 0.0787435 -0.0667655 -0.0411362 0.182877 0.0951482 0.147255 -0.00180759 -0.161481 0.116325 0.106998 -0.0315007 -0.131056 -0.383305 -0.0694861 0.0861063 -0.0118383 0.256353 -0.0425279 0.100519 -0.0953212 -0.0829344 -0.171218 -0.209367 -0.308351 -0.276401 -0.0223153 0.0252718 -0.357875 -0.150145 -0.166373 0.0294093 0.0554898 0.119422 -0.00209691 0.17021 -0.138573 0.0638752 0.248972 -0.270522 0.0225719 -0.0605006 0.0819871 -0.0608645 0.0736776 0.202335 -0.111831 0.140415 0.128369 -0.0162999 -0.0530637
28 0.212419 -0.000880201 0.101551 -0.0818464 -0.550927 0.161576 0.0403376 -0.0404681 0.0982234 0.116018 0.136093 0.0786499 -0.159838 -0.235107 -0.015552 0.140531 -0.0767373 0.203093 0.212022 -0.112252 -0.33784 0.252066 0.00529877 0.222907 0.111298 0.0992411 -0.159983 -0.0549255 -0.0258723 -0.0556945 0.145427 0.0295055 0.0153216 -0.156646 -0.118151 -0.121261 0.182534 0.0056344 -0.103064 0.168332 0.276268 0.188482 0.107918 0.02238 0.07134 -0.212496 0.144774 0.306107 -0.108382 -0.167958 -0.193433 -0.156903 -0.0129128 -0.0384072 0.186572 0.150794 -0.0735152 0.20095 -0.234817 0.268992 -0.129013 0.156353 -0.000888634 0.0704333 -0.0744788 -0.267475 0.0216521 0.0513491 -0.154395 0.0560024 -0.225299 -0.179381 -0.283167 0.124835 0.248697 -0.139538 0.19706 0.116192 0.124328 -0.182292 -0.191169 0.123114 -0.0233553 0.217668 0.00449393 -0.134781 0.154592 0.105449 -0.0598069 -0.25248 -0.170951 0.142446 0.0412783 -0.154906 -0.0573339 -0.0537144 0.0911615 -0.122375 -0.0115531 -0.0359281 -0.144942 -0.197675 -0.240444 -0.173073 0.170659 -0.399372 -0.0691208 -0.196088 -0.0570966 0.038582 -0.104848 -0.00750792 0.112404 -0.259794 0.115549 0.178418 -0.0601713 -0.0342008 0.0827962 0.103393 -0.169666 0.13103 0.165992 -0.10228 -0.0204245 0.0631909 -0.093388 -0.0678649
29 0.175675 0.143199 0.137695 -0.169886 -0.45632 0.224649 0.0668867 -0.0630565 -0.0437261 0.185877 0.196236 0.409087 -0.149618 -0.319618 0.159989 0.122202 -0.231158 0.188979 0.115553 -0.211417 -0.20724 0.0947584 0.0135226 -0.219867 0.0170228 0.0773677 -0.402579 0.167411 0.0475755 -0.0891842 0.155189 0.11612 0.180685 -0.131749 -0.0756824 -0.0262038 0.0719242 0.1683 -0.158311 0.24733 0.133036 0.109737 0.0944629 0.109436 0.271802 -0.462726 0.115934 0.309527 -0.0145724 -0.0322185 -0.217084 -0.132201 -0.133458 -0.217783 0.114835 -0.00141679 -0.275174 0.245805 -0.197823 0.192367 -0.0949655 0.190276 0.305086 0.182141 -0.0061369 -0.394641 -0.151516 0.0469755 -0.166459 0.158856 -0.136116 -0.174871 -0.141516 0.106823 0.473777 0.0822537 0.0431649 0.174714 0.156855 -0.152404 -0.0387004 0.110016 0.153936 0.120801 -0.122337 -0.324464 -0.00962445 0.0795398 -0.0193107 -0.23142 -0.109899 0.0496567 -0.01261 -0.230887 0.0696313 -0.108785 -0.0885945 -0.162289 -0.140738 -0.274676 -0.136368 -0.199423 -0.107848 -0.17901 0.0654659 -0.251864 -0.089579 -0.0194481 -0.00547157 0.17672 0.169333 0.0968383 0.257144 -0.123321 0.0938867 0.00481795 -0.209216 0.0716632 0.178501 -0.0358685 -0.134246 0.146703 0.0895791 -0.128431 0.104262 0.130526 -0.0872608 -0.0756617
30 0.213075 -0.0715048 0.034784 -0.148495 -0.380225 0.193238 0.0209443 -0.168192 0.00801112 0.201827 0.230737 0.0419929 -0.0162647 -0.249376 0.177399 0.148049 -0.223597 0.162559 0.226533 -0.172967 -0.172484 0.227954 0.0122831 0.297496 0.0319803 0.0168893 -0.45675 0.12488 -0.133546 -0.150104 0.203642 0.0607432 0.197275 -0.271654 -0.15133 -0.118305 0.0652389 -0.0812429 -0.0795266 0.151443 0.0868345 0.149491 0.180947 0.0642597 0.259231 -0.0331033 0.0570104 0.203866 -0.0618214 -0.141683 -0.051646 -0.223009 -0.202168 -0.190382 0.109536 0.0323835 -0.224235 0.164028 -0.184725 0.356408 -0.130718 0.120029 0.271056 0.134569 -0.00736458 -0.393153 -0.00195821 0.0858501 -0.0327883 0.147742 -0.113267 -0.497964 -0.262395 0.108563 0.121624 -0.211195 0.252833 0.0994164 0.104965 -0.0766665 -0.222618 0.125267 0.146332 0.159721 -0.198443 -0.118489 0.057621 0.108908 -0.0340372 -0.132838 -0.416134 -0.0500717 0.0660145 0.00355456 0.0114605 -0.0757282 -0.0676173 0.0274603 -0.229637 -0.130437 -0.17355 -0.330381 -0.216968 -0.271307 0.104201 -0.23075 -0.187321 -0.144918 -0.169379 0.139707 -0.037506 0.12411 0.135085 -0.0784978 0.0363517 -0.100104 -0.133319 0.0398138 0.184276 -0.203143 -0.139492 0.143603 0.153297 -0.151935 0.0394925 0.223723 -0.0909972 -0.0827821
31 -0.0174579 -0.0231076 0.0252664 -0.0830621 -0.15347 0.084291 -0.151044 -0.113604 0.023969 0.172409 0.209483 0.26833 -0.212258 -0.258576 0.360212 0.153965 -0.201153 0.0959369 0.318604 -0.155071 -0.215478 0.178972 -0.00828881 0.0615951 0.11762 0.00626383 -0.121197 0.000332593 0.0325919 -0.205505 0.22485 0.145662 0.209386 -0.227493 -0.0375854 -0.135881 0.0442093 0.00602165 -0.0641629 0.182023 0.122101 0.0914484 0.169476 0.0182255 0.148841 -0.0659938 0.10879 0.277031 -0.0539132 -0.177926 -0.25286 -0.130493 -0.193289 -0.151149 0.303371 -0.0130843 -0.33211 0.235522 -0.271435 0.190336 -0.240766 0.0858731 0.174981 0.144814 -0.14239 -0.28715 -0.180149 0.0739878 -0.0660034 0.21634 -0.296984 -0.42763 -0.233 0.0775454 0.266867 0.0413144 0.155857 0.134494 0.0712545 -0.216713 -0.0338725 0.157279 0.124187 0.106414 -0.20295 -0.257047 -0.00392447 0.202089 -0.107764 -0.231037 -0.0813494 -0.0894388 0.134817 -0.0373189 0.258898 -0.125167 0.00475157 -0.156468 -0.122929 -0.110165 -0.111935 -0.211445 -0.140236 -0.0835655 -0.038066 -0.377932 -0.0416719 -0.125821 -0.0739343 0.0941906 -0.170626 0.0275399 0.201656 -0.15092 0.0802631 0.0881986 -0.0995412 0.0536936 0.0958644 0.0186002 -0.113082 0.200077 0.126978 -0.112514 0.157236 0.088275 -0.0918319 -0.164933
32 0.291742 0.102131 0.00232136 -0.126975 -0.381659 0.23701 -0.0108873 -0.00935762 -0.0265434 0.0708277 0.248385 0.561781 -0.136855 -0.299906 0.112222 0.137813 -0.0366544 0.290728 0.228338 -0.144942 -0.195227 0.121993 -0.0381359 0.160522 0.154224 0.0349162 -0.255932 0.0740745 -0.00457843 -0.0939989 0.141982 -0.00101877 0.133327 -0.192838 -0.147854 -0.0715329 0.0583779 0.0398455 -0.110789 0.238087 0.113437 0.171827 0.269691 0.162236 0.214045 -0.12761 0.0801822 0.263206 -0.0888828 -0.1596 -0.187926 -0.218157 -0.23605 -0.115904 0.126655 0.115444 -0.496659 0.238508 -0.149468 0.358386 -0.047805 0.0404596 0.160512 0.156603 -0.0567648 -0.462855 -0.044733 9.47201e-05 -0.213412 0.321553 -0.212209 -0.36494 -0.221514 0.133013 0.333739 -0.276616 0.107541 0.123872 0.147454 -0.0499112 -0.113622 0.231902 0.236933 0.149032 -0.241616 -0.341814 0.0988017 0.0954756 -0.00164075 -0.15516 -0.462984 -0.104673 0.129784 -0.191676 0.27938 -0.022009 -0.0685741 -0.0605442 -0.148588 -0.173799 -0.206357 -0.228366 -0.218833 -0.151289 0.00719272 -0.448449 -0.121944 -0.250692 -0.174989 0.0569949 -0.0234954 -0.00698137 0.114282 -0.156721 0.00254622 0.282603 -0.206332 0.0459125 0.174863 0.203044 -0.219805 0.0036005 0.136132 -0.141402 0.105452 0.240386 -0.131117 -0.125551
33 0.186066 0.122842 0.13479 -0.0693906 -0.465741 -0.00892211 -0.0534009 -0.0941651 0.0806928 0.299728 0.147898 0.0570226 -0.174617 -0.389459 0.332263 0.0857864 -0.32344 0.0288269 0.210909 -0.15902 -0.426476 0.243478 -0.0109847 0.0241791 0.121944 0.13899 -0.585659 0.241966 -0.0525914 0.0986919 0.22038 0.109738 0.30096 -0.116634 -0.143859 -0.0486253 0.152123 0.0475283 -0.0460322 0.115336 0.143235 0.00358704 0.155031 0.0488531 0.178413 -0.2387 0.0782269 0.355097 0.0719054 -0.151824 -0.335307 -0.0952349 -0.0710998 -0.099321 0.149052 0.0158326 -0.227309 0.238288 -0.170104 0.254393 -0.256998 0.114241 0.217264 0.215141 0.00413698 -0.263898 0.0718684 0.113578 -0.150998 0.142529 -0.282408 -0.489339 -0.276157 0.190032 0.333456 -0.0783372 0.311699 0.104296 0.0443548 -0.132737 -0.0713361 0.171839 0.33009 0.126015 -0.0738075 -0.309199 0.0325544 0.157443 0.0354306 -0.179362 -0.428055 -0.06042 0.0446547 -0.113878 0.316284 0.0153626 -0.0517772 -0.0716345 -0.141811 -0.1436 -0.2247 -0.271 -0.247526 -0.0764484 0.0836817 -0.402349 -0.103239 -0.150812 -0.0162332 0.114436 -0.0425477 -0.173902 0.289217 -0.193792 0.0692516 0.27578 -0.220714 0.010963 0.100431 0.0343651 -0.0982785 0.0860026 0.0609299 -0.140902 0.116723 0.0397374 -0.130625 -0.10195
34 0.314564 -0.0654409 0.0103855 -0.0535054 -0.340994 0.153684 0.207344 -0.0550246 0.0703001 0.034549 0.146335 0.229755 -0.175401 -0.351096 0.171344 0.146252 -0.118399 0.217165 0.296229 -0.110948 -0.373434 0.185138 0.00732961 0.248414 0.155826 0.248698 -0.444938 0.0974056 0.0182448 -0.144847 0.235324 0.0648066 0.250973 -0.276697 -0.140219 -0.0306704 0.0664047 0.0427105 -0.0291164 0.16099 0.154845 0.0527791 0.187315 0.137447 0.178976 -0.200149 0.140453 0.169536 -0.0398906 -0.15301 -0.229002 -0.313287 -0.24006 -0.119127 0.126657 -0.0551889 -0.345344 0.200951 -0.227744 0.272355 -0.0858067 0.138932 0.207947 -0.0481139 0.0328713 -0.558943 -0.00723571 0.0175838 -0.18744 0.307954 -0.193327 -0.457982 -0.240455 0.0598758 0.366618 0.011184 0.24857 0.170079 0.226364 -0.0846483 -0.0888427 0.276803 0.0772235 0.15825 -0.295626 -0.309798 0.106343 0.112033 -0.0378764 -0.210577 -0.407883 -0.130235 0.235244 -0.0262875 0.407565 -0.0614138 0.00447597 -0.0826438 -0.18379 -0.165194 -0.151406 -0.173953 -0.135061 -0.220112 -0.0210323 -0.394963 -0.193714 -0.256604 -0.0848888 0.186342 -0.058259 0.0686041 0.317353 -0.173583 0.0826394 0.222749 -0.226958 0.0471944 0.164116 0.188752 -0.261065 0.148547 0.302574 -0.339765 0.0251167 0.136319 -0.0114785 0.0898253
35 0.18257 0.11774 0.0905024 -0.121222 -0.466991 0.0701361 0.128367 -0.0352437 0.16039 0.184549 0.204687 0.0272354 -0.172679 -0.203892 0.127156 0.150603 -0.152541 0.0890191 0.193764 -0.3101 -0.19717 0.174752 -0.0245476 -0.0325909 0.166491 0.137973 -0.184082 0.0550142 -0.10685 -0.166595 0.119189 0.00592025 0.179446 -0.187399 -0.00713345 -0.111211 0.25445 0.0953023 -0.0948413 0.161579 0.145498 0.129877 0.168551 0.0630613 0.100491 -0.110785 0.0218574 0.143994 0.0533414 -0.0239433 -0.210412 -0.253293 -0.0514727 -0.145276 0.143984 -0.0664853 -0.223975 0.212962 -0.219346 0.307786 -0.119879 0.143876 0.196896 0.0503602 -0.119672 -0.215199 0.0152693 0.0244219 -0.186708 0.116591 -0.174724 -0.39007 -0.209228 0.0191851 0.0708695 -0.0230693 0.253905 0.199226 0.136462 -0.217902 -0.149888 0.0959413 0.12477 0.237777 -0.218944 -0.21005 0.242205 0.0729604 -0.136701 -0.124583 -0.133164 -0.00718787 0.0672378 -0.0735801 0.09304 -0.0428274 -0.00127104 -0.0242684 -0.127147 -0.033382 -0.0831278 -0.238953 -0.261555 -0.207318 0.0971847 -0.147776 -0.205488 -0.239752 -0.0993771 0.186374 0.0186997 0.0776485 0.179383 -0.0970655 0.15353 0.036649 -0.0787304 -0.065824 0.0825989 -0.137222 -0.184084 0.0982958 0.113483 -0.0198187 0.108323 0.0518133 -0.0273373 -0.128921
36 0.204946 -0.0386884 0.125554 -0.117863 -0.283572 0.0847055 -0.107817 -0.082236 0.0652575 0.164447 0.0126478 0.302933 -0.0915841 -0.226903 0.0922332 0.0935863 -0.187298 0.200699 0.360776 -0.177676 -0.0427975 0.261936 0.11054 0.210806 -0.00843299 0.125471 -0.180737 -0.00272546 -0.183978 -0.00285422 0.107739 0.125204 0.143276 -0.121168 -0.076332 -0.0267453 0.0804813 -0.0613024 -0.116694 0.20159 0.0262071 0.104294 0.149641 0.0623365 0.262684 -0.113356 0.15497 0.239387 -0.05425 -0.153382 -0.178872 -0.198182 -0.0625354 -0.0747653 0.0248623 0.180289 -0.341059 0.181546 -0.196755 0.409614 -0.183506 0.0733096 0.21884 0.26749 -0.0369525 -0.39631 -0.0728254 -0.0277123 0.0116805 0.458983 -0.147786 -0.232851 -0.143847 0.0782951 0.476821 -0.14057 0.165743 0.14101 0.0395657 -0.100601 0.108549 0.162219 0.0778738 0.256743 0.0738016 -0.29672 0.246977 0.105366 -0.0223188 -0.111837 -0.135662 0.0856433 -0.0473378 -0.00703248 -0.0237464 -0.175586 0.118939 -0.0217831 -0.285877 0.00571708 -0.202793 -0.279737 -0.160691 -0.102378 0.0427287 -0.228607 -0.151713 -0.0948 -0.0208845 0.132198 0.0924916 -0.105355 0.243897 -0.339357 0.0123299 0.0665072 -0.19972 -0.0813965 0.0397674 0.0659612 -0.167337 0.229268 0.182537 -0.170911 0.194412 0.141799 -0.0954906 -0.133172
37 0.0472885 0.114365 0.230182 -0.214928 -0.691853 0.117716 -0.00948721 -0.115832 -0.0281921 0.245071 0.349666 0.172015 -0.212789 -0.390777 0.084682 0.108174 -0.240637 0.238664 0.346655 -0.140156 -0.370196 0.129294 0.0143169 0.0452214 0.207272 0.0811717 -0.357627 0.0239635 0.138898 -0.0684269 0.139497 0.151613 0.237451 -0.40949 -0.221535 -0.0679654 -0.0180335 -0.0318961 -0.0457868 0.201112 0.228992 0.108676 0.0538017 0.0903925 0.178562 -0.181379 0.0199372 0.447754 -0.181333 -0.105231 -0.254406 -0.112224 -0.282851 -0.160816 0.0500388 0.0817603 -0.324588 0.22194 -0.166205 0.293209 -0.0895762 0.0714236 0.193406 0.137149 -0.0110322 -0.350235 -0.0077637 0.188152 -0.133144 0.29616 -0.214272 -0.222796 -0.292211 0.304439 0.385765 0.0964225 0.26972 0.188706 0.0749763 -0.134174 -0.102334 0.211594 0.218742 0.102565 -0.273402 -0.236744 0.116964 0.0770837 -0.11292 -0.207677 -0.0902082 0.0858392 0.134851 -0.113143 0.0934501 -0.0443422 -0.111729 -0.140205 -0.209714 0.0248758 -0.219556 -0.261757 -0.13686 -0.0100031 0.289583 -0.38003 -0.188665 -0.239962 -0.0957307 0.0269797 0.200296 0.042899 0.288011 -0.181131 0.102921 0.0434445 -0.163535 0.0566866 0.0186967 0.223342 -0.135311 0.145837 0.142531 -0.210457 0.102331 0.0485531 -0.0682558 0.0215643
38 0.292143 0.24279 0.0901136 -0.165052 0.00950892 0.128651 0.0730508 -0.0888633 0.094007 0.161695 0.435952 0.0608258 -0.169312 -0.256184 0.222293 0.200904 0.0244826 0.158232 0.0759243 -0.241317 -0.299706 0.0997114 0.307474 0.0617575 0.0346786 0.169133 -0.472917 0.18397 0.0161419 0.117985 0.0864981 0.145743 0.270627 -0.172237 -0.179822 -0.192752 0.233127 0.00931063 -0.111379 0.297545 0.181816 0.212413 0.152756 0.152878 0.32113 -0.318638 -0.0154462 0.335542 -0.00998772 -0.082416 -0.280857 -0.128245 -0.225071 -0.137083 0.167658 -0.0114719 -0.190566 0.110027 -0.357904 0.143293 -0.177136 0.206622 0.111899 0.0719967 -0.15879 -0.364105 -0.203361 -0.16342 -0.201049 -0.067338 -0.127667 -0.528499 -0.15709 0.127784 0.215162 -0.302137 0.31984 0.00274258 0.120962 -0.0274145 -0.132302 0.197139 0.256826 0.100548 -0.303427 -0.213433 0.000940444 0.0687048 0.00449015 -0.207563 -0.219891 0.0062699 0.0820269 -0.0870085 0.391285 -0.0716242 -0.0301731 -0.176412 -0.193581 -0.202747 -0.0292487 -0.194823 -0.236095 -0.145687 0.0455212 -0.420498 -0.127697 -0.200524 -0.0573563 0.17347 0.102219 0.291783 0.140013 -0.135641 0.218876 0.265666 -0.133933 0.112664 -0.0345405 0.0857251 -0.0165523 0.143552 0.0591735 -0.216531 0.0475108 0.095739 -0.0965535 -0.00781157
39 0.210466 0.151379 0.165685 -0.236843 -0.356101 0.225416 -0.0674401 -0.0899794 0.0379537 0.220972 0.0925969 0.215838 -0.113421 -0.200702 0.106954 0.0520111 -0.144272 -0.00618589 0.152973 -0.156475 -0.409905 0.167608 0.115331 0.0961377 0.0719345 0.183516 -0.489278 0.0472129 0.167137 -0.150625 0.151642 0.167222 0.213242 -0.2119 0.0624586 -0.125902 0.23893 0.0834622 -0.0235145 0.230986 0.102062 0.13464 0.0980606 0.0952349 0.324626 -0.2015 0.104244 0.324419 -0.127109 -0.156975 -0.223681 -0.204837 -0.177706 -0.163113 0.0139421 0.0646354 -0.428966 0.0802289 -0.239884 0.335831 -0.111284 0.29395 0.0286205 -0.0423353 -0.13033 -0.480987 -0.0127182 0.0250954 -0.0513862 0.0212315 -0.241931 -0.423293 -0.223142 0.0736056 0.10023 0.0847777 0.327151 0.169941 0.177333 -0.0487134 -0.0532367 0.19531 -0.0410059 0.146056 -0.166961 -0.192508 -0.00385425 0.144711 -0.129206 -0.178201 -0.142459 -0.0284598 -0.118262 -0.0838395 0.305831 -0.0350905 0.00293421 -0.108589 -0.257294 -0.162081 -0.149541 -0.19983 -0.0704384 -0.0571645 0.147213 -0.422228 -0.0750788 -0.24211 -0.0933535 0.0962022 0.119677 0.184844 0.220715 -0.195656 0.187367 0.127789 -0.0345165 -0.0311498 0.00595989 0.0596069 -0.0693153 0.186643 0.019642 -0.0429863 0.154252 0.1534 -0.200992 -0.0257161
40 0.280699 0.159944 0.0671465 -0.111444 -0.508126 0.154697 -0.0943172 -0.00111987 0.0939486 0.170038 0.331237 0.245869 -0.232044 -0.224131 0.208066 0.0430802 -0.157765 0.185217 0.120152 -0.217505 -0.0889832 0.225143 0.159021 0.115065 0.159918 0.101237 -0.375307 0.112732 -0.113521 -0.0467074 0.0694831 0.175193 0.167134 -0.194552 0.012321 -0.0308696 0.151003 0.12618 -0.144767 0.253937 0.219308 0.1604 0.0730138 0.0782685 0.293725 -0.049643 0.109263 0.241977 -0.112703 -0.0767484 -0.250208 -0.170624 -0.153814 -0.140228 0.220312 -0.0435324 -0.195476 0.189013 -0.21864 0.25503 -0.0588059 0.273705 0.180581 0.0977143 7.64997e-05 -0.42325 0.0891415 0.0297904 -0.164197 0.320481 -0.295945 -0.414875 -0.218399 0.109866 0.197777 -0.163716 0.173814 0.218519 0.153997 -0.0925821 0.00604033 0.21271 0.135934 0.0865621 -0.0161662 -0.300171 0.062172 0.0662145 0.00397383 -0.147824 -0.15813 -0.0218928 0.0266749 -0.204478 0.239595 -0.0693224 -0.0633596 0.0189128 -0.265816 -0.142433 -0.120299 -0.27719 -0.0714947 -0.145192 0.114854 -0.433822 -0.191463 -0.290972 -0.143466 0.21938 0.147891 0.107325 0.245735 -0.114668 0.128328 -0.0182715 -0.219337 0.00458459 0.148905 -0.0971877 -0.163416 -0.0262699 0.0127529 -0.0197164 0.299976 0.0323792 -0.140345 -0.116605
41 0.237553 0.0245567 0.16606 -0.118292 -0.120398 0.125931 -0.103433 -0.0738571 0.128965 0.159145 -0.15964 0.39841 -0.193706 -0.158234 0.210421 -0.000588823 -0.0798677 0.19149 0.0911737 -0.133364 -0.019328 0.149766 -0.0524822 0.160705 -0.0949631 0.0935244 0.00209819 0.0693093 -0.237096 -0.00290562 0.240915 0.000658376 -0.0183715 -0.11176 -0.0301717 -0.298464 0.122359 -0.147311 -0.0900631 0.104824 0.170771 0.123885 0.252299 0.18798 -0.28024 0.0336313 0.19489 0.0748027 -0.0106391 -0.0807364 -0.0669366 -0.145263 -0.210753 -0.13851 0.180202 0.177486 -0.06968 -0.005941 -0.169882 0.215643 -0.262117 0.239863 0.145806 0.131007 -0.102339 0.0488833 0.0164275 0.122011 -0.115216 0.259449 -0.295236 -0.437485 -0.240496 0.0894776 0.015171 0.0757827 0.291147 0.0444773 0.218383 -0.0437723 -0.0415413 0.0859479 0.0955311 0.0484122 0.175298 -0.213189 0.103316 0.185598 -0.120217 -0.150066 -0.188269 -0.0619559 -0.318998 0.031661 0.0830867 -0.146023 -0.105244 -0.169154 -0.308852 -0.132738 -0.229319 -0.127725 -0.131391 -0.238966 0.101861 -0.0312265 -0.11677 -0.0152209 0.121538 0.139965 0.15723 0.0580755 0.151889 -0.177331 0.246093 0.115622 -0.154358 -0.111445 0.0779997 -0.0296449 -0.105543 0.172882 0.142945 -0.189548 -0.0138436 0.158219 -0.0622397 -0.0812235
42 0.18678 0.157434 0.15726 -0.12282 -0.0775213 0.0523567 0.0670874 -0.101037 0.101234 -0.110852 -0.0944284 0.107194 -0.111166 -0.0913156 0.16807 -0.0347107 -0.0400914 0.197155 0.0512397 -0.16065 -0.182158 0.215307 -0.130976 -0.109267 -0.123402 0.211107 -0.176068 0.116241 -0.082786 0.0533311 0.153365 0.00503571 0.11148 -0.0360848 0.101187 -0.188433 0.210975 -0.144241 -0.172688 0.154344 0.181794 0.096985 0.195408 0.0912338 -0.293482 -0.175894 0.120674 0.0142398 0.276102 -0.0980159 -0.0159021 -0.0510042 0.0182253 -0.0973755 0.257401 -0.0712643 -0.216873 0.193529 -0.232895 0.0822271 -0.136828 0.107916 0.0507948 0.102545 -0.131297 0.00822785 -0.0746431 0.070089 -0.154668 0.048715 -0.207971 -0.045818 -0.0653846 -0.142127 0.216577 -0.0124329 0.0722445 0.109561 0.138387 0.0848027 -0.0940595 0.0473697 0.0994231 0.152202 0.0420861 0.0700754 0.00910992 0.238021 -0.12733 -0.148139 0.101967 0.0818507 -0.229829 -0.107317 0.111597 -0.243828 0.121079 -0.139319 -0.102128 -0.221154 -0.214734 -0.215349 -0.195116 -0.159624 0.11925 -0.064467 -0.106205 -0.0661359 0.0147977 0.0951529 -0.0711823 -0.134409 0.0832113 -0.193328 0.15223 -0.027083 0.0658895 -0.0868541 0.0824291 -0.130116 -0.154839 0.0350581 0.0923083 -0.0235232 0.0611326 0.107158 -0.213753 -0.0183582
43 -0.113481 0.158337 0.355576 -0.0380022 -0.436265 0.139633 -0.147834 -0.218501 0.228091 -0.0213381 0.558579 -0.487965 -0.0619166 -0.140437 -0.13072 0.228478 -0.334356 0.0986154 0.189059 -0.192015 -0.0534957 0.0212862 -0.150221 -0.427792 -0.366818 0.208724 -0.166977 0.151334 0.249604 -0.295351 0.195919 0.219666 0.155349 -0.320648 -0.171311 -0.225896 0.124503 -0.175783 -0.159938 0.190579 0.27788 0.0538653 0.0135596 0.0634891 0.174872 -0.281702 0.106629 -0.186246 0.170795 -0.0615274 -0.255528 -0.152769 0.0487455 -0.225503 0.277212 0.0497998 -0.517526 0.255037 -0.145728 -0.050363 -0.0564194 0.0739125 0.19771 0.152059 -0.194837 -0.0971452 -0.118834 0.269429 -0.107789 -0.0227129 -0.178646 0.397749 -0.136615 -0.11042 -0.111192 0.202419 -0.0207268 0.107165 -0.132887 0.294124 0.0148251 0.207488 -0.00319847 0.331099 0.298029 -0.216434 0.250061 0.229581 -0.492118 -0.257991 0.334158 0.505035 -0.147695 -0.233459 -0.162659 -0.180775 0.310622 -0.186617 -0.176933 -0.144708 -0.379438 -0.167333 -0.342762 -0.238596 0.156961 0.340327 -0.104694 -0.0522763 -0.350486 0.0765037 0.273025 -0.0119933 0.0760232 -0.121243 0.217987 -0.0678938 0.511607 -0.406107 0.188659 -0.434611 -0.0173776 0.173816 0.210274 0.539674 -0.0262206 0.0810286 -0.215414 -0.215286
44 0.104605 0.186776 0.290525 -0.0937147 -0.364832 0.08229 0.0254447 -0.105327 0.194056 0.200574 0.443173 -0.310414 -0.0724447 -0.070437 -0.175821 0.178677 -0.259434 0.122347 0.167465 -0.108555 -0.0457675 0.0591409 0.0571053 -0.280132 -0.128959 0.190795 -0.0690977 0.213353 -0.107694 -0.142295 0.0854377 0.135126 0.0959007 -0.0488101 -0.108681 -0.207859 0.178813 -0.195099 -0.129852 0.292973 0.195116 0.182642 -0.056701 0.115363 -0.0573702 -0.170603 0.208266 -0.288222 0.0365009 -0.179407 -0.205281 -0.147571 0.102102 -0.219089 0.269977 -0.0310364 -0.380619 0.194715 -0.232153 -0.0638329 -0.115879 0.07776 0.195288 0.136794 -0.114623 -0.233453 -0.19869 0.0680629 -0.0447479 -0.0411634 -0.271077 0.175404 -0.122559 0.0206157 -0.166395 0.137595 -0.0252197 0.123432 0.0437824 0.0523992 -0.114475 0.201189 -0.090921 0.254879 0.2221 -0.155987 0.107658 0.112687 -0.192256 -0.183715 0.0915978 0.236392 -0.108467 -0.0304034 -0.158225 -0.0857499 0.0646018 -0.128283 -0.166113 -0.0593485 -0.381088 -0.275767 -0.187377 -0.158389 0.16887 0.187773 -0.112993 -0.0910154 -0.197157 0.178175 0.0793575 0.0803149 0.182298 -0.157939 0.168338 0.0136838 0.0803271 -0.22989 0.0671632 -0.263474 -0.245446 0.15901 0.254227 0.330709 0.173707 0.107582 -0.209282 -0.20658
45 0.254489 0.0519508 0.174828 -0.126131 0.305149 0.151532 0.133557 0.029824 0.0928318 -0.355965 0.123411 0.0863255 -0.236586 -0.207837 0.0824624 0.138803 -0.078245 0.0470203 0.138438 -0.303905 -0.1572 0.259297 -0.0576004 0.390059 -0.059804 0.205596 -0.137932 0.150549 -0.0590857 0.10286 0.221591 -0.0867384 -0.0451296 0.0467075 -0.118781 -0.187312 0.291804 -0.109884 -0.205142 0.173107 0.150505 0.13807 0.304342 0.0643724 0.16519 -0.419699 0.0982013 0.012218 0.0442886 -0.155382 -0.0452429 -0.164709 0.0968583 -0.108821 0.0724793 0.15695 0.0267648 0.217721 -0.114272 0.249115 -0.0416189 0.261946 0.107169 0.118634 -0.0897883 0.03609 -0.192324 0.0421503 0.0156944 0.34862 -0.128325 -0.211905 -0.23202 -0.0195031 0.381866 -0.508569 0.170717 0.0313386 0.0690055 0.294684 -0.0545784 0.100645 0.118923 0.174673 0.213009 -0.0693095 0.0373211 -0.0212284 -0.0653545 -0.161733 -0.0849058 0.0455365 0.0576298 -0.0667004 -0.202558 -0.129455 0.355149 -0.193503 -0.131496 -0.0580027 -0.0874137 -0.229674 -0.243842 -0.193567 0.0957093 -0.0895566 -0.0445699 -0.201877 -0.031593 0.00955559 -0.33298 -0.418798 0.259144 -0.151409 0.192759 0.239324 0.181456 -0.238679 0.13 0.196556 -0.150048 0.0269162 0.10374 0.352947 0.0680742 0.13342 -0.0923 -0.104323
46 0.22423 0.0302103 0.08664 -0.0478843 0.187481 0.0796471 0.174676 -0.128514 0.12308 -0.160824 0.127617 -0.145515 -0.159286 -0.03229 -0.0793307 0.144764 -0.0992803 0.0100239 0.126799 -0.178122 -0.0605224 0.159623 -0.0790756 0.481732 -0.0705494 0.206189 -0.0685956 0.168532 0.0538889 0.068452 0.342275 -0.0531752 0.102357 0.0435301 -0.155324 -0.113238 0.16034 -0.0522284 -0.0613018 0.112372 0.179165 0.156931 0.220797 0.000650431 0.11591 -0.505245 0.190877 0.120277 0.266514 -0.0314525 -0.00837203 -0.140373 -0.0268089 -0.055484 0.263416 0.171606 0.0233728 0.116242 -0.169857 0.187251 -0.0841167 0.123068 0.132485 0.171872 -0.0331982 -0.12047 -0.0702884 0.186805 -0.0832593 0.16318 -0.100153 0.100521 -0.212024 -0.128339 0.35123 -0.626213 -0.0272906 0.0178406 0.252077 0.201015 -0.128773 0.174416 0.0434253 0.162064 0.474822 0.0258279 0.0194506 0.0545812 -0.0232826 -0.142838 -0.295231 0.0624558 0.00592619 -0.138848 -0.170084 0.00140787 0.176167 -0.125883 -0.102041 -0.291621 -0.165555 -0.178252 -0.337452 -0.167416 -0.021214 -0.106328 -0.1213 -0.068122 -0.0506579 0.128831 -0.364758 -0.294799 0.195689 -0.1497 0.286946 0.410311 0.215013 -0.251082 0.161137 0.160145 -0.0166676 0.130387 0.0782551 0.3428 0.239577 0.161695 -0.089234 -0.161595
47 0.202618 0.283258 0.098938 -0.167261 -0.0627885 0.1755 -0.101542 -0.0508137 0.0816094 0.0406064 0.32256 0.34232 -0.113595 -0.236862 0.101341 -0.0303534 0.130115 0.165321 0.0784397 -0.199216 -0.0850915 0.171437 0.126688 0.238457 0.00348865 0.159537 -0.438326 0.151183 -0.270018 0.18376 0.126043 0.246814 0.120503 -0.0513382 0.0226113 -0.0977139 0.213592 0.0420143 -0.240078 0.137411 0.149491 0.259023 0.170157 0.230033 0.0254624 0.163218 0.151846 0.0717894 0.169715 -0.164662 -0.277107 -0.208039 -0.182036 -0.118861 -0.0184418 0.103416 -0.24953 0.1151 -0.250434 0.256608 -0.391878 0.250346 0.1321 0.256799 -0.136755 -0.323769 -0.0701834 -0.103141 -0.259661 0.278637 -0.278658 -0.423666 -0.0853844 -0.0130524 0.0556214 -0.125843 0.193146 0.179104 0.106303 -0.122606 -0.147668 -0.0201069 0.186642 -0.0305271 -0.253221 -0.187692 0.0606337 0.177535 -0.145536 0.0433753 0.0485488 -0.121985 0.00995409 -0.0174161 0.235149 -0.0785467 -0.00279198 -0.105144 -0.141959 -0.135407 -0.130059 -0.145151 -0.0446459 -0.211108 0.0721506 -0.478468 -0.16745 -0.333298 -0.225445 0.218937 0.332692 0.19977 0.137265 -0.100617 0.159432 -0.175719 -0.129343 -0.0253097 0.243557 -0.107487 -0.132604 0.114762 0.0715401 -0.156984 0.356957 0.0870883 -0.00518449 -0.094595
48 0.199675 0.298148 0.109752 -0.281623 0.0893715 0.210032 -0.386182 -0.0370349 0.112403 -0.127833 0.410754 0.264002 -0.194314 -0.286558 0.19098 0.0165819 0.0663678 0.14315 0.119161 -0.223274 0.15398 0.17014 0.231024 0.116117 -0.0032756 0.160674 -0.280169 0.151105 -0.0305758 0.0498036 0.0387621 0.0940357 0.170439 -0.0181709 -0.0258557 -0.118993 0.189356 0.116012 -0.165586 0.249683 0.187431 0.282105 -0.0498156 0.221362 0.21948 -0.0705927 0.0322964 0.0766526 0.132579 -0.210231 -0.0394848 -0.210143 -0.0631475 -0.113712 0.00710906 0.118484 -0.287534 0.0784761 -0.225406 0.393716 -0.368035 0.356484 0.172156 0.246875 -0.190174 -0.376805 0.0624702 -0.153998 0.0661117 0.228443 -0.280814 -0.427482 -0.109932 0.0828897 0.0780248 -0.159989 0.288752 0.286455 0.207339 -0.0743795 -0.116027 0.178394 0.105833 -0.0688975 -0.458403 -0.193739 -0.0618414 -0.00149921 -0.127105 -0.0560462 0.136104 -0.0601406 0.181999 -0.0479801 0.152792 -0.11506 -0.164812 0.014256 -0.236604 -0.0343574 -0.0883981 -0.211823 -0.157831 -0.154451 -0.0209468 -0.435672 -0.143625 -0.167287 -0.1965 0.0605755 0.327076 -0.00563725 0.184025 -0.113771 0.12482 -0.132462 -0.193205 -0.0527938 0.220244 -0.379633 -0.0184226 0.00696308 0.16862 -0.0998873 0.217521 0.128329 -0.178235 -0.153378
49 0.0168475 -0.215611 0.0489578 -0.125214 0.26776 0.0753497 -0.232184 -0.100027 0.108956 -0.0235742 0.135347 0.10407 -0.110136 -0.295841 0.117473 0.105184 -0.207193 0.124167 0.399156 -0.0270099 -0.150013 0.237952 -0.0820266 0.0365942 -0.038241 0.0229112 -0.190873 0.203287 0.246859 -0.269789 0.104116 0.130124 0.0928437 -0.0658252 -0.104719 -0.036641 -0.0294958 -0.128768 -0.100841 0.225845 0.189558 0.0675376 0.0363536 0.0570771 -0.291565 -0.454829 0.215783 0.0546576 0.165959 -0.175632 0.0531431 -0.206944 -0.0845642 -0.226033 0.0699108 0.0954303 -0.25307 0.173153 -0.181494 0.120471 -0.453076 0.193068 0.315412 0.228887 0.0625923 -0.21592 -0.329873 -0.121019 0.082227 0.0358899 -0.13062 -0.155251 -0.110876 -0.125855 -0.112422 -0.147092 0.375153 0.163815 0.0771267 0.296555 -0.0933024 0.197402 0.11166 -0.124179 -0.455103 -0.0440963 0.0616736 0.0894838 -0.135692 -0.0828829 0.207572 -0.0283983 0.00350322 -0.0713231 0.233396 -0.214009 -0.0382122 0.0726809 -0.199046 -0.234621 -0.253375 -0.172647 -0.16715 -0.156817 -0.140449 -0.0187915 -0.276869 0.0331516 -0.0133009 -0.0955803 0.00163953 -0.201774 0.145004 -0.215011 0.00893217 -0.186 -0.0218631 -0.183818 0.041261 -0.35264 -0.272127 0.361548 0.31869 -0.00647544 0.0539993 0.0856334 -0.0610064 -0.00376325
50 0.00514003 -0.0716315 0.104611 -0.169893 0.462723 0.0333609 -0.0936605 -0.04736 0.106774 -0.205851 -0.0251996 -0.0545336 -0.201479 -0.217054 0.0354482 0.0620025 -0.198173 0.0449511 0.273299 -0.159548 -0.119023 0.390072 0.0308064 0.287908 -0.0213184 0.172782 -0.0374366 0.415126 0.0996253 -0.307935 0.274576 0.277587 -0.120153 -0.143171 -0.0710316 -0.112121 0.0626958 -0.107446 -0.266777 0.201271 0.109983 0.175577 0.245829 0.0271031 -0.228098 -0.343103 0.1934 -0.0813163 0.188127 -0.0645071 0.0339039 -0.1073 -0.300594 -0.121815 0.0301577 0.1841 0.0481847 -0.0988859 -0.168601 -0.066214 -0.565812 0.404441 0.257046 0.259772 -0.0847879 -0.0464691 -0.233277 0.0312276 0.0342169 0.273376 -0.198823 -0.190588 -0.157025 -0.176029 -0.106731 -0.309602 0.399454 0.240747 0.0149301 0.145685 -0.0909172 0.183438 0.155281 -0.152477 -0.519365 -0.049017 -0.0225061 0.0909448 -0.165149 0.17153 -0.0110023 -0.122303 -0.0175401 0.151875 0.355073 -0.214788 -0.111045 -0.0315301 -0.192877 -0.192886 -0.150689 -0.168706 -0.240316 -0.199549 -0.034544 -0.0802471 -0.154325 -0.0397394 0.149134 0.0778361 0.0271437 -0.133488 0.17413 -0.19062 0.0888527 -0.167708 -0.0524195 -0.134363 0.0393995 -0.141304 -0.0452105 -0.010752 0.323247 -0.231204 0.201802 0.0634119 -0.133169 -0.0217589
51 0.176124 0.103246 0.0969454 -0.123624 -0.257679 0.0693347 0.150377 -0.0976136 0.128041 0.150425 -0.0917971 0.273831 -0.123886 -0.179997 0.246811 0.0186797 -0.1758 0.178762 0.175865 -0.180722 0.00922434 0.13298 -0.202582 -0.0753482 0.058691 0.136176 0.236386 -0.187592 -0.102693 0.0744483 0.15718 0.160616 0.155666 -0.108589 -0.114283 -0.273559 0.0979118 -0.0918443 -0.0612635 0.145884 0.097713 0.0377744 0.182606 0.10288 -0.123769 -0.15183 0.248077 0.23285 0.0713182 -0.136415 -0.295905 -0.272701 -0.176396 -0.242405 -0.0310291 0.0392523 0.0269995 0.136344 -0.151126 0.0857889 -0.17193 0.184539 0.166053 0.149369 -0.0880679 0.139722 -0.0457381 0.110769 -0.203614 0.287114 -0.244601 -0.18759 -0.227031 0.194762 0.175311 -0.0358243 0.113344 0.207171 0.168597 -0.173935 0.0401651 0.134907 -0.00997899 0.297708 0.233336 -0.319459 0.150022 0.173566 -0.0698951 -0.238861 -0.136157 0.0677133 -0.197159 0.055235 0.0720723 -0.268978 -0.0741697 -0.117384 -0.130771 -0.223487 -0.229783 -0.121591 -0.0981615 0.0138006 0.0484723 0.0934992 -0.0432165 -0.150021 -0.183419 0.176373 -0.00937021 0.0527948 0.234594 -0.181924 0.0899478 0.106934 -0.020197 -0.0741949 0.106459 0.173093 -0.0878969 0.174699 0.197719 -0.0387219 0.0736966 0.0251334 -0.10215 -0.0578229
52 -0.0441117 0.0494354 0.191636 -0.0275278 0.237092 0.164299 0.0831276 -0.221121 0.288496 0.0841312 -0.140553 0.377335 -0.0441896 0.016743 0.252577 0.143383 -0.0272977 0.181493 0.0886395 -0.248998 0.332312 -0.11654 -0.297018 -0.00869935 0.130532 0.151503 -0.137124 -0.150105 -0.00563425 -0.065138 0.23136 0.104391 0.0270577 -0.262554 -0.0881485 -0.198697 0.271291 -0.159871 -0.0352193 0.100844 0.0838138 0.0874453 0.268846 0.0389397 -0.535212 0.118073 0.154239 -0.0900883 -0.0201796 -0.272376 -0.131857 -0.170524 -0.421097 -0.299063 0.0970879 -0.0550513 -0.0538058 0.164433 -0.0723168 0.190021 -0.148594 0.0206388 0.159977 -0.0294448 -0.206496 0.172919 0.0282933 0.275794 -0.127955 -0.226511 -0.237683 -0.223563 -0.160015 -0.247693 0.0702805 -0.3955 -0.193015 -0.019421 0.238017 0.027744 0.0149372 0.19542 0.166628 0.326616 -0.144918 0.03762 0.00458534 0.27463 -0.15026 -0.130796 -0.317837 0.343072 -0.0960501 -0.125901 0.147282 -0.0352136 0.367667 -0.174107 -0.25688 -0.146417 -0.11317 -0.268692 -0.0172455 -0.210218 0.123637 0.241851 -0.15127 -0.0922283 0.155819 0.0485297 0.232729 0.1166 0.0618066 -0.112828 0.226363 0.186528 0.231851 0.0779353 0.0535126 -0.202798 -0.131507 0.187798 0.190422 -0.118933 -0.0604428 -0.024925 -0.146193 -0.21955
53 -0.0294999 0.14075 0.120079 -0.100944 -0.132008 0.117766 0.215355 -0.243215 0.0673704 0.107247 -0.123124 0.271266 -0.299727 0.00707 0.0911102 0.046342 -0.162887 0.093357 0.0765015 -0.205494 0.14295 -0.0563435 -0.164375 -0.0951853 -0.150994 0.0898411 -0.160896 0.140289 -0.0829976 -0.119876 0.141725 0.15736 0.0679352 -0.00178336 -0.240938 -0.118839 0.160502 -0.192304 -0.135918 0.0640882 0.168208 0.21212 0.0729058 0.206482 -0.250973 0.0454013 0.0975222 -0.2106 0.131437 -0.0402033 -0.159682 -0.136507 0.0325629 -0.0794837 0.00441524 -0.0246915 -0.0188975 0.126208 -0.294258 -0.00944235 0.0238516 0.0598404 0.0418723 0.147152 -0.176973 0.122691 -0.0558075 0.113263 -0.309975 -0.0703426 -0.211116 -0.0908216 -0.20309 -0.266481 0.10121 -0.263371 0.0494873 0.0643022 0.234785 0.302566 -0.169212 0.269557 0.0291018 0.35437 -0.240305 0.0512834 -0.0559535 0.145545 -0.139106 -0.0923889 -0.293877 0.249671 -0.1791 0.0258124 -0.122683 -0.109544 0.0756464 -0.111017 -0.0960542 -0.251501 -0.178832 -0.112681 -0.217726 -0.106976 0.152541 0.25422 -0.116133 -0.0112405 -0.251265 0.0674069 0.109965 -0.0444712 0.173261 -0.202784 0.129816 -0.127438 0.298135 -0.113504 0.0864293 -0.10773 -0.300062 0.210828 0.252839 -0.00133622 0.0864582 0.135356 -0.162208 -0.234128
54 0.138664 0.108334 0.133011 -0.353069 0.316957 0.244796 -0.0884102 -0.0973479 0.223052 -0.0504462 0.0145979 -0.0947218 -0.219971 -0.0402286 0.224762 0.415501 -0.0162071 0.0354955 0.110115 -0.192605 -0.326493 0.0892281 -0.0557908 0.334068 -0.224028 0.0849172 0.340934 -0.0332638 0.419438 -0.240288 0.203718 0.0821842 0.0529469 -0.253253 -0.0237264 -0.187517 0.256817 -0.370334 -0.151806 0.142606 0.133762 0.0114605 0.0309004 0.128438 -0.183734 0.225002 0.0522299 0.517293 0.234561 -0.0972153 -0.120799 -0.178919 0.0536496 -0.229965 0.0745582 0.0321913 0.0889588 0.158433 -0.0750886 0.046968 -0.0754082 0.126051 0.130151 0.0538676 -0.209035 0.0397994 -0.0521317 0.207069 -0.204219 -0.186931 -0.286196 -0.0610412 -0.259502 -0.334033 0.0595435 0.0234389 -0.0329875 0.145552 0.188016 -0.293513 -0.0869637 0.000717819 0.0518163 0.0497559 0.133015 0.039104 0.125074 0.206906 -0.0584657 -0.182412 0.0630552 0.067825 0.529016 -0.147451 -0.179213 -0.34227 0.13977 -0.0261928 -0.113936 -0.0493618 -0.138967 -0.140896 -0.13058 -0.205044 -0.0577283 -0.221012 -0.244097 -0.0479856 -0.180988 0.059089 -0.0906772 -0.120512 0.0719016 -0.157046 0.105576 -0.0425817 0.290708 -0.037414 0.198274 0.344322 -0.158337 0.220542 0.0970998 0.373443 0.403582 0.15074 -0.0554498 -0.254862
55 -0.00716417 0.128022 0.0409074 -0.268224 0.268675 0.145011 -0.167648 -0.232968 0.153509 -0.227614 0.100244 -0.259682 -0.241587 -0.0252597 0.0923689 0.12258 0.0779602 0.0335875 0.065977 -0.175065 -0.271817 0.121876 -0.122542 0.289234 -0.44406 0.0784092 0.289927 -0.0063797 0.537068 -0.169161 0.252674 0.116057 0.111093 -0.181963 0.00282529 -0.0897972 0.271573 -0.217336 -0.124315 0.169027 0.153579 0.0770179 0.110886 0.0276811 -0.20841 0.083805 0.0620254 0.315275 0.132574 -0.168222 0.0659505 -0.119149 -0.197268 -0.063618 0.126934 0.1494 0.193683 0.260398 -0.127639 -0.120142 -0.317179 0.101653 0.220952 0.215033 -0.195733 0.187457 -0.0346055 0.229541 -0.307788 -0.0727685 -0.190123 -0.0647028 -0.199712 -0.524525 0.0574886 -0.0593517 0.0348323 0.239476 0.170901 -0.251221 0.126357 0.100565 0.131008 0.0377361 0.152733 0.112217 0.054671 0.163506 -0.116011 -0.218181 0.132631 0.0329936 0.48109 -0.199662 0.144251 -0.196706 0.0197955 -0.0345667 -0.0598996 -0.0945755 -0.085597 -0.208696 -0.138411 -0.11491 -0.0713347 -0.185172 -0.165651 -0.0870174 -0.0928975 0.0949882 -0.0590946 -0.169711 0.172162 -0.100329 0.240518 0.0531657 0.342177 -0.0524712 0.280985 0.230579 -0.0562446 0.0862914 0.115632 0.573183 0.365092 0.133115 -0.0663655 -0.329369
56 -0.0869195 0.231837 0.0831891 -0.110352 0.224974 0.130825 -0.289206 -0.199626 0.155104 -0.30368 0.142052 -0.0364793 -0.252014 -0.210367 0.185817 0.296006 0.0808449 0.062148 0.111773 -0.172468 -0.386973 0.156123 -0.285894 0.205647 -0.253943 0.0982649 0.35492 -0.1335 0.57594 -0.127007 0.187039 0.163328 0.135537 -0.330286 -0.0427086 -0.0538813 0.30321 -0.334862 -0.0610463 0.191642 0.245752 0.0341917 0.065702 0.150823 0.0325155 0.0111687 0.165773 0.352897 0.274934 -0.11599 -0.0550425 -0.267477 -0.165125 -0.295198 0.0618086 0.123999 0.0223887 0.141293 -0.125639 0.0998186 -0.219226 0.20663 0.093131 -0.00400686 -0.161192 -0.111118 0.0793519 0.152474 -0.191436 -0.17436 -0.183005 -0.164641 -0.251607 -0.330636 0.0920122 -0.169604 -0.0979424 0.170099 0.206484 -0.148248 -0.0638738 0.141271 0.174954 0.0143091 0.117816 0.0545851 0.049015 0.292423 -0.132346 -0.214539 -0.0943237 0.0533314 0.630303 -0.0863168 -0.0220842 -0.184215 -0.0166502 -0.0690876 -0.0657244 -0.122707 0.0118524 -0.087722 -0.0876133 0.0590733 -0.0672886 -0.299205 -0.184244 -0.106868 0.0135856 0.0103697 -0.00372191 0.0348691 0.237367 -0.0345587 0.134597 0.109159 0.274719 0.0267342 0.240533 0.341815 -0.19937 0.105054 -0.014535 0.126004 0.422731 0.214141 -0.163236 -0.278898
57 0.131951 0.166461 0.1497 -0.302406 0.232354 0.179057 -0.244954 -0.332059 0.0960337 -0.00471166 -0.013325 -0.11851 -0.170114 -0.0788003 -0.0118674 0.22298 0.04201 0.037423 0.0858635 -0.138514 -0.286898 0.125007 -0.167455 0.486893 -0.18918 0.0735312 0.287703 -0.0996849 0.507543 -0.0364833 0.236586 -0.0108625 0.236844 -0.206903 -0.0654944 -0.0273488 0.1403 -0.197133 0.0108863 0.234047 0.242004 0.135637 -0.0235178 0.267496 -0.25102 0.230691 0.0626789 0.263509 0.0640502 -0.286788 0.0664039 -0.0635403 -0.141701 -0.163745 0.0234825 0.302225 0.109217 0.206476 -0.0798959 -0.0642458 -0.222055 0.13744 0.135636 0.148323 -0.19145 -0.106266 -0.0506273 0.16039 -0.24194 -0.269723 -0.202243 -0.226619 -0.20597 -0.189218 0.0064848 0.0123027 0.00150296 0.131268 0.0933857 -0.133961 -0.186357 0.0929513 0.0895646 -0.0869723 -0.0835658 0.038255 0.125307 0.197188 -0.175086 -0.193024 -0.00617755 0.0505337 0.633664 -0.252016 -0.0895055 -0.248974 0.0647468 -0.190732 0.0578531 -0.095039 -0.0876061 -0.175303 -0.123147 -0.117676 0.126539 -0.24947 -0.142646 -0.0997357 -0.184156 0.033995 0.0271538 -0.0468281 0.303195 0.0278715 0.135819 0.202382 0.251063 -0.015603 0.188006 0.363167 -0.247397 0.117333 0.174275 0.110574 0.396255 0.198488 -0.174059 -0.183105
58 0.0848629 -0.0122382 0.174316 0.0127268 0.176796 0.125334 -0.0810817 -0.154579 0.0589733 -0.425393 -0.141691 -0.0422875 -0.157845 -0.156247 0.0837319 0.118644 -0.262938 0.0798747 0.122086 -0.272277 -0.260252 0.235433 -0.104042 0.360192 -0.250849 0.169189 0.238967 0.052262 0.0944768 0.0398622 0.155259 0.153167 0.108948 -0.181844 -0.119957 -0.181765 0.189146 -0.177791 -0.112225 0.147642 0.133053 0.162968 0.045776 0.0311388 -0.164487 0.295059 0.0997246 0.0893087 0.0938183 -0.260032 -0.103837 -0.185846 0.0261606 -0.168303 0.139008 0.127765 0.0734328 0.116703 -0.11191 0.0311838 -0.197208 0.183472 0.274003 0.030051 -0.0534855 -0.0681179 -0.101135 0.124828 -0.00669611 0.151092 -0.268163 -0.0728284 -0.201497 -0.1201 -0.0250398 0.0205962 0.0802971 0.128005 0.193496 -0.124043 -0.0481113 0.134529 0.0689389 0.0916026 -0.0500618 0.1207 0.135966 0.0779919 -0.136052 -0.195626 0.101055 0.0198431 0.449806 -0.102386 0.177458 -0.178962 0.0326903 -0.144406 -0.113133 -0.125183 -0.129741 -0.262739 -0.143855 -0.0838987 -0.00914115 -0.131038 -0.257514 -0.0534092 -0.0317975 0.0771269 0.0785399 -0.202123 0.173325 -0.0826094 0.0963622 -0.0273917 0.178139 -0.0810553 0.165818 0.236535 -0.207699 0.126447 0.112474 0.362981 0.194125 0.0587801 0.0156342 -0.108635
59 -0.00218466 0.15565 -0.0494977 -0.257916 0.160081 0.170952 0.112545 -0.196943 0.232823 -0.398586 0.00993985 -0.130605 -0.284981 0.0268404 0.332462 0.265042 -0.203338 0.113618 0.149401 -0.237984 -0.241257 0.255446 -0.255437 0.457804 -0.211983 0.126239 0.366135 -0.0883318 0.509555 -0.254037 0.180882 0.0317983 0.20286 -0.314641 -0.245831 -0.111519 0.133585 -0.177203 -0.129703 0.144666 0.247403 0.102396 -0.0288925 0.121766 0.114449 -0.111637 0.272258 0.531171 -0.0161902 -0.213985 -0.0609834 -0.165354 -0.206724 -0.178381 0.14243 0.0232262 0.352769 0.119807 -0.269738 -0.0744706 -0.151349 0.17494 0.0717592 -0.0166035 -0.189866 -0.107774 -0.137512 0.0791328 -0.184659 -0.114238 -0.142455 -0.0321735 -0.274316 -0.148403 0.563753 -0.210515 -0.107387 0.102377 0.268415 -0.227587 0.0160279 0.0669705 0.215652 0.0248103 0.265286 0.0364326 0.0701951 0.246402 -0.143105 -0.15284 -0.111137 -0.0126755 0.558254 -0.284522 -0.131382 -0.247732 0.0148214 -0.108111 -0.0245535 -0.105234 -0.0117421 -0.0905304 -0.137708 -0.0618763 -0.0470532 -0.0938924 -0.172221 -0.254871 -0.177192 0.0818501 0.00317577 -0.199712 0.174336 -0.0322937 0.0819136 -0.0685653 0.215711 -0.0927346 0.172311 0.493399 -0.195664 0.22609 0.0741077 0.262623 0.507207 0.151396 -0.0422255 -0.135128
60 -0.0232272 0.254313 0.0527632 -0.0111411 0.258362 0.175404 0.100779 -0.14491 0.225273 -0.198621 -0.09456 0.222518 -0.271917 -0.0649654 0.035323 0.166335 -0.10887 0.227398 0.0977509 -0.15929 0.329884 0.0705032 -0.123512 -0.0494681 0.119193 0.166807 -0.551043 -0.0355552 0.243034 -0.155009 0.194865 0.204726 0.109011 -0.266314 0.128979 -0.188767 0.127368 -0.0296141 -0.186002 0.244044 0.158834 0.150835 0.0148318 0.151289 -0.263984 0.142572 0.034452 -0.0736668 -0.152356 -0.269749 -0.0964143 -0.271711 -0.230102 -0.241021 0.0933864 -0.150664 -0.00871808 0.156288 -0.225814 -0.0279547 0.0491912 0.220666 0.181383 0.0202622 -0.178157 0.23932 -0.555829 0.171681 -0.0756926 -0.28122 -0.151849 -0.161078 -0.140708 -0.118747 0.0476598 -0.0104329 -0.0661549 0.0656363 0.160498 0.251288 -0.199362 0.0752277 0.0857331 0.0756162 -0.130263 -0.192076 0.0226608 0.0785512 -0.312012 -0.181982 -0.464576 0.106344 0.00179365 -0.182123 0.205824 -0.0256291 0.0868592 -0.0862153 -0.0391856 -0.256579 -0.0639748 -0.277983 -0.0926464 -0.180288 0.0258424 0.195348 -0.100039 -0.267074 -0.249835 0.135871 -0.0894917 0.100261 0.319574 -0.214193 0.317504 0.0910404 0.309447 0.0284763 0.133311 -0.244912 -0.202202 0.087928 0.204342 -0.194833 -0.0795734 0.054228 -0.0787937 -0.225891
61 -0.041159 0.170415 0.107303 -0.0657301 -0.00583236 0.146987 0.0168397 -0.185388 0.202068 0.0473087 0.0458798 0.0418661 -0.180955 -0.133504 0.0518074 0.25181 -0.206165 0.159228 0.0634725 -0.202121 0.289687 0.0623186 -0.0265694 -0.409291 0.144595 0.189695 -0.485734 -0.0556457 0.310169 -0.0411498 0.187168 0.258413 0.163057 -0.257049 -0.109022 -0.11162 0.191015 -0.0593098 -0.173079 0.258913 0.112721 0.139663 0.159497 0.154153 -0.0740146 0.132343 0.176062 -0.180234 -0.085038 -0.255734 -0.0274721 -0.140788 -0.211152 -0.245422 0.0475424 -0.117704 -0.110284 0.205618 -0.0832315 -0.105572 0.0439776 0.147929 0.187047 0.149273 -0.0967658 0.211722 -0.610409 0.233903 -0.0978632 -0.401477 -0.151815 0.082069 -0.144437 -0.177771 0.0157358 -0.196433 -0.0649735 0.00742349 0.0886539 0.217067 -0.133183 0.0750934 0.175603 0.127783 -0.134477 -0.141784 0.0143975 0.136854 -0.258689 -0.214259 -0.289535 0.352473 -0.161235 -0.320906 0.0236508 0.0208986 0.091809 -0.168763 -0.106015 -0.223336 -0.18994 -0.27192 -0.116534 -0.138648 0.185807 0.347989 -0.160187 -0.196476 -0.161481 0.0575783 0.13961 0.138156 0.157261 -0.113175 0.133748 -0.0337275 0.358875 -0.0421451 0.13478 -0.404674 -0.170515 0.205256 0.213061 -0.217633 -0.166088 0.0971206 -0.136091 -0.224265
62 0.116665 0.0455379 0.130895 0.115124 -0.0487619 0.233295 0.0346848 -0.186087 0.133594 -0.280391 0.0323073 0.0177726 -0.17992 -0.113863 0.116439 0.0957961 -0.144695 0.178745 0.0809622 -0.147151 -0.0648325 0.110252 0.0570966 0.0293282 0.137884 0.156755 -0.0843419 0.231791 0.100319 0.00777347 0.234468 0.0546678 0.138499 -0.0506426 -0.0430937 -0.072868 0.231197 -0.136195 0.00788344 0.179016 0.138108 0.171007 0.137899 0.120474 0.039236 -0.348885 0.212777 0.131258 0.0165109 -0.142085 -0.023299 -0.187568 -0.00352784 -0.178478 0.0604566 0.0344317 -0.00503302 0.0527372 -0.128787 -0.0622279 -0.0100936 0.214617 0.114346 0.107448 -0.129887 -0.0114527 0.0893238 0.0823981 -0.0354321 0.221729 -0.102419 0.0196252 -0.141121 -0.0907694 -0.00751566 -0.212852 0.0545662 0.187784 0.106599 0.00782144 0.0157854 0.115964 -0.0769204 0.125874 -0.0107993 0.00493065 0.0965951 0.192674 -0.0940039 -0.0981241 0.054677 0.0903664 -0.0993495 -0.209126 -0.102402 -0.0514646 0.0829758 -0.0424962 -0.176367 -0.241087 -0.173444 -0.276732 -0.232663 -0.20439 0.0331726 0.0248971 -0.194858 -0.128969 0.0279186 0.164228 -0.114302 0.0797901 0.168084 -0.158235 0.219473 0.126899 -0.103416 -0.0610434 0.156529 -0.079423 -0.223135 0.132353 0.0597406 -0.000816455 0.06308 0.173479 -0.147968 -0.0758712
63 0.0646641 0.0760788 0.0936251 -0.17837 0.119414 0.123844 0.0565963 -0.0453306 0.133704 -0.33532 0.174288 0.0100882 -0.177008 -0.152602 0.155 0.231609 0.0815111 0.00185301 0.0849322 -0.169874 -0.174335 0.097246 -0.0401954 0.386229 -0.175049 0.10115 0.244819 -0.01773 0.336043 -0.142798 0.268688 0.103022 0.154368 -0.134143 -0.144483 -0.151346 0.181229 -0.257338 0.0298372 0.154257 0.200178 0.141524 0.136544 0.117006 0.0157995 -0.0107766 0.189767 0.0903139 0.0845513 -0.132814 -0.0226453 -0.278711 -0.0315001 -0.141753 0.205014 0.110675 -0.01957 0.190616 -0.150785 0.00888871 -0.203353 0.0754335 0.132078 0.0694491 -0.163597 -0.00510596 -0.135106 0.10013 -0.0430155 -0.114833 -0.217417 -0.0179955 -0.225522 -0.222061 0.00752363 -0.074039 0.108612 0.114279 0.262065 -0.00780541 -0.0424027 0.207881 0.0558936 0.0795332 0.0734583 0.12293 0.0860061 0.168193 -0.115 -0.242515 -0.129366 0.0343667 0.383544 -0.0741445 -0.124843 -0.0868432 0.0297738 -0.237246 -0.0960714 -0.111391 -0.0945451 -0.0770816 -0.131889 -0.208418 0.154706 -0.205116 -0.109599 -0.231961 -0.0638843 -0.0100828 -0.0893557 0.0142415 0.115981 -0.154679 0.17966 0.181931 0.312148 -0.144353 0.037076 0.306666 -0.0986766 0.133872 0.215287 0.20659 0.341688 0.0724806 -0.185734 -0.086123
64 0.0738306 0.245691 0.0476818 -0.094777 -0.0398314 0.0644854 0.0725021 -0.244972 0.251006 0.0994275 -0.131245 -0.066164 -0.234049 -0.146604 0.135947 0.0478504 0.116082 0.177043 0.0988306 -0.228187 0.0159837 0.187402 -0.198053 -0.114773 0.163157 0.184414 -0.142928 -0.00661726 -0.0133837 0.111698 0.125455 0.139589 0.1268 -0.00311389 -0.252546 -0.0884566 0.257918 -0.0464148 -0.187834 0.102452 0.147205 0.0553524 0.04392 0.173454 -0.0119018 -0.309835 0.197806 0.0264397 0.0802902 -0.118661 -0.109156 -0.172874 -0.159931 -0.247946 -0.111151 0.119562 0.155117 0.0953823 -0.137154 0.109114 -0.118133 0.151384 0.0350556 0.126093 -0.271485 0.013062 -0.0459122 0.0594559 -0.0271259 -0.0950459 -0.215156 -0.11884 -0.0761336 0.0712259 0.157246 0.0584634 0.0813412 0.160214 0.100727 -0.00957032 -0.094506 0.0688199 0.179958 0.00640868 -0.0493475 0.0521007 0.0596381 0.20037 -0.171706 -0.193185 -0.0943051 0.171352 0.0781043 -0.00402014 0.210206 -0.11246 0.0496301 -0.0690077 -0.13054 -0.114789 -0.0905533 -0.219871 -0.177693 0.00792365 0.0933321 0.0295739 -0.184349 -0.0632062 -0.0532978 0.0488884 0.0856462 0.0694307 0.146049 -0.201268 0.186449 -0.0666669 0.0303854 -0.000334225 0.170225 -0.0292893 -0.112097 0.104525 0.177254 0.161443 -0.0574908 0.0478214 -0.122725 -0.268953
65 -0.0347565 0.11577 0.137341 -0.170519 -0.437715 -0.0237192 0.117378 -0.228867 0.172723 0.16368 -0.148104 0.0965776 -0.105908 -0.115264 0.0613189 0.0957061 -0.235894 0.196873 0.108772 -0.235911 0.106823 0.175598 -0.0121013 0.206208 -0.0848314 0.293809 0.22678 0.0137961 -0.0309213 -0.0554627 0.0189901 0.252068 -0.00901904 -0.216588 -0.184405 -0.0792417 0.160313 -0.118716 -0.139745 0.0737832 0.203017 0.196028 0.0208982 0.206221 0.107639 0.195949 0.218167 0.0344312 -0.162633 -0.132381 0.00386871 -0.316526 -0.153987 -0.110491 -0.00649491 0.214043 0.214459 0.0340704 -0.267491 -0.0194924 0.0400762 0.0520717 0.106842 0.262067 -0.184165 0.195279 -0.0761236 0.110015 -0.170595 0.256829 -0.223078 0.0191205 -0.1921 0.0242128 0.124912 -0.161384 -0.13815 0.17545 0.13636 0.0895727 -0.182827 0.039777 -0.0180074 0.194232 0.218847 -0.268866 0.232059 0.175583 -0.131194 0.0717716 -0.0344055 0.182017 -0.135392 0.0265423 -0.145522 -0.0212979 0.274798 -0.0820363 -0.165478 -0.174622 -0.263484 -0.112827 -0.176699 -0.138521 0.0529235 0.238103 -0.141323 -0.247837 -0.278284 0.176561 0.292127 -0.119591 0.263436 -0.147043 0.0929966 -0.0224043 0.126207 -0.0890139 0.314334 0.149272 -0.145036 0.0838663 0.204344 -0.137655 -0.0132487 0.129216 -0.0350945 -0.193873
66 0.0565602 0.480371 0.313652 -0.132775 0.0573377 0.163455 -0.384872 -0.215225 0.154128 -0.017697 0.2207 0.0166648 -0.182031 -0.0772656 0.346751 0.330371 -0.00387582 0.00947773 0.234602 -0.0824379 -0.275305 -0.0244396 -0.256419 -0.413031 -0.2012 0.00553067 0.354981 -0.229876 0.0332106 -0.134196 0.148093 0.225802 0.0408663 -0.0968026 -0.172461 -0.212278 0.0755934 -0.02515 -0.0934089 0.237016 0.282878 0.0591775 0.105748 0.278669 -0.453245 -0.0826955 0.14147 0.00577442 0.143137 -0.387399 -0.346305 -0.240684 -0.135883 -0.0730506 -0.284486 0.30558 -0.123963 0.0473763 -0.150745 0.0926011 -0.0045448 0.0909304 0.0955592 0.31883 -0.298814 -0.0670212 -0.00838931 0.168986 0.0465427 0.190204 -0.235089 0.0493185 -0.05797 0.0363178 -0.00773185 0.376297 -0.00211327 0.317425 -0.199485 0.413168 0.136455 0.153081 0.275219 -0.0217493 -0.0219112 0.253499 0.150292 0.220849 -0.142576 -0.0868267 -0.0969624 0.109128 -0.0516063 -0.0157375 0.131078 -0.248679 -0.151586 -0.183077 0.0106878 -0.275463 -0.231023 -0.197711 -0.15591 -0.0519572 0.00710393 -0.307948 -0.139577 0.0211861 -0.237092 0.156163 0.143504 -0.0892434 0.148131 -0.117385 0.382527 0.267379 -0.0772044 -0.122934 0.0520739 0.159196 -0.0594753 0.0219514 0.0412113 -0.379738 -0.103471 0.107497 -0.224253 -0.0509964
67 0.125102 0.433679 0.196737 -0.101491 -0.171741 0.130121 -0.393048 -0.268075 0.213803 0.0439645 0.00954717 0.176769 -0.116079 -0.1948 0.232332 0.302635 -0.189792 0.155078 0.205091 -0.112557 -0.271783 0.090961 -0.312184 -0.303286 -0.0211951 0.129994 -0.0111377 -0.153401 0.0318854 -0.445692 0.171408 0.163236 0.378175 -0.0151974 0.0564418 -0.19617 0.0795888 0.0178356 -0.0273948 0.347639 0.291502 0.0540487 0.0753444 0.0852658 -0.428083 -0.281912 0.0737275 0.199703 0.27409 -0.349376 -0.174207 -0.14556 0.0163174 0.00755819 -0.0663911 0.178719 -0.323339 0.139457 -0.00829628 0.0173374 -0.153886 0.0646263 0.0339871 0.1088 -0.148205 -0.00983332 -0.0513759 0.106103 -0.0180063 0.163555 -0.0298194 0.25967 -0.0600556 -0.376505 0.135281 0.134446 0.048542 0.223094 -0.0825346 0.393079 0.106573 0.0976693 0.153496 -0.0310577 -0.0642829 0.164789 0.132913 0.188731 0.0581563 -0.193444 0.0596824 0.260596 -0.137744 -0.231958 0.167651 -0.346095 -0.0186454 -0.329395 -0.0635013 -0.286226 -0.244089 -0.177052 -0.085729 -0.00817084 0.142367 -0.0873799 -0.0743154 -0.0450736 -0.324501 0.0620525 -0.139855 -0.114744 0.0560194 -0.0111441 0.24452 0.0957858 0.0225317 0.0477293 0.19928 -0.200678 -0.209924 0.230785 0.132271 -0.318105 -0.152171 0.130795 -0.134712 -0.11456
68 -0.098931 0.0720248 0.00231392 -0.0487656 -0.0863623 0.201124 -0.187013 -0.164066 0.0983279 -0.373069 -0.206128 0.311641 -0.192033 -0.285189 0.157077 0.0977217 0.0941438 0.105008 0.223985 -0.136429 -0.103695 0.0612545 -0.0497611 -0.233623 0.0252127 0.0926857 -0.153183 0.0454543 0.157473 -0.418478 0.172518 -0.111459 0.0559519 -0.0430951 -0.15467 -0.196922 0.107503 -0.151963 -0.158724 0.236847 0.221065 0.0939421 0.00103314 0.220793 -0.282933 -0.429269 0.218063 0.322088 0.0953884 -0.0374621 -0.167342 -0.178816 0.0935104 -0.0884028 0.230382 0.139262 -0.130301 0.193338 -0.140154 0.161587 -0.0790112 0.206843 -0.0890562 0.0876876 -0.115278 0.0192281 0.0788255 0.124089 -0.127168 0.227686 -0.12885 0.0588862 -0.156397 -0.319708 0.185473 -0.153682 0.0493536 0.099303 0.217345 0.0600833 -0.210421 0.0914811 -0.0276965 0.0770272 -0.11843 0.192842 0.0963604 0.0948622 0.109743 -0.305798 -0.0888563 0.180804 -0.268803 0.0416106 0.109739 -0.304722 0.103426 -0.16471 -0.291354 -0.0553963 -0.0303398 -0.303653 -0.106729 -0.120488 0.202978 -0.102792 -0.0809628 -0.0464509 0.121518 0.0895231 -0.0983248 -0.260737 0.0973323 -0.171743 0.139242 0.00903723 -0.101253 -0.106245 0.159473 -0.141697 -0.151287 0.163926 0.239276 -0.0781466 -0.131749 0.0647006 -0.204372 -0.260676
69 0.138341 0.229282 0.086444 -0.0556582 -0.33071 0.0947229 -0.253788 -0.160674 0.098859 -0.410398 0.00923001 0.195456 -0.142062 -0.2958 0.110244 0.0987726 0.0893861 0.185543 0.124533 -0.0735433 -0.264987 -0.0121809 -0.0388171 -0.338699 0.150118 0.11562 0.0617998 0.133671 -0.0645263 -0.188617 0.207072 -0.0348819 0.207085 -0.083376 -0.058687 -0.112807 0.181321 -0.0556948 -0.108465 0.190512 0.106426 0.182725 0.132576 0.221254 -0.0559481 -0.45767 0.0941075 0.330631 0.227474 -0.139674 -0.182567 -0.101203 0.0122043 -0.0933981 0.276006 0.161045 -0.24379 0.0793023 -0.115612 0.143528 -0.0835042 0.132674 -0.0053654 -0.0194761 -0.115884 -0.095074 -0.0411058 0.245271 -0.21059 0.422893 -0.143486 0.173525 -0.0461387 -0.259906 0.167253 -0.00318148 0.13694 -0.00587289 0.0558123 0.0313905 -0.184761 0.0877095 0.110789 0.099797 0.0812183 -0.0644531 0.0793201 -0.0220633 0.123339 -0.248251 0.20105 0.294196 -0.1236 -0.00447611 0.118087 -0.220042 0.377956 -0.253483 -0.0624336 -0.130298 -0.145215 -0.286858 -0.0204246 -0.247612 0.117303 0.00842817 -0.129055 -0.175857 -0.0799108 0.157203 0.0471269 -0.391568 0.0579802 -0.231291 0.113254 0.286578 -0.162473 0.0767542 0.11518 -0.00930235 -0.0920092 0.0794463 0.205098 -0.130593 -0.130719 0.0623165 -0.153578 -0.186389
70 0.318338 -0.11692 0.130713 -0.146554 0.208629 0.0611048 -0.309427 -0.0162888 0.136153 -0.00757961 0.0739367 0.200122 -0.219303 -0.0288078 0.199659 0.165473 -0.109409 0.0388946 0.0769316 -0.167692 -0.268146 0.287756 0.0978036 0.0188197 -0.142498 0.077586 -0.0839746 0.364082 0.0565283 -0.277312 0.304135 0.170554 0.00506858 -0.00629355 -0.28872 -0.0559449 0.143826 -0.140692 -0.0259193 0.248424 0.0510914 0.116844 0.0333298 0.107198 -0.332045 -0.133907 0.292135 0.065168 0.38914 -0.118474 0.0471535 -0.123672 0.103097 -0.064345 0.311097 0.184566 -0.0076345 -0.0988965 0.00555851 0.248069 -0.337557 0.166396 0.192468 0.0459659 -0.250922 -0.166157 -0.119929 0.0580278 0.0472905 0.149461 -0.099532 -0.138896 -0.0959503 -0.430625 -0.301308 -0.085284 0.0743863 0.11565 0.264136 0.0365986 -0.209006 0.169361 0.107487 0.0591104 -0.216708 -0.0045854 0.0954397 0.0484326 -0.160796 -0.0623907 0.0705374 0.021372 -0.166116 -0.179096 0.129617 -0.346677 -0.0565312 -0.0726431 -0.208188 -0.166543 -0.260643 -0.193386 -0.19716 -0.201398 0.0139066 0.137183 -0.22257 0.00656037 -0.0538928 0.00479298 0.0739375 -0.210763 0.0241448 -0.264493 0.0471418 0.137872 -0.0471291 -0.30639 0.108023 -0.188188 -0.126085 0.0229061 0.103259 -0.0934608 -0.0151507 -0.0502168 -0.0882683 0.0186839
71 0.0984866 -0.300805 0.104224 -0.133384 0.384018 -0.0102593 -0.385342 -0.126195 0.199323 -0.101158 0.0520872 0.0185371 -0.215721 -0.225814 0.21695 0.0889538 -0.197429 0.194432 0.295921 -0.149893 -0.124427 0.33064 0.0361719 -0.127046 0.252275 -0.0786133 -0.174411 0.30281 -0.0768853 -0.547543 0.316132 0.188036 -0.208744 -0.121577 -0.255318 -0.263799 0.054957 -0.215186 -0.192171 0.339876 0.0764974 0.106904 0.215795 0.123095 -0.44264 -0.183449 0.139283 -0.188079 0.165662 -0.168372 0.0913812 -0.0999092 -0.210665 -0.121575 0.26455 0.178053 0.0870681 0.02518 -0.0892233 0.057434 -0.617244 0.156888 0.181556 0.106968 -0.0233104 -0.00467644 -0.372707 0.0888385 -0.0908101 0.275504 -0.0305925 -0.528847 -0.0828937 -0.083712 -0.275184 -0.420192 0.484242 0.180414 0.0590484 0.570688 -0.217069 0.117616 0.196843 -0.00406496 -0.596515 0.0406228 0.0830387 0.11968 -0.260102 -0.00972151 -0.0311409 0.0534178 -0.253112 -0.0687554 0.285937 -0.260332 -0.0462854 0.137313 -0.218304 -0.0351777 -0.193302 -0.253433 -0.28787 -0.279805 0.229728 0.176478 -0.266346 0.139881 0.169775 -0.00538529 -0.104489 -0.353197 0.0491876 -0.175478 0.0431953 0.104441 -0.0823547 -0.324186 -0.0888646 -0.461611 -0.0915421 0.202919 0.466051 -0.105022 0.0223577 -0.141556 -0.0948204 -0.137537
72 -0.138077 0.238697 0.0104566 -0.109601 -0.179747 0.222302 -0.192209 -0.149418 0.0827406 -0.0340009 -0.073434 0.382239 -0.121816 -0.114465 0.119883 0.226968 0.0321722 0.126198 0.182326 -0.144011 -0.113943 0.0809591 -0.0734311 -0.0184599 0.0153906 0.168046 -0.213277 0.164389 0.406416 -0.222163 0.176938 0.0600865 -0.0675018 -0.0381964 -0.112797 -0.0816681 0.29265 -0.07841 -0.0382479 0.13527 0.181224 0.259556 -0.0602806 0.0741695 -0.0720303 -0.424727 0.0196477 0.465464 0.265631 0.0354263 0.0412234 -0.23087 -0.26341 -0.0481062 0.358396 -0.00682059 -0.253756 0.0400372 -0.201873 0.328222 -0.0290857 0.196258 -0.0122648 0.072293 -0.110981 0.01339 -0.179792 0.305145 0.0324179 0.290305 -0.09336 0.0628365 -0.0848135 -0.400786 0.409391 -0.0245326 0.116747 0.0343978 0.434756 0.17763 -0.36989 0.0610818 0.206101 0.0842144 -0.00221077 -0.352139 -0.158369 -0.0850122 0.0729696 -0.177626 0.254694 0.26293 -0.282414 0.161531 -0.00536834 -0.242276 0.47607 -0.141047 -0.0160249 -0.219583 -0.236957 -0.106793 -0.113052 0.0785055 0.222763 -0.323093 -0.119038 -0.18141 -0.416765 0.0795983 -0.0770586 -0.200025 0.0381762 -0.278935 0.127657 0.1105 -0.187851 0.0286506 0.137654 -0.12372 -0.148306 0.161713 -0.166206 -0.119382 0.0525199 -0.124256 -0.00325434 -0.134324
73 0.133259 0.219774 0.057392 -0.0776292 0.052151 0.129303 -0.12102 0.0490609 0.174196 0.298221 -0.038066 0.319655 -0.206839 -0.139261 0.233346 0.110501 0.133039 -0.00205625 0.193508 -0.158777 -0.234934 0.114317 0.151109 0.0416507 -0.16568 0.24392 -0.504977 -0.0278442 0.171984 -0.136448 0.223715 0.216276 -0.142159 -0.142908 -0.0417102 -0.107071 0.090954 0.0951808 -0.139607 0.361605 0.0563576 0.139865 0.143533 0.137366 -0.311603 0.035849 0.120014 0.297874 0.377764 -0.18073 -0.0198717 -0.215771 -0.295405 -0.18033 0.0431499 -0.14442 -0.252106 0.0832537 -0.221212 0.1934 -0.0775362 0.167401 0.146058 -0.0281837 -0.163823 -0.330331 -0.253169 0.0219374 -0.0189658 -0.162831 -0.247255 0.0559765 -0.0914814 -0.153668 0.222618 0.243665 0.0725036 0.186028 0.208799 0.385518 -0.182672 0.0767409 0.0284488 0.256173 -0.0960672 -0.084039 -0.218683 0.0577289 0.0349865 -0.135237 0.258614 0.12651 -0.325199 0.0205352 0.364307 -0.106264 0.250623 -0.0215531 -0.091149 -0.20186 -0.206178 -0.246481 -0.179978 -0.188235 -0.143293 -0.0192544 -0.147847 -0.200639 -0.233977 0.237023 0.24344 -0.211158 0.138332 -0.185949 0.115065 -0.233555 -0.0145093 -0.0497466 0.18636 -0.648505 -0.135012 0.199152 -0.025171 -0.185359 -0.0349265 0.00572894 -0.268851 -0.155339
74 0.268745 0.207024 0.0489064 -0.153125 0.168499 0.121943 0.0215385 -0.089057 0.15322 0.29198 -0.243937 0.325445 -0.23337 -0.082296 0.25569 0.203085 0.113148 0.177107 0.155227 -0.0925087 -0.216321 0.12295 -0.00574712 0.230981 -0.063564 0.243698 -0.440352 0.0169828 0.149961 -0.0738164 0.273611 -0.0133023 -0.0895994 -0.126325 0.0121385 -0.113352 0.174171 0.00149993 -0.0831394 0.187174 -0.00717535 0.147047 -0.0135927 0.134858 -0.329218 -0.0962125 0.161589 0.346384 0.368128 -0.162748 -0.0134189 -0.224504 -0.069868 -0.142778 -0.00506356 -0.0449539 0.00200286 0.184257 -0.14757 0.213458 -0.0307513 0.196697 0.0787818 -0.0865476 -0.219668 -0.0218773 -0.0729814 -0.0202335 0.0885751 0.15749 -0.255113 0.00288562 -0.209358 -0.280406 0.0533965 0.0954506 -0.00170026 0.250994 0.113882 0.184039 -0.195148 0.16035 0.0235437 0.177607 -0.0284003 0.179843 0.0410668 0.10462 -0.143945 -0.22114 0.0871085 0.124902 -0.260272 0.037564 0.35948 -0.255367 0.154021 -0.136176 -0.152395 -0.160892 -0.130587 -0.173716 -0.112343 -0.150365 -0.0922268 -0.135239 -0.0906977 -0.0706563 -0.0510509 0.176057 -0.0541703 -0.168343 0.0627283 -0.286095 0.204796 -0.194179 0.00427959 -0.124646 0.114457 -0.248754 -0.14161 0.174301 -0.0424839 -0.202266 -0.101743 0.079851 -0.218721 -0.214471
75 0.227513 0.0758868 0.0527331 -0.132517 -0.209535 0.190179 -0.565744 -0.0236905 0.10913 0.00564271 0.30631 0.131251 -0.187116 -0.235968 0.269169 0.00156232 -0.0316662 0.123682 0.124334 -0.154491 -0.180323 0.162844 0.0564686 0.265608 0.091073 0.144533 -0.413589 0.217189 -0.0624691 0.0978731 0.273006 0.0974745 0.143919 -0.0103177 0.161085 0.159367 0.124253 0.130278 -0.233973 0.135538 -0.0167524 0.199704 0.190719 -0.0324189 0.193357 -0.186045 0.160846 0.195291 0.251117 -0.126382 -0.190498 -0.273964 -0.0858578 -0.0639951 0.255528 -0.0167547 -0.422057 0.0624617 -0.201938 0.465463 -0.250118 0.231997 0.255656 0.0416285 -0.135422 -0.485475 0.116428 0.00306279 -0.0106101 0.420265 -0.128961 -0.374136 -0.15473 -0.0300149 0.198322 -0.233048 0.330041 0.213291 -0.0125411 -0.00582273 -0.084455 0.18197 0.216004 -0.102855 -0.162064 -0.212261 0.0581832 -0.00308083 0.055172 -0.0115276 -0.0432048 -0.0444037 0.147168 -0.141873 0.214874 -0.147951 0.0746217 -0.0236182 -0.283244 -0.135934 -0.171298 -0.121352 -0.233557 -0.180505 0.28035 -0.238046 -0.177849 -0.195898 -0.244156 0.197746 0.17359 -0.100667 0.326719 -0.226653 0.110054 0.162352 -0.0893032 0.0263892 0.227766 -0.0968691 -0.0925165 0.151265 0.0811933 0.108581 0.0914079 0.129207 -0.0770505 -0.00630637
76 0.452147 0.229464 0.112922 -0.245114 0.268519 0.270636 -0.445461 -0.158094 0.205124 -0.17159 0.311761 0.0785201 -0.124288 -0.0264663 0.1786 0.0549817 0.191082 0.139869 0.111033 -0.150984 0.238168 0.247195 0.305608 0.44888 -0.237806 0.184148 -0.139074 0.125249 -0.117879 0.267607 0.222528 0.248663 0.148994 -0.0653944 0.177879 -0.0380171 0.137699 0.0966883 -0.209797 0.0733049 0.0576051 0.224462 0.143112 0.191111 0.328727 0.148771 0.343563 0.0555824 -0.02413 -0.254654 -0.199616 -0.136485 -0.147655 -0.180593 -0.0670429 0.149819 -0.229554 0.0106878 -0.152462 0.426379 -0.572133 0.263002 0.221968 0.280876 -0.111928 -0.267246 -0.0344134 -0.0456603 0.0851334 0.270096 -0.306631 -0.334685 -0.0813725 0.159984 0.135825 -0.209481 0.351684 0.169135 0.129325 -0.17891 -0.128947 0.0523996 0.264384 0.0304845 -0.0160433 -0.30429 0.0842809 0.0832477 -0.198399 -0.0470016 -0.000602188 -0.160929 0.167918 -0.158648 0.146374 -0.0675039 -0.147397 -0.105622 -0.184694 -0.0308613 -0.129306 -0.0890364 -0.190682 -0.353148 0.102783 -0.544662 -0.172275 -0.372888 -0.0576463 0.131627 0.321961 0.181451 0.236499 -0.123558 0.0646613 -0.0655483 -0.251388 -0.110203 0.361124 -0.0110145 -0.161059 0.108488 -0.0492505 -0.0525901 0.640444 0.107393 -0.105192 -0.148851
77 0.321266 -0.0381594 0.0250863 0.0474947 -0.21173 0.257711 -0.101232 0.047154 -0.00906342 -0.289889 -0.043857 0.1006 -0.091091 -0.205058 0.14316 0.229022 -0.0739013 0.246144 0.202914 -0.0281817 -0.156617 0.0591397 -0.117549 -0.10947 0.0734644 0.285724 -0.109673 0.0481081 0.111223 -0.0657949 0.180943 0.0298729 0.0531722 -0.204748 -0.0990439 -0.145549 0.0499724 -0.199979 -0.12307 0.14205 0.0598893 0.125833 0.250217 0.0780886 -0.2499 0.0603005 0.275324 -0.0125499 0.238281 -0.111273 -0.154353 -0.209871 0.0509811 -0.167136 0.041758 0.208763 -0.305844 0.0507046 -0.113864 0.0791743 -0.334635 0.139917 -0.120186 0.195144 -0.133296 -0.0853388 -0.0104221 0.247422 -0.0280807 0.0413294 -0.159524 -0.103546 -0.160401 -0.273452 0.199455 -0.0189018 0.202018 0.314024 0.121368 0.0901747 -0.107102 0.0733729 -0.282111 0.234499 0.256487 -0.356054 0.054274 0.248804 0.00821067 -0.15878 -0.119697 -0.152762 -0.0225159 -0.0684424 0.00843638 -0.322686 -0.0403486 -0.0775244 -0.24447 -0.16513 -0.1403 -0.268469 -0.254414 -0.317825 -0.097821 -0.267345 -0.0953764 0.0180023 0.19869 0.273634 -0.229045 -0.152044 0.0109111 -0.207363 0.138664 0.213877 -0.08827 -0.0778819 0.0873251 -0.140198 -0.134184 0.0568431 0.0867498 -0.0573883 -0.0135394 0.191576 -0.0384068 -0.133184
78 0.318719 0.105489 0.244048 -0.125052 -0.153843 0.0465333 -0.0529576 0.0605432 0.114593 -0.126942 -0.144526 0.0716123 -0.195021 -0.0678469 0.288673 0.216883 0.0471578 0.278419 0.251666 -0.091311 -0.222104 0.188068 -0.144318 0.0356512 -0.0221214 0.205903 -0.0532078 -0.0144326 0.151236 -0.210213 0.0876006 0.0139253 0.046504 -0.17015 -0.0427645 -0.166994 0.097002 -0.16289 -0.161341 -0.0290533 0.111958 0.157352 0.0554762 0.116388 -0.113861 -0.049597 0.173927 0.0760858 0.165481 -0.104069 -0.256022 -0.254615 0.144078 -0.125985 0.06119 0.133099 -0.193017 0.0985532 -0.243478 0.030901 -0.171299 0.0990274 -0.0377921 0.093531 -0.113013 -0.037193 0.156223 0.191734 -0.0474837 0.188206 -0.081691 -0.0578199 -0.110539 -0.0574374 0.235602 -0.23463 -0.0251743 0.220148 -0.0584412 0.190729 0.0191529 0.0378877 -0.0981689 0.248677 0.446321 -0.331336 0.14359 0.247753 0.0350569 -0.105713 -0.429097 -0.13929 -0.0891003 0.00167193 0.177969 -0.273081 0.0512275 -0.00571447 -0.23122 -0.198677 -0.0896723 -0.0690883 -0.173194 -0.125979 -0.0266427 -0.20009 -0.126392 -0.0800082 0.079006 0.216881 -0.0920087 -0.17275 0.0591229 -0.234605 0.251148 0.0607305 -0.119458 -0.2285 -0.0685087 0.0670842 -0.0792623 0.0566158 0.104917 -0.0898829 0.0840501 0.19115 -0.123194 -0.302297
