1005 128
0 0.0135876 -0.319236 -0.0185228 -0.0890161 -0.145655 0.122158 0.412967 0.0661237 -0.0658676 0.136508 0.150558 0.0231195 -0.0150565 0.0639181 0.302168 0.170721 0.271327 -0.156548 0.139956 0.156796 -0.267549 -0.18929 0.0637839 -0.157964 0.0980298 0.0278906 -0.0660905 -0.0526705 -0.0216023 0.19714 0.255297 -0.0572767 0.143153 -0.226923 0.13139 -0.00398363 -0.375379 0.162396 0.157057 -0.0657321 -0.0305542 -0.137531 -0.073651 0.182327 0.117955 -0.0966819 -0.106153 0.152539 0.0512681 0.0492692 0.148688 0.131029 -0.0720982 0.0375875 -0.156507 0.383416 0.0784527 -0.176521 -0.21133 0.0206718 0.0786713 0.04904 -0.0823691 0.056432 0.0129349 -0.197122 -0.0616411 0.217583 0.04636 0.117159 -0.183872 0.0815514 -0.290181 -0.0425918 -0.0285981 -0.298639 -0.153401 0.36397 -0.120549 -0.0390111 0.350562 0.0772701 0.365347 0.143947 0.202196 -0.0531272 -0.158363 0.145549 0.260721 -0.165767 -0.0876021 -0.0692258 0.0297469 0.123453 0.0698456 -0.0141237 -0.214216 -0.307435 -0.0065894 0.105406 0.0161441 0.00268341 -0.0125441 0.013478 0.304332 0.16639 0.354486 0.0405187 -0.140862 -0.151326 0.162159 -0.165971 0.0864631 0.0977438 0.140047 -0.259639 -0.250632 -0.0660976 0.179208 -0.26608 0.00935238 0.0627482 0.221365 -0.0543914 0.00835449 0.100092 0.155528 0.0916229
1 -0.102706 -0.196289 0.000946704 -0.0420645 -0.125609 -0.192511 0.287924 -0.0516624 -0.0451263 -4.84407e-05 0.133483 0.111934 0.0368766 0.0427924 0.137937 0.0662401 0.19473 -0.0388389 0.0284728 0.283451 -0.333927 -0.00124873 -0.0631001 -0.241484 -0.0233309 -0.0951094 -0.218512 0.0170859 0.35733 0.237726 0.0967552 -0.0276275 0.297322 -0.357 0.0631878 -0.0646207 -0.1455 0.0632307 -0.206285 -0.113046 -0.0441638 0.0568984 0.116723 0.0821831 0.0227112 -0.0895283 -0.245312 0.179513 0.0776189 0.142217 0.102354 -0.043211 -0.121018 -0.040624 0.0436394 0.144479 0.17192 -0.0767073 -0.0248865 0.00309975 -0.184551 -0.416995 0.0135682 0.0987605 -0.241122 -0.142552 -0.128945 0.203814 -0.0729874 0.0379207 -0.148269 0.0272014 -0.10832 0.0495418 -0.201061 -0.579555 -0.150184 -0.0389347 -0.000772125 -0.0575442 -0.0194492 0.0361063 0.196916 0.42335 0.269181 0.109305 -0.0872201 0.0280452 0.0782697 -0.0936457 0.0453593 -0.0983862 -0.149843 0.241938 -0.107471 -0.00141078 -0.114332 -0.166516 -0.0168417 0.0387985 -0.0434104 0.0575918 0.0480182 -0.0408039 0.402482 0.149334 0.0421427 0.0424089 -0.0909999 -0.122868 -0.101259 -0.120681 0.31106 0.312915 0.206825 -0.0189032 -0.118414 -0.187541 0.0434427 -0.435061 -0.150945 0.189174 0.0538344 -0.17295 0.022627 0.106404 0.0562014 0.02376
2 -0.152651 -0.0141038 -0.110661 -0.412316 0.0542867 -0.053639 0.0530888 0.0804138 0.131595 0.143713 0.135893 0.00358522 -0.0469494 0.143035 0.19207 0.252681 0.295369 -0.186648 -0.0205429 0.0773755 -0.0159332 -0.0437535 0.0653823 -0.184427 -0.1423 -0.149014 -0.0109826 0.0863006 -0.0489355 0.160788 -0.0625904 -0.06887 0.143688 0.00464074 -0.106015 0.00985309 -0.230351 0.212829 -0.260604 -0.141483 -0.252958 -0.236427 -0.174668 0.169873 -0.0414388 0.056025 -0.090139 0.129569 0.422468 0.190374 -0.0052956 0.155579 -0.107954 -0.119227 -0.321096 0.100848 -0.0792118 0.00947697 -0.668194 -0.0818813 0.235151 0.0391568 -0.091787 0.223388 -0.0850054 -0.0857589 -0.0116315 0.0715249 -0.237779 0.185583 -0.0750586 0.282368 -0.0887436 0.237844 0.0103565 -0.0688956 0.00448162 0.0418491 0.0601546 0.11953 0.160511 0.0693047 -0.183482 0.15152 -0.0793146 0.0755206 0.233868 -0.295444 0.021533 -0.4268 -0.0059083 -0.0979681 -0.10989 0.00472584 -0.0247566 0.199009 0.0425343 -0.127939 -0.166114 0.0614272 0.381696 0.0531568 0.0447489 0.219592 0.150054 0.0756832 -0.128166 -0.0187352 0.0035924 -0.006288 0.208885 -0.124851 0.0145868 -0.0172246 0.0868856 0.311605 -0.0134181 0.0211611 0.0868982 0.0651459 -0.0109711 -0.0970892 0.160821 -0.262693 0.544161 0.454277 0.0419862 0.00884709
3 -0.174793 -0.0315894 -0.0930207 -0.243602 -0.0223821 -0.210934 0.0555203 0.139272 -0.101508 0.00127447 -0.0217835 -0.100904 0.0203316 0.0942649 0.092357 0.134505 0.0217905 -0.13087 0.0953029 0.152896 -0.370606 -0.111993 -0.213995 -0.0516294 -0.125068 -0.0055966 -0.0780975 -0.112553 0.168488 -0.0179213 0.0373336 -0.292796 -0.0537458 0.0198548 -0.120482 -0.0259083 -0.0908326 0.136455 -0.0150668 -0.127311 -0.039426 -0.0210145 -0.019518 0.235629 0.0456563 -0.149381 -0.206392 0.0375387 0.428697 0.175055 0.0207926 0.0129411 -0.0962065 -0.168477 -0.293079 -0.0680229 -0.0790685 0.0501259 -0.558662 -0.0192052 0.147124 0.00918952 -0.0887499 0.0345303 -0.0815286 -0.164635 -0.0545722 -0.0412016 -0.187459 -0.0178695 -0.0874025 -0.0100208 -0.162073 0.0833583 -0.159936 -0.108913 0.100417 0.15969 -0.198011 0.0703284 0.151983 0.0049836 -0.0353967 0.163166 0.164844 -0.0918525 0.193114 0.0250871 0.046985 -0.39583 0.0124372 -0.217252 -0.394154 0.220484 0.0792124 0.191951 -0.160087 -0.25405 -0.146732 0.142565 0.314134 0.115985 0.144238 0.0196304 -0.152378 0.0101069 0.323624 -0.0810647 -0.129389 -0.0940308 0.543937 -0.0601146 0.13862 0.0620306 0.160412 0.654008 -0.118504 -0.113423 0.175791 -0.00921179 -0.11962 -0.0502956 0.152933 -0.104528 0.477472 0.410041 0.13715 -0.00442748
4 -0.140822 -0.206571 -0.131011 0.036345 -0.0937455 -0.370904 0.161047 -0.0519947 0.399811 0.00828963 0.134896 -0.167703 -0.118433 0.147853 0.0275411 0.246253 0.127286 -0.112652 0.0147916 -0.0886726 -0.106952 0.0462724 0.132979 -0.197614 -0.0464079 -0.120669 -0.0691917 -0.120903 0.182234 0.164695 -0.0186943 -0.144258 0.0670344 0.123238 -0.133797 -0.159183 -0.279476 0.0552334 -0.480409 -0.108532 -0.0203643 -0.0693182 0.1002 0.229978 0.173671 -0.0577107 -0.304844 0.245731 0.17769 0.111966 0.0448667 0.158319 -0.0848021 -0.025046 -0.143603 -0.0571632 0.00683484 0.063088 -0.112658 -0.0777808 0.0830067 -0.0451617 0.0600195 0.19905 -0.0498328 -0.0690613 0.0986351 0.0665925 -0.0992638 0.143594 0.0714936 0.412115 -0.0732381 0.36184 -0.115307 -0.0934224 0.243378 0.192486 -0.148349 0.280771 0.115106 0.00477052 -0.0289621 0.136531 0.0773145 0.0755897 0.107534 -0.131306 0.0810137 -0.596814 -0.0105634 -0.239012 -0.328594 0.0856377 -0.0803134 0.235774 -0.027286 -0.151003 -0.195288 0.207057 0.25 0.00569689 0.114182 -0.017259 -0.0134276 0.0952144 0.0278371 -0.0160537 -0.152923 -0.151496 0.191257 -0.0396815 0.127984 0.151812 0.156737 0.365679 -0.309079 0.0706526 0.0664006 0.00188338 -0.0369619 -0.0272966 -0.0190986 -0.0300171 0.274363 0.423117 -0.0707846 0.158042
5 -0.0804324 -0.0905733 -0.00373813 0.170208 -0.208938 -0.0896502 0.143214 -0.0649928 0.032771 0.133666 0.165772 -0.0513017 0.187382 0.0595486 0.0121962 0.146806 0.313479 -0.174863 0.0201775 0.0145383 -0.126369 -0.23898 0.110733 -0.0473909 -0.246333 -0.0984946 -0.0311381 -0.0649406 0.212511 0.038973 0.167354 -0.196492 0.265231 0.177325 -0.211584 0.0253026 -0.0319701 0.0802353 -0.255912 -0.157876 0.029507 -0.0540923 -0.142587 0.03619 -0.108595 -0.139995 -0.172383 -0.0703473 0.375202 0.158333 0.0213008 0.0742996 -0.332633 -0.0225712 -0.161026 0.04644 -0.0132246 -0.0415964 -0.138611 -0.0347102 0.215186 0.0327172 0.064294 -0.107211 -0.055059 -0.184229 -0.0770174 0.0307146 -0.1597 0.117806 -0.147468 0.100395 -0.0568576 0.268407 -0.119568 -0.139895 0.00634103 0.26566 -0.208692 0.0348752 0.244585 0.159183 -0.107688 0.0730635 0.306245 -0.0840579 0.0885025 -0.327658 0.034215 -0.272431 0.0174314 -0.296582 0.226253 0.132336 0.140013 0.189402 0.0559768 -0.0333176 -0.0680678 0.146764 0.206674 0.043483 0.0139049 0.125376 0.33596 0.186107 0.264514 -0.229924 -0.0214802 0.10778 0.109959 0.070794 0.010922 0.131789 0.137136 0.12728 -0.0958664 -0.273044 0.0206664 -0.0456359 -0.171794 -0.0770753 0.116487 0.0194562 0.272302 -0.0177327 0.134071 0.131963
6 0.0141185 -0.125684 0.00595361 -0.403398 -0.0870397 -0.357604 0.466204 0.158302 0.0974663 0.234146 0.0787059 -0.0137151 -0.0380436 0.151142 0.269969 0.149061 0.167746 -0.135506 0.0629156 0.0268924 0.00221177 0.133442 -0.0890748 -0.0527579 -0.122259 -0.176705 -0.119813 -0.316048 -0.125526 0.124667 0.0846408 -0.160512 0.0409698 0.109767 -0.137986 0.311155 -0.219734 0.25408 -0.429847 -0.167721 -0.100273 -0.153321 0.0609225 0.120578 0.0844948 0.0140824 -0.251171 0.148307 0.173183 0.213112 -0.123369 -0.00044305 -0.364148 -0.188109 -0.184596 0.099574 -0.0857824 -0.122756 -0.229448 -0.144166 0.33571 0.00853451 -0.205223 -0.0195085 -0.152065 0.0508696 -0.158736 0.0420468 -0.130268 -0.0706524 -0.0900166 0.106856 -0.0407924 0.0187088 -0.134404 0.0865216 0.190699 0.132201 -0.168014 0.0616508 0.146725 0.0374717 -0.197292 0.288281 0.291225 0.149896 0.338179 -0.0570804 -0.0304662 -0.440989 0.0518237 -0.033268 0.0731194 0.102738 0.092005 0.286198 -0.196305 -0.281345 0.0643644 0.0652877 0.25514 0.0732389 0.209731 -0.129501 0.0229786 0.0863249 0.291362 -0.0777632 -0.158671 -0.00563352 0.00810911 -0.0379875 0.06863 0.128268 0.0201873 0.0587778 -0.0423802 -0.129295 0.116613 -0.050291 -0.193315 -0.104076 0.0284409 -0.218964 0.134377 0.107077 0.252202 0.064276
7 -0.052451 0.00996191 -0.141301 0.00856145 -0.188776 0.0255912 0.490558 0.0827625 0.139004 0.0321618 0.070465 -0.125967 0.2044 -0.0414883 0.174276 0.0771657 0.0613991 -0.189745 0.0739839 -0.0261785 -0.0167555 -0.168579 -0.221267 -0.0572348 -0.160221 -0.285338 -0.131324 -0.150396 0.0647647 -0.014954 0.422578 -0.131219 0.0629504 0.043435 -0.0669149 0.158598 -0.355616 0.266226 -0.1576 0.00368874 -0.0392822 -0.133865 -0.522103 0.0590827 0.109336 -0.186094 -0.0129162 0.0269876 -0.0407602 0.0626966 0.0471156 0.206025 -0.0616554 -0.353227 0.0408028 -0.0105986 0.55396 -0.216246 0.00741446 -0.0921004 0.134929 -0.368872 -0.0518976 -0.00980235 -0.0297983 -0.0987228 0.0841412 0.00989556 -0.102422 0.0157001 -0.221308 0.107125 -0.0735488 0.12392 -0.104074 -0.13848 0.0629134 0.0186965 0.00371502 0.06988 0.212795 0.165475 0.332 -0.171523 0.209891 0.0943479 0.153476 -0.36963 0.104817 0.0207076 0.114485 -0.0519065 -0.193659 0.100174 0.010208 0.231646 -0.192147 -0.146051 -0.278482 0.00995805 0.178363 0.0912666 0.0356451 0.0122888 0.281236 0.378117 -0.265147 -0.199883 -0.0520466 -0.0289869 0.397991 -0.0331522 0.16773 0.0326516 0.00195578 0.466853 -0.0752545 -0.00544939 0.0239506 -0.141031 -0.194023 0.17829 0.0315215 0.0232675 0.176476 -0.143893 0.111079 0.0295213
8 -0.0665714 -0.00574963 -0.469573 0.121592 -0.0207428 0.00110589 0.225649 -0.0452155 -0.00576386 0.124806 0.168252 0.0287598 0.47952 0.088654 0.0370641 -0.0351975 0.214538 -0.125936 0.101499 0.0322055 0.128667 -0.533294 -0.25957 -0.187999 -0.240967 -0.223895 -0.144579 -0.121803 0.110114 0.264225 0.555746 0.0298156 0.147099 -0.0234799 -0.0200797 0.105229 -0.278555 0.0936619 -0.247517 0.0535953 -0.148921 -0.0490118 -0.212283 0.0202348 0.00415036 -0.286289 0.0144982 0.171377 -0.00408273 0.101508 0.01196 0.148856 0.121285 -0.117745 -0.175456 0.153813 0.537196 -0.281969 -0.164471 0.0241055 0.167694 -0.148173 -0.0142017 0.0292724 -0.252133 -0.0895933 -0.130805 0.0617409 -0.210654 0.105403 -0.06915 -0.0359658 0.0134321 0.204538 -0.134863 -0.254024 -0.030361 0.0714944 -0.0152379 0.0927795 0.0118325 0.00359858 0.505354 -0.0242859 0.101514 0.117497 0.108381 -0.203955 0.304175 0.0139466 0.106413 -0.117612 -0.311022 0.0495743 -0.0317911 0.146259 -0.138599 0.0383807 -0.384964 0.174429 0.0788909 0.145954 0.0559378 0.187136 0.353437 0.120442 0.0378752 -0.159316 0.0414923 -0.103873 0.480468 -0.0676808 0.0149629 0.148783 0.197259 0.477737 -0.119071 -0.209557 0.116583 -0.207482 -0.0384212 0.414361 -0.0118849 -0.0445241 0.079529 -0.139537 0.107329 0.048906
9 0.0436701 -0.0559705 -0.491787 0.091319 -0.00880813 0.0992139 0.332103 -0.015468 0.070601 0.0458085 0.0489127 -0.0900695 0.21052 -0.0338011 0.0805877 -0.00386254 0.195641 -0.152422 0.0768608 0.235058 -0.0311422 -0.47979 -0.298931 0.0222737 0.00125096 -0.206897 -0.194291 -0.0158631 -0.00933214 0.133497 0.499727 0.0348649 0.0160669 0.12572 -0.356825 0.0811076 -0.452769 0.0692984 -0.216196 -0.0861771 -0.262217 0.0165754 0.0642819 0.122995 0.0767037 -0.2926 0.136398 0.0761053 -0.120363 0.147134 0.269979 0.18073 -0.229145 -0.489403 -0.0371219 0.174031 0.259073 -0.374023 0.0965256 -0.196266 -0.0382076 -0.0716371 0.102483 0.0957729 -0.11631 -0.211269 -0.0114295 0.0309548 3.18647e-05 0.0826829 -0.105036 -0.0327344 -0.14413 0.140364 -0.100517 -0.541916 0.0489445 0.0276568 -0.236961 0.148775 -0.100827 0.106269 0.568736 -0.107053 -0.068315 0.0947194 0.131158 -0.172029 0.135052 0.104285 0.142564 -0.186055 -0.607085 0.224261 0.245711 0.0533174 -0.193705 -0.146516 -0.247053 0.127509 0.0353027 0.0940168 0.116276 0.41213 0.377521 0.053066 -0.153618 -0.370645 -0.203684 -0.00312152 0.310318 -0.0550069 0.161537 0.218465 0.0968567 0.542798 -0.135054 -0.058349 0.127747 -0.481405 -0.144875 0.178938 0.192737 -0.0763826 0.0932449 -0.100367 0.137345 0.193479
10 -0.0120242 -0.361387 -0.262588 0.0255436 -0.0986122 -0.201789 0.02156 0.42485 0.140501 0.302677 -0.0292688 -0.124312 0.223458 -0.0892469 0.126371 0.125304 -0.0163569 -0.0501528 0.0613484 -0.0383477 -0.0817876 -0.12026 0.15393 -0.150019 -0.31548 0.0253088 -0.120891 -0.0941043 0.219359 -0.106198 0.101131 -0.200133 0.229902 0.18835 -0.0450689 0.232429 -0.0502425 0.0838322 -0.202819 0.0210506 -0.00709403 -0.202045 -0.116688 -0.0414324 0.0630596 0.00048443 -0.161164 0.10564 -0.057105 0.129199 0.0852209 0.120102 -0.0531653 -0.0816408 -0.043816 0.0265259 0.0383341 -0.0560892 -0.209446 -0.0101928 -0.101276 0.0192714 0.302264 0.179322 -0.183182 -0.0511726 0.0456714 0.128823 -0.0126079 0.0944781 -0.0146085 0.261593 -0.225368 0.335352 -0.00890035 -0.0578047 -0.474763 0.252335 -0.0765018 0.184593 0.21493 0.0642484 0.399285 0.0785613 0.100943 0.221637 -0.0398041 -0.028016 0.0294274 0.229236 0.203982 -0.168195 0.0556223 0.0561988 0.0122549 0.151323 -0.141179 -0.113906 -0.138119 0.0798809 0.107813 0.160568 0.148763 0.0283914 -0.0316164 0.202874 0.203213 -0.0790122 -0.236352 0.113954 0.292046 -0.177846 0.238811 0.103427 0.187216 0.23693 -0.0188388 -0.0113411 0.0517917 -0.14222 -0.0337059 0.0653897 0.131245 -0.126008 0.178419 0.271816 0.139885 0.0686975
11 -0.119377 -0.211124 -0.246403 -0.0783335 -0.0861819 -0.0541344 0.202433 0.0252558 0.240814 0.208892 0.108565 -0.0173765 0.237742 0.14623 0.131106 0.137132 0.123891 -0.236714 -0.0452022 -0.18095 -0.000702613 -0.480763 -0.105209 -0.170356 -0.261518 -0.12103 -0.0623381 -0.279134 0.0320106 0.108663 0.23402 -0.024739 -0.0314148 -0.0140299 -0.00906856 0.159631 -0.259438 0.123779 -0.0155579 0.00903787 -0.231701 0.0244439 -0.226123 0.116973 0.0391976 -0.131846 -0.128681 0.0965382 -0.152261 0.0762513 0.283759 0.0627626 0.026173 -0.309424 0.020623 0.0756833 0.519573 -0.102967 0.0710005 -0.0291478 0.142313 -0.146072 0.0306297 0.0956896 0.0100605 -0.094577 0.108337 0.0607344 -0.00198813 0.172327 -0.0251457 0.0596689 -0.127731 0.323362 -0.10276 0.0359358 0.0303233 0.25476 -0.13754 0.158306 0.0186007 0.128365 0.33892 -0.0697241 0.184963 0.190655 -0.0299205 -0.239031 0.125086 -0.162815 0.100732 -0.110413 -0.414914 -0.0459182 0.310201 0.0958717 -0.212911 -0.0267465 -0.106353 -0.0237251 0.306388 0.168895 0.0828533 -0.0032357 0.348134 0.188185 0.0771546 -0.252265 -0.109067 -0.0560756 0.0758429 -0.0181657 0.0512887 0.0210655 0.104639 0.542042 -0.241117 -0.147119 0.0204122 0.00983416 -0.0953974 0.0690032 0.120259 -0.00191317 -0.0303222 -0.0545299 -0.0325171 0.103843
12 -0.0790351 -0.0596273 -0.203218 0.0967699 -0.01238 -0.159413 0.0840365 -0.11887 0.280319 -0.072413 0.179897 -0.0956763 0.226586 0.0421543 0.148789 0.281742 0.225363 -0.228279 0.0440875 0.0158596 0.141491 -0.43867 0.00229205 0.00723799 -0.164926 -0.0438703 -0.155841 -0.124601 -0.0491752 0.0319472 0.489208 -0.00193515 0.111492 0.0476477 -0.124097 0.0663859 -0.285728 0.239471 0.120431 -0.024723 -0.149216 -0.145157 0.209314 0.210378 0.0307884 -0.229558 -0.0352808 0.12131 -0.0284185 0.0158245 0.2076 0.143528 -0.0978852 -0.293961 -0.146249 -0.0136444 0.640042 -0.224889 -0.259615 -0.14867 0.348777 -0.0593678 0.191359 -0.0568631 -0.0316348 -0.110908 0.160516 0.105542 0.0328842 0.158614 -0.116452 -0.0158206 -0.111913 0.22229 -0.0552541 -0.125152 -0.015564 0.05436 -0.217274 0.0141678 0.138381 0.074582 0.314242 0.0167227 0.209473 -0.00652277 0.154565 -0.0554746 0.437178 -0.037505 0.121923 -0.177422 -0.16247 0.254999 0.162276 0.127782 -0.130347 -0.250082 0.0364578 0.038167 0.219997 -0.015546 -0.00962532 0.118546 0.41287 0.214102 -0.291911 -0.0196433 -0.0939717 -0.0208881 0.245912 -0.0897212 0.275008 0.150365 0.00227543 0.333792 -0.128379 0.0279293 0.27655 0.0587332 -0.134649 0.0876411 0.00663405 -0.00434506 0.0388472 -0.0497193 -0.0437356 0.206092
13 -0.130492 -0.0120015 -0.118503 -0.0349578 0.0161767 -0.111444 0.144108 0.071668 0.383425 0.171655 0.015685 0.247272 0.143794 0.154266 0.0494674 -0.00465827 0.129404 -0.0319888 0.119362 0.211813 -0.093031 -0.0047348 -0.281003 -0.137645 -0.408648 -0.0757675 -0.0800208 -0.134215 -0.0264588 0.0658131 0.0422145 -0.0594504 -0.0538233 -0.0353287 -0.0850668 0.122344 -0.0451062 -0.0666405 -0.360415 0.0019004 -0.0457228 -0.192508 -0.00532346 0.0117134 0.139868 -0.148662 0.0715018 0.175039 0.14542 0.0610377 0.160975 0.0280536 -0.0885304 -0.0396324 -0.242611 -0.0141648 -0.0796721 -0.12459 0.0522855 -0.0874777 0.267984 -0.101789 0.276915 -0.0826744 -0.14223 0.0799637 -0.0224111 0.117405 -0.177206 0.119777 -0.198775 0.0584599 -0.0735173 0.121979 0.057698 -0.0252887 -0.152447 0.0398069 -0.0512768 0.109458 0.0884631 0.0972229 0.0122573 -0.0128378 0.0281878 0.123452 0.0356377 -0.201424 0.0952255 -0.0551852 0.0363175 -0.0360522 -0.0468276 0.186922 0.137718 -0.00411625 -0.0489788 -0.138142 -0.133868 0.242509 0.104291 0.151063 0.0988816 0.151254 0.105425 0.0648046 0.430998 -0.0439143 -0.0641076 -0.118759 0.285886 -0.0321983 0.170323 0.21908 0.130852 0.415186 0.12103 -0.103094 -0.0117892 -0.158489 -0.0275943 0.19083 0.163428 -0.0813843 0.177718 0.0211063 0.0570478 0.0813219
14 -0.00563231 -0.0605271 -0.118428 -0.159637 -0.127528 -0.151443 0.239546 0.332257 0.0291767 0.235113 0.0360985 0.463336 0.173769 0.0547322 0.0675239 -0.031887 0.0655561 -0.207158 0.0441015 0.206231 0.0355322 -0.122431 -0.226805 -0.033781 -0.352833 -0.124288 -0.141528 0.0144585 0.0718617 0.223322 0.354275 -0.05255 0.0104093 -0.413613 -0.0288231 0.197772 -0.0226251 -0.095823 -0.200532 -0.0795634 -0.218261 -0.105536 -0.298457 0.0379889 0.0288795 -0.125154 0.0983594 -0.0498028 0.156575 0.0569573 0.195927 0.100783 -0.105024 -0.0660313 -0.186443 0.212993 0.0360323 -0.306175 -0.00222966 -0.235055 -0.0770316 0.0992638 0.169402 0.544793 -0.134548 -0.176034 -0.214006 0.045411 -0.133324 0.0780112 -0.199458 -0.135029 -0.199045 -0.0353956 -0.179189 -0.337939 0.301037 0.156127 -0.109848 0.0256008 0.0861246 0.16874 0.188589 0.0269395 -0.104025 0.39505 0.0201946 -0.0177212 0.279812 -0.0865623 0.130337 -0.0902693 -0.0093116 -0.000127852 0.0258748 0.156145 -0.099313 0.00311881 -0.0846908 0.197366 0.130235 0.0170514 0.116294 0.302914 -0.0390843 -0.0031766 0.221907 -0.132422 -0.161857 -0.019122 0.106127 -0.129396 0.0268519 0.172986 0.0698958 -0.032025 -0.309114 -0.0189575 0.128508 -0.196702 -0.0178111 0.0523123 -0.0589045 -0.259146 0.0736446 -0.0343726 0.116078 0.135554
15 -0.0413669 -0.0503072 -0.0421805 -0.476993 0.000942463 -0.0817382 -0.022281 0.0837183 0.117448 0.090239 0.390021 0.0774362 0.256753 0.190147 -0.00546566 0.078499 0.159575 0.0281528 0.220525 0.326358 -0.263694 0.0407698 0.0399822 -0.13058 -0.0845428 -0.130468 -0.102831 -0.231349 0.133175 0.0705424 -0.143055 -0.0372541 0.112328 0.0661065 -0.290742 0.367162 -0.233644 0.206365 -0.48985 0.0166767 -0.211599 -0.198583 -0.370588 -0.0314498 -0.0279062 -0.00199367 0.0123746 0.185669 0.1746 -0.0207697 0.15995 0.00252926 -0.16379 -0.172954 0.142424 0.0142145 0.0903174 -0.335145 -0.0609229 -0.0387243 0.271807 -0.231166 -0.239509 0.0518118 -0.313509 -0.0651361 -0.00363371 0.0923124 -0.0120488 0.11272 -0.0908174 0.0684157 -0.0422217 0.114758 -0.193808 -0.0498714 -0.221748 0.0688944 -0.0596832 0.0998276 0.175729 0.212794 0.105742 -0.00641268 -0.0438024 0.195287 0.182356 0.00161497 0.165506 -0.136371 0.0626626 -0.0223498 -0.284282 0.245095 0.614625 -0.0697843 -0.00355406 -0.0776543 0.0095802 0.0243929 -0.111685 0.133818 0.0894557 0.211931 -0.222256 0.173608 -0.162957 -0.288155 -0.193936 -0.252692 0.544147 -0.063539 0.159098 -0.0952014 0.0594536 0.449546 0.13069 -0.185865 0.129352 0.117318 -0.0545794 0.210799 0.141909 -0.0876043 0.250671 0.0133369 0.126344 0.184869
16 -0.2586 -0.121066 -0.0614722 0.0590665 -0.128661 -0.29104 0.240661 0.176275 0.101101 0.0965027 0.194385 0.157315 -0.00250053 0.280476 0.24637 0.0594027 0.00263212 0.0276647 0.148464 0.0677832 -0.0862356 0.0400859 0.113106 -0.169303 -0.0122703 -0.0240897 0.0246622 -0.292875 -0.0599949 0.134226 -0.141716 -0.113955 0.0945752 -0.12645 -0.107824 0.241516 0.0463224 0.159183 -0.153954 -0.0295157 0.0273709 -0.115978 -0.195249 0.202548 0.0156409 0.0116224 -0.195597 0.046691 0.00651707 0.297266 0.239208 -0.0462146 -0.066385 -0.08434 0.0451729 0.137212 0.00809215 0.0712316 -0.0406743 -0.113434 0.215171 -0.211782 0.15088 0.0324298 -0.213753 -0.191269 -0.340155 0.0824569 -0.142706 0.0123852 -0.271906 0.197757 -0.0532595 0.0973009 0.0459207 -0.213945 -0.327555 -0.0234143 -0.223899 0.232709 0.220833 -0.0141499 0.0453905 0.0359145 0.401516 0.169385 0.15036 -0.0939564 -0.0578583 -0.544723 0.145196 -0.128661 -0.0273356 -0.0345502 0.13845 -0.0668811 -0.237474 -0.0327945 0.0281364 0.0385427 0.0684182 -0.00256761 0.184827 0.0596932 -0.149985 0.13374 -0.0948167 0.0875193 -0.0969909 -0.303615 0.199109 -0.194109 0.0303473 0.185042 0.244686 0.1371 -0.0982516 -0.0696958 0.179929 -0.0712686 0.0344657 0.117138 -0.0118859 -0.0888315 0.224863 0.254226 0.0657673 0.128805
17 -0.114107 -0.178249 -0.196071 0.0146489 0.0528196 0.0142956 0.342747 0.111573 0.167861 -0.0539838 0.130885 0.0535774 0.206266 0.0602233 0.0215595 -0.00214494 0.0973118 -0.0619241 0.0271552 0.095041 -0.0209634 -0.300371 -0.264024 -0.180411 -0.138014 -0.107166 -0.0771943 -0.0841678 0.207698 0.105471 0.00876612 -0.150696 0.105703 -0.963254 0.0430045 0.097226 0.230364 0.0450375 -0.238879 -0.104687 -0.0780035 -0.192383 -0.298712 0.178908 0.114818 -0.0866628 -0.163549 -0.0279116 0.154489 0.237692 0.0616558 0.157094 0.0190045 -0.088061 -0.155526 0.0874104 -0.0115357 -0.295415 -0.227672 -0.12345 -0.035518 -0.20228 0.0108907 0.160349 -0.0126978 -0.0509764 -0.465223 0.176051 -0.155089 0.0114701 -0.138964 0.0743236 -0.0776659 -0.141515 -0.102699 -0.144746 -0.347668 0.0932926 -0.0525597 -0.127185 0.082777 -0.0698009 0.0933961 0.204253 0.168376 0.0958811 -0.148845 -0.0824191 0.0463975 0.0315797 0.0461481 -0.0671343 -0.334517 0.21358 0.204167 0.138564 -0.0893288 -0.226536 -0.132563 -0.0598094 0.0126826 0.102885 0.186746 -0.171911 0.798875 0.205175 -0.019124 -0.117298 -0.138653 -0.249365 0.0420613 -0.0322239 0.110405 0.135054 0.0721797 -0.055248 -0.188295 -0.0715311 0.0679187 -0.0588463 -0.168323 0.24918 0.0568628 -0.234825 0.0530837 0.0213385 -0.0741094 0.0736464
18 -0.189953 -0.161017 -0.107779 -0.0160786 -0.229427 0.0890679 0.601422 0.213479 -0.0089214 0.000237633 -0.00556085 0.352235 0.216489 -0.0896158 0.0846231 -0.0292957 0.155275 -0.0891773 0.205121 0.237278 -0.06538 -0.159198 -0.101285 -0.0597645 -0.147785 -0.0924539 -0.210431 0.0463416 0.129281 0.0368584 0.299542 -0.0350421 0.0359842 -0.354765 -0.0728784 0.0862044 0.00662935 0.00949975 0.188387 0.0687009 -0.18771 -0.0227447 -0.140442 0.0285729 0.0663533 -0.216591 -0.191382 0.0670882 -0.225653 0.12323 0.165334 0.0775428 -0.0615887 -0.169889 -0.0963204 0.257171 -0.0986084 -0.0126503 -0.239392 -0.160097 0.0350673 0.0890588 0.0259527 0.0695686 -0.0540311 -0.1947 -0.125101 0.00958812 -0.0964046 0.0911797 -0.060442 -0.0500883 -0.0450753 0.162171 -0.103282 -0.206572 -0.505958 0.289698 -0.06968 0.00053638 -0.009211 -0.0736921 0.289087 0.0976866 0.0526183 0.210575 -0.167574 0.0316664 0.0750639 0.0567414 0.177344 -0.101098 -0.0850478 0.100469 0.113577 0.215447 -0.13007 -0.0987865 -0.0842327 0.062606 0.203868 0.121315 -0.127999 0.191357 0.0595805 0.239472 0.356858 -0.177663 -0.289004 -0.108216 0.0593 -0.077446 0.0270074 0.108255 0.107518 -0.184909 -0.15764 -0.121173 0.0707753 -0.541548 -0.168553 0.0513411 0.0104833 -0.156553 0.181916 0.0941806 0.0795202 0.0188337
19 0.0490779 -0.123445 -0.249085 0.0557729 -0.0223557 0.0629972 0.00235634 0.0913776 -0.0680975 -0.0473053 0.34856 -0.179564 0.50411 0.220911 0.272692 0.118337 0.111567 -0.138219 0.117849 0.0671351 0.0645727 -0.00482314 -0.169343 -0.124749 -0.153715 -0.049214 0.0620634 -0.114387 0.388304 0.184943 0.320987 0.0122013 0.225001 -0.0430704 -0.225373 0.000495457 -0.191358 0.131194 -0.0905561 -0.0746748 -0.100655 -0.0177039 -0.25291 0.204193 0.164967 -0.0885738 0.0297333 0.00661413 -0.0819243 0.0703266 0.19356 0.188766 -0.127722 -0.508632 0.0327848 0.0188665 0.355518 -0.161155 -0.12259 -0.136002 0.0901407 -0.11895 0.0670258 -0.00359782 0.0996343 -0.24145 -0.0406789 0.168468 -0.311222 0.0997454 -0.0892927 0.226032 -0.364486 -0.0473822 -0.0536591 -0.423698 -0.0157111 0.134756 -0.103158 0.0922538 0.0594941 0.170281 0.365558 0.0218765 0.451651 -0.0653723 0.300397 -0.205015 0.0494464 -0.108547 0.098793 -0.187699 -0.63209 0.198621 0.170839 0.0251409 -0.0478805 0.0530133 -0.10748 0.0471628 -0.0532897 0.0540896 -0.0678948 0.191278 0.321889 -0.0180083 -0.129755 -0.0646867 -0.0684596 -0.0536311 0.417262 -0.01297 0.103198 0.144338 0.020782 0.291125 0.00833332 -0.0764325 0.175025 -0.424448 -0.154541 0.163681 0.111487 -0.116494 0.0376562 -0.0451748 0.0838181 0.152809
20 0.0109104 -0.149972 0.0539753 0.106737 -0.385769 -0.244932 -0.0101273 0.136607 0.174452 -0.0665562 0.0102693 0.468875 -0.132087 0.0152403 0.104606 0.0144348 0.219608 -0.128912 0.13352 0.089719 -0.103787 -0.0705588 0.254535 -0.215105 -0.0384533 -0.204075 -0.245285 -0.0363772 0.21091 -0.00203726 0.237408 -0.173798 0.0257645 -0.192731 -0.00354312 -0.016204 -0.021485 -0.0585079 -0.107878 -0.0756112 -0.0872503 -0.076065 0.122453 0.13504 0.116382 -0.145864 -0.0376798 0.167304 0.172953 0.0645406 0.0212121 0.142753 -0.0200389 -0.274832 -0.332285 0.0719001 0.0483031 -0.085558 -0.0282908 0.0076384 0.0297088 -0.148826 0.0131347 -0.0440368 -0.000209253 0.0313782 -0.34229 0.0955869 -0.132767 0.0604848 -0.0634352 0.0369127 -0.0181763 0.0840302 -0.0403767 -0.204149 -0.341473 0.206077 -0.104601 0.0179678 0.321476 0.0341042 0.513353 0.425108 0.202716 0.108102 -0.21132 -0.13827 0.210781 0.0944873 0.0956995 -0.152004 0.0994251 0.0352873 0.326341 0.105674 -0.0916706 -0.0549224 -0.107406 0.0707894 0.285399 0.101012 0.247561 0.0183167 0.271476 0.0856094 0.257736 0.0268824 0.0395355 -0.053215 0.334504 -0.184014 0.124769 0.11607 0.0858899 0.0636965 -0.180914 -0.0534869 0.118597 0.00178308 -0.136296 0.064847 0.119149 -0.0889896 0.303246 0.364907 0.154091 0.138705
21 -0.127328 0.0790513 -0.0431811 -0.0139161 -0.215864 -0.0290366 0.0251295 0.0933568 0.0543616 0.218695 0.177272 0.249358 -0.121942 -0.122218 0.197538 -0.0474513 0.238192 0.00954054 0.0667439 0.0898004 -0.170891 0.0240635 -0.0816151 -0.0709124 -0.0986454 -0.0255688 -0.127601 -0.144947 0.0206985 0.245293 0.04865 -0.135097 0.234942 -0.367536 -0.0405868 0.176672 0.00670681 0.107402 -0.258689 -0.122243 -0.181821 -0.100935 -0.245631 0.111077 0.0586938 -0.115768 -0.0546404 0.146108 0.143424 0.151774 0.197265 0.0947409 -0.0893493 -0.146301 -0.0285536 0.0636696 0.0747145 -0.216084 0.127035 -0.167113 0.206825 -0.143525 0.269294 -0.00748631 -0.0311542 -0.211974 0.0320117 0.138701 -0.167272 0.00341925 -0.0481109 0.00886383 -0.0120797 -0.0178407 -0.159372 -0.403141 -0.69364 0.0308464 -0.153615 0.045333 0.0942441 -0.00773282 -0.02348 0.0540808 -0.0161961 0.145936 0.0207524 -0.18889 0.154838 -0.0214677 0.0895031 -0.00222639 -0.165253 -0.0250792 0.297545 0.11402 -0.194059 -0.0623008 -0.0247101 0.10906 0.129146 0.110507 0.0121824 0.139235 0.130372 0.204307 -0.176649 -0.0998324 -0.120268 -0.140133 0.450192 -0.312528 0.163658 0.124123 -0.0374118 0.126523 -0.286025 -0.180992 0.0339331 0.0205617 -0.165644 0.00653722 -0.0414468 -0.105362 0.00304074 0.284556 0.07025 0.0174058
22 -0.461695 -0.00605241 -0.537891 -0.221508 -0.0709008 0.205749 0.0135359 0.10158 0.0667531 0.178633 0.0783498 -0.188884 0.0562578 -0.0885165 0.151819 0.358952 0.642205 -0.0559719 0.0850555 0.0805328 -0.161314 -0.14672 0.00428226 -0.329272 -0.124814 0.066222 -0.18804 -0.0520631 0.022833 0.00103889 -0.102888 -0.146339 0.240059 -0.114314 -0.147274 0.102907 0.116547 -0.0417538 0.290995 -0.0279786 -0.239362 -0.120841 -0.467165 0.0513159 0.0468597 -0.122828 -0.0327141 0.241865 0.0735026 0.290455 0.029628 0.0841441 -0.120677 -0.119424 -0.423805 0.158511 0.108455 -0.193736 0.00375958 -0.191995 -0.14242 -0.187943 0.235509 -0.0645967 0.000996067 0.0850333 -0.0318807 0.0629619 -0.02606 -0.137175 -0.0251573 0.249672 -0.127486 0.0522181 -0.175263 -0.0865054 -0.123906 0.132314 -0.326346 0.157887 0.0758856 0.214893 0.257764 0.0350116 0.123319 0.00949425 0.193297 -0.112032 0.260896 0.0710721 0.0545057 -0.161688 0.0137451 -0.114405 0.123141 0.109884 -0.00873644 -0.0253875 -0.271842 -0.197544 0.257247 0.0917894 0.237756 0.324864 0.561755 0.0772838 0.158086 0.10156 0.0912892 -0.112988 0.0934588 -0.203252 0.30205 0.261891 -0.0582409 0.140777 0.03775 0.19835 0.205109 0.1721 -0.207553 0.0821226 0.0259448 -0.0707177 0.0773467 0.376926 0.169387 0.0892867
23 -0.197471 -0.0711881 -0.205758 -0.0890039 -0.100432 -0.0132804 0.000735603 0.18448 0.335442 0.298438 0.0717364 -0.0441004 0.265188 -0.0286813 0.106966 0.210151 0.347074 -0.242145 0.00672304 0.131737 -0.168058 -0.178144 -0.329625 -0.239964 -0.0282409 -0.0621606 -0.0701479 -0.0185686 0.210454 0.145288 0.703204 -0.154126 0.239452 -0.230255 -0.210174 0.248255 0.00418026 0.284906 -0.202347 -0.0712952 -0.140747 -0.0992653 -0.191081 -0.0356406 0.255635 -0.0621603 -0.0722287 -0.00210476 0.101451 -0.0264516 -0.00615716 0.0207974 -0.102881 -0.0698407 -0.292275 0.151148 0.140846 -0.0804706 -0.276418 -0.163423 0.076208 -0.202581 0.610906 -0.0351333 -0.173288 -0.127818 0.0279033 0.00718774 -0.106221 0.0345183 -0.0309671 0.138021 -0.0474771 0.0977351 -0.0378411 -0.00648766 -0.447794 0.134763 -0.305678 0.158481 -0.0523001 0.162901 0.117086 0.156501 0.108561 0.352589 -0.050379 -0.247281 0.0293874 -0.0426236 0.0491639 -0.0385624 0.115155 -0.00950981 0.151937 0.0755703 -0.0115893 -0.0890768 -0.18607 0.0808325 -0.000514496 0.0463241 -0.068017 0.131682 0.317059 0.154516 0.201004 0.122467 -0.120651 -0.0141154 -0.240521 -0.0551255 0.165745 -0.0135495 0.119058 0.206694 0.00279244 -0.0159913 0.0392832 -0.080235 -0.0860203 0.113373 -0.0125215 -0.273214 0.0176784 0.314973 0.0767205 0.0594718
24 -0.489799 -0.0386496 -0.080567 -0.030892 -0.037934 0.0802222 -0.279527 0.185565 0.0213203 0.1294 0.130514 0.499242 0.0697279 0.095418 0.08611 0.121624 -0.0685857 -0.212942 0.0471014 0.0148826 0.0348885 -0.170984 -0.639019 -0.187899 -0.408964 -0.108479 -0.16925 -0.130912 -0.0902971 0.13378 0.225688 -0.0345696 0.094366 0.0675854 -0.246913 0.235878 0.090895 0.291005 -0.273472 -0.0411842 -0.00710618 -0.125231 -0.753689 0.102137 -0.0160224 -0.0909206 0.00625209 0.173376 0.694372 0.01853 -0.0864003 0.25027 -0.214001 0.155027 -0.00795853 0.148682 0.0862551 -0.0253927 0.0811975 -0.0303591 0.358721 -0.186372 0.681613 -0.0143549 -0.0452086 -0.255692 -0.139549 0.109374 -0.178251 0.129735 -0.160659 0.0135857 -0.161843 0.0476137 0.0287816 -0.0487486 -0.313492 -0.0509612 -0.0496992 0.230139 -0.0138104 0.061234 0.107869 0.170733 0.0990656 0.0432464 -9.6665e-05 0.00772954 0.183674 -0.13748 -0.0404893 0.0807865 -0.0316404 0.0304862 0.168106 0.0562212 0.0744768 -0.167245 -0.0817979 0.253056 0.0843657 0.0517571 0.0168068 0.307321 -0.0611659 0.0832829 0.166908 -0.0468344 -0.272807 -0.189844 -0.16343 -0.046944 0.0650373 -0.0262631 0.256132 0.707465 0.142028 -0.0430357 -0.0157355 -0.292217 0.0854354 0.0928181 -0.118812 -0.400998 0.247449 -0.0320626 0.239852 0.451219
25 -0.263283 0.00221218 -0.0593136 -0.0649264 0.0353043 -0.134706 -0.0313256 0.0839774 0.262837 0.197283 0.0690003 0.382729 0.23855 0.0869155 0.103126 0.0294973 0.111174 -0.242211 0.0578845 0.0560245 -0.15268 -0.2522 -0.176405 -0.162076 -0.172071 -0.0988019 -0.333861 0.0954469 0.306118 0.112998 0.506449 -0.171082 0.195899 -0.057014 -0.0622764 0.177059 0.146395 0.106967 -0.000458942 -0.0474873 -0.00876111 -0.120787 -0.256535 0.0587629 0.136589 0.0905965 -0.228174 0.094215 0.258222 0.0496905 0.145546 0.0846481 -0.129631 -0.171247 -0.221885 0.155136 0.0402194 -0.197293 -0.423955 -0.0703943 0.0943667 -0.171102 0.525053 -0.132922 -0.0383704 -0.0819876 -0.205571 -0.000507094 0.0183806 0.220305 -0.042046 0.1457 -0.140258 0.0480327 -0.13831 -0.0285549 -0.358413 0.241242 0.000514307 0.00443366 -0.0907317 0.188506 0.473168 0.0585535 0.30658 -0.07432 0.0591538 -0.0202503 -0.0539478 0.0310402 0.0596016 -0.0932249 0.137027 0.0538566 0.129943 0.191101 0.0399168 -0.102938 -0.0351331 0.201389 -0.0224693 0.100065 0.00612429 0.150076 -0.0601784 0.107666 0.227015 -0.0148374 -0.135441 -0.0752603 -0.308724 0.0915144 0.0723708 0.0166023 -0.00838136 0.242604 0.0639094 0.0102702 0.0220124 -0.400686 0.0101768 0.0613318 0.225279 -0.0866663 0.0612431 0.118158 0.114211 0.339163
26 -0.271656 0.065761 -0.202425 0.0557094 -0.0255921 -0.145462 -0.223819 0.140606 -0.0419824 0.40919 0.118337 0.364824 0.142883 0.191802 0.049843 0.151321 0.235951 -0.234065 -0.0115604 0.157279 -0.221313 -0.261097 -0.270611 -0.253623 -0.0157949 -0.243942 -0.0273745 -0.107162 -0.215881 0.169526 0.222387 -0.134499 0.12349 -0.468263 -0.147619 0.286773 0.109857 0.150545 -0.326069 -0.0614606 -0.166375 -0.122687 -0.40324 0.0549685 0.0405447 -0.0722585 -0.079785 -0.00226656 0.621344 0.0410954 0.0810287 0.0653929 0.00294186 0.0584095 -0.148878 0.0330957 0.0684536 -0.238974 -0.123424 -0.0604561 0.282448 -0.0348099 0.615646 0.120646 -0.0338726 -0.191236 0.0691332 0.0911712 0.048167 -0.00572829 -0.311384 0.0711824 -0.197939 0.13606 -0.224869 -0.0809511 -0.363533 0.186746 -0.0302744 0.080907 0.0641372 0.108141 0.0148945 0.0891522 0.143268 0.0456747 -0.0159921 -0.102521 0.018517 0.0410093 -0.0152279 0.0433866 0.083067 0.00783172 -0.0359 0.115132 -0.0224589 -0.117945 -0.175233 0.15586 -0.0452613 0.0407869 0.12779 0.632441 0.250768 0.101339 0.259532 -0.113279 -0.13879 -0.190254 -0.201393 -0.0954443 0.241728 0.0584498 -0.0319914 0.669335 -0.0332243 -0.199753 0.0355549 0.00682275 -0.0702685 0.0608632 0.0248545 -0.0462808 0.111884 0.206519 0.105903 0.339506
27 -0.0587991 0.0597305 -0.404065 0.0582051 -0.275882 -0.274626 -0.151433 0.0732275 0.0270833 0.265909 0.128441 0.577092 0.211879 -0.00876462 0.0801016 0.108437 0.102732 -0.214413 0.109361 0.0782209 -0.257631 -0.340429 -0.230224 -0.214914 -0.266481 0.00414158 -0.196 -0.087446 0.062998 -0.0954469 0.481752 0.00804354 0.301902 -0.592314 -0.0602826 0.0701481 0.18434 0.174212 -0.278985 -0.116774 -0.149078 -0.142916 -0.537337 0.0848742 0.0798892 0.0430372 -0.0378866 0.282602 0.381324 0.000366338 -0.0242063 -0.00582622 0.0586043 -0.146361 -0.191896 0.135534 0.0081412 -0.297156 -0.201565 -0.10954 0.113802 0.0780957 0.601743 0.319666 -0.0737055 -0.0166128 -0.0956526 0.0936854 -0.0482918 0.208185 -0.0619875 0.115979 -0.051347 8.94373e-05 -0.0710979 -0.301539 -0.433769 0.0892052 -0.00751563 0.195094 -0.0114786 -0.0250684 -0.0875633 0.366147 0.425658 0.0601896 0.121431 -0.053795 -0.053992 0.0823229 0.141987 -0.0630212 0.17229 0.149111 0.153399 0.147299 0.0831099 -0.0183913 -0.115055 0.149435 0.113306 0.125949 -0.0495709 0.326208 -0.192416 0.169875 0.11342 0.12071 0.0351047 -0.0934873 -0.146879 -0.184427 0.118619 0.0217247 0.127408 0.381979 -0.0229147 -0.0157647 0.117465 -0.280853 -0.0419036 0.0364185 0.0736055 -0.0503412 0.078702 0.1758 0.244645 0.0523361
28 -0.0902014 -0.106819 -0.0329459 -0.0243006 -0.0456987 -0.288478 -0.11164 0.0669577 0.194475 0.261654 0.215271 0.267698 0.387808 0.117473 0.0616519 0.0110007 0.197218 -0.112678 0.0548753 0.00977071 0.101342 -0.314404 -0.525308 -0.167777 -0.304213 -0.0229086 -0.0823165 -0.0619849 0.104997 0.0711451 -0.0398628 -0.0537435 0.0565334 -0.136844 0.0682236 0.11868 -0.0423819 -0.0359366 -0.0575165 -0.0517053 -0.0543491 -0.216296 -0.125495 0.160425 0.0522513 0.0546369 -0.342694 0.0966389 0.174539 0.0152531 0.153358 0.14873 -0.168966 -0.034346 -0.0567574 -0.0115149 0.0928428 -0.104135 -0.225272 -0.0139819 -0.0212645 -0.20443 0.484379 0.0771684 -0.136327 -0.156486 -0.36782 0.0146687 -0.0743467 0.0343474 -0.0330442 0.0349028 0.00245344 0.154212 -0.142171 -0.2147 -0.211831 -0.00150864 -0.0782606 0.0764246 0.126584 0.0862409 0.38239 -0.126914 0.47734 0.0888273 0.236485 -0.153948 0.16598 -0.197856 0.145604 0.0571818 0.042444 0.0694661 0.0967326 0.040186 -0.024906 0.0362072 -0.0562077 0.113067 0.112051 0.130793 0.0638064 0.175214 0.422199 0.089119 -0.199276 0.0222733 -0.194625 -0.211824 -0.206582 -0.0487791 0.215937 0.177559 0.0161675 0.375405 -0.165587 -0.201856 0.101234 -0.252581 -0.19438 0.153999 0.288017 -0.114118 0.0161635 0.155035 0.0372321 0.0534889
29 -0.116208 0.0297839 -0.0948106 -0.0417745 -0.422483 0.0740794 -0.111943 0.0479914 0.163155 0.442537 -0.00862856 0.227954 0.199106 -0.014449 0.0978468 0.390705 0.106204 -0.00502534 0.049306 0.0814586 -0.0856986 0.0763614 0.115834 -0.132085 -0.378671 -0.0543392 -0.0728327 -0.217387 0.0300286 -0.0108325 0.231676 -0.0901867 -0.030234 -0.471187 -0.00310986 0.361242 -0.0868796 0.177517 -0.0486895 0.011123 0.00620331 -0.113538 -0.613874 0.0189179 0.0238549 0.101852 -0.0118093 0.148059 0.524419 0.0907331 0.0520759 -0.00164151 -0.133387 0.0273149 -0.104387 0.0345761 0.0199045 0.0214119 -0.0148234 -0.154826 0.309688 -0.178747 0.653526 0.00110716 0.108386 -0.0828073 0.0614809 0.176601 -0.0592369 0.0774491 0.0322062 -0.0330546 -0.0682919 0.0970458 -0.213496 -0.341745 -0.259193 0.0756129 -0.166054 0.225853 0.104181 0.0979074 0.252321 0.0743708 0.415258 -0.0225542 0.108111 -0.180411 0.149306 -0.137933 0.0712572 -0.164141 -0.0352881 0.176332 0.213627 0.0234905 -0.211358 -0.0471551 -0.186364 -0.0830278 -0.0191817 0.288977 0.176777 0.608448 0.316963 -0.033037 -0.0687533 0.100273 -0.17037 -0.0479165 -0.209039 0.0192994 0.203289 0.132533 0.0699924 0.206734 -0.0153093 -0.0291161 0.0850813 -0.0393817 -0.171152 0.0791066 0.0553427 -0.26276 0.124878 0.196099 0.260581 0.0665319
30 -0.263097 -0.0734266 -0.199293 -0.094035 -0.388167 -0.277655 -0.0502557 0.0145219 0.11422 0.22291 0.132711 0.0390016 0.139957 -0.0319768 -0.00663116 0.0595948 0.0112161 -0.111663 0.0597422 0.038457 -0.0491852 -0.202139 -0.127235 -0.0946402 0.0276886 -0.136216 -0.177499 -0.104974 0.0940591 0.263423 0.112529 -0.145161 0.315835 0.0354585 -0.187613 0.20727 0.048656 0.103549 0.198731 -0.152566 -0.0825423 -0.0930772 -0.446684 0.143474 0.050819 0.0737037 -0.116438 0.209845 0.198851 0.0283332 0.0953312 0.0924808 0.12301 -0.109776 -0.177583 -0.066052 0.140906 -0.0812779 -0.113267 -0.0737178 0.025283 -0.128524 0.43596 0.0343964 0.0778729 -0.115818 -0.148192 0.163602 -0.0346565 0.0583921 -0.0606682 0.243943 -0.0948024 0.143799 -0.0863524 -0.28462 -0.0797905 0.232123 -0.17209 0.0804347 0.188337 0.112682 0.281978 0.361805 0.111885 0.137802 -0.00865568 -0.00852605 0.00302327 -0.0441597 0.0471352 -0.0596361 0.0204536 -0.0103667 0.011311 0.226069 0.0214449 -0.0230749 -0.19857 0.151764 -0.0658596 0.216171 0.0125507 0.0273073 0.0435263 0.197474 0.0586379 0.107513 0.0419 -0.19377 -0.283755 -0.169873 0.177908 -0.0501269 0.0716361 0.0484849 0.0609624 -0.162547 0.0753886 -0.118203 0.0255012 -0.000330774 -0.0551169 -0.197143 0.209306 0.204553 0.224918 0.106097
31 -0.285728 -0.189064 -0.10752 0.0118954 -0.298154 -0.121506 -0.190154 -0.00477853 0.375544 0.205517 0.162818 0.331744 0.162796 0.144991 0.176619 0.176665 0.138412 -0.182553 0.102996 0.0903292 -0.0881763 -0.318425 -0.240102 -0.176541 -0.258541 0.0422968 -0.30011 -0.013586 0.0823849 0.109521 0.281127 -0.121397 0.134166 -0.0708827 -0.149398 0.0741664 0.239045 0.157068 -0.00208035 -0.164679 -0.201137 -0.0711617 -0.118994 0.162264 0.245583 0.0258287 -0.0254425 0.111577 0.321027 0.00683806 0.175556 -0.0564873 -0.0251442 -0.0864727 -0.00998862 -0.0247869 -0.111732 -0.130543 -0.158992 -0.0741911 -0.0571832 -0.301595 0.540009 0.0576686 -0.132108 0.0181731 -0.152498 -0.0537799 -0.00373043 0.0343896 -0.0736752 0.0631017 -0.181051 0.0382655 -0.158809 -0.358428 -0.24035 0.180142 -0.27974 0.292246 -0.0189605 0.106384 0.0177258 0.212591 0.242627 0.0272275 0.185664 0.0317381 0.16572 0.040231 0.146861 -0.0732075 0.17212 0.239418 0.397017 0.103475 -0.103371 0.0868864 -0.0819659 -0.0384579 -0.0282011 0.0508636 -0.0275848 0.00980474 -0.0770659 0.117505 -0.448116 -0.155063 -0.119938 -0.218951 -0.287162 -0.0605365 0.155782 0.011616 0.151901 0.381027 -0.0209723 0.0128555 0.0558217 -0.18777 -0.181433 0.212374 0.0868894 -0.465684 0.382544 0.317053 0.192477 0.0292798
32 -0.0850027 0.0307962 -0.141353 -0.167993 -0.438611 0.0988587 -0.0213419 0.0389743 -0.0755339 0.446906 0.150456 -0.135459 0.132849 -0.0566976 0.00771021 0.338911 -0.052021 -0.295962 0.0870069 0.215715 -0.144308 -0.974425 -0.21072 -0.2027 -0.0871909 -0.143707 -0.255215 -0.136806 0.0871312 0.186726 0.226319 -0.119146 0.0854107 -0.341665 -0.20664 0.183478 0.13318 0.189513 -0.147387 -0.109912 -0.0853678 -0.124367 -0.430329 0.0522391 0.180755 -0.0767027 -0.016962 0.200156 0.445032 0.14848 0.10268 0.113365 -0.0904684 -0.0896836 -0.108512 0.0891813 -0.129675 -0.164706 0.068092 -0.0515325 0.624334 -0.183077 0.520484 0.0603077 0.00902851 -0.0487161 0.0571705 0.144026 0.0838375 -0.025527 -0.15978 0.0415715 -0.221795 0.0582581 -0.12681 -0.21729 -0.580822 0.0444476 -0.108598 0.0287287 0.147822 0.110273 0.167902 -0.0172328 0.24082 -0.101433 0.129139 -0.0149567 0.0279232 -0.0337583 0.00266523 -0.0780949 0.157963 -0.000129804 0.181383 0.110173 -0.0777282 -0.158578 -0.141448 0.0471482 0.0274655 0.220221 0.0659324 0.707795 0.221547 0.205353 0.24009 -0.0988947 -0.0998805 -0.0300707 -0.307439 -0.122284 -0.00854545 0.0866959 0.044936 0.550367 -0.0598032 -0.246996 0.0166803 -0.0944466 0.00465884 0.231719 0.0290104 -0.0626017 -0.087558 0.122107 0.204914 0.245321
33 -0.194349 -0.0995439 -0.11948 0.0330383 -0.130472 -0.1232 -0.313845 0.225189 0.00772809 0.176135 0.0722183 0.295955 0.119914 0.126505 0.0554502 0.060622 0.109422 -0.0815731 0.0788113 0.0858317 -0.205246 -0.494877 -0.414278 -0.22499 -0.338592 -0.231891 -0.00902466 -0.0797116 -0.157416 0.0726584 0.697609 -0.0445248 0.0769572 -0.0986299 -0.122155 0.218895 -0.0300295 0.0579169 -0.0723024 -0.00477626 -0.122423 -0.208868 -0.18528 0.0633851 0.111283 0.0480651 -0.155471 0.0115056 0.365164 0.129133 0.0301074 0.139048 -0.0596984 -0.0956946 -0.201253 -0.0547749 0.140814 -0.142145 -0.269548 -0.177831 0.0691743 -0.299777 0.763218 0.0191665 -0.000415587 0.0511517 -0.014199 0.0653542 0.0994964 -0.00436529 -0.226049 0.271946 -0.0942253 -0.0532724 0.000263813 0.0579526 -0.414935 0.340516 0.0412242 0.157592 0.0332468 0.150757 0.35743 -0.0412857 0.28236 0.094648 0.13048 0.116701 0.0649584 -0.162215 0.0280361 -0.00711283 0.0233983 -0.012379 0.136281 0.0796601 0.0835245 -0.258121 -0.209754 -0.00505524 0.0330357 0.0911267 0.152965 0.34798 -0.0614417 0.18574 0.37298 0.0383018 -0.237371 -0.167006 -0.245002 -0.0315969 0.131712 0.149327 0.214271 0.334721 -0.132582 -0.159727 0.0642846 -0.218498 -0.131496 0.211773 0.162122 -0.144576 -0.0154589 0.331648 0.120666 0.226234
34 -0.176548 0.065425 -0.147892 -0.0628811 -0.455997 -0.0126168 -0.215777 0.199313 -0.0078862 0.249852 -0.151218 0.357211 0.152654 0.218883 0.113174 0.243562 -0.00318875 -0.0177784 0.209019 0.308984 -0.0285244 -0.351326 -0.226686 -0.258458 -0.251748 -0.103553 -0.115558 -0.133444 0.129514 0.24383 0.23325 -0.025382 0.172494 -0.0253337 -0.116958 0.348044 -0.0802174 0.227526 0.00187974 -0.184541 -0.169723 -0.0811346 -0.572836 0.0165164 0.0441161 0.0340843 -0.241366 0.165912 0.742707 0.0380451 -0.0621321 0.115281 0.00893101 -0.144198 -0.0498092 0.0318695 0.0119307 -0.105605 -0.232003 -0.111073 0.0288748 -0.573772 0.623162 -0.00826781 -0.119028 -0.20331 -0.347687 -0.0159391 -0.121621 0.0482316 -0.185861 0.0503978 -0.0898053 0.0805509 -0.127059 -0.102035 -0.395226 -0.0302781 -0.120076 0.114053 0.134938 0.0970183 0.215306 0.315272 0.246368 0.0273844 -0.0119358 -0.114806 0.0553802 -0.324324 0.00142988 0.00381369 0.0593232 0.138612 0.211304 0.201815 0.0264343 -0.0387424 -0.170538 0.0552862 -0.0331101 0.163885 0.0245576 0.290943 0.00170808 0.144508 0.150996 0.0977264 -0.166168 -0.139506 -0.263768 -0.15271 0.0037306 -0.147526 0.0796793 0.681237 -0.0353075 -0.0914059 -0.0282522 -0.247903 -0.153881 -0.0509641 -0.0252819 -0.190131 0.0545687 0.0753193 0.117018 0.196316
35 -0.204409 0.0243955 -0.0677657 -0.0688746 -0.188805 -0.193921 -0.17974 0.0590749 0.0620849 0.468384 0.20915 -0.0899074 0.108321 -0.00764197 0.0536733 0.15797 0.185268 -0.157911 0.163921 0.0376264 -0.126017 -0.207204 -0.459438 -0.289967 -0.287609 -0.0785382 -0.0453346 -0.193464 0.03732 0.148989 0.214823 -0.0747957 0.101194 -0.0426067 -0.122212 0.124254 0.209109 0.0136005 -0.0851927 -0.138906 -0.191364 0.000954443 -0.198299 0.130155 0.126882 0.0273927 -0.190434 0.23473 0.499272 0.218384 -0.106932 0.0798981 -0.0506195 0.00177359 -0.352008 -0.0249406 0.0271347 -0.204602 -0.350632 -0.105845 0.105635 -0.132716 0.511496 0.0324483 -0.0949964 -0.051149 -0.238185 0.205058 -0.0332291 0.149686 -0.161861 0.048546 -0.104234 0.147539 -0.279148 -0.229547 -0.192326 0.125833 -0.0753623 0.0513671 0.0917885 0.107161 0.257029 -0.0673828 0.467786 -0.0450181 0.0514842 -0.212604 -0.0345833 -0.0308295 0.0540768 0.00484411 0.00624857 0.0234754 0.141227 0.0350309 -0.0702167 -0.0394062 0.00874323 0.0674172 0.155435 0.134674 0.107169 0.233735 0.156466 0.128129 0.0828399 -0.00974291 -0.092273 -0.225384 -0.1971 -0.017991 0.0742006 -0.00571896 0.132801 0.48264 -0.0524338 -0.291435 -0.0977183 -0.150397 -0.0706313 0.00204866 0.130217 -0.0663139 -0.084874 0.054478 0.185156 0.0517275
36 -0.139889 0.103453 -0.0955434 -0.104472 -0.183957 -0.197675 -0.116155 -0.0377305 -0.0491702 0.148403 -0.0314588 0.148965 0.169145 0.025896 0.207864 -0.0219377 0.0993985 -0.092936 0.101854 -0.0535808 -0.193159 -0.379977 -0.356293 -0.175547 -0.123468 -0.0385077 -0.13488 -0.0513979 0.146842 0.1104 0.297962 -0.196992 -0.00352862 -0.180133 -0.0603268 0.108792 0.0851136 0.17679 -0.22463 -0.102791 -0.12646 -0.225101 -0.518595 0.253426 0.133954 0.0441991 -0.107114 0.177457 0.20162 0.102915 -0.0619607 0.164206 -0.161506 -0.120483 -0.333717 -0.0012836 0.0707247 -0.257736 -0.0736594 -0.145505 0.1549 -0.181241 0.40888 -0.0875878 0.0325522 -0.133663 0.1251 0.00375243 -0.0203228 0.14899 -0.0393622 0.0818233 -0.0459335 0.0619142 -0.124184 -0.194436 -0.331885 0.111385 -0.0811466 0.248165 0.0619657 0.0525325 0.301795 -0.00602167 0.297305 0.0987331 0.21985 0.0453198 0.0686149 -0.196492 0.05763 -0.0118182 0.0246139 0.071228 0.212086 -0.142682 -0.0433269 -0.131805 -0.164483 0.27114 0.0401199 0.0846461 -0.0402941 0.0923806 0.398504 0.0502504 0.153681 0.0580645 -0.245648 -0.152547 -0.131873 -0.0620404 0.0597256 0.0173575 0.0990398 0.215937 0.126336 -0.110272 0.00877361 -0.130668 -0.13682 0.190398 0.168604 -0.0830369 0.0277138 0.320732 0.171922 0.201951
37 -0.264163 0.083669 -0.0111443 -0.0469481 -0.640166 -0.0314462 -0.0607221 0.105336 -0.0898758 0.118914 0.0528595 0.666313 0.0949407 0.070578 0.127095 0.189165 0.139497 -0.0944045 0.0708551 0.083906 -0.0392295 -0.409739 -0.237236 -0.196103 0.034827 -0.176615 -0.143718 0.100981 -0.00586628 0.15783 0.126129 -0.175501 0.102068 -0.170902 -0.240958 0.0563914 0.0661574 0.111829 0.137504 -0.263502 -0.0769751 -0.0926026 -0.297925 0.0629902 0.180548 -0.0748273 -0.130216 0.0680737 0.317264 0.163562 0.0169519 0.133028 0.127112 -0.0728682 -0.0492558 0.163752 0.132413 -0.0635102 -0.190689 -0.140194 -0.111239 -0.428657 0.738071 -0.189925 -0.00819369 -0.0633236 -0.0276402 0.053068 -0.0152326 0.0516765 -0.114088 0.241122 -0.165206 0.189025 -0.153105 -0.199332 -0.1396 0.0598699 -0.0201442 0.189385 0.200136 0.16455 0.099816 0.0462826 0.304251 -0.103306 0.107612 -0.0724742 0.0572794 0.0852699 0.0421262 -0.0696587 0.155382 0.165542 0.0442046 0.0916795 -0.10298 -0.0620078 -0.207375 0.0711899 -0.134583 0.144706 -0.0506376 0.217423 -0.0120236 0.208996 0.0167201 0.116469 -0.108678 -0.226069 -0.190942 -0.18137 0.138409 0.108995 0.227773 0.385747 0.105206 -0.161393 -0.0413397 -0.147808 0.0464732 0.0213412 -0.0493452 -0.37915 0.098333 0.409596 0.130175 0.187803
38 -0.222475 -0.0900351 -0.192816 -0.125003 0.0196691 -0.1299 -0.0422147 0.236142 0.102119 0.496583 0.243641 0.429608 0.491435 0.0170219 0.0637459 0.0424507 0.173532 -0.160498 0.122586 0.260532 -0.0457752 -0.192317 -0.287302 -0.210346 -0.0600466 -0.189386 -0.091834 0.0310495 -0.00178415 0.0598201 0.412864 0.0276834 -0.0467451 -0.244938 -0.242584 0.40305 -0.0815284 0.054138 -0.0436169 -0.154206 0.00427259 -0.295561 -0.26504 0.0764512 0.0887742 -0.142546 -0.0466383 0.0610377 0.424638 -0.0538225 -0.0628203 0.0768227 0.140316 0.0515006 -0.149991 0.0437057 -0.00807183 -0.291075 -0.094794 -0.178785 0.0140199 -0.320118 0.554188 -0.0178885 -0.0137891 -0.12522 -0.0782938 0.0207699 0.0827812 0.179503 -0.0379007 0.15033 -0.342116 0.0856826 -0.0312738 -0.126914 -0.593307 0.217847 -0.0157389 0.106593 -0.0888642 0.103054 0.223743 0.161842 0.0498956 -0.11282 -0.0391882 -0.0921038 0.0678954 -0.522937 0.0660623 -0.114035 -0.0131406 -0.00740847 0.164136 0.00163386 -0.0425062 -0.187505 0.00390808 0.103708 0.0698382 0.13806 0.0229064 0.31993 -0.147164 0.00172655 0.0590711 -0.0287503 -0.0232674 -0.288595 -0.190067 -0.14425 0.0306067 0.10402 0.149806 0.419744 -0.0506029 -0.238987 0.0183581 -0.271862 -0.00432029 0.0428283 -0.0272659 -0.00627951 0.0959877 0.201474 0.173969 0.436841
39 -0.128631 -0.021209 -0.228129 -0.163314 -0.209343 -0.0359746 -0.165495 0.0243301 0.105236 0.0942151 0.0756942 0.778934 0.0995046 0.0210281 0.18585 0.122602 0.0584185 -0.144461 0.193283 0.037438 0.0277673 -0.375802 -0.398672 -0.237011 -0.141542 -0.0451693 -0.105105 -0.0249737 0.0147836 0.118481 0.497919 0.00635662 0.107401 -0.201501 -0.142106 0.0756169 0.0345049 -0.0163001 -0.174234 0.00958918 -0.0326643 -0.187188 -0.408141 0.114182 0.074901 -0.141586 -0.0815223 0.0270266 0.349561 -0.0590489 0.0197388 0.0687419 -0.120684 -0.0145892 0.0578452 0.0515555 -0.0492266 -0.150312 -0.244007 -0.114931 0.203364 -0.288458 0.587733 0.163695 -0.170483 -0.0755412 -0.0389563 0.248888 -0.055651 0.0608397 -0.00629024 0.151949 0.0260312 0.0380641 -0.00541905 -0.097757 -0.342417 0.0408735 0.102639 0.0779395 0.146373 0.0588308 0.0957854 0.22047 0.337002 0.00454334 0.0161624 -0.178262 0.231479 -0.125469 0.166539 -0.0449004 0.188243 0.0748818 0.0734696 0.108097 -0.0681556 -0.00932502 -0.0700953 0.0307645 0.0219229 0.175125 -0.0630425 0.324835 0.14789 0.105667 0.12837 0.121862 -0.109825 -0.188595 -0.156832 -0.0873903 0.132124 0.0995085 0.0887617 0.302033 -0.171288 -0.223852 0.0627129 -0.219217 -0.203641 0.190843 0.288031 -0.187456 -0.0675087 0.649374 0.100655 0.138591
40 -0.0862111 -0.044274 -0.0903279 -0.145238 -0.350082 -0.474025 -0.30872 0.177147 0.0688741 0.0898349 0.194031 0.0582064 0.146135 0.166784 0.0018948 0.113283 0.0746662 -0.121385 0.0505822 0.115621 -0.0829187 -0.214189 -0.063843 -0.107179 -0.0866568 -0.244729 0.0590564 -0.0357556 -0.127128 0.0230882 0.440787 -0.0939656 0.0761634 -0.126617 -0.129543 0.228542 0.0879534 0.059641 -0.0998673 -0.0559615 -0.093632 -0.15386 -0.416293 0.159323 0.056398 -0.0687718 -0.209086 0.117778 0.276512 0.0121472 -0.0916351 0.171463 -0.018819 0.0840858 -0.185917 -0.0710047 0.159427 -0.099421 0.027921 -0.112929 0.171485 -0.186138 0.471113 0.133715 0.04447 0.0922016 -0.0494391 0.155828 -0.0707298 0.138327 -0.117206 -0.0482215 -0.169716 0.164406 -0.226365 -0.145415 -0.373222 0.105355 -0.157451 0.163864 0.050845 0.126476 0.141626 0.053652 -0.0665485 0.30338 0.0904851 -0.144218 0.0807671 0.112615 0.0966948 -0.226516 0.0294152 0.191884 0.100923 0.112086 -0.159226 -0.0372642 -0.160621 0.0759296 0.0711635 0.155943 0.0892014 0.247523 0.0814283 0.0750389 0.214226 -0.0902177 -0.0460478 -0.189534 -0.187423 0.0270963 0.109695 0.0518735 0.125925 0.463689 0.0320667 -0.240675 0.0790223 -0.0635522 0.0214624 0.227916 0.145539 -0.232316 -0.0411103 0.285556 0.159185 0.182268
41 -0.190243 -0.0281736 -0.132313 -0.0567255 -0.201828 -0.517547 0.165159 0.285705 0.0238068 0.144344 0.031738 0.123271 -0.0248915 0.124288 0.0217879 0.199234 -0.0494615 -0.0612265 0.119319 0.410958 -0.0103672 -0.113963 0.0154404 -0.0524922 -0.270945 -0.0291968 -0.136917 -0.148044 0.0319473 -0.0489519 -0.04102 0.0514164 0.134243 -0.0236843 -0.178477 0.169019 -0.00500065 0.0366576 -0.23479 0.00188445 -0.0211448 -0.0761811 -0.117809 0.161768 0.213212 -0.0914317 -0.0328126 0.056978 -0.0240152 0.0553794 0.0911737 0.0236075 -0.200333 -0.0915063 -0.12663 0.207692 -0.00935318 -0.00599504 0.0402839 -0.220483 -0.0224841 -0.231032 0.10997 0.34302 -0.152523 -0.178863 -0.545737 0.0682327 -0.177698 0.0713312 -0.272208 -0.0238462 -0.115245 0.208257 -0.167354 -0.240446 -0.243616 0.0183061 -0.158603 0.207768 0.152222 0.112405 -0.0325709 -0.105652 0.177689 0.163827 0.259916 -0.102218 0.0379425 0.131626 0.204206 0.0119728 0.0501973 0.0674854 -0.0401734 -0.00893723 -0.11792 0.0784269 -0.257828 -0.0254835 0.123103 0.0824259 0.0919835 0.177535 0.0844248 0.124439 0.412145 -0.162639 -0.203413 -0.0527359 -0.184408 -0.113972 0.286412 -0.0325461 0.176217 0.000531773 -0.170712 -0.0556972 0.106283 -0.266917 -0.183506 0.0238047 0.127894 -0.0189696 0.188266 -0.00637294 0.146411 0.184388
42 -0.0919721 -0.173158 -0.166908 0.0732923 -0.0658862 -0.0408635 -0.0247979 0.291697 0.0890381 0.393755 0.273479 0.192995 -0.0883098 0.066705 0.0762507 0.041335 0.116112 -0.302821 -0.0152382 0.101237 -0.000566675 -0.0839071 -0.106998 -0.0688736 0.0293962 -0.151064 -0.335893 -0.133264 0.129675 0.104569 -0.0759785 -0.0172424 0.0554834 0.00193072 -0.229534 0.312722 0.0367376 0.0725404 -0.0517753 -0.124073 -0.100407 -0.115079 -0.694859 0.187385 0.173707 -0.0681488 -0.303685 0.175423 -0.100719 0.0654714 0.186339 0.0322487 -0.0967656 0.0348085 -0.0118678 0.092237 0.0690393 -0.110608 -0.351867 0.0207331 -0.0943907 0.0107629 -0.0594125 -0.0160186 -0.194912 -0.0592846 -0.119478 0.161605 -0.273208 -0.0185958 -0.237126 0.1601 -0.239449 0.117569 -0.204571 -0.0611266 -0.330941 -0.0616056 -0.0747596 0.0560318 0.0747704 0.0791357 -0.10137 0.0343064 0.389797 0.535989 0.278468 -0.101205 0.0663813 0.227199 0.0413488 -0.0838842 -0.459753 0.0108848 -0.0760574 0.119071 -0.0558229 -0.0843005 -0.0308346 0.287385 0.235966 0.11999 0.00854459 0.034074 0.265301 -0.0051863 0.115776 -0.183412 -0.126071 -0.194921 0.0989747 -0.0738397 0.329577 0.0366812 0.154448 -0.0431039 -0.00805121 -0.0124322 0.159744 -0.226247 0.00398457 -0.0451788 -0.0498635 0.0642158 0.0863743 0.4305 0.150523 0.129365
43 -0.144981 -0.20857 -0.0322565 -0.0253706 0.0151377 -0.0429743 0.135008 0.0478099 0.115598 -0.00628119 0.211906 -0.100531 0.308076 0.0668063 -0.118712 0.194784 -0.0142555 -0.375734 0.187257 0.249038 0.135828 -0.595737 0.00513637 -0.0510498 -0.0285464 -0.272615 -0.0537726 -0.115198 0.25321 -0.0361751 0.571414 -0.212075 0.00162582 0.0806858 -0.248335 0.496186 -0.255384 0.175474 -0.373296 -0.0433026 -0.113905 -0.195269 -0.53694 0.110546 0.132498 0.086198 -0.104877 -0.0302293 -0.137939 0.0470815 0.337377 0.314586 -0.13861 -0.517682 -0.147952 0.132148 0.516748 0.0443594 0.00760432 -0.0674759 0.0296469 0.00716368 0.031729 -0.0842346 0.0523919 -0.0651311 0.0641397 0.214475 -0.0978431 0.285376 0.0400713 0.00799671 -0.212954 -0.050196 -0.030927 -0.39625 0.0763554 -0.00148616 -0.154693 0.135795 0.0661102 0.0593227 0.530923 -0.108751 -0.0753113 -0.0292988 -0.0283829 -0.308308 0.185046 0.1341 0.158768 -0.0833668 -0.554551 0.0409374 -0.0184672 0.210004 -0.0765802 -0.0821418 -0.524334 -0.00934843 0.212611 0.0411776 0.140324 0.59005 0.296651 0.196678 0.0630039 -0.378334 -0.058219 -0.128128 0.537105 -0.10787 0.183784 0.108645 0.202442 0.492941 0.0143367 -0.117351 0.117386 -0.580459 0.0535302 0.0708503 0.041798 0.0805121 -0.114272 -0.124496 0.187149 0.184495
44 -0.0281988 -0.0961349 -0.0880131 0.00425403 -0.0174362 -0.0407558 0.259617 0.0952025 0.252056 0.244664 0.00314856 -0.121829 0.364444 0.0673684 0.0240778 0.0321184 0.126051 -0.266679 0.129747 -0.0576657 0.0258292 -0.436145 0.100284 -0.252716 -0.142119 -0.100944 -0.0865021 0.048904 0.195114 0.0894762 0.403118 -0.202427 -0.0793746 0.0405351 -0.0936352 0.0538892 -0.249909 0.0485846 -0.151526 -0.116745 0.000429736 -0.135607 -0.220612 0.059647 0.122157 -0.107966 -0.0326112 0.0455418 -0.129482 0.141754 0.0501206 0.0295836 -0.0276769 -0.333369 -0.00842706 0.116297 0.308343 -0.260881 0.152179 -0.135484 -0.000581796 -0.041571 0.0399288 -0.0894711 -0.186961 -0.149431 -0.170524 -0.0634017 -0.100805 0.0633081 -0.0845206 0.103229 -0.204536 0.024883 -0.211832 -0.186254 -0.351864 0.133588 -0.123359 0.170552 0.057883 0.158718 0.393511 0.131635 -0.0818559 0.28718 -0.199186 -0.0868486 0.212211 0.0361881 0.133358 -0.139869 0.0412467 0.0515279 0.070497 0.211867 -0.19223 -0.0836308 -0.0348339 0.0865993 0.154333 -0.0291732 0.0434794 -0.0170447 0.57882 0.063052 -0.0127021 -0.158669 -0.0391685 0.00351912 0.328773 -0.0177281 0.0767766 -0.0513907 0.142637 0.47731 -0.0578381 -0.328842 0.268153 -0.213206 -0.0373786 0.16962 0.331647 0.00818775 0.037232 0.0530589 0.0799101 0.0545899
45 -0.0687619 -0.188477 0.0127355 -0.596815 0.136541 -0.29139 -0.0662244 0.216698 0.0102946 0.151401 0.124387 0.259858 0.326573 0.17674 0.141512 -0.108237 0.00597358 0.0158915 0.281129 0.185105 -0.167493 0.129397 -0.208654 0.0284929 -0.176341 0.0600515 -0.110034 -0.161261 0.176235 0.0679208 -0.18039 -0.129511 0.00645504 0.0608946 -0.0504015 0.203389 -0.0958178 0.130306 -0.130674 -0.154124 -0.0509785 -0.237358 -0.00857267 0.019221 0.140309 -0.263582 -0.0742778 0.0143445 0.35637 -0.0237821 0.215797 0.0500793 -0.224717 -0.284701 0.112973 0.0982941 0.0359051 -0.263448 -0.161605 -0.0181881 0.119737 0.0442237 -0.107437 -0.0404377 -0.221483 -0.0292274 -0.518101 -0.0506483 -0.163134 0.0419103 -0.152048 0.0374798 -0.186774 0.144549 -0.157507 -0.0135337 -0.344651 -0.12286 -0.111245 0.0859078 0.21465 0.0372172 0.192184 -0.241292 -0.0874745 0.015789 0.415826 0.0590532 0.245378 -0.355162 0.0626458 -0.0546067 -0.262792 0.185634 0.520398 0.0615342 -0.0438262 -0.117266 -0.0595722 0.00600767 0.0955247 0.214963 0.181627 0.113846 0.0558917 0.0367511 0.0198964 -0.0141765 -0.133901 -0.0475499 0.379071 -0.146194 0.201397 0.192208 0.196355 0.280793 0.00237846 -0.384698 0.115852 0.107163 -0.218009 0.149344 0.208979 -0.144775 0.20307 -0.0437489 0.152905 0.201958
46 -0.0582451 -0.157674 -0.123212 0.0498328 0.0160289 -0.130795 0.130341 0.0299584 0.0285988 -0.0928156 0.146699 0.246284 0.304156 0.126722 0.0797855 0.0142959 0.123927 -0.0741762 0.20581 0.173647 -0.0343776 0.202487 0.0541215 -0.179107 0.151872 -0.0254048 -0.0772598 -0.264623 0.186234 0.127571 -0.087703 -0.154455 0.133862 0.194752 -0.0022331 0.117201 0.0348169 0.00117886 -0.107374 -0.113531 -0.330137 -0.090024 -0.2574 0.112647 0.11349 0.0177815 -0.284141 0.212807 0.489399 0.0145309 0.200224 0.130069 -0.0597123 0.0663365 -0.121591 0.0254316 0.00322052 -0.298487 -0.112061 0.0204448 0.157586 -0.12907 0.0274608 0.0174037 -0.106317 -0.107451 -0.228638 -0.0788261 -0.0634475 0.0767353 -0.12902 0.0362003 -0.119481 0.14202 -0.202176 0.0214698 -0.322018 0.163904 -0.252018 0.0680795 0.148423 0.0968029 0.157727 -0.0596613 0.205291 0.175079 0.242378 -0.0276985 0.221823 -0.372747 0.0679178 -0.156158 -0.113287 0.0292213 0.42879 0.176765 -0.109809 -0.118503 -0.0340567 0.0629402 0.096577 0.072488 0.259185 0.157155 0.0484013 0.18084 -0.216533 -0.203628 -0.105003 -0.218502 0.642594 0.0645591 0.180572 -0.016482 0.0488476 0.283547 -0.0161813 -0.15008 0.205396 -0.111977 -0.105204 0.185175 0.100705 0.0365007 0.358901 -0.139924 0.31125 0.0869954
47 -0.165979 -0.207315 -0.115128 -0.223457 -0.0930737 0.0581319 0.00687395 0.428905 0.139793 0.273928 0.211173 0.0970682 0.00579966 0.157855 -0.0758452 0.163766 0.0410037 -0.103312 0.152976 0.183892 -0.150497 -0.189812 -0.055876 -0.152387 -0.186661 -0.0685867 -0.18674 -0.0802679 -0.15322 0.146137 0.269905 -0.0856573 0.0359949 -0.953276 -0.153924 0.471373 0.206134 0.0544119 -0.0673916 -0.0498818 -0.208893 -0.149416 -0.0722963 0.336642 0.179919 -0.0865039 0.0354597 0.243093 0.286618 0.0493607 0.247528 0.082977 -0.248459 -0.0373761 -0.184054 0.0223663 -0.0142626 -0.147952 -0.40971 0.00923884 0.396308 0.0131113 0.667346 0.304219 -0.0636381 0.0375486 -0.218805 -0.0125842 -0.0301144 0.0578933 -0.0277126 0.10011 -0.280134 0.17175 -0.144378 0.0270937 -0.567094 0.101783 -0.0755178 0.130051 0.377497 0.0754977 -0.0705068 -0.269808 0.0382817 0.0761754 0.000329407 0.0288178 0.0965487 -0.417308 0.0539252 -0.0505091 -0.157286 0.167545 0.058513 0.161385 -0.0709858 -0.142387 0.0341708 0.0553283 0.0688249 0.100276 0.0610025 0.166009 0.268432 0.133376 0.177492 0.0263576 0.0428139 -0.129205 -0.0864478 -0.110976 0.0150065 0.0469554 0.0381471 0.156094 0.0141994 -0.168378 0.0278063 -0.031163 0.00722812 0.095486 0.283232 -0.174701 0.0736526 0.0545363 0.0427569 0.204063
48 -0.237969 -0.0614369 -0.31654 -0.157629 -0.310998 -0.170924 -0.176546 0.159035 0.283456 0.396263 0.0843064 0.704196 0.160401 -0.000695972 0.087072 0.0467718 0.219983 -0.171293 0.162418 0.128676 -0.0385783 -0.193196 0.00317704 -0.0373394 -0.280656 -0.0304641 -0.0714099 -0.167472 -0.0991487 0.191039 0.193152 -0.180313 -0.0283174 -0.326504 -0.0848004 0.0369095 0.0219126 0.23732 -0.00485265 -0.244095 -0.0305002 -0.121258 -0.284874 0.149803 0.196302 0.0145205 0.112329 0.00101212 0.0612814 0.114296 0.0670095 0.0620649 -0.0958211 -0.0700125 0.135822 0.0877261 -0.112204 -0.242198 0.0966908 -0.00195583 0.35614 -0.157257 0.414647 0.216504 -0.048683 -0.121683 -0.18974 0.31036 -0.0787934 0.00667187 0.0196982 0.00298674 -0.280717 0.0885979 -0.362526 0.149662 -0.519899 0.168223 0.0912309 0.366254 0.060748 0.103418 0.265319 -0.0176485 0.071831 0.155154 0.317003 0.0226934 -0.0763086 -0.200223 0.194612 0.0135173 -0.0271182 0.184317 0.0580034 0.0494544 -0.0685514 -0.0839562 -0.125024 -0.101851 -0.0183611 0.00306519 0.0967141 0.237822 0.552339 -0.0088263 0.128776 0.0380033 -0.181845 -0.12386 -0.176188 -0.158648 0.0458818 -0.0268607 0.176688 0.289777 -0.0392817 -0.231782 0.0207585 -0.0672472 -0.0830427 0.28316 0.143519 -0.0589384 0.276546 0.239959 0.111207 0.203028
49 -0.149673 0.151554 0.0428082 -0.121735 -0.0115392 -0.0374369 0.043745 0.291462 -0.0376475 -0.0334942 -0.0105234 0.693559 0.162151 0.315921 0.0699116 0.379558 0.0428485 -0.0353804 0.162646 0.257942 -0.151095 -0.105997 -0.334702 -0.251041 -0.315031 -0.265403 -0.0618625 0.0971098 0.319411 0.139438 -0.0410753 -0.0633628 0.00745892 -0.470736 -0.0914196 0.0977161 0.149642 0.00898155 -0.566438 -0.0366967 0.120477 0.0244607 0.0132186 0.167181 0.174421 -0.0563062 -0.222697 0.138488 -0.010133 -0.0432877 0.0922226 0.183451 -0.121671 0.0287279 -0.152159 0.0116583 0.159021 0.0383375 -0.551338 -0.000723888 0.0203383 -0.104867 -0.139512 0.255997 -0.0794264 -0.0676137 -0.178716 0.0413232 -0.289202 0.150175 -0.205157 0.0160827 -0.0690542 0.000445105 -0.0535903 -0.199845 -0.520363 0.156814 0.0284941 -0.00227125 -0.0531162 0.0172413 0.717781 0.157546 0.359144 0.228934 0.173084 -0.261585 0.327018 -0.215578 0.0859096 -0.188358 -0.359277 0.0847855 -0.188637 0.076726 0.0343381 0.0598465 -0.0998535 -0.0857823 -0.0849607 -0.0541319 0.0769421 0.224109 0.651594 0.116401 -0.0987914 -0.117993 -0.112406 -0.0897367 0.0958017 -0.0584596 0.175194 0.0834109 0.134649 0.405034 -0.112512 0.0832703 0.173856 -0.040695 -0.0722617 0.125828 0.0840644 -0.108387 0.181572 0.227815 0.0656803 0.0628456
50 -0.498178 0.125701 -0.0374281 0.122262 0.102436 0.194706 -0.0362263 -0.0110893 0.185175 0.0514368 -0.00209013 0.6835 0.627606 0.251905 -0.0811064 0.221409 0.265688 -0.130365 0.0979873 0.116997 -0.199323 0.0726321 -0.465751 -0.0413162 -0.171883 -0.237541 -0.0568158 0.0577743 0.132562 0.307085 -0.0500526 -0.164233 0.157059 -0.572167 -0.262309 0.0620953 0.0590982 0.108233 -0.325314 -0.148901 -0.00332306 -0.123694 -0.108104 0.17111 -0.0665045 -0.126754 -0.168402 0.154778 0.0335955 0.0752141 0.0608473 0.254697 0.0100099 0.158411 -0.0723027 0.0591765 0.0116374 0.210323 -0.846775 -0.079816 0.0391222 -0.343892 -0.127319 0.641215 -0.202854 -0.0554914 -0.179948 0.275826 -0.359272 0.026086 -0.0813892 0.13573 -0.17168 0.157749 -0.178543 0.0279602 -0.385339 0.0887058 0.0772502 0.0377554 -0.054924 0.108823 0.248648 0.228407 0.306761 0.0197646 0.435923 0.0613198 0.0866653 -0.0445149 0.0468854 -0.145446 -0.447678 -0.0065518 0.0448514 0.152582 -0.0413313 -0.107768 0.00482251 -0.14555 -0.0618885 0.0266937 0.127034 0.0955922 0.319526 0.00875452 -0.128188 -0.0713028 -0.302653 -0.181876 0.0975948 -0.0707569 0.045274 0.0238377 0.061826 0.26293 -0.11145 0.133255 0.0327199 -0.119037 -0.0808322 0.203141 0.0190087 -0.128872 0.158942 0.36605 -0.0261354 0.197166
51 -0.157304 -0.173089 -0.12292 -0.195343 -0.0903868 -0.292519 0.01828 -0.0951848 0.142564 0.25383 0.224144 0.14385 0.114043 0.086652 0.146896 -0.0165113 -0.0919794 -0.170206 0.104758 0.133382 0.109029 -0.0801215 -0.188878 -0.106266 -0.437796 -0.0598353 -0.192482 -0.30921 -0.0136044 0.150553 -0.0113676 -0.0283812 -0.0256182 -0.00287651 -0.0159467 0.433484 0.121924 0.164888 0.0395694 -0.0489929 -0.00844112 -0.0188936 -0.00894251 0.119946 0.19953 -0.0111807 -0.0960072 0.0287892 -0.000359536 0.024985 0.0984687 0.131446 -0.24189 -0.227377 -0.0030251 0.0105815 0.134745 0.19574 -0.106396 -0.0689953 0.196531 -0.158784 0.322234 0.387894 -0.0845059 -0.226036 -0.381323 0.0436228 -0.00437748 0.141918 -0.136304 -0.119486 0.00530089 0.0846273 -0.066075 -0.15572 -0.0407709 0.146907 -0.154283 0.197064 0.0608455 0.0733561 0.0947697 -0.0724991 0.17676 -0.0946168 0.0449868 -0.124504 0.250894 0.142475 0.0494755 -0.137338 0.224191 0.0543985 0.379201 0.0452141 -0.000644774 -0.152597 -0.110805 0.0985014 0.0588243 0.262282 -0.00544947 0.120706 0.697143 0.0302561 0.270301 -0.19814 -0.11884 -0.0768085 -0.0589429 -0.0760147 0.158323 -0.100679 0.0592151 0.0362115 -0.131058 -0.579991 0.207692 -0.0491415 -0.0560138 0.0982625 0.305093 -0.0942828 0.157995 0.16866 0.259978 -0.0586301
52 -0.177102 -0.259344 0.0902518 -0.502592 -0.334044 0.0255434 0.557811 -0.0883716 0.0704008 -0.0762492 -0.071822 0.0995089 -0.0692448 -0.0903596 -0.0310674 0.093227 0.267426 -0.176688 0.0454383 0.0671471 -0.393545 -0.18278 -0.307087 -0.290143 -0.0204866 -0.0860823 0.0650808 0.0511788 0.138741 0.205409 0.0239834 0.0644539 0.209949 -0.355767 0.0415467 0.157683 -0.187295 0.242848 0.0981847 -0.24293 -0.213416 -0.0036941 -0.13425 0.0875262 0.206593 0.066369 -0.0203917 0.335715 0.185038 0.244148 0.214431 0.0788596 -0.13642 0.0431241 0.121049 0.165398 0.0936499 -0.0918813 0.106878 -0.0952555 0.346749 -0.115846 -0.163271 0.249604 -0.203534 -0.303644 -0.298598 0.155966 0.0517309 0.117963 0.0490918 0.0711668 -0.131355 0.183888 -0.186881 -0.187433 -0.0451769 0.141223 -0.343965 0.0808006 0.122899 -0.0213125 0.0780268 0.504174 -0.0925906 0.122351 -0.175664 0.179929 -0.110934 0.0120265 0.0677946 -0.146496 -0.0170556 0.164416 -0.0990225 0.324039 0.00754568 -0.00477115 -0.0200534 0.130575 0.0393272 0.174732 0.00982144 0.384376 -0.258917 0.0794258 0.177741 -0.289443 -0.102993 0.0585516 -0.0129447 -0.131499 0.155456 0.0598448 0.105884 -0.0932509 -0.401226 -0.0970487 0.192259 -0.732421 -0.238884 0.0951975 0.162754 -0.0864771 -0.144605 0.166255 0.257326 0.0880346
53 -0.107135 -0.0691147 -0.138987 -0.0840911 -0.0786439 -0.0549627 0.291234 -0.0598141 0.0151343 0.0656939 0.138303 0.0597336 -0.0994501 -0.0827798 0.197152 0.122215 0.00848425 -0.231902 0.0790106 0.287461 -0.0556213 0.0451628 -0.0331198 -0.0750972 -0.186238 -0.0408394 -0.289758 -0.155893 -0.125854 0.0461483 0.521477 0.11636 0.00111849 -0.202659 -0.0689553 0.141174 -0.203379 0.144318 0.105498 -0.138585 -0.247578 -0.148797 -0.239959 0.0225797 -0.0469037 -0.0479081 -0.111575 -0.0233808 -0.000887599 0.121767 0.23311 0.0217407 -0.237824 -0.0971663 0.146242 0.224799 0.249514 -0.10151 -0.215408 -0.119334 0.218332 0.0233914 -0.0495264 0.467881 -0.0396671 -0.167935 -0.340841 0.0363571 -0.0797512 0.12044 -0.0452362 0.145868 0.00212408 0.169118 -0.1599 -0.0501993 0.164978 0.0524308 -0.238766 0.0479355 0.211806 0.147291 0.209471 0.209512 0.262863 -0.0557595 0.152389 0.0253973 -0.0533372 -0.18556 0.141596 -0.157252 -0.171017 0.112458 0.180332 -0.0202291 -0.126421 0.0493391 0.0398968 -0.0362786 0.19376 0.126526 0.240728 0.112849 0.0085599 0.191542 0.253698 -0.0988673 -0.209451 -0.0664004 0.0216969 0.00242593 0.142603 0.242243 0.157967 -0.0691574 -0.294144 -0.214397 0.0698717 -0.476223 -0.183278 0.00906244 -0.0483685 0.00664083 -0.01405 -0.00917964 0.0997499 0.11115
54 -0.122385 -0.130224 0.00917332 -0.11602 -0.000108759 -0.125571 0.0377646 0.228184 0.233483 0.0916858 0.149086 -0.136053 -0.114472 0.181103 0.178279 0.233395 0.0938695 -0.0164584 0.113383 0.128513 0.0250534 -0.115693 0.168316 -0.15111 -0.00247343 -0.0451312 0.031316 -0.0515052 0.212808 0.0636383 0.30006 0.0111792 -0.0260806 0.088762 -0.00992821 0.0494319 -0.228929 0.287656 -0.219963 -0.0558646 0.0550397 -0.14923 0.145271 0.159215 0.125895 -0.261407 -0.0705251 0.0853032 -0.117152 0.197497 0.163049 0.277656 -0.0878044 -0.127923 -0.180498 0.148809 -0.0702426 0.11081 -0.407811 -0.0777362 0.0442893 0.086382 -0.018671 0.213156 -0.159771 -0.00892251 -0.130173 -0.0473747 -0.0860055 0.0185984 -0.142452 0.0684545 -0.145278 0.0868078 -0.0208839 -0.0683663 -0.419477 0.283416 -0.148878 0.11446 0.0565641 -0.0305348 -0.10791 0.0658354 0.0819653 0.145748 0.337961 -0.207898 0.0266832 -0.570206 0.124309 -0.121492 -0.236068 0.0832169 0.172488 0.253989 -0.146784 -0.191863 -0.0543586 0.204039 0.37285 0.106349 0.0979753 -0.00272801 -0.036997 0.0658211 0.417347 -0.0986626 -0.0262481 0.0136679 0.490462 0.0168134 0.138483 0.0367034 0.189872 0.815949 -0.0237488 -0.245608 0.122554 -0.0509293 -0.169342 0.00365509 0.230094 -0.0864353 0.485474 0.361486 0.112026 0.122772
55 -0.0459777 -0.18238 -0.101003 -0.281035 -0.0384163 -0.0876815 0.311538 0.164414 0.149911 0.138885 0.155248 -0.167767 -0.119415 0.0822803 0.0548485 0.248205 0.00463333 -0.0622588 0.13345 0.0400505 -0.0825173 -0.179112 -0.341443 -0.154712 -0.141417 -0.0494799 0.00782585 0.0835044 0.550963 0.00732203 -0.0294146 -0.299594 0.15997 -0.0102721 -0.321369 0.0337228 -0.206755 0.207719 -0.368032 -0.0659642 -0.00948643 -0.20466 0.157932 0.1194 0.0493828 -0.0284451 -0.0504508 0.0464794 0.303228 0.0183178 0.0466018 0.108375 -0.19655 -0.130714 -0.266809 0.0795172 0.0178425 0.125183 -0.531214 -0.134443 0.0475087 -0.120724 0.0378124 0.149927 -0.137024 -0.281743 -0.0222897 0.072941 -0.0933933 -0.0231463 0.0266841 0.0880069 0.00103511 0.207623 -0.0816613 -0.0888838 -0.199421 0.225847 -0.265272 0.131283 0.065848 0.129404 0.0787665 -0.111715 0.0783189 0.0271104 -0.102612 -0.35127 0.000765643 -0.366302 0.042107 -0.102463 -0.190079 -0.04468 0.00568712 0.351285 -0.00440583 -0.0996905 -0.0860052 0.200821 0.0398863 0.122566 0.1402 0.000125415 0.0334312 0.0642828 0.0659879 0.0901823 0.0682067 -0.106754 0.256893 -0.154914 0.200921 0.106348 0.146833 0.483526 -0.137692 0.0181723 0.0632693 -0.0797525 -0.0478944 0.189723 0.226953 -0.17911 0.382533 0.292516 -0.00614875 0.0989147
56 -0.163706 -0.24695 -0.0806701 -0.316928 -0.122315 -0.0715201 0.209615 0.114767 0.064644 0.330465 0.302171 -0.0772695 -0.122437 0.0452559 0.080978 0.0847494 0.0907712 0.0561033 0.188715 0.152255 -0.158622 0.0431182 -0.167131 -0.156922 -0.0884591 -0.0748185 -0.0170153 0.0127991 0.186635 0.205394 0.0708017 -0.26735 0.112687 0.190471 -0.126112 -0.0126405 -0.162098 0.20081 -0.181392 -0.171443 0.0714423 -0.110092 0.200631 0.0870773 0.216194 -0.104387 -0.140857 0.144042 0.276357 0.0970884 0.0979713 0.190108 -0.195388 -0.0916981 -0.531966 0.000547116 -0.105056 0.0210014 -0.309791 -0.172448 0.327734 -0.0686948 -0.151201 -0.117956 -0.287049 0.0441416 0.08595 0.161296 -0.119266 0.0534905 -0.0541344 0.193732 -0.0920845 0.224867 -0.0619766 -0.0120234 -0.0412738 0.0483139 -0.0312405 0.149213 0.0708777 0.011435 0.0414932 -0.0384768 0.034068 0.17884 -0.00450084 -0.00651775 0.105394 -0.488258 0.126751 -0.172007 -0.130348 0.137403 0.0254154 0.0387232 -0.0192049 -0.266748 -0.109804 0.137957 0.38568 0.0930376 0.258559 0.0546567 0.278244 0.105644 0.162152 -0.0283696 0.0513167 -0.123935 0.380788 -0.087506 0.0456608 0.203379 0.221468 0.560482 -0.0618883 0.0288018 -0.0156769 -0.0672762 -0.0778038 0.0233559 0.0858513 -0.126688 0.230741 0.401549 0.0118581 0.184519
57 0.0668744 -0.260201 -0.0515533 -0.176232 0.0465407 0.189592 0.104404 0.0697244 0.243253 -0.00964194 0.156088 0.000798976 -0.0426188 0.144384 0.0792312 0.400046 0.177161 0.0444921 0.0607301 0.190784 0.00609696 0.0121592 -0.245386 -0.135123 -0.0247619 -0.160247 -0.259489 -0.0316982 0.012941 0.137714 0.117257 -0.181985 0.209922 0.0050714 -0.0368798 -0.00142728 -0.27992 0.107702 -0.119396 0.0257124 -0.038235 -0.0897343 0.0312623 0.197988 0.0663767 -0.205625 -0.0862719 -0.0173524 0.318681 0.193282 0.106296 0.0791251 -0.120838 -0.148682 -0.0429594 0.0967176 -0.0701538 0.0711408 -0.589421 -0.0891744 0.194892 0.0997799 -0.00399389 0.0695493 -0.214281 -0.00313554 -0.0207187 0.139608 0.0462876 0.126822 0.0108404 0.24434 -0.0950587 0.0891536 -0.21261 -0.0973212 -0.127205 -0.048842 -0.0140062 -0.0167558 0.136252 0.130222 0.144102 0.189537 -0.0237463 0.209979 -0.0595313 -0.173565 0.148222 -0.331934 0.0138688 -0.148622 0.00781345 -0.0124124 -0.026801 0.241484 -0.137883 -0.253278 0.00581447 0.295194 0.374514 0.0766671 0.0639542 0.141705 -0.00146451 0.12589 0.470941 -0.064759 -0.030214 -0.0611744 0.201296 -0.136549 0.0997006 0.0287734 0.0236513 0.618622 -0.107774 -0.0657003 -0.0473079 0.0256627 -0.11281 0.096308 0.180072 -0.221199 0.575935 0.680905 0.135195 0.0208803
58 -0.0396629 -0.0568252 -0.107996 -0.196636 -0.0111231 -0.179357 0.144006 0.218912 0.149495 0.0504663 0.237222 -0.0808573 -0.0569561 0.0257322 0.197717 0.242655 0.140303 -0.034916 0.124698 -0.07981 -0.287055 -0.115362 -0.0101264 -0.149733 -0.00783353 -0.0231117 -0.14199 -0.183634 0.0345864 0.227976 0.0595927 -0.403056 0.05627 -0.0721593 -0.119194 0.211181 0.0305054 0.159933 -0.662562 -0.113754 -0.218324 -0.194651 0.00030327 -0.0022096 0.169425 -0.0765041 -0.243926 0.0777796 0.142235 0.221941 0.0707328 0.149451 -0.200022 0.077118 -0.316433 0.0936281 -0.104668 0.0563088 -0.769126 -0.0734033 0.17467 -0.254978 -0.0368261 0.0172028 0.084251 0.088339 -0.0789237 -0.0823635 -0.140945 0.0266019 -0.0339001 0.0903846 -0.242328 -0.00519842 0.0173902 -0.0909276 -0.294355 0.0975544 -0.262606 0.0304512 0.0853732 -0.0242216 0.052125 -0.144374 0.0709692 0.34247 0.210395 -0.269642 0.161826 -0.222313 0.0810722 -0.0948583 0.00395648 0.0255526 0.21306 0.244414 -0.109424 -0.0155173 -0.0993549 0.071253 0.039905 0.0326703 0.226879 0.147123 0.169506 0.133534 -0.0556294 -0.0425991 -0.0741955 -0.00615411 0.409486 -0.124341 0.0452438 0.161722 0.0724703 0.437595 -0.0314601 -0.0487255 0.118575 -0.0679832 -0.0914871 0.238833 -0.0133552 -0.0064006 0.233427 0.167326 0.0395411 0.0202904
59 -0.0566925 -0.172931 0.0338254 -0.227892 -0.00759633 -0.374709 0.240694 0.235616 -0.0354127 0.105271 0.073881 0.03139 -0.07459 0.161005 0.174336 0.252193 -0.0056094 -0.198751 0.0364628 0.0433808 -0.167702 0.0334348 -0.0167564 -0.181184 0.107602 -0.0117581 -0.03201 0.0195789 0.377659 0.124145 -0.0527579 -0.19457 0.0779655 0.14175 -0.271593 -0.0823327 -0.180521 0.112824 0.111509 -0.162386 -0.0925229 -0.217437 0.0206651 0.0502863 0.0690861 -0.135618 -0.212687 0.00570631 0.333493 0.103141 0.0835002 0.3313 -0.136555 -0.227648 -0.0872508 -0.0370584 -0.10629 0.0232896 -0.577479 -0.126386 0.298885 -0.0431332 -0.104368 0.165642 -0.123543 0.0148682 0.0773401 -0.0449274 -0.219604 0.15407 -0.162085 0.0235537 -0.16631 0.0806306 -0.0543622 -0.0701552 -0.119524 0.290522 -0.0431958 0.300868 0.0885066 0.123564 -0.0406082 0.189972 -0.0852161 -0.172535 0.0844508 -0.161536 0.0668123 -0.44682 0.101377 -0.158211 0.0123172 0.156668 0.0758303 0.183085 -0.154673 -0.235259 -0.116068 0.0754108 0.387305 0.0226876 0.154275 0.0732234 0.430017 0.0666045 0.153406 -0.162296 -0.0403951 0.0740406 0.376129 -0.0274417 0.195891 0.122927 0.0306371 0.534384 -0.0223898 -0.162107 0.144819 -0.0340335 -0.0550769 -0.0391217 0.0166265 -0.244396 0.704167 0.402434 0.045516 0.0598693
60 -0.116068 -0.297158 0.0116803 -0.383808 -0.0400265 -0.0696581 0.445259 0.0663689 0.0385577 0.0753398 0.148728 0.0320221 0.0932003 -0.0330947 0.1459 0.0181517 0.0971295 -0.241738 0.0651137 0.306406 -0.0353424 -0.0452398 0.00255529 -0.201406 -0.0646394 -0.0851477 -0.17922 -0.116072 0.197435 0.128656 0.455777 -0.0235566 0.0260789 -0.186351 0.0233451 -0.116815 -0.216353 0.148522 0.0552356 -0.147919 -0.109105 -0.157964 -0.0425299 0.140548 0.137896 -0.195475 -0.153933 0.16117 0.140466 0.190842 0.0408818 -0.0257213 -0.190661 0.0505263 -0.154121 0.259397 0.165434 -0.276459 -0.043244 -0.201215 0.099216 -0.0885773 -0.0943694 0.255808 -0.0578149 -0.16952 -0.151159 -0.0874573 -0.34427 0.084695 -0.140784 0.00187459 -0.0727842 0.0238563 0.0217493 -0.24796 -0.121511 0.218811 -0.0466386 0.0761637 0.163059 0.0668355 0.183732 -0.0448837 0.0361647 0.0436452 0.156187 -0.16086 0.223803 -0.21478 0.135453 -0.112564 0.00223292 0.121789 0.120466 -0.036817 -0.157355 -0.0491823 -0.121746 0.0657485 0.191304 0.046709 0.294364 0.47559 -0.290512 0.173878 0.325398 -0.159334 -0.190086 -0.0521654 -0.245638 -0.413189 0.010012 0.138486 0.0622512 -0.221648 -0.32673 -0.111458 0.21331 0.0211596 -0.105394 0.331118 0.0114288 0.009533 0.0635699 -0.259414 0.0776263 -0.0591295
61 -0.147451 -0.0197379 0.00170865 0.0130532 -0.189632 -0.0869796 0.28773 -0.111585 0.185829 0.200652 0.0695348 -0.0251423 0.024113 -0.0519137 0.212194 0.00671117 -0.0233941 -0.141645 0.263138 0.0522218 -0.131576 -0.155858 -0.0828016 -0.0900541 -0.0858144 -0.0887473 -0.161919 -0.0140235 0.173214 0.270117 0.357409 0.0675157 0.0921149 0.00380927 -0.0770507 -0.026727 -0.670498 0.292824 0.142152 -0.0492909 -0.226571 -0.0799041 -0.18256 0.20875 0.0517015 -0.230194 -0.0344299 0.153904 -0.105349 0.0437647 0.192075 0.129466 -0.104772 -0.137775 -0.218617 0.269337 0.214083 -0.104849 -0.133617 -0.138344 0.209337 -0.0905487 -0.172508 0.353991 -0.147611 -0.22936 -0.0576685 0.0902524 -0.00288274 0.104829 -0.176239 0.00248926 -0.111307 -0.0509117 -0.0660078 -0.326444 0.0596039 0.163806 -0.108716 -0.0937133 0.10864 0.068004 0.126645 0.145402 0.0381556 -0.0305168 0.157198 -0.112969 0.105945 0.104461 0.0738505 -0.128634 -0.123996 0.225443 0.242789 0.182595 -0.0250911 -0.115711 -0.0378555 0.143365 0.0866023 0.077142 0.113966 0.529987 0.0324393 0.0693445 0.0876489 -0.140032 -0.123562 -0.161803 -0.0946219 -0.00996422 0.097442 -0.0298557 0.252937 -0.00639888 -0.125518 0.0413354 0.152117 -0.202746 -0.0713385 0.260363 0.229712 0.0628624 -0.0396998 -0.24993 0.098409 -0.0875867
62 0.00853458 0.0018382 -0.180662 -0.189591 -0.0854175 -0.120518 -0.0685488 0.27754 0.261582 -0.0334139 0.141052 0.0359053 0.317557 0.211711 0.180554 0.236948 0.284142 -0.132996 0.0120264 -0.0168753 -0.00481111 -0.172709 0.0277277 -0.133195 -0.129601 -0.0801492 -0.085023 -0.100236 -0.0753717 0.0220392 0.0432596 -0.0717191 0.0953579 -0.0268882 -0.0665328 0.0126215 0.141608 0.14465 -0.38038 -0.0119466 -0.109472 -0.114297 -0.144979 0.0928131 0.0904565 0.0922026 -0.146401 0.16028 0.447616 0.137446 0.139876 -0.00910264 -0.0141531 -0.182498 -0.112004 0.115307 0.248222 -0.0562234 -0.115553 0.00717146 0.0965637 -0.253615 0.20277 -0.043308 -0.0131215 -0.142487 -0.0497442 0.0754965 -0.111145 0.0259012 -0.144134 -0.0265731 0.00372203 0.254981 -0.0321842 -0.275185 -0.487916 -0.0870419 -0.210478 0.218454 0.231815 0.0680908 0.040824 0.284251 0.37993 0.284347 0.0907816 -0.0639639 0.128529 -0.00399558 0.15698 -0.0963917 -0.0992073 0.138272 -0.076796 0.0558879 -0.184111 -0.0993536 -0.0916861 0.0334088 0.0739446 0.0374392 0.118255 0.0442891 0.189754 0.0974878 0.0778179 -0.196243 -0.0578128 -0.100821 0.12356 -0.19965 -0.0196712 0.00225339 0.00449221 0.159901 -0.0533403 -0.251147 0.11093 -0.080992 -0.200063 0.0463021 0.0330229 -0.0849389 0.0770385 0.00783551 -0.0108293 0.0597352
63 0.0351808 -0.0281823 -0.162699 -0.336722 -0.0722223 -0.127183 0.137135 0.031882 0.109476 0.186532 0.133901 0.0633669 -0.00315086 0.134139 0.0708017 0.103087 0.0914123 -0.19227 -0.01354 0.0332672 -0.1256 0.00812994 -0.180194 -0.049296 -0.0987126 -0.0493916 0.00268235 -0.114546 0.169747 0.146383 -0.176668 -0.0391368 0.141053 0.151922 -0.22685 0.176876 0.0335307 0.280761 -0.105581 -0.139212 -0.0884841 -0.120615 0.196064 0.221576 0.250139 -0.0717398 -0.0989518 0.0370135 -0.0299866 -0.0304714 -0.0623864 0.222592 -0.0930512 -0.0558106 -0.0865763 0.161346 -0.105216 -0.07758 -0.220872 -0.0911078 -0.0550282 -0.0436175 -0.115947 0.11879 -0.229353 -0.218982 -0.0615044 0.0307264 -0.0862007 0.0721732 -0.0548682 0.0151645 -0.148313 0.182645 -0.17841 -0.0615069 -0.0559444 0.127668 -0.195095 -0.00864039 0.133291 0.100973 0.0693611 -0.080959 -0.0540572 0.0462484 0.299918 0.041427 -0.0538447 -0.458677 0.0946235 -0.106462 -0.208693 0.113043 0.186842 0.126172 -0.04393 -0.266473 0.0455479 0.240022 0.197941 0.157261 0.0214085 0.114726 0.122838 0.153464 0.0936547 -0.0549526 -0.183597 -0.151674 0.208662 -0.0133376 0.00212297 -0.0158828 0.16909 0.551863 -0.145911 0.027555 0.126578 -0.187672 -0.0813805 0.276083 0.13049 -0.111226 0.345359 0.359153 0.103498 0.0714565
64 0.0313148 -0.0741931 0.00194935 -0.215773 -0.212502 -0.103738 0.470131 -0.055071 0.0667368 0.151377 0.142383 0.0744229 -0.0499012 0.0234705 0.187778 0.308844 -0.000169886 -0.0633996 0.0704165 0.198822 -0.0563974 -0.338761 -0.264969 -0.0890207 -0.363974 -0.0532254 0.0273079 -0.527121 0.0839408 0.0142128 0.075338 0.00639081 0.100736 -0.286522 -0.195129 0.307236 -0.0486067 0.026113 -0.128553 -0.177032 -0.0441918 -0.0122435 -0.195309 0.073828 0.0805765 -0.043633 -0.0719359 0.196375 0.215266 0.184933 0.0262917 0.0398552 0.00348611 -0.233645 -0.114875 0.170992 0.0144045 -0.157452 -0.291581 -0.142017 0.119942 -0.15477 0.0973869 -0.022573 -0.135288 -0.108326 -0.0421436 -0.00267611 -0.062803 0.00540535 -0.0535166 0.132533 -0.0150006 0.155346 -0.16094 -0.134779 -0.0249004 0.159764 0.0205723 -0.0593027 0.212777 0.0719658 0.230801 0.14374 0.0261986 -0.184631 0.0785908 -0.132192 0.214762 -0.104009 0.0861401 -0.0874094 -0.0203274 0.0817122 0.0976445 0.00317623 0.0545526 -0.136873 -0.11004 0.201431 0.280884 0.159935 0.172077 0.0610652 -0.116186 0.0430261 0.59353 -0.100614 0.162856 -0.072274 0.0649553 0.12046 0.0943626 0.267747 0.0980337 -0.00275962 -0.0854233 -0.066351 0.0716426 -0.00301145 0.0313318 -0.0249173 0.0172295 -0.0233737 0.300632 -0.0321886 0.179581 0.221201
65 0.0271229 -0.115217 -0.0815047 -0.019419 -0.055669 -0.00393403 0.221447 0.0988714 0.128037 0.177358 0.188083 0.00986612 -0.0729425 0.0555303 0.176683 0.175943 -0.0524016 -0.128885 0.00328895 0.154432 -0.0798478 -0.207816 -0.226521 0.0312855 -0.0301222 -0.143951 -0.0910091 -0.0268582 -0.00371761 0.0385232 0.174473 -0.0656024 0.166705 -0.211883 0.0195798 0.0568349 -0.263366 0.171184 -0.34257 -0.0380968 -0.157604 -0.135508 0.175107 0.0144399 0.0962912 -0.0135918 -0.0759482 0.282547 0.126926 0.119365 0.413745 0.112332 -0.149231 -0.196912 -0.0109046 0.0578739 0.28729 -0.0809042 0.234257 -0.237736 0.20604 -0.212842 -0.00688698 -0.0361369 -0.0780946 -0.228024 -0.195892 -0.101878 -0.0228927 0.104419 -0.050778 0.159631 -0.169896 0.141265 0.0298646 -0.218096 0.0114519 0.129007 -0.148877 0.150717 0.0506932 0.0328078 0.178138 -0.168076 0.406111 0.432879 0.159191 0.0428688 -0.0796876 0.0259668 0.0765558 -0.0123215 -0.194538 0.0344434 0.0451489 0.0653287 -0.11455 -0.129211 -0.0478585 0.00119145 0.0826348 0.119453 0.127854 0.0998828 -0.18696 0.224278 0.362441 -0.303804 0.0386803 -0.242558 0.201793 -0.0722013 0.287393 0.104072 0.0970838 -0.0923843 -0.161474 -0.25593 0.0174971 -0.595036 -0.0761927 0.190951 0.145203 0.0129403 0.0611048 -0.098426 0.113705 0.123238
66 -0.193591 -0.0591204 -0.0604553 0.0772728 -0.339642 0.0851457 0.0368013 0.104103 -0.167628 0.130986 -0.0633104 -0.0365975 0.252764 0.306352 0.144229 0.224674 -0.0951508 0.0154287 0.0351319 0.10361 -0.28689 -0.230759 0.189861 -0.101232 -0.0130256 0.0100545 -0.304398 -0.362607 -0.0917595 0.0184058 -0.0108257 -0.199405 0.0834992 -0.167802 0.123005 -0.149641 -0.113217 0.0852654 0.219434 -0.131506 -0.177241 -0.0643589 0.0771662 0.112271 0.193678 -0.0335204 0.0206336 0.0735214 0.0438506 0.149529 0.093887 -0.0058365 -0.0892856 -0.150355 -0.0555797 0.0897762 -0.0791945 -0.32265 -0.147839 -0.0513067 0.104779 -0.235728 0.363135 0.211999 -0.187663 -0.137237 -0.0845312 0.203345 -0.0325325 0.249466 -0.162372 0.156108 -0.224422 0.0693103 -0.0295228 0.0293677 0.0408305 0.221449 0.111918 0.084686 0.0533306 0.0743988 0.643462 0.204476 -0.169123 -0.243016 -0.0440902 0.0468336 0.182787 -0.29624 0.125096 -0.128775 -0.487233 0.137861 0.160625 0.323439 -0.0892467 -0.0181413 -0.132133 0.112169 0.200014 0.0446995 0.146181 0.29781 0.0408615 0.0444575 0.0213667 -0.0259227 -0.119171 -0.0868865 0.452121 -0.0390931 0.243183 0.298442 0.19474 0.0852177 0.0280764 -0.316388 -0.0418428 0.0778227 -0.0333897 0.162176 -0.0566923 0.0784591 0.419751 0.494215 0.192965 0.169359
67 -0.11392 -0.215841 -0.0160345 -0.0867073 -0.190458 -0.0806552 -0.15968 0.241827 -0.0140648 0.329611 0.106864 0.313838 0.331065 0.131389 0.315345 0.103033 -0.0421834 -0.167077 0.188366 0.0306818 -0.114057 -0.202244 0.00695791 -0.0711481 -0.0488329 -0.131278 -0.214361 0.00102848 0.0810549 0.142262 -0.057779 -0.0051982 0.26942 -0.107066 0.0840641 -0.287903 -0.144731 -0.0133685 -0.0632557 -0.342626 -0.288633 -0.106004 -0.412381 0.233981 0.131213 -0.265962 -0.269998 0.11351 -0.197157 -0.0742378 0.259001 0.00978222 -0.00474928 0.00743677 -0.20921 0.216861 -0.142266 -0.158221 -0.158455 -0.0204589 0.213552 -0.0541136 -0.0965306 0.0667231 -0.11603 -0.309481 -0.305537 0.106776 0.00185535 0.145872 -0.241237 -0.00602212 -0.0658278 0.163491 -0.00748982 0.0560993 -0.179736 0.23387 -0.10193 0.0933656 0.0999314 -0.00864513 0.702951 0.325461 -0.188466 -0.272632 -0.169151 -0.0129779 0.119215 -0.00815057 0.0921061 -0.157738 -0.455088 -0.0120745 -0.115341 0.0959898 -0.176659 -0.149369 -0.239522 0.217127 0.0768153 0.159632 0.188711 -0.0615833 0.540775 0.204395 0.366482 -0.0816596 -0.223587 -0.287725 0.1854 -0.184049 0.077847 0.0373579 -0.0615145 -0.110053 0.0147906 -0.1201 0.178075 -0.235733 -0.11466 0.0187689 0.0766856 -0.110942 0.214895 -0.07138 0.206414 0.045984
68 -0.281256 -0.0337488 -0.111648 -0.0372274 -0.083566 -0.0847503 0.270992 -0.0654285 0.182453 -0.0168629 0.0575686 0.114061 0.0923762 0.132924 -0.0448241 -0.0161055 0.303191 -0.207272 0.336385 0.0666003 0.127066 0.130171 0.159666 -0.0489811 -0.186307 0.0671875 -0.0589856 -0.0631807 0.345952 0.11543 -0.0648791 -0.503776 0.220813 0.106619 -0.0998096 0.132898 -0.149529 -0.0322209 -0.272191 -0.0333402 -0.0876218 -0.0373356 -0.0470182 0.133681 0.17704 -0.03477 -0.116763 -0.0922771 -0.121761 0.0551805 -0.0509448 0.0328475 -0.0977915 -0.0316954 -0.10402 0.19613 0.221842 -0.207644 0.023431 -0.0824693 0.0386152 -0.546654 0.471395 0.0281259 -0.42254 -0.130185 -0.110212 0.298733 -0.176361 0.0171557 -0.0766776 0.080752 -0.113374 0.133962 -0.167899 -0.14693 -0.342483 -0.0447484 -0.0927887 0.0662078 0.0488038 0.0602715 0.113629 0.0428909 -0.069092 0.220142 0.206742 -0.220184 0.00989772 0.0793802 0.20968 -0.0798005 0.0304273 0.231372 0.0880789 0.0788664 -0.134307 -0.108515 -0.0586903 0.431666 0.195725 0.164832 0.128053 0.0617871 0.234986 0.161376 0.135383 0.0824424 -0.49965 -0.114437 0.26672 -0.196211 0.066166 0.245398 0.0280955 -0.216819 -0.146528 -0.0372129 -0.0384694 -0.153557 -0.11112 0.074059 -0.0806287 -0.114888 0.097073 0.348041 0.144393 0.00216828
69 -0.146545 -0.0443873 -0.0458703 -0.0342875 0.0153376 -0.265372 -0.0729279 0.129016 0.23674 0.0602253 0.0182916 -0.0371013 0.118521 0.215834 0.127217 -0.0921947 0.151928 -0.219874 0.128344 0.160411 -0.109662 -0.150569 0.158852 -0.0927832 0.0369106 -0.0213074 -0.1434 -0.138344 0.129327 0.128178 -0.0881366 -0.291045 0.167014 -0.0452033 -0.0362468 -0.050208 -0.293278 0.0574683 -0.178602 -0.0462126 0.0142228 -0.0113542 -0.497466 0.0831222 0.0340645 0.0403215 -0.136044 0.132988 -0.0573782 0.0462417 0.0104753 -0.00672379 -0.0105122 -0.159055 -0.25745 0.117799 0.156456 -0.299054 0.0960466 -0.094543 0.251979 0.0171463 0.316724 0.0134013 -0.152529 -0.0838599 -0.63205 0.0655273 0.0860059 0.161402 -0.116667 -0.0482512 -0.135473 -0.0459866 -0.09463 0.0384266 -0.0312867 0.0669264 0.0153799 -0.0683218 0.0830874 0.0669918 0.509432 0.349879 0.178463 0.228502 0.329198 -0.0366038 0.412389 0.185482 0.0373105 -0.0935468 -0.179403 0.107537 0.0530399 0.0698911 -0.144385 0.0817082 -0.0715359 0.278802 0.13841 0.0198451 0.132002 -0.079811 -0.0451361 0.125887 0.566844 -0.068471 -0.38468 -0.0641383 0.21742 -0.174218 0.296619 0.118031 0.0638133 0.0519406 -0.221973 -0.0298949 0.0894148 -0.233471 -0.0249256 0.199929 0.340566 -0.294672 0.303919 0.613875 0.216577 0.0146948
70 -0.219827 -0.223061 0.0220134 -0.269863 0.0192674 -0.0738863 0.117822 0.0631013 0.221392 0.0803705 0.0220108 0.236252 -0.00470835 0.134702 0.045156 0.358806 0.0334264 -0.0684673 0.100234 0.337516 -0.00905776 -0.0798453 -0.545567 -0.183915 -0.138173 -0.0214261 -0.126535 -0.175215 0.276574 0.194918 0.0378099 -0.127938 -0.0717215 -0.362018 -0.0623708 0.198753 -0.239912 0.138871 -0.0421326 0.0170816 0.00965405 -0.0590134 0.236533 0.0734412 0.206464 -0.0434803 -0.459179 0.0290914 -0.0594366 -0.0541493 0.234859 -0.0414385 -0.119465 0.074611 -0.17965 0.179985 0.0649503 -0.0431097 -1.0699 -0.168695 0.146745 -0.410267 -0.0942641 0.115149 -0.122599 -0.0364048 -0.363385 0.221335 -0.0904926 -0.0476507 -0.0859873 0.160005 -0.0668737 0.106557 -0.159619 -0.0190118 -0.349264 -0.0608952 -0.0509985 0.119179 0.0523856 0.0275013 0.18054 0.0213729 0.517823 0.19248 0.422481 -0.0140908 0.131902 -0.113643 0.0629003 -0.141131 -0.463415 0.071887 -0.0402377 -0.173009 -0.224904 -0.0419742 -0.132273 0.0857723 0.101925 0.14951 0.0282441 -0.042764 0.194461 0.0984989 0.173712 -0.098191 -0.201115 -0.060096 0.288172 0.0624667 0.198972 -0.103815 -0.0309643 -0.0419702 -0.0229449 -0.187221 -0.00313547 -0.137516 -0.379267 0.210415 0.204585 -0.222901 -0.117492 0.174029 -0.0457083 -0.0450273
71 -0.205457 -0.0634137 -0.11878 -0.164942 -0.0274335 -0.0844786 -0.00335145 0.139597 0.0251013 -0.1222 0.0634542 0.413927 0.248604 0.208993 0.0626067 0.364092 0.0540302 0.0120214 0.0536768 0.173427 -0.18519 -0.0147657 -0.627888 -0.0085566 -0.283484 -0.261889 -0.0162366 0.0735962 0.412987 0.0623955 0.0772529 -0.0592238 0.00566357 -0.586738 -0.26367 0.0940465 0.0494707 0.00667642 -0.215757 -0.111456 -0.100934 0.0928627 0.113793 0.140197 0.239435 -0.136757 -0.259671 0.0652031 0.105963 0.177452 0.21646 -0.0256749 0.00531121 0.0817417 -0.131572 0.249723 0.297548 0.0249868 -0.923775 -0.138632 0.156044 -0.193461 -0.0374089 0.405068 -0.175532 -0.218502 -0.128352 0.211923 -0.0474915 0.0904625 -0.0705096 0.104249 -0.0348719 0.0992053 -0.0872461 0.0294716 -0.511737 0.14698 0.158909 0.0354446 -0.0620011 0.113397 0.453097 0.150997 0.672281 -0.181234 0.115435 -0.0291479 0.0682987 -0.225267 0.0708042 -0.154934 -0.262677 -0.0846465 -0.150579 0.260059 0.00278494 -0.0690805 -0.0518993 0.173973 0.0369283 0.153436 -0.123166 0.118741 0.132287 0.00761834 -0.101991 -0.0395257 -0.151978 0.00492238 0.326269 -0.124098 0.00570218 -0.0508733 0.202071 0.0438509 -0.0781408 -0.0271626 0.081784 -0.0676336 -0.0473546 0.15278 0.275961 -0.0370861 -0.00475824 0.248552 0.040966 -0.0105922
72 -0.135179 -0.100908 -0.0922905 -0.0241048 -0.439141 -0.172824 -0.0257652 0.00993952 0.0948324 -0.168012 0.0126772 0.24984 -0.0928932 0.298119 0.066775 -0.173758 0.503981 -0.0344831 0.0443844 0.0764197 -0.0505553 -0.115189 0.180231 -0.280376 -0.0329322 -0.263445 -0.286474 -0.0637889 0.231383 0.230793 0.26689 -0.11087 0.0523595 -0.382761 0.0231926 0.074316 0.150557 -0.107555 -0.393152 -0.0985516 -0.0880696 -0.146791 -0.0328253 0.296128 -0.0579912 0.0331813 0.0221923 0.0932513 0.308427 0.0505767 -0.0633858 0.141209 -0.064394 0.0993304 -0.40869 0.161706 0.253471 -0.040249 0.11866 -0.0846084 0.0867468 -0.592612 0.00261735 -0.00108181 0.00527182 -0.0445843 -0.593315 0.518204 -0.179014 -0.0231945 0.0786475 0.280592 -0.00803394 0.165852 -0.0453075 -0.676339 -0.0276807 0.257318 -0.0310302 0.274823 0.374291 0.194757 0.358446 0.313904 -0.0312453 0.0135735 -0.0857562 0.00807622 0.405588 0.307034 0.0105731 -0.141674 -0.0732735 -0.0482049 0.153605 0.176483 -0.161526 0.00432029 -0.100902 0.0100977 0.0147663 0.105385 0.309857 -0.0801517 0.655897 0.154326 0.122943 0.0471828 0.0424683 -0.294917 0.573246 -0.226478 0.133132 0.196206 0.179618 0.192742 0.0791579 0.0173486 0.229577 -0.187124 -0.282586 0.0320903 0.0371325 -0.114824 -0.0504951 0.687694 0.0260185 0.0471311
73 0.0951476 -0.0345629 -0.098273 -0.0255068 -0.0882065 -0.109871 0.193381 0.192679 -0.0438457 0.0565461 0.312368 -0.16566 0.226754 0.183195 0.0664077 0.102363 0.274235 0.0110904 -0.0189906 0.162916 -0.208141 -0.425113 -0.0126241 -0.115439 0.0413374 -0.278726 -0.0207088 -0.0225173 0.126353 0.173998 0.126914 0.0769533 0.00581921 -0.443313 0.0812951 0.281898 0.118694 0.266902 0.0712571 -0.221972 -0.186885 -0.0895551 -0.406805 0.202106 0.165874 -0.334972 -0.0106379 0.083945 0.14086 0.0193935 0.159355 0.281717 -0.00573289 0.0599388 -0.00971101 0.0557014 0.0544177 -0.0307725 -0.0212157 -0.00642508 0.212316 0.0307121 0.308095 0.128019 0.104473 -0.0812052 -0.151039 0.199155 -0.154038 0.158116 -0.107472 -0.0268175 -0.0570622 0.0494348 -0.119461 -0.416894 -0.473024 0.0177058 -0.198495 -0.0976538 0.239883 0.0921166 0.173532 0.430209 -0.0649879 0.221752 0.169458 -0.0428841 -0.0246169 -0.236101 0.0570926 0.00634087 -0.399372 0.212151 0.400979 -0.0149101 -0.0912658 -0.189948 -0.142164 0.0923386 -0.0163114 -0.076384 -0.0179213 0.0128465 0.382831 0.0684852 0.349144 -0.0848021 -0.0695735 -0.0778543 0.101287 -0.04898 0.0253729 0.0727015 0.167644 -0.165665 -0.152826 0.0667727 0.194981 -0.681558 0.0265969 0.0799008 0.105709 -0.120059 0.0157386 0.0835301 -0.0312515 0.0708909
74 -0.0629835 -0.298652 -0.0876404 0.0390831 -0.198077 -0.107613 0.389445 0.245395 -0.0662215 0.102038 0.0511785 -0.0900284 0.0767663 -0.0312047 0.0735034 0.10193 0.156956 -0.107725 0.120096 0.0292227 -0.370341 -0.543554 0.00152259 -0.0592187 -0.0680599 -0.0102622 -0.00129997 0.000281954 0.0499596 0.276101 0.149019 0.00690909 0.401665 -0.305023 -0.0947767 -0.179982 0.0208271 -0.0616291 -0.0774495 -0.329108 -0.000727905 -0.0194435 -0.654731 0.146709 0.351982 -0.228332 -0.218801 0.182999 -0.0340937 0.20669 0.0963205 0.0631726 -0.100314 -0.0698694 -0.0826376 0.220107 0.0475802 -0.140143 -0.267986 -0.0777889 -0.209806 0.000207337 0.247109 -0.0279599 -0.160669 -0.113974 -0.148893 0.21555 -0.115137 0.104933 -0.231453 0.217307 -0.136691 0.0486104 -0.0410523 -0.116205 -0.321986 -0.0882426 -0.125339 -0.0901363 0.0741398 0.0698512 0.332523 0.36109 0.154248 0.179338 -0.131871 -0.0279918 0.179156 -0.104456 0.0644265 -0.0368407 -0.122767 0.165003 0.0873529 0.0905062 -0.111522 -0.153887 -0.0254676 0.0559727 -0.013314 -0.00333139 -0.0398141 0.0384927 0.140747 0.215523 0.329107 0.0514632 -0.0792894 -0.0944063 0.137974 -0.191153 -0.0708178 0.184515 0.0602561 -0.141617 -0.326558 -0.143006 0.201737 -0.278129 -0.163014 0.0665029 0.269174 -0.02925 -0.0326913 0.29139 0.000103009 0.0613221
75 -0.0777644 0.0689231 -0.202929 -0.0398395 -0.0694322 -0.381861 -0.15997 0.469847 0.115864 0.337305 0.0936395 0.305318 0.0753817 0.0293554 0.244827 -0.0953204 0.0597333 -0.16558 0.0530387 0.0289546 -0.155737 -0.578908 -0.235526 -0.271695 0.0115088 -0.149885 -0.2242 -0.0252278 0.0557555 -0.00193626 0.206032 -0.0886372 0.022823 0.027135 -0.05442 -0.0694276 0.183746 -0.0166811 -0.0440955 -0.277215 -0.0544505 -0.102037 -0.147948 0.177875 0.236762 -0.0902436 -0.0187808 0.247411 0.798159 0.061485 0.172072 0.0521116 0.0536546 -0.137237 -0.115618 -0.0480677 0.10073 -0.216228 -0.521742 -0.0787732 -0.0697501 0.0196388 0.759947 0.13212 -0.0341243 -0.0355312 -0.266888 0.00694875 -0.0905087 0.107857 -0.0119192 0.22106 -0.0753893 0.112699 -0.172818 -0.054701 -0.547003 0.158107 -0.105352 0.149813 0.0701154 0.169918 0.184006 0.241218 0.0496404 0.0437404 0.10695 0.00687407 0.215934 -0.15335 0.0868271 -0.108375 0.101822 0.103503 0.160468 -0.0138737 -0.23968 -0.0059412 -0.0397377 0.0685235 0.113538 0.162884 0.209294 0.0671197 0.113475 0.10429 0.010655 0.0332837 -0.291622 -0.208155 -0.0938678 0.0232183 0.176176 0.172644 -0.011035 0.280691 -0.01267 -0.121865 0.157472 -0.278955 -0.0913833 0.0203555 0.404837 0.0390171 -0.0955779 0.595046 0.19784 0.0126273
76 -0.121797 0.0195416 -0.293757 -0.115828 -0.370918 -0.149584 -0.0858798 0.41336 -0.0725398 0.286839 0.23677 0.51313 0.13247 0.000633074 0.0372831 0.00840973 -0.048132 -0.115796 -0.0204059 0.134774 -0.0965558 -0.369732 -0.0139727 -0.00183045 0.076165 -0.205092 -0.0645018 0.0233196 -0.0560626 0.113602 0.138874 -0.317562 -0.027634 -0.291499 -0.114169 -0.110777 -0.289277 0.197507 0.00726905 -0.340882 -0.0615051 -0.146341 -0.220686 0.143875 0.280659 -0.212827 0.115424 0.173086 0.240951 -0.00786677 0.237968 0.0218969 -0.012858 -0.534429 -0.115106 0.206902 -0.0110922 -0.0462684 0.061917 0.0315624 0.289236 -0.00769292 0.657312 -0.0592446 0.133797 -0.0121908 -0.442736 -0.00306513 -0.147876 0.0624662 -0.0762193 0.317987 -0.279033 0.187037 -0.1165 -0.00497326 -0.412297 0.0928007 -0.119533 0.404458 0.174971 0.217391 -0.0279207 -0.0596949 -0.146201 -0.0592296 0.28704 -0.129916 0.248217 -0.902167 0.209431 -0.00681026 -0.182423 0.119549 0.00129554 0.194574 -0.0160825 -0.0311718 -0.097649 -0.0957225 0.0130619 0.213387 0.0349094 0.396546 0.312365 -0.0114101 0.353624 0.0429337 -0.0357032 -0.307141 -0.0840647 -0.0624273 -0.0507085 0.0427989 0.164131 0.225579 0.0999178 -0.173581 0.16448 -0.0673746 0.031612 0.0244772 0.274133 -0.122949 0.116774 0.329022 0.094399 0.248519
77 -0.00818958 -0.160823 -0.0808471 -0.180218 -0.234477 -0.528324 0.172228 -0.0103182 0.204901 0.229979 0.220179 0.32711 0.0731432 0.0159478 -0.159825 0.0464638 0.0563605 -0.00361415 0.0419734 0.208184 0.000102189 -0.192644 -0.00965134 -0.145538 -0.393251 -0.0104469 -0.0784328 -0.168739 0.0983439 0.10822 0.00219564 -0.104099 0.00685987 -0.335031 -0.0897973 0.415094 0.210962 0.111331 -0.175751 -0.0753683 -0.248141 -0.108938 0.168588 0.0963586 0.15278 -0.0463639 -0.271659 0.0180546 0.0174915 0.161299 0.035699 0.170975 -0.243543 -0.257567 0.0830013 0.112252 0.11015 -0.238379 -0.184351 -0.0316928 0.0391161 -0.124444 0.0855952 0.0306816 -0.0972793 -0.212059 -0.32942 0.132706 -0.0778049 0.0795909 -0.115672 0.0743949 -0.0355335 0.0986999 -0.0429323 -0.477518 -0.535707 -0.0216072 -0.189815 0.223786 0.241964 0.16934 0.517763 0.052057 0.0525299 0.160651 0.451744 -0.136395 0.0806835 0.171749 -0.069544 -0.0206731 -0.282473 0.240154 -0.115501 0.441763 -0.0103443 0.0329987 0.0539429 0.161148 0.0735055 0.111816 0.120953 -0.0852041 0.254421 0.00458891 0.134101 -0.0371653 -0.172475 0.0942529 0.0674869 0.00419519 0.00749589 0.103207 -0.0100338 -0.0150109 0.0681188 -0.234727 0.227961 0.210923 -0.0737966 0.123969 0.163773 -0.0495159 0.0966406 0.0776177 0.0680085 0.237417
