986 128
0 0.0505058 0.257175 0.0531623 -0.208354 -0.0998602 0.0219447 0.134909 -0.249172 -0.378392 -0.13327 0.0630441 0.197182 0.0791544 0.106457 0.0532154 0.268097 -0.187004 0.362177 0.166442 -0.25345 -0.0745561 -0.199059 0.0204099 0.249788 0.395043 0.299455 0.108691 -0.292501 -0.125225 -0.35065 0.0761346 -0.621367 0.182807 -0.238182 -0.0937532 0.422665 -0.363787 -0.0880226 -0.0219193 0.193708 -0.137986 -0.138501 -0.202277 0.139864 0.127469 -0.506374 0.15145 0.260836 -0.183937 0.177861 0.104553 -0.121123 -0.279337 0.0965391 0.132625 -0.0766234 -0.101894 -0.754692 -0.281603 -0.44057 0.427924 0.0503049 0.337705 0.386071 -0.0237802 0.176919 -0.262582 -0.188812 -0.19419 -0.243451 -0.0121871 0.103301 -0.238407 0.123371 0.2464 -0.385177 -0.194024 -0.0739505 0.100812 -0.122394 -0.232902 -0.0804254 -0.0671546 -0.00714031 -0.369854 -0.0063786 0.235814 -0.10766 0.0291414 0.0344326 -0.102266 -0.16554 -0.409102 0.265741 -0.0062387 -0.164811 0.0694581 -0.156351 -0.383348 -0.0381891 0.0378765 0.387539 0.036475 0.166456 0.319871 -0.0419091 0.0694082 0.105168 0.208837 -0.0323015 0.229915 -0.0340323 -0.0977699 -0.144759 -0.154945 0.564991 0.0102059 0.337694 -0.181516 0.0926187 0.250524 0.218547 -0.0476915 0.117654 0.0191132 -0.0533843 0.0399289 -0.0743292
1 -0.140926 0.0680419 0.234752 0.523121 0.0259601 0.119267 0.27909 0.139143 -0.200798 -0.272435 -0.321652 0.168582 0.418146 -0.0237817 -0.347301 -0.108704 -0.244986 -0.123882 0.0563952 0.20496 0.185101 -0.146871 0.181756 0.16628 -0.192559 -0.293713 -0.286823 0.107823 0.0956887 -0.469009 -0.212923 -0.146044 -0.00644128 -0.102515 -0.0991049 -0.200465 -0.18236 0.152663 -0.202588 -0.146243 -0.273377 0.00620456 -0.28307 0.0936328 -0.270717 -0.356749 -0.174918 0.317211 0.105806 0.35475 -0.0773689 0.00188184 -0.253275 0.0964169 0.249398 -0.0528557 -0.326883 -0.19475 -0.123455 0.0869587 0.267051 -0.030742 0.251909 0.139245 0.0939327 -0.23896 -0.200642 -0.106334 0.0687549 -0.0852889 -0.146841 -0.103064 -0.153411 0.169747 0.0334832 -0.178551 0.0619497 0.0902126 0.00364793 0.0457931 -0.180956 0.0346204 -0.0173845 -0.129891 -0.0600131 0.0226421 0.344588 0.235821 -0.309664 0.181042 0.284468 0.149493 0.132458 -0.0157806 -0.211453 0.101231 -0.0487927 0.0634433 0.02831 -0.143294 0.350048 0.176852 0.25758 0.220105 -0.107633 0.0390019 -0.0885058 -0.00906185 0.124242 -0.0706068 -0.4813 0.0837142 -0.172505 -0.361524 0.410514 0.58282 -0.0587094 -0.143713 -0.158156 -0.153291 0.152006 0.108398 0.257714 0.0953611 -0.144069 0.100378 -0.173944 -0.426252
2 0.100644 -0.140996 0.190729 -0.0328516 -0.150049 -0.0894234 0.138684 -0.140998 -0.0455688 -0.0357917 -0.0350364 0.0638857 -0.111364 -0.0560126 -0.20873 0.168905 0.271188 -0.0832461 0.0205643 -0.136604 0.153307 -0.0969851 -0.0716494 0.205766 -0.0929045 0.142625 -0.0266548 -0.00402525 0.367279 -0.307877 0.0718128 -0.0920816 -0.228319 -0.11444 -0.235017 -0.0974311 -0.128953 0.10119 0.182352 0.0627791 0.0866867 0.185372 0.187248 0.0361617 -0.00666197 0.0145964 -0.122093 -0.165471 -0.094103 -0.213641 -0.0266887 -0.102012 0.124869 -0.0712792 -0.0201048 -0.0811073 -0.0355665 -0.161034 0.0286575 0.0310348 0.16398 0.0528385 0.488587 0.165151 0.138267 0.0402491 -0.0664817 0.212926 0.0676172 0.18951 -0.338981 -0.0805724 -0.338315 0.254368 -0.113948 0.00154262 0.24346 -0.114107 0.343345 -0.297663 -0.0284637 0.28204 -0.107491 0.0893582 -0.200105 0.0407299 0.388391 0.0118105 0.0990177 -0.0355129 -0.0775031 -0.0901209 0.270845 -0.16845 -0.040513 -0.212703 0.0534311 -0.1059 -0.412034 0.0104442 -0.345501 0.0914939 0.0323343 -0.300552 0.0843065 0.190144 0.0766991 0.167211 0.121392 0.109444 -0.214627 0.166391 0.111425 -0.340594 -0.194072 -0.0680277 -0.404166 -0.148998 -0.022624 0.118202 -0.000536188 0.0978155 0.0147222 -0.0566724 -0.053351 0.143222 -0.00150162 -0.271677
3 -0.0687315 -0.126049 0.288455 0.0486589 -0.12405 -0.161713 0.238551 -0.0940143 -0.0383984 0.00688646 -0.0481967 0.299657 -0.00776956 -0.0568287 0.342456 -0.124403 0.0678282 0.130983 0.215925 0.202608 -0.191587 0.0273043 0.254129 -0.0956455 0.217505 0.332868 -0.484602 -0.0966894 0.39534 -0.348675 -0.0142446 -0.148472 -0.000394845 0.0393691 -0.124744 -0.0251742 0.0106802 -0.0337807 -0.269465 -0.172046 -0.159346 -0.148562 0.0649892 0.0533721 -0.0730964 -0.00956934 0.269196 -0.372948 -0.200327 0.141064 -0.0183029 -0.0702686 -0.139468 0.13292 0.0537074 -0.0821885 -0.157145 0.19191 0.0860522 -0.28267 -0.239604 0.121679 0.266714 -0.094497 -0.0467208 0.162487 -0.0638244 0.0186039 0.167515 0.227814 -0.28191 0.194351 -0.26639 0.193319 -0.131938 -0.0874049 -0.203623 -0.209695 0.219409 -0.22765 0.0430292 0.421045 -0.0545005 -0.233614 -0.146756 0.241097 0.421533 0.419806 0.0886738 -0.0556938 0.153523 -0.0384516 0.334787 0.0784784 0.0301062 -0.114827 0.077396 0.329558 0.110138 -0.0418068 -0.0523018 0.193538 -0.130606 -0.470658 -0.0558185 -0.150237 -0.0757346 -0.123578 -0.31076 0.0188672 0.320241 -0.389002 -0.108618 -0.264059 -0.092139 0.0868291 -0.408569 -0.140615 -0.0550703 0.412775 -0.0102064 -0.050905 0.0555575 -0.0732898 -0.113272 -0.0293704 0.0427751 -0.211992
4 0.0525544 -0.0535988 -0.423539 -0.275123 -0.123586 -0.0287639 0.194005 -0.0234575 -0.104552 0.0458253 0.0348447 0.0615071 -0.492798 -0.00358196 0.253953 0.055661 0.0873584 0.109921 -0.186403 -0.0166134 0.0609831 -0.14925 0.033232 -0.083637 0.116392 -0.268185 0.200571 -0.326626 0.489675 -0.336276 -0.13757 0.0527501 0.0353299 0.0429302 -0.454006 0.054185 0.121364 0.244185 -0.199952 0.137136 -0.0598067 0.0982426 0.0224449 -0.0216003 -0.12553 -0.170821 -0.0343852 -0.0790077 0.0334646 0.174923 0.0331265 -0.0665318 0.191894 0.153223 -0.0819375 -0.128745 0.0874 -0.0463908 -0.00711223 -0.0456987 0.140753 -0.00380306 0.345256 0.130133 -0.213608 -0.0891947 0.146894 0.0322714 0.284799 0.110886 -0.387571 0.0353931 -0.0227031 0.282014 -0.0993493 -0.246412 0.040638 -0.150291 0.310445 -0.264914 0.102547 0.280232 -0.063714 -0.00319482 -0.17634 0.0458612 0.329612 0.313134 -0.269872 0.612885 0.165424 0.0812711 -0.080748 0.0298889 -0.0337631 -0.154173 -0.152236 0.0242328 0.0688229 -0.159201 0.206318 0.198701 0.281553 -0.0289932 -0.0485278 0.0780149 0.135602 0.143161 0.310028 0.0666286 0.064242 0.0875633 -0.0731847 -0.199255 -0.422594 -0.0274673 -0.337839 0.00209518 0.114802 0.230138 -0.0449337 0.157583 -0.0633669 -0.0669902 -0.188703 -0.0553986 0.12906 0.0484329
5 0.0189159 0.120457 -0.118787 -0.326783 -0.215873 -0.248531 0.0997238 -0.0154371 0.195296 -0.202937 -0.052883 0.111989 -0.0807169 -0.00720489 -0.0286823 0.0397556 -0.0103363 -0.110945 -0.12577 0.0778631 -0.0801492 0.0316498 -0.0213136 0.105347 -0.0971472 0.547172 -0.221797 -0.215198 0.3477 -0.342304 0.169415 -0.159259 -0.298703 0.00855382 -0.292009 -0.0536379 0.163124 0.00716826 -0.089424 0.0627255 -0.128578 0.0731765 0.0755337 -0.204227 -0.0466508 -0.216084 0.0668587 0.263852 -0.08119 -0.154598 0.0130916 0.197198 -0.135409 0.153777 -0.126886 -0.237621 -0.0140257 -0.167061 0.128486 0.019838 0.000157214 -0.0679449 0.193148 0.156294 0.0117891 -0.0228275 -0.13069 -0.12803 0.16527 -0.132891 0.105362 0.0539814 -0.0293001 0.335909 0.0944587 0.118775 0.10207 -0.242827 0.209769 0.00663051 -0.197179 -0.00308814 -0.163771 -0.213034 -0.149048 0.225821 0.264322 -0.0522878 -0.0496086 -0.0262838 0.00464874 -0.27769 -0.120377 -0.178884 -0.222258 -0.139891 0.216219 0.153009 0.267801 0.0337068 0.187613 0.232682 0.0235863 -0.195371 0.0794121 -0.164247 0.0649547 -0.0669556 -0.369122 -0.117978 -0.11273 0.0972434 0.111731 -0.0764199 -0.0317124 0.171327 -0.174578 0.0450143 -0.0329016 0.36126 0.0137648 -0.0502971 0.195239 0.11621 -0.0173164 -0.0606107 -0.0688383 -0.363881
6 0.00625341 0.109362 0.13633 0.410234 -0.0125385 -0.106791 0.0889682 -0.0897797 -0.0810072 0.022396 -0.0857764 -0.0982937 -0.00705525 -0.173655 -0.100916 0.116294 0.0776519 -0.208223 -0.0128379 -0.0466423 -0.119164 0.122089 0.195731 -0.265812 -0.0400205 0.077994 0.0777118 0.0267752 0.125204 -0.395901 -0.0547007 0.0184981 0.0237445 -0.179968 -0.205767 0.000661902 0.235587 -0.107071 -0.123436 -0.0227087 -0.0487248 -0.0250505 0.11785 0.0316938 0.0848906 -0.127038 0.293079 0.0253271 -0.11595 0.0584089 -0.000294587 0.290817 0.221129 0.162813 -0.0160314 -0.309879 0.0157978 -0.136998 0.0847567 -0.00708984 -0.132644 0.07267 0.340871 0.264326 -0.0648758 0.204409 -0.00904397 0.0555398 0.0282699 -0.0637066 0.127018 -0.130041 -0.0429849 0.346531 -0.0342927 -0.275361 0.0247565 -0.0931521 0.192915 -0.0136439 0.0572607 0.121995 0.0118056 0.0218817 -0.0679838 0.231884 0.251481 0.375713 -0.239571 -0.218192 -0.34981 -0.183177 -0.257785 0.106129 -0.02776 -0.0488984 0.151205 -0.280811 0.123 -0.157124 0.142775 0.217729 0.0380147 0.209728 0.0109546 -0.102812 -0.0109543 0.119613 0.0223133 -0.0937986 -0.0646691 -0.082537 -0.0981388 -0.219911 -0.379227 0.21275 -0.129254 0.0174672 -0.0639346 -0.0148867 0.0609533 0.283459 0.0156645 0.121148 0.321776 0.0727803 -0.160021 -0.190795
7 0.0171228 0.172824 0.035517 0.128071 0.110723 0.0920586 0.381405 0.00637669 -0.180157 -0.115028 0.0252422 -0.32143 -0.320611 -0.235793 -0.0932387 0.413233 0.0738274 0.111892 0.24936 0.224362 0.15119 -0.0361012 -0.188615 0.112261 -0.213847 -0.142333 0.163941 0.213128 0.340859 -0.494686 -0.316482 0.142419 -0.389833 0.192635 -0.404983 -0.0266421 0.271459 0.0872625 -0.253876 0.0575245 0.0836024 -0.106397 0.227753 0.0435365 0.271443 -0.242703 -0.234914 -0.129553 0.184208 0.132425 0.0292029 -0.252155 0.0585833 -0.0777549 -0.0566568 -0.29334 -0.0171531 -0.137217 0.00975317 0.265435 -0.0849997 0.0366593 0.220947 0.397087 -0.108736 -0.00924359 -0.234844 0.658028 0.0201184 -0.260532 0.0862106 0.133758 0.0502801 0.465493 -0.0573047 -0.179051 0.147377 0.0537786 0.170619 0.0586903 -0.268025 0.229433 0.096255 0.0857416 0.0886281 -0.0481912 0.0823451 -0.330641 -0.126544 -0.163573 -0.240254 -0.0467437 0.0271933 -0.0783167 0.158108 0.104712 0.113923 0.105035 -0.0148251 -0.211531 0.530408 -0.00877663 -0.0437936 0.133293 0.265805 0.0378239 -0.0571945 -0.284578 -0.181135 0.102037 0.182934 0.28517 0.0067812 0.0623238 0.321818 -0.0275093 -0.363333 0.163816 -0.263107 -0.0536384 0.0326776 -0.028005 0.120623 0.0321092 -0.353797 -0.0104461 -0.221722 -0.140551
8 -0.198436 -0.0826385 -0.123497 -0.306447 0.213789 0.0678493 0.61516 -0.198489 -0.556271 0.0477053 0.19532 -0.0112116 -0.404781 -0.111012 -0.283932 -0.0651661 0.190493 -0.0986506 0.161174 0.132649 -0.142764 0.28982 -0.256414 -0.459879 -0.0651981 0.141359 0.267561 -0.145929 0.169262 -0.510076 0.0210648 0.277856 0.0107798 0.266938 -0.552932 0.11612 0.290579 0.252719 0.0269813 0.3072 -0.0845858 0.255039 -0.315064 -0.245626 0.0902087 -0.515313 -0.0882967 0.604717 -0.29532 0.420323 0.315973 -0.0359364 -0.0177114 0.2071 0.0586362 -0.268137 -0.193229 0.356444 -0.309223 0.0745764 -0.186582 0.0894955 0.211034 0.16167 0.301352 0.255553 -0.130405 0.0295743 -0.111546 -0.138044 0.151338 -0.227017 -0.107166 0.41691 -0.250374 -0.0211826 0.124006 0.286793 0.0959867 0.120673 -0.539089 0.256536 -0.355584 -0.228228 0.177534 -0.0525217 0.137245 -0.2336 0.20321 -0.377339 -0.0670218 0.0981604 0.0804546 -0.0951377 -0.0819594 0.120398 -0.318812 0.28218 -0.282482 -0.0514726 0.708384 -0.0762793 0.23865 0.168305 0.222545 0.0367676 -0.00961525 0.0702759 0.0700609 -0.387567 -0.157554 -0.275588 0.279591 -0.347952 0.283395 -0.0524193 -0.16149 0.262427 -0.137371 0.179425 -0.20843 -0.0151404 -0.16268 0.124103 -0.3605 0.190258 0.0863923 -0.221054
9 0.209255 0.271878 -0.222347 0.123858 0.0291228 0.100877 0.893809 0.171961 -0.298419 0.0568093 0.264345 0.23086 -0.403385 -0.305701 0.0983208 0.239569 -0.202842 -0.227546 0.210213 0.224533 0.265588 -0.124672 -0.132637 -0.165198 -0.330969 -0.36659 0.242376 0.138533 0.25879 -0.636336 -0.338311 0.223406 -0.0400554 -0.373722 -0.474773 -0.0367224 0.372338 0.117684 0.00590903 0.286099 -0.045662 0.334616 0.278002 -0.101238 -0.160564 -0.471096 0.279488 0.252198 0.215439 0.26564 -0.0751572 0.312584 -0.215321 -0.0608013 -0.0787698 -0.183494 -0.125128 -0.441521 0.349086 0.143064 -0.304222 -0.0899687 -0.24394 0.226306 -0.00344962 0.212384 -0.0988858 0.569623 -0.330048 -0.17587 -0.0807194 -0.127303 0.0345243 0.314212 -0.417303 0.172368 0.170357 -0.0446218 0.0578626 -0.0780515 -0.0465069 0.395509 -0.0474271 -0.324407 0.0252344 -0.124267 0.0811799 -0.319507 -0.110789 0.081053 0.0192545 0.462486 -0.178865 0.203593 0.164869 -0.120413 0.213686 0.0211236 -0.00146628 0.107952 0.268097 0.0767905 0.226284 0.100345 0.00662532 -0.117676 0.313831 0.217522 0.116156 -0.241125 -0.506288 -0.302588 0.157439 -0.322855 0.389526 -0.242324 -0.486295 0.35208 0.0557794 -0.0548304 0.0476978 -0.0397428 0.136919 0.204131 0.143451 -0.365321 -0.077556 -0.0633757
10 -0.124983 0.18085 0.0419252 0.183101 -0.246588 -0.0671202 0.203326 0.149398 -0.201252 0.0167783 -0.387323 -0.165785 0.0444752 -0.159824 -0.12738 -0.513873 0.0503948 0.234572 -0.247469 0.0339116 0.0811483 0.236238 -0.263155 -0.307807 -0.163371 0.382602 -0.189581 -0.319734 0.209701 -0.296183 0.0706616 -0.25527 -0.27797 -0.00144525 -0.0986116 0.0963648 0.1951 0.135266 0.103295 0.0590639 -0.231976 -0.0568383 0.301869 0.0860655 -0.0818771 -0.0366234 0.00103235 0.0600125 -0.0123974 0.145569 -0.179767 0.074876 0.030318 -0.278946 -0.313152 -0.118995 -0.00243436 -0.429372 0.00895465 0.0681944 0.243474 -0.00776464 0.26232 0.223069 -0.117332 -0.0011578 -0.298753 0.356981 -0.531913 0.267786 -0.204916 -0.0397678 -0.0481244 0.0806757 -0.0668805 0.00908618 0.237135 0.110907 0.0528968 0.0334114 -0.23446 0.382912 0.0518201 0.0424961 0.0867686 -0.118264 0.37035 0.178114 -0.1446 -0.0198879 -0.227339 -0.0616576 0.100278 -0.0352463 -0.0898757 0.0983402 -0.239593 -0.163265 0.179441 -0.186488 0.0188049 0.298701 -0.0818461 -0.195445 0.148262 -0.161155 -0.235265 -0.100924 0.175152 0.161788 0.0687416 -0.0383266 -0.0683316 -0.190189 0.119001 0.232602 -0.252947 -0.150148 0.00223458 0.352058 0.0273894 0.160223 0.150072 0.130892 -0.233936 0.289042 -0.103173 -0.133076
11 0.204779 -0.10929 0.141907 -0.0674582 -0.174718 -0.0623788 0.443721 -0.18664 0.0482754 -0.0781494 0.0349693 0.258867 0.05332 -0.254367 -0.00794263 -0.281316 0.32778 0.169699 -0.0511441 0.301246 0.0549404 -0.213649 -0.270543 -0.0907291 -0.208594 0.265724 0.216877 0.339985 0.129828 -0.548333 -0.224344 -0.102146 -0.293902 0.0574906 -0.521545 0.22377 -0.154573 0.0815466 0.234808 0.0925756 -0.047542 -0.0575301 0.26245 0.00583202 -0.143512 -0.237409 0.156009 0.230385 -0.214715 0.227994 0.224343 0.0295494 -0.32228 0.0452162 0.0621051 -0.241792 -0.0671861 -0.243625 0.0776794 0.138222 -0.0977129 -0.0911445 0.224356 0.206672 0.195174 0.0938761 -0.212942 -0.110894 -0.180722 0.218772 0.342835 -0.13403 -0.180065 0.180111 -0.391829 -0.195769 -0.098165 -0.0755428 0.295483 0.142899 -0.21203 0.162812 0.38193 -0.160653 -0.349836 -0.0191041 0.224916 0.0227126 -0.16533 0.0561018 0.0793396 0.0565077 0.0418526 -0.268979 -0.0548968 -0.145734 -0.0605642 -0.133195 0.135706 0.0634842 0.238842 -0.0611009 0.0101071 -0.0776592 -0.142923 0.00610556 -0.140379 0.345545 -0.133736 0.0182067 -0.188978 0.200783 0.243013 -0.0194842 -0.22165 0.181772 -0.251094 0.285697 -0.153378 -0.17567 -0.260052 0.156377 -0.340812 0.0340595 0.0538384 0.0493891 -0.0462489 -0.189706
12 0.25555 -0.257311 0.0963205 0.341079 -0.085923 0.238046 0.386192 0.17534 0.103761 0.0302921 0.0150425 -0.295578 0.0588881 0.0330086 0.155563 -0.213684 0.103786 -0.0736234 0.0629095 0.0703909 0.0410108 -0.143297 -0.193485 -0.0879344 -0.131557 -0.219535 0.34349 0.176359 0.487378 -0.25038 -0.275466 -0.039705 -0.0852753 0.175104 -0.528034 -0.298761 0.116801 -0.113956 -0.256563 -0.0106524 -0.230142 0.243075 -0.0456599 0.126418 0.0882772 -0.251711 0.157021 -0.192704 -0.212949 0.0145385 0.169426 -0.397257 0.265518 0.111486 -0.263595 -0.113311 0.0973121 0.144562 -0.0297011 0.380501 -0.192672 0.0511456 0.148255 0.240962 -0.328103 0.416647 -0.061083 -0.121967 -0.232356 -0.116859 0.000563828 -0.270376 -0.124962 0.27051 0.125969 0.180567 -0.150295 0.140279 0.148471 0.106837 -0.248135 -0.161497 -0.161378 -0.0387002 -0.057186 0.196164 0.0832005 0.186723 -0.519131 -0.224347 -0.189488 0.130437 0.459177 -0.269372 -0.0249721 0.176605 0.0916895 0.184066 0.395709 -0.0839293 -0.123104 -0.037241 0.129167 0.0735032 0.216884 -0.0861171 -0.0455819 0.204227 0.498005 0.090446 0.023038 0.0858217 -0.0985339 -0.128807 0.205329 0.276008 -0.279688 -0.268379 -0.208133 -0.476172 -0.0653438 0.0724749 0.0629372 0.123103 0.0282878 0.166212 -0.207221 0.141449
13 -0.0738508 -0.0945219 0.121932 0.137498 -0.10395 -0.072952 -0.10589 0.260495 0.00369799 0.302274 -0.0947829 0.137048 -0.114883 -0.186859 -0.133507 -0.130786 -0.0454081 -0.00636008 0.02583 -0.156737 -0.102547 -0.14082 -0.154343 0.0302304 0.0857508 -0.32994 -0.182971 -0.195566 0.175145 -0.364432 -0.0102121 0.0482677 -0.0134933 0.138723 -0.200097 -0.040366 0.222822 0.0411895 0.0570609 -0.0973663 -0.213681 0.0452757 -0.0300123 0.0964038 0.033605 -0.175271 0.221597 -0.08887 -0.16253 -0.00441133 0.0628317 0.0844465 0.00298764 0.184738 0.185675 -0.0821231 0.0145446 -0.0014762 -0.0801997 0.0209704 0.0164527 -0.0717027 0.301519 -0.00221704 0.0275985 -0.00851689 -0.0475989 -0.185357 -0.0345448 0.00560912 0.201724 0.00184229 -0.00974167 0.383341 0.0601466 -0.0540621 -0.125328 -0.0877574 0.133104 -0.186071 0.0158966 0.0107613 -0.15282 -0.011504 -0.158762 0.289761 0.253975 -0.187942 0.285072 0.219896 0.124807 0.0961174 0.0699137 -0.312992 -0.0596257 -0.18956 -0.136715 -0.148343 -0.0522162 -0.206331 -0.059937 0.145496 -0.152055 -0.290256 -0.0073987 -0.082764 -0.107156 0.0937973 0.135492 0.0105683 -0.204871 -0.0505359 -0.186049 -0.212905 0.0197677 0.412255 -0.258633 0.200279 -0.226849 0.0578645 -0.0858009 0.107114 0.0466171 0.185209 0.0524432 0.1951 -0.144451 -0.27921
14 0.128009 -0.141231 0.00385563 -0.039011 0.0439183 -0.0687632 0.309967 0.0459093 -0.365436 -0.102165 -0.135481 -0.0535065 -0.0405068 -0.0453562 -0.181344 -0.136724 0.37825 0.440816 0.0899789 -0.124414 0.0047562 0.626083 0.0790621 -0.255921 -0.0529243 0.68958 0.0303698 0.111016 0.112317 -0.107788 -0.228728 -0.331255 0.0320201 0.153972 -0.212417 0.153358 -0.104817 0.396349 -0.011705 0.150088 -0.0853089 -0.135438 0.0825323 -0.0556404 0.156692 -0.368262 0.131347 -0.0307153 -0.274723 -0.308339 0.104703 -0.137716 0.0958515 -0.024251 0.05796 0.00661273 -0.0141075 0.1341 0.19074 -0.268473 0.244038 -0.0997085 0.191386 0.274422 0.333517 0.0393426 0.13858 -0.27051 0.100464 0.0222918 0.14232 -0.124881 0.0748211 0.298395 0.151487 0.180477 0.152513 -0.309278 0.0329405 -0.346064 0.230565 0.0385004 0.0641462 0.210079 0.220492 -0.0365443 0.218556 0.0370768 -0.133957 -0.127708 0.126314 0.333478 0.00119525 0.0262657 -0.105087 -0.0336659 0.262409 0.130727 0.149035 -0.140105 -0.0875134 0.183918 0.191364 -0.233449 0.41334 -0.0454171 0.00671523 -0.145885 -0.0683564 -0.0214116 0.0466029 -0.244007 -0.0214934 -0.0954725 0.17329 0.249338 -0.324926 0.0728674 0.0398606 0.326228 -0.0895364 -0.177683 -0.0446655 0.253984 -0.0025882 0.0671178 -0.375762 -0.217407
15 0.362105 0.104642 0.0648235 -0.306762 -0.278582 -0.0662541 -0.0904997 -0.189019 0.00892912 0.193623 -0.123919 -0.0897812 -0.224849 -0.0451609 -0.0600202 0.0442804 0.0542496 0.239952 -0.07156 0.0407491 0.0537039 0.023054 0.146394 0.0233351 0.0491743 -0.10395 0.422326 -0.125734 0.115439 -0.179695 -0.238507 -0.0275681 0.11774 0.211859 -0.379265 -0.252084 0.0519372 0.127048 -0.16312 -0.0977815 -0.0211926 -0.252112 0.234206 -0.152807 -0.134963 -0.149261 0.144133 0.1682 -0.300484 -0.269582 0.294715 0.10478 -0.0985287 0.0192016 0.103837 -0.012904 0.120816 -0.332122 -0.21575 -0.0452409 0.280167 -0.0995692 0.536852 0.0601055 -0.0400271 -0.194431 0.134792 -0.144047 -0.387607 -0.0810314 -0.0747607 0.215247 -0.146475 0.371432 -0.0864065 0.120724 -0.110296 0.0671721 0.00353943 -0.00087343 0.0411504 0.21532 -0.379656 -0.141724 0.126513 0.237852 0.165103 0.325585 0.181098 0.127612 0.347204 -0.470673 -0.163934 -0.49 -0.411487 -0.202004 -0.105441 0.398105 -0.0630291 0.129499 0.0665545 0.415965 0.0313844 0.258682 -0.0419044 -0.254411 0.188682 0.21448 -0.207209 -0.0554748 0.0727269 0.288999 -0.334285 -0.143864 -0.564476 -0.0793397 -0.400044 -0.0511559 -0.153616 0.157847 0.0961489 0.0858602 0.171972 -0.0145498 0.0107643 0.157454 -0.23189 -0.201239
16 0.040097 0.154409 0.164964 0.0430759 -0.0376671 0.129539 0.226228 -0.0998011 -0.221018 0.148661 -0.0468519 -0.219814 -0.0255118 0.024192 -0.468892 0.0894506 0.0889141 -0.107367 0.0539606 -0.172062 0.328516 0.324248 0.0634109 -0.032859 -0.122286 -0.130689 -0.151719 0.10604 0.0528323 -0.502689 -0.0631078 0.10168 0.144637 -0.211053 -0.256514 0.0649464 0.0134822 0.183305 -0.0502309 0.107298 -0.267905 0.158998 0.332955 0.211892 -0.029218 -0.40957 -0.0755597 -0.130103 -0.0215579 0.0530041 -0.163672 0.0479256 -0.157879 0.246393 0.116683 -0.303726 -0.0524299 -0.30282 0.363382 -0.0507848 -0.0712682 0.169286 0.306937 0.222692 0.0482458 0.288612 -0.0717222 -0.199677 -0.202763 0.154397 0.00572827 0.104322 -0.168491 0.368232 -0.0478578 -0.162739 0.105368 0.119998 0.307921 -0.408615 -0.36902 0.0212906 0.0982262 0.354245 0.180597 0.175969 0.225935 -0.28952 -0.00466639 -0.190275 0.172597 0.204985 -0.0191016 -0.0434667 -0.0899089 -0.0760996 0.317172 -0.0872389 -0.0429986 -0.300129 0.054016 0.00327069 0.247074 0.0449686 -0.0413369 0.0588759 -0.0689527 -0.0182035 -0.104658 0.0996663 -0.251249 0.106229 0.0570045 -0.0206927 -0.0792091 0.0282244 -0.34516 0.113807 -0.124544 -0.125334 -0.0561482 0.0673093 0.0157247 0.0291688 -0.407866 0.0141056 -0.0355308 -0.215751
17 0.262731 -0.00498182 -0.0981964 0.289125 -0.402455 -0.386976 0.0775366 -0.0191668 0.000390103 0.218076 -0.0375523 0.124012 0.105176 0.23815 0.00229364 0.226476 0.0834396 0.121724 0.0922101 -0.0931717 0.217697 0.198038 -0.148864 -0.0591947 0.0147742 0.278175 -0.0486898 0.309141 0.00844026 -0.522109 -0.264528 -0.0732159 -0.141485 -0.110575 -0.14354 -0.273962 -0.0508147 -0.177491 -0.0549372 0.0179452 -0.158101 0.109612 -0.287498 -0.00967041 0.151088 -0.45036 -0.0381416 -0.0884696 0.142255 0.183498 -0.159925 0.179404 0.101589 0.127535 0.223529 -0.338978 -0.161392 0.174011 -0.326838 0.0557384 -0.139993 0.084273 0.323849 0.354464 0.206938 0.201675 0.0384047 -0.244865 -0.491496 -0.284332 -0.377938 0.0153129 0.0862636 0.168241 -0.0784268 -0.103686 -0.0465748 -0.149421 0.272976 -0.116339 -0.131505 -0.0102095 -0.135318 0.0386489 0.278079 -0.0992358 0.234515 0.0278988 -0.214111 0.070907 -0.0933371 0.0623577 0.302483 -0.0965934 -0.0643428 -0.2462 0.161516 -0.199996 0.343246 -0.0285006 0.141995 0.313578 0.512494 -0.158387 -0.118062 0.0731134 -0.133107 -0.0857894 0.0834565 -0.00882361 -0.212802 -0.0522272 -0.128799 -0.0323538 -0.0107249 0.0879935 -0.317162 -0.125242 -0.252931 0.0251185 -0.527785 -0.169447 -0.178727 0.125444 0.0752624 0.0937813 -0.32313 -0.231366
18 0.165095 0.0906175 -0.0540741 0.514709 0.133687 -0.150402 0.052604 -0.0623699 0.0424894 -0.27288 -0.0606429 0.184809 -0.0999571 0.0795246 -0.248683 0.307509 -0.142809 0.251226 -0.00560779 -0.248748 -0.20937 0.0741134 -0.10851 0.202236 -0.236316 0.229339 0.194571 -0.0980062 -0.095213 -0.669671 -0.384604 -0.112755 -0.0818468 0.391913 -0.241603 -0.229323 -0.332547 -0.0341926 0.191747 0.218242 -0.23067 0.205633 -0.0679175 0.179002 0.151381 -0.166375 -0.0069331 -0.0120518 0.531447 0.165654 -0.327997 -0.0198937 -0.473007 -0.221336 -0.0439076 -0.278396 -0.0393708 0.0395531 0.48625 0.170541 -0.366215 -0.0617904 0.293683 -0.00141927 0.0833209 0.0649825 -0.104377 0.407562 -0.343832 -0.133474 -0.399175 -0.0722954 -0.149598 0.0435832 -0.057867 -0.0229388 0.0191027 0.0114263 0.235003 -0.109805 0.0604385 0.362301 0.131058 0.227367 -0.0915563 0.179755 0.314822 0.241775 -0.110166 0.13617 0.11389 -0.268265 -0.305082 0.0509856 0.0608689 -0.0406667 0.0875505 -0.21662 -0.280309 0.10567 0.0593912 0.136827 -0.215884 -0.0719717 0.26316 -0.1585 0.284494 -0.388226 0.354452 -0.320835 -0.0249929 -0.178443 0.230421 0.0723102 0.325846 0.246321 -0.309397 0.276635 -0.077993 -0.402115 0.224144 -0.172527 0.320978 -0.0241184 -0.234091 0.00266658 -0.224731 -0.27132
19 0.0475681 -0.26094 -0.0118533 -0.0116513 -0.0325487 -0.0622429 0.150187 -0.337132 -0.130115 0.0907184 0.128364 0.00640714 -0.284474 -0.201227 -0.308397 -0.199994 0.121171 0.0478247 -0.077546 0.0769581 -0.246371 -0.488579 0.0926217 -0.0486215 -0.133711 -0.233479 0.0554901 -0.1946 0.375062 -0.442626 -0.0175923 0.122735 -0.0449863 -0.0120381 -0.333223 -0.0638804 -0.0428043 0.471609 0.0358556 -0.055331 0.00261887 0.122464 0.0882127 0.284823 0.0267195 -0.319828 -0.0911892 -0.0213482 0.0534791 -0.16078 0.124131 0.0494797 0.0314831 -0.0158975 0.246169 -0.427151 0.205773 -0.121458 0.273822 -0.104609 -0.0694123 -0.0969804 0.245207 0.408113 -0.219614 -0.0486729 -0.00897352 0.0867255 -0.166316 -0.125592 -0.144161 -0.0278286 -0.105614 0.537147 -0.189935 0.200962 0.334637 -0.0793373 0.187592 0.0123342 -0.108098 0.183017 0.118844 0.136788 -0.0133852 0.01645 0.246983 -0.0552249 -0.0971799 0.0766626 0.0839947 0.346895 0.107721 -0.166336 -0.0013711 0.337857 -0.201928 -0.0794644 0.249626 0.070476 0.483036 0.00727752 -0.334294 0.238746 0.10877 0.0360215 0.0136738 -0.022762 0.21698 0.183617 -0.270882 0.308013 -0.127221 0.000699983 -0.0052414 0.202065 -0.236402 0.0106819 -0.239362 -0.135137 0.0666517 0.0985 -0.0477618 -0.112251 -0.0487281 -0.0844643 -0.218565 0.0796006
20 -0.165063 0.0378805 0.0748249 -0.119769 -0.255297 -0.0848544 0.0462618 0.234063 0.236525 0.0908066 -0.376179 0.254684 -0.149919 -0.0419703 0.401017 0.118452 0.331206 0.173481 0.0745305 -0.0167212 -0.121524 0.378747 0.0418768 0.112546 0.192799 0.0737315 0.139178 0.231671 0.12948 -0.437724 -0.245725 -0.00675976 -0.0382233 -0.148472 -0.134035 0.0904056 0.0421069 0.122 -0.0695921 -0.167087 -0.183909 0.0201559 0.100842 0.363338 -0.100491 -0.143334 -0.211502 -0.180046 -0.042345 0.276626 -0.184174 -0.0843983 0.00547441 0.231401 0.237167 -0.114061 0.406404 0.0966716 0.259644 -0.0412737 -0.0383628 0.221291 0.393985 0.278702 0.0205308 -0.305622 0.0958003 -0.142018 -0.0634209 -0.21522 -0.225594 -0.135657 -0.0286723 0.264336 -0.112591 0.134857 0.303989 -0.0646714 0.151958 -0.0676804 0.209798 -0.0260151 0.0211937 -0.141726 -0.313925 0.120205 0.326713 0.16857 -0.065369 0.0229432 0.0414606 0.0738371 0.191359 0.111592 -0.197085 -0.311492 -0.192541 0.148447 0.171567 0.0702384 -0.00702455 0.226081 -0.103055 -0.0477565 0.141834 0.153884 0.0662143 -0.124904 0.314794 0.0463929 0.0161456 0.185511 0.225697 0.0288791 -0.0785837 0.283259 -0.0920189 -0.0837299 -0.273959 0.00167814 -0.180209 -0.0047216 0.158522 0.410928 0.127505 0.0666072 -0.127889 0.0237423
21 -0.0213165 0.209605 -0.0178421 0.28747 0.0125613 0.0799648 0.116165 0.15626 -0.118584 -0.199567 -0.169015 0.185026 0.147924 -0.230122 -0.103468 0.0476487 0.162546 0.0323758 0.19208 -0.186881 0.185629 -0.101705 0.21143 0.285685 -0.0815543 -0.053357 0.065449 -0.0997894 0.325101 -0.475591 -0.0130288 -0.0543379 -0.0737038 -0.105847 -0.309641 0.0492775 0.00505659 0.000651619 -0.14974 0.317362 0.110471 -0.0701888 -0.0671346 -0.0255519 -0.307657 -0.259029 -0.0400357 0.0240721 0.208941 -0.165803 -0.153392 -0.113483 0.0418566 0.161204 0.343875 -0.152154 0.135801 0.0951978 -0.217208 -0.0682542 0.0184351 -0.0751065 0.130986 0.180556 -0.151963 -0.111285 -0.158822 0.125671 -0.154661 -0.540359 -0.0658434 0.0213349 -0.106411 0.390042 -0.0612462 -0.116759 0.166667 -0.0467511 0.0982464 -0.230747 -0.249129 0.299 0.000167901 0.205899 -0.112453 0.12503 0.103916 -0.289189 -0.0955307 -0.0481738 -0.0290597 -0.0621639 0.206724 -0.135346 -0.143642 0.029333 0.0981326 -0.217424 -0.0777676 0.131402 -0.202043 0.0474846 -0.0509756 0.0999156 0.280009 0.101682 -0.113226 0.178379 0.0422042 -0.0376575 0.213382 0.157229 -0.141843 -0.0310888 0.00274807 0.114038 -0.122307 -0.0324929 -0.275721 0.0728958 0.0192925 0.069134 0.0432669 0.185818 0.101398 -0.117363 -0.219916 -0.344802
22 0.187349 0.0577139 -0.106763 0.457963 -0.918982 -0.299789 0.507571 0.680947 0.655556 0.279935 -0.217328 0.239877 -0.0239373 0.276033 0.261216 0.11346 0.204381 0.270082 -0.0831669 0.124355 -0.166474 0.025237 0.184306 0.267306 -0.0866681 -0.342869 -0.140313 -0.159841 0.0174121 -0.494649 0.0100682 0.00574443 -0.029484 -0.280461 -0.350163 0.325398 -0.133275 -0.170528 -0.100567 0.286072 -0.172154 0.148901 -0.073257 -0.766079 -0.169083 -0.353236 -0.590042 0.0201895 -0.366003 0.0528688 -0.144475 0.0741055 -0.339476 0.385115 -0.630106 -0.181635 0.0250664 0.512159 0.243498 -0.157511 -0.335693 0.0384858 -0.122777 0.00653159 0.141947 -0.124479 -0.0900407 -0.0473789 -0.418558 -0.517077 -0.477227 0.0115389 0.0115043 0.150393 -0.0389563 -0.101119 0.0883064 -0.0697883 0.0684112 -0.537229 0.0317698 0.256984 0.0935441 0.0466944 -0.055683 0.638675 0.333917 -0.307966 -0.307831 0.158069 -0.0410418 -0.0987888 -0.0226848 -0.250528 -0.268079 -0.188363 0.0501025 0.346291 0.127862 0.0748979 -0.435257 0.0483361 0.0365917 0.312321 -0.308868 0.238823 -0.103598 0.508315 -0.181968 0.0031623 -0.763345 0.17932 -0.145981 0.0218549 -0.143989 0.324978 -0.29657 -0.0523545 -0.401407 -0.176322 0.0982595 0.195925 -0.175281 -0.0279339 0.325316 0.0463167 -0.216495 -0.291545
23 0.137659 0.3096 0.259212 -0.0653539 -0.104806 0.0183291 0.117991 0.0133173 0.0580609 -0.0611429 -0.119219 -0.312766 -0.121018 -0.059103 0.218353 -0.239598 -0.141997 0.0858802 0.00951317 0.110007 -0.205368 -0.0268913 -0.0244382 0.0286372 -0.358075 -0.0326298 0.0691075 0.00485003 0.226956 -0.485344 -0.0940558 0.0225781 -0.164392 0.0580937 -0.249727 -0.131583 0.100189 -0.0408226 0.208489 -0.325223 -0.0492189 0.132868 0.254304 -0.355224 0.393076 -0.168906 -0.173695 -0.103048 -0.190454 -0.158373 -0.0341053 -0.16997 -0.00682509 0.0572292 -0.13967 -0.242886 0.125964 -0.010964 0.173209 -0.0116248 0.0930029 0.094007 0.216092 0.154956 0.145767 -0.0586335 -0.00807359 -0.341496 -0.0669843 -0.0282492 0.0650371 0.137163 -0.303219 0.610243 -0.501445 0.403884 -0.157419 -0.170317 0.120545 0.0393127 0.16715 -0.0143199 0.0613831 0.071802 -0.0764321 0.0821684 0.134861 -0.0755493 0.256431 0.075451 -0.0802384 -0.195659 -0.0513358 -0.435997 -0.24354 0.052271 -0.220808 0.0737064 0.119238 0.171704 -0.127459 0.0455568 0.244853 -0.225921 -0.123719 -0.238119 0.304846 0.0819939 0.139015 0.0548875 -0.0922117 -0.00620356 0.143988 -0.19079 0.240246 0.27029 0.0710102 0.135428 -0.0376698 -0.401189 0.0639895 -0.218448 -0.247633 0.161509 0.304601 0.243749 -0.252943 -0.170614
24 -0.296204 0.21988 -0.10522 -0.000950663 0.157513 -0.0378586 0.372829 0.113081 -0.0896069 -0.177115 -0.248108 -0.0612719 -0.132717 -0.0148981 0.0435304 -0.00760053 0.0735724 -0.0193849 0.0252168 0.193838 -0.157736 0.0619282 -0.11908 -0.188031 0.431962 0.128202 -0.193568 0.0966281 0.197191 0.00746421 -0.172248 -0.129377 -0.299379 0.20962 0.111833 -0.0331498 0.301635 -0.39672 0.141887 -0.441868 -0.363908 0.114945 0.0114883 -0.151083 -0.116835 -0.254006 -0.203194 -0.250807 0.232049 -0.411254 0.129667 0.0542605 0.817358 0.0276275 0.175937 -0.184336 -0.412492 0.387261 0.19952 0.16165 -0.218695 0.0216132 0.0252907 -0.0670409 -0.00809769 0.146279 -0.317913 -0.00552169 -0.331857 -0.217294 -0.146234 0.0718066 -0.148381 0.634209 -0.413677 -0.0620171 -0.105805 -0.0483072 0.312504 -0.239344 0.427935 -0.145112 0.173528 -0.1924 0.185594 0.198409 -0.244808 0.216939 0.00501482 -0.318526 -0.292068 -0.00370498 0.436473 -0.424162 -0.579815 -0.254131 -0.0414854 0.111759 -0.298705 0.239387 -0.00475289 -0.190878 0.203079 0.266916 -0.0554843 0.0547108 0.049589 0.297155 -0.558416 0.0425027 0.0529312 -0.0679115 0.214112 -0.339859 -0.0150632 0.441649 -0.263888 0.574693 0.0433717 -0.428258 0.229295 0.0299907 -0.230243 0.100229 0.127727 0.312156 -0.133006 -0.34167
25 -0.263942 0.0136683 -0.509668 -0.104113 -0.0486596 -0.061528 0.136727 -0.0399653 -0.183803 -0.0251199 0.0517775 -0.191334 -0.222387 0.0817523 -0.264432 0.31496 -0.0554334 -0.265749 -0.0416949 -0.0180709 0.0713905 0.258698 -0.0154869 0.0932417 -0.168055 0.0640412 0.0814462 -0.177918 0.514041 -0.227135 -0.301511 -0.064561 -0.0308074 -0.0626942 -0.014563 -0.0659182 0.180398 0.149446 0.192193 -0.0486007 -0.0780246 -0.111603 0.324937 0.0165875 -0.114872 -0.164091 -0.111144 -0.225594 0.0209955 -0.19343 0.129199 0.227227 0.279026 0.215866 -0.170107 -0.34806 0.142998 0.334626 0.443211 -0.107285 0.100626 -0.412661 0.264855 0.284921 0.00729139 0.0719677 0.0914562 0.0918666 0.110103 0.0375797 -0.341552 -0.230682 -0.383523 0.379387 -0.253818 -0.207447 -0.200763 0.156916 -0.0174506 -0.248233 0.0816003 0.439328 -0.0190153 -0.0406429 0.0680868 0.392833 -0.0969921 0.449313 -0.104298 0.195828 -0.420903 0.250783 -0.121403 -0.374242 0.0906891 -0.401218 -0.149596 0.153278 -0.0303559 0.0850659 0.128284 0.137788 0.261531 0.0682987 -0.163864 -0.783408 0.31828 0.214147 -0.12296 -0.217124 -0.167134 0.0868819 -0.00748751 -0.113769 -0.175747 0.123492 0.146163 0.218089 -0.260671 -0.0539018 0.109069 -0.063267 0.137116 -0.0220405 -0.00591486 0.21167 -0.399778 -0.0933548
26 0.0179647 0.45373 0.303351 0.162178 0.0140302 -0.632492 0.0673061 0.170295 0.211201 0.525311 -0.33122 -0.0286059 -0.00783337 -0.118326 0.0332 -0.317351 0.064975 -0.032647 0.261553 -0.0355987 -0.27547 -0.109084 0.350492 -0.113729 0.284759 -0.201321 -0.0916995 -0.244187 0.562056 -0.505111 -0.295422 0.282866 -0.255593 -0.0795978 -0.351141 -0.334917 0.306919 -0.254676 -0.301079 0.162533 -0.641543 0.258178 -0.00769846 0.179758 0.301872 0.146288 0.204397 -0.165628 0.268556 -0.141504 -0.00192681 -0.124493 -0.0338763 0.00634709 -0.624299 -0.165882 0.280805 0.0592501 -0.0359797 -0.197402 0.14292 -0.276415 0.101556 -0.104706 -0.175942 -0.0817888 -0.458528 -0.198904 0.273163 0.186911 0.021707 -0.26581 -0.203084 0.400999 -0.531652 0.40812 0.0745503 0.143156 0.0559442 0.0591816 -0.176914 0.143686 -0.0367902 0.10261 0.165122 0.00846287 0.0754481 -0.336005 -0.0943226 -0.444254 -0.0105041 -0.0233404 0.0822021 0.0740468 -0.29166 0.0121575 -0.0377592 -0.0783064 -0.258747 0.0180082 0.000975409 -0.105867 0.301499 0.255331 0.276659 0.235025 -0.0238691 -0.0450655 -0.0382122 0.178689 0.231299 -0.209522 -0.244633 -0.214399 -0.269998 0.848337 -0.0390348 -0.419564 -0.0159918 -0.262793 0.0308576 -0.0684306 0.29213 -0.0358918 0.177913 0.30192 -0.443363 -0.372353
27 -0.00918727 -0.176815 0.135257 -0.270604 0.101147 0.0482281 0.106493 0.0806672 0.118034 0.204925 0.117066 0.0301611 -0.0215645 -0.156044 0.026238 -0.043917 -0.128429 0.283081 -0.525168 0.29234 -0.107704 0.0139908 0.00460173 -0.0340532 0.46037 0.226888 0.0348847 0.0346949 0.16402 -0.378197 -0.130409 -0.361644 0.0153218 -0.165877 -0.110833 -0.0978405 -0.0335374 -0.0879682 0.207922 -0.346115 -0.523347 0.0169852 0.169937 -0.144351 0.144639 -0.0301263 -0.254793 0.0611105 -0.0217668 0.0674005 0.173532 0.171366 -0.0860637 -0.0635257 0.203697 -0.0203692 0.119662 -0.0171539 0.321138 -0.113331 0.203459 0.15553 0.21521 -0.0293453 0.106492 0.00757473 -0.43645 0.34676 -0.00923251 0.0415635 0.16133 -0.4828 -0.220998 0.442715 -0.302057 -0.166077 0.286991 -0.00537072 0.0834637 -0.052603 -0.167733 0.0255633 -0.00227913 -0.0361636 -0.191474 -0.0333238 0.0374581 0.271419 -0.103943 -0.271728 -0.126259 0.0703691 0.0101706 -0.288285 -0.0733723 -0.000800736 -0.244138 -0.0185105 0.310126 -0.275499 0.145328 4.49746e-05 -0.106168 0.377765 -0.177584 0.555954 -0.454836 0.0440879 -0.00246459 -0.0382952 -0.236394 -0.155379 0.16185 -0.118763 0.106514 0.427392 -0.1099 0.128197 -0.240121 -0.243638 0.0431821 -0.189623 -0.0725837 0.469448 0.200694 0.545253 -0.289863 -0.309229
28 0.107681 -0.00166369 -0.081461 -0.0486183 -0.28187 -0.0213685 0.111862 0.0196776 0.00201563 0.228035 -0.147853 0.310623 -0.341382 -0.0225052 0.0231679 0.130058 0.14539 0.25443 0.0243352 0.124885 0.14763 0.354409 0.046014 -0.0554065 0.00929243 0.0625366 -0.0977466 0.155978 0.121558 -0.456166 -0.163976 -0.00620984 0.0791202 -0.11628 0.0353864 -0.157605 0.0687231 0.0944289 -0.317482 -0.170005 -0.104551 0.109384 0.00491434 0.134251 0.236833 -0.376152 -0.267122 -0.0623916 0.429587 0.21812 -0.0157004 -0.0939026 0.504973 -0.100961 -0.0760873 -0.163166 -0.146506 -0.048799 0.122555 -0.312539 0.0311671 0.0339503 0.338057 0.211621 0.0225128 -0.133109 -0.0270071 0.0506454 0.311126 -0.198798 -0.269091 0.201552 -0.0872675 0.431736 0.0280109 -0.0389988 0.0119018 -0.484965 0.0337815 -0.211599 -0.209737 0.155067 -0.156201 -0.180791 -0.208378 0.0489709 0.270364 0.218159 -0.0494937 0.285349 0.189036 0.0499972 -0.119967 -0.252777 -0.164252 0.0333646 0.166315 -0.228119 -0.254412 0.0712606 -0.347261 0.0700373 0.202726 0.0495433 0.0524294 0.0929065 -0.260243 0.0197775 0.310308 -0.0253733 -0.020022 -0.0606214 0.0389424 -0.230782 -0.23529 0.272166 -0.121206 0.148821 -0.176825 0.0640801 -0.191306 -0.23379 0.210804 0.0974371 0.156587 0.185099 -0.0880579 -0.385846
29 -0.052973 -0.109137 -0.250486 0.0101172 -0.316478 -0.00118962 0.0487103 -0.0502552 -0.240308 -0.461638 0.0180669 -0.28163 -0.0148885 -0.283964 -0.03218 -0.359232 -0.0918688 0.122097 -0.177212 0.110586 0.0218786 0.341321 -0.191367 0.0136242 -0.0300895 -0.049637 -0.270218 0.058628 -0.1532 -0.182654 0.041913 -0.54815 -0.0629499 0.291981 -0.0503114 -0.0463228 -0.0964724 0.186871 -0.00403482 -0.38183 -0.367612 0.14713 -0.0686308 -0.263109 0.21328 -0.130765 -0.415623 -0.196049 -0.00564162 0.226695 0.193442 -0.169119 0.0443581 0.0558546 -0.0125552 -0.221597 -0.426559 -0.24454 -0.328758 -0.0053412 -0.0726765 0.369991 0.166321 -0.0781875 0.359349 -0.243574 -0.0427059 -0.00562033 -0.217905 0.103662 0.343095 0.042162 -0.173304 0.416526 0.0908222 -0.147837 0.0618682 -0.268489 0.184297 0.00792521 -0.0643905 0.096747 0.168972 -0.107836 -0.294168 0.171487 0.238032 -0.364181 -0.176806 -0.280535 -0.478671 0.0494134 -0.171369 -0.448973 -0.0967205 -0.111785 0.26318 0.00886277 0.000213558 -0.239025 -0.0183995 -0.0639795 -0.0381816 -0.0437895 0.389339 0.0813765 -0.109984 -0.143632 -0.21407 -0.006704 -0.082201 -0.0372886 0.0834014 -0.41643 0.084732 0.0797294 -0.335031 0.10698 -0.350739 0.165591 0.144223 -0.00102978 -0.193407 0.375222 0.19722 0.284074 -0.116165 -0.230963
30 0.14045 0.159771 0.159808 0.226677 0.244861 -0.0433342 0.0122985 -0.36215 -0.262086 0.229982 -0.103361 -0.0835561 -0.342399 0.269433 0.117698 0.082108 0.0291022 0.134414 0.11309 0.0441784 -0.330324 -0.0325762 -0.0942807 0.0979438 -0.117053 0.00138806 -0.300891 0.209792 0.0962449 -0.38827 -0.0584243 0.0452746 0.210423 -0.32208 -0.140957 0.294219 -0.0901681 0.209596 0.11549 0.168148 -0.170228 0.0523564 0.269036 0.0747819 -0.159083 -0.215138 -0.116843 0.0307844 -0.200328 0.0664008 -0.0781262 0.192169 -0.304975 0.00477027 0.0243818 -0.0848167 -0.019032 0.239994 0.0195368 -0.0814118 -0.0757899 -0.0989063 0.12686 0.302438 0.362161 -0.271192 -0.202963 0.359922 -0.00056384 -0.0880141 -0.073712 -0.179813 -0.00435132 0.374656 -0.333423 -0.0307902 0.360687 0.0633777 0.191059 -0.00815323 0.105702 0.234483 -0.204231 0.132325 -0.0659971 -0.0415485 0.207975 -0.0647286 -0.278494 0.109371 0.210642 0.33307 0.121325 0.137009 -0.106878 -0.0323658 0.052738 0.197822 0.391411 0.0259843 -0.0630511 0.0372669 0.157788 0.0521481 -0.0101501 0.100764 -0.0149728 -0.0744817 -0.159756 -0.24901 -0.174225 0.0413167 -0.0475348 0.062598 -0.0654302 0.3695 -0.194113 0.39997 -0.158666 0.109675 0.25334 -0.0851431 0.098939 0.271825 0.0112873 0.0494342 -0.415602 -0.417224
31 -0.366542 0.119201 -0.43041 0.18217 -0.253576 0.131889 -0.338718 -0.0819069 -0.13791 0.179728 -0.189291 0.0239367 0.0936285 -0.412364 0.154426 -0.158151 0.0690112 0.340697 -0.0439971 -0.0326316 0.164784 0.141853 -0.0266619 0.160338 0.0387207 0.170159 -0.0963718 -0.177805 0.305015 -0.275065 -0.214341 0.178245 -0.147251 0.259722 0.154037 0.15634 -0.0402271 -0.0613554 0.0535631 0.0955946 -0.292918 0.060848 -0.0635343 0.19244 -0.219153 -0.00929349 -0.0353471 -0.0828904 0.108229 0.430081 0.0612506 -0.0186697 -0.0976614 -0.0394611 0.180557 -0.236038 0.089609 -0.100127 -0.0853298 -0.0639438 -0.101798 0.184118 0.238211 0.0793318 0.111755 0.266151 -0.260922 -0.119514 -0.0560453 0.000634301 -0.0709018 -0.12301 -0.119663 0.317536 0.252179 0.197571 -0.39509 -0.191345 0.287787 -0.00155777 0.116073 -0.115386 -0.307617 0.0955586 -0.197782 0.187828 0.181469 0.374064 -0.232594 -0.00798554 -0.125501 0.177034 -0.0689218 -0.147314 -0.21601 -0.0506376 -0.0673331 -0.139718 0.369392 -0.0115112 0.113175 0.259873 0.0239881 0.463799 0.350857 -0.107025 -0.180003 0.227645 0.169489 0.1192 0.619058 0.228496 -0.387829 -0.390044 0.0991479 0.311173 0.108642 -0.0555941 -0.0889485 0.167002 -0.337002 0.127655 0.157767 -0.0453462 -0.384349 0.387144 -0.481936 -0.12784
32 -0.258004 0.0144176 0.405715 -0.053135 -0.29457 -0.161518 0.382741 0.145681 -0.371833 -0.0516621 -0.268909 -0.169292 -0.0263009 -0.0340935 0.209029 -0.629489 0.0315475 0.19801 0.374263 -0.16133 -0.0891687 0.148985 0.125005 0.347962 0.159605 0.0600687 -0.0362563 0.157179 -0.0219509 -0.212382 0.19431 -0.00073702 -0.13939 0.309369 -0.0593567 0.0536668 0.20333 -0.0618922 0.0641661 -0.125594 -0.309634 0.00917696 -0.094027 0.16012 -0.0663271 -0.0253928 0.341653 0.187947 -0.331038 -0.058648 0.230823 0.24008 0.0853794 0.0258277 -0.223736 -0.267561 -0.0601646 -0.0843516 0.0973274 0.0383476 0.262867 0.0320289 0.0288656 0.633071 0.0389037 -0.112981 0.15089 0.373841 -0.3057 -0.0514425 -0.115839 0.377196 -0.0495098 0.565114 -0.195585 -0.114213 0.243905 -0.277375 0.324885 0.212511 -0.489868 -0.0998462 0.0947032 -0.163704 0.082376 0.204952 0.0859067 0.242189 0.0494429 -0.0409819 -0.141585 0.031094 0.231947 -0.286997 -0.227177 0.14097 0.202672 -0.164552 -0.0339236 -0.314923 0.105267 0.0399468 0.115361 0.0931215 0.195667 0.211297 0.061267 0.278476 0.0398852 0.0536117 -0.0342601 0.0592774 -0.102524 -0.144016 -0.055227 0.325255 -0.0130966 0.239335 -0.267715 0.149754 0.198409 -0.422594 0.119888 0.138655 0.490632 0.450199 -0.525274 -0.121779
33 0.0408905 -0.0918264 -0.0739006 0.413644 0.345807 -0.236735 -0.0685991 0.0222907 0.129535 0.244305 -0.140044 -0.110385 -0.393274 -0.198066 0.0241526 0.0578938 -0.398363 0.362413 -0.05674 -0.373165 -0.171452 0.132749 0.0850595 -0.153659 0.134784 -0.147564 -0.400932 0.342177 -0.0932606 -0.276071 -0.254309 -0.433443 -0.00734104 0.304067 -0.146291 0.166884 0.206952 -0.434897 -0.101255 -0.217846 -0.37326 0.274528 0.14819 0.390325 0.426758 0.00437779 0.824451 0.0875876 -0.0357028 0.185945 0.11394 0.26271 -0.107975 -0.287818 -0.218486 -0.17522 0.0187325 0.263777 0.519952 0.0753675 -0.201526 -0.157287 0.174686 0.0290671 0.22987 -0.630315 -0.0607982 -0.259667 -0.314577 0.22976 0.0662477 -0.0437245 -0.320536 0.705235 -0.281134 -0.262489 -0.132124 -0.0748533 0.170407 -0.153974 -0.346297 0.245308 0.218658 -0.0491216 0.246453 0.632367 0.120163 0.468527 0.0641949 -0.192912 -0.358957 0.351023 0.387616 -0.149513 0.0373035 0.0344852 -0.363138 0.149239 0.312984 -0.390417 0.181585 -0.252491 -0.312771 -0.0489953 -0.161666 0.272148 0.042122 0.473268 -0.153847 -0.12629 -0.184147 -0.412795 0.454958 -0.254572 0.0655642 0.418913 -0.197278 -0.0767294 -0.107058 -0.297717 0.253141 -0.202794 -0.151641 0.294171 0.0115947 0.323209 0.228456 -0.138229
34 -0.187716 -0.196697 -0.140744 0.137805 0.318973 -0.0706886 -0.0572478 0.448711 -0.162548 0.13646 0.0983602 -0.289404 -0.166556 -0.199067 -0.376311 -0.177913 0.0012025 -0.0867044 -0.352412 0.249033 -0.286298 -0.320178 -0.31872 -0.054814 0.00894434 -0.0222237 -0.12697 0.127623 -0.155453 -0.48546 -0.172944 -0.208685 0.194264 -0.200005 -0.103024 -0.264001 -0.158271 -0.251317 -0.289343 0.106033 -0.386974 0.455133 -0.177329 -0.351079 -0.463253 -0.0532614 -0.0129948 -0.268305 -0.0168689 -0.570517 -0.139418 -0.00352628 -0.472489 0.267137 0.152737 -0.00341955 0.00444993 -0.368694 0.540814 0.177445 -0.0826392 -0.0292877 0.33758 -0.338221 0.370632 -0.410149 -0.237497 -0.228769 0.0618223 0.150654 0.716196 -0.332924 -0.166508 0.435173 -0.334852 -0.0344109 0.290772 -0.170785 0.205656 0.500974 -0.4301 0.329225 -0.114005 0.0329151 0.043323 0.0813005 0.118382 0.291904 -0.245785 -0.379382 -0.350971 0.321487 0.00747409 -0.376555 -0.266395 0.00513842 -0.0603059 0.0476133 -0.166528 0.142642 -0.0444999 -0.171117 -0.109009 -0.262105 0.27781 0.25031 0.14615 0.0499576 -0.0129668 0.0596709 -0.29698 0.369814 -0.0766285 -0.44395 -0.255294 0.258367 -0.4661 0.241953 -0.214154 -0.364679 0.161949 -0.141657 -0.0811092 0.244943 0.144061 0.0424966 -0.156636 -0.106076
35 0.43193 -0.0480452 -0.0382091 -0.0504747 0.0215019 0.3137 0.141398 0.189892 -0.193732 0.179855 0.0180984 -0.15282 -0.19779 -0.180127 0.0336672 0.253194 0.0870196 -0.0395505 -0.236884 0.0863261 -0.173762 0.41344 0.181853 0.229638 -0.288403 0.0197925 0.353245 -0.109053 0.320767 -0.333081 0.025008 -0.163681 -0.112507 0.211498 0.0360528 0.211383 -0.247858 -0.143653 0.00175026 0.0349384 -0.100514 -0.0572803 0.27744 -0.295587 -0.0462925 -0.0453345 0.212833 0.0939158 -0.217465 -0.0681952 0.039825 -0.334559 -0.164815 0.0282963 -0.1643 -0.172782 -0.116579 0.0689462 0.111027 0.255438 -0.0291445 0.12721 -0.0506494 0.0629654 -0.07775 -0.111861 0.0881687 -0.0552384 -0.32437 -0.314466 0.213379 0.0080763 -0.28528 0.229595 -0.0527052 0.0579971 0.170876 -0.0378723 0.0520275 0.124559 -0.0674907 0.184457 0.17911 -0.119334 -0.288562 0.325758 0.0708369 -0.211519 -0.162761 -0.128808 -0.253035 -0.0127972 0.0708944 -0.162866 -0.247976 -0.369183 -0.124082 -0.195854 0.128574 -0.38536 -0.114538 0.0471768 0.122248 0.0236593 0.30867 -0.108998 0.071814 0.0192152 0.0395041 -0.184797 -0.0280708 -0.0746634 -0.228255 -0.148397 0.0815758 0.377801 -0.245669 0.245831 -0.0999724 -0.0854508 -0.0465281 -0.109738 0.156894 0.572327 0.00984416 0.0820554 -0.17121 -0.448693
36 -0.259048 0.169646 0.00814628 -0.387597 0.0398488 -0.51574 0.0647365 -0.351068 -0.141589 -0.157515 0.285102 -0.065306 -0.266665 -0.307983 -0.187818 -0.191475 0.167535 -0.0187079 0.0126652 -0.167268 -0.167999 -0.0441293 -0.124238 0.494641 0.142919 0.176192 -0.18339 0.162744 0.335815 -0.50017 -0.29312 -0.229618 -0.175778 -0.250124 0.0223399 0.0970482 0.109783 -0.148949 0.0333398 -0.0556612 -0.0783707 0.330297 0.0940555 0.116219 -0.0198484 -0.311424 -0.127995 0.0130472 -0.0646294 0.129166 0.249461 -0.0475066 -0.0195871 0.0966456 -0.229499 -0.291732 -0.0253729 -0.266586 0.0670702 -0.387758 -0.0913044 0.197643 0.0179719 0.14153 -0.00174367 0.138257 -0.131237 0.0644606 0.0297912 -0.144292 -0.204314 -0.162247 0.0334194 0.208492 -0.220576 -0.25807 0.131621 0.0506262 0.315114 -0.162786 0.265696 -0.20125 0.0167033 0.200136 -0.141618 -0.0604581 -0.124562 -0.121779 -0.215694 0.0835385 0.051894 -0.177026 0.234886 -0.0791941 -0.182445 -0.0424555 -0.373082 -0.0506866 0.272997 0.0419778 -0.0638369 0.245158 0.217334 -0.288639 0.0506171 0.212533 -0.0746611 0.177214 -0.205148 0.0219713 -0.0781831 0.0424702 -0.209214 -0.155179 0.114114 0.374206 -0.160813 -0.287351 -0.185351 0.0978392 -0.0439058 0.105559 0.34134 0.0158824 -0.336036 0.382436 -0.301694 -0.0894871
37 -0.0740319 0.185402 -0.287281 0.241767 -0.267536 0.0518288 0.205855 -0.241707 0.000229671 -0.0618156 -0.0882693 -0.0582746 -0.30066 -0.0927224 -0.045992 0.260226 -0.060311 0.0257582 0.414942 0.246606 -0.0464871 0.310299 -0.00545321 0.39624 0.188033 0.377508 -0.0468825 -0.106789 0.141892 -0.567656 -0.114663 -0.15829 0.0525628 0.38354 -0.285046 0.23657 -0.00323095 -0.172856 -0.142405 -0.411974 -0.352135 0.489201 -0.124931 -0.0316378 -0.103891 0.0409328 0.0183129 0.0871594 0.0627148 -0.134819 -0.143976 -0.251212 0.0779543 -0.193904 -0.00537637 -0.418067 -0.0308971 -0.362561 0.0255768 0.0887426 -0.0663158 -0.416208 0.0580877 -0.154719 0.190746 0.117187 -0.047034 0.41491 -0.342885 -0.0847236 -0.0926597 0.313379 0.1294 0.437377 -0.18034 0.142188 0.19265 -0.218875 0.19776 0.0985139 -0.0943278 0.150164 0.0207728 -0.317321 0.260745 0.00245837 -0.220437 -0.360064 0.306583 0.0464783 -0.337455 0.0947905 -0.0537503 -0.243556 -0.469922 0.121029 0.0968114 -0.0496036 0.0218102 -0.272691 -0.221262 0.206967 0.0961963 0.163819 0.293887 -0.264826 0.200802 -0.21486 0.364216 0.507041 -0.109524 -0.142406 0.231188 -0.323186 -0.0656957 0.63048 -0.174575 -0.215871 0.00451968 -0.22572 -0.12518 -0.279461 0.127162 -0.0772494 -0.151801 -0.157445 -0.226284 -0.379464
38 -0.195269 0.101745 -0.200294 -0.355205 -0.159003 -0.199281 0.133108 -0.286356 0.0109101 0.0281868 0.00649774 0.1933 -0.160473 0.0737726 -0.172829 -0.139344 -0.150409 0.0410549 -0.256375 -0.142111 -0.135925 0.10633 0.344132 -0.551623 -0.1577 -0.26677 0.113652 -0.248022 0.169772 -0.2935 -0.184895 -0.0202662 0.000489886 0.344918 -0.612258 0.161003 0.0412854 0.0901156 -0.082955 -0.169266 -0.0795682 0.26 0.0953089 0.0924131 -0.337787 0.0447826 0.225496 -0.152634 0.270589 -0.203656 0.249143 -0.0227069 0.250637 -0.0043897 0.19893 -0.373367 0.125488 0.17632 -0.198965 -0.347384 -0.100293 0.23863 0.0690641 -0.33094 0.349711 -0.291043 -0.324127 -0.268613 0.181951 -0.012395 0.345869 -0.0497011 -0.29393 0.359961 -0.133362 -0.321459 0.342881 -0.0519695 0.0302974 -0.407597 -0.0165806 0.159672 -0.348475 0.321608 -0.460047 -0.0878836 0.336866 -0.109678 0.253637 -0.133465 0.0498917 -0.0850784 0.0536656 -0.14618 -0.616484 0.0811641 -0.0819651 0.0442164 0.0512402 -0.142967 0.11816 0.165825 0.0781549 -0.304571 0.190361 -0.156267 0.234472 -0.0784245 0.00685085 0.332592 0.336964 -0.367709 -0.214217 -0.243804 -0.35796 0.341992 -0.240739 0.0522288 0.0158993 0.193997 0.39612 -0.310879 0.162448 -0.079884 0.039607 -0.0282895 -0.165003 -0.124783
39 -0.0923035 0.228176 -0.153383 7.45507e-05 -0.257438 -0.0363402 0.255236 -0.239368 0.247007 0.236205 -0.281477 -0.0483881 -0.083383 0.162364 -0.21132 0.205423 -0.0148153 -0.294887 0.0869375 -0.187846 -0.135161 0.474023 -0.257382 -0.0211513 0.543217 0.254078 -0.539191 0.224069 0.215533 -0.0715399 -0.280569 -0.299144 -0.141529 -0.121892 -0.429079 0.495959 0.233268 -0.0770603 0.194158 -0.0632758 -0.368333 0.466801 -0.147327 0.0341487 0.168126 -0.124338 -0.148745 -0.0399465 0.171748 -0.362184 0.271488 -0.543703 -0.173744 -0.132018 -0.264219 0.0553639 -0.150263 -0.0229693 -0.0841422 0.271325 -0.019741 0.465519 0.19004 -0.0832198 -0.241969 -0.0105866 -0.0320265 -0.188117 -0.214814 0.209714 -0.0354544 -0.369192 -0.0927531 0.291037 -0.314852 -0.212748 0.217076 -0.0428535 0.169164 -0.400307 -0.0841361 0.095545 0.22585 -0.531429 -0.204212 0.169 -0.0277568 -0.0797312 0.322671 0.522607 -0.117421 -0.057861 0.0627904 -0.440559 -0.34506 -0.439121 0.3505 -0.0982022 0.0989661 -0.144506 0.133017 -0.0316869 -0.0204557 -0.227981 0.0857456 0.359924 -0.202208 0.284081 -0.143447 -0.158019 0.435219 -0.342575 0.193228 0.200984 -0.108374 0.139496 -0.0370927 -0.497149 -0.418504 0.048215 0.573917 -0.436924 -0.315779 0.0284371 0.156747 0.206803 -0.231175 -0.34281
40 -0.170256 0.184606 0.306359 -0.22403 0.0412419 -0.0500761 0.335349 -0.0154783 -0.0247883 0.100584 -0.0435332 0.0748183 -0.283106 -0.0177018 0.247203 -0.276314 0.20263 0.107875 -0.116438 0.123801 0.0587121 0.0566577 -0.31461 -0.101778 0.453377 -0.0793211 0.179286 0.429123 -0.0284928 -0.411731 -0.268568 0.106555 -0.0828165 0.362503 -0.146783 -0.177141 -0.0437057 -0.114434 0.328834 -0.107153 -0.108033 0.133448 0.199048 -0.29539 -0.0669597 -0.231436 0.0474307 0.362055 -0.0596788 -0.273792 -0.123087 -0.0537082 0.0994773 -0.0656021 -0.177305 -0.0233242 0.264175 -0.128347 0.0677135 -0.00357893 0.0835488 0.0823095 0.137288 0.144957 0.111427 0.131788 0.079061 0.0759927 0.335629 0.204368 0.0704836 -0.248856 0.0117989 0.437351 -0.0905807 -0.0467122 0.182848 0.403669 0.101703 -0.231875 0.377636 -0.176192 -0.122544 0.241588 0.264098 0.114469 -0.061344 -0.0560153 -0.0474572 0.0340632 -0.22666 0.189382 -0.15322 0.0165517 -0.340647 0.0901757 -0.247693 -0.0583809 -0.130069 0.175706 0.313494 0.178665 -0.221828 -0.00470836 0.423907 0.0502397 0.23349 -0.396156 -0.25071 -0.153699 0.215548 -0.0932484 0.0796402 -0.0526922 -0.145032 0.326791 -0.309985 -0.00845931 -0.0916864 -0.125657 0.17776 -0.0244748 0.0228065 0.243362 -0.134574 0.456324 -0.259916 -0.648764
41 -0.0844076 0.014922 0.0250728 0.0652355 -0.019438 -0.0430253 -0.0406153 -0.199804 0.06198 -0.146972 -0.216336 0.1184 -0.0638628 0.0181538 -0.103597 -0.104895 -0.205963 0.0128475 -0.229265 0.262398 0.155746 -0.188863 0.142822 0.0812045 -0.323947 -0.202793 -0.266997 -0.17752 0.174518 -0.413243 -0.372595 -0.138515 -0.00838902 -0.0754872 -0.365103 -0.118845 -0.0790558 -0.161873 -0.31072 0.165801 -0.266714 0.142484 0.100747 -0.0561544 0.255906 -0.300519 0.110771 0.0249488 -0.0854627 -0.341618 -0.0377856 -0.234492 0.306107 -0.0710737 0.329567 -0.133386 0.432309 -0.0841884 0.0524517 -0.0673462 0.198923 0.170237 0.158234 -0.02128 0.0256672 0.0994859 -0.225961 0.139275 0.0266648 0.22789 -0.0562951 -0.0247373 -0.0188584 0.21835 -0.0412065 0.250096 0.267608 -0.259514 0.16759 -0.189818 -0.0950804 -0.0148733 0.148581 -0.0803296 -0.153816 0.23615 0.293061 -0.0520331 -0.143529 -0.0663208 0.121793 0.0477473 0.202103 -0.00190948 -0.0492881 -0.597385 0.0638262 0.0760943 -0.278179 -0.298616 -0.15483 -0.0475523 0.0754605 0.12384 0.0653279 0.238753 0.0477535 -0.0447874 -0.0882409 -0.129384 -0.16167 -0.0384683 -0.179503 -0.15221 -0.0703045 0.384836 -0.218998 -0.16389 -0.229085 -0.00226787 -0.0575137 -0.0686638 -0.0717321 0.27723 0.0719145 0.0927161 -0.425519 -0.19017
42 -0.059538 0.0192326 -0.0547821 0.271695 -0.0552422 -0.188986 -0.106326 0.122086 -0.288859 -0.205582 0.0107324 0.056854 -0.253049 -0.013591 0.066849 0.26433 -0.0615501 -0.111619 -0.023654 0.298385 -0.20308 0.270032 0.0798189 -0.0582816 0.152198 0.358311 -0.14899 -0.0353803 0.111106 -0.535213 -0.181357 -0.224518 0.0175161 0.0432124 -0.0666381 -0.0898158 0.242531 0.0235363 0.0736879 -0.102847 -0.177942 0.100683 0.121683 0.188989 -0.0082867 -0.311858 0.0708816 -0.268605 -0.231796 -0.0830006 -0.171117 0.340878 -0.204282 0.27399 -0.113548 -0.0812635 -0.0553914 -0.191861 -0.14063 -0.280859 0.170134 0.0759361 0.417515 0.0785474 -0.316739 0.179352 -0.213201 -0.348358 0.219844 0.102295 -0.24819 -0.149459 0.0249412 0.312304 -0.0333132 0.0206174 0.0521843 0.201595 0.180563 -0.19428 0.0372619 0.247128 0.143476 0.257206 -0.131762 0.146738 0.291737 -0.341798 -0.148431 -0.156896 0.133936 0.0138014 -0.21655 -0.231276 -0.23378 0.0394506 0.223029 -0.0237891 0.191146 0.143562 -0.137078 0.0194262 -0.0205198 -0.102046 -0.0641215 0.0902727 -0.167388 0.101934 0.233956 -0.13215 0.0732423 -0.197468 0.102232 -0.283411 -0.0564908 0.31957 -0.101562 0.262715 0.00906726 0.627124 0.0864927 0.268581 0.17435 0.0291856 -0.233312 0.388884 -0.072024 0.0658065
43 0.433969 0.214957 0.0919515 0.0962171 0.00692809 0.309842 0.548708 0.464801 0.170112 0.183163 0.258614 -0.524311 -0.00848034 -0.174842 -0.256411 -0.0803372 0.664757 -0.573114 0.304294 0.487431 0.223719 0.185871 -0.446555 0.670174 -0.150564 0.441312 0.589048 -0.376342 0.617757 -0.571273 0.410988 0.160181 -0.0602087 0.153964 -0.485688 -0.106112 -0.419808 -0.282715 -0.106116 0.280078 -0.343281 -0.0793485 -0.0746463 0.112505 0.0663553 -0.515572 0.399285 -0.122536 0.210657 0.213191 -0.238593 -0.347843 -0.494888 0.306255 -0.0692052 -0.0670085 0.265019 -0.844076 0.156627 -0.457055 -0.499107 -0.0249215 0.126387 0.243672 -0.00973185 0.716305 -0.413944 -0.110275 -0.176512 -0.482783 -0.113574 -0.852676 0.188291 0.430532 -0.171971 -0.0539448 -0.312182 -0.488424 0.221022 -0.133571 0.267166 0.328078 0.56898 -0.0989157 0.227084 0.183236 0.0920337 -0.590673 -0.225078 0.115322 -0.19273 0.619853 -0.417386 0.0381637 0.250307 0.117423 0.28892 -0.224489 0.460109 -0.412825 0.054198 0.0739529 0.319902 0.428861 0.573492 0.590225 0.100583 0.507128 0.390324 0.110882 -0.554811 -0.267172 0.748283 -0.136129 0.238821 -0.258595 -0.268131 0.232248 -0.022694 0.129375 0.259129 -0.135787 -0.0147556 -0.18406 0.476134 0.466622 -0.156467 0.183464
44 0.597329 0.0122816 -0.392 0.174833 0.0693388 -0.0638735 0.219457 -0.185136 -0.28631 -0.311089 -0.15862 0.00666993 -0.249984 -0.0921147 0.107336 0.221615 0.00977589 0.190125 0.181287 0.0237917 0.00413068 0.185722 0.0186881 0.0527179 -0.233525 -0.358164 0.26622 -0.0425816 0.137289 -0.395754 0.0290791 0.17634 -0.0585011 -0.056116 -0.28587 -0.1299 -0.0460608 0.182111 -0.127068 -0.0510629 -0.117869 0.0544627 0.150679 -0.239636 0.484741 -0.119309 -0.125595 0.156588 -0.095925 0.0309528 -0.239015 -0.252291 0.0666776 -0.0121911 -0.0149027 -0.145162 0.0479237 0.0451916 0.237982 0.174473 0.0959848 0.127105 0.0980885 0.243603 -0.0023012 -0.0830768 -0.280357 0.263517 -0.232304 -0.0993867 -0.0636611 0.0619964 -0.0349378 0.313582 -0.29752 0.0210866 -0.384217 -0.06513 0.247893 0.106798 -0.334659 0.0885359 -0.00396172 0.0997891 -0.0549967 0.159998 0.211603 -0.226104 -0.25641 -0.0375333 0.0642659 -0.066342 -0.0965591 -0.00983572 -0.125572 -0.0561714 0.0253568 0.0529814 0.00791729 -0.111821 0.282995 -0.0303291 -0.0791951 -0.302431 -0.254043 -0.0778082 -0.201522 0.0155926 -0.0175359 0.247271 -0.214926 0.0911944 0.121249 0.0576045 -0.105863 -0.156714 -0.254989 0.260206 -0.301148 -0.0101719 -0.101929 0.295586 0.0098039 0.236833 -0.178839 0.0114013 -0.247888 -0.106721
45 -0.269804 0.355046 0.018471 -0.0936813 -0.126685 -0.308506 0.143168 -0.408169 0.203906 0.0595129 0.0564768 -0.066191 -0.0865864 -0.443181 -0.218038 0.208366 0.387538 0.353518 0.0494204 0.0103275 0.271067 -0.205894 -0.115215 0.199041 0.363136 -0.165943 0.393098 -0.0417891 0.221758 -0.294367 0.125685 0.11807 0.297105 0.0036617 -0.211195 -0.0513181 -0.108464 -0.107061 -0.486864 0.0435235 -0.246522 -0.212261 0.0306887 0.157675 0.0382817 -0.128387 -0.107454 0.0636811 -0.029299 0.32211 -0.202881 -0.223726 -0.229403 0.0843307 0.155251 -0.212248 0.13211 0.135741 -0.173572 -0.0656996 0.108655 0.0662789 0.37551 0.313738 0.0584047 -0.164377 0.116287 -0.105499 0.120541 -0.157664 -0.320821 -0.000245491 0.00884296 0.4086 0.0674081 -0.191074 0.0401911 0.0463785 0.00974386 -0.0733185 -0.271332 0.127863 0.0107579 0.187324 -0.346962 0.154651 0.407442 -0.0302879 0.251844 0.239943 0.0223019 0.0634612 -0.265095 -0.176311 -0.225563 -0.251737 -0.237026 -0.157087 0.149581 0.29971 0.0530284 0.510855 -0.0572654 -0.376022 -0.275867 -0.310952 0.276264 -0.0938984 0.0614012 -0.248964 -0.322036 -0.236547 -0.123468 -0.177159 0.260328 0.19487 -0.250211 -0.00509017 -0.277333 0.162557 -0.348677 -0.556408 0.273057 0.0219976 -0.137398 -0.0393851 0.0887161 -0.127727
46 0.10495 0.145807 -0.145361 0.321147 -0.0652528 0.255561 0.185201 0.121506 -0.0642958 -0.0500663 -0.407237 0.0825988 -0.0862672 -0.294606 0.176001 -0.18114 -0.0233881 0.0489206 0.112274 0.296094 0.165755 0.228793 0.169518 -0.0114432 0.174428 0.253329 0.0420934 0.0689118 0.0208239 -0.216786 -0.0421141 0.0395399 -0.129675 -0.118938 -0.200595 -0.0456508 0.462803 -0.341501 -0.0806234 0.321155 0.0359568 0.0200714 -0.219919 -0.278972 0.0950606 0.00312985 -0.133105 -0.31687 0.146328 -0.101494 0.134074 0.0473279 0.0346796 -0.217513 0.118071 -0.156987 -0.0750254 -0.0697745 0.341658 -0.295841 -0.101831 -0.0532355 0.313566 0.165865 -0.376374 0.0748044 -0.283726 0.133807 -0.0693147 0.034824 0.0125584 0.0837186 -0.22369 0.453882 -0.337643 0.0868347 0.309591 0.20086 0.299079 -0.216776 0.083076 0.169434 -0.500028 -0.00202112 0.0709097 0.281379 0.188789 -0.0145857 0.186545 -0.159974 -0.294345 -0.0294258 -0.237568 -0.177342 -0.258563 -0.243828 -0.211184 0.017942 0.111784 -0.0646285 0.0803439 0.0503839 -0.28425 0.010328 -0.151133 -0.159621 0.0841292 0.362645 -0.0671313 -0.0282426 -0.139288 0.069526 -0.058006 -0.124036 -0.172971 0.118638 -0.376576 0.458557 0.0441942 0.0213354 0.191452 -0.326673 0.0968862 0.0819455 -0.194194 0.177108 -0.202063 -0.295302
47 -0.107648 0.191322 -0.0898914 -0.0662804 -0.117743 0.229017 0.187564 0.622674 -0.0245293 0.0510122 0.116343 -0.103856 0.0204458 0.0967992 0.499551 -0.134447 0.349468 -0.0314162 0.0647246 -0.0792061 -0.463246 0.0619021 0.217766 -0.122566 0.174706 0.184562 0.288788 -0.409827 0.194312 0.00462137 0.120411 -0.165453 -0.244927 -0.431566 -0.227697 -0.298337 0.104901 -0.0788361 -0.351922 0.151191 -0.310158 0.0218141 0.0834242 0.385705 0.225513 -0.112382 0.127281 -0.525265 -0.0865924 -0.27988 0.251056 -0.102705 0.203207 0.0516954 -0.29576 -0.417908 -0.0823397 0.234899 0.218669 -0.0648893 0.0485017 0.000940166 0.284692 0.0463053 0.329378 0.175504 0.000866731 0.258526 0.0128544 -0.18521 -0.262551 0.00203421 -0.420059 0.169518 -0.518785 0.204314 -0.224962 0.0872484 0.213586 -0.246243 -0.124493 -0.124515 0.0370912 -0.365802 0.217944 -0.195016 0.173314 -0.177808 -0.0581804 0.256925 0.117432 -0.41007 -0.16207 -0.14272 -0.204279 -0.0447956 0.188624 0.344993 -0.044866 -0.0668202 -0.139726 0.304721 0.234207 -0.0206703 0.00998832 -0.103159 0.256981 -0.381295 0.307842 -0.255679 0.255401 -0.318353 -0.330486 -0.0378545 -0.238891 0.409637 -0.431887 0.0270126 -0.0209316 -0.106444 0.428086 0.0148659 -0.0453196 0.30175 0.0684324 0.329978 -0.32701 -0.353311
48 -0.191332 0.467082 0.17869 -0.0382151 -0.0841904 0.150988 0.193389 0.0426844 0.147068 -0.440786 0.314735 -0.112705 0.111785 0.0124583 0.0502179 -0.00357834 0.0410623 -0.235702 -0.0422874 -0.169313 -0.15068 0.0808096 -0.127347 -0.0487923 -0.111044 0.319304 0.00647695 -0.0589321 0.171995 -0.304713 0.075951 0.0400686 0.172843 0.00626321 -0.353863 0.499537 0.142171 -0.0340056 -0.0534628 0.0968016 -0.263045 0.215517 -0.490114 -0.0796823 0.326576 -0.284921 0.184326 -0.109273 0.0373084 0.0753037 0.0912312 -0.0219687 -0.0874842 0.152347 -0.202081 -0.130112 -0.0354169 0.00837637 0.170426 -0.149524 0.0905702 -0.121585 0.172448 -0.20809 -0.129536 0.0907347 -0.00585485 -0.436094 0.0846756 -0.082707 0.201302 -0.228992 -0.0179804 0.333699 -0.255126 0.164237 -0.270353 -0.074809 0.098657 -0.0414246 0.132746 0.148526 -0.147469 -0.0698849 0.175183 0.0279826 0.213587 -0.214002 0.291528 -0.312799 -0.245876 0.212575 -0.0970495 -0.15296 -0.406429 -0.017113 0.027536 0.131618 0.00438565 0.0634147 -0.236177 -0.0381359 0.104001 -0.0608084 0.218275 0.524038 0.339451 0.239194 0.0555715 -0.0521191 0.191081 -0.114669 0.0790546 0.0127267 0.255489 0.293975 -0.218752 0.151269 -0.161996 -0.0201929 0.185121 -0.102 0.0685976 0.158834 0.00406989 0.335326 -0.389313 -0.597476
49 0.0558736 -0.235932 0.0736047 -0.0191745 -0.287746 0.0407958 0.0836643 -0.371752 -0.159683 0.226197 -0.33908 -0.252866 -0.436942 -0.141288 0.0305407 0.131906 -0.00722666 -0.0777441 0.292429 0.0498604 0.00417797 0.059216 -0.545898 -0.501288 -0.0452475 0.110656 0.182801 -0.336662 0.143198 -0.498239 -0.428925 -0.487577 -0.02203 -0.436737 -0.125003 0.249313 0.449488 0.135304 -0.271487 -0.096396 -0.22799 0.013791 0.474386 0.274313 -0.316506 -0.0731882 0.402825 -0.175821 -0.00988772 0.160453 -0.0699085 -0.055953 -0.0378219 -0.147272 0.246344 -0.0374858 0.249183 0.263727 0.0901351 0.0648555 -0.370215 -0.216975 0.0759238 0.448062 -0.403158 -0.0216569 -0.230284 0.00269925 0.429293 -0.409534 0.254873 -0.0108675 0.671185 0.38955 -0.0923048 -0.107862 0.0250383 -0.338789 0.122537 -0.0230796 0.11314 0.046205 -0.133106 -0.0436213 -0.0315859 0.309561 0.286205 -0.348607 -0.00530903 0.671177 0.633106 -0.127089 0.612553 0.179309 -0.0675152 -0.0644251 -0.325632 0.190241 0.444684 0.600745 -0.234289 0.55496 0.309449 -0.607363 -0.297287 0.15199 0.167317 0.558401 0.207293 0.158882 -0.548316 -0.208613 -0.542284 0.0404966 -0.700582 0.200582 -0.129509 0.109535 -0.22665 0.0886338 0.284884 -0.0827442 0.365089 -0.129719 -0.365807 0.825713 -0.209869 -0.126558
50 0.0960494 0.441778 -0.136884 -0.0591121 -0.0699351 0.406139 0.371099 -0.424109 0.311909 0.118493 -0.128094 0.272469 -0.563321 -0.408725 0.260592 0.19399 -0.496142 0.027015 0.212683 0.771889 0.270407 0.394492 -0.00616681 -0.186308 -0.0377189 1.03262 -0.291139 0.344145 0.0145824 -0.307878 -0.117406 -0.0792124 -0.0881239 0.200631 -0.126616 -0.203543 -0.0498363 0.744675 -0.197903 0.123435 0.184664 0.337656 -0.289154 -0.11705 0.177685 -0.328972 -0.0114337 0.180192 -0.0505882 0.22413 -0.167215 -0.445403 -0.0763907 0.110071 -0.391113 -0.452368 -0.578976 0.452705 0.51837 -0.334578 -0.324112 0.0284487 0.0139868 0.0550307 0.0137155 -0.487443 -0.152635 0.116046 0.345144 -0.268206 -0.522259 -0.297904 0.490119 0.220851 -0.706137 -0.0773426 -0.161175 -0.486662 0.114485 -0.200677 0.026415 0.473932 0.338794 0.144039 0.102944 0.910114 0.32511 -0.136451 -0.0602481 0.103864 0.32502 0.0206631 -0.0957641 -0.435991 -0.0147613 0.226609 -0.353346 0.0589394 0.288817 -0.341176 0.0593595 -0.0453474 0.567554 -0.21126 -0.248269 -0.351041 -0.569492 0.277281 -0.0922976 -0.0797701 -0.287732 0.100835 -0.110551 0.0456847 0.326585 0.128365 -0.319932 -0.262405 0.190536 -0.572549 0.112097 0.558326 -0.158108 -0.0559223 0.349612 0.225211 -0.331292 -0.402931
51 -0.0938666 0.245654 -0.248869 -0.327371 -0.0802255 -0.01329 0.0218734 0.262557 -0.174828 -0.170574 0.176104 0.0203459 0.192037 0.073041 -0.0358653 0.0762264 0.0725249 -0.185376 -0.0557724 0.0615561 -0.17558 0.332189 -0.0390904 0.113265 -0.334213 -0.199151 0.15026 -0.145084 0.283091 -0.182001 -0.250352 -0.158112 0.0917286 -0.0333771 -0.408349 0.147804 0.11897 0.0275357 0.24738 0.356601 -0.0220008 0.196219 -0.183345 0.194779 -0.00151332 -0.267379 0.0908055 -0.253397 -0.0214254 -0.0774454 -0.0978089 -0.274732 -0.0096471 -0.200828 -0.100309 -0.306968 -0.130239 -0.18202 -0.0362564 -0.0304266 0.0198634 -0.104379 0.0983779 0.416878 0.142834 0.101482 -0.347504 0.630693 0.167969 -0.23174 -0.255487 -0.290617 -0.0757144 0.26622 0.0411773 0.339159 0.158144 -0.224118 0.225893 -0.145029 0.0469517 -0.00737521 0.32775 -0.195931 -0.0404408 0.479621 0.257548 -0.172985 0.0916313 -0.207665 0.298586 -0.291128 -0.254679 0.0312546 0.206812 -0.213828 -0.177567 0.0551055 0.151689 0.270868 -0.0821204 0.128111 -0.0108674 -0.0698391 0.099358 -0.262017 0.0968842 0.124119 0.0162678 -0.208512 -0.224026 0.0948092 -0.432421 -0.0339585 0.245725 0.0131689 -0.225272 0.130793 -0.120029 0.0575291 -0.00132998 0.0545338 0.19154 0.462213 0.0185198 0.174749 -0.076623 -0.208411
52 -0.179403 -0.000528289 0.0708 0.27884 0.464467 0.10729 0.101047 -0.0428111 -0.573405 -0.289504 -0.12832 -0.189781 -0.208159 -0.205003 0.157859 -0.0609933 0.391254 0.138422 0.297298 -0.317254 0.221433 0.179978 0.114187 0.465572 -0.0770646 -0.106436 0.294203 0.172381 0.572109 -0.614596 0.162749 -0.324241 0.0331718 -0.151754 -0.71883 -0.320833 -0.285393 0.573891 0.181887 0.323888 0.34568 -0.114552 0.772063 -0.30385 0.0999732 -0.221716 0.294488 -0.224717 0.318347 -0.203445 -0.270255 0.140416 -0.395594 0.0747657 -0.115522 -0.0550055 -0.150523 0.0632174 0.195904 -0.457722 0.0398919 -0.128476 0.178934 0.164725 -0.0393678 -0.284142 0.126915 -0.299985 0.00132981 -0.174423 0.635199 -0.44165 -0.0882076 0.222572 -0.15857 -0.257923 0.306192 -0.0739353 0.38894 0.195469 -0.140679 0.429368 -0.195849 0.320951 0.211841 -0.0401041 0.324436 0.0635788 0.0831538 -0.270743 -0.0744997 -0.312104 -0.624878 -0.312109 0.143518 0.163403 -0.153639 -0.311679 -0.293385 0.308331 -0.186388 -0.028551 -0.238083 -0.00295719 0.0902043 -0.246182 0.430681 -0.072367 -0.234078 0.041469 0.0649285 0.171772 0.0115472 -0.0851791 0.159005 -0.0409429 -0.249516 -0.0334707 -0.0497938 0.0715144 -0.0397367 -0.177058 -0.353163 0.161321 -0.637578 0.0538795 -0.237586 -0.100704
53 -0.126667 -0.145417 -0.168976 -0.224301 -0.0736599 -0.172401 0.279221 -0.29488 -0.241455 -0.038776 -0.107194 -0.243904 0.219051 0.00931823 -0.423738 0.0331142 0.05442 0.364703 0.177954 0.138372 0.0176729 0.0458755 0.175731 0.0162755 -0.222875 -0.113381 0.00210684 0.149448 0.0751001 -0.357184 -0.329428 -0.100276 -0.118856 0.168488 -0.178999 0.0601304 0.501499 -0.0254323 -0.0413293 -0.0991034 -0.304938 0.0515857 0.199691 -0.194122 0.174165 -0.0984373 -0.339275 -0.0397595 -0.0926667 -0.06463 -0.136523 -0.327072 -0.155733 -0.474549 -0.226204 -0.157367 0.0750505 0.206005 -0.158249 -0.317203 -0.0922466 -0.134955 0.156164 0.0967817 0.246332 -0.36795 -0.0277669 -0.156723 -0.19501 0.490192 0.231806 -0.373645 -0.219062 0.302918 -0.0227683 -0.5807 0.129609 0.29129 0.169056 0.278461 0.0198508 -0.0318398 -0.092402 -0.572083 -0.372992 0.0672528 0.304247 0.15112 -0.212094 -0.00898421 -0.323643 0.0513421 0.221403 -0.170799 0.0657105 0.0187254 0.073701 -0.035015 -0.278138 -0.0551273 -0.0957378 0.00107598 0.207456 -0.197261 0.237207 -0.168802 0.0718961 0.368006 -0.0756494 -0.512934 -0.222271 0.147146 -0.0714067 -0.224868 0.608911 0.0165037 -0.155646 -0.264016 -0.496339 0.0697158 0.0852176 0.135135 -0.0876185 0.299145 -0.488001 -0.0582688 -0.194942 -0.0231849
54 0.0541696 -0.282018 0.106948 0.28451 -0.359395 -0.0657119 0.395566 -0.107344 0.22146 0.0903574 -0.115074 -0.335004 0.0270431 -0.0810978 0.509242 -0.271579 0.245878 0.357275 0.00888465 -0.283932 -0.0654158 0.136635 0.175725 0.0892214 -0.333298 -0.102514 -0.0685236 -0.26921 0.268202 -0.283649 0.243908 -0.0101255 0.0358859 0.182938 0.130873 0.224676 0.0749267 -0.0508164 0.121257 0.108201 0.134765 -0.0900178 -0.13199 0.169855 0.386674 -0.0356207 -0.229071 0.0943322 0.144272 -0.207354 -0.235333 -0.0497072 -0.0446759 -0.0579214 0.223195 -0.309165 -0.332747 -0.197836 -0.0684764 0.194612 -0.0492541 -0.0575253 0.33901 -0.0268662 -0.0480321 0.382655 0.149087 0.124771 0.517458 0.0764603 0.0528786 0.121312 -0.488461 0.233726 0.0910598 0.0685444 -0.0962591 0.0120639 0.263947 -0.0389256 -0.19758 -0.0488605 0.0325675 0.227142 0.016216 0.4195 0.317813 0.384176 0.114709 -0.212127 -0.145819 0.0541673 0.158098 0.142124 -0.138676 0.068235 0.0134048 0.313822 0.19016 -0.110067 -0.0390584 0.0178225 0.122275 0.0208591 -0.225526 0.0459427 0.102979 -0.0569132 -0.103187 0.354901 -0.159799 0.0211696 -0.237467 -0.474696 0.0668163 0.0104874 -0.580797 0.0315487 -0.0429655 0.197391 0.0616303 -0.0590572 0.136055 0.20754 0.284579 0.0869519 -0.195868 -0.205204
55 0.219494 0.0240383 0.079994 -0.265199 0.154135 0.0563608 0.370743 0.174881 -0.124113 -0.365344 0.256198 0.119778 -0.187806 -0.370746 0.0446569 0.323577 -0.149393 0.0852734 -0.207629 0.00752083 0.528591 -0.272143 -0.116331 -0.0138542 -0.319882 0.172458 -0.0910283 0.0969643 0.294074 -0.370158 -0.147624 0.0540765 -0.0156205 0.305472 -0.136693 0.336361 0.31351 -0.236161 0.229276 -0.190828 0.183318 0.135138 0.165227 0.182671 -0.00103612 0.0875492 -0.487033 0.127175 0.0771408 0.040768 -0.0661859 -0.0257771 0.0799147 0.410052 0.222983 -0.0411102 -0.186016 -0.233489 0.362567 0.0159804 0.262416 -0.0664255 0.334168 0.16258 -0.248467 -0.103857 -0.148816 0.0711343 0.258513 -0.0103561 0.0941839 -0.0773481 -0.226275 0.217376 -0.0845074 -0.277943 0.365743 -0.111023 0.214988 -0.0939269 -0.171926 0.338737 0.000303536 0.0264229 -0.181398 -0.102308 0.11221 0.18722 -0.182602 0.198312 -0.361865 -0.324436 0.248923 -0.125301 -0.152277 -0.314814 -0.114113 -0.0677081 -0.142989 -0.187812 0.493662 0.0777842 0.194059 -0.157011 -0.288288 -0.292261 -0.100663 0.632376 0.167604 0.28587 0.222471 0.318123 -0.188007 -0.141982 -0.0935774 0.0976218 -0.591993 -0.136601 0.045117 -0.203948 -0.362371 -0.0134937 0.208655 -0.10624 -0.101253 0.264285 -0.0358895 -0.116533
56 0.157741 0.0846789 -0.028621 0.248767 -0.0831266 0.0294712 0.175401 0.40314 -0.0553461 -0.261689 -0.216003 0.164947 -0.0757313 0.139194 -0.0333541 -0.364398 0.289045 0.449306 0.112017 0.0940497 -0.136745 0.340018 0.283852 0.237106 0.0932285 -0.0424724 0.173102 0.0836783 0.00336973 -0.332328 0.198943 0.099323 0.196446 -0.131843 -0.266915 0.284783 0.0140248 -0.0262023 0.0976535 0.163924 0.120688 0.104831 0.315099 -0.233041 0.253028 -0.145333 -0.160515 0.135452 0.253377 -0.284131 -0.0365017 0.137478 -0.259274 0.306055 -0.193388 -0.0284934 -0.043057 0.0730011 0.118907 -0.154699 -0.268622 -0.181289 0.141406 0.0278445 0.239637 0.479529 -0.143822 -0.019388 0.389738 0.0670114 0.186969 0.0343391 0.0577235 0.168781 -0.0215495 0.341863 -0.0482738 0.298916 0.22133 -0.0170501 0.0339453 0.299784 0.0947889 0.0147188 -0.0198973 0.0847807 0.426177 0.109992 0.161809 -0.0572273 -0.195715 0.03804 -0.0702217 0.141739 -0.379929 -0.477451 -0.0447778 -0.348542 0.023831 -0.338577 -0.51361 0.193458 -0.199141 -0.0509684 0.241083 0.272165 -0.148223 0.567482 -0.152813 0.00929625 0.344719 -0.0927456 -0.147385 -0.131146 -0.146293 0.0994948 -0.486665 -0.160052 0.0409424 -0.119679 -0.0092509 -0.0715956 -0.103353 0.295663 0.154585 0.10272 0.0700086 -0.326854
57 0.0466552 -0.181692 -0.269582 0.235492 -0.288522 0.135228 0.0470155 0.0252145 -0.375603 -0.0207418 -0.199762 0.032464 0.028767 0.0689025 0.00702397 -0.168019 0.242628 -0.255817 -0.141173 -0.137942 0.243358 0.231399 -0.220348 0.0140475 0.0367323 0.35528 -0.220433 -0.245256 0.269383 -0.152922 -0.152715 -0.514328 -0.00499672 -0.0583533 -0.259664 0.204059 0.240489 -0.118413 -0.064147 0.176421 0.0584814 -0.00590494 0.0225124 0.16874 -0.228014 0.162531 0.0347323 -0.0464243 -0.263248 0.139694 -0.135747 0.16792 0.0761796 0.0234508 0.135811 -0.00102078 -0.0862243 0.00248942 -0.0343261 -0.268366 0.181354 -0.101627 0.529136 0.211993 0.200993 -0.0536723 0.23122 0.0264581 0.243806 0.000338164 0.0163339 -0.218501 -0.441173 0.287449 -0.331067 0.185727 -0.143172 0.120744 0.314576 -0.408107 0.0356574 0.316868 -0.0415627 0.319981 0.0744941 0.28527 0.406752 0.100709 0.108218 0.0637098 -0.210768 -0.249204 0.219456 0.0862808 -0.218153 -0.132075 -0.0394398 0.518447 -0.000554093 -0.378844 -0.214029 0.290345 0.0269825 -0.242219 -0.0146049 0.152752 0.16573 -0.0772506 0.19472 0.140969 -0.27764 -0.152371 -0.370484 -0.466513 -0.231273 0.207301 -0.089134 0.186456 -0.0337771 -0.0338608 0.294809 -0.128667 -0.378616 -0.143004 0.249006 0.283811 -0.113572 -0.151801
58 -0.00223042 0.0752577 0.259113 -0.143751 0.0261075 0.519904 0.188965 0.150031 -0.239752 0.210033 -0.050222 -0.0263479 -0.344586 0.242205 0.0799141 0.109872 -0.188059 -0.0174089 -0.00910479 -0.125142 0.153193 -0.0685631 -0.116117 -0.268176 -0.0134377 -0.0832464 0.0472549 -0.0277914 0.15291 -0.442417 -0.205156 0.216556 0.215717 0.116593 -0.249435 0.300566 0.386692 -0.114251 -0.260015 0.160297 0.138127 0.188373 0.049261 0.13291 0.100849 -0.151315 0.013964 -0.115782 -0.0956133 0.14299 -0.318804 0.0896362 -0.0868861 -0.106345 0.235714 -0.168796 0.0976936 0.109336 -0.344549 -0.181945 -0.0308429 0.142328 0.310543 0.306403 -0.135717 0.025921 -0.210211 0.17421 -0.07394 0.0129914 0.0945824 -0.0215666 -0.167415 0.227813 -0.0489069 0.225525 0.0982319 0.0686512 0.230495 -0.286665 -0.062638 0.0353791 -0.0674046 0.359128 -0.0358829 0.371031 0.325331 -0.139795 0.0242023 -0.135504 -0.0401607 -0.229595 0.122053 0.045604 -0.115481 0.0601456 -0.000350147 0.157038 -0.22002 -0.203079 0.144321 -0.0310258 0.0332604 0.0719056 -0.121473 0.275304 0.204165 0.25659 -0.0286086 -0.170025 -0.0441515 0.198937 -0.0156886 -0.223887 -0.127843 -0.0557002 -0.295523 -0.0240802 -0.0294808 -0.0829653 0.13779 0.11319 0.0852468 0.139179 -0.105567 0.0982907 -0.176297 -0.307708
59 -0.313559 -0.00580736 -0.0489662 0.0860374 0.0343978 -0.216037 0.209394 0.0629104 0.0606456 -0.064428 -0.192047 -0.0265476 -0.221742 -0.130561 -0.306546 0.196186 0.0547075 0.273146 -0.14722 -0.380416 0.299956 0.153907 -0.131633 -0.244036 -0.280843 -0.0727514 0.118676 -0.0397954 0.259163 -0.231612 0.00396543 0.122392 0.246516 0.0360531 -0.0525973 0.0372438 0.0979245 0.013421 -0.14251 0.253379 0.20584 0.121537 -0.114117 0.0714869 -0.0911466 -0.163669 0.120097 -0.167812 0.179226 0.484646 -0.0826042 0.0399067 -0.188018 0.167916 -0.0178191 -0.299435 -0.199004 -0.434774 0.0482607 -0.387146 0.00258897 0.456582 0.310485 0.011874 0.130937 -0.0300755 0.07671 -0.0313233 -0.196736 -0.0583146 0.0558117 0.0167524 -0.154069 0.39279 -0.252208 -0.174436 -0.145749 -0.100977 0.404047 -0.0246992 -0.0640976 0.0628696 0.0718812 0.357969 -0.104223 0.0639413 0.382312 0.381172 -0.0770143 -0.0282484 -0.146436 0.0922847 -0.0166627 0.143769 -0.159548 -0.212621 -0.230736 -0.0769464 0.258259 -0.344551 -0.22864 0.208148 -0.133099 -0.30054 0.0389431 0.178831 0.308657 -0.0565847 -0.0317876 0.176013 -0.0251958 0.00927688 0.0502845 -0.0922027 -0.18533 0.17705 -0.319972 -0.00621144 -0.0917399 -0.140552 0.115574 0.290007 0.522348 0.100552 -0.238944 0.219784 0.304629 -0.253101
60 -0.135719 0.0109293 -0.119994 0.219463 0.321059 0.0132756 0.188404 0.463014 -0.203313 -0.0120159 0.164945 -0.270912 -0.0281075 0.000549192 -0.0544491 0.184584 -0.040159 -0.0903184 0.289298 -0.237546 -0.0670183 -0.0335855 0.405916 -0.162607 -0.230572 0.179463 -0.260026 -0.193926 -0.00789974 -0.416098 -0.159882 -0.431074 -0.245293 0.159566 -0.245373 0.197183 0.137489 0.180156 0.0511286 -0.165605 -0.123358 -0.0363719 0.024874 0.340929 -0.225681 -0.439323 0.158414 -0.18846 0.00641844 0.0864929 -0.000163484 0.125249 -0.236518 0.00803526 -0.326568 -0.19631 0.121076 -0.388418 -0.346488 0.024106 0.155324 -0.131086 0.376282 0.0880144 0.127181 0.0571624 -0.16223 -0.201297 -0.104424 -0.054582 -0.0249549 -0.153535 0.155315 0.279712 0.0961587 0.19138 -0.0538453 -0.301606 0.223493 -0.28297 0.0463475 0.107492 0.162188 0.189396 0.345524 0.0346517 0.186716 0.233157 0.185644 0.215042 0.413972 -0.385632 -0.214122 0.36321 -0.270815 -0.24103 0.245683 0.132025 -0.113878 0.120445 0.23185 0.101543 0.0132924 0.375224 -0.229639 0.124949 -0.103399 0.010213 0.0310531 0.0172221 -0.172602 0.33076 -0.206248 -0.193494 0.147737 0.324726 -0.143979 -0.540117 -0.0334788 0.0245051 -0.0269207 -0.160947 0.0409292 0.19516 -0.0101549 -0.0520395 -0.438012 0.0599798
61 -0.0909999 0.080231 0.139992 0.0942611 0.395918 -0.064331 0.331415 -0.00720192 -0.278446 -0.106906 -0.0198803 -0.026601 -0.105466 0.269108 0.139534 -0.00331655 0.127083 -0.189072 -0.138561 -0.0544113 0.0178544 0.154448 -0.115996 0.128529 -0.0706324 0.00413621 0.166498 -0.209804 0.220279 -0.308678 -0.203467 -0.226934 -0.118731 -0.0698726 -0.473392 0.022707 0.221027 0.158663 0.434273 0.147425 -0.308203 0.0925795 -0.0646268 0.285302 -0.151797 -0.35907 0.258114 0.3665 -0.0236331 0.145703 -0.273357 0.0465981 -0.0169026 0.0471786 -0.0750645 -0.237592 -0.0313838 0.0465974 -0.00694966 -0.0732639 -0.0962922 -0.170753 0.15524 0.141197 -0.332699 0.013643 -0.186827 -0.13425 -0.0911051 0.107322 0.088544 -0.280921 -0.115518 0.373259 -0.245875 0.438422 -0.167305 0.380887 0.448861 0.0220765 -0.138789 0.145752 -0.258926 -0.0153434 0.101754 -0.0321399 0.173195 -0.359492 -0.0572506 0.0823408 0.00990569 0.285749 0.0111511 0.143187 -0.162865 0.134702 0.133589 -0.0771542 -0.297519 0.0762694 -0.132994 -0.184791 -0.0174842 0.104396 0.201085 0.235838 0.288745 -0.150343 0.0579814 -0.119269 -0.0348833 0.0623437 -0.0292939 0.0453897 0.125791 0.352714 -0.186857 -0.00977188 -0.122596 -0.116529 -0.1785 0.0592459 -0.394068 0.137275 -0.182736 0.044745 -0.0780112 -0.119504
62 0.124001 0.0710698 -0.157197 -0.0216129 0.0467108 -0.0514635 -0.0174181 -0.0754399 -0.00177252 0.0442331 0.166029 0.00292201 -0.0928471 0.0127935 -0.0503774 -0.0557389 0.0947843 -0.0358459 0.0780401 0.120474 0.0948704 0.0533377 -0.0265324 0.137046 0.160369 0.0877328 0.209584 -0.138276 0.0511363 -0.35309 -0.0701566 -0.071712 -0.184934 0.0301737 -0.11387 -0.271483 -0.0685116 0.200516 -0.18451 0.128938 -0.122123 0.0636094 0.00843156 0.0126642 -0.432468 -0.194067 0.0201419 0.014769 -0.121704 -0.047869 -0.0193802 -0.124528 -0.0439665 -0.0908893 -0.144609 -0.191758 0.111705 -0.0821085 0.172325 -0.210394 -0.0712384 -0.0489552 0.23736 0.0778165 0.00163372 0.116789 -0.178064 0.21694 -0.00584025 -0.229687 0.0955116 0.107312 -0.0624116 0.281678 -0.0777405 -0.0437508 0.0866177 -0.10883 0.283153 -0.0530481 -0.0301478 0.032945 -0.152317 0.0486241 0.0269078 0.252404 0.258272 -0.0203408 -0.0231311 -0.027015 -0.0727892 -0.0235392 0.040687 0.0297298 -0.176667 -0.103845 -0.133567 0.0800398 -0.199918 -0.0483415 0.0450539 0.27329 -0.124444 0.12128 0.142485 0.11937 0.1289 -0.0201889 0.070642 -0.142757 -0.15636 -0.146881 -0.127954 -0.147696 -0.156403 0.184273 -0.175148 0.0638197 -0.177618 -0.058001 0.0244824 -0.0245703 0.126605 0.0837914 -0.0180188 0.148412 -0.185327 -0.367651
63 0.123685 0.0926518 0.0195296 -0.113693 -0.184823 -0.0129912 0.243453 0.155581 0.118988 0.0659101 0.0678916 -0.019836 -0.0732318 -0.177187 0.104499 -0.0864129 0.25828 -0.13883 -0.0773014 -0.1579 -0.0829102 -0.0799314 0.1832 0.107285 -0.0634919 -0.00724934 -0.0616128 -0.0219447 0.119326 -0.364091 -0.0539146 -0.0259676 -0.288748 -0.12721 -0.125979 0.215942 0.13483 0.0973578 0.0156202 0.0880036 0.23397 -0.109466 0.13725 0.101605 0.192864 -0.2049 -0.306944 -0.123135 0.0458263 0.217677 -0.0135399 0.232384 0.0600832 0.191915 -0.0026548 -0.0982043 0.264006 -0.0826668 -0.317626 -0.218309 -0.13787 0.015859 0.403388 0.156641 -0.210284 0.103749 0.165292 -0.25564 0.28736 0.320554 0.0890392 0.129309 -0.149646 0.271747 -0.0250984 0.0480407 -0.0209939 -0.0730209 0.151384 -0.403407 -0.206667 0.310369 -0.0555989 0.0152929 -0.19896 0.21633 0.346343 -0.0789083 -0.232104 0.125778 -0.158094 0.142823 0.0311168 0.102595 -0.12331 0.0140509 -0.169079 0.125991 -0.127348 -0.0210092 0.176978 0.334839 0.282748 0.0879214 0.0691779 -0.00912334 0.102347 -0.295179 0.177894 -0.0418234 0.00153121 0.118936 -0.167137 -0.277219 -0.525805 0.204203 -0.18962 0.171755 0.0371726 -0.2717 -0.0361666 0.14143 -0.094255 -0.019144 -0.20079 0.0871364 -0.15782 -0.252096
64 0.11117 0.0667726 0.0655524 -0.186881 -0.359561 0.0316821 0.0619953 0.00130698 -0.01375 -0.236416 -0.0424391 0.107339 -0.0248327 0.145566 -0.0754777 0.16137 0.180842 0.0647247 0.0161044 -0.014772 -0.144803 0.208125 -0.175435 -0.0168891 -0.167311 0.301881 0.080406 0.154986 0.348255 -0.413178 -0.0213864 0.109381 0.0537728 0.178646 -0.157321 -0.0385901 -0.00915024 0.121925 0.119456 -0.081278 -0.0156086 0.135077 -0.0311282 0.0138672 -0.132936 -0.338357 -0.142082 -0.305391 -0.133835 -0.135082 -0.0407924 -0.155116 -0.041581 -0.0234843 0.171191 -0.0989081 0.093909 -0.0883835 0.213289 -0.252196 0.152561 -0.0352747 0.240929 0.220816 0.107336 -0.0365621 -0.213994 -0.0223733 -0.0430347 0.234474 -0.0288426 -0.0791846 -0.12536 0.243441 0.21509 -0.209151 -0.00325769 0.0261941 0.178845 -0.0301457 -0.219314 0.0511997 -0.0409009 0.136533 -0.225767 0.110936 0.109317 -0.182354 -0.184808 0.161386 -0.0886201 0.356476 0.213371 0.0581729 -0.0510103 -0.189449 0.0265214 0.0150448 0.136398 -0.253641 -0.131483 -0.00259956 0.129744 -0.101921 -0.00778134 -0.172802 0.0818888 0.0821238 0.148542 -0.0147786 -0.00335741 -0.0376951 -0.197257 -0.310876 0.0101043 0.129022 -0.204995 0.143591 0.0564044 0.151417 -0.0141389 -0.181832 0.16796 0.121002 -0.132989 0.221335 -0.0440858 -0.269726
65 0.177994 0.423852 0.308921 -0.0101477 0.341299 0.0279213 0.425012 -0.279205 -0.0592948 -0.310124 0.0307449 0.0334417 -0.0460995 -0.250848 -0.0243901 -0.210534 0.162065 0.270355 0.238855 -0.196963 -0.0693494 0.323059 -0.299486 0.0374009 -0.357923 -0.0189972 0.115202 -0.162927 0.126495 -0.253044 -0.1408 0.0861547 0.3126 0.175643 -0.321944 -0.0106513 -0.000703619 0.0729192 0.163784 -0.0457595 -0.0965779 0.0756617 -0.0743421 -0.124832 0.233853 -0.266441 0.275005 -0.0179483 -0.312326 0.00925459 -0.37809 -0.0880944 0.0887204 0.0494551 -0.0089618 -0.0760008 0.141514 -0.0183883 -0.00723225 -0.232897 -0.176143 0.0985349 0.0743001 0.143063 0.0158099 -0.00571489 -0.066196 0.210087 0.246197 0.0792459 -0.120339 -0.193217 -0.0874456 0.363717 -0.156115 0.0401719 -0.306452 -0.0345292 0.304411 0.0807446 -0.309702 -0.0153746 -0.189034 0.155678 0.0618772 -0.0478701 0.235918 0.111775 -0.240316 0.0274234 -0.0282884 -0.0540744 -0.292845 -0.0339503 0.0611034 -0.0226586 0.191942 -0.13102 -0.235769 0.142193 0.129177 0.163455 0.2792 0.171039 -0.230544 -0.109469 0.297138 0.0293028 -0.00954477 -0.0984247 -0.209331 0.335223 0.0098001 -0.0329215 -0.131365 0.397818 -0.265339 -0.00284843 -0.217329 0.0427596 0.0910904 -0.140597 -0.0561089 0.179279 -0.0108581 -0.0276479 -0.201081 -0.00914463
66 -0.14274 -0.240317 0.271934 -0.0209414 0.0554531 0.239431 0.107418 -0.311929 0.179549 -0.39238 0.301028 -0.12803 -0.0485867 -0.739448 -0.182202 -0.209639 0.212958 -0.0767903 -0.389248 0.0511163 0.00717377 -0.127366 0.06435 0.13435 -0.552125 0.0523289 -0.11727 0.0117365 0.261498 -0.407992 -0.0462519 -0.130967 0.0269552 0.124994 -0.181645 0.168733 -0.00939325 -0.0613965 -0.186591 -0.0734489 -0.0070138 0.0188643 0.0756053 -0.0158427 0.23752 0.00134105 -0.0346051 -0.264491 0.0985721 0.131551 0.00784619 0.355217 -0.135527 0.0884382 -0.34727 -0.202781 0.00169954 -0.262261 -0.346151 0.180243 0.342027 -0.0085119 0.489183 0.281703 0.0365322 0.190951 -0.293756 -0.234288 -0.125322 -0.0750899 -0.140016 -0.469977 -0.212035 0.304581 -0.0203266 0.0257686 0.187826 -0.180818 0.387941 0.102138 0.129812 0.354756 -0.223525 0.497816 -0.179019 0.175578 0.194539 0.275811 0.0283788 -0.200458 -0.0224538 0.65722 -0.0626939 -0.104901 0.141707 -0.00499554 0.248321 0.320969 0.481418 0.372808 0.309684 0.142707 0.17373 0.0242014 0.435741 0.0265096 -0.0797248 0.0845194 0.0768227 0.199579 -0.334974 0.225625 0.0538731 -0.0897549 -0.183416 -0.00293119 -0.0834345 0.0341686 -0.444677 0.107971 -0.0381058 -0.0591087 -0.415573 0.146989 -0.0395558 0.158184 -0.380159 -0.288835
67 -0.300148 0.0813149 0.0500754 -0.150019 -0.665207 -0.355667 0.406715 0.0117333 -0.353523 0.0119175 -0.330032 0.0229594 -0.282339 0.189518 0.102957 0.0469572 0.343096 -0.0127099 0.195685 0.354338 -0.150727 0.13736 -0.186258 -0.084977 -0.52145 -0.217838 -0.330673 0.064361 0.625746 -0.376467 0.150272 0.333397 0.286583 0.066741 -0.240779 0.143137 0.318532 -0.262214 -0.0885583 0.154805 -0.280006 -0.205814 0.461265 -0.109419 0.073745 -0.244678 -0.44089 0.37008 -0.0881043 0.795355 0.0731943 -0.252643 0.29054 -0.187224 -0.296346 0.127419 0.249526 -0.175424 0.111933 -1.02632 0.0187171 0.408303 0.42452 0.356158 0.423142 -0.110226 0.0292652 0.0365957 0.469621 0.339656 0.137671 0.0139249 -0.265651 0.219322 -0.072334 0.0985706 -0.103346 -0.345792 0.551656 0.101198 -0.0428345 -0.34647 0.383512 -0.122336 -0.318404 0.176036 0.180174 -0.464574 -0.29308 -0.03388 0.312125 0.044624 0.308547 -0.0559923 -0.00853949 -0.0970873 0.369281 -0.0743368 -0.0419809 -0.409637 0.0773532 0.634858 0.739421 -0.0994326 0.443786 0.194346 0.741012 -0.164947 -0.101338 -0.181762 0.0854622 0.145587 0.196303 -0.351895 0.359519 0.185558 -0.0565367 0.0753937 -0.262304 -0.755403 -0.454948 0.0261691 0.117459 0.396736 -0.637124 0.0808298 -0.223039 0.0501027
68 -0.424739 0.153909 0.190104 -0.126826 0.0722869 -0.230608 0.195285 -0.106055 -0.0172014 0.0930641 0.13034 0.205396 -0.398913 -0.0591448 0.109109 -0.0596762 0.327986 -0.0274801 -0.277948 0.3853 -0.304839 -0.0792127 0.085397 0.315515 -0.0611436 -0.130137 -0.714101 -0.0493349 0.22714 -0.68987 -0.111507 0.119159 0.127567 -0.0802601 -0.403006 0.0334183 0.177278 -0.170894 -0.268822 0.232803 0.0159671 -0.281445 0.232313 -0.169372 -0.0188131 -0.431356 -0.100646 -0.231393 -0.0644886 0.380588 0.0321476 -0.121528 -0.223751 -0.0509696 0.229491 -0.312427 -0.143108 0.330983 0.0362106 -0.00245104 -0.243129 -0.136927 0.351574 0.445852 -0.129409 0.0605629 -0.224531 0.207415 0.0352893 0.284105 -0.313724 -0.23761 -0.109045 0.196138 -0.278247 0.179993 0.00162869 -0.0635631 0.109386 0.230091 -0.0678326 -0.0249586 0.242209 -0.209706 0.107773 0.306021 0.150189 -0.106436 0.0562385 0.184448 -0.020286 -0.272027 0.102138 -0.261583 -0.28242 0.16942 -0.32289 0.218034 0.311981 0.261615 0.0375929 0.128608 0.0262701 -0.00414145 0.0918317 0.295361 -0.0531009 0.392346 -0.0588252 -0.355353 -0.0840196 -0.229414 -0.319346 -0.254957 -0.0970437 0.30795 -0.319841 0.138649 -0.208641 -0.270008 0.466001 0.0262254 -0.27934 -0.113413 -0.12619 0.0980401 -0.128736 -0.296611
69 0.166911 0.0865401 -0.0512299 0.386137 -0.0590811 -0.0416929 0.0690651 0.125785 -0.113529 -0.227016 0.00824487 0.252675 -0.100294 -0.0493817 -0.0950752 -0.133439 0.0972253 -0.157098 -0.225101 -0.153191 -0.104326 -0.0705985 0.214841 0.175007 0.0133155 -0.112707 0.116455 -0.168728 0.194674 -0.357478 -0.22632 -0.292897 0.0243564 -0.223472 -0.115152 0.145798 0.111004 -0.0362036 -0.0886878 0.102075 -0.325091 0.0366307 0.16899 -0.1243 0.232136 -0.138369 0.0708863 -0.0476828 -0.340144 0.11463 -0.0432176 0.0990597 -0.128273 0.0847577 -0.140775 -0.189159 0.0635901 -0.00475731 -0.00913696 -0.0667206 0.454266 0.0347533 0.352472 0.276929 0.140265 -0.212652 -0.122892 0.138734 -0.198483 -0.0574259 0.060559 -0.0122049 -0.0899122 0.351823 0.156513 0.209007 -0.0606217 -0.12784 -0.0364815 0.0898521 -0.221795 0.298889 -0.232308 -0.114478 0.24549 0.261581 0.311366 -0.140853 -0.248896 -0.108428 -0.137271 -0.11725 0.00556218 -0.0389441 -0.147395 -0.148999 -0.235979 0.0542067 -0.324818 -0.0708136 0.1578 0.122007 -0.152096 -0.077351 0.108538 -0.0495404 0.0922481 0.0687042 -0.1141 -0.0622478 -0.0710103 0.0967189 0.139046 -0.17557 0.295155 -0.0245635 -0.188174 0.28209 -0.320685 0.28782 0.0174391 0.00454598 -0.0438213 -0.0164107 -0.179357 0.288082 -0.121938 0.0452675
70 0.205976 0.440527 -0.053511 -0.0673563 -0.268894 0.561146 0.596015 -0.0870072 -0.290969 -0.400021 0.0858013 0.208462 0.155156 -0.0185483 0.0378327 0.81697 0.0203401 0.00953463 -0.228684 0.783584 0.0104534 -0.23048 0.104086 -0.0258584 0.0846687 -0.536793 0.456267 0.169606 0.0470754 -0.146851 0.366269 0.052237 -0.0383513 -0.238121 -0.489896 -0.330686 0.178771 0.270894 0.110499 0.365753 -0.18018 0.0400967 -0.341579 -0.335433 -0.173599 -0.600312 -0.420508 -0.481429 0.284907 -0.168949 -0.0789478 0.0637534 -0.259667 -0.14201 0.29736 -0.218323 0.23645 -0.173563 0.211972 -0.62222 -0.394525 -0.1565 0.289989 0.0331423 0.247901 0.202904 -0.321937 0.742012 -0.294042 -0.0110375 -0.0618181 -0.438154 0.354598 0.387263 -0.262858 -0.330375 0.0700449 0.0505661 0.0445039 -0.351277 -0.00501876 0.590182 0.223339 -0.102268 -0.198039 -0.124744 0.591439 0.148396 0.0755609 -0.0393565 0.102562 0.00817591 -0.0544644 -0.135728 -0.0989852 0.184724 -0.749985 -0.00462801 -0.153357 0.0413545 -0.350135 0.192856 -0.447971 -0.0453214 0.0928595 0.534537 0.228107 0.198965 0.152148 -0.142762 0.257605 -0.691981 -0.241724 0.0429814 -0.0481354 0.200681 -0.239547 0.0445124 -0.32036 0.337617 0.32343 -0.204528 0.548436 -0.43234 0.0229509 0.263223 0.0533509 -0.0891073
71 -0.0682141 0.187378 -0.221515 -0.458399 0.37853 0.319399 0.0916298 0.145174 -0.0701389 0.236568 -0.387662 0.324258 -0.310761 -0.113677 0.213018 0.273882 -0.0632409 0.280397 0.29709 -0.49645 -0.283919 0.180788 -0.243566 0.100175 -0.67768 -0.216447 -0.0537362 -0.0033878 0.243837 -0.413429 -0.278914 0.0779007 -0.0981922 0.147941 -0.0593259 -0.256449 0.16201 0.953983 0.136034 -0.0964107 -0.539923 0.178114 -0.232172 0.103874 -0.275271 -0.240673 0.288032 -0.176704 0.10003 0.227123 -0.165773 0.200798 0.323778 0.059244 -0.307421 -0.115306 0.0984684 -0.342843 0.146316 -0.296779 0.202604 0.127345 0.308699 -0.145411 0.201568 -0.310018 -0.603723 -0.214484 0.470844 0.149656 -0.215302 0.0166344 0.0494971 0.221598 0.0446593 -0.392981 -0.213726 -0.263717 -0.126486 0.382604 -0.765413 -0.267137 0.308246 -0.692931 0.000172706 -0.0248527 0.143801 -0.0520825 -0.276881 -0.743516 0.0433331 0.0193262 -0.254368 -0.234187 -0.117696 -0.0850177 0.0347286 -0.030282 -0.0594259 -0.156031 0.584566 0.154392 0.0800608 -0.118778 -0.0564407 0.0607383 0.252446 0.12413 0.0826139 -0.00361898 0.304185 -0.0308818 -0.467921 0.0038329 0.0958784 0.20342 -0.0301952 0.51222 0.433952 -0.105021 -0.00907966 -0.234943 0.101755 0.261876 -0.229565 -0.061827 -0.137023 -0.199725
72 -0.126261 0.026702 0.355612 0.163702 0.407021 -0.1979 -0.0666488 -0.221051 -0.236393 -0.785816 0.0941306 0.191224 -0.209392 -0.0567874 -0.202024 -0.711071 0.513136 0.379274 0.082991 0.794374 0.000466749 0.135778 -0.116875 -0.593959 -0.218567 -0.696113 -0.482076 -0.566557 0.0220496 -0.200954 -0.0817198 -0.139877 -0.329058 0.580134 -0.437375 0.0513942 0.129638 0.237648 0.140022 0.178831 0.193626 0.288942 0.135033 -0.0995916 0.192212 -0.353954 -0.353504 -0.523477 -0.36433 -0.509663 -0.00480628 -0.0941229 -0.203498 -0.0695271 0.0531976 -0.0897105 0.0485833 0.431601 -0.555052 -0.104732 -0.225924 -0.0622298 -0.0321197 0.38273 0.0386824 0.282922 -0.445476 0.546321 -0.0360081 -0.17306 -0.202126 -0.147262 -0.688862 0.395065 -0.691269 -0.288888 -0.256583 -0.704051 0.0229147 0.442014 -0.0347062 0.0683226 0.555952 -0.0376679 -0.11792 -0.164425 0.409374 0.227781 0.318653 -0.194048 0.0712062 0.0504831 0.211552 0.00152886 0.0323679 0.0667964 -0.571244 0.327645 -0.289481 0.00631399 0.135181 0.056673 -0.244404 -0.188629 -0.218803 0.421277 0.68882 -0.0265682 0.0132899 -0.0298933 0.537378 -0.196101 -0.233642 0.212848 0.0591531 0.0722186 -0.192954 0.0246139 -0.40062 0.165914 0.0340969 0.609437 -0.274286 0.113869 0.0149207 0.315518 -0.401901 -0.0647612
73 -0.0375426 -0.388783 0.194008 0.226241 -0.224077 0.284727 0.111324 0.221246 0.13207 0.352497 -0.166732 -0.520936 0.10236 -0.413288 -0.139453 0.230097 0.186 0.255112 0.01353 -0.248804 0.350657 -0.0944631 -0.332176 0.0871698 -0.00959193 -0.167843 0.557249 -0.338375 0.0324863 -0.543705 -0.0403384 -0.00419556 -0.0634545 0.3249 -0.456281 0.582067 -0.155521 0.103027 -0.414165 -0.254048 -0.430607 0.385315 -0.235548 0.249418 -0.0336845 -0.499825 0.110156 0.175182 -0.267086 0.0398705 -0.563434 -0.120522 0.0223679 -0.085244 0.0393862 -0.227828 -0.33724 0.0856673 -0.046134 0.00263445 -0.129511 -0.417339 0.349018 0.263506 0.0418452 -0.0292437 0.217362 0.166241 -0.022082 0.343756 -0.301354 -0.350376 0.0490595 0.0773049 0.0935061 0.365398 -0.0918867 -0.127116 0.150775 0.0282369 -0.305048 0.0964328 -0.0436068 -0.159201 -0.366076 0.305711 0.0921082 -0.254326 0.22146 0.0564753 -0.0399864 0.124478 -0.00423695 -0.12724 -0.429869 0.130606 -0.12801 -0.0445796 0.566957 -0.203706 0.041084 0.115373 0.0822563 0.000920778 -0.187415 0.0372654 -0.324475 0.0860037 0.0122972 0.142475 0.235449 0.190691 0.112531 -0.0424982 0.187868 0.108955 -0.0309514 -0.117354 -0.383455 0.125288 -0.333482 0.167095 0.357544 0.295834 0.176064 0.107563 -0.420895 -0.140826
74 -0.0515513 -0.0636319 0.303256 0.290071 -0.5096 0.301211 0.0766421 -0.285975 0.0183966 -0.28682 -0.303112 0.202578 0.140232 -0.0298441 -0.105424 0.12717 0.133387 -0.0995028 -0.115735 -0.0336817 -0.203689 0.0709476 -0.0726869 0.222554 -0.0739553 0.0236939 0.163483 -0.525719 -0.0818754 -0.581139 0.109025 0.0581997 -0.138474 -0.122717 -0.17202 0.200083 0.175278 -0.044833 -0.346538 0.289061 -0.175635 0.0490078 -0.129311 -0.404507 0.254149 -0.33184 -0.0625119 -0.0426658 -0.0516551 0.0911403 -0.0815987 -0.03274 -0.168871 -0.0709319 0.134889 -0.0849713 -0.021488 0.0415928 0.130965 -0.0402755 -0.0530309 -0.231212 0.314481 0.195582 -0.192864 0.0924862 0.0388356 0.0292032 0.0331127 -0.244221 -0.118198 -0.100613 0.150658 0.319749 -0.181774 -0.0770904 -0.138336 -0.00795748 0.310534 0.00343307 -0.191606 0.172202 -0.100719 0.0819476 -0.299324 -0.0809625 0.171483 0.340564 0.02739 -0.0706278 0.267996 -0.30678 -0.0322783 -0.208327 -0.179403 -0.378809 -0.216608 0.0362987 -0.0325621 -0.161372 0.124847 -0.014046 -0.0879051 -0.0921672 -0.0430534 -0.217847 -0.0560939 0.174267 0.141391 0.281671 0.24837 -0.00439672 -0.0783281 -0.210078 -0.0800691 0.417776 -0.142324 -0.210452 -0.32053 -0.0916385 -0.105753 -0.0593742 -0.0932856 -0.00337047 -0.0139296 0.0840132 -0.0158917 -0.0735176
75 0.00675922 0.17804 0.191901 0.464031 -0.187917 -0.218837 -0.0621853 0.0977034 -0.395843 0.154788 -0.0553143 0.121457 -0.0640596 0.482319 0.334807 -0.19566 -0.485904 -0.105552 0.420858 -0.100394 -0.929446 0.0520755 -0.00622361 -0.0825859 0.124981 0.182016 -0.211364 -0.0197934 0.579147 -0.263053 -0.289283 -0.222125 0.170882 -0.0722942 0.0852853 -0.355563 0.373654 -0.380497 0.146766 0.23139 0.0670221 0.0438888 0.521138 -0.114544 -0.303218 -0.027441 0.342035 -0.360317 0.217737 0.323338 0.349483 -0.693232 -0.508645 0.49965 0.0424388 -0.184419 -0.430779 0.026695 0.0117297 0.0779035 -0.0938448 -0.604469 0.393057 -0.099488 0.152447 -0.244582 -0.316612 -0.627925 0.0045781 0.310093 -0.484412 -0.215471 -0.373762 0.351004 -0.119551 0.199144 0.402842 -0.318067 0.301865 0.193184 0.299237 0.125389 -0.520202 0.374111 -0.194654 0.0538749 0.20626 0.347764 -0.261761 0.511403 0.143158 -0.0688521 0.251365 0.0470352 0.0577434 0.0549489 0.33146 0.0338999 -0.12256 -0.589827 -0.157591 0.190348 -0.230159 0.17461 0.47879 -0.245066 -0.25639 -0.0402811 0.017869 0.104817 -0.0976327 0.211018 -0.163517 0.130664 0.0225744 0.677005 -0.116021 0.339727 0.0517234 -0.276744 -0.0266433 -0.216665 0.0926304 0.199307 0.347692 -0.0647845 -0.179846 -0.297994
76 0.222931 -0.451197 -0.430329 -0.21371 -0.224221 -0.565558 0.362035 0.453038 -0.0334762 -0.00759826 -0.0963131 -0.271072 -0.223572 -0.0632398 0.0173954 -0.515084 0.0317937 -0.317826 -0.322375 -0.465439 0.254843 0.315477 0.553924 -0.290563 0.0228371 0.279444 -0.248525 0.202172 0.0965028 -0.220813 0.398205 -0.151515 -0.239287 -0.0347547 -0.567433 -0.400409 0.763171 -0.223612 -0.179029 0.174275 -0.0626501 0.625882 0.307977 -0.160317 0.326733 -0.105248 0.478234 -0.153988 -0.105424 0.169004 -0.280725 -0.0555681 0.0849077 0.374742 -0.0710808 -0.326149 -0.0469267 -0.145592 -0.0657477 -0.00591678 -0.241876 0.380998 -0.258587 0.0014101 0.161247 -0.413936 -0.190755 -0.441973 -0.0677528 -0.304949 -0.113719 0.21467 -0.189554 0.36572 -0.312793 0.0698217 0.650318 0.185565 0.199148 0.0959781 0.00129297 0.118541 -0.289878 -0.207512 -0.546111 0.153282 0.376782 -0.428029 -0.0305999 0.185118 -0.0885411 0.0956257 0.187327 -0.27618 -0.464074 -0.189868 -0.41699 0.269104 -0.530137 -0.161142 0.170102 0.237304 -0.164402 -0.237142 -0.259958 0.55234 0.152211 0.501527 0.0799225 0.424139 0.131368 0.0337961 0.397438 -0.0418639 -0.0638193 0.64505 -0.224529 -0.520243 0.0130853 0.154059 0.594921 -0.566247 -0.0156857 0.323671 -0.138954 0.343873 -0.32202 -0.320109
77 0.378676 0.0333698 0.237279 -0.472294 -0.497417 -0.371371 0.0212074 -0.220392 0.247231 -0.0263131 -0.330679 -0.131155 -0.394147 0.406281 -0.261962 0.479845 0.0690057 0.177617 0.33049 0.0687571 -0.197891 -0.121321 0.253827 0.108549 -0.510124 0.0897248 0.205351 0.0725732 0.332548 -0.406474 0.0190205 -0.316629 0.0918221 0.103213 -0.248887 -0.306579 0.0246954 0.228838 0.349982 0.686312 -0.240332 0.261139 0.15654 0.00322402 0.295848 -0.54152 -0.0509211 -0.357897 0.290698 0.0840594 0.0515758 0.311824 -0.175162 0.099122 -0.225938 0.10789 0.236444 0.211798 -0.0318995 0.0827997 -0.4941 -0.161703 0.362367 0.235274 -0.11471 -0.0506818 -0.118205 -0.171606 -0.279651 -0.106917 -0.0415133 0.0737953 -0.340779 0.34233 0.0991157 -0.319607 -0.161584 0.0537234 0.192074 0.0342441 -0.0246178 0.0778525 -0.459458 0.461305 -0.331834 0.242109 0.312323 0.515634 -0.0223061 -0.0576666 0.200362 0.188764 -0.147729 -0.213834 -0.545581 -0.139294 -0.110444 0.324124 -0.040592 -0.105942 0.0468908 0.418433 0.147898 -0.101512 -0.0273499 0.163374 0.120265 -0.116062 0.0631905 0.204934 -0.0320362 0.0917378 -0.0215107 -0.387489 0.308501 0.173771 0.0452001 -0.302466 0.181424 0.558441 0.363741 0.127704 -0.133132 -0.223209 -0.248319 -0.160906 -0.0155672 -0.0342679
78 0.0624636 0.0114115 0.140932 0.229521 0.51404 0.210738 -0.0802573 -0.254386 -0.210795 0.336993 -0.130261 -0.269226 -0.0018966 -0.262042 -0.0874341 0.254083 0.209543 -0.149855 -0.138992 0.116945 0.00550207 -0.15615 0.254688 0.271517 -0.178404 0.105076 0.0694616 -0.115904 0.163101 -0.0319989 -0.249391 -0.135711 0.545019 0.305647 -0.376938 -0.0100655 0.210678 0.108225 -0.366022 0.141303 -0.144016 0.127743 0.0972855 0.108315 -0.228291 -0.455442 -0.10187 -0.188955 -0.476399 0.107834 -0.192872 0.180219 0.439909 0.460183 -0.153468 -0.187366 0.245707 0.0918319 0.112656 -0.120098 0.0255618 0.436488 0.0867817 0.148964 -0.109756 -0.60814 -0.490905 0.349882 0.21359 0.204788 -0.453095 0.0995312 -0.239975 0.457361 -0.640232 -0.546967 0.053747 0.279033 -0.196584 -0.100864 0.343796 0.244414 0.136832 0.11654 0.0486792 0.115048 0.351563 0.22945 -0.538228 0.168241 -0.194163 0.344865 -0.224409 -0.227156 -0.326044 -0.235088 0.232881 -0.374907 0.120205 -0.125832 0.263766 -0.134121 -0.0599248 0.0503714 -0.0704582 -0.186372 0.0269391 0.00155634 0.0204291 0.225868 -0.306939 0.378156 -0.169006 -0.287503 0.0117281 0.415301 -0.0770516 0.452237 -0.345851 -0.177551 -0.00646822 -0.163219 -0.134264 -0.113143 -0.0247506 0.175296 -0.0278123 0.113383
