986 128
0 0.286989 0.199886 -0.108395 -0.240354 -0.12113 -0.188185 0.2722 -0.0940074 -0.0601199 -0.26007 0.0776639 -0.0894174 -0.28816 0.238987 0.216918 -0.345957 -0.43578 0.536457 0.108354 0.34185 0.20242 0.433468 -0.0446357 -0.294102 -0.0415851 0.240123 0.0434152 0.0273376 -0.250655 -0.189991 0.260089 0.155876 0.346673 -0.0348915 -0.0963668 -0.23162 0.20147 -0.137431 -0.325427 0.229249 0.00757558 -0.158209 0.160105 0.305966 0.0895607 -0.448706 0.850658 0.257895 -0.128665 -0.19729 0.0918004 -0.197856 -0.0794303 -0.120581 0.174653 -0.125845 0.119936 -0.0967985 0.00862272 -0.470098 0.0386868 -0.296209 0.592057 0.237253 0.40306 -0.240903 -0.122078 0.0757399 -0.164916 -0.19756 0.515569 -0.12618 -0.23116 -0.435391 0.274717 -0.00825007 0.249608 0.306136 0.037519 0.331093 0.12416 0.0497264 -0.175412 0.0424501 0.169307 0.272112 -0.0426796 0.025708 -0.0100912 0.153036 -0.0471858 -0.214535 0.235484 0.381865 -0.189604 0.201993 0.0978325 0.295763 -0.0728322 -0.36575 0.191593 0.21763 0.181353 0.210102 0.239314 -0.161738 0.326779 0.207066 0.285253 -0.47542 -0.0935659 -0.00277347 0.0253235 0.439687 0.284276 0.0827034 -0.201063 -0.492579 0.357037 -0.034777 0.0830416 -0.0040541 -0.243451 0.082604 -0.123488 0.0849486 0.159734 0.306598
1 0.939149 0.875112 -0.651712 -0.491096 -0.803887 -0.712445 -0.23345 0.184617 -0.389404 -0.27534 -0.662658 -0.429155 -0.825085 0.40049 0.641657 -0.625228 -0.82594 0.654907 -0.357615 0.850481 0.66248 0.644693 -0.479216 0.520861 -0.618013 0.710598 0.0885052 -0.105046 -0.772839 -0.923061 0.807656 0.598538 0.0414748 -0.607569 -0.64551 -0.746662 0.807504 -0.686048 -0.804509 0.778125 0.400166 -0.0771097 0.895113 0.529115 -0.387045 -0.710962 0.802957 0.649491 -0.452858 -0.749534 -0.333456 -0.629717 0.252858 -0.625105 0.810826 -0.62217 0.324599 -0.648425 0.59543 -0.240965 -0.552163 -0.746399 0.485743 0.566626 0.788477 -0.711245 -0.591669 0.569155 0.456695 -0.772336 0.334478 -0.59112 -0.858365 -0.435666 0.568269 -0.321658 0.740114 0.3851 0.081657 0.870478 0.564529 0.610222 -0.478125 -0.0274763 -0.108046 0.487618 -0.560487 0.347879 -0.350475 0.759323 0.458437 -0.39924 0.797462 0.437177 -0.822056 0.504602 -0.766063 0.800449 -0.573348 -0.890375 0.550757 -0.605013 0.531248 0.304581 0.746469 -0.476177 0.713373 0.888698 0.578258 -0.204927 -0.480019 -0.0680029 0.534225 0.135483 0.391153 0.50891 -0.65782 -0.431555 0.77452 0.453115 0.0547201 0.291731 -0.52991 0.642677 -0.470763 -0.444027 0.581562 0.657784
2 0.336897 0.318103 -0.0862015 -0.152367 -0.208987 -0.0946199 0.102551 0.040207 0.136922 -0.255468 -0.0548643 -0.166397 -0.294809 0.0328522 0.161818 -0.225769 -0.258368 0.195868 -0.0733356 0.20146 0.175512 0.0679762 -0.166687 0.239826 -0.0357727 0.268234 -0.152085 -0.233301 -0.391036 -0.28464 0.233669 0.170728 -0.0378348 -0.069571 -0.176744 -0.233376 0.216394 -0.109864 -0.203177 0.212091 0.086729 0.121308 0.453083 0.112544 0.251345 -0.207452 0.0972241 0.232245 -0.203156 -0.195532 0.0754597 -0.295364 0.288286 -0.196637 0.273517 -0.168199 -0.0515742 -0.0732642 -0.348832 -0.619629 -0.494859 -0.272045 0.0516462 0.344175 0.14719 -0.332862 -0.107893 0.251402 -0.00100528 -0.11766 -0.0764183 -0.325587 -0.425772 -0.152037 0.259081 -0.373075 0.114531 0.0749725 0.0954981 0.182281 -0.0554098 0.0115126 -0.291955 -0.240538 -0.140425 0.259817 -0.148584 0.124069 0.116449 0.171011 0.0708259 -0.331784 0.210445 0.093992 -0.33473 0.151188 -0.146339 0.232273 -0.507169 -0.222497 0.225036 -0.197695 0.170821 0.0562261 0.30951 0.292768 0.0901963 0.298184 0.173188 -0.142066 -0.0800454 -0.0270959 -7.53003e-05 -0.00586137 0.0853446 0.325221 -0.121945 -0.313166 0.182903 -0.0118325 0.162233 0.305916 -0.119604 -0.00330512 0.188051 -0.106667 0.164419 0.0558814
3 0.257318 0.0602351 -0.177588 -0.0124417 -0.341701 -0.281596 0.129015 0.0981323 0.0396129 -0.210864 -0.223126 -0.121677 -0.328134 0.0467298 0.332973 -0.0386104 -0.288857 0.140931 0.0189116 0.202304 0.151015 0.1307 -0.422475 0.324376 0.00960121 0.427103 -0.464817 -0.295294 -0.0973086 -0.243129 0.200818 -0.0862024 -0.261741 -0.239675 -0.314736 -0.214727 0.0349847 -0.281503 -0.321725 -0.020382 0.192559 0.478037 0.203223 0.223568 0.0644121 -0.115745 0.0466029 0.150263 -0.490965 -0.134685 0.0488852 -0.184985 0.0699299 -0.387122 0.270451 -0.0368569 0.269346 -0.0754576 -0.192261 -0.466977 -0.204788 -0.0770844 0.153346 0.38044 0.235331 -0.0876124 -0.0301606 0.559686 0.288728 -0.116713 0.158929 -0.023102 -0.347626 0.0386477 0.185395 -0.234049 0.141367 0.401424 0.0571701 0.248183 -0.0812473 0.103591 -0.0195318 -0.304257 -0.0689181 0.0520271 -0.397894 0.15586 -0.0604086 0.263326 0.199859 -0.213935 0.18815 0.484085 -0.321657 0.363407 0.0306045 0.277168 -0.197763 -0.287362 0.318217 0.0434935 0.493407 0.197875 0.147858 -0.521368 0.0374654 0.339469 0.278203 0.131596 -0.268873 -0.159997 -0.073129 0.113259 -0.0511493 0.995791 -0.375211 -0.0637213 0.223307 0.08131 0.311269 0.251093 0.0939563 0.0665314 0.180902 -0.294165 0.260972 0.139388
4 0.300567 0.159905 -0.0406784 0.0886081 -0.231895 -0.379235 -0.104787 -0.239161 0.147766 -0.27558 -0.100156 -0.0525848 -0.201897 0.0541548 0.26453 -0.40637 -0.277749 0.171274 -0.217479 0.193754 0.206251 -0.273329 -0.26199 0.355317 -0.211345 0.172413 -0.233477 0.0112298 -0.0283151 -0.317916 0.171956 0.381607 0.253726 -0.149245 -0.263955 -0.145346 0.255692 -0.0209854 -0.297323 0.101266 0.0845435 0.390349 0.253279 0.459513 -0.172864 -0.149584 0.194196 0.112627 -0.254157 -0.236542 0.0430289 -0.110238 0.166588 -0.282215 0.310526 -0.148308 0.148784 0.0417977 -0.176552 -0.404626 -0.493673 0.0109602 0.0940739 0.437886 0.241654 -0.269822 -0.159674 0.377115 0.542146 -0.206032 0.104322 -0.0872821 -0.378758 -0.0658133 0.311427 -0.358288 0.126404 0.0888021 -0.452418 0.0962363 -0.025585 0.495964 -0.156998 -0.247365 0.124726 0.401385 -0.444389 0.174924 0.0952386 0.208141 -0.0100233 -0.274671 0.20371 0.459577 -0.217904 0.068326 -0.0102973 0.309841 -0.655299 -0.223593 0.293103 0.121279 0.234903 0.306115 0.18576 0.202024 0.123806 0.254018 0.159913 -0.573677 -0.0330205 0.0538981 0.146783 -0.0389224 0.191118 0.0245623 -0.0844917 0.164221 0.186069 -0.07729 -0.0925055 0.479051 0.0341681 0.083204 0.0622809 -0.134935 0.121615 0.18244
5 0.205888 0.259183 -0.184876 0.0765776 -0.139663 -0.106545 0.28895 -0.0344688 -0.0806144 -0.254628 -0.134017 0.159803 -0.226202 0.514504 0.223828 -0.221159 -0.197789 0.321734 0.0231942 0.214054 0.103499 0.144001 -0.114326 0.180727 -0.0517993 0.192287 0.163932 -0.428945 -0.0500971 -0.193482 0.166719 0.240189 -0.121078 0.19628 -0.194435 -0.222855 0.201234 -0.2236 -0.184374 0.301877 0.193286 0.0116953 0.23892 0.184087 0.0465827 -0.234391 -0.153432 0.0620477 -0.167386 -0.155868 0.190781 -0.261093 0.121245 -0.258891 0.288321 -0.340943 -0.136536 -0.000643686 0.0645924 -0.143315 -0.142775 -0.19162 0.253315 0.274011 0.247544 -0.195568 -0.349042 0.221262 -0.0866631 -0.210469 -0.0394417 -0.281514 -0.25681 -0.092608 0.158297 -0.127855 0.163973 0.331428 -0.0889644 0.249731 -0.195068 0.170384 -0.447889 -0.259499 -0.0287528 0.124419 -0.394758 0.0838255 0.109892 0.0162451 0.450025 -0.154794 0.211807 0.134454 -0.132412 -0.164559 -0.152332 0.185967 -0.0961906 -0.190503 -0.0691341 -0.0910919 0.0420771 0.541357 0.13112 0.54812 0.218636 0.111041 0.301716 -0.0269312 -0.141335 -0.302163 0.110995 -0.00557656 0.0194515 0.134824 -0.342541 -0.0940736 0.224033 0.269332 0.00615322 0.264683 -0.0265705 0.217437 -0.0540739 0.0775386 0.0905754 0.0935525
6 0.157963 0.286448 -0.221236 -0.330347 -0.252722 -0.223621 0.421568 -0.013194 -0.152805 -0.163947 -0.118736 -0.180046 -0.277921 -0.0739139 0.256489 -0.130597 -0.327322 0.0979138 -0.173364 0.163296 0.118892 0.218556 -0.374209 0.0722239 -0.119152 0.226857 0.0707727 -0.564316 -0.0131347 -0.366391 0.301269 -0.0468637 0.189124 -0.158317 -0.361662 -0.354721 0.137311 -0.141976 -0.234768 0.0555939 -0.107425 -0.00301837 0.341594 -0.0057964 0.0010505 -0.328756 0.243102 0.302708 -0.224502 -0.175747 -0.416281 -0.199667 0.0229279 -0.106988 0.2335 -0.0571153 -0.304829 -0.206423 0.293643 -0.123206 -0.053877 -0.15705 0.021889 0.25908 0.206427 -0.214715 -0.244326 0.0474239 0.155237 -0.220208 -0.0229891 -0.416756 -0.1817 -0.119794 0.161989 -0.00771512 0.137761 0.303442 0.478428 0.163284 -0.13798 0.644096 -0.344175 0.0330491 -0.195736 0.306646 -0.0371033 0.0615294 0.271522 0.219101 -0.0693287 -0.31178 0.357775 0.114004 -0.169729 -0.00310169 -0.0648172 0.269788 -0.172404 -0.285934 0.0205781 -0.10013 0.311194 0.115003 0.260671 -0.0185765 0.121316 0.162745 0.374835 0.185635 -0.0493544 0.0624081 0.259647 -0.503997 0.173137 0.469196 -0.46889 0.0139041 0.279292 -0.160018 0.16726 0.02651 0.0378115 0.172086 0.00629635 -0.297333 0.181418 0.131653
7 0.102176 0.233438 -0.297063 0.0308436 -0.330819 -0.331256 0.365469 0.178238 -0.0762355 -0.0823993 -0.210184 0.33193 -0.350539 0.0570855 0.064228 -0.387007 -0.166147 0.018873 -0.156698 0.362806 0.0618957 0.20144 -0.262784 -0.0711366 -0.428314 0.0191537 -0.245656 -0.353119 -0.0607479 -0.276599 0.0806384 -0.142363 0.427648 -0.00960406 -0.477046 -0.0799652 0.162873 -0.485929 -0.241448 0.0762355 0.326329 0.299692 0.333337 0.209523 0.0496962 -0.187191 -0.173127 0.179917 -0.0111504 -0.161256 -0.206668 -0.578179 0.216772 -0.324138 0.312541 -0.107995 -0.466232 -0.141064 0.0122299 0.00776066 0.120637 -0.208032 0.0975859 0.260534 0.235729 -0.354132 -0.271749 0.0760118 -0.0275042 -0.322898 0.0213574 -0.0815985 -0.0911271 -0.0980361 0.395323 -0.167174 0.440299 -0.129202 0.111795 0.211509 -0.188624 0.095346 -0.198249 -0.131126 0.3355 -0.108564 -0.129169 -0.108529 -0.368493 0.123753 0.0848735 -0.258942 0.0602141 -0.0413697 -0.186064 0.0339453 -0.190419 0.137289 -0.590584 -0.24714 0.237864 -0.445277 -0.0222248 -0.0384648 0.161088 0.238906 0.265875 0.245742 0.224543 -0.264484 0.0255189 0.0637719 0.355675 0.0998728 0.130486 0.0951538 -0.552651 0.0900059 0.0796778 -0.0799427 0.260846 0.554354 -0.200923 -0.000750081 -0.391144 0.223717 0.285796 0.244071
8 0.284729 0.244069 -0.186388 -0.140865 -0.182731 -0.207176 0.111409 -0.17247 -0.0547033 -0.197214 -0.245516 -0.0525568 -0.3045 0.133757 0.208708 -0.241327 -0.308017 0.0976369 -0.327742 0.317881 0.0906561 0.221861 -0.463469 -0.0966955 -0.235797 0.226685 -0.199721 -0.0122501 0.00966799 -0.469755 0.217446 0.706089 0.126722 0.104972 -0.474485 -0.0525698 0.151109 -0.300206 -0.262968 -0.00727996 0.108116 0.146003 0.283224 0.252977 0.136247 -0.0663155 0.0623828 0.218824 -0.18011 -0.364468 -0.0930975 -0.582688 0.0885356 -0.362078 0.288971 -0.0809984 -0.188101 -0.179491 0.242768 -0.216622 -0.0397302 -0.0964397 -0.0142289 0.374749 0.256548 -0.534303 -0.316849 0.237228 0.271868 -0.141158 0.141884 -0.372727 -0.286027 -0.108738 0.386378 -0.099703 0.151863 -0.073923 0.216768 0.273951 -0.00943233 0.244663 -0.0114862 -0.409112 0.292294 0.129407 0.0957853 -0.0238377 -0.479876 0.279516 -0.0583481 -0.130647 0.184326 0.112806 -0.308155 0.389809 -0.130402 0.235349 -0.8647 -0.245829 0.141933 -0.220405 0.291497 -0.0554892 0.543911 0.188822 0.257191 0.267338 0.213889 0.104183 -0.140346 0.226207 -0.0863195 -0.0282479 0.463923 0.174504 -0.321867 -0.043166 0.158761 -0.0415919 0.202539 0.304141 -0.290451 -0.0719069 -0.593059 0.170641 0.135418 0.221055
9 0.222584 0.308375 -0.408416 -0.138717 -0.409933 -0.296939 0.105946 0.138877 -0.335218 -0.149088 -0.116945 -0.0660089 -0.264401 0.238731 0.12834 -0.517156 -0.37594 0.0481743 -0.126925 0.430201 0.155632 0.0335158 -0.277938 -0.212841 -0.0798199 0.283933 -0.392353 -0.600942 -0.51579 -0.301875 0.278321 0.140579 0.128235 -0.237857 -0.529243 -0.02759 0.319906 -0.447803 -0.288316 0.198045 0.443225 -0.0575706 0.385919 0.137918 0.240158 -0.125667 -0.141067 -0.0092561 -0.29329 -0.196832 -0.340408 -0.898697 0.228539 -0.239784 0.400126 -0.131562 -0.510466 -0.228502 0.0802277 -0.095726 0.152104 -0.172081 0.0828885 0.258396 0.552737 -0.516964 -0.0572976 0.104394 -0.149093 -0.352005 -0.0439431 -0.26035 -0.283047 0.158214 0.45484 0.0592982 0.376783 -0.110685 0.0779949 0.304236 0.0078241 0.0872453 -0.112064 -0.324345 0.165496 0.109781 -0.161236 0.476863 -0.413189 0.112412 0.0563248 -0.135894 0.358017 0.0736508 -0.412534 0.289387 0.0283941 0.160536 -0.640468 -0.329327 0.158203 -0.367944 0.175904 -0.15672 0.470868 -0.213638 0.317754 0.193049 0.312574 -0.500137 -0.378188 -0.219428 0.428502 0.0849454 0.202421 -0.0160121 0.0178191 0.325688 0.170723 -0.0451147 -0.115606 0.296847 -0.767666 -0.167275 0.0536299 -0.0700622 0.214031 0.439187
10 0.197298 0.301305 -0.418912 -0.0310524 -0.103196 -0.257676 0.182037 0.326515 -0.100926 -0.385493 -0.129592 0.0947455 -0.121161 0.191333 0.246483 -0.0877387 -0.238113 0.0995054 -0.0941442 0.328932 0.231484 0.0302811 -0.0923803 0.211057 0.00924668 0.217553 0.167369 -0.346992 -0.226873 -0.167162 0.287132 0.00847967 -0.166168 0.0862496 -0.139026 -0.0867075 0.270699 -0.171425 -0.22995 0.130171 0.386607 0.0103889 0.170308 -0.0744485 0.172408 -0.134608 0.380569 0.0832415 -0.27417 -0.36384 -0.102336 -0.133265 0.260151 -0.210864 0.256685 -0.315423 -0.123437 -0.344032 0.0825167 -0.270979 -0.271213 -0.219574 0.148955 0.305 0.174415 -0.204797 -0.204321 0.0732483 0.111093 -0.272387 0.61364 -0.126543 -0.348343 0.0225848 0.10953 -0.356472 0.287745 -0.121959 0.00409223 0.196733 -0.0320767 0.281261 -0.0490742 -0.0789279 -0.187327 0.0883891 -0.215942 -0.0112988 -0.0311645 0.336242 0.447895 0.146363 0.266628 0.379541 -0.301649 0.315083 -0.107177 0.267994 -0.349051 -0.130974 0.231441 -0.381943 0.228508 -0.172544 0.154268 0.115113 0.258532 0.332939 0.188874 -0.0152684 -0.234556 -0.0872081 0.0730034 -0.409033 0.339289 0.0488912 -0.252819 -0.0958964 0.187863 -0.0723976 -0.0609463 0.0933904 -0.432073 0.0735573 -0.221025 -0.314919 0.2261 0.185509
11 0.216132 0.291198 -0.290558 0.0186022 -0.215591 -0.118837 0.250772 0.347006 0.0466882 -0.293494 -0.118892 0.0971507 -0.284041 0.0634955 0.222071 0.0311594 -0.138664 -0.0895155 -0.218251 0.299901 0.350783 0.111862 -0.392941 -0.0584365 -0.225133 0.249815 -0.0213185 0.049102 -0.365125 -0.297228 0.241944 -0.0467373 0.311676 -0.0472287 -0.395178 -0.228243 0.131245 -0.3685 -0.291644 0.0880606 0.58481 0.249329 0.266483 -0.159336 0.276688 -0.132512 0.0470019 -0.162609 -0.091929 -0.0839185 -0.446027 -0.467355 0.134882 -0.253749 0.192775 -0.324043 -0.283585 -0.304436 -0.349508 0.0194333 0.137553 -0.366333 0.110429 0.445286 0.130708 -0.411192 -0.165359 0.284887 0.14862 -0.296593 -0.0497161 -0.199997 -0.257013 0.0734507 0.307307 -0.156304 0.296801 -0.131037 0.0508757 0.394043 -0.192304 -0.0908859 -0.170259 -0.165331 -0.0305293 0.298062 -0.347079 -0.0715678 -0.049181 0.3772 0.262576 -0.166779 0.155238 0.0518553 -0.264661 0.298313 -0.427487 0.229509 -0.689969 -0.377523 0.177984 -0.426284 0.429509 0.217649 0.332955 0.0426998 0.38257 0.321205 0.208649 -0.0460551 -0.0991149 -0.326679 0.194024 0.0453005 0.00637744 -0.0184935 -0.0685322 -0.00695059 0.260209 -0.145996 -0.355031 0.394727 -0.538825 0.00393907 -0.697049 -0.0262096 0.391637 0.171214
12 0.373204 0.334497 -0.375484 -0.0540723 -0.280826 -0.38926 0.0610166 0.0768047 -0.474404 -0.154211 -0.301716 0.532232 -0.393026 0.245229 0.14554 -0.0986427 -0.0446815 0.0965515 -0.155738 0.310807 0.279107 0.244156 -0.371595 0.247349 -0.0462569 0.359511 0.180651 0.0666559 -0.0749914 -0.210472 0.212585 0.13289 -0.356464 -0.126299 -0.383101 -0.0229595 0.108752 -0.356222 -0.328603 0.195502 0.0923909 -0.0539439 0.607969 0.69236 -0.0572197 -0.288818 0.197853 -0.0503328 -0.115603 -0.116266 -0.277719 -0.59331 0.0960268 -0.248618 0.29886 -0.0954983 -0.476248 -0.576893 0.339588 -0.120929 0.0542036 -0.126357 0.163354 0.340219 0.0475197 -0.315738 -0.252582 0.0179549 -0.156119 -0.356902 -0.230061 -0.0775061 -0.344096 0.0524699 0.313905 -0.112649 0.159811 0.0545293 -0.0326961 0.299417 -0.105288 -0.000470311 -0.562585 -0.0660032 0.516149 -0.0244465 -0.282649 0.0131592 -0.526068 0.169652 -0.0247128 0.0355594 0.108016 0.188062 -0.331607 0.381528 -0.156206 0.149667 -0.408225 -0.268865 0.0788585 -0.769806 -0.216416 -0.125305 0.31855 0.116928 0.158696 0.154044 0.171313 -0.370784 -0.107136 -0.292545 0.641557 0.0846317 0.492611 0.0652182 -0.0899576 -0.0356286 0.264114 0.206393 0.0436679 0.390575 -0.626969 -0.0416192 -0.151945 -0.0600563 0.313034 0.240191
13 0.31513 0.201814 -0.202583 0.0886855 -0.30424 -0.217229 -0.225414 0.0417391 0.0166867 0.0641646 -0.0352124 -0.208101 -0.0725096 0.179786 0.156839 -0.0551085 -0.227658 0.0177278 -0.160534 0.244077 0.310739 0.162743 0.0647269 -0.043876 -0.116869 0.371725 -0.12837 -0.319515 -0.0922953 -0.232088 0.151304 0.364689 0.0488386 -0.0190543 -0.301536 -0.313112 0.157133 -0.134506 -0.323053 0.183589 0.234579 -0.201587 0.404859 0.166586 -0.0501156 -0.12759 0.190612 0.08166 -0.381211 -0.309439 -0.0798933 -0.195777 0.181899 -0.282635 0.235785 -0.0395481 0.0451812 -0.313739 0.210172 -0.232379 -0.523374 -0.21338 -0.117535 0.309659 0.286486 -0.358384 -0.269982 -0.0786204 0.313238 -0.173566 -0.00601645 -0.174207 -0.164386 -0.0850557 0.203808 -0.312714 0.285444 0.429433 -0.130548 0.360325 -0.0203765 0.166949 0.208524 -0.0860485 0.285603 0.290621 -0.26669 0.164405 -0.239084 0.203973 -0.00969956 0.201879 0.377251 0.0666545 -0.2309 0.0822636 -0.391274 0.298078 -0.150519 -0.100467 0.090082 -0.533758 0.305019 0.214586 0.44207 0.0610578 0.1663 0.116917 0.063468 -0.227042 -0.209488 -0.340251 0.073963 -0.226163 0.0115402 0.186185 -0.283893 0.195639 0.132248 0.212765 -0.254808 0.175395 -0.350931 0.123163 -0.326788 -0.0524741 -0.0188258 0.271368
14 0.173196 0.268597 -0.322911 0.342475 -0.174132 -0.145334 0.122494 0.0853298 -0.304028 -0.390004 -0.062721 0.391602 -0.229168 0.23295 0.285543 -0.234863 -0.0860126 0.0168191 0.122919 0.291811 0.120065 0.22793 -0.472544 0.118616 -0.26173 0.163889 0.006274 -0.0277481 -0.0744252 -0.0881025 0.26369 0.131576 -0.0738117 -0.28425 -0.046392 -0.160318 0.29359 -0.316543 -0.299202 0.481905 0.237147 0.648451 0.0936067 0.127634 -0.295996 -0.223815 0.146834 0.100055 -0.0364508 -0.107367 -0.151018 -0.136176 0.167776 -0.192048 0.174368 -0.26066 0.131418 -0.386515 0.232926 0.0458183 -0.155038 -0.196369 0.0811268 0.268521 0.175788 -0.169701 -0.317799 0.0501199 0.123251 -0.353774 0.180357 -0.0666465 -0.171312 -0.0724505 0.122241 -0.0332314 0.285802 0.244594 -0.175027 0.123051 0.463464 0.241028 0.0863857 -0.0948815 -0.00387284 0.385683 -0.211202 -0.27844 -0.189021 0.0903221 0.180085 -0.112495 0.207718 0.228414 -0.153635 -0.0688288 0.0227379 0.221328 -0.00098137 -0.167448 0.296154 -0.317329 0.239935 -0.268956 0.136961 -0.157743 0.136153 0.245718 0.499204 -0.205768 -0.350641 -0.284133 0.305968 0.085862 0.377377 0.0270142 -0.265894 -0.0758779 0.249881 0.256529 0.222863 0.214766 -0.197639 0.213689 -0.137271 0.333227 0.0869012 0.293338
15 0.174006 0.256167 -0.374992 0.033501 -0.245532 -0.343996 0.37562 -0.123672 -0.314481 -0.159426 -0.00217141 0.119654 -0.279721 0.168692 0.106293 -0.188731 -0.493532 0.359616 -0.613084 0.282728 0.334466 0.289259 -0.0647403 -0.0186595 -0.262482 0.0944859 -0.420612 -0.622055 -0.188547 -0.48539 0.0998778 0.272423 0.270834 -0.187678 -0.162761 -0.276555 0.2253 0.00490133 -0.32899 0.201319 0.0823655 -0.201492 0.44919 0.116957 -0.120527 -0.0055516 -0.0476544 -0.00983266 -0.128742 -0.317212 -0.123995 -0.450366 0.455668 -0.138955 0.105493 -0.0954853 0.324306 -0.244089 0.119437 -0.177257 -0.519726 -0.23417 0.0778993 0.158562 0.270278 -0.600611 -0.248371 0.117457 0.0946349 -0.207587 -0.252173 -0.253474 -0.200217 -0.0877046 0.166936 -0.686647 0.128757 0.300977 -0.35023 0.348565 -0.175202 -0.127915 -0.212494 0.0687834 -0.0319114 -0.00832822 -0.254782 0.0491372 0.0127966 0.19503 -0.138606 -0.53757 0.19255 0.118226 -0.236288 0.440285 0.083153 0.199194 -0.0837193 -0.405842 0.331746 -0.116574 0.0535728 0.272532 0.203445 -0.168197 0.154555 0.217986 0.315601 -0.0563839 -0.544734 -0.106565 0.312277 -0.112082 0.0251672 0.154356 -0.484002 -0.460995 0.195798 0.276123 0.209935 0.348097 0.086287 0.331773 -0.227504 0.264012 0.151288 0.0961761
16 0.145472 0.217429 -0.39136 0.282872 -0.169084 -0.210097 0.15827 0.0278631 0.247559 -0.0116189 -0.202108 0.131353 -0.119072 0.133958 0.215289 -0.0065458 -0.40668 0.449622 0.0292121 0.125248 0.0386724 0.129271 -0.108636 0.145385 -0.158367 0.101449 -0.0525753 -0.488302 -0.354793 -0.219444 0.287197 0.375823 -0.290879 -0.0773508 -0.161868 -0.253092 0.177543 -0.0190096 -0.220457 0.225617 0.139428 0.182827 0.20566 0.0166197 -0.32409 -0.0777378 0.437727 0.0970358 -0.0381266 -0.0976557 -0.0144223 -0.129213 0.29136 -0.169688 0.219521 -0.16711 -0.088366 -0.275217 0.460531 -0.338224 -0.456617 -0.233305 0.163629 0.179868 0.222419 -0.313171 -0.182171 0.0740213 -0.0660086 -0.154679 -0.083429 -0.241239 -0.262134 -0.342818 0.134292 -0.257746 0.144243 0.118865 -0.636773 0.218887 -0.0213306 0.0293435 -0.406256 -0.252945 0.109949 0.161892 -0.0812838 -0.0754918 0.0627989 0.424039 0.105548 -0.274684 0.180527 0.134757 -0.151748 0.287874 -0.223033 0.20129 -0.105107 -0.329325 0.290197 -0.104497 0.286359 0.374177 0.254448 -0.0187597 0.170607 0.328057 0.20354 -0.197153 -0.224711 -0.188402 0.0860467 -0.0998974 0.43168 0.259989 -0.541553 0.0354831 0.176121 0.117014 -0.0115181 0.216818 -0.241912 0.258534 0.0317242 0.0721566 0.215813 0.163217
17 0.270449 0.177917 -0.16257 0.0452088 -0.198151 -0.240959 -0.313988 0.0127187 -0.0761319 -0.16287 -0.00482966 -0.414752 -0.233568 0.209123 0.204053 -0.334997 -0.336243 0.170116 0.113239 0.375306 0.147973 0.249789 0.0255141 0.153338 0.0560443 0.210726 0.339136 -0.0248241 -0.220078 -0.292988 0.116307 0.108064 -0.0863165 -0.310331 -0.202113 -0.315175 0.147793 -0.0945552 -0.232566 0.180284 0.0169046 0.232519 0.132258 -0.00690122 -0.0836996 -0.219414 0.5519 0.218016 -0.0550121 -0.158244 -0.0662264 -0.26959 0.414983 -0.187145 -0.00745205 -0.0944824 0.254104 -0.249506 0.457832 -0.00855985 -0.0573035 -0.220704 0.364954 0.0147779 0.302574 -0.197095 -0.281331 -0.292899 -0.0283486 -0.179708 -0.011765 -0.38082 -0.15257 -0.468759 0.176773 0.125887 0.174714 -0.0537561 -0.0753138 0.214526 0.183907 0.0273425 -0.284139 0.0598117 0.235182 0.0233218 -0.376462 0.165263 -0.0847015 0.232555 0.102489 -0.239384 0.345397 0.0860456 -0.114156 0.21798 -0.226907 0.297582 -0.137362 -0.132116 0.280345 0.0428334 0.349178 0.0749284 0.0635184 0.157206 0.192149 0.234717 0.232708 -0.0218011 -0.0325112 -0.147775 0.0692171 0.227791 0.471915 0.582829 0.0383401 -0.0936169 0.229456 0.469395 0.106081 0.121293 0.082152 0.371657 -0.0521425 -0.168911 0.221194 0.313673
18 0.261419 0.209938 -0.202563 -0.132926 -0.076279 -0.0783158 -0.0304965 0.211239 -0.0393919 -0.331305 0.0178651 -0.104168 -0.29443 0.218788 0.122582 0.0442367 -0.322561 0.18401 0.0302183 0.308729 0.256492 0.556326 -0.17105 0.147055 -0.330818 0.172683 0.190001 -0.0960359 -0.302179 -0.17822 0.420304 0.0271252 0.0283471 -0.211289 -0.21039 -0.446726 0.125438 -0.210294 -0.176202 0.255744 0.21845 -0.3098 0.260955 -0.128578 -0.0549728 -0.237338 0.51012 0.204089 -0.329109 -0.141441 0.301146 -0.165977 0.119145 -0.211055 0.167285 -0.0507577 0.492416 -0.0708066 0.0615431 0.00628722 -0.208279 -0.198825 0.462123 0.159368 0.119802 -0.0174997 -0.0276814 -0.0165146 -0.0807844 -0.245245 0.277984 -0.0841839 -0.0700372 -0.395039 0.314222 0.143689 0.272664 0.434778 0.127545 0.334368 0.507693 0.407786 0.174462 -0.0582514 0.580033 0.271061 -0.405687 0.277625 -0.343499 0.268066 0.148933 -0.659183 0.353611 0.12634 -0.230212 0.117025 -0.148643 0.207227 -0.0632137 -0.199193 0.106473 -0.327418 0.40658 0.548391 0.261378 -0.102822 0.251486 0.0132827 0.204654 -0.252098 -0.273987 -0.0510118 0.259148 -0.168382 0.589289 0.329498 -0.257146 -0.130188 0.238869 0.00720432 0.222227 0.0794872 -0.336459 0.22816 0.256121 -0.342099 0.0921631 0.295583
19 0.252362 0.270069 -0.292198 -0.0699923 -0.172858 -0.485668 -0.221936 0.232024 -0.481379 -0.245842 -0.0793981 0.191389 -0.25396 0.133003 0.31867 -0.231655 -0.18329 0.000417934 -0.308851 0.285208 0.23948 0.25846 -0.156286 -0.116157 -0.120943 0.124982 0.016974 -0.52931 -0.0109591 -0.310091 0.199685 0.259716 0.0284532 -0.0543827 -0.257922 -0.0701667 0.123168 -0.0439724 -0.371046 0.179975 0.342527 -0.0298137 0.264813 0.237931 0.0640413 -0.129251 0.0796096 -0.0576229 -0.149488 -0.123977 -0.0926984 -0.507186 0.073529 -0.437896 0.395284 -0.0446901 -0.326655 -0.345993 0.1751 0.126389 -0.0320434 -0.229914 -0.0582124 0.30504 0.181545 -0.222821 -0.155973 0.268106 0.058947 -0.138433 0.0679692 -0.284952 -0.128218 -0.297075 0.419595 -0.000159512 0.280281 0.00210958 -0.12749 0.266337 0.0540911 -0.0506999 -0.276753 -0.0958762 0.242823 -0.038565 -0.14293 0.116413 -0.31412 0.182632 0.091815 0.0100524 0.245518 -0.00282798 -0.285565 0.189814 -0.0235565 0.0995358 -0.402637 -0.422889 0.279958 -0.0372427 0.155198 -0.260231 0.263824 0.369295 0.313739 0.224541 0.115884 -0.427298 -0.31965 -0.279095 0.248615 -0.0247931 0.0375583 0.0121376 -0.133719 0.0235448 0.199826 0.112365 0.178717 0.400981 -0.165348 0.130734 -0.229171 -0.0910482 0.258326 0.0716997
20 0.157223 0.173355 -0.238772 -0.112544 -0.328265 -0.0505722 0.435594 0.339943 0.0157948 -0.174513 -0.0968829 0.262311 -0.101885 0.0912014 0.234124 0.0644219 -0.181261 0.296795 -0.543665 0.288902 0.159115 0.00203369 -0.00356507 0.207991 -0.0669108 0.342045 -0.125928 -0.203256 -0.0382235 -0.238204 0.147788 -0.133196 -0.316614 0.0414644 -0.118042 -0.280861 0.0940495 -0.233298 -0.228001 0.346039 0.0395181 0.348868 0.123234 0.0918935 0.26844 -0.222761 0.621489 0.0426348 -0.237969 -0.182191 0.158142 -0.183595 0.127492 -0.261754 0.302878 -0.331937 -0.194696 0.113842 0.205359 -0.319038 -0.208759 -0.311311 0.23565 0.208758 0.148663 -0.168354 0.0206989 0.098961 -0.0525456 -0.220371 -0.293295 -0.122902 -0.32696 -0.598945 0.379487 -0.151026 0.364035 -0.0691856 0.14727 0.392682 -0.368779 0.152232 -0.121647 -0.194502 -0.214003 0.351294 -0.190399 -0.313639 0.0224201 0.158491 0.231004 -0.222227 0.267586 0.0652763 -0.206429 0.0748675 -0.0539724 0.11177 -0.272044 -0.299087 0.289534 0.0215687 0.0745325 0.043458 0.103799 -0.0721871 0.128368 0.232278 -0.0413215 0.0756359 -0.375577 0.127597 0.231015 -0.366704 -0.0296703 0.110521 0.0258014 -0.388748 0.210188 -0.353177 0.232773 0.219108 -0.37319 0.20245 -0.0434265 -0.421397 0.102971 -0.0508363
21 0.177923 0.280291 -0.336556 -0.365092 -0.223042 -0.228576 -0.00556848 0.512004 -0.188327 -0.0457047 -0.0697968 -0.00276849 -0.190956 0.365114 0.262587 0.0997334 -0.219703 0.187956 -0.350367 0.242916 0.31893 -0.314214 -0.0587557 -0.0826206 0.190883 0.0662744 0.0842597 -0.585987 -0.169646 -0.264853 0.402346 0.0216538 0.129547 -0.541446 -0.173066 -0.192829 0.0391498 0.0180419 -0.279039 0.301688 0.286022 -0.226583 0.113995 0.418058 0.138748 -0.273043 0.244088 0.0827853 -0.308883 -0.217207 -0.0775989 0.0306484 -0.0675964 -0.295035 0.0718881 0.0154783 0.196507 -0.264739 0.0712553 -0.0811842 -0.456815 -0.126367 0.114897 0.390236 0.201761 -0.25005 -0.270795 0.140843 0.131331 -0.158179 -0.115137 -0.094274 -0.219273 -0.437375 0.155045 0.0139282 0.264042 0.0206684 -0.0704246 0.185475 0.0568415 0.584304 -0.430424 0.00594444 0.174504 0.2113 -0.193137 -0.118352 -0.0231721 0.116996 -0.0410388 -0.333209 0.249712 0.245217 -0.199293 0.144579 -0.283422 0.222174 -0.340325 -0.331952 0.0386967 -0.37248 0.248726 0.540091 0.18118 0.0425722 0.19719 0.260042 0.203802 0.105445 -0.216313 0.294757 0.111813 -0.20074 0.166261 0.0513601 -0.00247375 -0.294077 0.244686 -0.00212237 -0.194237 0.105594 -0.214483 0.309843 -0.36352 -0.328439 -0.027302 0.293079
22 0.309489 0.16455 -0.176944 0.203852 -0.240503 -0.171382 0.25361 0.159813 0.0408297 -0.519207 -0.297706 0.131072 -0.0550748 0.157778 0.685804 -0.0579353 -0.229473 0.1817 0.0867209 0.279725 0.0779289 0.0185342 -0.301658 0.145733 -0.0355798 0.367211 -0.0438821 -0.47002 -0.177895 -0.140127 0.236429 0.13382 0.250225 0.309444 -0.277869 -0.117074 0.134746 -0.243983 -0.305643 0.310167 0.288112 0.169734 0.0994718 0.150681 0.270871 -0.196777 0.643125 -0.0735781 -0.121622 -0.213322 -0.118349 -0.264352 0.34301 -0.158827 0.330907 -0.305492 -0.0099868 -0.0767397 0.222413 -0.168435 -0.226566 -0.11482 -0.0556683 0.337685 0.208361 -0.2436 -0.297189 0.4257 0.264553 -0.296308 -0.419928 -0.495092 -0.387072 -0.00411729 0.281187 -0.125967 0.222205 -0.0179529 -0.136635 0.38625 -0.0990579 0.345531 -0.0829515 -0.0177756 -0.121062 0.0732326 -0.21752 0.0617958 0.0447763 0.362465 0.0778919 0.0284552 0.158461 0.0795561 -0.266437 0.256331 -0.330421 0.186595 -0.370532 -0.204205 0.230411 -0.139513 0.29142 0.0169833 0.159801 0.10538 0.434031 0.230328 0.0879199 -0.0824445 -0.297325 0.274106 0.134907 0.123647 0.0990014 0.0744622 -0.126864 0.0448346 0.0167468 -0.411287 -0.353834 0.285832 -0.531259 0.199279 0.0589013 -0.330784 0.224812 -0.168734
23 0.111883 0.125849 -0.0237645 -0.247126 -0.194119 -0.292279 0.125571 0.431284 -0.231035 -0.119458 -0.163072 0.412759 -0.211523 0.333738 0.358181 -0.110096 -0.277933 0.270714 -0.144149 0.226099 0.0402064 -0.0583462 -0.111148 0.138541 -0.212711 0.314684 -0.284221 -0.0735497 -0.133109 -0.20799 0.244513 -0.108425 0.0310743 -0.316957 -0.116034 -0.194649 0.2014 -0.237087 -0.273289 0.536869 0.396041 0.0328108 0.124337 -0.0203777 -0.209786 -0.265394 0.188883 0.0577897 -0.304426 -0.220242 -0.244805 -0.115059 0.173899 -0.25765 0.207957 -0.244041 0.081024 -0.344444 0.379242 0.0727213 -0.323385 0.0385828 0.102933 0.197784 0.114979 -0.182449 -0.282451 0.366177 -0.0754147 -0.353104 -0.338468 -0.279536 -0.128152 0.0367261 0.248697 -0.262814 0.374527 -0.181143 -0.161278 0.273843 0.186105 0.0769044 -0.353439 -0.218415 0.182097 0.115067 -0.206297 -0.160701 -0.553434 0.297042 0.135989 0.0892057 0.268858 0.112583 -0.178947 0.0547323 -0.440199 0.31409 -0.253137 -0.209928 0.186228 -0.149058 0.0751792 -0.254016 0.26626 0.0352726 0.438257 0.15257 0.216638 -0.155215 -0.0207238 0.0342076 0.126318 0.143799 0.0652765 0.336501 -0.0033691 -0.344886 0.222487 0.253975 -0.0298476 0.20116 -0.316012 0.0931502 0.14235 -0.380842 0.0825606 0.13394
24 0.259212 0.200969 -0.0842673 0.216222 -0.236556 -0.10619 -0.0966744 -0.000465304 -0.00918763 -0.231478 -0.180545 0.139739 -0.206504 0.0572775 0.290689 -0.137834 -0.324996 0.278876 0.0643474 0.270876 0.100537 -0.0288032 -0.235525 0.594882 -0.268771 0.246262 0.0878533 0.063697 -0.135792 -0.303146 0.164574 0.28687 -0.476668 -0.164378 -0.166178 -0.451658 0.230482 -0.349226 -0.396993 0.301346 0.067572 -0.11646 0.172766 -0.090761 -0.591129 -0.167432 0.457319 -0.0665355 -0.18075 -0.252171 0.0666737 -0.172047 0.218755 -0.170034 0.288049 -0.380037 0.203775 -0.100339 0.181774 0.0784728 -0.340857 -0.0472046 -0.137877 0.0685369 0.207516 -0.230873 -0.0654913 0.118519 0.170823 -0.366579 0.347939 -0.189517 -0.194965 -0.0674088 0.308514 -0.235352 0.157187 0.267197 0.0208873 0.179471 0.00925598 0.00790193 -0.0756053 -0.169051 0.661971 0.0600759 -0.320976 -0.0857402 -0.792022 0.236449 0.0382293 -0.0281267 0.249481 0.138761 -0.139809 -0.197077 -0.263943 0.366516 -0.0334209 -0.319775 0.212273 -0.215669 -0.107187 -0.196389 0.245699 0.0217887 0.104113 0.359587 0.378485 -0.381013 -0.00265628 -0.0418768 0.0798004 -0.0382317 -0.0456205 0.0437405 -0.18127 -0.178282 0.26375 -0.00717318 -0.2021 0.0133093 -0.288725 0.12837 -0.178373 -0.308682 0.0688026 0.0447568
25 0.325953 0.161436 -0.00467171 -0.161891 -0.380327 -0.127684 -0.20415 0.183959 0.0103424 -0.179019 -0.0994316 0.37412 -0.289549 0.375907 0.298559 -0.096388 -0.295198 0.153858 -0.15033 0.292554 0.150663 0.147418 -0.0993265 0.451753 -0.390977 0.256197 0.370547 0.249396 -0.130059 -0.231386 0.340953 0.189387 -0.234177 -0.282773 -0.010573 -0.361812 0.110618 0.130825 -0.389801 0.154794 0.0127474 -0.191317 0.147275 -0.0461612 -0.417418 -0.423397 0.624773 -0.180941 -0.0849091 -0.0297815 0.416501 -0.116994 0.0863295 -0.201094 0.304926 -0.302409 -0.00444408 0.00789195 0.267446 -0.0294333 -0.149512 -0.24833 -0.0632209 0.225191 0.279104 -0.255039 -0.134058 0.521123 0.371795 -0.319174 0.30228 -0.496756 -0.298412 -0.0364364 0.323535 -0.0438218 0.274478 -0.0953721 -0.0672488 0.341693 0.253106 0.115272 -0.383553 0.194147 0.0553347 0.21781 -0.0479576 -0.122701 -0.439403 0.218288 -0.152902 -0.0563408 0.0559614 -0.222814 -0.293834 0.251833 -0.352142 0.363199 -0.0699929 -0.300689 0.30207 -0.500123 0.0720186 0.221506 0.290599 -0.0440655 0.305288 0.235519 0.120352 -0.0285431 -0.267671 -0.192218 0.165368 0.132263 0.207347 0.287921 0.0639339 -0.242646 0.265039 0.126657 0.313601 0.024813 -0.426658 0.255775 -0.148245 0.131724 0.106964 0.163302
26 0.114317 0.238834 -0.129342 0.000237172 -0.235832 -0.10588 -0.0585471 0.328302 -0.188174 -0.135749 -0.204086 0.00861075 -0.330886 0.156653 0.380661 -0.207349 -0.304895 0.102561 0.319472 0.298554 -0.0081725 0.272429 -0.046246 0.482828 0.0410802 0.544765 0.0241119 -0.279248 -0.240018 -0.253624 0.194776 0.129855 0.331854 -0.041546 -0.0857674 -0.285071 0.301383 -0.155013 -0.296636 0.399079 0.375073 0.132339 0.378874 -0.291134 -0.611197 -0.109632 0.751207 -0.2384 -0.110369 -0.0697471 0.0659364 -0.194966 0.0284398 -0.147948 0.175314 -0.560704 0.0163177 -0.158636 0.206271 0.200343 -0.281816 0.0362634 0.0887301 0.168719 0.198068 -0.192101 -0.30912 0.343869 0.247809 -0.282002 0.0320879 -0.430461 -0.156215 0.147025 0.292923 -0.040882 0.261519 -0.0285217 -0.357574 0.222827 0.399046 -0.132852 -0.525791 0.015969 0.272769 -0.0484673 -0.209317 -0.084272 -0.41208 0.233745 0.0212778 -0.141429 0.192347 -0.130686 -0.310542 0.116256 -0.612662 0.210902 0.0431688 -0.217771 0.130015 -0.379382 -0.0335162 -0.0872342 0.210809 0.634515 0.141857 0.393773 0.341126 -0.0380669 -0.335785 0.118192 0.0141067 -0.192066 0.0951642 0.00723107 0.0550047 0.0269011 0.226573 0.207556 -0.00710735 0.0120983 -0.134 -0.0103314 -0.473995 -0.703449 0.212295 -0.0156828
27 0.235261 0.196757 0.00935044 -0.186795 -0.198166 -0.0189675 -0.216481 0.563822 0.000136232 -0.278555 -0.170521 0.1805 -0.257185 0.165853 0.126982 -0.260409 -0.350563 -0.0489519 -0.0349397 0.270674 0.153803 0.347152 -0.115668 0.634358 0.0481816 0.245968 -0.460033 -0.325652 -0.247779 -0.266693 0.178797 0.13013 0.0890639 0.00256133 -0.0454707 -0.274336 0.21609 -0.170615 -0.0999586 0.326177 0.242275 0.349406 0.212062 -0.132562 -0.35246 -0.137022 0.426414 -0.1159 -0.233786 -0.244366 -0.223962 -0.35457 0.190982 -0.121059 0.38459 -0.259906 0.217731 0.0926021 0.209119 -1.36389e-05 -0.725255 -0.0279668 -0.260423 0.121011 0.0617561 -0.0950703 -0.109885 0.449463 0.109163 -0.497828 0.364065 -0.264572 -0.150764 0.0710511 0.368555 -0.166422 0.212055 -0.0508643 -0.441219 0.265864 0.476002 0.0142689 -0.193069 -0.186661 -0.0704138 0.0122301 -0.099261 -0.259739 -0.586454 0.233698 -0.0744689 -0.282815 0.209039 0.111597 -0.145222 0.149342 -0.383508 0.36347 0.0964616 -0.209544 0.272777 -0.594439 -0.139893 -0.0460964 0.341449 -0.115016 0.391845 0.398682 0.252586 -0.0450298 0.10185 0.0422567 0.0958325 -0.305722 0.20598 0.139304 0.225908 -0.18196 0.264699 0.0727974 0.336009 0.0678887 -0.209121 0.229224 -0.356587 -0.348861 0.154018 0.144551
28 0.224463 0.273298 -0.0832351 0.0819263 -0.184554 -0.132598 -0.152491 0.688095 -0.133277 -0.128543 -0.104098 -0.00162291 -0.188877 0.244129 0.030821 -0.212784 -0.157531 0.110706 0.0680333 0.242007 0.211219 0.413682 -0.390087 0.706037 -0.377182 0.286505 -0.0759893 -0.0704411 -0.167754 -0.310623 0.143232 0.190168 -0.196037 -0.168565 -0.186819 -0.285804 0.355093 -0.0479279 -0.220745 0.12121 0.287306 -0.0616239 0.184103 0.131283 -0.431564 -0.363218 0.232207 -0.0330882 -0.116738 -0.215289 -0.0807083 -0.267915 0.16976 -0.286274 0.371704 -0.305027 0.211219 -0.0569128 0.281057 -0.0122661 -0.360171 -0.125057 -0.0625935 0.241721 0.232302 -0.214521 -0.222485 0.190267 0.112959 -0.253373 -0.0598127 -0.0424178 -0.20334 -0.0773749 0.306201 -0.0278005 0.139333 -0.0339631 0.0402815 0.266194 0.169506 0.24896 -0.126843 -0.107079 0.171767 -0.0677681 -0.180733 0.0782994 -0.345102 0.146413 0.324807 -0.214359 0.138605 0.145835 -0.248656 0.438686 -0.204229 0.354616 -0.018829 -0.219768 0.190125 -0.127884 0.271361 0.150772 0.22916 -0.165727 0.289046 0.25512 0.305013 -0.204559 -0.31789 -0.145875 0.548772 -0.109696 0.0185534 0.0269173 -0.0935476 0.131148 0.219043 0.516724 0.400529 0.181518 -0.0319694 0.288432 -0.0647452 -0.330446 0.319119 0.179393
29 0.363928 0.183543 -0.179237 0.125776 -0.337862 -0.120571 -0.0189057 -0.0242617 -0.0238266 -0.18972 -0.0491445 0.305652 -0.301848 0.283233 0.376242 -0.0628618 -0.320579 0.166394 0.110773 0.206889 -0.0722184 -0.00227917 -0.157489 0.698214 -0.232334 0.313446 -0.113427 0.0787147 -0.189561 -0.287292 0.0848749 0.0343623 -0.342192 -0.0348068 -0.168768 -0.176417 0.17692 -0.204136 -0.291774 0.226162 0.0865616 0.238476 0.10726 0.116276 -0.45357 -0.121433 0.478203 0.00766722 -0.124441 -0.269647 0.129363 -0.32198 0.0742817 -0.16787 0.174304 -0.519805 0.00944179 -0.0781512 -0.236048 -0.149588 -0.160743 -0.0718975 0.176247 0.17024 0.12601 -0.113039 -0.236478 0.406926 0.213095 -0.255464 -0.446335 -0.419602 -0.283787 0.090069 0.223061 -0.24004 0.212114 0.338802 -0.494811 0.325142 0.438035 0.200568 0.136458 -0.169658 0.0876283 0.312473 -0.0210669 -0.336428 -0.221447 0.128618 0.00262041 -0.15657 0.171824 0.0870125 -0.277324 0.213714 -0.502284 0.31017 -0.205334 -0.24716 0.180046 -0.213399 0.140455 -0.0749077 0.336099 0.3368 0.264331 0.279148 0.209491 -0.108587 -0.322927 0.125759 0.420328 0.03177 0.0609344 0.230173 0.114274 -0.10127 0.2331 0.0447416 0.343776 0.054812 -0.140086 0.262377 -0.0579327 -0.262079 0.00152621 0.26004
30 0.225372 0.14906 -0.104508 -0.247731 -0.221213 -0.143916 0.16824 0.374779 -0.216377 -0.271166 -0.216252 0.435591 -0.373139 0.0672448 0.315434 -0.0865105 -0.280325 0.0490697 -0.0691192 0.210105 0.0410109 0.141097 -0.190686 0.466538 -0.197704 0.442722 -0.0111334 0.019921 -0.217747 -0.205454 0.161303 0.0817134 -0.364928 -0.327992 -0.0303722 -0.18424 0.285677 -0.0835576 -0.201228 0.351655 0.348454 0.208125 0.220155 -0.148262 -0.516185 -0.137086 0.375337 -0.183106 0.114207 -0.397909 0.12185 -0.234895 0.11643 -0.0589232 0.35543 -0.427321 0.0990629 -0.328682 0.0435383 -0.0922946 -0.457791 -0.146317 0.00366403 0.187475 0.277006 -0.213905 -0.373795 0.502536 0.481089 -0.229602 -0.0964948 -0.0307039 -0.151469 -0.0786079 0.230092 -0.187427 0.338286 0.326213 0.0620348 0.296723 0.0625302 0.193129 -0.0637631 -0.0533979 0.123865 0.258932 -0.309121 -0.191161 -0.410493 0.251319 0.259339 0.00795619 0.186345 0.044161 -0.1009 0.0212731 -0.448912 0.268104 -0.0202617 -0.120389 0.305232 -0.407082 0.0877495 -0.0700788 0.289527 -0.0997319 0.518062 0.327948 0.409338 -0.296636 -0.169667 0.15377 -0.054555 -0.0263778 0.000938099 0.211809 -0.00536096 -0.132484 0.281434 0.697697 0.0940895 0.115353 -0.111922 0.0878187 0.0715933 -0.203971 0.154532 0.33358
31 0.199912 0.234039 0.0795591 0.0708917 -0.245165 -0.254282 0.0297817 0.286451 0.0188462 -0.337667 -0.188109 0.252858 -0.315055 0.42454 0.0834221 -0.106275 -0.178202 0.315116 -0.166949 0.283256 -0.0230125 0.24421 -0.388519 0.751502 -0.126096 0.29581 -0.125084 -0.280038 -0.0916364 -0.214064 0.130775 -0.122812 0.178972 0.0510991 -0.14821 -0.18462 0.0773306 -0.17609 -0.210533 0.19202 0.325956 -0.183594 0.0243526 -0.0975398 -0.517753 -0.15863 0.811941 -0.00259504 -0.143668 -0.0359339 -0.221965 -0.380924 0.105305 -0.181698 0.243631 -0.313002 0.13946 -0.0829817 0.527065 -0.286132 -0.55627 -0.233963 0.145029 0.202853 0.1599 -0.203676 -0.340687 0.245001 0.154997 -0.3042 0.377218 -0.229612 -0.187244 0.133862 0.243735 -0.273006 0.222575 -0.0448171 -0.233483 0.321226 0.837291 0.159938 -0.245419 -0.0683488 -0.0179899 0.108639 -0.0372077 -0.246468 -0.236368 0.264791 0.0971884 -0.172431 0.194707 0.112293 -0.255697 0.259263 -0.274425 0.139558 -0.0444462 -0.0919193 0.245798 -0.32215 0.0766689 0.0109239 0.0907473 0.0648537 0.371833 0.263001 0.296626 -0.681456 -0.186962 -0.290139 0.513093 -0.383053 0.0522582 0.194845 -0.0264992 0.0727268 0.240528 0.0236515 -0.364916 0.0973541 -0.220704 0.237336 -0.118708 -0.492494 0.306319 -0.0169813
32 0.385951 0.235611 -0.12849 0.26 -0.218574 -0.299225 -0.0646444 0.221194 -0.158839 -0.273081 -0.261756 -0.0126298 -0.190986 0.266053 0.193009 -0.0658211 -0.208744 0.339654 0.268771 0.3851 0.198996 -0.0519037 -0.186893 0.625214 -0.135127 0.335968 0.0203453 -0.0363239 -0.433827 -0.257442 0.240959 0.284132 -0.0806589 -0.347726 -0.0246731 -0.413507 0.173889 -0.288959 -0.340263 0.231762 0.0790659 0.278483 0.240875 -0.226561 -0.423203 -0.229861 0.247617 -0.082976 -0.397785 -0.182386 -0.202782 -0.347356 0.160466 -0.279825 0.321954 -0.3895 0.333049 -0.169672 0.0107963 -0.256704 -0.49332 -0.123909 0.143668 0.195448 0.159214 -0.220464 -0.226087 0.338182 0.352256 -0.273814 0.170328 -0.218807 -0.272317 0.107958 0.24003 -0.191729 0.257869 0.104344 -0.241975 0.119845 0.0746796 0.0890857 -0.284621 0.0404394 -0.00118473 0.115867 -0.446749 0.088345 -0.147255 0.309395 0.171696 -0.0391317 0.140393 -0.02699 -0.291979 0.15603 -0.13983 0.307883 0.00027557 -0.279774 0.391336 -0.0370782 -0.0576576 0.107457 0.134976 0.151783 0.2224 0.326982 0.315859 -0.172209 -0.370559 0.167235 0.166291 0.320477 -0.138931 0.211547 0.152233 -0.0182354 0.2723 0.427424 -0.221248 0.044711 -0.430162 0.224462 -0.00427696 -0.0149295 0.160788 0.246431
33 0.279681 0.218349 -0.0302213 -0.0466714 -0.216586 -0.100356 -0.177258 0.220504 0.000900895 -0.154051 -0.33856 0.112961 -0.224123 0.275559 0.146496 -0.199517 -0.325931 0.284648 -0.0961181 0.273014 0.0469715 0.0841355 -0.146014 0.931786 -0.115999 0.409605 0.289554 0.0699798 -0.0706201 -0.37559 0.386998 0.215779 -0.000273265 -0.155121 -0.102059 -0.221206 0.276144 0.186126 -0.279166 0.250533 0.173574 0.249637 0.182317 -0.184056 -0.68845 -0.133391 0.308979 -0.079243 -0.132726 -0.118751 0.383374 -0.391268 0.313009 -0.0591657 0.322196 -0.245172 0.117765 -0.289817 -0.00251344 -0.0203491 -0.444585 -0.1373 0.0824225 0.0467104 0.212827 -0.258132 -0.380284 0.222391 0.308165 -0.281219 -0.0569185 -0.252056 -0.344047 -0.228946 0.288792 -0.216358 0.201402 0.0127658 -0.0766511 0.215918 0.071226 -0.0417692 -0.292387 -0.0423578 -0.00720066 0.25627 -0.259158 -0.315657 -0.448512 0.204267 -0.0845079 -0.226611 0.253269 0.253649 -0.243573 0.428077 -0.398523 0.266948 -0.0625514 -0.218649 0.358373 -0.512832 -0.0298318 0.0996559 0.256604 -0.139799 0.342019 0.385973 0.175046 -0.242895 -0.163278 -0.212931 0.328475 0.0498242 0.0777649 0.101016 -0.0154965 -0.134873 0.0738839 0.296168 -0.0614416 0.112438 -0.0946885 0.411917 0.137793 0.170729 0.02914 0.0511094
34 0.278086 0.267141 0.0250318 0.231368 -0.21059 -0.125094 -0.0729753 0.277212 0.0672946 -0.220453 -0.185446 -0.0980607 -0.300561 0.0566823 0.0786729 -0.12037 -0.354253 0.15194 0.121478 0.221383 0.0238419 0.017122 -0.27974 0.581712 -0.130762 0.399848 0.123408 -0.278407 -0.0695689 -0.300756 0.169578 0.48285 -0.225379 -0.0804986 -0.127066 -0.241693 0.310599 -0.355 -0.428138 0.263709 0.0320777 0.180087 0.278667 -0.13392 -0.703708 -0.312057 0.480181 -0.0746005 -0.115249 -0.210412 0.194399 -0.275535 0.239392 -0.139373 0.398643 -0.385069 0.1942 0.0176875 0.252592 -0.0375921 -0.651401 -0.173652 0.0792874 0.156718 0.101687 -0.120868 -0.462294 0.444867 0.467346 -0.228513 0.188618 -0.475228 -0.191556 -0.101431 0.311185 -0.184686 0.265921 0.182196 -0.479092 0.231476 -0.0319572 -0.188645 -0.0946267 -0.404591 0.448583 0.0321882 -0.766978 0.16102 -0.550727 0.176024 0.0103096 -0.0736804 0.175132 -0.0349278 -0.149037 0.1184 -0.138837 0.285632 -0.136669 -0.202663 0.0989984 -0.231188 -0.0804458 0.224599 0.299721 0.249032 0.0245537 0.425116 0.27225 -0.121653 -0.231906 0.22343 0.0870924 -0.00791703 -0.14978 0.108857 0.0784274 0.0242652 0.160421 0.399626 0.104011 0.115085 0.136103 0.0381741 -0.149399 -0.509683 0.11222 0.130971
35 0.10225 0.256042 -0.15305 -0.209456 -0.122416 -0.125727 0.0412971 0.450799 -0.212121 -0.221138 -0.150858 -0.0189993 -0.261333 0.289203 0.0365103 -0.342528 -0.265492 0.0229076 0.168144 0.196454 0.210982 0.238438 -0.332564 0.150462 -0.108301 0.275666 0.130686 -0.0966673 -0.0976388 -0.386989 0.146891 0.0828626 -0.0624786 -0.368812 -0.0987382 -0.324911 0.301119 -0.222195 -0.30105 0.15559 0.524198 0.0558852 0.226346 0.00522194 -0.294134 -0.0906584 0.303741 0.105542 -0.136184 -0.221814 0.171251 -0.403711 -0.0004123 -0.259564 0.196544 -0.0669557 0.105415 -0.109464 0.577199 -0.0863274 -0.420033 -0.17686 -0.0953967 0.101573 0.122281 -0.261394 -0.308471 0.237478 0.125351 -0.15967 -0.217553 -0.0414969 -0.189125 -0.293936 0.193688 -0.159685 0.29869 0.162588 0.582954 0.444519 0.337898 -0.0293433 -0.0468205 -0.128678 0.161868 0.040726 -0.0561711 -0.104312 -0.184194 0.173979 0.0349965 -0.333322 0.167227 0.0731788 -0.280939 0.229937 -0.406173 0.31587 0.153563 -0.133487 0.158792 -0.340867 0.158682 -0.132649 0.318965 -0.189368 0.214339 0.207574 0.223346 0.0435057 -0.0763762 -0.346435 -0.0336155 -0.137603 0.114125 0.263511 0.0742578 -0.289931 0.186681 -0.0303751 -0.0816381 0.131806 0.147447 0.436334 0.0256912 -0.293357 0.220768 0.236254
36 0.313619 0.215198 -0.175043 -0.0493701 -0.266633 -0.0838084 -0.106964 0.260126 -0.0507619 -0.424216 -0.217819 0.142604 -0.224406 0.232062 0.243177 -0.0313205 -0.290373 0.281657 -0.0957128 0.300182 0.124551 0.15421 -0.110602 0.0418342 -0.307993 0.262854 0.0991493 0.180379 -0.286743 -0.203685 0.0464755 -0.0182911 0.0727555 -0.0345158 -0.0869632 -0.156186 0.0518696 -0.465032 -0.217965 0.297399 0.105855 -0.0726754 0.0697479 0.056624 -0.704804 -0.294524 0.250745 -0.12192 -0.0101821 -0.19402 0.118212 -0.299409 0.441049 -0.157159 0.2391 -0.191987 0.416172 -0.197705 0.423841 0.141386 -0.202445 -0.125072 0.394008 0.160472 0.312949 -0.288553 -0.185894 0.172986 0.131737 -0.290668 0.0656399 -0.362439 -0.160237 -0.0689173 0.172362 -0.210125 0.0967994 0.140606 -0.297715 0.190033 0.100162 0.0386356 -0.233079 -0.233369 0.0488595 0.159146 -0.129992 -0.145859 -0.243995 0.342408 0.0167636 -0.291337 0.104243 0.135029 -0.189566 0.36052 -0.221346 0.201682 -0.320567 -0.249158 0.437957 -0.273684 0.0381682 -0.0488668 0.367803 -0.0467695 -0.0351056 0.280104 0.0922563 -0.400266 -0.0533651 -0.31343 0.0720089 0.0944877 -0.0252524 0.116487 -0.0887315 -0.0818456 0.235435 0.0322653 0.0670382 0.0491131 -0.141687 0.420595 0.134785 -0.0946275 0.110692 -0.00107881
37 0.269678 0.257371 0.050705 -0.0966468 -0.195517 -0.0825619 0.109804 0.614218 0.12198 -0.268318 -0.0698406 0.201483 -0.209565 0.130189 0.554914 -0.175856 -0.377153 0.151133 0.218569 0.24972 -0.0271506 0.292168 -0.151604 0.338551 -0.282823 0.420291 -0.118827 0.114089 0.0473551 -0.321512 0.231789 0.281551 -0.123623 -0.0657341 -0.191678 -0.361098 0.47548 -0.266226 -0.367524 0.405039 0.0984979 0.0778432 0.24935 -0.181475 -0.445533 -0.237901 0.46821 -0.223553 -0.191748 -0.445192 -0.298823 -0.111239 0.0788239 -0.256356 0.336968 -0.391364 0.0625471 -0.0169459 0.135096 -0.395092 -0.841322 -0.0463531 0.112025 0.00419245 0.207756 -0.182702 -0.0285376 0.509996 0.502412 -0.160925 0.263591 -0.3207 -0.187833 0.0158503 0.106316 -0.129377 0.183526 0.292964 0.0423972 0.316435 0.43138 -0.157652 -0.167031 -0.0784247 -0.0564878 -0.0120885 -0.379905 0.229729 -0.599223 0.343592 -0.123937 0.00530391 0.239653 0.253234 -0.290066 0.0138548 -0.584522 0.295162 -0.105488 -0.0755068 0.421069 -0.309586 -0.136147 -0.0582906 0.18702 0.366145 0.172061 0.425644 0.274624 -0.0661749 -0.349364 0.0717838 0.00112126 -0.14684 0.0388087 0.302861 0.185514 0.077047 0.305343 0.0288691 0.0124308 -0.0475788 -0.55415 0.461907 -0.025302 -0.382555 0.304286 -0.122551
38 0.269614 0.185284 -0.0377058 0.185289 -0.245936 -0.264681 0.0880512 0.573421 -0.0336683 -0.276054 -0.103503 -0.104939 -0.355009 0.0521856 0.0861508 -0.112316 -0.191683 0.0513483 0.142724 0.344821 0.0942099 -0.0313328 -0.100401 0.817895 -0.103722 0.453279 0.116211 0.0485332 -0.00158821 -0.316351 0.422551 0.310594 0.0501362 -0.0679979 -0.12069 -0.26845 0.0640015 -0.187712 -0.30691 0.198685 0.0174798 0.155459 0.28794 -0.00131078 -0.72552 -0.140099 0.521512 0.030429 -0.018487 -0.160269 0.123523 -0.190138 0.0980293 -0.183818 0.361821 -0.445545 -0.0632825 -0.149731 -0.00260949 -0.219203 -0.799567 -0.240834 0.155557 0.0750242 0.109832 -0.146862 -0.318617 0.362314 0.263421 -0.352447 0.0282825 -0.38407 -0.0357595 -0.0903109 0.122365 -0.1503 0.137977 0.0246108 -0.430417 0.21656 0.415249 0.120396 -0.0510562 -0.0453244 0.143656 0.11017 -0.0657067 -0.115839 -0.397031 0.256478 -0.0459894 -0.212269 0.269066 0.0422708 -0.248851 0.0798363 -0.412063 0.410446 0.0941077 -0.156264 0.322755 -0.281729 0.0162195 0.0214868 0.15692 0.0809945 0.347623 0.248578 0.434912 -0.19864 -0.413714 -0.321685 0.23276 0.0389539 -0.00407899 0.115354 -0.0668774 0.0350836 0.39234 0.144304 0.224546 0.111296 -0.292694 0.357521 -0.214533 -0.0116205 0.109401 0.238378
39 0.268401 0.218062 -0.0188392 0.290528 -0.197369 -0.288082 -0.116344 0.750395 0.106855 -0.454558 -0.263634 0.189755 -0.381426 0.0606457 -0.00543315 -0.139939 -0.364828 0.519535 -0.0726683 0.232616 0.291706 0.0609493 -0.0253244 0.193605 -0.423276 0.376813 0.363904 0.164558 -0.29773 -0.203626 0.237062 0.131217 0.0398776 -0.479017 -0.162854 -0.372302 0.240287 -0.353338 -0.241794 0.185899 0.0387564 -0.0107098 0.248479 -0.0240222 -0.134631 -0.207834 0.807191 -0.0864683 -0.218343 -0.22045 0.0288657 -0.165837 0.0250761 -0.130224 0.347141 -0.088341 0.022199 -0.138693 -0.150786 -0.122012 -0.393549 -0.150213 0.26013 0.245552 0.0309909 -0.119291 -0.10745 0.35055 0.0108093 -0.372954 0.0690604 -0.16852 -0.190942 -0.00831858 0.118642 -0.058813 0.420416 0.288274 -0.17221 0.249242 0.443846 -0.101365 -0.0609998 0.0878815 -0.388161 0.374876 -0.0936967 0.0151147 -0.612296 0.295115 -0.0473558 0.0314984 0.127706 0.108709 -0.187909 0.360777 -0.221757 0.336605 0.0359839 -0.314013 0.330307 0.0531599 0.0141334 -0.141516 0.362397 0.13115 0.170006 0.238147 0.350439 -0.136269 -0.188014 -0.440899 0.127998 0.0100855 -0.0894163 0.123064 0.116531 -0.458313 0.265303 -0.0383526 -0.138554 -0.0853869 -0.242628 -0.0944603 0.215331 0.133925 0.193437 0.041127
40 0.124957 0.220309 -0.183778 -0.5048 -0.157885 -0.108848 0.0125271 0.399863 -0.0251798 -0.124433 -0.0479745 0.310212 -0.314225 -0.0453592 0.135259 -0.194604 -0.374826 0.247793 0.39168 0.371185 0.0582557 0.218573 -0.154544 0.640945 -0.401693 0.246541 -0.0736208 -0.156423 0.0285047 -0.26332 0.0958557 0.0661703 0.0239611 0.263344 -0.0459992 -0.376578 0.237201 -0.347336 -0.274901 0.204703 -0.0314593 0.145381 0.318531 0.0284789 -0.511429 -0.0979136 0.805995 -0.104439 -0.213618 -0.0210481 0.110047 -0.174446 0.211178 -0.183341 0.445419 -0.534854 0.195802 0.126388 -0.0544126 -0.258257 -0.346895 -0.32506 -0.0457225 0.197108 0.190774 -0.204487 -0.272445 0.267433 -0.05059 -0.314568 0.115805 -0.146635 -0.146128 0.174162 0.0967824 -0.255925 0.15579 0.0847869 -0.353272 0.352326 0.432478 -0.312732 0.392388 -0.151168 0.214555 0.196342 -0.272019 -0.577851 -0.779021 0.338119 -0.137243 0.132533 0.110246 -0.069429 -0.230254 0.0799586 -0.372463 0.163024 0.0428337 -0.214996 0.14521 -0.447401 0.015884 0.0913975 0.25715 0.137088 0.182458 0.389138 0.388143 -0.162773 -0.129377 -0.00354854 0.177431 0.416079 0.16613 0.111638 -0.170782 -0.194332 0.168771 0.24164 0.331486 -0.0993756 -0.174214 0.125639 0.241866 -0.25377 0.0598605 0.221527
41 0.114853 0.179529 -0.119241 0.0718112 -0.208637 -0.0394318 -0.115956 0.0638164 -0.129478 -0.215214 -0.344677 0.275443 -0.383038 0.27117 0.247212 -0.283275 -0.198378 0.101053 -0.075607 0.322485 0.174092 0.371847 -0.355272 0.457231 -0.0669213 0.418653 0.166778 0.0421467 -0.255194 -0.250508 0.312524 0.0768271 0.394963 0.0734663 -0.300169 -0.236338 0.207386 0.00884351 -0.25178 0.125505 0.259259 0.412237 0.0810716 0.198042 -0.536325 -0.0199281 0.123293 0.227075 -0.175785 -0.207047 0.274711 -0.0388406 0.170991 -0.183948 0.303831 -0.238545 0.168834 -0.120144 -0.0699145 -0.194246 -0.042315 -0.233294 0.0575344 0.191506 0.242906 -0.104876 -0.429873 0.31487 0.467705 -0.254113 -0.0235722 -0.117962 -0.0704659 -0.0234275 0.333323 0.0747736 0.266592 0.112663 0.119815 0.302242 0.329525 0.386345 -0.210205 -0.208762 0.247144 -0.0545865 -0.0349533 -0.180595 -0.157342 0.114552 0.0858419 -0.0179434 0.2052 0.229755 -0.222119 -0.0748973 -0.229129 0.192679 0.00379991 -0.214462 0.160358 -0.335187 0.0703811 -0.0821179 0.250434 0.16949 0.381164 0.211801 0.260554 -0.219178 -0.0226595 -0.177859 0.40275 -0.081751 0.119225 0.117521 -0.110061 -0.0653777 0.32417 0.0593379 -0.0526639 0.137214 -0.0586837 0.19049 -0.157985 -0.306123 0.314049 0.500056
42 0.127668 0.259759 -0.240642 -0.139986 -0.194873 -0.158332 0.149708 0.16476 -0.0656467 -0.217895 -0.19367 0.268956 -0.153659 0.249153 0.196834 -0.05039 -0.162406 0.277384 -0.169078 0.190356 0.35434 0.465424 0.0216793 0.152882 -0.194476 0.198314 0.0659418 -0.00878363 -0.110823 -0.297043 0.227177 0.347202 -0.0264419 -0.115338 -0.121019 -0.138658 0.14336 -0.0676906 -0.133985 0.172151 0.0253953 -0.225739 0.100872 0.475056 -0.122623 -0.120217 0.232398 0.072994 -0.157696 -0.359211 0.0452192 -0.228397 -0.155477 -0.097873 0.22602 -0.222875 -0.238021 -0.319985 0.26534 0.0546538 -0.111752 -0.203746 0.0778201 0.321409 0.306651 -0.164526 -0.0013657 0.00973094 0.070448 -0.221225 -0.191836 -0.362312 -0.245532 -0.141632 0.171429 -0.162914 -0.0110129 0.076175 0.00841811 0.281177 0.193881 0.454861 0.216338 -0.0199884 0.0475063 0.221043 -0.0135615 0.0843822 -0.336405 0.271146 0.138159 -0.44186 0.336286 0.0127047 -0.0844805 0.0904573 0.0529345 0.114278 -0.0933316 -0.293538 0.258417 -0.28605 0.0691945 -0.0255669 0.0758369 0.0165334 0.301287 0.14005 0.192985 -0.18041 -0.00476176 0.0925606 0.114827 -0.17599 0.160669 0.341353 -0.185395 0.105196 0.259676 0.233141 -0.0146148 0.0855772 -0.181568 0.0984401 -0.11712 -0.132742 0.199009 0.107012
43 0.340137 0.199759 -0.231445 0.15692 -0.254023 -0.360213 0.0227311 0.0706444 -0.263933 -0.41309 -0.0160022 0.328613 -0.241375 -0.050119 0.153208 -0.299732 -0.38779 0.00324285 -0.299781 0.204603 0.258483 0.0935373 -0.390567 0.0179924 -0.104226 0.135172 -0.00810981 -0.548417 -0.183626 -0.692318 0.222257 0.424525 0.152986 0.0621741 -0.248743 -0.15426 0.288323 -0.738142 -0.364123 -0.0831964 0.0480046 0.373668 0.442041 0.017734 0.14761 -0.550848 -0.0910355 0.211347 -0.199609 -0.315394 -0.0927812 -0.543102 0.138818 -0.135062 0.275157 -0.0970369 -0.387579 -0.524518 0.086448 0.00697736 0.118716 -0.132961 -0.100244 0.336792 0.418701 -0.539082 -0.148932 -0.142683 0.14001 -0.373409 0.420879 -0.182208 -0.361563 -0.0597248 0.504006 -0.13786 0.429931 0.0532494 0.190805 0.294528 0.389622 0.369046 -0.118783 -0.36922 0.511737 -0.0369339 -0.131103 0.138185 -0.481334 0.238336 0.299547 -0.066093 0.277618 0.0380484 -0.276812 0.171316 0.0342248 0.217114 -0.560917 -0.18876 0.275267 0.0395119 0.382109 -0.0941369 0.277964 0.164081 0.263961 0.282065 0.736695 -0.291169 0.142508 -0.204532 0.379688 0.107712 0.440205 0.0419107 -0.173787 -0.179642 0.310771 0.010045 0.00798321 0.171222 -0.437664 -0.210975 -0.317343 0.157371 0.257395 0.581227
44 0.184645 0.173079 -0.286938 -0.219 -0.189133 -0.22726 0.0251577 0.316131 -0.345252 -0.119845 -0.199612 0.236346 -0.29642 0.213397 0.157127 -0.441003 -0.162016 0.122219 0.060649 0.224679 0.209513 -0.0387727 -0.272984 -0.0285023 -0.0529688 0.274065 -0.0224113 -0.214604 -0.225305 -0.358755 0.193125 -0.107542 0.127397 -0.249595 -0.506155 -0.234017 0.0857907 -0.265433 -0.147492 0.0319694 0.383847 0.175647 0.307387 0.383781 0.0114911 -0.289478 0.0949708 0.0308486 -0.187679 -0.144155 -0.313787 -0.514706 0.263294 -0.201489 0.213948 -0.066433 -0.20333 -0.260571 -0.16558 0.0313346 0.0122445 -0.0692876 0.165659 0.289736 0.394725 -0.602374 -0.107648 0.25661 0.113926 -0.148774 -0.0455236 -0.341268 -0.0788635 -0.0561166 0.445648 -0.220153 0.130949 0.0969933 0.0373433 0.352795 0.100648 -0.127573 0.0252948 -0.258927 0.133534 0.192174 -0.0784322 -0.0798832 -0.321065 0.145557 0.290372 -0.113885 0.151602 0.100187 -0.320603 0.387767 -0.293669 0.187304 -0.636011 -0.176597 0.383118 -0.250509 0.484 0.0872987 0.345902 0.0461759 0.336183 0.126501 0.255606 -0.338771 -0.0560221 0.0297579 0.130463 -0.0830556 0.453525 0.04053 -0.138988 0.00920105 0.283864 0.160166 -0.0140833 0.174677 -0.470501 0.0956903 0.135179 -0.097726 0.239368 0.136463
45 0.136139 0.291382 -0.0669242 -0.121307 -0.292858 -0.436623 -0.111244 0.0347077 -0.608091 -0.29794 0.00190514 -0.109409 -0.148718 0.0490208 0.0404541 -0.0468656 -0.462284 0.25922 -0.399599 0.333674 0.325638 0.527378 -0.023038 -0.0347562 -0.461985 0.157212 0.165549 -0.4207 -0.264555 -0.361005 0.215801 0.167711 0.267542 -0.236721 -0.300135 -0.451967 0.115773 -0.215169 -0.285856 0.29414 0.218969 -0.298446 0.264729 0.0891158 -0.169081 -0.0932816 0.154592 -0.132011 -0.343572 -0.260525 -0.111263 -0.497018 0.40751 -0.156549 0.108631 -0.0804731 0.51063 -0.134823 0.324389 -0.604283 -0.562346 -0.23112 0.0684159 0.273629 0.396009 -0.424911 -0.33862 0.653868 -0.0474709 -0.316604 -0.340022 -0.228073 -0.183654 -0.25419 0.279575 -0.430946 0.300966 0.608455 -0.183138 0.221851 -0.174814 0.145818 -0.199032 0.317338 -0.267058 0.0288823 -0.389612 -0.31657 0.308338 0.25535 0.143006 -0.555326 0.16 0.12832 -0.323843 0.448364 -0.165741 0.233624 0.182373 -0.271247 0.213949 -0.0364775 0.00575911 0.382061 0.122619 -0.0996408 0.202559 0.2774 0.344023 0.0335056 -0.571788 -0.0456807 0.254682 0.129348 0.0909833 0.240643 -0.316876 -0.237867 0.292224 0.286039 0.154018 0.504138 -0.208788 0.27063 0.122112 0.093499 -3.15235e-05 0.16337
46 0.119217 0.23861 -0.404727 -0.028765 -0.262168 -0.207848 0.421265 -0.136222 -0.196627 -0.193742 -0.0537753 -0.278499 -0.219022 0.0939877 0.14136 -0.273525 -0.200811 0.300469 -0.507599 0.173405 0.315659 -0.0827352 -0.187673 0.510676 -0.116839 0.299654 -0.382076 -0.343733 -0.058962 -0.306549 0.153439 0.162078 0.0732788 -0.441675 -0.147822 -0.19441 0.18524 -0.104017 -0.147797 0.00768338 0.224509 0.078352 0.193659 0.151144 -0.302678 -0.0766796 -0.0805501 0.109711 -0.275045 -0.245993 -0.676337 -0.167741 0.387622 -0.00309041 0.168936 -0.149722 0.0641173 -0.23354 0.186256 -0.367559 -0.279825 -0.296669 0.339853 0.276679 0.465983 -0.302027 -0.142376 0.197293 -0.0463064 -0.112575 -0.164692 -0.27971 -0.266322 -0.347594 0.0893016 -0.319599 0.333869 0.292721 -0.265494 0.192446 0.0336489 -0.040334 -0.436954 -0.261383 -0.190254 0.0658227 -0.36869 0.0208859 0.0532268 0.4283 0.184792 -0.612823 0.239884 0.183446 -0.254607 0.111902 0.0729336 0.354526 -0.218137 -0.475392 0.528401 -0.189766 0.0873894 0.325236 0.286862 0.0991902 0.207978 0.192013 0.23943 -0.143213 -0.20362 -0.334302 0.160077 -0.311028 -0.0818071 0.0225179 -0.266714 -0.270965 0.265545 0.125904 -0.0819969 0.300997 -0.104094 0.115373 -0.0814751 -0.040155 0.13924 0.10604
47 0.403536 0.307868 0.00351103 0.240959 -0.231064 -0.170347 0.0316416 0.498896 -0.0390809 -0.0664245 -0.228058 0.248951 -0.273724 0.14345 0.251432 -0.245347 -0.276097 0.289367 -0.0135121 0.268092 0.0721966 0.547344 -0.25614 0.319923 -0.293412 0.25986 -0.216522 -0.0043498 -0.228958 -0.193352 0.19388 -0.213259 -0.0766355 -0.180836 -0.279573 -0.293923 0.356072 0.117505 -0.257552 0.272029 0.0549186 0.168794 0.341743 0.0469369 -0.231151 -0.0770873 0.586884 0.0954006 -0.175695 0.0222202 0.239857 -0.201823 0.152474 -0.344623 0.149347 -0.555047 0.200343 -0.270221 0.139411 -0.206423 -0.329657 -0.325221 0.213299 0.112068 0.148274 -0.196461 -0.0481763 0.308065 0.380875 -0.288702 -0.14737 -0.0348049 -0.302945 0.0729271 0.102055 -0.211649 0.0850391 0.120914 0.136726 0.381613 0.289757 0.0610913 -0.266654 -0.327418 -0.258143 0.0945927 0.0499538 -0.431711 0.113799 0.243057 0.236105 0.1733 0.20526 0.00956588 -0.389611 0.389278 -0.36466 0.370899 0.237418 -0.234856 0.0447379 -0.128061 0.154672 0.200451 0.143024 0.0391347 0.16949 0.285238 0.385757 -0.00682059 0.126616 0.0580004 0.6855 0.11614 -0.149991 -0.00414266 -0.0887156 -0.407382 0.172175 0.337254 -0.00930002 0.103586 -0.509538 0.451195 0.0183879 0.111311 0.0425765 0.133205
48 0.248549 0.164788 0.0806291 -0.0518548 -0.200862 -0.074431 0.304373 0.37868 -0.0663159 -0.229251 0.0031271 0.277425 -0.198175 0.425339 0.256774 -0.0348943 -0.320279 0.426168 -0.154636 0.151894 -0.0711691 0.387176 -0.215969 0.207219 -0.592236 0.317158 0.263643 -0.07798 0.0537984 -0.178876 0.1496 0.158776 0.154261 -0.0552402 -0.138078 -0.282601 0.307222 -0.0677052 -0.303592 0.0966567 0.0473252 -0.128079 0.187844 -0.0382599 -0.602019 -0.0273999 0.288806 -0.0247602 -0.0811198 -0.178872 0.0655511 -0.360948 0.248479 -0.316947 0.215588 -0.417858 0.228558 -0.159177 0.144641 -0.038997 -0.0768818 -0.225074 0.359891 0.280516 0.194011 -0.234801 -0.272295 0.360535 0.504623 -0.286512 -0.221729 -0.156532 -0.149465 0.23617 0.173051 -0.29411 0.163825 0.226625 -0.167086 0.471977 0.404937 0.114813 -0.267212 -0.0813306 0.34461 0.130311 -0.12545 -0.298346 -0.0168953 0.280955 0.0746409 -0.0923785 0.168802 0.123761 -0.225352 0.295198 -0.273774 0.235176 0.0989895 -0.138975 0.184479 -0.0826316 0.0560129 0.306123 0.223636 0.198153 0.288062 0.389859 0.44185 0.0980921 -0.00824958 0.0246021 0.181924 -0.271486 -0.0426195 0.142181 -0.375922 -0.260429 0.193025 0.241272 0.211157 0.107392 -0.429048 0.432874 -0.461146 -0.184837 0.0252456 -0.0183166
49 0.223267 0.215874 -0.203093 0.0754176 -0.200894 -0.170916 0.199921 0.196867 0.0190843 -0.180911 0.00066416 0.355509 -0.22169 0.647177 0.138807 -0.16854 -0.362236 0.245873 -0.3116 0.285177 0.107723 0.137694 -0.0390965 -0.228654 -0.0498015 0.247416 0.173862 -0.231825 -0.172792 -0.337297 0.417826 -0.0270255 -0.144333 0.0564196 -0.237087 -0.14574 0.112394 0.0396131 -0.313253 0.29348 -0.0380031 0.133327 0.322915 0.0576994 -0.195292 -0.271165 0.28593 0.0173008 -0.232465 -0.100628 -0.00099479 -0.313344 0.326089 -0.072464 0.265487 -0.198942 0.1897 -0.531348 0.162574 0.119111 -0.17366 -0.312688 -0.0106195 0.0963876 0.0283056 -0.190076 -0.453788 0.0203066 0.140746 -0.129365 0.143294 -0.417665 -0.19247 -0.357704 0.34481 -0.0456808 0.0693842 0.126425 0.0129361 0.351198 -0.10022 0.293026 -0.197699 -0.152296 0.47413 0.0583391 -0.456988 0.147158 -0.171349 0.135343 0.243641 -0.358227 0.364254 0.293683 -0.20285 -0.074019 -0.0456239 0.211721 -0.112827 -0.304741 0.400801 0.0208612 0.322361 0.0665827 0.226628 0.172918 0.137389 0.207677 0.167562 0.140869 -0.347898 -0.178218 0.0458045 -0.374204 0.103648 0.345256 -0.353855 -0.294775 0.283881 0.0945674 0.517642 0.228185 -0.625754 0.653865 -0.238425 -0.384835 0.0695753 -0.0409673
50 0.266841 0.196892 -0.194107 -0.282795 -0.211398 -0.491667 -0.231542 0.350367 0.00553868 -0.189425 -0.209263 0.018189 -0.38025 0.656083 0.703516 -0.029431 -0.13646 0.402719 0.0876723 0.254549 0.154963 0.205612 -0.318225 0.177081 -0.00354009 0.181969 0.334835 0.20518 -0.000366914 -0.117536 0.367632 0.32608 -0.184478 -0.435726 -0.32225 -0.223806 0.260821 0.0747928 -0.211734 0.196797 0.138313 -0.105615 0.178084 0.166416 -0.597078 -0.13052 0.013358 0.0780148 -0.3493 -0.0124499 0.0486515 -0.291039 0.734366 -0.113284 0.193019 -0.340081 0.16478 -0.519076 0.283549 0.0971797 0.0397728 -0.213199 -0.124205 0.00546594 -0.0327704 -0.0792913 0.00508133 -0.0544025 0.238235 -0.265428 0.0196161 -0.647079 -0.132068 -0.188 0.208596 -0.305697 0.187399 0.188685 -0.14061 0.374328 -0.269476 0.59357 -0.617375 0.135846 0.649398 -0.198757 -0.592221 0.203885 0.0782254 0.164793 0.241403 -0.277468 0.467694 0.182713 -0.178827 0.192296 -0.0713468 0.255656 -0.243915 -0.23945 0.400708 -0.00372252 0.131022 0.492129 0.179026 0.0499608 0.139661 0.112976 0.375588 0.188615 -0.0198123 0.0400278 -0.00467085 -0.509067 -0.00740256 0.143086 -0.289399 -0.51223 0.424933 0.976078 0.234928 0.00737923 -0.774308 0.639953 -0.291728 -0.046385 0.338843 0.0322082
51 0.233821 0.229157 -0.162052 0.164275 -0.299821 -0.393321 0.0435207 0.149011 -0.088683 -0.415246 -0.184704 0.249608 -0.364586 0.211024 0.0411334 -0.21613 -0.157089 0.154715 -0.01256 0.252915 0.106286 0.200295 -0.312141 0.209557 -0.212293 0.440686 -0.310612 -0.251132 -0.256066 -0.372196 0.327098 0.135702 0.379736 -0.222912 -0.187965 -0.332775 0.313493 -0.029432 -0.127919 0.167962 0.11609 0.274817 0.192002 0.140641 0.217498 -0.294729 0.545362 0.0487758 -0.135479 -0.123735 -0.19118 -0.16562 0.162867 -0.32817 0.371413 -0.239063 0.423002 -0.0675998 0.182915 -0.0993919 -0.185811 -0.255428 -0.107318 0.116761 0.243178 -0.258419 -0.139471 0.21246 -0.0777969 -0.362011 -0.0109569 -0.189239 -0.269628 0.0446388 0.428464 -0.18037 0.0891911 0.0956539 -0.156415 0.19303 0.326331 0.196773 -0.224863 -0.331301 0.0714407 0.217652 -0.0432996 -0.299546 -0.423724 0.304705 -0.0832751 -0.0990927 0.19521 0.112049 -0.157892 -0.0788335 -0.272922 0.156149 -0.0717878 -0.166975 0.18499 -0.176327 -0.0151301 0.220226 0.331675 -0.000715308 0.199419 0.119951 0.330893 -0.151958 -0.0455092 -0.232211 -0.0533612 0.01246 -0.0816633 0.403232 0.0920638 -0.137926 0.410205 0.301479 0.487147 -0.0284072 -0.0949049 0.229082 0.0794257 -0.0430716 0.313375 0.0418668
52 0.280763 0.440628 -0.313934 -0.0323586 -0.284747 -0.105201 -0.161296 -0.121301 -0.439786 -0.303575 -0.923952 0.212295 -0.244227 -0.0118072 0.277036 -0.30989 -0.270879 0.249205 -0.0596776 0.356799 0.388012 0.161139 -0.196908 0.152083 0.108382 0.0900666 -0.0835883 0.000237354 -0.303972 -0.199853 0.3255 0.215099 0.189021 0.132277 -0.193827 -0.259878 0.0661651 -0.0846928 -0.362162 0.393104 0.172607 0.133416 0.293222 0.34808 -0.268845 -0.343709 -0.19376 0.0582118 -0.202704 -0.314852 0.0957942 -0.183417 0.122482 -0.311462 0.257457 -0.160957 0.501967 -0.128255 0.215986 -0.21227 0.0409398 -0.338077 0.333928 0.117469 0.1756 -0.325839 -0.078075 0.215084 0.0475959 -0.30897 -0.234137 -0.0952412 -0.196053 -0.132974 0.34331 -0.112439 0.451974 0.261708 0.250113 0.29489 0.698251 0.195116 0.119744 0.298113 0.0408767 0.313091 0.156047 0.101711 -0.0574355 0.376655 0.300248 -0.283119 0.19912 0.359475 -0.330216 0.214242 -0.184813 0.501181 0.116571 -0.184628 0.388303 -0.122244 0.127024 -0.233774 0.261186 0.0774375 0.0960543 0.286142 0.257082 -0.243086 0.144841 -0.146186 0.280124 0.277571 0.128294 0.467806 -0.361536 0.0971212 0.224823 0.158952 0.449928 0.0431249 -0.147175 0.307877 0.173509 0.192801 0.116317 0.260645
53 0.154498 0.288469 -0.217456 0.0194156 -0.199709 -0.138691 -0.406027 -0.266066 -0.30953 -0.109224 -0.253578 -0.0600157 -0.232274 -0.00282757 0.232143 -0.482398 -0.285446 0.127521 -0.0215416 0.293927 0.0285369 0.332784 -0.284777 -0.0855943 -0.0507528 0.387623 0.311957 0.118876 -0.393819 -0.275651 0.101457 0.303169 0.139644 -0.221024 -0.160293 -0.37179 0.317712 0.167091 -0.381549 0.328976 0.0193247 0.115612 0.102373 0.235746 -0.329779 -0.336453 0.0885741 0.197049 -0.265275 -0.114869 -0.289863 0.0232042 0.259178 -0.105756 0.198493 -0.109149 0.309273 -0.125788 0.23837 -0.182042 -0.0452099 0.00806635 0.326157 0.325358 0.221491 -0.199485 -0.39055 0.144778 -0.325098 -0.272093 -0.300991 -0.154103 -0.105819 0.189033 0.357192 0.0660824 0.195273 0.207047 0.0870379 0.233158 0.387564 -0.0806505 -0.0659998 0.0405417 0.372388 0.29631 -0.050358 0.0842765 -0.0444734 0.340968 0.0991586 -0.176449 0.264732 0.444008 -0.248166 -0.0274687 0.0875055 0.248035 0.084144 -0.355697 -0.0173428 -0.167976 0.244451 0.0562288 0.234304 0.270379 0.328933 0.189434 0.168425 0.00517613 -0.178613 0.147746 -0.00811523 0.339581 0.650033 0.378907 -0.125796 0.172178 0.162713 -0.162775 -0.266525 0.0701349 -0.349336 0.476392 0.154663 -0.35121 -0.159977 0.0420493
54 0.163924 0.228255 -0.0703607 -0.10246 -0.362526 -0.254843 0.208848 0.0375221 -0.0963019 -0.266322 -0.163535 -0.309923 -0.238584 0.310622 0.479518 -0.239766 -0.296874 0.364233 -0.00199794 0.171588 0.252689 -0.137451 -0.660016 0.85569 -0.180277 0.218305 -0.011054 0.00512192 -0.0850801 -0.317398 -0.0487197 0.117353 0.14798 -0.073203 -0.155113 -0.168782 0.417991 0.0560843 -0.328552 0.113907 0.0900877 -0.0946678 0.355527 0.368534 -0.249021 -0.236925 0.181144 0.21711 -0.0719378 -0.151648 -0.0299616 -0.159658 0.442012 -0.418016 0.461217 -0.225236 0.308927 0.0208134 -0.193025 -0.744725 -0.297327 0.0447655 0.0153287 0.187738 0.233935 -0.261558 -0.00724256 0.264246 0.599069 -0.22191 0.153387 -0.308468 -0.437894 -0.284693 0.157431 -0.569646 0.0583177 0.339962 -0.0532238 0.170405 0.13797 0.105167 -0.43344 -0.272549 0.0256213 0.206517 -0.304497 0.398667 -0.291772 0.13333 3.94874e-05 -0.121106 0.189646 -0.0261602 -0.288513 -0.00939315 -0.0267812 0.236092 -0.265914 -0.101208 0.416957 -0.172221 -0.0591057 0.0805504 0.187109 0.155257 0.273593 0.318691 0.380169 -0.0573131 -0.359535 -0.186528 -0.188358 -0.460645 0.0068367 0.294122 -0.772339 -0.234366 0.468753 0.0185837 -0.384739 0.428541 -0.161919 0.0129444 0.0965045 -0.154071 0.0144185 0.437419
55 0.333919 0.290419 -0.0055419 0.00856046 -0.132044 -0.259987 0.10289 -0.111435 -0.0322469 -0.174276 -0.118802 -0.354537 -0.230411 0.140596 0.362057 -0.247228 -0.199298 0.0871994 -0.0468339 0.243656 0.338196 0.109895 -0.190701 0.277737 -0.182966 0.0737028 0.27122 -0.0895254 -0.0468244 -0.40482 0.0707181 0.227626 -0.127195 0.0583937 -0.19417 -0.265263 0.267128 0.07784 -0.308179 0.247211 0.225629 0.293121 0.402339 -0.110124 -0.270498 -0.164726 0.0639089 0.10289 -0.118197 -0.18687 0.0523973 -0.281336 0.0292821 -0.33429 0.243705 -0.124467 0.538771 -0.129607 -0.00191945 -0.216132 -0.552018 -0.0537069 0.256468 0.171489 0.042685 -0.312314 -0.4852 0.0982562 0.0149602 -0.152517 -0.0253428 -0.178341 -0.345484 -0.105442 0.248137 -0.0437578 0.141547 0.0660958 0.348888 0.180388 0.110867 -0.166198 -0.0969094 -0.663777 0.184074 0.197611 -0.242535 0.142314 0.00713481 0.132385 -0.0198462 0.154115 0.258914 0.376443 -0.214312 0.260498 -0.0606962 0.318134 -0.261694 -0.273057 0.346896 0.0848814 0.117787 0.255978 0.313862 -0.0408516 0.154803 0.309158 0.251835 -0.24064 -0.259648 -0.0290199 0.219074 0.0598543 0.0136717 0.36956 -0.149412 0.00869083 0.347788 -0.139385 0.0844132 0.419959 -0.0858628 0.0218931 0.188637 0.165105 0.30084 0.440017
56 0.396242 0.265601 -0.00421992 -0.141754 -0.278242 -0.264543 -0.0424032 -0.104372 0.155705 -0.185617 -0.100154 -0.226783 -0.278309 0.183453 0.277528 -0.383979 -0.422429 0.191179 -0.170046 0.219201 0.141574 0.0313304 -0.716058 0.696135 -0.185226 0.136367 0.242109 -0.258718 -0.152673 -0.523656 0.124672 0.28139 -0.220293 -0.0377693 -0.296552 -0.21254 0.202069 -0.0476207 -0.33857 -0.0278518 0.119267 0.448999 0.365648 0.401096 -0.0803628 -0.367806 -0.135118 0.545767 -0.257648 -0.163471 0.000398925 -0.202212 0.118761 -0.157907 0.378444 -0.113253 0.104306 -0.16164 -0.07642 -0.517636 -0.54433 -0.0189421 0.27784 0.304082 0.0397932 -0.254527 -0.191326 0.193671 0.415067 -0.302963 -0.121801 -0.248226 -0.479749 -0.255325 0.220269 -0.16201 0.138482 0.0119942 -0.229617 0.211467 -0.245672 -0.00505194 -0.627044 0.000443368 0.0815497 0.3877 -0.312329 0.292781 -0.169784 0.291666 0.191302 -0.288005 0.372986 0.185338 -0.13215 0.406607 0.00355049 0.299847 -0.636233 -0.299199 0.291453 -0.0680257 0.0586848 0.357586 0.348502 0.0661601 0.104501 0.301524 0.260711 0.0479565 -0.0783322 0.0269454 -0.109929 -0.490811 -0.0391067 0.399186 -0.349864 -0.113938 0.267118 -0.00375666 0.096227 0.374475 0.076964 -0.0675766 -0.18891 0.439979 0.198074 0.423428
57 0.348975 0.166882 -0.160583 -0.678651 -0.296245 -0.038156 0.181078 -0.211918 0.049274 -0.143935 -0.160087 0.0254005 -0.246204 0.232804 0.185563 -0.198167 -0.241951 0.216922 -0.00863615 0.28372 0.12099 -0.0188284 -0.341442 0.271065 -0.105985 0.304095 -0.185395 0.0233054 0.0390483 -0.322751 0.109966 0.359812 -0.0991672 0.0108379 -0.389987 -0.315646 0.147548 0.0427471 -0.270304 0.0723564 0.16157 0.273493 0.298274 0.2803 -0.174644 -0.172008 0.0388465 0.127552 -0.247816 -0.161908 0.0629527 -0.036378 0.366838 -0.312518 0.300041 -0.0560192 0.461137 0.0491702 -0.205918 -0.485496 -0.364396 -0.101115 0.0675461 0.361422 0.154767 -0.192541 -0.218088 0.286522 0.437035 -0.162164 0.196651 -0.0387742 -0.409543 -0.156561 0.192967 -0.387151 0.0288794 0.663555 0.191826 0.339571 -0.303917 0.0761478 0.0313734 -0.203558 -0.0228193 0.238289 -0.244536 0.2515 0.280374 0.27804 0.475956 0.024313 0.269793 0.293837 -0.054167 0.0363278 0.0296735 0.403294 -0.204408 -0.192437 0.275643 0.0441549 0.170452 0.377695 0.144512 -0.0291435 0.0736975 0.363452 0.281452 0.0365239 -0.171503 -0.100261 0.0097238 -0.433402 0.110771 0.336811 -0.620555 0.0356549 0.202731 -0.0885107 -0.0313233 0.239665 -0.0992458 0.0120609 0.161762 0.117728 -0.00585012 0.309805
58 0.218873 0.198925 0.024781 -0.603091 -0.113599 -0.136067 -0.323293 -0.203725 -0.0575449 -0.103189 -0.259457 -0.425695 -0.206392 0.216082 0.30288 -0.253588 -0.217686 0.154171 -0.0218307 0.295972 0.144465 0.0772918 -0.272657 0.448686 -0.168463 0.278998 -0.239616 -0.433372 -0.0235644 -0.301095 0.131696 0.0353197 -0.0369243 -0.204315 -0.184844 -0.194076 0.386281 0.129469 -0.121384 0.27035 0.0420344 -0.0787013 0.236088 0.300295 -0.109246 -0.118287 0.178208 0.107151 -0.238522 -0.0765313 -0.0680699 -0.195121 0.100249 -0.232063 0.340429 -0.035743 0.206611 -0.183482 -0.177665 -0.525205 -0.426464 -0.0318763 0.176229 0.280837 0.189736 -0.20131 -0.216782 0.176439 0.500264 -0.166407 -0.0322087 -0.225831 -0.290884 -0.190547 0.209998 -0.112331 0.0533075 0.249655 -0.160951 0.0959711 0.224745 -0.0294856 -0.663666 -0.193079 0.057249 0.172037 -0.274267 0.270501 -0.142486 0.342429 0.19735 -0.338489 0.280318 0.245401 -0.319517 -0.158885 -0.165577 0.14166 -0.38976 -0.12451 0.0819072 0.0126777 0.170456 0.130206 0.103784 0.128817 0.152557 0.37096 0.217044 -0.132282 0.0853057 -0.122332 -0.0451892 -0.189155 0.0301004 0.344897 0.0143205 -0.252593 0.285066 0.00702916 -0.211638 0.457318 -0.295389 0.146919 -0.202477 -0.202621 0.220905 0.0623698
59 0.249532 0.209306 -0.134893 0.379542 -0.207945 -0.0267557 0.233477 0.161968 -0.0518431 -0.129326 -0.108259 -0.138426 -0.265521 0.350572 0.299143 -0.189822 -0.192957 0.251818 -0.195709 0.177506 0.294127 0.0874675 -0.489438 -0.00958776 -0.1305 0.176001 -0.0336087 -0.115397 -0.185058 -0.340579 0.105039 0.29447 0.0947235 -0.231049 -0.259755 -0.240208 0.241641 -0.034151 -0.367758 0.215315 0.221715 0.298012 0.284688 0.603637 -0.166227 -0.304787 0.130769 0.246629 -0.394725 -0.24853 0.256005 0.0195579 0.204529 -0.202053 0.240812 -0.306172 -0.0404853 -0.0131062 -0.100763 -0.646645 -0.52053 -0.0859819 0.0883734 0.149835 0.194498 -0.196845 -0.024347 0.374747 0.370874 -0.232534 -0.0708204 -0.150514 -0.425243 -0.584544 0.1605 -0.202836 0.111305 0.504303 -0.180827 0.296797 -0.186691 0.135543 -0.291675 -0.128155 -0.0188301 0.382519 -0.030943 0.188598 0.0145536 0.275114 0.331301 -0.456983 0.217754 0.136274 -0.235823 0.562229 0.0921992 0.152749 -0.501047 -0.129121 0.350778 -0.0618343 0.0247133 0.400139 0.195314 -0.153648 0.265308 0.290571 0.226548 -0.0989699 0.0702666 -0.0610459 -0.045002 -0.190408 0.0417391 0.396718 -0.583398 -0.0601584 0.0503785 0.132702 0.0121952 0.344948 -0.147932 -0.0126265 -0.221871 0.132061 0.124488 0.281606
60 0.278543 0.456783 -0.228945 0.090868 -0.21705 -0.0447572 0.08091 -0.204379 -0.126251 -0.312398 -0.0703169 0.598791 -0.363551 0.125995 0.265542 -0.0449644 -0.260246 0.396838 -0.0731024 0.300465 0.215571 0.509476 -0.26905 -0.11852 0.197392 0.228352 -0.323677 0.0891773 -0.669629 -0.381008 0.359653 0.136683 0.166423 -0.0459296 -0.0970029 -0.231595 0.270587 -0.315358 -0.29625 0.253449 0.134126 -0.179644 0.135917 0.31539 -0.0431451 -0.286981 0.0643545 0.369799 -0.262118 -0.175933 -0.242814 -0.0487793 0.13851 -0.163384 0.23308 -0.0340418 0.690973 0.0532021 0.116402 -0.266855 0.193483 -0.1407 0.649532 0.126098 0.162355 -0.391958 -0.0473012 -0.075961 -0.106581 -0.404661 0.0191519 -0.242451 -0.103824 -0.115406 0.248816 0.103682 0.185008 0.372416 -0.127726 0.259034 0.795542 0.0200051 -0.110649 0.216362 0.4955 -0.0504345 -0.167124 0.321521 -0.095205 0.429862 -0.0271912 0.0742579 0.362089 0.621495 -0.146148 -0.146867 -0.21885 0.333071 0.0805802 -0.136362 0.112448 0.0399058 0.193686 -0.138413 0.326938 -0.0347252 0.160348 0.201786 0.184203 -0.439186 -0.26439 -0.235348 0.0433013 0.137415 0.310832 0.0270612 -0.0451542 0.299576 0.454251 -0.0709129 -0.463657 0.0693192 0.0173098 0.745444 0.114196 -0.638176 0.16576 0.162471
61 0.252479 0.252764 -0.246466 0.0129551 -0.240668 -0.34405 -0.234375 0.0810129 -0.59041 -0.324119 -0.126018 0.357142 -0.225714 0.0893462 0.305929 -0.19734 -0.271903 0.248708 0.0215318 0.370779 0.380224 0.245038 -0.244793 0.0832193 -0.0321656 0.254136 0.32251 -0.29379 -0.303518 -0.288729 0.227497 0.303916 -0.119402 -0.14357 -0.236264 -0.212927 0.128519 -0.430139 -0.327435 0.244672 -0.0410058 0.0580431 0.368097 0.349952 -0.0223411 -0.15867 -0.0477659 0.13019 -0.283788 -0.244259 0.0896485 -0.0973759 0.109898 -0.162182 0.224078 0.0971859 0.456646 -0.714625 0.255115 0.0171999 0.0666811 -0.00975677 0.103463 0.0711435 0.128587 -0.461722 -0.216158 0.0137116 -0.0352912 -0.315707 -0.158514 -0.152163 -0.279444 0.090569 0.382832 0.0271486 0.340593 0.122296 -0.219016 0.314552 0.420364 0.0868979 -0.0703636 0.132034 0.663029 0.0385168 -0.138557 -0.40814 0.0784794 0.342288 0.0890392 -0.152478 0.195789 0.141808 -0.294973 -0.0392625 -0.0081887 0.399267 0.00582127 -0.12352 0.12 -0.168222 0.446671 0.110908 0.452574 0.0254722 0.140387 0.241707 0.379519 -0.3323 -0.0878421 0.00635384 0.0584312 0.261136 0.0722317 0.495708 -0.0815924 0.128468 0.334311 -0.0659808 -0.177994 0.124773 -0.195441 0.386293 0.391932 0.0394614 -0.0798488 0.346983
62 0.314414 0.163183 -0.205101 0.231344 -0.143759 -0.272709 0.0921828 0.351539 -0.29857 -0.176309 -0.142884 0.0479704 -0.135033 0.130082 0.194292 -0.260552 -0.239827 0.309705 0.014288 0.251129 0.124954 0.165527 -0.198533 -0.0960988 0.019111 0.18374 -0.0511901 -0.451403 -0.107716 -0.20163 0.170566 0.292222 -0.390437 -0.241613 -0.312819 -0.187274 0.276109 0.0271244 -0.155305 0.178555 0.115613 -0.0281655 0.224488 -0.0460375 -0.0624034 -0.146983 0.420161 0.182144 -0.123792 -0.184427 -0.232029 -0.174073 0.0903963 -0.0953688 0.159229 -0.275179 0.182082 -0.167951 -0.0951233 -0.174324 -0.191723 -0.212435 0.320067 0.219754 0.217933 -0.187713 -0.0346803 0.201266 0.188434 -0.272785 0.244086 -0.161382 -0.254157 -0.17579 0.282503 -0.218162 0.304032 -0.00124381 -0.209639 0.198197 -0.0200484 0.243807 -0.0992165 -0.141228 -0.0726791 -0.0805959 -0.250083 -0.368208 -0.062393 0.141718 0.257909 -0.289361 0.242099 0.082148 -0.167741 0.135222 -0.167674 0.168662 -0.45322 -0.103834 0.381517 -0.0191618 0.0799888 0.185006 0.19214 0.160027 0.307625 0.21665 0.113921 0.112879 0.105535 -0.171351 0.0140147 -0.0994496 0.446446 0.0619399 -0.177158 -0.52733 0.279073 0.21433 0.451019 0.124557 -0.215021 0.0061727 -0.284586 -0.387563 0.21933 0.103598
63 0.509085 0.27493 -0.345976 -0.0741408 -0.315455 -0.0939977 0.129914 0.0552066 0.0629101 -0.201942 -0.0260042 -0.18303 -0.279824 0.141827 0.308912 -0.32836 -0.163728 0.00381836 -0.33461 0.261013 0.0418031 0.110442 -0.418895 0.476172 -0.223056 0.199066 -0.121899 0.343843 -0.149228 -0.252168 0.0473617 0.218243 0.331126 -0.0554626 -0.336062 -0.112424 0.24983 -0.132524 -0.175984 0.0897953 0.0515689 -0.0441713 0.283157 0.223664 0.0852541 -0.159789 -0.119329 0.0087174 -0.296057 -0.21778 -0.24192 -0.0813904 -0.0973947 -0.2394 0.206798 -0.451682 0.0114227 -0.027522 -0.415551 -0.733068 -0.313559 -0.139253 0.0486167 0.322078 0.170654 -0.33533 -0.178446 0.0797612 0.355734 -0.103071 0.221529 -0.209708 -0.386779 -0.0754862 0.146352 -0.0992003 0.00978832 -0.00254991 0.133929 0.178342 -0.034953 -0.044704 -0.4627 -0.186179 -0.273128 0.157995 -0.425667 0.255782 -0.3821 0.304659 0.249893 -0.124217 0.25141 0.0233051 -0.312407 0.26465 -0.179586 0.255594 -0.73134 -0.162315 0.186616 0.0191778 0.110086 0.342214 0.190627 0.331981 0.19025 0.280167 0.25707 0.0261474 -0.0199138 0.111982 0.124562 -0.249372 0.079031 0.220084 -0.484519 0.12471 0.222526 0.0288242 -0.0127475 0.309447 -0.270182 0.0425491 -0.192981 -0.0990595 0.102727 0.131137
64 0.320273 0.251485 -0.125645 0.140395 -0.305257 -0.145499 -0.158625 -0.0614371 -0.0654586 -0.218461 0.0165101 0.282403 -0.246991 0.0765601 0.107555 -0.272282 -0.192505 0.150204 -0.322736 0.281861 0.188402 0.120229 -0.33542 0.208556 -0.168306 0.236888 0.14827 0.15725 -0.0525917 -0.224175 0.158124 0.118969 -0.172961 -0.169868 -0.198311 -0.198531 0.161582 -0.0787071 -0.148655 0.279537 0.0766749 -0.047177 0.100286 0.0582053 0.161385 -0.248407 -0.0549525 0.352154 -0.0559116 -0.210177 0.376998 -0.0162991 0.185832 -0.34273 0.25812 -0.107172 0.373802 -0.0964196 -0.342588 -0.0573102 -0.559741 -0.209166 0.21896 0.248987 0.177408 -0.178091 -0.194578 0.28359 0.489057 -0.302408 0.00150175 0.0814553 -0.119736 -0.194623 0.159692 -0.309647 0.245301 0.415975 -0.0854502 0.208408 0.0786809 0.165902 -0.0487583 -0.292368 0.191391 0.320978 -0.0372795 0.118263 -0.149271 0.131201 0.0819214 -0.0820984 0.156824 0.0723245 -0.207376 -0.210258 -0.324602 0.320092 -0.300944 -0.0915671 0.287678 -0.0556738 0.202083 0.131633 0.262447 0.152889 0.12127 0.132314 0.38499 -0.147383 0.0637411 -0.157114 0.168355 -0.0496663 0.103024 0.0595398 0.0571505 -0.285 0.170997 -0.289238 0.050104 0.342888 0.0658537 0.161906 -0.186215 0.0874609 0.0275226 0.229962
65 0.206297 0.259784 -0.275058 0.141672 -0.288081 -0.272058 0.192852 -0.0979328 -0.0996914 -0.285483 -0.0155651 -0.0357676 -0.0874381 0.187194 0.184274 -0.256202 -0.214861 0.1791 -0.424147 0.309284 0.341071 0.119358 -0.374557 -0.015556 -0.300182 0.208397 0.166789 -0.00683241 -0.105158 -0.0517312 0.293564 0.101404 -0.170203 -0.213877 -0.264149 -0.281211 0.278082 -0.281614 -0.343209 0.171438 0.232024 0.375565 0.377811 0.44289 -0.390558 -0.0544267 -0.0845635 -0.140785 -0.0493169 -0.145852 0.0808203 -0.210789 0.236909 -0.261839 0.199241 -0.0607091 -0.0783419 -0.281896 0.27825 0.0620807 -0.040549 -0.204313 0.355396 0.327794 0.235425 -0.269665 -0.13332 0.0718086 -0.146487 -0.305509 0.119312 -0.208096 -0.19859 -0.200021 0.149364 -0.425934 0.238483 0.182809 -0.261919 0.123383 0.135071 0.192708 0.143354 -0.171437 0.156368 0.226278 -0.0740748 -0.00667417 -0.204565 0.0839107 -0.0669245 -0.239764 0.276743 0.244382 -0.123176 -0.243768 -0.189554 0.257025 -0.18046 -0.218239 0.190546 -0.108273 0.55836 -0.0557374 0.20061 0.0557143 0.356075 0.162244 0.169316 -0.483347 -0.231288 -0.315417 0.0282917 -0.151075 0.173353 -0.0451206 -0.268252 -0.0770318 0.143342 0.114968 0.0326592 0.0824298 -0.321448 0.204316 -0.264599 0.156472 0.285036 0.0613382
66 0.0392112 0.268525 -0.0967668 -0.171295 -0.271118 -0.353914 0.474819 0.487967 -0.0794713 -0.12867 -0.170297 0.201026 -0.240404 0.267499 0.247437 -0.103854 -0.129358 0.0774662 0.164358 0.203551 0.390687 0.212616 -0.137604 -0.0678567 -0.0237252 0.0590902 0.220326 -0.055527 -0.014837 -0.100601 0.312027 0.1584 -0.254826 -0.423791 -0.20707 -0.182594 0.227667 0.00964131 -0.290939 0.0997819 0.0564966 -0.138005 0.0481787 0.452274 -0.14393 -0.16468 0.028896 0.00754695 -0.188534 -0.0426465 -0.286218 -0.121339 0.373165 -0.233993 0.288867 -0.349209 0.37347 -0.440974 -0.0786966 -0.567134 -0.0286559 -0.2867 0.12982 0.0982874 0.0916198 -0.23471 -0.0301048 0.299373 0.171877 -0.29508 0.020133 -0.103813 -0.101981 -0.308011 0.101258 -0.498223 0.335167 0.134428 -0.00314057 0.226677 0.228911 0.40829 -0.250821 -0.111569 -0.114242 0.139147 -0.40815 -0.500818 -0.220013 0.217191 0.270797 0.00564896 0.312863 -0.0778901 -0.242284 0.632831 -0.523078 0.403715 -0.0743955 -0.337056 0.479318 -0.0243994 0.0791192 0.0261396 0.394411 0.385745 0.279198 0.060842 0.293673 0.290904 -0.143473 -0.0111958 0.22079 -0.0262532 -0.206333 0.251249 -0.020782 0.0979405 0.100748 0.117153 -0.311287 -0.00083633 -0.228829 -0.0916382 0.230118 0.237536 0.127176 0.28496
67 0.233476 0.209623 -0.154194 -0.00180485 -0.228028 -0.361785 -0.199618 0.198549 -0.266563 -0.156626 -0.185456 0.168821 -0.2238 0.303086 0.625949 -0.311407 -0.279063 0.183097 -0.097164 0.251695 0.197158 0.14251 -0.350133 0.158041 -0.0396512 0.0685892 0.198035 0.0525533 0.0473559 -0.293337 0.236485 0.142215 0.0157632 -0.224067 -0.118502 -0.142457 0.0921701 -0.037376 -0.22446 0.385635 0.106125 -0.425669 0.351879 0.143365 -0.142462 -0.2924 0.109796 0.0771013 -0.189335 -0.26827 -0.0870999 -0.0158217 0.337606 -0.352506 0.264984 -0.256137 0.0329828 -0.416044 -0.373374 -0.17406 -0.193727 -0.0898768 0.122437 0.309742 0.346953 -0.205431 -0.0168684 -0.01104 -0.0817029 -0.346442 -0.0601754 -0.0469946 -0.118776 -0.114055 0.24883 -0.0706199 0.490148 0.289832 0.0184683 0.243356 -0.0176546 0.67943 0.102067 -0.0304023 0.104035 0.281219 -0.376692 -0.339954 -0.422594 0.0791378 -0.00702099 0.0247869 0.218583 0.136093 -0.172034 0.0974363 -0.203978 0.25024 -0.198878 -0.315074 0.339276 -0.327628 0.0235127 0.39783 0.483172 0.169778 0.277296 -0.00381397 0.214964 -0.25214 0.119332 0.0305377 0.242829 0.189465 -0.417603 -0.214001 0.1793 0.093427 0.284426 -0.0798785 0.0333145 0.277148 -0.362092 0.0888619 0.221724 0.168827 0.12146 0.2016
68 0.216123 0.381951 -0.287266 0.0418138 -0.145569 -0.185181 -0.176185 0.198138 -0.329324 -0.129322 -0.415948 0.256919 -0.224004 0.0056207 0.170206 0.0631904 -0.2686 0.162941 0.00837077 0.211612 0.35151 -0.239328 -0.0937113 0.00714058 -0.100147 0.194432 0.228003 0.181363 0.0297925 -0.191138 0.378869 -0.0739452 0.102581 -0.265523 -0.188141 -0.228852 0.0954867 -0.266461 -0.181648 0.202248 0.0208788 -0.032642 0.0792052 0.107116 0.0300176 -0.223698 0.261357 -0.164412 -0.147707 -0.383111 0.00199046 -0.162185 0.0816446 -0.294098 0.231098 -0.0908301 0.0929661 -0.226015 -0.0365083 0.110747 -0.60753 -0.520333 0.441919 0.17636 0.317451 -0.13124 -0.100265 0.287963 0.20151 -0.282525 -0.371296 -0.172637 -0.263381 -0.298091 0.202567 0.0226255 0.3218 0.0305597 0.230799 0.261899 0.0788235 0.511866 -0.155107 0.0515382 0.0406263 0.00636136 -0.154495 -0.353063 -0.135689 0.158305 -0.0265789 -0.23694 0.105948 0.257938 -0.173948 0.328117 -0.365367 0.313168 -0.533868 -0.22232 -0.00277709 -0.327889 -0.020579 0.0210267 0.158163 -0.026279 0.208739 0.0990525 0.247627 -0.410554 0.151104 -0.019607 -0.102367 -0.285778 0.131012 0.191924 0.0319287 -0.0384986 0.387901 0.122339 -0.179858 0.184947 -0.3365 0.404891 0.119358 -0.146777 0.212989 0.0547535
69 0.229094 0.274111 -0.230129 -0.414565 -0.201711 -0.348332 -0.0768442 0.414799 -0.0569322 -0.251687 -0.25407 0.354217 -0.0854316 0.518865 0.0342144 -0.211189 -0.232826 0.277248 -0.089147 0.326669 0.18586 -0.0190298 -0.0221104 -0.221845 -0.0127532 0.135335 0.131278 0.025391 -0.290469 -0.166752 0.362184 -0.186565 -0.0564258 -0.428128 -0.221888 -0.227365 0.0646458 -0.195648 -0.229313 0.310728 -0.0273913 0.127441 0.297437 0.0900491 0.19571 -0.163847 0.137399 0.276664 -0.0947166 -0.329378 -0.0536237 -0.0802243 0.270587 -0.259391 0.214294 -0.491465 0.110957 -0.122823 0.0799277 -0.338025 -0.0285773 -0.344336 -0.0598958 0.382789 0.22755 -0.0852244 -0.270534 0.155451 -0.119747 -0.202028 -0.203975 0.0782305 -0.203356 -0.415299 0.161627 -0.109967 0.209471 -0.116525 0.0781825 0.250189 -0.0255631 0.116862 0.0883373 -0.229803 0.022694 0.0887154 -0.165334 -0.484665 0.233079 0.125656 0.296087 0.15204 0.340652 0.249433 -0.316044 0.491283 0.0198194 0.133241 -0.197194 -0.325194 0.0912058 -0.0763248 0.0509562 -0.099794 0.381511 0.2497 0.217602 0.139677 0.186498 -0.210005 0.104865 0.152466 0.0790154 -0.370555 -0.144731 0.208643 -0.195622 -0.0191101 0.198162 -0.0580857 0.0853591 0.388566 -0.0948748 0.522026 -0.394136 -0.106029 0.188932 0.218759
70 0.166874 0.367136 -0.0665583 -0.305895 -0.118902 -0.242153 -0.0364235 -0.141126 -0.238263 -0.185608 -0.248122 0.299686 -0.2774 0.154048 0.343565 0.0305107 -0.311301 0.24085 -0.097221 0.243218 0.11422 0.34647 -0.309467 -0.172727 -0.108265 0.210237 0.444189 0.343008 -0.0506593 -0.0794781 0.353231 -0.0710401 -0.501719 -0.366342 -0.223112 -0.145205 0.247346 0.0597912 -0.148593 0.145239 0.226185 -0.198126 -0.0413929 0.122811 -0.0683503 -0.361716 -0.122693 0.398283 -0.232526 -0.197909 -0.304726 -0.355736 0.236588 -0.109415 0.107506 -0.134295 -0.0417101 -0.1902 -0.0575806 0.073117 -0.231246 -0.00481866 0.174241 0.0802604 0.0507566 -0.180681 -0.209913 -0.0471647 0.0558093 -0.124316 -0.196005 -0.746918 -0.280776 -0.248012 0.216605 -0.035631 0.151129 0.378644 -0.339357 0.171249 0.547747 0.974497 -0.695844 -0.0486731 0.267632 0.0556356 -0.363181 -0.197601 -0.182537 0.160566 0.322956 -0.306401 0.48805 0.22215 -0.19672 -0.0386361 -0.16775 0.211025 -0.239625 -0.239915 0.182781 -0.29563 0.181464 0.586868 0.13647 -0.0957099 0.291867 0.182758 0.262883 0.0078823 -0.20323 -0.212746 0.194962 -0.0193731 -0.073956 0.274214 -0.249438 -0.204873 0.283656 0.295699 -0.137914 0.237345 -0.463116 0.408628 -0.0844772 -0.354009 0.3283 -0.0144459
71 0.371886 0.394714 -0.191922 -0.445349 -0.220445 -0.563871 -0.13765 0.402891 -0.00249165 -0.169032 -0.0987081 0.0938255 -0.375842 0.647234 0.458506 -0.0591306 -0.499985 0.320878 0.411049 0.269211 0.159272 0.33984 -0.270735 -0.0909924 -0.206834 0.327632 0.542629 -0.0310285 0.211559 -0.271209 0.150665 0.244522 -0.426503 -0.432941 -0.258145 -0.212133 0.197648 0.393211 -0.22237 0.217429 0.273343 -0.272883 0.255619 0.128616 0.0486325 -0.304025 0.0589627 0.185336 -0.160577 -0.192194 -0.00897869 -0.418711 0.413484 -0.0654312 0.252684 -0.28205 0.0548568 -0.627059 -0.0963485 0.234745 -0.270902 -0.184729 -0.154875 0.249779 0.222557 -0.296816 -0.0785889 0.0857683 0.431833 -0.209057 0.221681 -0.277695 -0.226546 -0.566682 0.280708 -0.440373 0.272889 0.0831356 -0.116956 0.299838 -0.0828473 0.092588 -0.33664 0.208285 0.161986 0.27602 -0.251506 0.128835 -0.00495504 0.0920222 0.300083 -0.286765 0.479988 0.08533 -0.226275 0.263978 -0.166579 0.270039 -0.119864 -0.228212 0.27366 -0.171069 0.295669 0.199702 0.0558352 0.371149 0.11822 0.155841 0.233814 0.0536876 -0.140764 0.0949596 0.220839 -0.532322 0.163258 0.323391 -0.186472 -0.363567 0.178117 0.258515 0.148713 0.233541 -0.24153 0.415805 -0.0424597 -0.201267 0.335711 0.0780211
72 0.193024 0.176463 -0.166331 0.102293 -0.401551 -0.0506627 0.43318 -0.0409184 -0.139051 -0.318835 -0.0569915 0.233086 -0.22431 0.188354 0.120693 -0.225698 -0.231459 0.246241 -0.218202 0.276267 0.2632 -0.0506419 0.0636776 -0.304694 0.0274277 -0.0129421 0.211004 -0.113905 -0.104618 -0.0288351 0.295946 -0.10465 -0.151963 -0.201606 -0.322649 -0.0953595 0.212571 -0.677295 -0.155288 0.4127 0.222413 0.165626 0.0757664 0.227961 0.349616 -0.388751 0.338254 0.164699 -0.229156 -0.352459 0.213321 -0.0201517 0.486582 -0.241272 0.282366 -0.322729 -0.0577139 -0.066557 0.523826 0.0456774 -0.188488 -0.446885 0.405006 0.18337 0.230859 -0.200567 -0.00591962 0.182759 0.000547966 -0.46239 0.0847212 -0.614036 -0.456722 -0.416935 0.231696 -0.212633 0.18374 0.103953 -0.123969 0.293415 -0.302247 0.026984 0.0376839 -0.0210135 -0.0149181 0.188357 -0.0231587 -0.0826121 -0.190938 0.0173849 0.344164 -0.223673 0.175306 0.0997153 -0.248471 0.489224 -0.0726893 0.161031 -0.443823 -0.463877 0.103563 0.0311606 0.333345 0.572881 0.142674 0.0994416 0.169998 0.174683 0.140514 0.0104535 -0.142445 0.123802 0.0449667 -0.138378 -0.0265038 -0.0398883 -0.151309 -0.212367 0.135273 0.293493 0.517988 0.105276 -0.830296 0.0781131 -0.140245 0.173376 0.190411 -0.152642
73 0.171883 0.130853 -0.161692 0.10562 -0.233164 0.0461541 0.246271 0.383906 -0.414204 -0.143742 0.207986 0.0346957 -0.258228 0.236143 0.0283715 -0.282385 -0.323281 0.469964 -0.0684085 0.311754 0.463442 0.166572 0.12851 -0.0650322 -0.349674 0.2241 0.47803 -0.217335 -0.179421 -0.27025 0.255977 0.163681 0.0293053 -0.146727 -0.15523 -0.186008 0.181624 -0.234262 -0.176429 0.118567 -0.0462407 0.17636 0.171534 -0.0351491 0.309555 -0.252028 0.541339 0.307646 -0.0926013 0.0690632 0.294503 -0.165754 0.416708 -0.0726631 0.160239 -0.360073 0.151423 -0.0747604 0.432838 -0.345615 -0.220559 -0.533058 0.536883 0.00738763 0.293029 -0.256961 -0.147972 0.130439 -0.142842 -0.155097 0.0464365 -0.325543 -0.277009 -0.205677 0.181652 -0.126989 0.216326 0.230142 -0.132323 0.255221 0.148613 -0.0687335 0.020014 -0.0614394 -0.00267196 0.438074 0.0565551 -0.000380411 -0.291287 0.214573 -0.0198242 -0.0687988 0.192293 0.0449804 -0.200224 0.00769944 -0.0906742 0.060764 -0.379248 -0.338942 0.241119 -0.0477272 0.419071 0.095036 0.20925 -0.0547168 0.290893 0.212509 0.219122 -0.240821 -0.0923369 0.0998375 -0.0596633 0.206168 0.496387 0.28265 -0.228396 -0.429252 0.12058 -0.00642953 0.568536 0.0666289 -0.262988 0.0813792 -0.121671 0.16194 -0.0248193 0.415893
74 0.175725 0.228873 -0.126146 0.278385 -0.290043 -0.100581 0.0664469 0.39588 -0.278015 -0.240708 -0.110332 0.258373 -0.193074 0.142355 0.195225 -0.0369244 -0.33007 0.23746 -0.00997241 0.15117 0.235912 0.26054 -0.148306 0.138102 0.101081 0.129359 -0.0902061 -0.353814 -0.145659 -0.25986 0.182618 -0.194953 -0.393356 -0.318174 -0.150118 -0.330606 0.414055 -0.191922 -0.27847 0.159114 0.0597691 0.00971259 0.0915914 0.148527 -0.144875 -0.229875 0.354962 0.168104 -0.272976 -0.053634 -0.568222 -0.142673 0.0429468 -0.286191 0.125234 -0.231278 0.0637574 -0.0852431 -0.071389 -0.198165 -0.253788 -0.292314 0.206501 0.134624 0.146985 -0.168246 0.0789047 0.379276 0.00784343 -0.254531 -0.0516523 -0.191218 -0.232906 -0.112127 0.245475 -0.148489 0.253582 0.154459 -0.153605 0.325433 0.287491 0.185225 -0.0393191 0.0359482 0.194377 0.122396 -0.116355 -0.042739 -0.199435 0.117864 -0.0245912 -0.335382 0.394065 0.239127 -0.157939 -0.0587771 -0.281063 0.173236 -0.193665 -0.159208 0.271353 -0.084107 -0.0880047 0.349799 0.252138 0.0682607 0.290966 0.335705 0.247471 0.0870418 -0.045854 0.0335173 -0.0593942 -0.0269996 -0.274202 0.0819199 -0.142742 -0.123541 0.211089 0.277994 0.196493 0.182655 -0.146492 0.211007 -0.00246452 -0.128918 0.0321366 0.210755
75 0.235676 0.265379 -0.0504051 0.224867 -0.119426 -0.00450014 0.159328 0.428563 0.0738959 -0.375831 -0.375845 0.446737 -0.347436 0.097009 0.240311 -0.0173353 -0.413712 0.364475 0.136002 0.202664 -0.105452 0.253628 -0.0315609 0.332376 -0.362953 0.109976 0.00535315 0.0133668 -0.213561 -0.0765378 0.176181 0.273212 -0.441252 -0.0393829 -0.276836 -0.270749 0.222839 -0.355407 -0.219623 0.0482659 -0.0573589 0.106497 0.460634 0.0555291 -0.188381 -0.220246 0.342012 0.139144 -0.25767 -0.206795 0.228286 -0.118074 0.0174805 -0.07633 0.239753 -0.317033 0.30725 -0.190653 0.0987845 -0.0527113 -0.410808 -0.0610014 0.0915266 0.155136 0.170415 -0.14985 -0.291536 0.276594 0.685396 -0.213756 -0.0110666 -0.257065 -0.275109 -0.277796 0.057746 -0.287605 0.279326 0.0721612 -0.357791 0.242305 0.297089 0.256215 -0.0223364 -0.10671 0.0162581 0.102646 0.0986135 0.0384984 -0.39678 0.33298 0.106514 0.0455342 0.100419 0.138736 -0.341211 -0.00300851 -0.260318 0.240059 -0.0842622 -0.184627 0.163862 -0.201643 -0.0523942 0.338932 0.100474 -0.214071 0.210549 0.527186 0.172757 0.165776 -0.0640638 0.0700771 0.561496 -0.291363 0.210784 0.304932 -0.412625 -0.414356 0.0935766 -0.0460811 -0.0129028 0.0738672 -0.186796 0.0686314 -0.288656 -0.223628 0.231956 0.0266201
76 0.533788 0.124617 -0.149573 0.0591442 -0.197489 -0.0879772 0.282831 0.459266 -0.0649968 -0.0733481 0.179303 0.118133 -0.330035 0.197232 0.215376 0.00272594 -0.276125 0.402207 -0.344889 0.299901 0.0537269 0.497175 -0.118371 0.340342 -0.455834 0.364897 -0.0608397 0.0664665 -0.537119 -0.181191 0.0399499 0.242143 -0.139654 0.168626 -0.185856 -0.37227 0.453112 -0.0931022 -0.407248 0.105014 0.180813 -0.091283 0.321564 -0.143505 -0.644132 -0.0397486 0.496299 0.202554 -0.119689 -0.183031 -0.118182 -0.381541 -0.0373398 -0.111862 0.0941174 -0.563664 0.163824 -0.113585 0.0445169 -0.00599711 -0.407798 -0.558746 0.226516 0.098652 0.049653 -0.0234545 -0.327795 -0.0146395 0.24385 -0.231207 -0.295674 -0.32693 -0.240003 0.223459 0.0901498 -0.452291 0.196619 -0.0459068 -0.0312851 0.355532 0.324457 0.0618241 -0.164804 -0.724886 -0.012517 0.129767 -0.216034 0.0600001 -0.147956 0.214609 -0.171732 0.144621 0.32122 0.297456 -0.340622 0.135565 0.0614865 0.116449 0.196084 -0.228206 0.196119 -0.210643 0.177759 0.261967 0.0495387 0.145193 0.132505 0.23235 0.288047 0.00240469 -0.0514234 -0.193411 0.500936 -0.476963 -0.104946 0.348248 -0.371224 -0.603534 0.024399 0.131547 0.200174 0.0934487 -0.417338 0.585384 -0.584329 0.0961526 0.0754197 0.180902
77 0.393113 0.230137 -0.140903 0.136804 -0.234781 -0.442702 -0.228336 -0.11641 -0.261339 -0.191515 0.0249931 0.0638917 -0.137894 0.0985879 0.233938 0.0376153 -0.144113 0.214183 0.227612 0.354872 0.14246 0.34429 -0.415003 -0.0138259 0.0148401 0.0699726 -0.516745 -0.0533911 0.0742149 -0.104427 0.149544 0.0321012 -0.0271679 -0.513345 -0.348445 -0.185633 0.0790042 -0.190376 -0.206871 0.00709067 0.819641 -0.0990705 0.115881 -0.318686 -0.426924 -0.208676 0.18438 0.226932 -0.121392 -0.114906 0.0963944 -0.294256 0.322505 -0.38183 0.244419 -0.351432 0.0762487 -0.192211 -0.100591 0.0645087 -0.243141 -0.246031 0.504459 0.128662 0.0576566 -0.351233 -0.295802 0.0614065 0.090805 -0.313432 -0.23979 0.043116 -0.270875 -0.424354 0.229477 -0.194707 0.0827359 0.0608143 -0.0676507 0.221988 0.504696 0.186572 -0.731759 -0.262238 -0.320799 -0.0973825 -0.499817 -0.0210513 -0.0525291 0.262429 0.327972 -0.217587 0.293088 0.0210974 -0.0942652 0.0117968 -0.603384 0.119981 -0.142686 -0.0888131 0.33528 -0.384982 0.409898 -0.17454 0.14494 -0.0860799 0.177745 0.282335 0.139055 -0.339104 0.0230637 -0.263668 0.0745485 0.122762 0.598774 0.202755 -0.17804 -0.475441 0.310591 0.129413 -0.120793 0.277593 0.171422 0.0824695 0.16438 -0.0852235 0.408044 0.106519
78 -0.019603 0.0154334 0.0290885 -0.014816 -0.0350188 0.0236193 -0.0395386 -0.0175346 0.0331971 -0.0672921 0.0199872 0.0121303 0.0926308 0.0696667 0.0230305 0.0433636 -0.0602859 0.0217146 0.0184966 0.0244851 -0.0183077 0.0436481 -0.029919 0.0356325 0.00585828 -0.0575154 -0.0434658 0.0143265 -0.00864269 0.0275151 -0.043548 0.0679035 -0.00435018 0.0347917 0.0212404 0.0175217 0.0309833 -0.00943855 0.0698297 0.00319896 0.0702501 0.0147436 0.0103207 0.0466722 0.00499814 0.0591167 -0.0291613 -0.0576675 0.0321356 0.0504681 -0.00884516 -0.00227461 0.0464922 -0.047454 0.0341665 -0.012733 0.0124055 -0.00145689 -0.0409531 -0.0720918 0.0244646 -0.00155699 -0.00621229 0.0644756 -0.0678438 -0.0211052 0.0938074 -0.00494357 0.0463999 -0.0262847 0.0413172 0.00710219 0.0418131 -0.0259511 -0.0089073 -0.081903 -0.0354558 -0.0151478 0.00888663 -0.0474749 0.040682 -0.0774328 -0.00596034 -0.000945208 0.0134648 0.00500888 0.0123729 -0.00981729 -0.0085667 -0.0180855 0.0477936 -0.064438 -0.0259512 0.0159761 -0.0344114 0.0191935 0.0169746 -0.0590671 -0.024631 -0.0350116 -0.0303644 0.0407849 0.0172272 0.0130038 0.0483228 -0.020092 0.0402094 -0.0771125 -0.0619177 0.0549742 -0.0854383 -0.00277472 -0.023572 0.0168122 -0.0136769 -0.0473593 0.0213374 -0.0853751 0.0509026 0.0109779 -0.0605969 0.0280059 -0.0507025 -0.0335417 0.0420086 -0.0421078 0.0313833 -0.092778
79 0.505526 0.297202 -0.309795 -0.181953 -0.237434 -0.133759 0.0241616 0.0824063 -0.208917 -0.332233 0.0509445 0.107097 -0.166896 0.236097 0.0788622 -0.366042 -0.273637 0.192087 -0.0746967 0.185638 0.226301 0.273914 -0.431372 -0.039355 -0.295108 0.148966 -0.572242 -0.160638 0.0752748 -0.143658 0.1319 0.23402 0.283412 -0.737618 -0.207491 -0.312625 0.203448 -0.380897 -0.246065 0.291539 0.320838 0.413876 0.211471 0.051218 -0.230601 -0.17425 0.458788 0.139547 -0.163287 -0.1767 0.165733 -0.23467 0.0959994 -0.31487 0.215111 -0.310866 0.0656986 -0.077494 -0.0293747 0.054461 -0.202652 -0.375932 0.345892 0.308309 0.288794 -0.0914421 -0.312467 -0.0291924 0.137181 -0.173111 -0.451922 -0.150284 -0.204357 -0.210115 0.159641 -0.113234 0.102579 -0.0305454 -0.0749513 0.324723 0.214921 0.402086 -0.643915 -0.298381 -0.0370153 0.164201 -0.281502 -0.328312 0.141631 0.182309 0.28713 -0.00160706 0.257422 -0.0313964 -0.187936 0.344292 -0.295939 0.180491 0.0731615 -0.208758 0.08399 -0.215483 0.436085 0.0259437 0.193014 -0.0837697 0.198501 0.285638 0.293427 -0.0314356 -0.371505 -0.0545079 0.325855 0.0683011 0.35364 0.0754852 -0.0793496 -0.110752 0.269058 0.340247 0.0516974 0.24823 0.289869 0.548624 -0.0232098 -0.522037 0.114753 0.0904885
