1005 128
0 0.342286 0.201283 0.219645 0.337175 -0.32352 0.461693 0.266223 0.267185 -0.094324 -0.570854 -0.0296856 0.183014 -0.121782 0.058919 0.10767 0.192783 -0.0484566 0.00748941 0.308115 0.309061 0.345979 0.313423 0.227108 -0.526501 -0.166139 0.169802 0.363195 -0.214643 0.415839 -0.146679 0.240842 -0.557939 -0.00181917 -0.191091 -0.193372 -0.215517 0.180427 -0.406247 -0.165149 0.258232 -0.298159 -0.10853 0.184574 -0.164344 0.151173 -0.141047 0.10077 -0.0239596 -0.134555 -0.171413 0.176043 -0.167633 0.126849 -0.322431 0.166541 -0.0353438 0.54596 -0.144073 -0.309699 -0.0720571 0.00514035 0.0416444 -0.0445294 0.10509 0.244848 0.325976 -0.177295 -0.337801 -0.133582 -0.464153 -0.205641 -0.146257 -0.05157 -0.33743 0.114 0.419126 -0.487769 -0.113694 -0.191428 0.308039 -0.22138 0.310491 -0.142523 -0.184747 0.219464 0.184078 -0.10748 -0.29164 0.14517 -0.393749 0.392667 -0.33415 0.267734 0.131367 0.599937 -0.0947575 0.1568 -0.150509 -0.0733803 -0.254311 0.253952 -0.364167 0.0653552 -0.100546 0.309945 0.0790576 0.294959 -0.230476 0.274933 -0.0284819 -0.336449 0.0733164 -0.0961448 0.413674 -0.189566 0.356526 0.122438 -0.0791667 0.102666 0.0599003 -0.0636129 -0.251392 0.228455 0.215085 -0.155779 -0.101391 -0.329848 -0.375159
1 0.289392 0.24599 -0.448481 0.269423 -0.239223 0.329211 0.36356 0.032294 -0.136916 -0.685357 -0.300128 0.490872 0.0643612 -0.0991973 -0.206869 0.0818225 -0.080618 0.31043 0.438598 0.365897 0.0771418 0.200211 0.367433 -0.0176849 -0.268369 0.0141534 0.333793 -0.251265 -0.0186495 -0.381655 0.563741 -0.533984 0.386935 -0.245444 -0.101406 -0.261344 0.471643 -0.244375 -0.337785 0.271121 -0.0190386 0.292396 0.0650943 -0.339884 -0.238928 -0.353307 0.0238829 0.098105 -0.359002 -0.172468 0.21 -0.182121 0.109096 -0.370104 -0.0630217 -0.063071 0.18966 0.0609282 -0.0655827 -0.167304 0.386526 0.2098 -0.0643974 0.0362527 -0.0635293 0.078079 -0.139953 -0.247037 -0.346303 -0.137825 0.032712 -0.0678847 -0.0228948 -0.509694 -0.214672 0.170751 0.298106 -0.257949 0.16353 0.307853 0.204564 -0.392975 -0.35381 -0.154018 0.115925 -0.240767 0.232643 -0.299242 -0.17436 -0.11799 0.117459 0.383435 0.176984 0.210558 0.105397 -0.0710591 0.0860698 0.24495 0.0883424 -0.139031 0.26687 7.87776e-07 0.0528072 -0.404025 0.271951 0.0077073 -0.168307 0.156365 0.33458 0.12052 -0.407493 0.0753697 -0.192521 0.224216 -0.105706 0.267547 0.328855 -0.329838 -0.280918 -0.0721099 0.218883 -0.0724334 0.307402 0.141242 -0.0186681 0.00749669 0.00950848 -0.223114
2 0.295038 0.218902 0.19676 0.00090335 -0.379107 0.219336 0.256336 0.236351 -0.0528297 -0.311357 -0.189052 0.0749485 -0.513881 -0.0793166 -0.0539546 0.178554 0.183263 -0.313464 0.155703 0.148651 -0.0873449 0.218349 0.455707 -0.150571 -0.147769 -0.0101854 0.275186 -0.203554 0.272351 -0.330827 0.146025 0.202037 -0.112933 -0.305566 -0.233019 -0.452968 -0.0903262 -0.196448 -0.29279 0.1422 -0.290754 0.167032 0.0840694 -0.215492 0.0591572 -0.552175 -0.0183651 0.192482 -0.318728 -0.124667 0.373437 -0.216521 0.20565 -0.415542 -0.129127 0.358351 0.100467 0.403398 -0.0436047 -0.511522 0.219379 0.21775 -0.17106 0.336719 0.171994 0.109707 -0.531143 0.266345 -0.188456 -0.137266 -0.0313901 -0.110483 -0.569304 -0.0251863 -0.0197062 0.258425 -0.00557461 -0.0601681 0.1939 0.183993 -0.0477645 0.0188558 -0.286109 0.110656 0.189787 0.455288 0.114366 -0.343134 -0.172378 0.377672 -0.321535 -0.0817712 0.159658 0.339527 -0.247594 0.0141845 0.322158 0.2309 -0.379404 -0.24575 -0.239252 0.00100279 -0.150533 0.107683 0.324002 0.109128 -0.21399 0.128376 0.392733 -0.00834195 -0.198054 0.275611 -0.396235 0.145264 -0.296987 0.0439373 0.095782 -0.194406 -0.149862 -0.208673 -0.0149062 -0.269693 0.277069 0.140465 0.483277 0.117278 0.488979 0.428976
3 0.283939 0.064501 0.0657698 0.221468 -0.24719 0.00184876 0.0908549 0.276145 -0.237574 -0.0934842 -0.355481 0.15824 -0.257205 -0.185515 -0.0709911 0.0361997 -0.195948 -0.218321 0.0519984 0.101037 0.160818 0.304511 0.258035 0.194037 -0.070283 -0.405125 0.255005 0.066094 0.269633 -0.44554 0.119048 -0.00020975 -0.125374 -0.403246 -0.144896 -0.12224 0.326493 -0.244585 -0.334142 0.0715699 -0.109449 0.333326 -0.000770996 -0.282231 -0.0535033 -0.440602 0.170041 0.0631256 -0.35669 -0.221335 0.159229 -0.210717 -0.496346 -0.432304 -0.323749 0.178532 0.139573 -0.00881811 -0.170795 -0.34932 -0.144015 0.35955 -0.196477 0.264622 -0.294434 0.220847 -0.229104 0.201301 -0.0517101 -0.176965 -0.11092 -0.293969 -0.177261 -0.240783 -0.17182 0.247945 -0.0159947 -0.167087 0.169654 0.178013 -0.177539 0.236654 -0.0716862 -0.031248 -0.202804 -0.311291 0.113867 -0.33943 0.482583 0.0752365 0.181315 -0.297316 0.258126 0.0987321 0.0390152 -0.103566 0.180993 0.0564579 0.0454029 -0.212598 0.110542 0.274076 -0.0697239 -0.226355 0.150388 -0.0457317 -0.303817 0.141375 0.448936 -0.388765 -0.292878 0.0502702 -0.11419 0.199658 -0.322196 0.288864 0.151993 0.0128815 -0.250887 -0.0543244 -0.341543 0.267956 0.3401 0.141633 0.123903 0.0390141 0.149868 -0.659186
4 0.104081 -0.0969815 0.155405 0.340866 -0.259405 0.042132 0.102658 0.187713 -0.0237426 0.146445 -0.400954 0.200138 -0.28974 -0.177317 -0.070043 0.269565 -0.232459 -0.18708 -0.0149927 0.151009 -0.054311 0.139107 0.309748 -0.198946 -0.162843 0.0059978 0.194154 0.0131404 -0.114545 -0.273968 0.010994 -0.244111 -0.0306192 -0.198493 -0.30089 -0.154691 0.0808356 -0.211056 -0.299834 0.112931 -0.151006 -0.257478 0.452983 -0.228615 -0.0346407 -0.231522 -0.131427 0.614097 -0.272254 -0.212049 0.0354876 -0.198525 0.487805 -0.292844 -0.324 0.00271627 0.0572941 0.017424 -0.174206 -0.447085 -0.221912 0.378302 -0.0458157 0.0104768 0.00377284 0.379594 -0.159329 -0.00612365 -0.166475 -0.256776 -0.210089 -0.166532 -0.329199 -0.211097 -0.0671741 0.293689 -0.360999 -0.119972 0.0802328 0.213613 0.196729 -0.0661742 -0.0215842 -0.114846 0.0355294 -0.235076 -0.0632784 -0.31583 -0.242811 -0.054767 0.177058 -0.594295 0.104649 -0.0862623 -0.0395651 -0.0436261 0.181821 -0.0701641 -0.107082 -0.219675 -0.274351 -0.545584 0.148604 -0.0660209 0.270752 -0.0938204 0.011389 -0.177969 0.298182 -0.0384018 -0.0331495 0.491507 -0.357282 -0.155899 -0.186306 0.223202 0.0412422 -0.09856 -0.201844 -0.168649 -0.476851 -0.0184994 0.1049 0.10149 0.113303 -0.0911166 0.181486 0.170367
5 0.302441 0.315972 -0.544706 0.308501 -0.259902 0.221053 0.252185 0.317211 -0.0201537 -0.0952453 -0.293148 -0.0538534 0.167478 0.153298 0.0804394 0.235844 -0.100115 -0.403418 0.144132 0.172317 0.0840995 0.294336 0.302805 -0.19213 -0.297715 0.220497 0.287913 -0.293772 0.360259 -0.217143 0.0958105 -0.154676 0.0130014 -0.229176 -0.322952 -0.207239 0.0356166 -0.245254 -0.178121 0.286166 -0.189952 -0.270255 0.0403497 -0.00920817 -0.000656675 -0.150098 0.290408 0.01944 -0.140661 -0.398131 0.0670129 -0.318597 -0.281436 -0.177341 -0.204497 0.080218 0.228618 -0.00982628 -0.0210559 -0.302934 -0.173876 0.118417 -0.166498 0.11334 -0.142943 0.138478 -0.314391 0.180936 -0.0577697 -0.303319 0.386629 0.0555349 -0.318461 -0.150212 -0.314121 0.301487 0.203469 -0.489115 0.276936 0.228988 -0.0957463 0.154444 -0.426722 -0.0708428 -0.13799 -0.141537 -0.448319 -0.205172 0.485218 -0.453 0.482376 -0.331122 0.225058 0.231228 0.152588 -0.0854132 0.329042 -0.0196941 -0.355317 -0.275199 -0.340801 -0.0333982 -0.265912 -0.129974 0.286078 0.098047 -0.160537 0.320929 0.318709 -0.134033 -0.25949 0.196449 -0.435013 -0.0737385 -0.130918 0.117813 0.318815 -0.129622 -0.206572 -0.0957665 -0.196009 -0.122319 0.125304 0.279084 0.681502 0.0888437 -0.0217732 -0.624044
6 0.278251 0.106246 0.112574 0.119729 -0.406801 0.100545 0.259588 0.333955 -0.166919 0.222399 -0.180899 0.0873158 -0.345904 0.0369581 -0.0536828 0.413433 -0.144887 -0.00470819 0.366111 0.184932 0.345954 0.190993 0.277037 -0.217272 -0.325641 0.227565 0.306485 -0.110306 0.153554 -0.305974 0.114609 0.182549 -0.217852 -0.194573 -0.263826 -0.236507 0.196362 -0.208533 -0.264009 0.177074 -0.1786 -0.153597 0.0890864 -0.136342 -0.395367 0.0117271 0.163955 0.212543 -0.197743 -0.296577 -0.228272 -0.2121 -0.311734 -0.363049 -0.0283314 0.192534 0.172507 -0.0177085 -0.255386 -0.317739 0.117791 0.247293 -0.397047 -0.110012 0.108611 -0.0221856 -0.34422 0.173501 -0.166842 -0.270401 0.0114401 -0.384084 -0.438777 -0.0697313 -0.0198459 0.203457 -0.449096 -0.245683 0.199418 0.123745 0.0694449 -0.0116354 -0.0458921 -0.1559 -0.545879 -0.399597 0.123031 -0.207143 0.012762 0.191402 -0.0567007 -0.109587 0.465828 -0.0417163 0.299751 0.0190428 0.194929 -0.489434 0.119774 -0.289774 0.164739 -0.195217 -0.109821 -0.0369017 0.27365 0.156913 -0.014989 -0.575235 0.333481 -0.178473 -0.149428 0.0407827 -0.468785 0.260854 -0.298376 0.161243 0.35178 0.0458432 -0.0736747 -0.223812 -0.197292 -0.0669197 0.35316 0.234557 -0.052394 0.0326817 0.539303 0.205455
7 0.376002 -0.0968949 -0.118365 0.204376 -0.344165 -0.123554 0.338937 0.175569 -0.359018 -0.00293776 -0.0586681 0.0930831 -0.151316 -0.136617 -0.0119003 -0.0539848 -0.321053 -0.418193 0.336674 0.368625 -0.23272 0.328826 0.209182 0.0821674 -0.114558 0.13709 0.406835 -0.318122 -0.0443172 -0.467024 0.0765771 0.056552 -0.0289507 -0.439656 -0.326441 -0.163616 0.060609 -0.66512 -0.278909 0.210513 -0.123755 0.126859 -0.0150736 -0.547948 0.186815 -0.190736 0.097946 0.103726 -0.0437657 -0.267752 0.367498 -0.450548 0.353344 -0.206387 -0.510179 0.48036 0.0592885 0.32979 -0.508202 -0.0617279 -0.122032 0.0946164 -0.226946 0.225801 -0.524791 0.130324 -0.119659 0.150313 -0.184191 -0.405616 -0.0572521 -0.0211754 -0.197878 -0.0315699 0.302357 0.173195 0.335442 -0.327514 -0.110061 0.21441 0.338059 -0.332836 0.0622924 0.0791066 0.0100861 -0.506502 -0.0845135 -0.4148 0.0274744 -0.00963291 -0.028666 -0.140778 0.421125 0.117025 0.222849 -0.17277 0.174037 -0.298272 -0.359479 -0.381515 0.497866 -0.433668 -0.766605 -0.182778 0.13736 0.0835168 0.199724 -0.018394 0.266787 -0.160247 -0.0996682 0.0653229 -0.180599 0.247847 -0.432216 0.188522 -0.187005 -0.334145 0.167191 -0.190987 0.204505 0.312013 0.40082 -0.00900272 0.109394 -0.06096 -0.168818 0.0326694
8 0.195018 0.277813 -0.233556 0.270919 -0.330018 0.0248907 0.128265 0.0289249 -0.185645 -0.205507 -0.0159725 0.105618 0.0105616 0.0192026 -0.0907766 0.039593 0.233048 -0.332571 0.221496 0.412847 -0.240516 0.321595 0.273161 -0.403509 -0.332297 0.143104 0.389735 -0.376771 -0.00701312 -0.429675 0.220403 0.0161132 -0.0728849 -0.4549 -0.313665 -0.120182 -0.045942 -0.608898 -0.236859 0.114559 -0.332112 0.120072 0.0272248 -0.384306 0.200234 0.0240225 0.0209355 -0.0345048 -0.166641 -0.410308 -0.143263 -0.478776 0.384431 -0.275399 -0.464634 0.695209 0.0905062 0.299426 -0.440487 -0.145474 -0.017982 0.391402 -0.282569 0.518339 -0.525879 0.110856 -0.318607 -0.207756 -0.302622 -0.317829 -0.419181 -0.158542 -0.255989 -0.0256377 -0.111584 0.196195 0.435457 -0.218423 0.0381369 0.238996 0.0154467 -0.0502947 -0.0186457 -0.268542 0.125639 -0.448558 -0.115002 -0.154703 0.0255536 -0.310489 -0.513466 0.0223596 0.408698 0.0795695 -0.110133 0.147685 0.30666 -0.0772121 -0.0842841 -0.367735 0.339034 -0.456717 -0.509863 -0.346503 0.358519 0.172578 0.0966865 0.102365 0.217523 -0.371209 -0.167836 0.332661 0.0378606 0.00656635 -0.395493 0.0060923 -0.150481 -0.30237 -0.194614 -0.184629 -0.098696 -0.220738 0.193758 0.0583981 0.0259483 -0.47741 -0.153988 -0.213913
9 0.260788 0.355717 -0.308933 0.160676 -0.411643 -0.129734 0.12865 0.247941 -0.261492 -0.0118331 -0.0330317 0.0567036 0.0811897 -0.0555969 -0.0930496 0.117911 -0.197897 -0.184587 0.247826 0.53156 0.0436818 0.541274 0.307358 -0.00168604 -0.246239 -0.244673 0.413351 -0.182731 0.161381 -0.362024 0.213213 -0.125647 -0.335312 -0.40122 -0.400876 -0.350008 0.0702714 -0.734991 -0.265618 0.104231 0.0755624 0.221835 0.0113942 -0.709066 -0.0598374 0.0444797 -0.375389 -0.0357281 -0.0980251 -0.380463 -0.0753857 -0.410332 0.569246 -0.334319 -0.533985 0.441044 0.11197 -0.0248553 -0.640307 -0.099517 0.283216 0.184471 -0.190324 0.13676 -0.233487 -0.16325 -0.286438 0.0396838 -0.166323 -0.374566 0.0403201 0.130763 -0.056711 -0.0733213 0.403175 0.276751 0.350904 -0.226884 0.237337 0.223453 -0.0124581 -0.0712633 -0.0750542 -0.156276 -0.224906 -0.0611222 -0.164052 -0.48416 0.0282645 -0.127373 0.0620303 -0.111918 0.108214 -0.289092 0.00423291 0.0132522 0.274703 -0.018557 -0.110708 -0.30081 -0.199457 -0.426405 -0.393796 -0.647696 0.290994 0.180452 0.182974 0.175476 0.207084 -0.115048 0.0638053 0.00375615 -0.155371 0.339667 -0.646441 0.0452633 -0.148497 -0.291929 -0.109802 -0.237444 -0.191246 0.347891 0.472435 0.0924237 -0.0744333 -0.227017 -0.0505978 -0.216739
10 0.294356 -0.126905 0.119824 0.132239 -0.213823 0.139074 0.086153 0.243578 -0.171075 -0.334188 -0.318181 0.223474 0.0593263 -0.356745 -0.120824 0.222565 0.0699873 0.00813274 0.22405 0.316744 0.114629 0.185461 0.00174645 -0.077946 -0.19108 -0.104612 0.180463 -0.104996 0.281543 -0.158028 0.222489 -0.406392 -0.038217 -0.340853 -0.288813 -0.341716 0.143566 -0.135407 -0.449686 0.290894 -0.0418108 -0.207336 0.330976 -0.0177864 0.0525675 0.269892 0.0406413 0.092168 -0.289568 -0.141876 -0.24745 -0.333672 -0.482052 -0.243324 -0.0687231 0.134041 -0.032401 0.0134811 -0.202667 -0.459083 -0.0147828 0.0867962 -0.278662 0.0610828 0.195721 0.141648 -0.327008 -0.323126 0.0337264 -0.262341 -0.00759515 -0.121987 -0.566942 -0.345793 0.130116 0.345531 -0.270146 -0.415104 0.256825 0.240514 0.17424 0.225821 -0.042403 -0.0698537 -0.134098 0.0266764 0.0178605 -0.238734 0.403978 0.00469205 0.0413645 -0.147949 0.155765 0.254902 0.0750867 -0.0597755 0.237855 -0.135361 -0.328646 -0.179357 0.152096 -0.0167973 0.152826 -0.172492 0.39517 -0.102389 -0.131765 0.520308 0.224971 -0.304486 -0.112808 0.618257 0.0556383 -0.372468 -0.285647 0.262649 0.642465 -0.316323 0.0107828 -0.0778533 -0.0155417 0.0739928 0.405957 0.282122 0.359137 0.0164866 -0.401112 0.182473
11 0.341717 0.120765 -0.350528 0.104848 -0.248368 -0.0649109 0.333251 0.191018 0.103337 -0.0787033 -0.133101 0.176297 -0.254528 -0.137952 -0.380349 0.0159615 0.248357 -0.344253 0.184886 0.239431 0.0735461 0.125063 0.293745 -0.0465817 -0.204757 0.0791352 0.320087 -0.201108 -0.0647931 -0.514789 0.208563 0.0504773 -0.142626 -0.449647 -0.267373 -0.337622 -0.0411606 -0.375419 -0.400509 0.128298 -0.0336563 -0.0825489 0.349272 -0.246466 0.0586569 0.244287 0.618667 0.0795977 -0.161284 -0.336334 -0.124795 -0.349824 0.0177001 -0.236467 -0.602858 0.0325187 0.0509777 -0.107989 -0.18807 -0.136005 -0.138109 0.20964 -0.271155 0.234298 -0.0111897 -0.00373374 -0.0750951 0.00112265 -0.363487 -0.283396 -0.0562216 0.0489498 -0.375481 0.0812428 0.111386 0.321683 -0.0714706 -0.156833 0.183025 0.238285 0.281542 -0.162366 0.128872 -0.138642 -0.210551 -0.0772222 -0.284455 -0.383465 -0.053625 -0.181539 0.325633 -0.158649 0.373471 0.186964 0.260384 0.151665 0.365498 0.174965 -0.267423 -0.393809 0.219593 -0.761257 -0.444862 -0.0476778 0.39209 0.389315 0.0410649 -0.113003 0.128956 -0.0815705 -0.0905695 0.187285 -0.301842 0.333472 -0.49313 0.134314 0.125085 -0.224912 -0.169483 -0.205611 -0.0993865 0.527294 0.216694 0.189228 -0.0142542 -0.100858 -0.211144 -0.409941
12 0.345723 0.444681 -0.095137 0.277655 -0.36335 0.137101 0.0523369 0.111707 -0.370113 -0.231172 -0.235191 0.0951966 -0.261141 -0.0147754 -0.237662 -0.142003 0.0650624 -0.243912 0.354974 0.511868 0.346396 0.353535 0.167338 -0.077026 -0.159154 0.343292 0.338063 -0.246004 -0.32278 -0.32354 0.224518 0.228012 0.00945444 -0.167879 -0.27415 -0.223889 0.112577 -0.463876 -0.285547 0.0677833 -0.0757018 0.136744 0.0554263 -0.294387 -0.348265 -0.0420994 0.227808 -0.0814809 -0.272404 -0.00173621 0.0139439 -0.430078 0.231858 -0.403558 -0.206043 0.248905 0.0714968 -0.22804 -0.570189 -0.108107 0.12713 0.239116 -0.230161 -0.0414984 -0.299205 0.156009 -0.196585 -0.0375161 -0.374254 -0.385362 0.192027 -0.0981198 -0.242344 0.235697 0.072764 0.374791 0.550158 -0.200947 -0.00785349 0.289233 0.221034 0.493555 -0.073189 -0.109449 -0.10584 -0.327495 -0.0386626 -0.2608 0.00275816 -0.293832 0.239247 0.0247169 0.267488 -0.120684 0.0685948 0.101127 0.157307 0.156053 -0.364906 -0.32336 -0.447923 -0.404036 -0.0574922 -0.128633 0.19222 0.179643 0.250996 0.151084 0.388875 -0.0242372 -0.163258 0.195284 -0.299152 0.043 -0.261497 0.0979601 0.0350083 -0.221523 -0.269366 -0.0580142 -0.0702662 0.280219 0.22067 0.209738 0.109188 -0.224256 -0.00625158 -0.381778
13 0.327173 0.0193501 0.207033 0.23062 -0.3492 0.18787 0.0793325 0.275573 0.151039 -0.189864 -0.17883 0.171665 -0.227026 -0.00607507 -0.20625 0.143101 0.269298 -0.734966 -0.0141666 0.187546 0.48029 0.361234 0.22268 -0.0121486 -0.0964987 -0.149152 0.330393 0.0986243 0.184595 -0.283334 0.146507 -0.294039 -0.112944 -0.179501 -0.179274 -0.235973 0.423715 -0.26137 -0.331986 0.255313 -0.0877263 0.20652 0.157569 -0.287737 -0.100538 0.0131703 0.328735 0.170999 -0.228638 -0.18251 -0.195633 -0.216903 -0.0393792 -0.222065 -0.128119 0.179869 0.211404 0.247844 -0.00372554 -0.320304 -0.0189043 0.0698458 -0.212045 -0.0683074 -0.348679 0.296634 -0.341945 -0.288328 -0.0100936 -0.274822 0.210167 0.0242288 -0.232996 -0.342093 -0.178898 0.265539 0.222929 -0.227416 0.348373 0.220196 0.0210361 -0.015314 -0.473946 -0.160565 -0.32832 0.202493 0.100222 -0.280005 0.243274 -0.0840531 -0.00218145 -0.101836 0.184947 0.12934 0.13779 0.0922952 0.129545 -0.0874386 -0.000755683 -0.245028 0.0558655 -0.165074 -0.12345 -0.345823 0.37182 -0.0962231 -0.461283 0.175969 0.255026 0.126583 -0.198183 -0.0124916 -0.403007 -0.188809 -0.236754 0.228365 0.430547 -0.190314 0.118053 -0.0608736 -0.110438 0.468159 0.0494636 0.317032 -0.130509 -0.279315 -0.0731327 -0.326965
14 0.243417 0.196851 -0.157214 0.261112 -0.239105 0.380017 0.137085 -0.0249391 -0.463564 -0.343728 -0.20221 0.211877 0.359283 -0.158331 -0.00542659 0.0279398 -0.145753 -0.0235849 0.339009 0.249667 -0.070609 0.233496 0.11814 -0.222424 0.0240883 0.145692 0.251931 -0.16161 0.0260952 -0.0861418 0.433973 -0.572463 0.391722 -0.343232 -0.223465 -0.164994 0.273401 -0.286343 -0.237151 0.346457 -0.157709 -0.139797 0.432309 -0.017363 0.0400588 0.158292 0.100051 -0.0296843 -0.00724811 -0.210819 -0.247576 -0.30914 0.199085 -0.100315 0.452118 0.231575 0.273113 -0.410943 -0.230561 -0.0823281 -0.0656871 0.0277751 -0.170645 -0.0476842 -0.256397 0.395825 -0.148181 0.0534961 -0.405478 -0.156801 0.291108 -0.326975 -0.338137 -0.179433 -0.21287 0.356163 0.279299 -0.146798 0.765083 0.196371 -0.0945312 0.0314715 0.140825 -0.245801 -0.253751 -0.271201 0.147713 -0.281786 -0.0436655 -0.139428 0.0168913 -0.0588265 0.189875 -0.058268 0.187046 -0.00625178 0.046741 -0.300057 0.0351791 -0.292711 0.101338 -0.233724 -0.256978 -0.262864 0.0444654 -0.239431 -0.0210323 0.211756 0.164518 0.114462 -0.301326 0.0349705 0.244853 0.110048 -0.184204 0.137761 0.630329 -0.0744615 0.00476752 -0.354017 -0.297312 0.0291367 0.166539 0.156943 0.271961 -0.0624179 -0.123599 -0.176618
15 0.215262 -0.0245643 -0.282283 0.17687 -0.277961 -0.0117097 0.209201 0.327882 0.192184 0.149827 -0.222575 0.17177 -0.244697 -0.332251 -0.100355 -0.118658 -0.220441 -0.165591 0.294118 0.268392 -0.169276 0.121607 0.200722 0.0159274 -0.306354 -0.249769 0.149053 -0.131427 -0.416194 -0.313825 0.167575 0.0976576 0.0624023 -0.231335 -0.220004 -0.282699 0.428935 -0.247334 -0.35116 0.0928503 -0.208916 -0.221767 0.320744 -0.286475 0.0492777 0.175227 0.453453 0.212601 -0.357134 -0.242044 -0.346017 -0.244554 0.109081 -0.278875 0.083713 0.10837 0.311396 0.225577 -0.317229 -0.290193 -0.0506548 0.332288 -0.178246 0.249718 -0.0157023 -0.0722631 -0.191548 0.0877678 -0.0957911 -0.413263 0.0680074 -0.532306 -0.0525472 0.098881 -0.12847 0.0797718 -0.30987 -0.108694 -0.156156 0.322019 -0.0241245 -0.0978622 -0.275011 -0.451488 -0.692273 0.407804 -0.410552 -0.40215 0.266172 0.265956 -0.041235 -0.214166 0.185409 -0.000283889 -0.101591 0.0669444 0.429452 0.0228087 -0.201163 -0.251947 0.0505765 -0.359505 -0.091433 -0.230625 0.36126 -0.27841 0.0484335 0.0324434 0.301442 0.0289443 -0.596953 0.221168 -0.0469038 0.0302551 -0.305721 0.101362 -0.265768 -0.176099 -0.125187 -0.0800292 0.0196755 -0.329778 0.0697148 0.166036 0.0777411 -0.0468889 0.0525732 -0.264128
16 0.173155 -0.0357958 -0.274922 0.18166 -0.287992 0.179367 0.0885732 0.276921 -0.248483 -0.189788 0.00225134 0.243181 0.110162 -0.117858 -0.0486473 0.202061 -0.152234 0.163581 0.18285 0.151233 -0.0981546 0.212025 0.18336 -0.128019 -0.11119 0.283959 0.186238 -0.0979753 0.082545 -0.253147 0.411504 -0.0319962 -0.0434089 -0.289849 -0.304466 -0.251571 0.267063 -0.217305 -0.346414 0.00933054 -0.25939 -0.107067 0.225168 -0.244773 0.0858918 -0.0100515 -0.101761 0.380755 -0.206023 -0.283166 -0.167698 -0.258266 -0.14444 -0.29786 0.0335857 0.158219 0.072047 0.153016 -0.172205 -0.143884 -0.278547 0.25367 -0.246899 0.0847753 -0.0985682 0.14472 -0.112862 0.081758 -0.304105 -0.165767 -0.0474134 -0.256562 -0.14445 -0.35035 0.0807155 0.393005 0.249003 -0.410273 0.0725898 0.195349 0.277739 0.0015202 -0.325559 -0.29196 -0.304597 -0.341137 0.0466706 -0.337769 0.0279701 0.0538226 -0.0408202 0.0030473 0.248417 0.117529 -0.0383368 0.0373869 0.231491 0.0939773 0.390472 -0.314063 -0.0318915 -0.18392 0.022231 -0.324532 0.246648 -0.256988 -0.0729728 -0.123344 0.324182 -0.0252779 -0.260213 0.246878 0.021107 -0.134498 -0.187245 0.111288 0.180438 -0.0841241 0.0866845 -0.0293318 -0.148891 0.0744017 0.297645 0.0903779 0.0292826 -0.318046 -0.305389 -0.370513
17 0.207554 0.350649 -0.716021 0.18665 -0.254374 0.304832 0.21327 0.239416 0.0143741 -0.486746 -0.230679 0.243431 -0.0364932 -0.75328 -0.399556 0.400132 -0.12059 0.214818 0.0805818 0.297582 0.166245 0.239718 0.198294 -0.156678 -0.241915 0.255382 0.212197 -0.262738 -0.00380062 -0.345121 0.174592 -0.544134 -0.168388 -0.253806 -0.193422 -0.325825 0.374941 -0.387067 -0.412044 0.149087 -0.374203 0.272279 0.239809 -0.152161 0.209481 -0.143608 0.041827 0.193557 -0.032659 -0.0663887 0.14613 -0.041822 0.136153 -0.416624 -0.0214445 0.0598258 0.0704986 0.119874 -0.100438 -0.181161 0.211916 0.233608 -0.341677 -0.0259531 -0.282268 0.0491965 -0.208723 -0.0593253 -0.254846 -0.350871 -0.120825 -0.0238501 -0.120689 -0.170092 0.105714 0.343723 0.0327449 -0.0446315 0.476474 0.311322 0.0579957 0.579225 -0.160373 -0.0994778 0.228162 0.0179643 -0.0601004 -0.160597 -0.186474 -0.400337 0.0622645 -0.311046 0.224645 -0.0302986 0.0640358 -0.698994 0.125569 -0.0457586 0.296625 -0.258379 0.3241 -0.533592 0.0101832 -0.203799 0.192769 0.0316366 0.102161 0.000956591 0.370298 0.034768 -0.0128304 0.0571012 -0.0228666 0.144034 -0.309066 0.228836 0.0819046 -0.510984 0.28719 -0.155922 0.0553354 0.0518294 0.369252 0.261064 0.0808136 -0.273803 -0.15966 0.0176857
18 0.273541 0.43264 -0.028827 0.315164 -0.205708 0.406787 0.216052 0.204069 -0.267794 -0.427571 -0.0962662 0.353716 -0.00259006 -0.16486 -0.0217517 0.427292 0.0727745 -0.0349702 0.55479 0.35568 -0.0218838 0.241252 0.181643 -0.156401 -0.239693 -0.208577 0.185941 -0.0799388 0.144297 -0.286786 0.45887 -0.345862 0.283236 -0.198291 -0.243572 -0.1858 0.258491 -0.27007 -0.142046 0.345952 -0.00168106 0.241309 -0.0206528 -0.244334 0.195958 -0.294949 -0.0476291 0.0814902 -0.26763 -0.125674 0.157542 -0.289351 -0.251965 -0.1525 0.364508 0.121847 0.196369 -0.378464 -0.297967 -0.135517 -0.238754 0.136556 -0.0552446 -0.0636207 0.0403814 0.027027 -0.203975 -0.242233 -0.564589 -0.273458 0.123308 -0.0996395 0.043902 -0.205059 0.0586733 0.320001 -0.276051 -0.328755 -0.313553 0.269807 -0.0253578 -0.0270865 -0.398617 -0.0987185 0.0187454 -0.200043 -0.192258 -0.195061 0.0622511 -0.291383 -0.0813684 -0.208799 0.399202 -0.209472 -0.10448 0.308133 0.357579 0.229612 -0.218642 -0.339264 -0.03296 0.0772717 -0.120565 -0.315088 0.160097 -0.139889 0.040378 -0.196453 0.34333 0.166434 -0.043045 0.160812 0.125768 0.149639 -0.115526 0.240203 -0.0612152 -0.122892 -0.377292 -0.348666 0.0632328 -0.325756 0.45401 0.0836784 0.244156 -0.484371 0.251778 0.0529698
19 0.237101 0.268133 -0.523693 0.135278 -0.320087 0.0102858 0.341101 0.127627 -0.434193 -0.156181 -0.171128 0.179631 0.0120772 0.130147 -0.269615 0.192128 0.0350112 0.131189 0.111633 0.308016 -0.239192 0.321703 0.372607 -0.309446 -0.100214 0.176285 0.314238 -0.272284 0.451513 -0.3429 0.20564 -0.356886 0.12976 -0.409664 -0.356077 -0.154994 0.0252417 -0.463067 -0.275887 0.125389 -0.0600731 -0.0114905 0.0716236 -0.322227 0.0973908 0.117912 0.328592 0.221757 -0.173834 -0.12098 -0.404037 -0.443418 0.114941 -0.385345 -0.333226 0.192436 0.0419599 -0.193555 -0.0394536 -0.152112 -0.540201 0.241092 -0.3357 0.621292 -0.274269 0.0398228 -0.253169 0.156784 -0.174546 -0.249535 -0.00816952 -0.0371569 -0.245756 -0.00776675 0.0486436 0.165877 0.451967 -0.197955 0.265578 0.245073 0.0154443 -0.262791 -0.00583596 -0.200084 -0.19011 -0.0336374 0.064437 -0.405256 0.143743 0.159012 0.222468 -0.221357 0.148673 -0.12464 -0.0726951 0.151747 0.272245 -0.0322919 -0.29925 -0.3468 0.356795 -0.0869752 0.0223916 -0.0876707 0.203011 0.110379 0.237665 0.126011 0.312419 -0.216301 -0.220811 0.156818 -0.522309 0.0697759 -0.343937 0.0701737 -0.180242 -0.296274 -0.471101 -0.187724 -0.228469 0.397375 0.187659 0.190718 0.283784 -0.137813 -0.382827 -0.387048
20 0.154545 0.146127 0.264688 0.246239 -0.323904 0.164491 0.342584 0.267406 0.05753 -0.132839 0.0343974 0.353588 0.069116 -0.00308194 -0.39104 0.701114 0.184317 0.333811 0.337254 0.155133 0.195582 0.240117 0.472976 -0.0435301 -0.112992 0.699426 0.246296 -0.40531 -0.236767 -0.320223 0.333958 -0.0629976 0.328368 -0.403209 -0.235626 -0.265775 0.0970369 -0.331788 -0.197434 0.186702 -0.211459 0.116631 0.108227 -0.270002 0.0501408 0.0107779 0.167922 0.312191 -0.298172 -0.268034 0.0378282 -0.297972 0.0756259 -0.356252 -0.00890903 0.0481845 0.147219 0.104285 -0.0943863 -0.446496 0.0617814 0.277008 -0.652666 -0.116928 -0.143254 -0.0337771 -0.233764 -0.151844 -0.235321 -0.210234 -0.227367 -0.331956 -0.31225 -0.076749 -0.243958 0.187584 0.459872 -0.206761 0.305429 0.309576 -0.0897544 0.300621 -0.203646 -0.240691 0.0921404 -0.368757 -0.0529779 -0.248601 0.226796 -0.188489 0.242667 -0.65414 0.194575 -0.0290101 0.13938 0.129906 0.0558715 -0.339439 -0.136988 -0.385134 0.388103 -0.272354 -0.217936 -0.264147 0.367474 -0.516479 0.23099 0.0842303 0.244426 0.241897 0.0376412 0.217505 -0.0636337 0.0661089 -0.206752 0.152773 0.479977 -0.305733 -0.370132 -0.0874788 -0.224835 -0.244378 0.246742 0.129653 0.173816 -0.20993 0.0352798 -0.120445
21 0.24917 0.267152 -0.0923359 0.174328 -0.107801 0.153756 0.204726 0.170582 -0.125852 -0.370698 -0.0983715 0.404112 0.081778 -0.327074 0.224153 0.129139 -0.180858 -0.123837 0.145644 0.342736 0.309966 0.302351 0.419801 -0.236963 -0.117033 -0.0802762 0.279055 -0.350038 0.0250999 -0.280691 0.309157 -0.266853 0.192098 -0.239653 -0.268114 -0.101457 0.23774 -0.312457 -0.437096 0.105195 -0.057296 -0.0308137 0.161422 -0.0723379 -0.201776 -0.18546 -0.147799 0.0637911 -0.162118 -0.066107 0.330456 -0.22546 0.0659671 -0.321292 -0.234597 0.16395 -0.0938569 -0.0621184 -0.0175326 -0.330845 0.260119 0.180179 -0.140278 0.374106 -0.160504 0.297505 -0.385415 -0.138829 -0.114642 -0.147563 -0.176811 -0.247903 -0.365796 0.0951693 0.0631805 0.299465 0.320843 -0.430158 -0.0309628 0.339739 -0.0311261 0.0872579 -0.0327813 -0.233199 -0.340821 0.0776999 0.220008 -0.366646 0.35156 -0.799823 -0.135294 -0.406737 -0.0818376 0.201413 -0.00811318 0.101166 0.247981 -0.364967 -0.293817 -0.382963 0.190829 -0.559943 -0.222368 0.0764004 0.281737 0.175729 -0.127405 0.0893021 0.238263 -0.182095 -0.0987432 0.458718 -0.247588 -0.246376 -0.116637 0.121381 -0.0235967 -0.186754 0.298211 0.0961626 -0.142353 0.165455 0.0975502 0.458505 0.313469 0.0833594 -0.0941628 -0.24744
22 0.214081 -0.0141495 0.0182106 0.372917 -0.275458 0.160668 0.314472 0.234447 -0.0687859 -0.194971 -0.0112857 0.16386 -0.0392528 -0.696178 0.0441756 -0.0515144 -0.0384009 -0.204553 0.392427 0.242266 0.227127 0.197023 0.435168 0.128513 -0.134942 0.191457 0.296943 -0.0285428 0.0390434 -0.297283 0.259913 0.0862332 -0.0310325 -0.106757 -0.233727 -0.175085 0.30971 -0.456282 -0.443569 0.232943 -0.445234 0.148348 0.250676 0.0816031 0.012227 0.0498641 -0.0119746 0.257916 -0.160596 -0.224629 -0.0435548 -0.134586 0.313847 -0.314807 -0.0133136 -0.0944658 0.194967 0.396109 0.0869705 -0.469979 -0.318173 0.171137 -0.178298 -0.0623622 0.130382 0.128671 -0.308577 0.190659 -0.26478 -0.323433 0.0431137 -0.112416 -0.0298712 -0.325749 -0.0533029 0.26055 -0.250951 -0.141911 0.0880507 0.490134 0.415844 -0.0276922 -0.0651274 -0.350551 0.0413524 -0.135712 -0.0514851 -0.225853 0.0822358 0.218451 -0.00854812 -0.0144532 0.291164 -0.283667 -0.0705263 0.15032 0.163102 -0.125052 0.17536 -0.315525 -0.112176 -0.55244 -0.390497 -0.249616 0.242076 -0.129874 0.156124 0.129652 0.151088 0.0124423 -0.0180371 0.147924 -0.0453333 -0.35915 -0.140804 0.112974 0.165514 -0.0817689 -0.194655 -0.299556 -0.343133 0.26981 -0.00353512 0.132409 0.188838 -0.117023 -0.0918237 -0.110655
23 0.148207 0.0790181 0.0870753 0.221808 -0.355588 0.347488 0.0650706 0.119258 0.0108521 0.0919097 -0.366453 0.128456 -0.0904037 -0.220976 0.0402449 0.366058 -0.394926 -0.0595808 0.156246 0.22597 0.303095 0.170311 0.389306 0.125967 -0.561461 -0.0379819 0.289131 0.051421 0.165499 -0.323653 0.0857574 -0.307716 -0.0939869 -0.19721 -0.188353 -0.280535 0.239794 -0.372028 -0.20816 0.504027 -0.0709971 -0.171948 0.108325 -0.114814 0.015696 -0.339786 0.235118 0.078836 -0.104848 -0.249166 -0.132409 -0.281598 0.0141637 -0.0785654 -0.0889165 0.0942059 0.290049 0.170963 -0.142272 -0.195128 0.256103 0.162169 -0.224004 -0.0353006 -0.162602 0.244471 -0.226481 -0.0849812 -0.358939 -0.268247 0.41743 -0.0656392 -0.00986517 0.00605283 -0.0282346 0.187052 0.325946 -0.212211 -0.16509 0.368719 -0.0321044 -0.105979 -0.486303 -0.121063 -0.0393348 0.267998 -0.414567 -0.241627 0.243454 0.12987 -0.270799 -0.175297 0.439674 0.339209 -0.0928892 -0.160767 0.364913 -0.0244649 0.095597 -0.258034 -0.318322 -0.29512 -0.364703 -0.391174 0.165419 -0.239711 -0.127151 -0.0590803 0.265556 0.176585 -0.122328 0.470761 0.366903 -0.0408541 -0.312501 0.388925 -0.0526218 -0.142198 0.321271 -0.0877231 0.0160453 -0.371081 0.326736 0.436021 0.198344 -0.285673 -0.512614 -0.309829
24 0.345544 0.351163 0.053639 0.330955 -0.300985 0.467312 0.208243 0.27957 -0.366003 -0.199518 -0.343779 0.2098 -0.416232 -0.720374 0.216209 0.307728 -0.161776 -0.0587563 -0.00725545 0.132239 -0.14252 0.143317 0.223589 0.262618 -0.577248 -0.199749 0.184396 0.0550359 -0.287583 -0.3311 -0.00819625 0.0574804 0.484405 -0.186757 -0.0803976 -0.400619 0.624585 -0.332588 -0.279478 0.415525 -0.0747799 0.0788622 0.190731 -0.3196 -0.435343 -0.532639 0.277244 0.113757 -0.237506 -0.128814 0.127639 -0.245855 -0.171409 -0.0887232 -0.00430403 0.101976 0.369806 0.0811387 -0.261404 -0.252146 -0.163748 0.189674 -0.591621 0.173853 -0.195755 0.326976 -0.13105 0.24891 -0.0869943 -0.468142 0.137037 -0.134118 -0.15872 0.231604 0.309781 0.318758 0.192009 0.036674 0.0506236 0.207134 0.0223271 0.0242014 -0.220105 -0.120372 -0.207785 -0.0151739 -0.204786 -0.308344 -0.000761476 0.454026 -0.149715 -0.500296 0.238545 0.0140273 0.0568638 -0.125958 0.53174 0.121988 0.0304228 -0.293044 0.0731064 0.0766735 0.028167 -0.106003 0.5391 0.0356329 0.0346954 -0.104619 0.285088 -0.0604707 -0.612246 0.0272511 -0.0282113 0.0194338 -0.172699 0.321769 0.540557 -0.328197 0.0612388 -0.135605 -0.416547 0.401081 0.125344 0.025817 -0.240997 -0.457143 -0.465226 -0.25065
25 0.253371 0.631938 0.312602 0.304941 -0.339773 0.289087 -0.00941754 0.0927869 -0.0236016 -0.295156 -0.0445279 0.145485 -0.459832 -0.139981 -0.239128 0.396066 -0.495073 0.153197 0.0402971 0.249676 -0.0453239 0.282585 0.269876 -0.013809 -0.255438 -0.0777832 0.2717 -0.0954264 0.31314 -0.182882 0.261311 -0.547906 0.00170257 -0.29016 -0.135711 -0.335175 0.46025 -0.249676 -0.367658 0.26364 -0.202677 -0.311032 0.546414 -0.3839 -0.119793 -0.0932427 0.219738 0.0652212 -0.218041 -0.148416 -0.053996 -0.194619 -0.160275 -0.0485005 -0.433478 -0.0560623 0.17012 0.234421 -0.21353 -0.199624 0.0760349 0.304503 -0.0948777 -0.131816 -0.537006 0.125144 -0.324389 0.29877 -0.0613278 -0.322824 0.262798 -0.148394 -0.399304 0.0852939 0.516894 0.109074 -0.122598 0.0426665 -0.041151 0.282909 0.169649 -0.184214 -0.682321 -0.21874 -0.387714 0.248817 -0.290457 -0.281844 0.567851 0.093039 -0.175462 0.221224 0.0531991 -0.210328 -0.221938 0.0989014 0.496092 0.211154 0.123101 -0.350699 -0.241896 0.182768 -0.00428398 -0.464152 0.37085 0.121194 -0.18548 0.0680113 0.264627 0.294457 -0.284062 0.0817596 0.0434988 -0.211766 -0.197911 0.184056 0.0601791 -0.212063 0.0709893 -0.01789 -0.455184 0.25041 0.0904342 0.303698 -0.0799412 -0.362485 -0.0310251 -0.312515
26 0.186362 0.281942 0.243356 0.499203 -0.279327 0.305074 0.0406302 0.00123669 0.228932 -0.0854972 -0.418622 0.131654 -0.195335 -0.329872 -0.0215252 0.412486 -0.124069 -0.0584498 0.285109 0.33058 -0.434821 0.221207 0.337095 -0.0526396 -0.387026 -0.277036 0.289752 0.0365191 0.136671 -0.25547 0.200186 -0.183326 0.103494 -0.205841 -0.29605 -0.259142 0.23258 -0.357591 -0.347061 0.402577 -0.190069 -0.3812 0.215206 -0.502012 0.0526036 -0.297864 0.391498 -0.0545009 -0.306066 -0.0860901 -0.244378 -0.369413 0.281152 -0.0632426 -0.159264 -0.0905596 -0.0393323 0.476307 -0.15613 -0.30327 0.325554 0.292205 -0.375606 0.486537 -0.524651 0.311119 -0.346181 -0.0992399 -0.0609411 -0.232078 0.116825 0.0882756 -0.384927 0.00205105 0.0916998 0.181868 0.0995334 -0.0945235 -0.318862 0.240915 0.0719662 -0.499708 -0.171221 -0.549534 0.117122 0.144377 -0.0525435 -0.150092 0.0365315 0.294718 -0.0797097 0.246979 0.0835273 -0.453091 0.0760862 -0.0182824 0.113151 0.166655 0.102469 -0.288008 0.170447 -0.0939351 -0.438496 -0.504263 0.477045 -0.117723 0.13647 0.294637 0.203002 0.27724 -0.267866 0.4111 0.0450498 -0.368449 -0.251126 0.270206 0.514378 0.0108848 -0.0341288 0.129796 -0.585638 0.0874102 0.328409 0.204488 0.0556264 -0.627798 0.0932439 -0.186816
27 0.447709 0.260092 0.0121735 0.343714 -0.410738 0.0928367 0.0695126 0.190192 -0.0497328 0.0050034 -0.115456 0.211796 -0.175268 -0.536933 0.300691 0.323519 0.146313 -0.201115 0.11619 0.382184 0.191029 0.259126 0.190013 0.0468646 -0.268958 0.0229435 0.313409 0.130644 -0.00542804 -0.276251 0.139751 -0.278837 -0.00840088 -0.35572 -0.169651 -0.339326 0.42001 -0.113473 -0.188662 0.69467 0.0851209 -0.0383935 0.305405 -0.105355 -0.317439 -0.289431 0.398493 0.0147292 -0.157513 -0.114577 -0.0399193 -0.30784 -0.325223 -0.113323 -0.0873775 0.195138 0.255637 0.054589 -0.172886 -0.178529 -0.235328 0.165317 -0.136358 0.344907 -0.198888 0.0114427 -0.452972 0.189549 -0.267376 -0.278542 0.222951 -0.207144 -0.384384 -0.0669436 0.286402 0.193643 -0.226293 -0.120643 0.294798 0.229298 -0.0219949 0.0140921 -0.198712 -0.0556842 -0.435976 -0.0276775 0.341091 -0.206125 0.472996 -0.0245864 -0.388512 -0.311515 0.249242 0.11154 -0.180422 -0.198387 0.245251 -0.450256 0.135585 -0.303556 -0.172026 0.0172959 -0.243722 -0.528206 0.165472 -0.105818 -0.329572 0.255043 0.381027 -0.177323 -0.190727 0.170423 0.0476108 -0.198475 -0.248077 0.281652 -0.09048 -0.339698 0.296309 -0.0739295 -0.163394 -0.181566 0.197467 0.408935 0.307446 -0.243452 -0.160006 0.0992946
28 0.28065 0.309069 0.301886 0.247965 -0.314314 0.116108 0.343874 0.158837 -0.0836043 0.211072 -0.110172 0.178474 -0.727737 -0.246265 0.272796 0.584624 -0.283713 -0.316708 0.0480973 0.211911 0.0157374 0.268245 0.121751 0.0749415 -0.430468 -0.18503 0.309311 -0.184731 0.433974 -0.184524 0.196 0.290576 0.0211545 -0.171418 -0.288932 -0.102093 0.483112 -0.255183 -0.233709 0.149734 -0.499483 -0.115256 0.281802 -0.133535 -0.288371 -0.0126508 0.251484 0.331403 -0.207569 -0.256526 0.0572193 -0.149088 -0.265747 -0.219205 0.0493839 0.115598 0.164129 0.194018 -0.168886 -0.187828 0.0240214 0.273832 -0.325793 -0.0323597 -0.356554 0.233132 -0.157342 -0.26697 -0.0331734 -0.202779 0.257559 -0.110953 -0.187857 -0.33878 -0.252543 0.294362 0.0421893 -0.0630477 0.0331043 0.318826 0.39995 0.064525 -0.394068 -0.37113 -0.509537 0.16162 -0.0264052 -0.305791 -0.0268091 0.258837 0.175134 0.0839233 0.21468 -0.0570703 -0.0491343 -0.30366 0.353706 0.174936 -0.110357 -0.21605 0.0531205 -0.590289 -0.19618 -0.177236 0.289184 0.0296133 0.0436778 0.152529 0.299416 0.131156 -0.16918 -0.0457226 -0.201521 0.0456377 -0.225004 0.273793 0.358558 -0.207178 0.179379 -0.0290405 -0.0961628 -0.00895209 0.195534 0.293922 -0.240154 -0.256437 0.0392891 -0.0809925
29 0.274443 -0.222848 -0.064593 0.263285 -0.278053 0.148178 0.115629 0.15122 0.0780243 0.0464114 -0.122277 0.170887 -0.106451 0.0774544 0.25196 0.341292 0.171825 -0.0203991 0.257145 0.305085 0.0295919 0.390249 0.197287 -0.000555804 -0.160655 0.308368 0.310125 -0.141798 0.294214 -0.359133 0.0436311 -0.413939 -0.0398845 -0.32299 -0.131723 -0.192304 0.383122 -0.365691 -0.355291 0.292801 -0.466487 -0.422303 0.390169 -0.305824 0.0533333 -0.211375 0.176129 0.194614 -0.219348 -0.0966009 -0.297024 -0.452759 -0.246279 -0.094907 0.00182666 0.302283 0.124887 0.370419 -0.349037 -0.112326 -0.215881 0.185502 -0.351316 -0.0216803 -0.267344 0.289275 -0.275648 -0.289132 -0.0411669 -0.259217 0.28867 -0.231801 -0.113398 0.141363 -0.149741 0.217471 0.041362 -0.288697 -0.225557 0.420523 0.0192482 -0.2505 -0.448792 -0.0916803 -0.134902 -0.131324 0.124206 -0.226379 0.354538 0.0608503 -0.147128 -0.305231 0.0414242 -0.026769 0.0636473 -0.083703 0.270951 -0.115717 0.0628349 -0.236165 0.240943 -0.526519 -0.0447349 -0.383902 0.326705 -0.160827 -0.120617 0.32185 0.198536 -0.194599 -0.167161 0.297248 0.272252 -0.510332 -0.275721 0.2803 0.656563 -0.158909 0.010762 -0.0218044 -0.217871 -0.0209037 0.256455 0.347323 -0.210035 -0.0322368 -0.243212 -0.267398
30 0.246218 0.190221 0.119152 0.223265 -0.242729 0.518303 0.366671 0.134356 -0.0787769 0.0339495 -0.303846 0.309347 -0.243967 -0.143482 -0.203716 0.527606 0.168478 -0.115737 0.0736036 0.225069 -0.0793001 0.235817 0.1166 0.106746 -0.330281 -0.0184571 0.155779 0.183958 -0.252063 -0.221442 0.0660664 -0.283914 0.206191 -0.235896 -0.210265 -0.280778 0.238271 -0.144157 -0.25487 0.21643 -0.333715 -0.0903958 0.468643 -0.286412 -0.352175 -0.433623 0.351987 0.191748 -0.24035 -0.209992 0.275851 -0.266673 0.219048 -0.157041 -0.0942947 0.199889 0.146592 -0.0570485 -0.000898947 -0.162799 -0.14684 0.125159 -0.435731 -0.184785 -0.546278 0.22963 -0.328338 -0.156728 -0.226485 -0.310922 0.253145 -0.354855 -0.468454 -0.0335679 0.229878 0.303463 0.412969 -0.290709 0.0934505 0.239645 0.205534 0.0818139 -0.151232 -0.0223786 -0.165426 -0.19605 -0.100951 -0.383573 0.0926106 0.190765 -0.222473 -0.025932 0.186504 0.590209 -0.145314 -0.23045 0.185628 -0.377033 0.114056 -0.23612 0.138839 0.00251029 -0.50153 -0.587436 0.306824 -0.349741 0.419193 -0.0514934 0.301541 -0.0782168 -0.394794 0.093292 0.00490647 -0.0169284 -0.226287 0.236435 0.254455 -0.0245297 -0.160363 -0.214397 -0.154845 -0.26199 0.418781 0.128767 0.207546 -0.439728 -0.201084 0.0008438
31 0.268877 0.0678505 -0.651318 0.332439 -0.2076 0.294824 0.0532778 0.164037 0.224877 -0.271933 -0.429806 0.19554 0.025491 -0.108279 -0.162702 0.627777 -0.033646 -0.115701 0.0867304 0.312356 -0.0770062 0.217059 0.218637 -0.239359 -0.148891 -0.07467 0.284481 0.14538 -0.0721627 -0.285803 0.255136 -0.250146 0.0176328 -0.156528 -0.281759 -0.22591 0.234478 -0.249199 -0.22848 0.32865 -0.291341 0.0965756 -0.00617485 -0.522002 0.191072 -0.39061 0.310914 -0.160828 -0.265103 -0.176909 -0.137727 -0.196799 -0.182411 -0.161862 0.0173006 0.0355121 0.311872 0.190685 -0.438863 -0.063141 0.167307 0.263352 -0.129048 0.389956 -0.496207 0.137331 -0.29137 -0.421453 -0.343592 -0.26707 -0.200434 0.0876126 -0.265313 0.176911 -0.0411246 0.144326 -0.126111 -0.348512 -0.0931346 0.38896 0.00145138 0.362723 -0.549772 -0.0898326 0.144808 0.461889 0.0475841 -0.168096 0.616689 0.277106 0.28343 -0.0598985 0.287215 -0.0560022 0.202346 -0.337525 0.291759 -0.0351206 -0.174442 -0.243347 -0.00709663 -0.0740811 -0.439635 -0.33951 0.135048 -0.374603 -0.1377 -0.12771 0.23194 -0.0279021 -0.142138 0.217901 0.0281804 -0.371869 -0.16325 0.170767 0.141947 -0.185964 0.195152 -0.159717 -0.0677886 0.360815 0.150792 0.162014 0.464701 -0.0958833 -0.207578 -0.159666
32 0.210782 0.153065 0.140655 0.412274 -0.307375 0.321751 0.210791 0.110026 0.0945528 0.066558 -0.299577 0.30727 -0.342627 -0.0545263 -0.493082 0.143102 0.164664 -0.204913 0.0953531 0.304605 -0.102827 0.256029 0.214179 0.0518332 -0.56886 -0.0217281 0.231729 -0.0418701 0.142927 -0.117657 0.256951 -0.426902 0.157525 -0.224561 -0.234734 -0.248366 0.206754 -0.272107 -0.284625 0.54808 -0.365738 0.240035 -0.0641404 -0.449293 -0.435636 -0.448977 0.312185 -0.0149576 -0.289937 -0.12086 0.0931346 -0.361497 -0.258025 0.00255584 0.438427 0.176028 0.132628 -0.00969315 -0.236224 -0.166937 0.303768 0.187131 -0.418939 0.243734 -0.306167 0.451052 -0.122552 -0.0293587 -0.2511 -0.253898 0.494261 -0.214419 -0.470243 -0.148549 -0.0531703 0.203264 0.119817 -0.275892 -0.0431937 0.295058 -0.0294365 -0.119188 -0.558581 -0.0525767 0.0476424 -0.105117 -0.439887 -0.128285 0.0882211 -0.0778756 -0.216669 -0.0351531 0.126425 0.232933 0.479423 -0.00822955 0.25306 -0.148944 0.197775 -0.185682 -0.140802 -0.172894 -0.416493 -0.0999987 0.358893 0.486063 -0.364972 0.190192 0.21718 -0.0743534 -0.0970727 0.449651 0.342861 0.0123431 -0.323862 0.182236 0.823916 -0.114084 0.106484 -0.173003 0.111916 -0.24149 0.0503358 0.341403 -0.0945157 -0.533782 -0.143061 -0.00320692
33 0.224344 0.151114 -0.00491193 0.130804 -0.154981 -0.00212317 0.183205 0.102356 -0.153806 -0.241928 -0.304354 0.277831 -0.107835 -0.00575697 0.0342354 0.28787 0.0996312 0.266731 0.0303095 0.172896 -0.181779 0.284428 0.111972 -0.244889 -0.23016 -0.0244574 0.160879 -0.0259601 -0.10373 -0.178946 0.190108 -0.484026 0.153362 -0.110428 -0.169428 -0.202768 0.227377 -0.293076 -0.248102 0.080896 -0.147304 0.0490934 0.28207 -0.395164 -0.137716 -0.302233 0.273245 0.0888159 -0.400927 -0.0483886 -0.0234133 -0.360656 -0.149551 -0.0992661 0.0599852 0.242852 0.274452 -0.164963 -0.287314 -0.0992104 0.354087 0.210843 -0.255039 0.00574524 -0.25901 0.231542 -0.255858 0.163993 -0.144601 -0.275939 0.198777 -0.0901581 -0.243148 -0.0586975 0.346522 0.184007 0.0425436 -0.151246 0.0130861 0.13123 0.0131924 -0.122122 -0.33747 -0.264975 0.0334821 0.151427 -0.198696 -0.24395 0.316984 0.0081159 -0.309745 -0.326021 0.0731453 0.414881 -0.194502 -0.14994 0.307452 0.256914 -0.00656927 -0.217723 0.0415731 0.0610543 -0.244658 -0.776444 0.343414 -0.209735 -0.584533 -0.306234 0.0929546 -0.019361 -0.2194 0.14811 0.103665 0.267341 -0.318972 0.120065 -0.196184 -0.0760823 -0.162328 -0.131568 -0.152686 0.00875032 0.208902 0.408639 0.183346 -0.585555 0.202511 -0.498526
34 0.292762 -0.0829188 0.01952 0.436744 -0.253103 0.354303 0.14995 0.000407663 -0.294715 -0.200194 -0.479596 0.167637 -0.357688 0.0967674 -0.585425 0.664971 -0.166289 -0.339114 0.0159314 0.168255 0.0485241 0.326963 0.269113 0.196679 -0.671682 -0.180018 0.268302 0.00947561 0.00249804 -0.159109 0.118321 -0.138981 0.0311524 -0.0222838 -0.246319 -0.342253 0.178318 -0.313263 -0.412219 0.433695 -0.160644 0.0390964 0.0660268 -0.257772 -0.448188 -0.468978 0.106795 0.0510685 -0.25297 -0.0736717 0.32518 -0.309869 0.0209555 -0.0559846 0.194657 0.165822 0.00452583 0.295159 -0.0920244 -0.187946 -0.0232054 0.0972179 -0.206253 -0.00463027 -0.0997208 0.274251 -0.36834 -0.331137 -0.0711602 -0.279119 0.411815 -0.304737 -0.0631557 0.270576 0.328572 0.117699 -0.0899321 -0.2265 -0.089048 0.22151 -0.104969 -0.109001 -0.908845 -0.139899 -0.382755 0.109854 -0.156981 -0.216903 0.188394 -0.411439 -0.0697107 -0.394678 0.208 0.00206739 -0.183122 0.060876 0.288932 -0.0127947 0.16856 -0.14467 0.0440986 -0.514992 -0.11749 -0.191841 0.499637 -0.154909 -0.0496007 -0.134001 0.28433 0.0506908 -0.0454402 0.218187 0.109589 -0.187826 -0.339942 0.374216 0.413489 -0.171055 0.0278135 -0.209437 -0.332654 -0.0575308 0.253612 0.325743 0.390019 -0.187463 -0.213536 -0.273592
35 0.24526 0.194563 0.225501 0.297599 -0.264417 0.261329 0.10849 0.0742901 0.295871 0.0797599 -0.428937 0.242263 -0.655885 -0.342975 -0.185506 0.0816681 -0.311089 0.103332 0.0761522 0.200044 -0.0907537 0.284175 0.111071 -0.19232 -0.493364 0.00943625 0.339938 -0.164477 -0.151209 -0.211286 0.208496 -0.391328 0.615158 -0.300938 -0.346363 -0.208867 0.287417 -0.338375 -0.376545 0.085487 -0.176054 0.220001 0.220201 -0.30842 0.04865 -0.0652229 0.427606 0.361226 -0.345515 -0.109566 -0.0402839 -0.39831 0.291021 -0.045291 0.531858 0.122857 0.0856797 0.107036 -0.0720544 -0.141755 -0.220222 0.220212 -0.430144 0.112391 -0.250882 0.42324 -0.41067 -0.0211144 -0.065281 -0.343841 0.0858899 -0.221595 -0.0777428 0.296332 0.0299701 0.184005 0.134244 -0.0102777 0.0256975 0.375523 -0.00265778 -0.149515 -0.342319 -0.25798 0.121696 -0.0672939 -0.00105546 -0.154529 0.432165 0.334662 -0.077258 -0.240807 0.0792859 0.0510381 0.0521255 0.0541439 0.108646 -0.268056 0.0156472 -0.0302078 0.159502 -0.21268 -0.123152 -0.599726 0.401264 -0.491108 -0.323033 0.296482 0.196078 -0.0941307 -0.199807 0.338674 -0.153213 -0.0841559 -0.311227 0.276246 0.0801516 -0.0388273 -0.175056 -0.075968 -0.525809 0.327166 0.175463 0.470102 0.143851 -0.489493 -0.24805 0.0328198
36 0.20874 0.17996 0.0340415 0.294153 -0.215613 0.12139 0.246217 0.0879078 0.365175 -0.392828 -0.262043 0.350221 -0.484157 -0.0691771 -0.435501 0.29146 -0.213871 -0.0963736 0.0145056 0.238436 0.238371 0.262987 0.143981 -0.0200716 -0.387476 0.0252227 0.308529 -0.197772 -0.180382 -0.228718 0.178876 -0.110131 -0.282249 -0.291262 -0.266975 -0.179404 0.171676 -0.357933 -0.328397 0.201212 -0.48399 -0.182829 0.318682 -0.37206 -0.206329 -0.334414 0.029681 -0.0531492 -0.162392 -0.157731 -0.224109 -0.12675 -0.305746 -0.169253 -0.108862 0.129213 0.0716958 0.00299784 -0.00270277 -0.225733 0.195826 0.220719 -0.332904 0.00847026 -0.228611 0.205505 -0.285949 -0.195556 -0.127896 -0.343047 0.515121 -0.0778939 -0.855593 0.209537 0.13139 0.249607 -0.00955922 -0.398666 0.00988189 0.329213 0.0497186 0.227008 -0.552659 -0.104864 -0.251884 -0.10501 -0.0368669 -0.093914 0.0660259 -0.00854836 -0.117952 -0.338339 0.100866 -0.166025 0.233853 0.0843917 0.271042 -0.141363 -0.00782353 -0.21503 -0.0179742 -0.149268 -0.393262 -0.435184 0.418591 0.462842 -0.143867 -0.310165 0.336698 0.14286 -0.100954 0.238347 -0.00373593 -0.224296 -0.152805 0.0712822 0.130622 -0.146692 0.137902 -0.339965 -0.0553657 -0.0390761 0.253017 0.304077 0.0202554 -0.353541 -0.0455133 -0.146359
37 0.293869 0.731767 0.49903 0.367518 -0.18673 -0.103797 0.102554 0.154241 0.124422 -0.212162 -0.301136 0.219201 -0.584359 -0.210434 0.0405816 0.252808 0.045716 0.00130214 0.153796 0.318835 -0.205277 0.303536 0.49465 0.100383 -0.557799 -0.17889 0.325277 -0.314207 -0.183345 -0.358284 0.0768227 -0.210035 -0.394674 -0.126277 -0.274291 -0.44213 0.508959 -0.205201 -0.295919 0.228006 -0.129735 -0.129705 0.356028 -0.183338 -0.631892 -0.367518 0.542208 0.213979 -0.0932435 -0.0727671 0.181451 -0.160385 0.311759 -0.233947 0.108544 -0.0062244 0.0575207 0.290514 -0.270918 -0.200997 -0.292789 0.274679 -0.530315 0.197014 -0.587115 0.222603 -0.234793 -0.406918 -0.298592 -0.194793 0.356888 0.299511 -0.124827 0.0497737 0.0621254 0.349233 0.160722 -0.131551 -0.322808 0.295295 0.108478 -0.0317826 -0.649533 -0.287116 -0.364802 0.241846 -0.312506 -0.0990237 0.405846 -0.297869 0.203843 0.139343 0.273054 0.0714 -0.160437 0.204474 0.37184 0.371926 -0.21734 -0.291536 -0.271144 0.0619323 -0.443585 -0.471194 0.467252 0.0467706 -0.367104 0.21515 0.171171 0.130196 -0.0763642 0.0212525 0.344579 -0.124278 -0.199604 0.267168 0.429827 -0.136877 0.246256 -0.098565 -0.0593116 0.447452 0.0699333 0.306475 0.102602 -0.388157 0.0738672 -0.655691
38 0.381043 0.6526 -0.12263 0.426201 -0.211105 0.561468 -0.153297 0.247962 -0.00255918 0.137668 -0.15726 -0.0674293 -0.563401 -0.0376429 -0.0763771 0.277583 0.177915 -0.129088 0.11326 0.358719 -0.218494 0.209671 0.277493 0.0364683 -0.603808 0.0395708 0.240025 -0.0112599 -0.432298 -0.214266 0.243003 -0.280112 0.0347406 -0.194699 -0.264291 -0.209709 0.33664 -0.253983 -0.318312 0.340362 -0.188445 0.318324 0.18263 -0.293427 -0.502007 -0.243238 0.357201 0.0895409 -0.341991 -0.000159522 -0.021858 -0.181411 -0.489872 0.0846562 -0.0664458 0.0101276 -0.0157953 -0.0290029 -0.240712 -0.230167 -0.597682 0.157198 -0.109146 -0.000265567 -0.671056 0.109428 -0.348822 -0.0794427 -0.0292872 -0.238982 0.370598 -0.114858 -0.155637 0.166842 0.188282 0.177293 0.410615 -0.193543 -0.295511 0.359652 0.154181 -0.456098 -0.470982 -0.154104 -0.125579 0.488808 0.0417599 -0.171852 0.693998 -0.12429 0.00980303 -0.131579 0.0978702 0.0711248 -0.118823 -0.00739533 0.301367 0.0084324 0.258157 -0.177314 0.274586 -0.621232 -0.102744 -0.610208 0.399067 -0.116348 -0.0128836 -0.275445 0.283184 0.103811 -0.354606 0.380461 0.0779315 -0.023164 -0.249908 0.468211 0.208791 -0.280853 -0.186369 -0.256085 -0.65874 -0.322867 0.0745694 0.275752 0.0173116 -0.846565 -0.284734 0.0967282
39 0.180773 0.498008 -0.0987222 0.447174 -0.244975 0.249264 0.212137 0.195553 -0.0474214 -0.133482 -0.121269 0.148498 -0.359949 -0.235874 -0.211489 0.619581 0.0122894 -0.238908 0.306735 0.195774 -0.0693232 0.181333 0.332449 0.0129652 -0.618212 -0.185417 0.237171 -0.0196974 -0.270566 -0.163493 0.060927 -0.420786 -0.0183764 -0.192782 -0.231017 -0.270338 0.527651 -0.137619 -0.226546 0.303285 -0.166301 -0.429577 0.404479 -0.327467 -0.601088 -0.556017 0.561406 -0.136254 -0.280823 -0.145073 0.0130811 -0.295045 -0.294618 -0.0933988 0.184661 0.295519 0.160092 0.261444 -0.278828 -0.284951 0.0148416 0.138651 -0.411136 -0.138707 -0.530066 0.232544 -0.327584 0.0972062 -0.264714 -0.247135 0.535636 -0.148899 -0.287524 -0.15071 0.395075 0.256636 0.050982 -0.201635 -0.0225618 0.254239 -0.0198364 -0.0669209 -0.354188 -0.113203 0.0593572 0.307164 -0.358081 -0.274236 0.688001 -0.0121228 -0.439148 -0.299063 0.141952 0.166241 0.0733718 0.301793 0.327772 0.00640681 0.382795 -0.138331 0.193419 -0.343263 -0.0573465 -0.497549 0.381797 0.0774046 0.0824705 0.163071 0.289212 0.0223936 -0.23996 0.222599 -0.0274257 0.156882 -0.118958 0.116951 0.144673 -0.141832 0.0730611 -0.216007 -0.292091 0.345126 0.272143 0.134606 0.00861207 -0.33476 -0.187726 -0.560171
40 0.19005 0.43455 0.0452053 0.305507 -0.256133 0.313465 0.135081 0.286487 -0.229972 0.0140003 -0.193375 0.17583 -0.598267 0.216412 0.0183077 0.330431 -0.669381 0.460946 0.136032 0.299489 0.296993 0.325288 0.277283 -0.152703 -0.263846 -0.0878648 0.156046 -0.0865521 -0.229781 -0.185863 0.156551 -0.0302582 -0.0434583 -0.28694 -0.271864 -0.336014 0.312829 -0.302194 -0.188278 0.713736 -0.162353 -0.393069 0.211242 -0.195128 -0.511513 -0.46078 0.173056 0.0587653 -0.292471 -0.081317 0.22118 -0.203689 -0.189185 -0.174304 0.207224 0.212944 0.268159 -0.121772 -0.264964 -0.242916 -0.295711 0.237207 -0.13599 -0.0811258 -0.338543 0.371554 -0.535433 0.0509251 -0.227524 -0.348994 0.476864 -0.139052 -0.228222 -0.124017 0.10091 0.27482 -0.327538 -0.362956 0.0498337 0.299266 0.0393693 -0.206347 -0.665091 -0.114735 -0.0482118 0.272561 -0.178084 -0.255629 0.574585 0.113984 -0.5378 -0.20883 0.245857 0.175796 0.118371 0.0226313 0.267348 -0.15172 0.302062 -0.159778 -0.0343889 0.0186281 -0.0706783 -0.474575 0.399856 0.14178 0.0342904 0.0724105 0.252335 -0.129579 -0.135608 0.0728166 -0.0994479 -0.172595 -0.252008 0.243521 -0.0491539 -0.0145136 -0.284057 -0.157232 -0.0206279 -0.222487 0.124609 0.274396 -0.0650801 -0.408712 -0.350483 -0.215566
41 0.180941 0.126913 0.174647 0.179007 -0.32229 0.544029 0.246028 0.169626 -0.269925 -0.184778 -0.388993 0.210184 -0.204135 -0.29874 0.153341 0.237445 0.159219 -0.446392 0.239768 0.335455 0.245368 0.299366 0.12137 -0.0222985 -0.130389 0.056526 0.201982 -0.0387663 -0.140543 -0.24764 0.411328 -0.454175 0.374658 -0.317568 -0.214384 -0.417951 0.194758 -0.167762 -0.204925 0.600691 -0.0498703 0.0995067 0.252415 -0.266629 -0.328792 -0.127406 -0.186343 0.0109014 -0.125595 -0.258931 0.19339 -0.214097 0.540284 -0.284333 0.0845265 0.137124 0.28368 -0.109147 -0.406473 -0.277334 -0.436533 0.101984 -0.266348 -0.0761125 -0.186613 0.1304 -0.414428 -0.187759 -0.0129472 -0.285307 0.0215191 -0.289023 -0.349206 -0.245563 0.217146 0.31158 -0.0858295 -0.144963 0.0834581 0.318101 -0.0365666 0.345166 -0.494601 -0.237458 -0.208343 0.253698 -0.351359 -0.251385 0.248862 -0.0214143 -0.165231 0.0711444 0.249246 0.389639 -0.0951272 0.321933 0.262187 0.306852 -0.0941082 -0.191121 0.0475022 -0.0438961 -0.087305 -0.258132 0.13734 0.114206 0.105496 -0.142921 0.380236 -0.421792 -0.128251 0.0850739 -0.0352514 -0.246066 -0.168254 0.170473 0.437466 -0.178697 0.250505 -0.135505 -0.280012 -0.056522 0.360594 0.295364 0.114834 -0.00125395 -0.210287 0.000114164
42 0.320716 0.190025 0.0760116 0.156209 -0.196473 0.0992895 0.255285 0.146122 0.065626 -0.377794 -0.281366 0.264466 -0.0997978 -0.0523322 -0.192141 0.341024 -0.335755 0.298199 0.223999 0.377487 0.217357 0.174401 0.351048 -0.114544 -0.171654 0.350336 0.207256 -0.105764 0.19756 -0.340514 0.321475 -0.182746 0.05608 -0.155242 -0.0852707 -0.125448 0.548962 -0.211222 -0.142421 0.267909 -0.115448 -0.374082 0.250467 -0.0377719 0.0328387 -0.0322129 0.0320357 -0.11132 -0.292283 -0.156872 -0.082151 -0.219983 0.10512 -0.489606 -0.137589 -0.0358865 -0.0126657 0.197048 -0.266731 -0.271309 0.262471 0.1729 -0.121533 0.225933 -0.324941 0.153108 -0.137265 -0.154737 -0.0255928 -0.272745 0.158036 -0.537218 -0.289323 0.262913 -0.361313 0.353458 0.109768 -0.183451 -0.24955 0.373006 0.13965 0.107741 -0.31701 -0.121683 -0.231888 -0.354125 -0.0491906 -0.248347 -0.094516 -0.0315017 0.101094 -0.0545843 0.263132 0.0857683 -0.318328 -0.56396 0.0286042 0.0120281 -0.0676287 -0.126077 0.344664 -0.339955 -0.395664 -0.156673 0.0709745 0.361099 0.173659 -0.00635963 0.186916 0.0446496 -0.165553 0.44762 -0.0585837 0.0595631 -0.178986 0.608477 0.0984596 -0.560233 0.214785 0.0786133 0.0390085 -0.0817009 0.276844 0.418751 0.21163 0.0465475 -0.1976 -0.0163903
43 0.290205 0.0167696 -0.343335 0.118302 -0.336685 0.0150406 0.29055 -0.100388 -0.0696532 -0.0973149 0.0161399 0.124031 -0.175654 0.0269118 -0.164746 -0.170268 0.216933 -0.522909 0.0720094 0.261511 -0.0951069 0.484217 0.307081 -0.352107 -0.0888718 0.156294 0.411512 -0.488233 0.248021 -0.494464 0.135751 -0.0798722 -0.0183783 -0.375327 -0.170101 -0.181414 0.0382284 -0.815329 -0.338536 0.0714758 -0.566621 -0.0599004 0.124919 -0.358211 0.144444 -0.0616945 0.327966 0.0328298 -0.206614 -0.398774 -0.284532 -0.644072 0.608223 -0.221138 -0.417037 0.458235 -0.0860077 -0.0495973 -0.49367 -0.048534 0.207679 0.349424 -0.60119 -0.145646 -0.360439 -0.00267979 -0.272484 0.127516 -0.265008 -0.472694 -0.125211 -0.0753673 -0.435723 0.0397384 0.233824 0.115971 0.583855 -0.406341 0.217096 0.174619 0.2629 0.224877 0.0199698 -0.21562 0.10411 -0.0592335 -0.549455 -0.375963 0.025959 -0.283478 -0.0505476 -0.312092 0.292213 -0.0720862 0.209489 -0.202096 0.213872 -0.275896 -0.310203 -0.200941 0.00158662 -0.285888 -0.476943 -0.124788 0.250271 0.191021 -0.0719419 0.150405 0.530385 -0.272073 -0.230379 0.129366 -0.360335 -0.0375459 -0.503304 -0.0677576 -0.345771 -0.373278 -0.0292133 -0.351389 -0.156538 -0.120161 0.491929 -0.110571 0.456659 -0.413721 -0.433827 -0.144987
44 0.253081 0.217366 -0.136453 0.0682805 -0.342301 0.10373 0.37541 0.0312258 -0.103136 -0.050957 -0.169171 0.138055 0.0260238 -0.283926 -0.157127 0.205932 0.32845 -0.292885 0.237245 0.201301 -0.139501 0.537183 0.318772 0.00118642 -0.124544 -0.0688916 0.319735 -0.471858 0.272134 -0.357256 0.100354 -0.0200528 -0.155036 -0.192737 -0.28471 -0.152139 0.121736 -0.322957 -0.302208 0.0999844 -0.168832 -0.111923 0.251752 -0.218944 0.0423255 0.0216041 0.196975 0.242333 -0.183815 -0.252452 0.393017 -0.33808 0.166954 -0.286253 -0.450404 0.353962 0.0887854 0.211298 -0.219364 -0.124226 0.465075 0.266035 -0.547779 0.528729 0.0601509 0.200413 -0.190872 0.142197 -0.147892 -0.332925 -0.0292927 -0.103418 -0.123798 -0.0729257 0.0212147 0.160439 0.149795 -0.322722 0.176396 0.229045 0.0775691 0.319324 0.0211621 -0.239154 -0.161166 -0.0702277 -0.0853031 -0.370511 -0.000449423 -0.0680036 -0.240212 0.183784 0.431743 -0.20765 -0.157342 -0.0868774 0.266986 -0.200594 -0.231224 -0.296889 0.0187256 -0.323503 -0.324869 -0.19617 0.195777 0.355855 -0.361315 0.201314 0.220487 -0.155737 -0.170526 0.0755471 -0.641026 0.0935466 -0.40834 -0.0746168 -0.247431 0.0405584 0.040055 -0.143981 0.0751538 -0.050935 0.257351 -0.000177979 0.351232 -0.195687 -0.238805 0.121131
45 0.186046 0.414698 0.0169007 0.10716 -0.284362 0.0318967 0.109842 0.311407 0.254394 0.0228228 -0.340606 0.384526 -0.486407 0.129699 0.176762 -0.115056 -0.395726 -0.308301 0.0900222 0.34315 -0.0612239 0.280304 0.157739 0.184346 -0.349591 0.478535 0.280716 -0.168345 -0.292239 -0.404089 0.126626 0.220468 0.359077 -0.316401 -0.167002 -0.361385 0.383785 -0.284371 -0.390691 0.147182 -0.164751 0.163359 0.40024 -0.365693 -0.244628 -0.144915 -0.335796 0.472824 -0.264566 -0.429581 -0.204217 -0.344729 0.260205 -0.262485 -0.272763 0.0498965 0.338223 -0.121176 -0.304925 -0.275113 -0.472566 0.325848 -0.00641952 0.341618 0.108475 -0.162466 -0.0797555 -0.0596411 -0.140883 -0.418789 -0.474958 -0.450645 -0.149667 -0.0692758 -0.184453 0.0715546 0.488782 0.0634537 0.228275 0.236352 -0.0892812 -0.192614 -0.681384 -0.363451 -0.464385 0.280407 -0.00309551 -0.375904 0.414384 0.0771696 -0.365458 0.185161 0.256173 0.184249 0.188002 0.0249254 0.425109 0.174535 -0.272173 -0.168149 0.151594 -0.522718 0.137201 -0.10914 0.204856 -0.192869 -0.576798 0.392593 0.40197 0.302063 -0.3033 0.100626 -0.190793 -0.404393 -0.120084 0.0300241 -0.155865 -0.245167 -0.158 -0.0289632 0.0235602 0.329392 0.14386 0.029007 -0.118298 0.28067 0.0617612 0.145925
46 0.177785 0.432058 -0.0886688 0.352665 -0.191286 -0.0993941 0.0208034 0.326222 -0.108314 -0.370596 -0.370327 0.390138 -0.542794 -0.343734 -0.347643 -0.105376 -0.115172 0.0527801 0.123053 0.203754 -0.0923445 0.327287 0.149452 0.0537837 -0.318003 0.333108 0.262135 -0.119862 -0.340936 -0.574345 0.165504 0.25806 -0.0471008 -0.29524 -0.277298 -0.342527 0.21615 -0.389205 -0.275223 0.0532814 -0.16923 0.242055 0.50085 -0.248719 -0.359808 -0.151772 0.135901 0.0642534 -0.251602 -0.214552 0.0448562 -0.30512 0.225298 -0.233399 -0.196718 -0.0540686 0.0787406 -0.161636 -0.124101 -0.417458 -0.341554 0.459492 -0.060334 -0.0836506 0.0246692 0.144205 -0.00888005 -0.0282908 -0.133784 -0.282423 0.0278073 -0.49604 -0.19284 -0.0906626 -0.637829 0.216455 0.259233 -0.222701 0.0679542 0.20671 0.0178356 -0.236915 -0.427496 -0.188462 -0.56961 0.016876 0.0432922 -0.308589 0.494033 -0.15262 -0.342583 -0.291428 0.0768683 0.0360854 -0.00255121 -0.122291 0.475471 -0.0284045 -0.0570534 -0.329366 -0.012632 -0.741573 0.0942316 -0.00993016 0.260172 -0.343516 0.0150964 0.33759 0.354252 0.0345888 -0.376868 0.435645 0.219175 0.0602153 -0.338302 0.243657 -0.300709 0.0137297 -0.0979344 -0.16006 -0.352791 -0.0701275 0.0147505 0.124425 0.0326807 0.382888 0.350402 0.104036
47 0.268959 0.0354466 0.172586 0.258403 -0.251654 0.308442 0.203841 0.240043 -0.193866 0.0906702 -0.351849 0.291822 -0.45592 -0.173487 0.0377116 0.172673 0.0326337 -0.55692 -0.00134904 0.287227 0.245523 0.401032 0.103459 0.0328372 -0.289027 -0.354295 0.152127 -0.261161 -0.236137 -0.153125 0.355674 0.0128849 0.423341 -0.320121 -0.296114 -0.324687 0.124983 -0.311122 -0.219234 0.285744 -0.140354 -0.237762 -0.00512864 -0.493246 -0.270224 -0.0695707 0.568557 0.145946 -0.430932 -0.0216172 0.186937 -0.251296 -0.390403 -0.106519 0.21714 0.14078 0.213458 -0.0131434 -0.257813 -0.26569 0.101454 0.30702 -0.197174 0.053687 -0.628978 0.483173 -0.313541 -0.0350249 -0.136765 -0.160418 0.12525 0.0951491 -0.276256 0.179731 0.124615 0.217582 0.182877 -0.161627 0.384104 0.425799 0.0704735 -0.250325 -0.220161 -0.116672 0.110455 0.0179783 0.175703 -0.185877 -0.27292 -0.232122 -0.176375 0.0934198 0.118398 0.266067 0.113399 -0.352051 0.121688 -0.0231932 0.141979 -0.301321 -0.237541 -0.131486 -0.629013 -0.419903 0.294038 0.150574 -0.426294 0.00711527 0.277032 -0.196257 -0.128428 0.697136 0.0841559 -0.0518153 -0.345762 0.11969 0.625345 -0.262126 -0.0343555 -0.0367403 -0.455895 -0.385817 0.188661 0.293322 -0.0329269 -0.222136 -0.0479738 0.154599
48 0.161263 -0.138002 -0.253522 0.460142 -0.285759 0.223647 0.111581 0.238679 0.035585 0.000602566 -0.406103 0.117924 -0.219871 -0.137762 -0.0939378 0.0393461 -0.141784 -0.193553 0.120946 0.140267 0.201415 0.292405 0.136034 -0.203896 -0.533455 0.0106573 0.252904 0.0177918 -0.267019 -0.0908159 0.146126 -0.196745 0.0388364 -0.276115 -0.459168 -0.186517 0.0303063 -0.300771 -0.37563 0.477686 -0.207091 0.493544 0.190142 -0.0841977 0.126386 -0.183473 0.184636 -0.0107974 -0.235534 -0.089046 -0.138225 -0.344266 -0.5074 -0.246155 0.0321159 0.195852 0.152185 -0.547041 -0.100941 -0.230493 0.365486 0.127447 -0.234718 0.0869019 -0.378775 0.171525 -0.447047 -0.421137 -0.200723 -0.185309 0.244589 -0.142149 -0.29835 0.221631 -0.461936 0.23415 -0.110887 -0.175396 0.13843 0.419772 0.291305 -0.0237255 -0.699151 -0.152294 0.047034 0.612586 -0.0843237 -0.130174 0.236113 -0.184105 0.0401966 0.187179 0.134147 -0.0298035 -0.234456 -0.162523 0.333711 0.203943 0.0560752 -0.153186 -0.108638 -0.439665 -0.175685 -0.442 0.236182 -0.0712529 0.190449 0.535145 0.350687 0.352299 -0.256685 0.497352 -0.0975385 -0.574621 -0.157851 0.332092 0.374662 -0.466022 0.194953 -0.184059 0.11025 0.149478 0.0995766 0.16061 0.23451 -0.185547 -0.140409 0.0191245
49 0.232287 -0.0565161 0.102697 0.420891 -0.214129 -0.102676 0.214721 0.277736 0.205866 -0.337713 -0.435986 0.247459 -0.655537 0.202551 0.0504617 0.220549 -0.417799 0.26865 0.00640037 0.214029 -0.00378552 0.414398 0.410305 -0.442926 -0.545821 -0.0251489 0.128064 0.0259544 -0.0237294 -0.321607 0.417149 -0.56126 -0.113886 -0.115754 -0.285929 -0.0918859 0.113532 -0.229387 -0.401767 0.368341 -0.243122 0.306325 0.38282 -0.268926 -0.110533 -0.306301 -0.196135 0.0710576 -0.169339 -0.184955 0.0371544 -0.338751 0.0820264 -0.406715 -0.0744205 0.3147 -0.246285 -0.555005 -0.172907 -0.270343 -0.193695 0.110421 -0.284121 0.156283 -0.158261 0.0908122 -0.430677 -0.506582 -0.295418 -0.132958 -0.180905 -0.0985924 -0.226058 -0.223366 -0.285905 0.346482 -0.124929 -0.146677 0.259536 0.28631 0.452946 -0.00594807 -0.207293 -0.417936 0.201893 0.175172 0.251863 -0.236917 0.0663086 -0.0553974 0.149531 -0.453211 0.15836 0.224302 -0.0300376 0.193577 0.519728 0.243462 -0.013489 -0.279663 -0.159321 0.149633 0.0823979 0.0162399 0.173798 -0.0903474 -0.353782 0.0920956 0.302293 0.20293 -0.0793016 0.26743 -0.182767 -0.238944 -0.496166 0.30189 -0.157969 -0.485576 0.38852 -0.136858 0.099509 0.317519 0.172239 0.15379 -0.14651 -0.705 0.0821944 -0.365404
50 0.311348 -0.127516 0.200343 0.448715 -0.24016 0.0356369 -0.120795 0.238285 0.113859 0.0262483 -0.322844 0.435737 -0.374184 0.0280741 0.21399 0.154614 -0.356181 -0.208585 0.0175161 0.32172 -0.0607118 0.186562 0.351091 -0.384012 -0.619269 0.391679 0.295291 0.0268284 -0.258868 -0.261796 0.162509 -0.18691 0.198226 -0.107528 -0.281977 -0.131149 0.22954 -0.0832034 -0.563422 0.424928 -0.554614 -0.126479 0.34447 -0.113896 0.120047 -0.183826 -0.0897145 0.248006 -0.190259 -0.0940279 -0.414145 -0.316477 0.0169209 -0.134103 0.036227 0.18502 -0.143327 -0.135433 -0.160955 -0.122623 -0.31129 0.138052 -0.277152 -0.0220956 0.0643961 0.0467503 -0.480451 -0.472988 -0.0383289 -0.216548 0.281218 -0.0691211 -0.676933 -0.111873 0.0196434 0.207837 -0.175215 -0.295191 0.494525 0.247088 0.150455 0.126028 -0.62933 -0.0341683 0.150107 -0.11511 0.0426929 -0.148138 0.00919922 -0.305332 0.306349 -0.0282326 0.349547 0.0791197 -0.262129 -0.200652 0.315546 0.0848726 0.0297916 -0.0315027 -0.00566185 -0.107521 -0.142691 0.0375423 0.255459 -0.0403395 -0.0972093 -0.0243041 0.448623 0.160851 -0.11535 0.211189 0.04352 -0.300709 -0.401039 0.181333 0.00798509 -0.487293 0.00545753 -0.16339 0.135286 -0.084165 -0.108841 0.0244188 0.189121 -0.192214 0.100826 -0.402947
51 0.392542 0.03295 -0.0123264 0.280225 -0.380803 0.311155 0.078808 0.0194371 0.363695 -0.416574 -0.213738 0.180941 -0.0426012 -0.0456206 -0.105966 0.0193475 -0.368626 -0.3983 0.03475 0.339387 0.371291 0.265714 0.28048 0.246279 -0.0430995 0.1995 0.210555 -0.0833474 -0.402132 -0.15179 0.437288 -0.268464 0.547244 -0.357584 -0.202459 -0.266791 0.427533 -0.289517 -0.311307 0.0696952 -0.167317 -0.209152 0.196156 -0.0151875 -0.35106 0.227629 0.286401 0.141273 -0.320138 -0.342741 0.150429 -0.272433 0.245724 -0.303883 0.00103816 0.28143 0.110467 0.28908 -0.353226 -0.0701545 0.0226414 0.0632171 -0.472422 -0.049565 -0.0353836 0.270229 -0.204313 -0.0901846 0.00675918 -0.31173 0.375645 0.124921 -0.568569 -0.126571 -0.160801 0.203789 0.129295 -0.085754 0.434048 0.323844 -0.0228194 0.245814 -0.241735 -0.167517 -0.252512 0.0115293 -0.198565 -0.199577 0.217663 -0.157041 0.00103092 0.227287 0.127759 0.200989 0.387352 -0.0857242 0.194526 -0.121787 -0.250486 -0.223719 -0.094466 -0.388818 -0.375083 -0.496795 0.134462 0.0371072 -0.289165 -0.0608685 0.2214 -0.128202 -0.330966 0.167664 0.249491 0.280079 -0.220351 0.0864787 0.162075 -0.03728 0.04822 -0.638124 -0.0072321 0.399654 0.199063 0.331368 0.0603588 -0.0191667 -0.0237749 0.198735
52 0.251263 -0.0905439 -0.371287 0.297075 -0.425664 0.016825 0.363206 0.08481 0.0659334 -0.178597 -0.255121 0.203535 0.270527 0.0374004 0.194189 0.0425805 -0.0314838 -0.238975 0.594572 0.316634 0.312727 0.30316 0.259129 -0.152752 -0.233051 -0.092508 0.35676 -0.357986 0.475377 -0.369201 0.41843 -0.1723 0.190407 -0.130359 -0.149906 -0.364548 0.174747 -0.390074 -0.278626 0.458859 -0.352107 0.0810395 0.00998673 -0.237308 -0.0194772 -0.177609 -0.0014028 0.272522 -0.302432 -0.400318 0.0907338 -0.362633 0.0928489 -0.0725297 -0.124559 0.220554 0.769485 0.137731 -0.547954 -0.0332743 -0.202311 0.330853 -0.380595 -0.0781267 0.227247 0.15514 -0.094174 -0.10557 -0.310947 -0.252176 -0.0607238 -0.0461929 0.281667 -0.326088 -0.0739207 0.352564 -0.086426 -0.571813 0.125965 0.292171 -0.131278 -0.154518 -0.0320317 -0.197126 -0.144847 -0.085756 0.117714 -0.300057 -0.00524085 -0.396187 -0.276243 0.091332 0.42458 0.350876 0.0856038 -0.109684 0.263165 0.0991667 0.071174 -0.288447 0.00818199 -0.0924335 -0.571566 -0.0449356 0.310911 -0.063354 -0.0743896 -0.380817 0.38688 -0.0997664 -0.113535 -0.0700679 -0.132559 0.0452089 -0.214845 0.069593 0.307712 -0.0409055 0.00362246 -0.208581 0.080717 -0.388276 0.0748953 0.535901 0.246414 -0.0847312 0.315898 -0.00446965
53 0.366708 0.293745 -0.108025 0.220238 -0.244801 0.299944 0.464069 0.0892606 -0.0135638 -0.0709203 -0.124719 0.34485 -0.076892 -0.214151 -0.0391651 0.15717 -0.239927 -0.0908503 0.455579 0.272941 0.212552 0.345167 0.322552 -0.00864541 -0.175979 -0.243634 0.276855 -0.361901 0.427131 -0.232259 0.415302 0.135318 -0.110944 -0.209052 -0.249975 -0.206334 0.250187 -0.308653 -0.311088 0.706438 -0.254121 -0.0875467 0.0376989 -0.10536 -0.416259 -0.200297 0.218807 0.106697 -0.153231 0.0355992 0.285577 -0.293909 -0.283494 -0.148366 0.0934022 0.105405 0.301844 -0.0824462 -0.345496 -0.0909045 -0.108717 0.174021 -0.116263 -0.227638 0.00101556 0.350907 -0.216308 0.141681 -0.0192018 -0.34762 0.151623 0.332855 -0.0859535 -0.083737 -0.0893326 0.434531 0.355209 -0.161059 0.0925969 0.244666 -0.204901 0.370745 -0.119668 -0.0863493 -0.0334671 0.0873329 -0.00853115 -0.26054 0.0532999 -0.196886 -0.148115 -0.281224 0.368546 0.468075 0.582824 -0.386246 0.169459 0.326127 -0.296947 -0.32205 0.216684 -0.172153 -0.17368 -0.143204 0.173519 -0.402086 0.0686171 -0.0537892 0.185118 -0.286574 -0.202538 -0.0593147 -0.212753 0.105623 -0.245965 0.264617 -0.082431 -0.0123724 -0.0897055 -0.213616 -0.0638012 -0.201194 0.327953 0.212957 0.151062 -0.0174594 -0.0305547 0.0543404
54 0.241928 0.191416 -0.012861 0.325799 -0.36196 0.162906 0.375069 0.0866088 0.294756 -0.0591021 -0.219437 0.0412512 0.0303159 -0.0269423 -0.136147 0.422902 -0.342692 0.15554 0.210249 0.216233 -0.104661 0.193924 0.214001 0.328835 -0.0293321 -0.0834143 0.391946 -0.384743 0.159877 -0.304535 0.00387762 0.021256 0.147545 -0.176626 -0.305452 -0.252908 0.0703963 -0.283502 -0.304672 0.346296 -0.235638 0.247305 0.5129 -0.0593571 -0.0526539 0.15104 -0.0845958 0.0313254 -0.234863 -0.381529 0.141894 -0.201514 0.152498 -0.41936 0.241427 0.361315 0.163914 0.112171 -0.266881 -0.523776 -0.1385 0.403577 -0.169604 0.375823 -0.115862 0.300336 -0.14762 -0.233635 -0.0927291 -0.252003 0.29053 -0.103515 -0.0884399 -0.31445 0.100056 0.109279 -0.391303 -0.319225 0.146025 0.261078 0.333739 0.105134 -0.177868 -0.15761 -0.490295 0.080736 -0.237383 -0.139543 0.0703933 0.0644701 -0.0245141 -0.462111 0.294553 0.391448 -0.0358251 0.189685 0.539202 0.222807 0.0896196 -0.276651 0.182357 -0.326163 -0.24565 -0.0206007 0.321893 0.124964 0.0537833 0.216881 0.258212 -0.32759 -0.36753 -0.0939467 -0.392923 -0.327812 -0.214221 0.0570425 0.00749473 -0.136548 0.0521839 -0.035961 -0.207442 -0.224801 0.18147 0.454761 0.203295 0.282434 0.23329 0.129757
55 0.254493 -0.0250112 -0.339084 0.112303 -0.301528 0.0428295 0.139357 -0.0196781 -0.158327 -0.047221 -0.183532 0.122362 -0.00433023 -0.199587 -0.281057 0.0192151 -0.368256 -0.244598 0.343745 0.228984 -0.130194 0.307505 0.271023 -0.0677995 0.0142899 0.0438951 0.296922 -0.0576134 0.259051 -0.383852 0.132374 0.0447125 -0.146181 -0.221576 -0.154506 -0.343114 0.306452 -0.089934 -0.51384 0.350483 -0.129668 0.241533 0.204588 -0.321523 -0.268323 -0.15196 0.282448 0.75217 -0.340528 -0.52267 0.165323 -0.189508 -0.215255 -0.494159 -0.188148 0.374622 0.115957 0.385591 -0.323413 -0.62563 -0.00868626 0.536194 -0.160257 -0.0407105 -0.0357534 0.251219 -0.13262 -0.0106268 -0.215108 -0.253417 -0.0613489 -0.200318 -0.5578 -0.42291 -0.153153 0.158127 -0.0964785 -0.0344235 -0.143086 0.206963 0.0209087 0.0727062 0.0384127 -0.253899 -0.213072 -0.166721 -0.207604 -0.315244 0.179996 0.11406 0.0300921 -0.358824 0.268655 0.0555268 -0.103816 0.0981407 0.422654 0.153656 0.107616 -0.382081 0.301291 -0.307837 -0.237548 0.00655436 0.26252 0.151342 -0.283258 0.507093 0.391297 -0.119068 -0.10556 0.0532984 -0.435161 -0.0423552 -0.226446 -0.0259825 0.182928 -0.231405 0.115745 -0.0348838 -0.170208 0.0941046 0.153634 0.26401 0.0580302 -0.0148358 0.637886 -0.0768921
56 0.276653 -0.0881446 -0.0429628 0.244564 -0.365443 0.0667253 0.302956 0.183926 0.234122 0.112332 -0.211499 0.180923 -0.0877882 -0.494264 -0.0749556 0.253095 -0.164974 0.089828 0.192363 0.202343 -0.00544528 0.226201 0.132836 -0.0341848 -0.0587322 0.122339 0.241021 -0.0273189 0.251856 -0.329532 0.283996 0.00044581 -0.141309 -0.242687 -0.451968 -0.24632 0.219801 -0.310486 -0.467335 0.0784816 -0.256029 0.0227707 0.60723 -0.316379 -0.387519 -0.125101 0.0311115 0.298242 -0.235674 -0.413935 0.302796 -0.241407 -0.129756 -0.277494 0.00800344 0.266014 0.170742 0.105 -0.0424736 -0.903839 0.0511893 0.631037 0.0693148 0.419961 0.123773 0.168414 -0.206834 0.187001 0.0956529 -0.353472 -0.111287 -0.250205 -0.110408 -0.449213 -0.377574 0.175974 -0.270186 -0.108543 0.0172754 0.219144 -0.0140702 -0.129789 -0.182329 -0.00584822 -0.00546187 -0.431792 0.196062 -0.336136 0.225883 0.43252 -0.0147672 -0.511456 0.445238 0.312075 0.041665 -0.302333 0.377565 0.313213 -0.0139031 -0.329481 -0.100579 0.0845565 0.0385162 0.0207333 0.275502 0.380893 -0.123039 0.165597 0.354846 0.0899153 -0.059309 0.260456 -0.250942 -0.0244651 -0.265282 -0.0387326 0.131666 -0.172785 -0.162757 -0.0948227 -0.265396 0.19646 0.408569 0.16064 0.433798 0.0807686 0.54894 -0.266965
57 0.194766 -0.148377 0.428383 0.207521 -0.306937 0.296196 0.39506 0.308657 0.312737 0.0465244 -0.501464 0.182679 0.125214 -0.238096 -0.0906944 0.0600232 -0.751703 -0.274379 0.147412 0.267948 -0.240071 0.218371 0.283663 0.130235 -0.22473 0.302811 0.295756 -0.149519 -0.115505 -0.33375 0.166367 0.287709 -0.120526 -0.108434 -0.378148 -0.351658 0.0757635 -0.347934 -0.453573 0.109992 -0.209986 -0.0802156 0.108446 -0.0152115 -0.0988951 -0.38547 0.12141 0.133084 -0.337061 -0.113177 -0.322307 -0.142812 0.268547 -0.393516 0.0305552 0.133205 0.196208 -0.0527761 -0.103479 -0.553324 0.165083 0.556508 0.0497636 0.0968113 -0.272498 0.355832 -0.304569 0.106461 -0.164603 -0.38876 -0.205853 -0.40409 -0.270028 -0.0720437 -0.0722976 0.256528 -0.039611 -0.26723 0.266062 0.329451 0.200653 0.170184 -0.0680436 -0.0160974 0.026513 0.164147 0.372795 -0.190534 0.226877 0.289488 -0.102979 -0.738668 0.397415 0.124312 -0.0220609 -0.307686 0.49175 -0.546861 -0.139588 -0.250584 -0.322421 -0.00557828 -0.307699 -0.0875877 0.0601899 0.156804 -0.0357835 0.421603 0.415448 -0.375404 -0.118319 0.492507 -0.404533 0.0903073 -0.192668 0.170009 0.0899059 -0.353427 -0.0480391 0.0605074 -0.394238 0.145803 0.165901 0.0799403 0.138597 0.268945 0.48068 -0.219709
58 0.333152 0.057119 -0.0326028 0.120313 -0.220439 0.33878 0.152561 0.0685765 -0.0591053 0.136284 -0.212813 0.188681 -0.332349 -0.213101 0.155667 -0.0165819 -0.271073 0.0763656 0.251711 0.156461 -0.271162 0.516111 0.340758 -0.213656 -0.155416 -0.304789 0.337625 -0.206365 0.268542 -0.33717 0.175266 -0.040314 -0.319403 -0.157652 -0.349263 -0.23117 0.215244 -0.163617 -0.32234 0.29675 -0.24986 0.248584 0.61302 -0.274636 0.104153 0.0389226 0.0670213 0.26392 -0.144071 -0.133376 0.00987191 -0.133574 -0.0147742 -0.503607 -0.275638 0.302451 0.1335 0.0173573 -0.121849 -0.377145 0.132387 0.450541 -0.136311 0.405491 0.0782039 0.490996 -0.0754953 -0.0510545 -0.139301 -0.362827 -0.0409449 -0.258315 -0.254122 -0.379554 -0.0874966 0.215946 0.0468107 -0.231056 -0.0370556 0.258481 0.0728073 0.0253423 -0.0498026 -0.337303 -0.200013 0.187741 -0.124379 -0.337983 -0.115081 0.316204 0.420483 -0.643716 0.338753 0.0807888 -0.0095957 -0.323666 0.167046 0.315866 -0.0806921 -0.305326 0.143959 -0.408484 -0.201665 0.00875147 0.194934 0.0766903 0.0579602 0.532495 0.439557 -0.309067 -0.365365 0.0594423 -0.193033 -0.323898 -0.180596 0.208112 -0.224686 -0.162293 0.0457638 -0.347735 -0.108848 -0.0816321 0.331436 0.012269 0.0932243 -0.118825 0.140121 -0.0107338
59 0.411147 -0.114916 0.448051 0.448849 -0.402591 0.323279 0.253711 0.00977338 0.341205 -0.00388361 -0.408295 0.119634 0.0654922 0.056826 -0.34228 0.376106 -0.234693 -0.172854 0.361498 0.0300827 0.0522556 0.180951 0.414123 -0.108655 -0.058851 0.0977335 0.273062 -0.399141 -0.11403 -0.307838 -0.0970168 0.085916 -0.159532 -0.270321 -0.215202 -0.424812 0.155151 -0.353002 -0.385505 0.435419 0.0180904 0.126115 0.367034 -0.187266 0.159248 -0.254224 -0.196835 -0.0843952 -0.217564 -0.610057 -0.195995 -0.101027 -0.29087 -0.457554 -0.0201587 0.148303 0.235634 0.349113 -0.0951359 -0.702382 0.105495 0.330963 -0.0896914 0.201918 -0.242812 0.291453 -0.125878 -0.0191781 0.0845456 -0.279187 0.420566 -0.155241 -0.142607 0.0771989 -0.248085 0.0935981 0.297447 -0.179685 -0.160602 0.285763 -0.00762737 -0.0643971 -0.470292 0.133156 -0.157643 -0.30909 -0.0373752 -0.264077 -0.000935267 0.315113 0.00892784 -0.0998026 0.263375 0.257678 -0.107389 -0.19422 0.558531 -0.272789 -0.122713 -0.311464 -0.00843673 -0.0926227 -0.243338 0.113034 0.107991 0.21107 -0.115633 -0.0915627 0.480791 -0.130744 -0.235588 0.244374 -0.0926026 0.0168824 -0.179391 0.0720953 0.119242 -0.0750457 -0.118388 -0.0995459 0.239138 0.184448 0.10126 0.233589 0.136469 -0.121267 0.619199 -0.182515
60 0.251052 0.18365 0.150755 0.257152 -0.285338 0.415945 0.149875 0.348796 0.080436 -0.47428 -0.139997 0.251787 -0.000898884 -0.136799 -0.308144 0.040076 0.332807 0.191627 0.358903 0.312821 0.59712 0.545298 0.213977 -0.00334276 -0.254486 -0.282475 0.237027 -0.650738 0.32539 -0.258237 0.408793 0.209757 0.313284 -0.112604 -0.391872 -0.332466 0.490728 -0.277458 -0.243289 0.113181 -0.306472 0.209742 0.129933 -0.137544 -0.0293489 -0.0802296 0.0713907 0.346685 -0.212875 -0.249653 -0.0356239 -0.277089 -0.261567 -0.291734 0.121423 0.273356 0.102471 -0.259206 -0.268238 -0.215748 0.0397693 0.0907984 -0.0827698 0.00330671 -0.310809 0.431662 0.0268256 -0.232145 -0.316885 -0.394787 0.314641 -0.114416 -0.00575892 -0.274629 -0.712125 0.382055 0.0360589 -0.269026 0.0328306 0.2563 0.271669 0.139131 -0.344967 0.018201 -0.0110674 -0.28122 0.0706503 -0.246805 0.104795 -0.196138 -0.260302 -0.457913 0.321542 0.150953 0.313911 -0.399864 0.25131 -0.356674 0.288861 -0.286966 -0.0029653 0.212683 -0.00377841 -0.0889372 0.346694 0.355995 0.182069 0.0573116 0.32318 0.373592 -0.553216 -0.0998492 -0.0722128 -0.174854 -0.376957 0.180989 0.09923 0.0153378 -0.0519196 -0.114469 -0.374977 -0.368668 0.260437 0.264431 0.339862 -0.370379 0.0201282 -0.171319
61 0.320259 0.26236 -0.0483582 0.282937 -0.169097 0.208466 -0.033013 0.188186 0.102673 -0.503926 0.0227905 0.24969 -0.115432 -0.151049 -0.274757 0.0127054 0.117585 0.156533 0.183258 0.373648 0.636884 0.575811 0.172568 -0.243755 -0.236788 0.0754087 0.301959 -0.365471 0.0490375 -0.32612 0.0907788 0.187397 0.372488 -0.252115 -0.233936 -0.0378602 -0.0219087 -0.660041 -0.143729 0.237442 -0.0473509 0.0521915 0.0170808 -0.084738 0.173733 0.11011 0.173782 0.355852 -0.194972 -0.323755 -0.0112537 -0.460233 0.00575639 -0.207531 -0.0427238 0.266852 0.245424 0.136226 -0.417743 0.0368409 0.111633 0.204767 -0.241164 -0.238745 -0.665145 0.00108636 -0.172564 -0.398713 -0.124039 -0.34502 0.234044 0.0811368 -0.057212 0.0187791 0.302715 0.400042 0.00132237 -0.302587 0.0310315 0.377817 -0.166998 0.344715 0.0153267 -0.0894762 0.214929 -0.503029 -0.514761 -0.21789 0.107869 -0.171667 0.558013 -0.358996 0.144929 0.359045 0.0692854 -0.108257 0.2014 -0.113237 0.249376 -0.309197 0.110442 0.11074 -0.483395 0.0258701 0.171591 -0.0546709 -0.204581 -0.108051 0.32127 -0.408816 -0.338077 0.165726 -0.299603 0.064859 -0.388049 0.236784 0.269399 -0.0238729 -0.00342779 -0.276581 0.317945 -0.0380629 0.253426 0.200729 0.0953268 -0.211571 -0.307601 0.109056
62 0.209966 -0.128183 0.0406265 0.262903 -0.252324 0.112227 0.25234 0.275746 0.0173456 -0.22916 -0.118541 0.310906 -0.026889 -0.211583 -0.0451437 0.251452 -0.247073 -0.0449081 0.168358 0.299513 0.0572312 0.0934197 0.0875366 0.425023 -0.186625 0.364047 0.307275 0.103629 -0.24526 -0.253298 0.204155 -0.0915632 0.28433 -0.246088 -0.39717 -0.13701 0.221328 -0.209956 -0.220501 0.153115 -0.0997276 -0.0493402 0.139556 -0.308978 -0.129928 -0.125032 -0.239833 0.150433 -0.290633 -0.269943 -0.0904968 -0.339124 -0.13046 -0.261547 0.0508898 0.13034 0.680924 0.0409156 -0.131681 -0.310734 0.0785618 0.354931 0.00989776 0.381914 -0.169619 0.280504 -0.192681 -0.140082 -0.349329 -0.272998 -0.17399 -0.365083 -0.448482 -0.0536726 0.12407 0.309388 0.26392 -0.179948 -0.20477 0.239184 0.243615 -0.0144306 -0.170458 -0.0477375 -0.0107929 0.254418 -0.0267853 -0.310546 0.189914 -0.056344 0.27377 0.349053 0.31133 0.123198 -0.304449 0.288425 0.334131 -0.316527 0.166071 -0.210057 0.11037 -0.0837213 -0.190376 -0.395731 0.164143 -0.18215 0.121888 0.0772007 0.173602 -0.152598 -0.176512 0.285678 0.285311 -0.204421 -0.193554 0.31059 0.174058 -0.466066 -0.150238 -0.17968 -0.00860952 0.0623804 0.207545 0.205798 0.390588 0.153415 -0.0600468 -0.0293078
63 0.390198 -0.0124095 -0.0510907 0.362548 -0.352309 0.15127 0.353756 0.256933 0.143268 0.139043 -0.36577 0.237191 -0.0398583 0.242106 -0.25408 0.267473 -0.335996 0.0193192 0.333812 0.193134 -0.042886 0.230584 0.278819 0.157549 -0.143616 -0.109134 0.299982 -0.28566 0.0780366 -0.376916 0.1966 -0.0705161 0.183167 -0.257591 -0.180487 -0.214415 0.193124 -0.339743 -0.255267 0.29367 -0.0377233 -0.0877951 0.309941 -0.141566 -0.312972 -0.00118662 0.0581449 0.175649 -0.212338 -0.473754 0.53189 -0.200518 -0.256664 -0.427298 -0.364029 0.0981251 0.232117 0.205478 -0.117989 -0.477524 0.123416 0.334489 -0.39127 0.160865 0.0179326 0.313536 -0.207696 0.307172 0.157284 -0.103359 0.147455 -0.216255 -0.155275 -0.0968094 -0.00509475 0.294304 0.35121 -0.203484 -0.0851194 0.324135 0.0150407 -0.098526 -0.657658 -0.033019 -0.222397 -0.00258616 0.176574 -0.230977 0.0484878 0.0359225 -0.196138 -0.297502 0.206757 0.374301 -0.202801 -0.475929 0.176677 -0.183839 -0.122482 -0.278462 0.0699844 -0.0646588 0.116186 -0.075181 0.0211036 0.233167 -0.204382 -0.166173 0.374419 0.0930133 -0.220124 0.270231 0.231611 -0.0897236 -0.19928 0.0574028 -0.269088 -0.143869 -0.302144 -0.0529202 -0.286494 -0.35302 0.238533 0.0701396 0.277949 -0.00472749 0.0840062 -0.171187
64 0.264183 0.315258 -0.229912 0.2689 -0.420595 0.148681 0.237612 0.261384 0.226108 -0.42907 -0.0877728 0.358411 0.0963952 -0.10263 -0.228609 0.206818 0.00157166 -0.0808891 0.274203 0.324415 0.398361 0.157497 0.296386 -0.18918 -0.226268 -0.273336 0.17584 0.0798118 0.26937 -0.20727 0.193501 0.000265145 0.00773181 -0.409685 -0.333481 -0.403319 0.0564372 -0.197424 -0.391942 0.130871 -0.121385 0.281745 0.128757 -0.149876 -0.027759 -0.079604 -0.0703088 0.255511 -0.151587 -0.107398 0.0532468 -0.272564 -0.384435 -0.334871 -0.156136 0.131028 0.177096 0.131987 -0.177444 -0.195865 -0.272863 0.151796 -0.305926 -0.105405 -0.288378 0.0794402 -0.134078 -0.0389966 -0.324458 -0.335834 -0.317065 0.166774 -0.303515 -0.232715 -0.089366 0.190832 -0.265675 -0.045131 0.224825 0.211904 -0.062546 0.379342 -0.332541 -0.194258 -0.0674611 0.199537 0.228925 -0.270524 0.25131 -0.225703 -0.114267 -0.0281848 0.207953 0.284309 -0.052973 0.0912269 0.210707 0.100542 -0.0114996 -0.196919 -0.0788764 -0.302972 -0.0412837 -0.12746 0.29949 0.0245453 0.109116 0.396822 0.330772 -0.194451 0.0105809 0.159451 0.0577085 -0.121305 -0.169377 0.27826 0.357131 -0.15048 0.342782 -0.0813434 -0.237058 -0.180501 0.13841 0.128228 0.0294678 0.0834041 -0.139829 -0.101278
65 0.404477 0.179295 -0.297744 0.185185 -0.384952 0.385798 0.29965 0.0226729 -0.0803725 -0.00146087 -0.076923 0.435163 -0.0725022 0.0463438 0.152874 0.336496 0.469631 -0.191496 0.258884 0.316914 0.591244 0.293433 0.397464 -0.348304 -0.0746693 -0.120185 0.346998 -0.130477 0.124172 -0.0745469 0.244737 0.0138242 0.454558 -0.282426 -0.166656 -0.0896287 0.24349 -0.199652 -0.370855 -0.0510557 -0.172237 -0.164242 0.357054 -0.044077 -0.325234 0.048631 0.0633222 0.169124 -0.17672 -0.362696 0.104135 -0.342187 -0.158775 -0.0931639 -0.0160673 0.195374 0.431667 0.0864519 -0.396742 -0.00407242 0.274149 0.23565 -0.342141 0.00453018 -0.271726 0.389992 -0.48878 0.107926 -0.0261608 -0.320364 0.0977955 0.0115254 -0.152437 -0.100621 -0.213653 0.308636 -0.0188909 -0.260026 0.144034 0.199449 0.169646 0.102855 -0.217857 -0.0427025 -0.441487 0.0893909 -0.0717028 -0.342111 0.299959 0.211828 -0.189147 0.159756 0.255217 0.35024 0.559726 -0.181482 0.263908 0.21783 -0.195446 -0.37377 -0.196642 0.0936632 -0.0114494 -0.427235 0.214737 -0.277177 0.0744313 -0.0911477 0.245502 -0.181992 -0.18399 0.180498 0.0293702 -0.190609 -0.363192 0.12289 -0.167586 -0.0079694 -0.155093 -0.284632 -0.201897 -0.17531 0.32642 0.233935 0.292926 0.000909387 0.10334 0.0660372
66 0.121137 0.441225 0.225765 0.294482 -0.387107 0.063136 0.18123 0.332965 0.0438935 -0.630904 -0.126985 0.180868 -0.335023 -0.216291 0.0364866 0.280247 -0.325416 -0.0669364 0.0180716 0.395553 0.279379 0.17418 0.349539 -0.0284912 -0.260147 0.299544 0.327341 -0.137467 0.16578 -0.258882 0.0844525 0.0715433 -0.0966797 -0.37672 -0.220104 -0.319451 0.33949 -0.307801 -0.289645 0.0756506 0.00476847 -0.204812 0.0795765 -0.0530927 -0.13678 -0.452222 0.163306 -0.0248998 -0.238353 -0.175015 0.0556696 -0.108832 -0.24217 -0.226201 -0.0410484 0.108495 0.335844 -0.238896 -0.168004 -0.23274 0.348607 0.115804 -0.201122 -0.127736 -0.661501 0.192472 -0.0963846 0.207157 -0.572358 -0.442461 -0.260358 0.242185 -0.267351 -0.143763 -0.411474 0.308333 0.46233 -0.183211 0.401022 0.35791 -0.339713 -0.245662 -0.411908 -0.288918 -0.144872 0.247026 -0.241268 -0.255033 -0.0149483 -0.502239 0.315661 0.195991 0.243687 -0.286161 -0.21413 0.0217024 0.362284 0.545785 -0.111073 -0.452518 0.242557 -0.106952 -0.575056 -0.174605 0.228353 0.0721947 -0.0834178 -0.0629612 0.330699 0.257811 -0.122799 0.354172 0.0852279 -0.164576 -0.240577 0.371128 0.0460342 -0.463631 -0.518577 -0.298769 -0.0605465 0.458046 0.0591227 0.362109 0.0159511 -0.0795509 0.194796 -0.108134
67 0.365188 -0.0870399 0.0153001 0.355874 -0.1724 0.287861 0.394503 -0.151404 0.108628 -0.0728585 -0.396339 0.312015 -0.033891 -0.0749812 -0.437181 0.379778 -0.21789 -0.00500758 0.212489 0.423347 0.0655981 0.157504 0.360997 -0.117964 -0.242158 0.0172475 0.385924 -0.0118899 -0.0140391 -0.184763 0.22003 -0.0108895 -0.163911 -0.078863 -0.0945999 -0.273714 0.255652 -0.170338 -0.200719 0.182866 -0.195574 -0.281561 0.0317496 -0.0321165 -0.540977 -0.332427 0.0582778 0.0462696 -0.21724 -0.180006 -0.268103 -0.348274 0.318408 -0.134617 0.136438 0.212122 0.312084 -0.0635496 -0.308216 -0.250076 0.439825 0.194832 -0.155854 -0.412146 -0.0158864 0.306881 -0.129707 -0.0319919 -0.410897 -0.472443 0.0596969 -0.114054 0.0542283 0.154698 0.0484509 0.358278 0.0545417 -0.471659 0.529594 0.404984 0.418687 0.0632626 -0.555133 -0.313886 0.0214902 0.106582 0.154681 -0.154543 -0.0372727 -0.0300458 0.126122 -0.267771 0.442504 -0.0405906 -0.0783226 -0.0543791 0.130384 0.131687 -0.102377 -0.232673 0.519945 -0.159414 -0.295437 -0.0806082 0.448063 0.0374786 -0.104602 -0.29065 0.274698 -0.257997 -0.153617 0.277274 -0.307848 -0.285905 -0.172659 0.376615 -0.0257277 -0.417849 -0.181077 -0.0499509 -0.14805 0.160772 0.273426 0.297569 0.0968679 0.237535 -0.461384 0.0875084
68 0.273852 0.463566 0.024811 0.0385972 -0.181427 -0.0186997 0.490583 0.209382 -0.000805342 -0.0154866 -0.352049 0.211663 0.379031 -0.125842 -0.0633248 0.479967 0.134321 0.0297607 0.161186 0.14921 0.126206 0.0529649 0.243058 -0.0696125 -0.247375 -0.404168 0.226345 -0.237064 0.475949 -0.30405 0.444584 0.00256738 0.259696 -0.194211 -0.339862 -0.249578 0.307063 -0.416645 -0.370946 0.0177536 -0.0117524 -0.0190872 0.104758 0.162407 -0.103149 -0.169924 -0.27293 -0.192994 -0.079975 -0.122528 -0.114308 -0.303073 -0.130439 -0.22203 -0.344102 0.198133 0.119555 0.142392 -0.157357 -0.421353 -0.231082 0.351879 -0.284821 0.075476 0.0627045 0.0871055 -0.386949 0.223151 -0.00752518 -0.214087 -0.0273159 -0.0154806 -0.478217 -0.274124 0.0367399 0.269028 0.62643 -0.243838 0.204421 0.359389 0.0840343 0.128956 -0.243937 -0.200262 0.155539 -0.139032 0.393913 -0.289688 0.262255 -0.0519262 -0.158548 -0.111138 0.103647 -0.354269 -0.128496 -0.227086 0.136996 0.121501 -0.0808424 -0.224961 0.420301 -0.394953 -0.443525 -0.317597 0.221895 0.221949 -0.0589963 -0.0985482 0.347275 0.0925891 -0.283153 0.408519 0.202926 0.308597 -0.159509 0.334319 -0.077834 -0.461332 0.16967 -0.157805 0.214357 -0.113593 0.261418 0.113622 0.23889 0.113465 0.0369407 0.193788
69 0.248238 0.342371 -0.0819546 0.235738 -0.319139 -0.118133 0.22256 0.266835 0.0847656 -0.0667116 -0.244517 0.292681 0.0186122 -0.128979 -0.398402 0.551967 0.157711 0.114177 0.0905547 0.311868 0.129817 0.27854 0.284144 -0.39317 -0.643326 0.145056 0.26536 -0.134605 -0.0785756 -0.296049 0.146787 -0.312697 -0.0298631 -0.187592 -0.162416 -0.23081 0.225205 -0.26112 -0.390191 0.00523059 0.0079335 -0.277947 0.0786497 -0.290575 -0.129505 -0.644637 -0.145101 0.177147 -0.21212 -0.231583 -0.52176 -0.159869 0.100288 -0.226304 0.326498 -0.0513808 0.208377 0.102504 -0.148615 -0.558496 -0.245359 0.0690483 -0.499725 -0.0230175 0.256164 -0.0973721 -0.388875 -0.224659 -0.217402 -0.26412 -0.103332 -0.218316 -0.182991 0.0981644 -0.0325795 0.39677 0.125021 -0.357793 0.166417 0.292476 -0.100317 -0.0529986 -0.441301 -0.150999 -0.504814 -0.0706696 0.17004 -0.320554 0.259188 0.115723 -0.0667008 -0.132269 0.230167 0.214812 0.106117 0.141514 0.213233 0.0698984 -0.0999665 -0.0844754 -0.0834535 -0.358899 -0.313959 -0.226726 0.341128 -0.110827 -0.0258961 -0.253827 0.306859 -0.0110815 -0.0239862 0.37058 -0.0107383 -0.126196 -0.348456 0.192385 -0.155103 -0.0420982 -0.245752 -0.0399974 0.141854 0.315559 0.169941 0.204442 0.195992 -0.158684 -0.274181 0.378086
70 0.307476 0.0839907 -0.423548 0.25273 -0.211946 -0.0697298 0.173222 0.0933947 0.00206091 -0.181393 -0.509019 0.192684 -0.430237 0.103931 0.2744 0.676814 0.0526183 0.201355 0.160767 0.356051 -0.200971 0.308919 0.242218 -0.01307 -0.356616 -0.174169 0.322123 -0.409721 -0.0718721 -0.244871 0.335633 -0.707756 -0.237092 -0.31454 -0.149135 -0.0605407 0.222827 -0.146829 -0.250132 0.205771 -0.354733 -0.394362 0.196299 -0.425638 0.331282 -0.0846747 -0.118618 0.129567 -0.124826 -0.250349 0.136311 -0.219652 0.160182 -0.223397 -0.364559 0.154728 -0.115075 0.0102464 -0.292757 0.0186893 -0.246364 0.328271 -0.245088 -0.0368722 0.0303023 0.21304 -0.591532 -0.101904 -0.0295357 -0.00804979 0.55943 -0.139601 -0.565473 -0.705004 0.211026 0.106607 0.156559 -0.249142 0.201844 0.314274 0.0495989 0.357483 -0.527298 -0.341165 -0.01672 0.109682 -0.15556 -0.227982 -0.290709 0.0160705 -0.0420513 -0.306547 0.298814 -0.117918 -0.213792 -0.0529203 0.319433 0.170167 -0.1464 -0.22351 -0.0315475 0.120847 -0.0142966 0.0638027 0.326446 -0.0845303 -0.216671 -0.29887 0.424685 0.338754 -0.340261 0.121712 -0.207275 0.0938644 -0.425724 0.28313 0.0724555 -0.454836 -0.211092 -0.13927 -0.0894287 0.0212576 0.196234 -0.0143506 -0.021347 -0.209092 0.26713 -0.101958
71 0.345245 0.0412687 0.128416 0.35136 -0.274809 -0.0965495 0.136621 0.211219 -0.0843215 -0.109935 -0.463791 0.406886 -0.791748 0.33303 0.27254 0.338881 -0.136112 0.0944784 0.139123 0.267831 0.0834708 0.350102 0.345894 -0.547319 -0.489493 0.387222 0.345565 -0.49782 -0.268374 -0.333274 0.228003 -0.416722 -0.209076 -0.11508 -0.171529 -0.0428582 0.0533006 -0.0519959 -0.253333 0.488221 -0.241278 0.0228572 0.556873 -0.251271 -0.103427 -0.0536594 -0.11334 0.0552545 -0.223627 -0.27988 0.0558327 -0.351341 -0.319338 -0.0267439 -0.137767 0.300633 0.00280363 -0.632818 -0.388818 -0.151629 0.217972 0.318734 -0.335379 -0.0598533 -0.0268776 0.00202261 -0.369008 0.0390033 0.024975 -0.141665 0.338214 -0.0452178 -0.569354 -0.338328 -0.492004 0.258794 -0.2824 -0.274266 0.265609 0.318706 -0.0230605 0.382753 -0.211147 -0.215252 0.171514 -0.107722 0.0548779 -0.21154 -0.293886 -0.238388 0.474717 -0.131382 0.313064 0.163405 -0.0310225 -0.49758 0.504199 -0.0345684 0.106869 -0.240788 -0.369129 0.0737164 -0.0404601 0.168247 0.191314 0.0457463 -0.109564 -0.329219 0.413382 -0.0372612 -0.255247 0.413461 -0.150029 -0.0144456 -0.352636 0.110865 0.0306568 -0.15403 0.277838 -0.223658 0.49886 0.408138 0.105952 0.232277 0.210987 -0.260843 0.362832 -0.811289
72 0.219785 0.0669969 -0.168882 0.302131 -0.358097 0.282625 0.389565 0.183766 0.216635 -0.19394 -0.197216 0.273804 0.225316 -0.387953 -0.292015 0.180061 -0.135781 0.351339 0.136637 0.326766 0.169894 0.183554 0.434474 -0.437343 -0.168294 0.416074 0.291231 0.187424 0.262081 -0.229863 0.511926 -0.537295 0.330236 -0.440271 -0.19481 -0.216297 0.37198 -0.150156 -0.283471 0.225863 -0.216784 0.0734992 0.0971683 -0.112183 0.119658 -0.366673 -0.235644 0.0421532 -0.248666 -0.0986606 -0.221599 -0.186146 0.030627 -0.450181 -0.0707886 -0.15294 0.132696 0.238608 -0.15376 -0.339043 0.0115839 0.219089 -0.456611 -0.21017 0.0410307 -0.0140444 -0.242121 -0.181969 -0.319793 -0.293178 -0.237189 -0.580038 -0.359428 -0.308222 -0.111392 0.250013 0.269608 -0.363419 0.394661 0.356809 0.191489 -0.184334 -0.523362 -0.354857 -0.391383 0.172285 0.410127 -0.272828 0.404406 -0.610178 0.329129 0.309475 0.203035 0.0157143 -0.465404 0.00619899 0.193213 -0.465069 0.161799 -0.471846 -0.206466 0.145276 -0.14492 -0.0543303 0.291023 0.208742 0.0833208 -0.397863 0.200939 0.103201 -0.282406 0.3903 -0.106932 -0.176803 -0.220669 0.164207 -0.00141278 -0.106807 0.139723 -0.0920128 0.227657 0.0998633 0.0326685 0.237147 0.0220005 -0.530448 -0.0830393 -0.196979
73 0.217766 0.237051 -0.566148 0.192826 -0.257739 0.29185 0.191184 0.162196 -0.182257 -0.191851 -0.190797 0.233344 -0.286794 -0.149653 0.156066 0.353698 -0.147629 0.224733 0.116007 0.272493 0.62679 0.256212 0.324155 -0.0434363 -0.34715 0.336539 0.408799 -0.315402 -0.194711 -0.179179 0.132843 -0.274494 -0.0135514 -0.114943 -0.17799 -0.272422 0.161937 -0.357055 -0.400219 0.275205 -0.256158 -0.171326 0.279342 -0.417309 0.151891 -0.301175 0.255602 0.344544 -0.153093 0.0842996 0.0432709 -0.163183 0.323015 -0.124652 -0.219894 0.232745 0.14566 -0.172615 -0.0406084 -0.264237 0.266459 0.390724 -0.0463497 0.196293 -0.146395 0.136 -0.443778 -0.0684547 -0.063603 -0.157071 -0.165684 -0.186926 -0.224094 -0.268704 -0.259874 0.451473 0.145472 -0.0368378 -0.0369778 0.29783 -0.189788 0.00774276 -0.333458 -0.0679152 0.179692 0.37124 -0.00230807 -0.461862 0.163687 -0.116407 0.128072 -0.0694463 0.183821 0.364153 -0.163228 0.152148 0.202711 -0.0330056 -0.276184 -0.119645 -0.23835 -0.345193 -0.0388513 -0.421175 0.19095 -0.30167 0.0811074 -0.140443 0.236079 0.165009 -0.318721 0.36605 -0.0471295 0.321113 -0.0975049 0.195263 0.103538 -0.386321 0.200995 -0.0620951 0.0623873 0.0643747 0.237893 0.112231 0.5088 0.122394 0.616581 -0.035694
74 0.231259 0.276929 -0.469064 0.197096 -0.263988 0.230946 0.170003 0.142902 0.229498 -0.335758 -0.214336 0.359706 -0.148537 -0.0876913 0.120449 0.277788 0.0781204 0.203526 0.187092 0.362803 0.0973816 0.199246 0.370603 0.326368 -0.260991 0.463733 0.444093 0.0119751 -0.0083238 -0.222209 0.244338 0.205229 0.207274 -0.206899 -0.195519 -0.38563 0.677526 -0.18007 -0.30905 0.22151 -0.234937 0.301394 0.0805504 -0.0996023 0.294682 -0.123583 -0.157475 -0.01548 -0.243834 -0.0420347 -0.436429 -0.122569 -0.322473 -0.60649 -0.00187714 0.245111 0.0551887 0.475364 -0.0957791 -0.341167 0.24044 0.210164 -0.389222 0.204737 0.0289436 0.063202 -0.117849 -0.488967 -0.106994 -0.275016 -0.098791 0.0513141 -0.162238 0.279995 0.339258 0.31097 0.116282 -0.108155 0.117729 0.30819 -0.270013 0.0275517 -0.0970638 -0.0590596 -0.388605 -0.312397 0.141798 -0.36327 0.223619 0.102906 0.531152 -0.32115 0.194231 -0.153327 -0.129388 -0.230455 0.223386 -0.241448 0.187565 -0.185364 -0.0866951 0.348863 -0.111345 -0.320202 0.26724 -0.0756759 -0.336034 0.212853 0.219135 -0.100731 -0.19827 0.231956 -0.248799 0.101475 -0.138517 0.151522 0.377331 -0.232283 0.0107784 0.0200602 0.172954 0.264082 0.114929 0.493921 -0.00772224 -0.231368 -0.324899 -0.131504
75 0.284044 0.265632 0.0161081 0.227144 -0.172527 0.408279 0.15247 0.0885811 -0.438186 -0.0782654 -0.27957 0.182055 -0.622095 -0.166035 -0.0552613 0.626889 0.100675 -0.445723 0.0129738 0.284103 -0.317505 0.448782 0.246625 0.130725 -0.71914 -0.0531645 0.311448 -0.067523 -0.189733 -0.198084 0.235281 0.0896366 0.545623 -0.264368 -0.309383 -0.25521 0.453002 -0.310654 -0.253845 0.00433966 -0.389181 0.220432 0.745084 -0.0881346 -0.701406 -0.156378 -0.223285 -0.010194 -0.38493 -0.0862558 -0.11807 -0.227885 0.137574 -0.158149 0.441125 0.277266 0.227473 -0.00670845 -0.123423 -0.207105 0.198095 0.0700525 -0.0505185 -0.0649455 -0.303445 0.575397 -0.134982 0.0533835 -0.471689 -0.275082 0.156747 0.0187566 -0.441896 0.13679 -0.250132 0.325244 -0.140686 -0.242957 -0.166267 0.258717 0.308714 0.0332715 -0.474367 -0.0103402 -0.101198 0.0308712 0.00280726 -0.211876 0.101708 -0.0689211 -0.0391849 0.0480062 0.457254 -0.220053 -0.057187 -0.100615 0.237189 -0.126321 0.510236 -0.165167 -0.197526 -0.231008 -0.307443 -0.320448 0.182769 0.211403 -0.183466 -0.00060337 0.269134 -0.304849 -0.232919 0.222646 -0.155292 0.120298 -0.16557 0.208837 0.766591 -0.438958 -0.422813 0.0473226 -0.0380271 0.200033 0.0700127 0.19146 0.214924 -0.688936 -0.296436 -0.672692
76 0.319749 -0.0693845 -0.22527 0.193506 -0.277719 0.293863 0.280433 0.495347 -0.0665708 -0.0846 -0.139256 0.156681 -0.339479 -0.224806 -0.0720592 0.37003 -0.105033 -0.0924097 0.103686 0.231404 0.233008 0.489003 0.234622 -0.0439135 -0.532524 -0.0271229 0.24071 -0.170046 -0.327535 -0.118098 0.153082 0.152817 -0.280869 -0.194889 -0.347402 -0.322186 0.189883 -0.209825 -0.235107 0.458683 -0.137441 0.428766 0.438387 -0.111949 -0.104191 -0.209428 0.314729 -0.115527 -0.432165 -0.158458 0.0494483 -0.112658 -0.307477 -0.146336 0.227057 0.413887 0.387715 0.178662 -0.215697 -0.427919 -0.33804 0.264061 -0.338687 0.211736 -0.272077 0.327378 -0.182485 0.262302 -0.111864 -0.29826 0.125681 -0.193966 0.0242005 -0.307285 0.138269 0.045512 -0.302397 -0.296139 0.272738 0.478638 -0.247419 0.0497507 -0.358725 -0.140581 0.35333 0.147212 0.0207564 -0.278232 0.226527 -0.0166985 -0.121982 0.00613299 0.26698 -0.105518 -0.0493538 0.152996 0.15339 0.0556891 0.281841 -0.337649 -0.276286 -0.364785 -0.25038 -0.296831 0.162972 0.592306 -0.080821 0.56866 0.256077 0.180465 -0.0473982 0.447605 -0.154287 0.0569255 -0.306295 0.0698213 0.467097 -0.177219 -0.229406 -0.0438704 -0.33049 -0.125375 0.0791674 0.29425 -0.0482809 -0.495119 -0.118197 -0.173581
77 0.315582 0.108602 -0.143553 0.256581 -0.227011 0.0139092 0.107948 0.241373 -0.117895 -0.739742 -0.075259 0.395727 -0.360025 0.166827 0.310028 0.221773 -0.0742854 -0.00962268 0.135828 0.331965 0.472616 0.32205 0.184387 0.0601438 -0.0910768 0.534979 0.213585 0.072309 0.237499 -0.294192 0.331504 -0.121585 0.389239 -0.303464 -0.288202 -0.21054 0.212403 -0.168297 -0.211255 0.490244 -0.217248 0.318359 0.0313888 -0.503669 0.269619 -0.318711 0.0502011 -0.0571483 -0.28079 -0.30609 -0.35128 -0.261791 0.180221 -0.343431 -0.353842 0.262937 0.252849 -0.109485 -0.112937 -0.433829 -0.154155 0.267921 -0.092133 0.148573 -0.209124 0.0758091 -0.166296 0.443221 -0.354232 -0.264915 0.330184 -0.174513 -0.34724 -0.400324 0.107114 0.180872 0.206307 -0.203346 0.55241 0.341056 -0.308728 0.306307 -0.535353 -0.693886 -0.327933 -0.0176123 -0.280058 -0.259975 -0.298139 -0.381931 -0.00738052 0.426638 0.276494 0.0202649 0.254188 -0.0910529 0.227901 0.132297 -0.372245 -0.186145 -0.0528387 -0.0507583 0.165269 -0.249794 0.204769 -0.143702 -0.255964 -0.0113589 0.16193 0.0790143 -0.294011 0.0456356 -0.162765 -0.00715576 -0.294701 0.32068 0.0695144 -0.0806169 0.136747 -0.351101 0.184573 0.318966 0.273292 0.277867 0.232784 -0.149545 0.154248 0.0166073
78 0.269025 -0.0578439 -0.360953 0.126789 -0.300341 0.248782 0.158914 0.192101 -0.250826 -0.396173 -0.371489 0.49125 -0.235212 0.132819 -0.406169 0.141924 0.037826 -0.384426 0.341255 0.179985 0.585332 0.306552 0.0363203 -0.0976701 -0.19683 -0.0921621 0.28692 -0.119989 -0.270265 -0.331144 0.391455 -0.577487 0.0402048 -0.503941 -0.142731 -0.109622 0.248146 -0.193443 -0.235611 0.422346 0.0735199 0.417318 0.00607603 -0.569865 -0.0782793 -0.160251 0.266208 0.170207 -0.197781 -0.00199193 -0.0623227 -0.319685 -0.293091 -0.333688 -0.303494 0.248136 0.10643 0.0299078 -0.0534781 -0.16053 -0.174537 0.270254 -0.297581 0.245032 -0.315171 0.404827 -0.112685 0.0573082 -0.453552 -0.325445 0.37541 -0.139058 -0.123727 -0.389594 0.242207 0.155154 0.273123 -0.144927 0.404661 0.382909 0.240355 0.0327127 -0.519435 -0.0623154 -0.0268514 -0.256974 0.114332 -0.291317 0.22223 -0.392074 0.102822 0.188782 0.168492 0.505364 0.173987 -0.0190054 0.175098 -0.351192 -0.391492 -0.305903 0.113382 -0.07194 0.0330757 -0.418991 0.260413 0.281211 -0.122986 0.082455 0.287788 0.281124 -0.425271 0.240233 -0.358381 -0.113091 -0.275853 0.261949 0.145845 -0.0994354 -0.178127 -0.255219 0.0303274 -0.281638 0.118642 0.106088 0.525391 -0.000292427 -0.0414889 0.216078
79 0.485002 0.202463 0.115291 0.169521 -0.219501 0.079798 0.0573146 0.21591 0.0723713 -0.209681 -0.284906 0.280029 0.0246531 0.0764426 -0.291691 0.0305512 0.115554 0.0762097 0.311977 0.235431 0.325833 0.516276 -0.0375328 0.053468 -0.145889 0.011707 0.296345 -0.23468 -0.129501 -0.239503 0.17049 -0.188149 0.138337 -0.422928 -0.170685 -0.278591 0.124915 -0.246909 -0.275937 0.309489 0.177645 0.418264 0.159686 -0.294627 -0.139812 -0.132724 0.342835 0.0573238 -0.386595 -0.162195 -0.074398 -0.178295 0.0736887 -0.3153 0.282005 0.44223 0.183244 -0.0975131 -0.222396 -0.232591 -0.156205 0.281051 0.0725122 0.0272187 -0.245418 0.30969 -0.167886 -0.0084861 -0.207343 -0.238326 0.492317 0.236076 -0.506269 -0.118387 -0.372022 0.361119 0.0756808 -0.256634 0.363137 0.337601 0.0996993 -0.0271226 -0.236669 -0.423896 -0.186176 0.3175 0.00463024 -0.231915 0.383632 -0.0172017 0.0344934 0.236273 0.0162607 -0.225072 0.0387242 -0.202592 0.214191 -0.0112086 -0.106726 -0.265931 0.00664337 -0.26305 0.0229935 -0.282055 0.272488 -0.130867 0.160891 0.252477 0.202583 0.0836682 -0.413818 0.127755 -0.309054 0.0391791 -0.165499 0.186587 -0.215127 -0.476391 -0.0208974 -0.3016 -0.146811 0.146974 0.267398 0.380392 0.0240859 0.146986 0.215842 0.00628609
