986 128
0 0.13478 0.14916 0.0939369 -0.382868 0.169062 -0.208001 -0.225668 -0.315511 -0.120674 0.172171 0.0715767 -0.0968575 -0.107164 -0.235865 -0.0671668 0.225023 0.100853 -0.098346 0.294927 0.346291 0.205149 0.151755 0.23398 -0.202031 0.303136 -0.198754 0.0954886 -0.014272 -0.281648 0.246278 -0.0466272 0.128509 0.018338 -0.0492323 0.182786 -0.145279 0.20901 0.12896 0.182967 -0.0481099 0.25129 0.102899 -0.0550114 0.42856 -0.120884 0.261103 -0.0520733 0.161311 -0.355881 -0.23418 -0.0414083 0.102392 0.20292 -0.186734 -0.0662237 -0.259777 -0.305555 0.265715 0.218347 0.137882 -0.19282 -0.129064 -0.0182231 -0.12396 -0.270053 0.0618584 0.452427 0.0306231 -0.0544719 0.123381 0.0872482 -0.0104138 -0.266896 -0.2576 0.351257 0.0162623 0.178261 -0.0458151 0.115515 0.20306 0.168476 0.438767 0.0509327 -0.290137 -0.228854 0.273268 -0.0992256 0.182544 0.0213018 -0.103835 -0.129174 0.0260528 0.273864 -0.199957 0.236305 0.0175481 -0.083046 -0.0333479 -0.286874 -0.148959 0.0779288 -0.0991699 -0.00869684 0.166903 -0.0812714 0.10741 -0.22746 -0.136225 -0.274939 0.275524 -0.249906 -0.232681 -0.254242 0.0559517 0.0756087 0.136089 -0.0328556 -0.0825231 0.163864 -0.140548 0.182952 0.175716 0.0056163 -0.203025 -0.196172 0.251079 0.143026 -0.00768929
1 0.172694 0.00767266 0.393642 0.0307797 0.103041 -0.00225908 -0.197452 -0.140553 -0.189876 0.12904 0.101305 -0.164231 -0.0681704 -0.21172 -0.0347923 0.147289 0.266107 -0.158826 0.101113 0.273108 0.280788 0.234191 0.236645 -0.170844 0.0278097 0.0260137 0.107921 -0.0417619 -0.453902 0.270206 -0.0741392 0.232415 -0.0776079 0.151345 0.239661 -0.117501 0.183541 0.0661023 -0.0476797 0.0342945 0.414605 -0.0551624 -0.138578 -0.0937542 0.16131 0.127304 -0.199862 -0.056281 -0.400186 -0.114316 0.00716064 0.134431 -0.0416799 -0.244664 -0.0294985 -0.0971887 -0.207193 0.268985 0.345842 -0.0179252 -0.0784144 -0.132066 -0.265076 -0.0667971 -0.231962 -0.0018547 0.357425 0.301153 -0.207945 0.228161 0.134164 0.207712 -0.1544 -0.132459 0.305925 0.208208 0.251773 -0.227396 0.122857 0.209338 0.0309583 0.399238 0.106155 -0.107194 0.0314373 0.278328 -0.275617 0.156982 0.147599 -0.121446 -0.0404017 0.0197397 0.0594764 -0.113822 0.315914 0.145133 -0.243363 -0.283842 -0.108055 -0.236357 0.072036 -0.210662 -0.164179 0.131206 -0.175302 0.000185441 -0.0853086 -0.0418027 -0.0504526 0.0260481 -0.155357 -0.147264 -0.177942 0.0764026 0.0436902 0.0217 0.144112 -0.311838 0.106182 -0.266855 0.0134579 0.105442 -0.30311 -0.127854 -0.388048 0.422272 0.213525 0.0311003
2 0.155687 0.187177 0.293867 -0.246638 0.134415 0.155868 0.0262695 -0.207775 -0.32198 0.0545473 -0.0781278 -0.184348 -0.0530993 -0.365316 0.0900213 0.0704705 0.119464 -0.130961 0.1146 -0.242554 0.162954 -0.0664057 0.178106 0.00846864 0.00347463 -0.216487 0.364006 -0.254883 0.0340795 -0.0461842 -0.157006 0.0252723 -0.420248 0.00790513 0.130995 -0.276809 0.162186 0.163841 0.327067 0.214823 0.114322 -0.0503508 -0.0768235 0.0664322 0.158617 0.145577 0.266288 -0.0101516 -0.0476801 0.158836 0.329528 0.0239301 -0.0930985 -0.219176 -0.223833 0.134916 -0.104747 -0.29958 0.373125 -0.259691 -0.10982 -0.119833 -0.288568 -0.162657 -0.040719 -0.110766 0.234794 -0.199932 -0.130082 0.228725 -0.0704583 0.00349348 -0.149016 -0.126253 0.248193 0.174604 0.0754336 -0.124672 0.0796786 0.219356 0.239944 -0.0168808 0.185629 -0.183291 -0.2213 0.2605 -0.206914 0.10054 -0.00391388 -0.250787 0.294226 0.20453 0.0343442 -0.0354463 -0.273338 -0.107164 0.0539235 -0.00661984 0.154011 0.0868588 0.0727194 -0.270269 -0.167108 0.245543 0.0420705 0.222974 -0.322707 -0.0796142 -0.11866 0.0126164 -0.209603 -0.109384 -0.0288573 0.0555621 -0.40331 0.282181 0.155811 -0.143022 0.211463 -0.187746 0.0268692 0.184927 0.377774 -0.157427 0.0938745 0.0288493 -0.317886 -0.35082
3 0.294224 0.226465 0.172836 -0.175707 0.138031 0.0788558 0.0502156 -0.223942 -0.2478 0.18563 0.141281 -0.133975 0.0118503 -0.299719 0.048692 0.0838685 0.133487 -0.247636 0.0854313 -0.314788 0.057771 0.0146027 0.173345 0.0781938 0.204794 -0.244032 0.31998 -0.109154 -0.0686204 -0.0940155 -0.300731 0.126142 -0.313104 -0.0735537 0.171703 -0.130677 0.146632 0.0923292 0.284527 0.268837 0.0895896 -0.154591 -0.122541 -0.0418869 0.207536 0.303915 0.221686 0.0531964 -0.128695 0.193246 0.127014 0.0756927 -0.171209 -0.0823563 -0.171996 0.0897215 -0.0402865 -0.370072 0.360794 -0.199998 -0.293569 0.025091 -0.300865 -0.0908916 0.0240358 -0.140914 0.389986 -0.392067 -0.0414478 0.243949 0.044233 0.0605265 -0.247145 -0.0155893 0.118804 0.189667 0.076471 -0.0824363 0.350051 0.287989 0.0634838 0.12335 0.121575 -0.161081 -0.173462 0.329396 -0.154475 0.117724 0.150909 -0.159297 0.0961253 0.0256197 0.289586 -0.100149 -0.0475377 0.0743386 0.235958 0.0174602 0.170631 0.311321 0.157592 -0.104825 -0.0438276 0.184858 0.0860856 0.0315378 -0.417625 0.0348753 -0.21363 0.145229 -0.281387 0.0581508 0.0707697 0.0637196 -0.235146 0.133839 0.154659 0.060023 0.103827 -0.0553124 0.138042 0.152671 0.297908 -0.148856 -0.0265926 0.180358 -0.397115 -0.292637
4 0.201822 0.146271 0.237348 -0.0573674 0.163718 0.108781 0.0424752 -0.273838 -0.182978 0.205846 0.208312 -0.221388 0.00788145 -0.156439 0.199717 0.0465411 0.165689 -0.250903 0.0599564 -0.171049 0.127191 0.0428323 0.0917705 0.0569923 0.118186 -0.281973 0.259939 -0.0989956 0.0604096 -0.0350728 -0.218949 0.0860451 -0.166066 -0.218554 0.201976 -0.329686 0.134566 0.18906 0.376896 0.17132 -0.0547654 -0.181706 -0.101866 -0.14601 0.0790137 0.176329 0.122192 0.071564 -0.115414 0.143592 0.101455 0.117149 -0.157144 -0.131254 -0.282154 0.0106274 -0.0929685 -0.234737 0.152824 -0.216279 -0.207259 -0.0451107 -0.0743169 -0.0487733 -0.166261 -0.0237374 0.25621 -0.287764 -0.13637 0.177663 0.0304604 0.0832294 -0.223877 -0.113259 0.221913 0.253575 0.0533859 -0.162923 0.175828 0.22489 0.176517 0.119439 0.236488 -0.226196 -0.210752 0.268867 -0.140404 0.155362 0.169891 -0.109217 0.34013 0.0980887 0.14125 -0.245904 -0.0832379 -0.0243006 0.0690901 0.0924954 0.127742 0.181685 0.124877 -0.119059 -0.0867829 0.206652 0.064276 0.0884126 -0.322239 0.205431 -0.187955 0.00531606 -0.234705 -0.160553 -0.0939858 0.156291 -0.223549 0.0631821 0.105014 0.0580076 0.174714 -0.00105287 -0.000526605 0.0362596 0.293273 -0.162855 0.0199091 0.194625 -0.373042 -0.24176
5 0.223771 0.211959 0.124069 -0.21177 0.0714863 -0.0455115 -0.0626541 -0.268328 -0.233861 0.122296 -0.00345062 -0.177478 -0.0630623 -0.224109 0.0685373 -0.0752587 0.270712 -0.106136 0.267939 0.0758375 0.0253544 -0.0104198 0.174015 0.0592419 -0.0911162 -0.0072562 0.306733 -0.11815 0.056785 -0.00593099 0.0115946 0.194425 -0.0402878 -0.0309289 0.250194 -0.133581 0.0128959 0.0797713 0.123927 -0.111671 0.171709 0.083335 -0.247902 0.337179 0.0708934 0.123357 0.228653 0.0545275 -0.210886 0.123555 0.0586309 0.021067 -0.0670765 -0.25954 -0.208004 -0.121222 -0.316298 0.0438978 0.276333 -0.166519 -0.117812 -0.238216 0.0255988 -0.140055 -0.227744 -0.172649 0.144868 -0.123915 -0.110917 0.268079 -0.184667 0.269939 -0.109207 8.72534e-05 0.101054 0.237915 0.182269 -0.148738 0.153009 0.105569 0.155348 0.0236464 0.144792 -0.268405 -0.0170909 0.298485 -0.163321 0.176938 0.167502 -0.0661962 -0.0884633 -0.0154761 0.0857947 -0.0592623 -0.0784299 0.0551927 0.0973998 0.0665021 0.0698744 0.293585 0.228683 -0.21898 -0.102494 0.257773 -0.00812803 -0.0170866 -0.124321 -0.177818 -0.0988474 0.250045 -0.275322 0.0814698 -0.0613638 -0.0888265 -0.22147 0.0648233 0.137324 0.0455759 0.102746 -0.334251 -0.18475 0.148848 0.273037 -0.113098 -0.121268 0.0485248 0.177265 -0.0367665
6 0.164746 0.0848674 -0.0477965 -0.124707 0.0403321 0.257559 -0.0351447 -0.334718 -0.247679 0.0235099 -0.0521655 -0.136287 0.0777755 -0.287119 -0.153309 -0.119783 0.1059 -0.21257 0.107682 0.0249778 0.100724 0.143413 0.269019 0.145215 0.0954228 -0.221832 0.25598 -0.0230026 0.00507619 -0.0498365 -0.206576 0.252438 -0.164941 -0.133015 0.253831 -0.186969 0.0995232 0.032378 -0.0256245 0.224606 0.0838702 -0.0376255 -0.220342 0.167522 0.149001 0.173638 0.336771 -0.136453 -0.0994662 0.148211 0.18059 -0.13474 -0.0992547 -0.252515 -0.168684 -0.139242 -0.228687 0.0518343 0.27647 -0.163257 -0.156899 -0.0790971 -0.341328 -0.264813 -0.34427 -0.18731 0.241026 -0.097988 -0.133809 0.121377 -0.152769 0.0342884 -0.24034 -0.186343 0.23787 0.0521758 0.085247 -0.126934 0.268754 0.0727475 0.357757 0.0553801 0.0473329 -0.195433 -0.238605 0.362592 -0.374322 0.133941 0.184483 -0.0151366 0.162378 0.114753 0.168024 -0.114212 -0.219335 0.0409113 0.183731 0.128895 0.0139328 0.297766 0.104988 -0.162372 -0.199079 0.159379 -0.290518 0.239951 -0.100863 -0.0477597 -0.0577812 0.00465248 -0.180745 -0.0614897 -0.0521284 -0.0591926 -0.202696 -0.0376311 0.177677 -0.169626 0.255732 -0.107181 0.0710031 0.0313328 0.311363 -0.122796 0.000441465 0.152868 -0.186277 -0.13174
7 0.328822 0.16256 0.0314137 -0.34138 0.148786 0.234284 0.206521 -0.0584858 -0.179535 0.226279 0.0908696 -0.267915 0.325473 0.132694 0.0822001 -0.230681 0.142151 -0.184731 0.100204 -0.202094 0.288755 0.222062 0.0786571 0.0708378 -0.0465278 -0.13485 0.139298 -0.0728047 -0.164571 0.483762 -0.02895 0.158387 -0.0950321 0.501818 0.0440231 -0.0499594 0.143273 0.187132 0.104325 0.101978 0.341498 -0.232843 -0.173828 0.0103314 0.193517 -0.0788473 -0.282347 -0.151192 -0.0392191 -0.00730183 -0.113685 -0.0936117 0.460482 -0.188397 -0.192314 0.203272 0.135768 0.212038 0.202809 -0.108776 -0.273367 -0.0733843 0.0179557 0.0145041 0.0253893 0.320119 0.0204789 0.282046 -0.162754 0.207869 0.022206 -0.00883955 -0.111893 -0.0148119 0.18506 0.310732 0.384119 -0.107233 -0.251408 0.225437 -0.0088208 -0.369892 0.287146 -0.0995973 0.12145 0.176531 -0.281558 0.00603937 0.150682 -0.282554 0.171966 0.330542 0.0901229 -0.15146 -0.305898 -0.0560031 -0.22747 -0.52512 -0.316629 0.387358 0.102643 -0.301975 -0.485309 0.152512 0.119618 -0.00215763 -0.177055 -0.227154 -0.159994 0.335363 -0.175113 -0.164676 0.327022 0.18875 -0.0467153 0.302443 0.0894558 0.0637325 0.264069 -0.0671423 -0.1025 0.233503 -0.0106482 -0.0326919 0.300738 -0.116277 0.472283 -0.176248
8 -0.0174717 0.287866 0.295425 -0.0874103 0.118311 0.351975 0.113953 0.0173388 -0.190488 0.289956 0.0876548 -0.200963 0.278136 0.0730494 0.24367 -0.325784 0.168071 -0.251685 -0.122994 -0.333236 0.106445 0.195763 0.176513 0.130673 0.0360561 -0.177368 0.183584 -0.237431 -0.221212 0.327109 -0.0558417 0.133704 -0.307332 0.333961 0.135078 -0.146109 0.0961837 0.242263 0.186129 0.0441647 0.217747 -0.184697 -0.280351 -0.0740696 0.220275 -0.000647702 -0.392444 -0.0749193 -0.101913 -0.113607 -0.172098 -0.226147 0.456485 -0.153986 -0.106517 0.00814214 0.00342765 0.144688 0.1357 -0.00360503 -0.220482 -0.109277 -0.0264825 -0.255265 0.0711866 0.300916 0.101784 0.353851 -0.106577 0.253363 -0.0803234 0.0234741 -0.0276153 -0.0837369 0.212149 0.0345738 0.0842029 -0.0752417 -0.208409 0.350416 0.0507651 -0.269982 0.350361 -0.0796084 -0.0511593 0.269532 -0.313148 0.170331 0.25739 -0.172163 -0.0984366 0.110817 0.103186 -0.0190053 0.112372 0.0857845 -0.162107 -0.670967 -0.370012 0.521896 0.0991051 -0.233544 -0.446634 0.316435 0.0425264 0.0283235 -0.229407 -0.101484 -0.190517 0.0448893 -0.193078 -0.104835 0.356018 0.392503 0.101715 0.164596 0.290729 0.0424216 0.2976 -0.131841 -0.0462056 0.145214 0.18697 -0.221809 0.328861 -0.0190366 0.144116 -0.373772
9 0.151264 0.248417 0.269034 -0.0530338 0.160231 0.302189 0.286372 0.0484211 -0.217301 0.291424 -0.151679 -0.278968 0.267274 -0.0350352 0.155448 -0.523934 0.231343 -0.130466 -0.0196146 -0.369478 0.457568 0.178064 0.194424 0.0731384 0.117991 -0.384154 0.368915 -0.198937 -0.244032 0.622025 -0.201038 0.0461406 -0.200253 0.480389 0.170213 -0.171693 0.145204 0.229395 0.359291 0.0641695 0.341509 -0.301694 -0.168185 0.209194 0.138066 0.144942 -0.196572 0.17836 -0.106815 -0.135639 -0.237879 -0.187466 0.632757 -0.164047 -0.171725 0.224804 0.240349 0.201417 0.184352 -0.189482 -0.417828 -0.226021 -0.101652 -0.173359 -0.0337554 0.536095 0.137203 0.360647 -0.242044 0.22522 0.112555 -0.0156402 -0.0863843 -0.227346 0.471311 0.254017 0.175991 -0.262155 -0.199725 0.244352 0.0791015 -0.287076 0.180756 -0.195557 -0.035941 0.207373 -0.504678 0.165791 0.0931502 -0.0653946 0.0585897 0.311263 0.200137 -0.154523 -0.1953 0.00325159 -0.207814 -0.369885 -0.525331 0.51596 0.0913667 -0.202564 -0.430049 0.381924 0.101281 0.16956 -0.525661 -0.211564 0.134321 0.235783 -0.194027 -0.124081 0.485611 0.393735 0.153822 0.0764527 0.361401 0.105152 0.229271 -0.143037 -0.0377859 0.0848963 0.284389 -0.175038 0.435781 -0.00560705 0.179704 -0.479396
10 0.0922034 0.396149 0.292153 0.121129 0.143503 0.0508455 -0.0818485 -0.219622 -0.131032 0.200591 -0.0642106 -0.055825 0.12889 -0.0930578 0.0869963 -0.00563597 0.175933 -0.127037 0.250215 -0.154508 0.0444485 0.033178 0.0741129 0.0708264 0.0859536 0.0856229 0.113059 0.000733808 -0.146825 -0.1473 -0.0140109 0.193318 -0.194 -0.0261303 0.189784 -0.13265 0.0808436 0.143016 0.232053 -0.0133299 0.269945 -0.0711302 -0.160858 0.162985 0.289309 0.193101 -0.407072 -0.166301 -0.27431 0.0448372 0.049858 0.00393442 0.303796 -0.262879 -0.240977 -0.0968769 -0.242606 -0.0108039 0.231405 -0.136149 -0.327049 -0.189417 -0.345333 -0.137446 -0.0915812 -0.286372 0.0861557 0.207417 -0.0407989 0.0330178 -0.251115 0.369092 -0.200766 -0.126058 0.166568 0.134186 0.197492 -0.246072 -0.0648623 0.0611148 0.22155 0.185393 0.311435 -0.231954 -0.361534 0.272177 -0.157807 0.0846279 0.202951 0.115248 0.315267 0.352877 0.277862 0.040278 0.0908194 0.256155 0.310305 0.0575012 0.114957 0.0867765 0.259365 -0.0529555 -0.261477 0.251758 0.0353076 0.273304 0.161581 -0.18748 -0.139569 -0.0449003 -0.142695 -0.0425098 0.256958 0.177967 0.34977 0.253526 0.154601 0.0795246 -0.0124743 -0.358588 0.176742 -0.0605475 0.143377 -0.0828617 -0.118438 0.0863654 -0.167614 -0.101054
11 0.163362 0.308927 0.0767095 0.0419632 0.144836 0.299324 0.234565 -0.0176058 -0.319487 0.198397 -0.00929765 0.0139428 0.117535 -0.116401 0.00027528 -0.0888517 0.0966251 -0.139316 0.213277 -0.446824 0.052406 0.191417 0.133399 -0.0125479 0.065908 -0.182214 0.276412 -0.142069 -0.182203 0.297294 0.00461362 0.0584128 -0.206998 0.415745 0.209521 -0.137899 0.0798928 0.0253553 0.364621 0.094936 0.226921 -0.163353 -0.195039 0.0658738 0.195458 0.139359 -0.10848 0.169163 -0.227878 0.192312 -0.0233922 -0.0208447 0.391152 -0.292561 -0.0614915 -0.00947224 0.0466367 0.0924965 0.267271 0.0319924 -0.253476 -0.128318 -0.108491 -0.0271309 0.0785332 0.239142 0.182572 0.0616706 -0.142828 0.256802 0.0239802 -0.0246662 -0.07368 -0.0535369 0.135343 0.207907 0.308303 -0.230019 -0.363779 0.18415 0.0768973 -0.343565 0.268634 -0.194035 -0.0513251 0.283485 -0.28321 0.224995 0.0615458 -0.131073 0.106908 0.357079 0.125658 -0.0476113 -0.123928 0.00448289 0.0377122 -0.181966 -0.20163 0.473473 0.275965 -0.185396 -0.406789 0.313843 0.0435402 0.0352003 -0.143033 -0.279883 -0.103426 0.108704 -0.139218 -0.0844809 0.295827 0.304165 0.114544 0.111695 0.181979 0.0592165 0.182337 -0.104559 -0.129228 0.111436 0.0250869 -0.252076 0.399051 0.0476697 0.173625 -0.412111
12 0.0143885 0.229999 -0.134916 -0.0169237 0.176361 0.0922956 0.160114 -0.135328 -0.288806 0.206598 -0.0773027 -0.0941337 0.372496 0.0970636 0.114184 -0.474651 0.199686 -0.23005 -0.0840741 -0.131033 0.16191 0.212131 0.112308 0.161285 0.148366 -0.262584 0.219189 -0.130537 -0.36181 0.322356 -0.0442015 0.154815 -0.202263 0.460559 0.161907 -0.121582 0.153149 0.271042 0.202251 -0.0262116 0.406805 -0.274874 -0.33187 0.147137 0.163681 0.0955765 -0.161835 -0.000406237 -0.116161 -0.12483 0.018421 -0.0433867 0.564025 -0.0966708 -0.0112817 0.155463 0.0216567 0.330576 0.181274 0.135563 -0.324365 -0.0242293 -0.178479 -0.230646 -0.203709 0.226309 0.131981 0.259414 -0.0841351 0.19712 0.0164382 -0.0627786 -0.195083 -0.242399 0.0652583 0.285449 0.281875 -0.261138 -0.186672 0.236342 -0.0748607 -0.224391 0.338263 -0.0719701 0.0829755 0.173461 -0.350426 0.160868 0.339239 0.0133083 0.134694 0.448739 0.0989766 -0.120808 -0.0628406 -0.0282722 -0.186406 -0.296299 -0.453461 0.246033 0.127218 -0.157344 -0.434452 0.36747 -0.0191784 0.223187 -0.22273 -0.191697 -0.019874 0.0970329 -0.234207 -0.43254 0.305531 0.213296 0.182588 0.0824922 0.29034 -0.060138 0.327367 0.0465428 -0.255714 0.0477034 -0.015002 -0.280416 0.152357 0.0589723 0.179785 -0.0254936
13 0.232535 0.098289 -0.0253526 -0.165379 0.110222 0.0375467 -0.0432208 -0.233448 -0.189905 0.199875 0.169834 -0.203465 0.0830792 -0.136496 0.0224979 -0.055065 0.104909 -0.0914818 0.140185 0.0246697 0.0444769 0.120499 0.188491 0.0720218 0.209149 0.135567 0.250308 -0.152198 -0.0557489 -0.228401 -0.191032 0.130652 -0.196604 -0.0690913 0.298077 -0.0985516 0.226562 0.158243 0.0982619 -0.0288877 8.60094e-05 -0.162899 -0.217137 0.137139 0.151193 0.198589 0.22578 0.242093 -0.254581 0.0620384 -0.0308421 -0.132106 -0.0414407 -0.127754 -0.287373 -0.0230291 -0.0584448 -0.0837642 0.189324 -0.192169 -0.20763 -0.182543 -0.0487459 -0.000248983 0.0028843 0.0194379 0.112742 -0.0881161 -0.0617885 0.289858 -0.135971 0.201458 -0.157115 -0.148794 -0.0720346 0.142045 0.324384 -0.181076 -0.0898342 0.146209 0.0853016 0.183181 0.20188 -0.0635433 -0.127177 0.209418 -0.218994 0.0756517 0.232398 -0.204539 0.0621656 0.135198 0.132153 -0.03326 -0.00508777 0.0783233 0.233827 -0.186521 0.182144 0.0193306 0.1449 -0.179911 -0.18424 0.0190594 0.265465 0.0665165 -0.0278008 0.0519229 -0.0974669 0.122247 -0.126309 0.0692247 0.283842 -0.0853207 0.0712758 0.0101421 0.159223 0.22517 0.118245 -0.228424 0.0213982 0.0229416 0.0908945 -0.19359 0.00122615 0.000838553 0.0983541 -0.271633
14 0.0774629 0.174865 -0.117357 -0.0968821 0.0403005 0.0763132 -0.227902 -0.288868 -0.27112 0.0671725 0.0743012 -0.211495 0.244717 0.00436445 0.278022 -0.20096 0.0368819 -0.110064 0.028769 0.425046 0.0229519 0.26438 0.02906 0.221382 -0.0803791 -0.232672 0.134285 -0.0807297 -0.228279 -0.03394 -0.156512 0.320101 0.118801 -0.0306959 0.300781 -0.0782594 0.0851507 0.30772 -0.0947672 0.141827 0.219985 -0.0859011 -0.198731 0.132159 -0.0624781 0.233219 -0.118779 0.0355057 -0.0754843 -0.0107694 -0.507636 0.0362964 0.155183 -0.132492 -0.138458 -0.0335626 0.107426 0.297113 0.097524 -0.0166544 -0.153122 -0.149255 -0.078596 -0.045361 -0.282913 0.0818548 0.0983255 -0.0534348 -0.179967 0.145449 -0.0901748 -0.150836 -0.167653 -0.132473 0.169756 0.0697103 0.139958 -0.159946 0.0641363 0.208761 -0.0278979 0.312618 0.212901 -0.0667622 -0.271707 0.235349 -0.0699069 0.231376 0.22517 -0.0619409 0.126976 0.247463 0.0487746 -0.232417 -0.00508872 0.00692799 0.101837 -0.312317 -0.071495 -0.00552473 0.255095 -0.0789928 -0.206916 0.186796 -0.180445 0.104812 -0.0490411 -0.0251257 -0.110968 -0.0136151 -0.230523 -0.00684229 0.0513702 0.0754961 -0.247366 0.0834561 0.263678 0.157457 0.0321962 -0.116678 0.172127 0.0837188 -0.0634228 -0.0676504 -0.3358 0.0935011 0.376359 -0.0747115
15 0.254624 0.197447 0.377669 -0.25544 0.178813 0.116197 0.41364 -0.371141 -0.23101 0.0769782 0.0956049 -0.189038 0.271077 -0.335899 0.035629 -0.415109 0.29541 -0.0744908 -0.0648037 -0.0863532 0.0301757 0.0428632 0.204943 0.206074 0.0125329 0.123785 0.250169 -0.287534 -0.0279438 0.172078 -0.269646 0.23538 -0.157975 0.0490379 0.108764 0.100114 0.164195 0.104527 -0.0855425 0.207088 0.154538 -0.188829 -0.125237 -0.142291 0.103499 0.371426 0.1369 -0.0154514 -0.0775948 -0.169311 0.0629008 0.0728141 -0.0926095 -0.100844 -0.304683 -0.123003 -0.247853 -0.463549 0.209957 -0.284339 -0.229619 -0.0767517 -0.1824 -0.214873 0.126568 0.410917 0.11483 -0.0437078 -0.117204 0.182471 -0.276807 -0.0457999 -0.131944 -0.175198 -0.116921 0.115999 0.0178104 -0.149027 0.207592 0.120017 0.0634716 0.125375 0.181909 -0.161821 -0.12701 0.195849 -0.0327252 0.0424991 0.221389 -0.180664 0.435445 0.342205 0.22668 -0.131724 0.267246 -0.0287071 -0.44468 -0.204033 0.314216 -0.173816 0.185631 -0.250481 -0.201879 0.149264 0.135215 -0.0457544 -0.275398 -0.00251497 -0.286347 0.166107 -0.120835 -0.195582 0.140958 0.0475497 -0.29333 0.070023 0.0950835 0.297936 0.0159077 0.00328634 0.272303 0.0271539 0.538209 -0.173785 -0.22092 -0.25547 -0.0547556 -0.411443
16 0.167092 0.0887445 0.0176321 -0.147042 0.226047 0.023197 0.0280478 -0.253539 -0.341911 0.211603 0.354352 -0.163193 0.430849 -0.0751662 0.0456077 -0.0080324 0.0407935 -0.163718 0.144763 -0.07643 0.0530199 0.0464167 0.167828 0.15839 0.154895 0.0685644 0.260841 -0.317778 0.0472135 0.0507281 -0.182898 0.258815 -0.018307 -0.0374379 0.094922 -0.0935355 0.322361 0.227131 -0.107176 0.0177148 0.0663606 -0.15351 -0.343885 -0.0851695 0.111076 0.165879 -0.0196852 0.0120952 -0.123958 -0.0170548 0.0178137 -0.0692513 -0.257368 -0.244046 -0.14607 -0.273346 -0.0529842 -0.158511 0.303508 -0.227513 -0.289033 -0.222766 -0.0124515 -0.2702 -0.127156 0.11807 0.138231 -0.216303 -0.0740899 0.212558 -0.0941844 0.0716749 -0.118454 -0.15109 0.00406209 0.157858 0.126733 -0.307675 0.0637638 0.137278 0.202153 0.310917 0.199503 -0.213158 0.0404781 0.20936 -0.0330176 0.0864931 0.257344 -0.102184 0.168796 0.153665 0.26902 0.0187682 0.107091 0.226526 -0.131678 0.0584069 0.257922 0.0401289 0.299864 -0.189481 -0.135162 0.0422337 -0.174405 0.107512 0.100857 -0.0915732 0.035378 0.0340642 -0.14462 -0.0843103 0.0549617 0.0139054 0.0405214 0.00297267 0.124712 0.0637541 0.0959245 -0.367613 0.0874221 0.00716356 0.0358045 -0.175218 -0.0060741 -0.0943111 -0.259725 0.0732506
17 0.0953379 0.0896922 0.207432 0.0108777 0.207376 -0.0700893 -0.232809 0.165267 -0.253345 0.0591004 0.149971 -0.225123 -0.0113514 -0.0386175 0.174762 0.136133 0.111598 -0.148871 0.129092 0.210645 0.106728 0.0679125 0.110915 -0.160409 0.150657 0.00884067 0.15914 -0.264208 -0.222676 0.304672 -0.0772172 0.192816 -0.125849 -0.110115 0.161574 -0.108943 0.0670822 0.254231 0.0901628 0.114096 0.136228 -0.134589 -0.3153 0.148908 0.0927013 0.145651 -0.376227 0.174859 -0.184128 -0.191872 -0.0587134 -0.0520895 0.00922684 -0.195292 -0.230477 -0.154698 -0.0516338 0.0184259 0.209532 -0.117354 -0.080561 -0.184956 -0.0273655 0.0471143 -0.0714641 -0.0631041 0.182071 -0.0589424 -0.165985 0.149038 0.119109 0.0630572 -0.128821 -0.143871 0.169264 0.186111 0.229847 -0.264018 0.190194 0.297454 0.109501 0.275525 0.195637 -0.0978097 -0.0608943 0.269194 -0.134444 0.161678 0.207497 -0.186064 0.193147 -0.0108171 0.0850329 -0.153175 0.193075 0.264101 -0.0289739 -0.0441105 -0.181755 -0.149368 0.182027 -0.155712 -0.21867 0.258696 -0.257007 0.0114341 -0.10463 -0.0516658 -0.183557 0.0591591 -0.171156 0.0416888 -0.173455 0.21711 -0.170604 -0.0537784 0.151108 0.0424972 0.140845 -0.202363 0.0722576 0.172327 -0.171743 -0.200345 0.042082 0.184028 0.0855956 0.10181
18 0.0373809 0.0966727 0.253362 -0.180162 0.337408 -0.114344 -0.366454 -0.113481 -0.270848 0.0563825 0.0852569 -0.103403 0.115142 0.049222 0.198281 -0.0867684 0.0282299 -0.180017 0.313608 0.460802 0.109799 0.0740499 0.171774 0.0180794 0.229804 -0.102535 0.28934 -0.11677 -0.191863 0.210174 -0.0163172 0.316949 0.0344139 0.0172393 0.337848 0.0131964 0.0889331 0.209609 -0.164334 0.0958436 0.0857181 -0.187801 -0.0309547 0.192205 -0.00772744 0.0225725 -0.199427 0.225237 -0.245776 -0.350581 -0.325244 0.345259 0.119755 -0.352013 -0.180682 -0.0628923 -0.077507 0.190077 0.240651 -0.00310312 -0.165508 -0.175057 0.164205 0.0725683 -0.103704 0.299304 0.283887 -0.1753 -0.112151 0.0937575 0.254474 0.0521937 -0.125061 -0.123212 0.0501325 0.135009 0.293312 -0.264162 0.167049 0.332087 -0.0166552 0.219586 0.122888 -0.149134 -0.136736 0.221208 -0.0740878 0.162607 0.134699 -0.161813 -0.000915615 -0.00679173 0.05761 -0.138258 0.233196 0.279039 -0.226067 0.0165048 -0.331063 -0.0992605 0.123369 -0.199326 -0.154236 0.0445077 -0.125164 0.0624743 -0.117638 0.0325753 -0.0012501 0.215548 -0.264337 -0.0393699 -0.344307 0.0587148 -0.204778 0.0477003 0.118834 0.162906 0.000793054 -0.036132 0.19102 0.411241 -0.0427116 -0.171086 -0.288355 0.338596 0.12561 -0.0885607
19 0.15524 0.141971 0.236673 -0.116691 0.292469 0.136236 0.182665 0.165937 -0.0803765 0.125242 -0.0250245 -0.205002 0.208937 -0.0332197 0.097803 -0.0779986 0.193632 -0.182284 0.0118026 -0.160962 0.328709 0.197743 0.0720376 0.1329 0.0711097 -0.129385 0.14396 0.00916983 -0.258123 0.408377 -0.174086 0.129038 -0.144829 0.116739 0.130404 -0.125555 0.275373 0.123758 0.0891766 -0.0973794 0.347636 -0.0759838 -0.146082 0.297757 0.0648601 0.0950615 -0.0319968 -0.0628259 -0.203447 -0.00901049 0.132629 -0.134965 0.490632 -0.191824 -0.20388 0.167681 0.228273 0.204158 0.140368 -0.0283672 -0.322355 -0.217031 -0.191231 -0.214833 0.00988926 0.22761 0.0545197 0.235559 -0.259121 0.232097 -0.170715 0.22117 -0.131148 -0.221729 0.518441 0.142773 0.236644 -0.15714 -0.0818846 0.240499 -0.0198601 -0.214762 0.167711 -0.2908 -0.0375616 0.232425 -0.356421 0.147076 0.220314 -0.178679 0.0726025 0.267429 0.209457 0.0101909 -0.0321805 -0.0148986 -0.0419417 -0.202913 -0.401127 0.123207 0.140113 -0.168187 -0.236488 0.120405 -0.166755 -0.067169 -0.144154 -0.220368 -0.0897195 0.111933 -0.165317 -0.0791726 0.177933 0.183566 0.117589 0.0316847 0.279361 0.245313 0.191962 -0.0450742 0.0657379 0.268889 0.0299538 -0.126101 0.29909 0.116511 0.129009 -0.174258
20 -0.0446305 0.152797 0.234848 0.0502542 0.149012 0.0494894 -0.132577 0.0453941 -0.142189 0.278821 0.0410981 -0.211072 -0.0271123 -0.08687 0.191706 0.165042 0.202416 -0.275127 0.116345 -0.0187443 0.337672 0.00616162 0.083186 -0.0833288 -0.124405 0.166792 0.0340072 -0.0808653 -0.202853 0.139112 -0.0277658 0.0472473 0.0131251 -0.0920593 -0.012284 -0.252928 0.222977 0.100454 0.431047 -0.0214789 0.0805041 -0.133141 -0.21944 -0.0430229 0.342861 0.106991 -0.358605 0.0585167 -0.335651 0.268465 0.118426 -0.0443748 0.0397205 -0.280047 -0.152929 -0.314623 -0.318696 -0.0279181 0.0392726 -0.347732 -0.242221 -0.123677 -0.172749 -0.0601765 0.0153053 -0.0134832 0.0502693 -0.0610125 -0.248947 0.154326 -0.418872 0.119931 -0.0908999 0.0896322 0.0900403 0.259662 0.101624 -0.238932 -0.0482217 0.101117 0.142001 0.208827 0.305723 -0.219807 -0.310321 0.274965 -0.22716 0.196862 0.103492 -0.15226 0.118107 0.0947154 0.129272 0.145067 0.208599 0.184265 0.259848 -0.0453942 -0.0403465 -0.0375536 0.352163 -0.105554 -0.288648 0.273719 0.019079 0.208103 0.0753542 -0.359932 -0.137287 0.0384648 -0.0256597 -0.179585 0.169365 0.309544 0.197115 -0.0473314 0.231214 -0.0372942 0.152805 -0.219395 0.125381 0.03366 -0.00264543 -0.0996877 -0.1972 0.268938 -0.102491 -0.163352
21 0.0518094 0.097695 0.163429 0.11975 0.323628 -0.0280812 0.0119534 0.0368741 -0.179536 0.270545 0.108239 -0.122797 0.166387 -0.111067 0.0890725 0.0452251 0.20884 -0.229693 0.0577525 0.0645763 0.177149 -0.0869177 0.170918 -0.0416601 0.0440042 -0.0273531 0.196988 -0.0205165 -0.13645 0.0396507 -0.106127 0.254609 -0.0710688 -0.130381 0.0570757 -0.271858 0.167542 0.0109013 0.106257 -0.063991 0.0775927 -0.0349684 -0.22131 -0.115882 0.430462 0.12202 -0.268652 0.0153789 -0.275079 0.217486 0.188395 0.0104895 -0.0686272 -0.329594 -0.129502 -0.242141 -0.265912 -0.0411794 0.267342 -0.306782 -0.245314 -0.11002 -0.133681 -0.187223 0.0162073 -0.0749126 0.19771 0.0232254 -0.181016 0.230254 -0.192403 0.157385 -0.14299 -0.0220105 0.272461 0.273698 0.126553 -0.214426 0.101571 0.213412 0.185411 0.182595 0.278885 -0.261642 -0.334679 0.335241 -0.0836289 0.205036 0.261703 -0.164573 0.0832506 0.064032 0.132856 0.0965347 0.220348 0.0933298 0.0969717 0.0166144 -0.122872 0.0191513 0.209955 -0.238852 -0.122416 0.0952147 -0.0140236 0.207934 0.172023 -0.150404 -0.149484 -0.0674632 -0.132672 0.0428136 -0.0170406 0.153507 0.0123488 0.0189652 0.302591 0.0656894 0.10162 -0.138474 0.100608 -0.118588 0.028069 -0.210156 -0.133053 0.0784676 -0.00616449 7.4148e-05
22 0.0220391 0.229352 0.182066 -0.0228958 0.178601 0.0867843 -0.237431 -0.19942 -0.203695 0.20211 0.0303615 -0.028209 0.0699885 0.0984552 0.298858 0.0297527 0.111784 -0.202357 0.0229722 -0.089303 0.298792 0.10416 0.288469 0.0924184 0.0813902 0.244858 0.106621 -0.041229 -0.405825 -0.174935 -0.0278518 0.0993889 -0.177493 0.41016 0.143198 -0.192384 0.155503 0.125762 0.521422 -0.110093 0.172938 -0.169152 -0.315018 -0.135405 0.409853 -0.0152257 -0.186797 -0.261293 -0.485063 0.266897 -0.152116 -0.179991 -0.0617468 -0.113504 -0.00929296 -0.0390738 -0.300758 0.210792 0.192751 -0.291144 -0.279099 0.00138083 -0.06693 -0.0606223 0.124843 -0.107348 0.148901 0.105804 -0.219653 -0.0713979 -0.333789 0.17687 -0.0576017 0.0113201 -0.140259 0.155942 0.317091 -0.134598 0.159205 0.21275 0.17464 0.340368 0.258156 -0.139449 -0.433838 0.155961 -0.072226 0.0192099 0.0977307 -0.115232 0.0877065 0.15567 0.072084 0.130591 0.064691 0.175909 0.355887 -0.11953 -0.224713 -0.186944 0.205574 -0.23211 -0.358841 0.351044 0.366513 0.209318 0.0643687 -0.495966 -0.103811 -0.0205888 0.0723086 0.0899805 0.090265 0.0962487 0.198122 0.121764 0.232042 -0.20349 0.183684 -0.11585 0.242009 0.191365 -0.093552 -0.13244 -0.136892 0.131377 0.110485 -0.151884
23 0.261097 0.170712 -0.272685 -0.101006 0.310782 -0.0989541 -0.256256 0.0876207 -0.170202 0.408507 0.0524645 -0.0229277 -0.0674406 0.213729 0.0167368 -0.111261 0.224907 -0.119808 0.12742 0.0901994 -0.0664076 0.216949 -0.0129898 0.296913 0.314323 0.269245 0.192447 -0.341278 -0.156089 -0.111194 -0.214282 0.406986 -0.519139 -0.0119471 0.320297 -0.150829 0.248564 0.294768 0.331007 0.262132 0.199009 -0.322382 -0.232036 0.128922 0.0817415 0.213372 0.243811 0.29815 -0.0385847 0.0143264 0.15051 -0.173417 0.0424834 -0.15044 -0.117718 -0.0309402 -0.209511 0.15712 0.293127 -0.110886 -0.276441 -0.232388 -0.292067 -0.0972512 0.0468181 -0.040827 -0.032346 -0.0331569 -0.077366 0.187286 -0.240357 0.171678 -0.138156 -0.218742 0.0900701 0.157832 0.123566 -0.181332 0.136575 0.279892 0.214626 0.136048 0.0790036 -0.372071 -0.186571 0.217927 -0.0304701 0.19425 0.0509684 -0.19282 0.177094 0.121882 0.106658 0.00733227 0.00812058 0.224853 0.248914 0.0154972 -0.00783404 -0.215223 0.100581 -0.248925 -0.0980855 -0.0922222 0.0588836 0.0620609 0.190104 -0.173196 -0.0984848 0.0201549 -0.204051 0.180301 0.229271 0.0571297 -0.0814573 0.214438 0.300973 0.194052 0.208207 -0.0404957 0.144086 0.0751446 -0.00751714 -0.174627 0.0924374 0.092952 0.182725 -0.016802
24 0.0951046 0.284656 -0.23797 0.0492983 0.118558 -0.00200446 -0.399974 0.200927 -0.156456 0.399996 0.118689 -0.0363505 -0.147513 0.278416 0.0553887 -0.24151 0.341281 -0.25605 0.176528 0.157467 -0.136323 0.305071 0.0641578 0.384959 0.352951 0.340021 0.072886 -0.239489 -0.161699 -0.212872 -0.176101 0.357074 -0.501833 0.503951 0.320312 -0.28108 0.138302 0.275602 0.355669 -0.0214256 0.242237 -0.217408 -0.323621 0.191972 0.206368 0.128386 0.433733 -0.000893818 -0.18517 -0.0308529 -0.231131 0.15434 -0.0229985 -0.0595911 -0.0891752 0.15634 -0.116235 0.224211 0.285941 -0.0334883 -0.285114 -0.223311 -0.279967 -0.128716 0.126033 -0.152658 0.236628 -0.0335128 -0.0416879 0.0795783 -0.344074 0.291223 -0.256671 -0.118749 -0.142467 0.226732 0.124844 -0.184081 0.344097 0.150914 0.0607508 0.185729 0.196083 -0.330158 -0.221974 0.22598 -0.011663 0.253139 -0.117518 0.0276617 -0.0465457 0.288985 0.054281 -0.0205552 0.0190089 -0.0937257 0.167637 -0.000549055 -0.16114 -0.247414 0.12162 -0.305604 -0.10368 -0.136765 0.280652 0.0747737 0.0561981 -0.316102 -0.039083 0.202538 -0.245245 0.131872 0.326096 -0.299123 -0.0262023 0.44748 0.201256 -0.0311461 0.0411451 0.0822569 0.244723 0.26649 0.277334 -0.198208 0.210942 -0.145415 0.19481 0.019613
25 0.267235 0.261577 -0.243328 0.0806202 0.073201 0.0480672 -0.331173 0.219949 -0.0767134 0.359376 0.163669 -0.0788267 0.125107 0.287395 0.126617 -0.103348 0.253153 -0.252507 0.234807 0.332161 -0.0314811 0.139285 0.174889 0.374789 0.326734 0.366519 -0.00772541 -0.220396 -0.324094 -0.233589 -0.134683 0.216449 -0.552253 0.333076 0.143182 -0.0589363 0.178354 0.143938 0.346932 0.126243 0.433928 -0.461957 -0.158303 -0.0126394 0.249492 0.293206 0.22676 -0.00929005 -0.310374 -0.213377 -0.206842 0.0146155 -0.0472807 -0.185509 -0.145849 0.0520787 -0.170336 0.189929 0.177817 -0.061152 -0.256279 -0.316972 -0.118139 -0.0637213 0.161448 -0.161127 -0.0390408 0.0753131 0.0564916 0.0490525 -0.238346 0.166521 -0.283752 -0.265305 -0.00220254 0.199481 0.30168 -0.328767 0.522927 0.257981 0.274211 0.157918 0.262704 -0.228432 -0.292575 0.184398 -0.0561587 0.146075 0.150081 -0.0300715 0.164158 0.293158 -0.0605836 -0.0961091 0.0396422 -0.0478571 0.181422 -0.0542307 -0.065151 -0.471453 0.142605 -0.257006 -0.202351 -0.0975451 0.0218646 -0.128634 0.0774242 -0.264329 -0.0148727 0.0267717 -0.338467 0.405462 0.334169 -0.109041 -0.0111285 0.246139 0.233949 0.110899 0.0111099 -0.181528 0.360995 0.102667 0.086736 -0.0978518 0.199318 -0.0880862 0.0694827 -0.193023
26 0.216005 0.224367 -0.123204 0.0904031 0.0750827 0.113201 -0.428021 0.0955823 -0.0258528 0.159722 0.32092 -0.0552344 -0.121981 0.319681 0.019006 -0.0463316 0.284629 -0.168016 0.264406 0.178523 0.0975265 0.353051 0.195393 0.404683 0.153858 0.415613 0.118989 -0.303177 -0.154394 -0.0375808 -0.159776 0.241423 -0.363601 0.456568 0.232157 -0.171116 0.198056 0.131067 0.234509 0.105555 0.329013 -0.255562 -0.168723 0.31053 0.169476 0.0476102 0.303712 0.368631 0.0388752 0.123693 -0.144959 -0.276815 -0.199012 -0.123508 -0.142232 -0.0209293 -0.221544 0.217177 0.27592 -0.0436603 -0.198551 -0.195017 -0.212471 -0.0462008 -0.00445705 -0.153696 0.127377 0.1064 -0.0695957 0.00980461 -0.344636 0.165507 -0.19386 -0.0805281 0.0202084 0.170937 0.191785 -0.0912071 0.332439 0.10469 0.153945 0.279588 0.212607 -0.13858 -0.222515 0.199637 -0.0208671 0.239831 0.022064 -0.145192 0.054309 0.293415 0.114806 -0.139479 0.111837 0.0409841 0.105624 -0.0486373 -0.0976328 -0.243973 0.0280994 -0.1984 -0.223442 0.0516584 0.228079 0.0975943 -0.0208634 -0.257609 -0.0639104 0.266252 -0.191908 0.398428 0.488909 -0.1475 -0.198229 0.156482 0.277843 0.16878 0.0916033 0.0766331 0.098111 0.172068 0.080512 -0.112089 0.180427 -0.101116 0.175583 -0.102121
27 0.13428 0.278763 -0.048776 -0.190147 0.0803272 0.0120521 -0.416542 0.142663 -0.107171 0.269939 0.0802785 0.0461175 -0.239985 0.261017 0.076825 -0.261816 0.0860431 -0.074986 0.167563 0.190127 0.00210454 0.310108 0.000471044 0.328198 0.305102 0.425519 0.277793 -0.10505 -0.299668 -0.0914309 -0.197002 0.316969 -0.180972 0.241668 0.184705 -0.0995839 0.290973 0.182564 0.53481 0.175671 0.367146 -0.253077 -0.148183 0.274571 0.123894 0.146586 0.376368 0.0863181 -0.198826 0.119963 -0.257718 -0.182073 -0.000292451 -0.0755041 -0.226991 -0.100222 -0.0247931 0.119501 0.0795271 0.000812717 -0.308263 -0.284822 0.088995 0.0149973 -0.0689209 -0.0315991 -0.038604 0.0248405 -0.0611729 0.0499783 -0.0561824 0.164334 -0.198623 -0.187676 -0.0683789 0.247946 0.217099 -0.284127 0.266613 0.17932 0.22975 0.379133 0.177554 -0.0993501 -0.076325 0.391543 -0.15689 0.152403 0.102772 -0.0442982 0.0494182 0.221249 0.1024 0.0342668 0.0828853 -0.0534575 0.0875048 0.00305188 0.0506458 -0.141516 -0.0108105 -0.169882 -0.357383 0.0130392 0.111952 0.345607 0.110149 -0.0694819 0.134569 0.218976 -0.289594 0.225518 0.244923 -0.327479 -0.080948 0.157583 0.24836 0.0364914 0.0468266 -0.0891674 0.321466 0.179527 0.0688152 -0.200395 0.020556 -0.0312137 0.145557 -0.117126
28 0.194303 0.220074 -0.0969432 0.0158464 0.296129 0.0672477 -0.286065 0.108999 -0.130945 0.10633 0.0893482 -0.0461689 0.0531645 0.179859 0.0413435 0.0115259 0.214115 -0.290062 0.233167 -0.00644323 0.103084 0.159169 0.210421 0.231785 0.255614 0.333482 0.180255 -0.0942214 -0.213406 -0.0134837 -0.187246 0.319354 -0.312569 0.322684 0.183404 -0.141985 0.276019 0.207545 0.218118 0.127595 0.0297636 -0.0827365 -0.197679 0.035956 0.163859 0.0470321 0.0981818 -0.0340602 -0.177225 0.0282094 0.0277271 -0.140254 -0.109324 -0.219279 -0.0960488 0.00975305 0.00207645 0.0750232 0.166887 -0.0233238 -0.277825 -0.181548 -0.104756 -0.131609 0.0624048 -0.278673 0.100531 0.168696 -0.126478 0.190213 -0.18947 0.331294 -0.182169 0.0850699 0.00505252 0.294247 0.18975 -0.19726 0.16068 0.112647 0.143159 0.172152 0.271349 -0.162106 -0.118137 0.294527 0.0853151 0.237121 0.120029 -0.0583614 0.0922359 0.175343 0.144415 0.0928346 0.123743 0.143956 0.197402 -0.0948496 -0.285946 -0.139964 0.0691594 -0.309739 -0.176593 -0.0938671 0.111342 0.130532 0.217629 -0.239504 -0.12171 0.106169 -0.212515 0.197394 0.360591 -0.148694 0.0290356 0.073309 0.312867 0.0930997 0.114139 -0.0770522 0.10234 0.172633 0.15388 -0.226834 0.10896 -0.0570537 0.0272891 -0.0339569
29 0.141885 0.0868062 -0.0886881 -0.139249 0.176753 -0.0218485 -0.352287 0.112949 -0.0671753 0.323393 0.209497 -0.0762078 -0.0378616 0.268718 -0.0279644 -0.137367 0.279192 -0.125968 0.0957688 0.151123 0.102031 0.334467 0.0540309 0.362283 0.23451 0.46968 -0.0281162 -0.0937002 -0.301076 -0.113385 -0.218921 0.348666 -0.48992 0.237947 0.339434 -0.198703 0.226083 0.22689 0.383543 0.103607 0.237996 -0.348098 -0.153903 0.26948 0.346713 0.168202 0.284014 0.119449 -0.219688 0.0898621 0.0530225 -0.10914 0.123259 -0.0998195 -0.145118 -0.139335 -0.215539 0.192664 0.253906 -0.0424419 -0.167723 -0.407083 -0.187457 -0.202079 0.139846 -0.268698 0.0273747 0.0519515 -0.119491 0.0929044 -0.279385 0.266077 -0.214909 -0.11195 0.0492958 0.232482 0.160157 -0.26154 0.210321 0.214578 0.12219 0.196753 0.121157 -0.243818 -0.153485 0.23992 0.0996792 0.159367 0.114123 -0.187086 -0.0279017 0.186881 0.0974218 0.147629 0.250465 -0.135021 0.23491 -0.0703536 0.0176193 -0.16277 0.110301 -0.353512 -0.245469 0.0987908 0.062511 0.0816471 0.0628802 -0.246095 -0.235659 0.137721 -0.146635 0.128779 0.343253 -0.122981 0.0289896 0.109873 0.335311 0.127694 0.0331428 -0.0786237 0.170128 0.201003 0.109714 -0.222598 0.014353 -0.0670422 0.201423 -0.0811412
30 0.196301 0.0813833 -0.0999195 -0.00369331 0.244511 -0.167095 -0.376986 0.0926905 -0.176675 0.292589 0.148559 -0.0423792 -0.0692348 0.171274 0.16376 -0.132226 0.152986 -0.205374 0.170651 0.126131 -0.078038 0.161622 -0.00941391 0.17243 0.204391 0.415564 0.198796 -0.204717 -0.294199 -0.168417 -0.284637 0.293402 -0.316177 0.16226 0.292061 -0.180186 0.404628 0.254879 0.250558 0.239598 0.38263 -0.186129 -0.206543 0.212177 0.142034 0.00415013 0.228567 0.0568977 -0.168817 -0.0763592 -0.07404 -0.0161768 -0.110347 -0.213233 -0.212188 -0.0438847 0.0214124 0.095392 0.232373 -0.176166 -0.213756 -0.141778 -0.0354006 0.164912 0.0707041 -0.258696 0.106121 0.00421836 -0.206184 0.213746 -0.184972 0.0815998 -0.245016 -0.271664 -0.124346 0.241653 0.158321 -0.270519 0.281917 0.129337 0.314285 0.108889 0.22946 -0.227024 -0.269064 0.250244 -0.0766616 0.183863 0.168821 0.0144014 0.132627 0.330383 0.160954 -0.0640238 -0.0390404 0.100821 0.258032 -0.112039 -0.227623 -0.256366 -0.0220308 -0.232645 -0.0948343 -0.0822504 0.113059 0.100284 0.156275 -0.0473286 -0.22654 0.164953 -0.321516 0.15695 0.345051 -0.305109 -0.124998 0.0916041 0.235944 0.169511 0.0102223 -0.175235 0.0480658 0.220058 0.0610826 -0.295006 0.0978715 0.0585635 0.282844 -0.0241898
31 0.203061 0.343591 -0.0362387 0.0260924 0.0942374 0.26634 -0.321109 0.261705 -0.222213 0.25019 0.140903 -0.0721974 0.0823268 0.164504 0.11933 -0.172946 0.11029 -0.230225 0.34523 0.210721 0.0356411 0.217089 0.252367 0.362673 0.387118 0.37551 0.197391 -0.242891 -0.238246 -0.11159 -0.218231 0.277979 -0.223304 0.103223 0.138157 -0.0510492 0.31022 0.272439 0.434679 0.16848 0.0843496 -0.239196 -0.212124 0.171166 -0.0540101 0.131347 0.191669 0.140033 -0.217277 -0.0865052 -0.0916957 0.129217 -0.0606532 0.0155743 -0.217176 0.102322 -0.0547848 -0.0857447 0.201443 -0.0693487 -0.231529 -0.244669 0.0104758 -0.117808 0.0289132 -0.00254995 0.0524014 -0.0844138 -0.237973 0.170196 -0.199002 0.167667 -0.144029 -0.230499 0.0126884 0.24779 -0.0273143 -0.197653 0.175828 0.17536 0.0678209 0.0653255 0.169379 -0.237434 -0.282624 0.12139 -0.0309684 0.190171 0.00190152 -0.0862721 0.133002 0.274418 0.124599 0.0130008 0.0705491 0.156626 -0.0438632 -0.0634022 -0.132799 -0.343977 0.0407294 -0.103295 -0.307907 0.0125319 0.00225932 0.0235747 0.158237 -0.158781 -0.177329 0.20075 -0.273311 0.200302 0.195701 0.025049 0.0449352 0.303481 0.125212 0.239942 0.0835499 0.083814 0.298628 0.190455 0.191985 -0.261697 0.0145683 0.060816 -0.0476485 0.00238495
32 0.255982 0.136329 -0.0474973 0.0297454 0.0737571 0.0600422 -0.498678 0.128436 -0.14095 0.220561 0.0912502 -0.016547 0.166807 0.173639 -0.135634 -0.169197 0.237913 -0.0646058 0.300587 0.179094 -0.017052 0.33678 0.198126 0.575992 0.392244 0.392342 0.110826 -0.306941 -0.1704 -0.195885 -0.0533383 0.273218 -0.270163 0.417151 0.243176 -0.0495801 0.387947 0.195394 0.329726 0.218647 0.128994 -0.234155 -0.180117 0.260759 0.164652 0.0665442 0.378371 0.196611 -0.0407846 -0.115069 -0.0898776 0.00531165 -0.0951936 -0.163659 -0.211758 0.00585798 -0.311539 0.126038 0.186599 -0.0995362 -0.179123 -0.152207 -0.297943 -0.111216 0.109305 -0.148636 0.0860575 0.00380664 -0.140772 0.146801 -0.497428 0.30942 -0.292321 -0.201484 0.101977 0.135516 0.113708 -0.027082 0.1814 0.225481 0.275289 0.137304 0.239164 -0.29301 -0.28456 0.304611 0.0555782 0.421589 0.0176302 -0.127433 0.282005 0.379086 0.12421 -0.053723 -0.0685083 0.0864049 0.241662 -0.086868 0.120635 -0.0619899 0.0927226 -0.208149 -0.233094 -0.0812693 0.253938 0.130474 0.0403498 -0.306761 -0.0306619 -0.00191071 -0.253624 0.390375 0.454731 -0.201105 -0.0304845 0.173494 0.234479 0.218073 0.103837 -0.056653 0.0960458 0.169267 0.312289 -0.237912 0.0144926 -0.0646347 0.0818104 -0.114359
33 0.208247 0.216048 -0.277332 -0.0814599 0.0404203 -0.119752 -0.385177 0.099877 -0.190537 0.355748 0.332786 0.000813148 0.0386217 0.00702135 0.121169 -0.311089 0.350225 -0.163503 0.206013 0.165978 0.25046 0.174107 0.173346 0.676308 0.134169 0.528151 0.142742 -0.20521 -0.0430349 -0.0934464 -0.149166 0.445729 -0.540786 0.125271 0.267018 -0.0706009 0.335455 0.250725 0.369173 0.233003 0.167995 -0.222228 -0.142816 0.167135 0.168348 0.167527 0.485869 0.0846649 -0.219941 0.0937605 -0.0786986 -0.207787 -0.202187 -0.0893693 -0.29917 -0.169827 -0.166416 0.0976787 0.170044 -0.292777 -0.2084 -0.21492 -0.101795 -0.216089 0.218637 -0.100455 -0.0110416 -0.0917283 -0.114461 0.237256 -0.443508 0.142364 -0.203921 -0.277342 0.0380718 0.100072 0.0609969 -0.17829 0.49011 0.135636 0.217497 0.186471 0.255876 -0.202796 -0.317231 0.254916 0.09721 0.369347 0.0794496 -0.118715 0.145197 0.0948858 0.172776 0.0184093 0.0575994 0.0991033 0.157716 -0.0748634 0.188532 -0.365764 0.134092 -0.286658 -0.106892 -0.133949 0.211925 0.0752968 0.00104507 -0.327584 0.00118232 0.108971 -0.211828 0.294363 0.285003 -0.304526 -0.244947 0.0805807 0.301321 0.365295 -0.0330401 -0.110547 0.310302 0.0672969 0.273346 -0.146919 0.00606512 -0.0473733 0.10119 -0.132174
34 0.140624 0.290899 -0.144178 -0.220692 0.197036 0.117288 -0.532779 0.174419 -0.0604018 0.318946 0.172977 0.106593 -0.0788782 0.251108 0.0493571 -0.169878 0.30818 -0.183691 0.289001 0.187471 0.0576536 0.333031 0.0396503 0.468933 0.317139 0.321195 0.296006 -0.131086 -0.233272 -0.212938 -0.161449 0.287041 -0.450328 0.297219 0.164078 -0.273944 0.185986 0.326081 0.37902 -0.0391387 0.345159 -0.340026 -0.0294791 0.0588868 0.0578287 0.134434 0.349249 0.0465622 -0.168962 0.116715 -0.0409848 -0.0513793 -0.0853729 -0.0125092 -0.143429 0.1556 -0.141676 0.224414 0.252338 -0.0468243 -0.180848 -0.126603 -0.103793 -0.122168 0.121652 -0.18655 0.0668109 -0.197076 0.0289803 0.188767 -0.427481 0.297643 -0.346584 -0.199779 0.136226 0.237024 0.190159 -0.250079 0.415415 0.317034 0.209218 0.0798634 0.254975 -0.16176 -0.216189 0.19705 -0.0730878 0.178647 0.155825 -0.0852475 0.145065 0.213712 -0.0170036 -0.106958 0.0475933 -0.068014 0.244058 -0.101237 -0.0662631 -0.243553 0.00889274 -0.219058 -0.231249 0.125423 0.215713 0.0381873 0.0690344 -0.201775 0.120929 -0.0113455 -0.26671 0.267512 0.499676 -0.155899 -0.266939 0.151716 0.237727 0.0739806 0.0919585 -0.250681 0.219092 -0.0237963 0.140397 -0.131021 0.107752 -0.14762 0.0711972 -0.123415
35 0.206409 0.229445 -0.183705 -0.195145 0.177146 0.0330749 -0.278841 0.193061 -0.316912 0.252472 0.11786 0.0050439 -0.0141092 0.118169 0.0982116 -0.143576 0.357518 -0.211753 0.293267 0.121978 -0.0328338 0.309228 0.151541 0.406817 0.167081 0.192684 0.121339 -0.182778 -0.129391 0.096246 -0.15842 0.370749 -0.383286 0.311194 0.323391 -0.143846 0.212999 0.181687 0.255001 0.183689 0.240405 -0.310965 -0.167564 0.233398 -0.0393735 0.0430477 0.21774 0.119694 -0.209889 0.167419 -0.0343214 0.0210182 -0.0330078 -0.0358763 -0.133797 0.0926319 0.0091313 0.11366 0.303618 -0.124451 -0.2886 -0.256231 -0.107638 -0.206181 0.0472736 -0.0820251 0.146587 0.0144391 -0.149201 0.131791 -0.17565 0.123798 -0.178963 -0.156805 -0.0930424 0.173009 0.116491 -0.156557 0.40266 0.166871 0.146288 0.0460208 0.203285 -0.176625 -0.284288 0.260879 -0.111888 0.119634 0.0537469 -0.228842 0.286391 0.158036 0.113652 0.0285624 0.139331 0.15525 0.141514 -0.187654 -0.166938 -0.297164 0.157437 -0.322585 -0.170155 -0.0701535 0.0893539 0.191579 0.0504728 -0.291799 -0.248756 0.0438742 -0.20566 0.257671 0.268943 -0.0891159 -0.0971895 0.187531 0.217365 0.0726083 0.0299547 0.0497922 0.126657 0.233611 0.211402 -0.129632 0.187252 0.0866504 0.0878041 -0.109713
36 0.101313 0.266439 -0.118374 0.0154918 0.148073 -0.144438 -0.373548 -0.00983785 -0.115364 0.344686 0.266607 -0.00836728 0.167351 0.132232 0.240097 -0.153716 0.183549 -0.208483 0.278395 0.0751224 -0.123958 0.144175 0.23 0.198939 0.0658041 0.221179 0.0454627 -0.1893 -0.276145 -0.473863 -0.102254 0.38243 -0.358559 0.235915 0.222462 -0.207215 0.171913 0.21945 0.282451 0.196333 0.13199 -0.255486 -0.151985 0.092934 0.209681 0.161676 0.153762 0.0740437 -0.132745 0.0871442 -0.11655 -0.198986 0.00376416 -0.235016 -0.178586 -0.195276 -0.19986 0.222248 0.241432 -0.0488959 -0.322373 -0.240639 -0.264351 -0.1864 -0.0459135 -0.200362 0.224584 -0.181266 -0.0624088 0.0896744 -0.332504 0.0283473 -0.314319 -0.000726389 -0.0869342 0.168145 0.209848 -0.138851 0.360238 0.197269 0.248157 0.226848 0.16921 -0.30883 -0.100446 0.234336 0.0867576 0.173175 0.0636932 -0.203583 0.0504293 0.0547106 -0.0244363 -0.0609211 0.0632131 0.0829573 0.38584 -0.0771751 0.106984 -0.100827 0.142017 -0.264585 -0.132211 0.0225469 0.213316 0.124307 0.0554062 -0.154009 -0.202128 0.118778 -0.144102 0.116863 0.135009 -0.157055 -0.0156322 0.164792 0.224346 0.0271388 0.0455916 -0.242468 0.143756 0.0784345 0.203699 -0.226763 0.040067 0.0652203 0.0234639 0.030374
37 0.109616 0.293635 -0.286657 0.106901 0.00494196 0.0879503 -0.701274 0.139399 -0.0198969 0.439339 0.237111 0.180511 -0.0538571 0.333873 0.161897 -0.198901 0.202364 -0.320345 0.304574 0.3095 -0.000161213 0.311601 0.313691 0.45537 0.299039 0.448373 0.0526229 -0.134273 -0.159236 -0.293501 -0.122645 0.342526 -0.318963 0.423844 0.237919 -0.160718 0.186046 0.155689 0.277377 0.20043 0.316887 -0.331063 -0.173939 0.227941 0.321005 0.118627 0.164355 0.2828 -0.250853 0.228254 -0.0508896 -0.156504 -0.033508 -0.0909398 -0.0200096 -0.193495 -0.217935 0.241705 0.140012 0.0395981 -0.287432 -0.308816 -0.0573429 -0.0143997 -0.180643 -0.0391152 0.0453385 -0.110432 -0.174603 0.0213349 -0.432257 0.0852994 -0.192057 -0.0613982 0.00571471 0.217642 0.144032 -0.12108 0.267816 0.110995 0.190083 0.308189 0.329705 -0.0791463 -0.239278 0.230918 -0.0200203 0.0832415 0.0202024 0.0445005 -0.0286458 0.397468 0.126155 0.0499734 0.211904 0.0713061 0.264597 -0.151202 -0.149848 -0.377721 0.218601 -0.240518 -0.253028 -0.0613698 0.177653 0.218235 0.350722 -0.248148 -0.200398 0.193983 -0.243013 0.289521 0.25554 -0.152389 -0.0470987 0.227696 0.196867 0.156468 -0.0828249 -0.0260757 0.181068 -0.0125044 0.148406 -0.306453 0.00108707 -0.0563433 0.142869 -0.107853
38 0.267269 0.235158 -0.178828 -0.0875162 0.0560223 0.00509052 -0.289773 0.121016 -0.172735 0.210259 0.0607035 0.101547 0.0708199 0.101692 0.113156 -0.422628 0.173394 -0.17616 0.199678 0.07966 0.303076 0.150999 0.165696 0.386728 0.0696151 0.419873 0.264676 -0.314154 -0.161095 0.00363845 -0.194593 0.347605 -0.421234 0.312677 0.280213 -0.103704 0.256954 0.230869 0.162145 0.0108292 -0.0254141 -0.186227 -0.160381 0.189629 0.113635 0.225509 0.262747 0.102898 -0.115154 -0.208903 -0.26631 -0.163849 -0.0812069 -0.0772303 -0.20246 -0.0281709 -0.196372 0.172999 0.0267432 -0.259909 -0.239781 -0.161571 -0.0281282 -0.165869 0.159198 0.0309879 -0.132151 -0.0228421 -0.133719 0.100368 -0.28034 0.128882 -0.157165 -0.0737668 0.0573514 0.161255 0.00287974 -0.0419281 0.213283 0.184113 0.108512 0.236366 0.12057 -0.11953 -0.083729 0.330156 0.121874 0.172673 0.0663673 -0.0778729 0.00350545 0.0924202 0.146272 0.0212056 0.0534528 0.00453416 -0.00476677 -0.0890201 0.278247 -0.292164 0.0742285 -0.279211 -0.202852 -0.147876 0.245314 0.0502931 0.0731229 -0.250207 -0.0764587 0.0417504 -0.14993 0.250219 0.137549 -0.165788 -0.163633 0.114078 0.189195 0.40833 0.235365 -0.0476016 0.137221 0.107783 0.183334 -0.14701 0.0426475 -0.153422 0.396858 -0.0683548
39 0.0745676 0.253311 -0.17351 0.0473735 0.19135 -0.0880119 -0.506939 0.26085 -0.22019 0.244173 0.250346 0.0530623 0.319925 0.0806119 0.112502 -0.271348 0.0248166 -0.297434 0.0681098 0.303578 0.204115 0.217739 0.270362 0.615855 0.250789 0.387983 0.308598 -0.173392 -0.203846 0.0137942 -0.253238 0.334701 -0.41214 0.176862 0.284551 0.0245844 0.531043 0.269252 0.216622 0.11362 0.192269 -0.348588 -0.213733 0.0464318 0.116021 0.0486882 0.283461 0.163306 -0.153872 -0.0286336 -0.0524824 -0.115822 0.0376052 -0.174198 -0.177871 -0.0197099 0.00929816 0.0740343 0.138387 -0.180424 -0.146309 -0.180207 -0.0198779 -0.146873 0.0743357 -0.097774 -0.041484 0.223867 -0.281936 0.222226 -0.465654 0.173504 -0.11855 -0.196473 -0.0073838 0.331953 0.212643 -0.275389 0.242019 0.129056 0.136796 0.109323 0.130551 -0.152583 0.0121645 0.346025 -0.000257502 0.133039 0.0905077 -0.0803411 0.185059 0.229906 0.0194448 0.0963605 -0.0675136 0.0579415 0.239337 -0.134212 -0.146377 -0.220848 0.16581 -0.226073 -0.105129 -0.0196479 0.22325 0.11253 0.124415 -0.242218 -0.240733 0.26595 -0.272741 0.356559 0.322374 0.0245005 0.157031 0.285723 0.155654 0.333135 0.0811937 -0.0786822 0.242436 0.0209084 0.0062784 -0.0272772 0.128624 0.0273973 0.0841752 -0.175174
40 0.0448792 0.172263 -0.0976904 -0.0527957 0.17648 0.140678 -0.429561 0.0667587 -0.247348 0.198563 0.0966129 -0.00542758 -0.00962413 0.154626 0.0248681 -0.201625 0.209596 -0.146718 0.0506914 0.0974469 0.284859 0.198797 0.265715 0.392925 0.118885 0.539552 0.0930591 -0.276977 -0.304143 0.0234183 -0.13636 0.300032 -0.280267 0.482311 0.171853 -0.222038 0.196995 0.23412 0.288366 -0.0136085 0.0917341 -0.292884 -0.0199761 0.163538 0.209672 0.130309 0.311193 0.263379 -0.110997 -0.0436653 -0.225838 -0.345746 0.0225191 -0.206724 -0.0228738 -0.0639473 -0.172573 0.223357 0.265493 -0.0499381 -0.0734532 -0.311748 -0.0481863 -0.192155 -0.0991915 -0.111423 0.0978107 -0.101503 -0.0883711 0.087774 -0.18533 0.422175 -0.130941 0.0219472 -0.0834623 0.189571 0.144999 -0.177588 0.335906 0.216298 0.162897 0.541104 0.112589 -0.175052 -0.205007 0.157358 0.174469 0.129367 0.150869 -0.191498 0.172468 0.201275 0.0570975 0.259917 -0.000550623 0.10863 -0.0941852 -0.0776063 -0.142055 0.0063681 0.00482928 -0.188368 -0.189048 0.0769469 0.239499 0.0299924 -0.0490186 -0.337404 -0.0637679 0.143882 -0.0717038 0.312201 0.334527 -0.0271251 -0.209252 0.120635 0.239826 0.340223 0.0924573 -0.0101285 0.00721884 -0.113935 0.121519 -0.0708231 0.0321766 -0.0704284 0.26125 -0.0699592
41 0.317952 0.063769 -0.171918 -0.0863704 0.175713 0.159769 -0.29596 0.0197964 -0.180016 0.167447 0.0802213 -0.118793 0.328471 0.0908648 0.105055 -0.103051 0.151495 -0.148918 0.0859068 0.545145 -0.00878762 0.176379 0.115939 0.28125 0.177785 -0.0496474 0.318262 -0.215215 -0.199924 0.0806311 -0.363328 0.247383 0.0900165 -0.25836 0.0726972 -0.124838 0.432139 0.15999 0.152135 0.116008 0.0011058 -0.0240329 -0.126242 0.416096 -0.0222645 0.38197 0.128358 0.123998 0.0266314 0.00805901 -0.184603 -0.161701 0.0211718 -0.261164 -0.180483 -0.0870287 0.156716 0.116028 0.118447 -0.215193 -0.198895 -0.0910159 -0.1066 -0.158568 -0.264308 -0.149713 0.0151902 -0.153793 -0.0548451 0.210699 -0.00277651 -0.166825 -0.14349 -0.0105489 -0.00140372 0.132808 0.0862564 -0.199499 0.102672 0.179858 0.203222 0.182919 0.155872 -0.278857 -0.119935 0.175843 -0.0105663 0.167546 0.278086 -0.207122 0.0457298 -0.0296061 0.0755818 -0.0448196 0.0553333 0.108512 0.184466 0.0149665 -0.0748797 0.052317 0.165068 -0.227289 -0.0830539 0.0809462 -0.224949 0.099299 0.292429 -0.227976 -0.194542 0.159675 -0.193509 -0.00696759 0.103914 0.129378 0.071599 -0.0570128 0.225347 0.0608431 0.0121636 0.0514466 0.269397 0.175182 -0.222042 -0.0325618 -0.2581 0.0329506 0.25508 -0.178721
42 0.18097 0.0543328 0.181849 -0.0250158 0.14792 0.275016 -0.0193849 -0.0162447 -0.137416 0.202493 0.061793 -0.236741 0.0804004 -0.059695 0.0853693 0.209131 0.175189 -0.242596 0.120533 0.121773 0.162276 0.0487285 0.105666 -0.11341 0.128352 -0.247509 0.0342804 -0.148365 -0.230673 0.195738 -0.102902 0.11789 -0.206162 -0.104861 -0.0636362 -0.0988395 0.230581 0.161956 0.290507 -0.0182565 0.0220263 -0.247569 -0.201835 0.173742 0.207802 0.203879 -0.270827 0.0962316 -0.168359 0.108632 0.1058 -0.175715 0.0080453 -0.219088 -0.137924 -0.137121 -0.0476598 -0.0536951 0.139664 -0.120669 -0.111535 -0.228876 -0.298083 -0.0582607 -0.110824 -0.0109191 0.117178 0.13461 -0.200035 0.171332 -0.193022 0.158745 -0.115219 -0.23939 0.202627 0.199636 0.292678 -0.143046 0.0354677 0.23895 0.131587 0.0884953 0.100957 -0.257623 -0.15803 0.0849739 -0.289426 0.0525971 0.156058 -0.219623 0.11396 -0.0141399 0.0811571 -0.0392781 0.180898 0.358026 0.0308867 -0.275773 -0.0982976 0.0075803 0.248971 -0.167103 -0.0543432 0.112922 -0.0771402 0.0951942 0.0991633 -0.113952 -0.0686286 -0.0965231 -0.253057 -0.157424 0.0221034 0.168071 0.122958 0.0557912 0.218296 0.209535 0.222974 -0.330397 0.0354043 0.152187 -0.114941 -0.133103 -0.0518528 0.0889449 0.00779032 0.119801
43 0.121044 0.0751323 0.269385 -0.102884 0.195691 0.498775 -0.0538484 -0.17025 -0.24908 0.165413 -0.0846578 -0.377876 0.271514 -0.0360548 0.038384 -0.239208 0.264779 -0.160142 0.185171 -0.147644 0.17857 0.136161 0.0755466 0.040514 0.075714 -0.694928 0.304307 -0.0907701 -0.0239754 0.476166 -0.153934 0.0727266 -0.0631358 0.327895 0.109474 -0.134916 0.220167 0.163255 0.344396 -0.0702599 0.279788 -0.162389 -0.223328 0.0384255 0.272718 0.178931 -0.480256 0.168759 -0.0768959 -0.10955 -0.219067 -0.22591 0.527527 -0.0858765 -0.0294144 -0.0539877 0.232205 0.41631 0.21195 -0.326436 -0.110703 -0.0695579 -0.00724907 0.0256579 -0.0874388 0.295995 0.27866 0.20628 -0.145939 0.300603 0.0960924 -0.0656057 -0.0829103 -0.455388 0.126929 0.260647 0.337667 -0.0640598 -0.241551 0.215482 0.141898 -0.279256 0.0680513 -0.107301 0.00923168 0.140614 -0.396356 0.105603 -0.0353092 -0.191819 0.285715 0.302876 0.112162 -0.353418 -0.201722 0.206163 -0.229322 -0.450134 -0.558711 0.311635 0.164048 -0.0966669 -0.390156 0.200671 0.0863026 0.141189 -0.261994 -0.128417 0.0306095 0.149574 -0.0383453 -0.15839 0.56257 0.384708 0.189333 0.253126 0.166833 -0.0219472 0.154285 -0.187157 -0.108886 0.302739 -0.156845 -0.105853 0.0967357 -0.154576 0.523648 -0.561218
44 0.0701354 0.0106529 0.289298 -0.0466724 0.269884 0.181538 0.26471 -0.0066775 -0.227006 0.27146 0.0483024 -0.282033 0.362698 -0.0198793 0.0767975 -0.152692 0.231823 -0.114885 0.154098 -0.257924 0.15943 0.291849 0.1238 -0.00985739 0.0242269 -0.0843402 0.0784548 -0.0489614 -0.151594 0.230794 -0.141435 0.110532 -0.151066 0.248313 0.0893395 -0.110032 0.242546 0.187797 0.293959 0.348625 0.14872 -0.132661 -0.257978 0.051347 0.179129 0.120145 -0.259454 0.273389 -0.0771608 -0.0991791 0.0336709 -0.108581 0.279238 -0.159673 -0.058122 -0.0890002 0.0332596 0.0211048 0.287433 -0.195499 -0.344753 -0.104655 -0.1187 -0.125754 -0.0838793 0.224031 0.198903 0.190846 -0.226665 0.255242 0.0171827 -0.118134 -0.00393513 -0.0617388 0.124991 0.159208 0.112753 -0.102997 -0.241692 0.178623 0.0403731 -0.262503 0.247035 -0.209859 -0.0208454 0.248469 -0.0987613 0.111548 0.0517587 -0.166292 0.131358 0.222842 0.256677 -0.140361 -0.102977 -0.00796648 -0.0978298 -0.246762 -0.234714 0.281837 0.0343182 -0.20755 -0.294516 0.1246 -0.0596611 -0.11613 -0.102289 -0.156457 -0.022777 0.0268922 -0.22518 -0.219763 0.358328 0.210531 0.244862 0.368646 0.335622 0.0286911 0.165883 -0.0635754 -0.112096 0.166333 0.102961 -0.24596 0.151776 -0.149177 -0.00856023 -0.0811721
45 0.0236978 0.0574031 0.120556 -0.319447 0.0453662 -0.0516654 0.153598 -0.0984916 -0.155375 0.114517 0.156096 -0.106282 0.138619 -0.520347 0.0382274 -0.235555 0.156863 -0.157695 0.201099 -0.0306828 0.379713 0.236387 0.155919 0.276883 -0.0311827 0.166573 0.383689 -0.30824 -0.252841 0.0321011 -0.271546 0.23778 -0.0585214 -0.117521 0.156706 -0.219697 0.364448 0.0621767 0.105733 0.0137551 0.107248 -0.116511 -0.207391 -0.00606611 -0.0687781 0.170914 0.183183 0.294098 -0.217827 -0.0334549 -0.0240724 0.21491 -0.177315 -0.182018 -0.186034 -0.190608 -0.423691 -0.513041 0.268476 -0.246815 -0.139181 -0.118123 -0.160343 -0.253234 -0.0106479 0.458163 0.0522859 -0.00673015 -0.0836186 0.199048 -0.373083 -0.088842 -0.208373 -0.107709 -0.183858 0.299401 0.0698515 -0.0852513 0.326724 0.229987 0.0922648 0.309857 0.13164 -0.0993811 -0.0404097 0.418106 0.241933 0.228941 0.202642 -0.0820588 0.125583 0.143215 0.183236 0.0767332 0.324189 -0.0489924 -0.321042 0.0185394 0.27553 -0.200985 0.181267 -0.31699 -0.157524 0.108351 0.0205424 0.117847 -0.126156 -0.201015 -0.105913 0.18463 -0.179839 -0.231171 0.237399 0.101915 -0.163894 0.19521 0.138264 0.241553 0.0829907 0.0982078 -0.0438838 0.181839 0.303258 -0.276418 -0.407768 -0.0578904 0.115261 -0.11051
46 0.161607 0.158545 0.168551 -0.0981216 0.222795 0.128449 0.267949 -0.147245 -0.256029 0.13187 0.116483 -0.1852 0.144438 -0.315259 0.0348501 -0.099767 0.217519 -0.182713 0.0650423 -0.152823 0.231639 -0.0346231 -0.0113561 0.148405 0.188372 0.22757 0.342252 -0.0366722 0.047103 0.218728 -0.140772 0.226371 -0.148865 0.0231569 0.17355 -0.186619 0.238971 0.222717 0.0559647 0.0236942 0.096023 -0.0835352 -0.144492 -0.0813717 0.1764 0.276611 -0.0205395 0.0148301 -0.167646 -0.135085 0.08735 -0.018597 -0.319159 -0.152542 -0.165924 -0.0126626 -0.0522596 -0.29325 0.229136 -0.193697 -0.212939 -0.0386133 -0.165806 -0.284997 0.0306468 0.13762 -0.0311449 -0.0729989 -0.191816 0.168121 -0.33556 0.0739326 -0.0449647 -0.131657 -0.0427371 0.135119 0.290525 -0.190718 0.173197 0.167761 0.231407 0.138951 0.12633 -0.110655 -0.0903877 0.204693 -0.116703 0.0732375 0.191869 -0.0812471 0.310629 0.224678 0.189504 0.107324 0.0784308 0.219721 -0.266711 0.00757045 0.243989 -0.106512 0.214363 -0.296986 -0.125882 0.156206 0.142175 0.0966625 -0.0102454 -0.151341 -0.13463 -0.0976909 -0.174241 -0.121773 0.229789 0.0439562 -0.194991 0.0752364 0.134535 0.287639 0.113183 -0.178794 0.0316311 -0.00794242 0.263114 -0.0775068 -0.320641 -0.0807827 -0.155145 -0.121997
47 0.1509 0.165851 -0.0239831 -0.203717 0.233325 -0.0108571 -0.430633 -0.155353 -0.204053 0.182527 0.289948 -0.107662 0.213456 0.172105 0.232074 -0.30163 0.133832 -0.178564 0.0849457 0.295827 0.301121 0.061579 0.117649 0.413423 0.0277929 0.267979 0.259287 -0.11786 -0.243209 -0.278432 -0.235804 0.141951 -0.309912 0.193936 0.350431 -0.0700549 0.194355 0.191906 0.144393 0.191909 0.130227 0.053152 -0.214014 0.0413764 0.114835 0.237245 0.323068 0.1935 -0.0928708 -0.202861 -0.214448 0.0910307 0.161504 -0.161526 -0.12432 -0.18569 -0.278531 0.262718 0.199512 -0.143044 -0.0497098 -0.175455 -0.0844968 -0.0627074 -0.0727786 -0.229649 0.232729 -0.0738045 -0.145199 0.251496 -0.360522 0.129978 -0.0532341 0.0225915 -0.00204585 0.142552 0.243751 -0.0954832 0.161899 0.238606 -0.0106516 0.25395 0.136748 -0.20181 -0.156533 0.123693 0.0105505 0.331491 0.0789394 -0.225166 -0.132782 0.0677172 0.080647 0.110604 0.146825 0.16915 0.0608871 -0.04039 -0.00659613 0.194524 0.113646 -0.119773 -0.152688 0.138789 0.158936 -0.00776838 -0.0446372 0.0199777 -0.0274916 0.271248 -0.147067 0.118347 0.447275 -0.0148027 -0.125993 0.320544 0.345271 0.339344 0.107284 0.0200577 0.0892743 0.18479 0.00311152 -0.178293 0.142917 -0.199133 0.258636 0.0851134
48 0.30492 0.189549 -0.0506495 0.127717 0.097112 -0.0872598 -0.464453 0.171992 -0.227746 0.167234 0.140976 -0.0116617 0.268856 0.202816 0.25324 -0.142642 0.0595791 -0.349393 0.362111 0.0794479 0.477788 0.101988 0.229165 0.253154 0.0810637 0.348856 -0.0373254 -0.130117 -0.306084 -0.271226 -0.241737 0.164362 -0.293077 0.0963907 0.174486 -0.140977 0.147963 0.147333 0.139352 0.0750638 0.214858 -0.0396907 -0.195909 0.0623281 0.0259995 0.159377 0.251225 0.166017 -0.0329391 -0.0729546 -0.185677 0.0131555 0.0309056 -0.128496 -0.21673 -0.25518 -0.304518 0.237753 0.271705 -0.107613 -0.0514558 -0.288941 -0.163409 -0.214198 0.0656094 -0.135573 0.113292 -0.0188235 -0.296212 0.230275 -0.34412 0.30205 -0.000428314 -0.0133809 0.223099 0.229764 0.00867779 -0.12316 0.297983 0.193774 -0.024182 0.313897 0.115683 -0.229127 -0.096807 0.187765 0.160158 0.33391 0.0846931 -0.346122 0.0269854 -0.0551692 0.134271 -0.000506573 0.218385 0.123502 0.0876158 -0.0686399 0.170421 0.176923 0.093194 -0.168619 -0.240317 0.120427 0.0777324 0.00816991 -0.122542 0.0405816 -0.328406 0.228315 -0.106027 0.198166 -0.105992 0.0640259 -0.0670756 0.0413283 0.294253 0.610305 0.00364063 -0.263381 0.145513 0.16761 -0.0300969 -0.296401 0.395015 0.170614 0.0537797 0.23559
49 0.103291 0.156189 0.309574 -0.00970975 0.163426 -0.0430553 -0.414763 0.169541 -0.149165 0.194756 0.146168 -0.0529008 0.13141 0.490949 0.275892 -0.0375555 0.121551 -0.0941095 0.319789 0.374305 0.234816 0.365077 0.398308 0.0345269 0.520658 -0.108887 0.0274818 -0.0624544 -0.146455 -0.0175263 -0.414374 0.0287796 -0.132236 -0.137126 -0.0433557 0.114989 0.176703 0.274389 0.197028 -0.166 -0.143393 -0.341974 -0.138261 0.608633 0.106023 0.244492 -0.283031 -0.005876 -0.0717086 0.289041 0.104036 -0.0829199 0.0604629 -0.07361 -0.1464 -0.522038 -0.0302108 0.207195 0.194346 -0.173849 -0.190195 -0.140703 0.100053 -0.172568 0.132902 0.238376 -0.0411886 -0.363952 -0.0817359 0.0232137 -0.356132 -0.00677288 -0.151798 -0.276565 0.339128 -0.019506 -0.0327976 -0.273932 -0.113377 0.199346 -0.0801134 0.232946 0.130854 -0.204245 -0.132615 0.135233 -0.0795074 0.000698574 0.176931 -0.277596 0.164475 -0.218243 0.367146 -0.426743 0.0619556 0.308832 0.016334 -0.0632796 -0.0674959 -0.429419 0.193219 0.0316091 -0.162098 0.04884 -0.257141 -0.0146908 -0.453898 -0.0364542 -0.381775 0.485436 -0.0553234 -0.0221367 -0.271783 0.348145 -0.0762146 0.154983 0.125222 0.313675 -0.30041 -0.177508 0.634861 0.661737 -0.119057 -0.295921 0.155961 0.331955 0.0317 0.078372
50 0.196124 0.139913 0.445414 0.092046 0.178172 -0.0840657 -0.030881 0.359424 -0.218187 -0.0188412 0.162171 -0.242799 0.37924 0.210969 0.298577 -0.0476801 0.260879 -0.239366 0.181992 0.128247 0.272002 0.143765 0.225271 -0.142077 0.28146 -0.0292717 -0.22922 -0.103768 -0.308863 -0.0183125 -0.393213 0.0471429 -0.517969 0.0530927 -0.0971189 -0.0178797 0.0150163 0.170487 0.10977 -0.0362625 0.100989 -0.309262 -0.284443 0.143017 0.0672542 0.250278 -0.122377 0.293487 0.0847282 0.176311 -0.00703844 0.02703 -0.00365328 -0.221862 -0.215935 -0.508717 0.0368158 0.00970195 0.257939 -0.374392 -0.249941 -0.107334 -0.254128 -0.0653701 0.262425 0.465299 -0.113382 -0.291321 -0.195391 0.212612 -0.29865 0.201391 -0.114869 -0.139501 0.398217 0.104214 0.00971732 -0.0648861 -0.0191439 0.529969 -0.0285695 0.0919536 0.164853 -0.222875 -0.0513645 0.131985 -0.104928 0.190784 0.205604 -0.35028 0.130529 -0.0375265 0.276817 -0.34053 0.276204 0.0697931 -0.176963 -0.131208 0.0463718 -0.191437 0.204184 0.0658554 -0.307367 0.0536 -0.334151 -0.252643 -0.477969 0.0473385 -0.181458 0.421908 -0.133822 0.0297269 -0.133298 0.378133 -0.189251 0.116371 0.283741 0.564438 -0.224905 -0.345452 0.358009 0.50706 0.0583102 -0.311068 0.349863 0.121245 -0.141207 0.20079
51 0.0391838 0.277994 -0.111887 -0.0615418 0.343767 0.203546 -0.0229412 -0.197535 -0.18628 0.318788 -0.055351 -0.166681 0.266073 -0.0011122 0.207466 -0.312971 0.15557 -0.147458 -0.0171181 0.339212 -0.0436503 0.282104 0.0725545 0.311274 0.266227 0.00895009 0.14666 -0.137441 -0.140591 -0.115105 -0.323401 0.291316 0.264813 -0.116309 0.301726 -0.189849 0.351536 0.252836 0.159476 -0.0445279 0.0485208 -0.15975 -0.12679 0.103747 0.0244561 0.238065 0.141055 -0.118197 -0.213288 0.113984 -0.556396 -0.0767186 0.208596 -0.198681 -0.15474 -0.0527472 -0.00562707 0.0857406 0.226796 0.0822459 -0.380844 -0.216133 -0.0152365 -0.0763256 -0.0202156 -0.0704831 0.0908838 -0.173463 -0.0953051 0.195486 -0.091029 -0.087214 -0.105539 -0.173777 0.0783663 0.0757164 0.195939 -0.165785 -0.209083 0.211507 0.217481 0.223409 0.302126 -0.22889 -0.191611 0.22147 0.204464 0.0629987 0.316107 0.0206953 0.197916 0.0705974 0.103214 -0.142673 -0.0408131 0.0341403 0.154411 -0.00894635 0.0957036 0.0919141 0.152929 -0.220968 -0.357592 0.107983 -0.0125897 0.0802706 0.183746 -0.167587 0.0364881 0.0385401 -0.210009 -0.137683 0.0662875 0.0627237 0.121045 0.060666 0.252221 0.0827165 0.0389579 0.11615 0.358175 0.0799612 -0.0968213 -0.0432658 -0.21126 -0.119385 0.125988 -0.287042
52 0.186779 0.193778 0.197593 -0.0638856 -0.000154535 0.014305 0.0435398 -0.406343 -0.141934 0.299029 -0.178231 -0.0767829 -0.108762 0.0367742 0.0637785 0.237754 0.0867875 -0.23089 0.574007 0.323052 -0.0630199 0.273442 0.24294 -0.196179 -0.0878835 -0.276443 -0.115347 -0.126067 -0.356978 0.102539 0.0130437 0.294482 0.219212 -0.105238 0.252301 -0.0744231 -0.00794584 -0.047094 -0.0198927 0.378246 0.57625 -0.0904106 -0.192303 0.306569 -0.00654792 0.115462 -0.283705 0.0158613 0.0142978 0.145614 0.293498 -0.0366433 0.11777 -0.221918 -0.203908 -0.451711 0.0292587 0.173143 0.333116 0.0879286 -0.108252 -0.136036 -0.461342 0.454592 -0.208092 0.270285 0.291659 0.0708511 -0.171915 0.256197 0.00313188 -0.222079 -0.0300997 -0.124814 -0.0569162 0.393321 0.145757 -0.105446 0.209528 0.0804841 0.344099 0.54573 -0.0422173 -0.356624 -0.1946 0.290422 -0.140947 0.178218 0.308755 -0.0151675 -0.019391 0.166952 0.277293 -0.227963 0.45044 0.129518 -0.258032 -0.349268 -0.0248982 -0.13947 0.0352904 -0.224647 -0.328024 -0.0722354 0.0479697 0.0249214 -0.302085 -0.282358 -0.277929 -0.0272501 -0.138815 -0.102803 -0.22034 0.0730851 -0.30028 -0.225349 0.235679 -0.25301 0.355839 -0.00696712 0.265259 0.177252 -0.184799 -0.255464 -0.357773 0.527544 -0.00582866 -0.120271
53 0.279332 0.122237 -0.0779331 -0.263639 0.169093 0.192664 -0.115503 -0.270709 -0.118736 0.0988303 -0.11577 -0.156655 0.112692 0.0492446 0.205409 0.00136021 0.0614211 -0.153127 0.331762 0.155476 -0.172662 0.103826 0.130924 0.208696 -0.0713217 -0.356628 0.231701 -0.0255419 -0.315073 0.155302 0.0135828 0.288647 0.180468 0.250057 0.197785 -0.189023 0.0249892 0.0917438 -0.278443 0.153136 0.401812 -0.0154351 -0.303051 -0.0375259 0.0534725 0.108024 -0.198353 -0.0433752 -0.360734 0.018137 -0.182975 0.0196913 0.0840326 -0.199978 -0.202251 -0.213053 0.11818 0.261835 0.322939 0.0470203 -0.155983 -0.253638 -0.173485 -0.0369578 -0.042272 0.205543 0.195842 0.114872 -0.137593 0.145642 0.203198 -0.200634 -0.144892 -0.147132 -0.0486767 0.187469 0.227349 -0.150583 0.0501443 0.27454 0.0256597 0.199774 0.0825859 -0.0371887 -0.0926714 0.132934 -0.195766 0.133244 0.267506 -0.0722455 0.201967 0.0174 0.0165457 -0.382507 -0.18778 0.164238 -0.236485 -0.106938 -0.391791 -0.104296 0.177186 -0.219325 -0.405093 -0.0925245 0.0450225 0.190375 -0.00768422 -0.0673482 -0.0971621 0.111968 -0.0899523 -0.0124972 0.140773 -0.125027 -0.19447 0.161808 0.0839695 -0.00737161 0.0507315 -0.24293 -0.0489844 0.103241 -0.223555 -0.274762 -0.388723 0.156668 0.441372 -0.0616122
54 0.0643948 0.180021 0.331232 -0.33167 0.249375 0.222183 -0.131944 -0.159187 -0.290555 0.197119 0.14937 -0.237873 -0.00953401 -0.0117289 0.181849 -0.0217159 0.142687 -0.260003 0.153512 -0.2022 0.161552 -0.0454356 0.170023 0.0442751 0.173504 -0.325216 0.306264 -0.116013 -0.0864335 -0.0717994 -0.237137 0.0363115 -0.256436 -0.109834 0.153995 -0.141671 0.0463909 0.255106 0.284682 0.243454 0.0499276 -0.0410081 -0.212306 -0.101925 0.158295 0.108575 0.239719 -0.0228082 -0.223707 -0.034431 0.255043 -0.0227128 -0.0919057 -0.107296 -0.182859 0.024612 -0.0829265 -0.139803 0.0925051 -0.191032 -0.24722 -0.0640016 -0.171419 -0.193721 0.104572 -0.294119 0.177665 -0.315905 -0.00622745 0.228531 -0.157351 0.0768169 -0.101192 -0.171832 0.128065 0.094346 0.160255 -0.197906 0.314883 0.241633 0.272337 0.066284 0.138726 -0.0901662 -0.210994 0.134629 -0.516372 0.18118 0.123017 -0.0614026 0.213113 0.0774942 0.200068 -0.150496 -0.279991 0.235632 0.44918 -0.00396611 0.0565599 0.127814 0.117654 -0.222623 -0.109139 0.223865 0.00376821 0.0229056 -0.381694 -0.0794943 -0.0860701 0.112022 -0.255405 0.0763953 0.161221 -0.0896777 -0.0801302 0.0846061 0.139953 -0.118815 0.186204 -0.105842 0.10126 0.0169311 0.465497 -0.093477 0.363579 0.0146406 -0.393213 -0.290415
55 0.120919 0.113287 0.378205 -0.383055 0.123007 0.272395 -0.08078 -0.265903 -0.269424 0.0322995 0.153497 -0.198764 0.0954817 0.0221502 0.22104 0.0515234 0.344822 -0.217 0.0903509 -0.160158 0.135942 -0.208672 0.232186 -0.0639963 0.0379484 -0.34051 0.207531 -0.170255 0.0120344 -0.0965593 -0.317547 0.199187 -0.257063 -0.0431835 0.0394316 -0.243258 0.336398 0.322059 0.411457 0.204585 0.057024 -0.00286739 -0.231223 -0.0294396 0.166638 0.080287 0.307008 0.286577 -0.200487 0.12284 0.278103 0.00771367 -0.190127 -0.25705 -0.199752 0.193271 -0.173363 -0.347998 0.222627 -0.359561 -0.268354 -0.0299604 -0.00955217 0.004638 -0.028219 -0.146874 0.076469 -0.221208 -0.203888 0.260342 -0.132209 0.302474 -0.220074 -0.126976 0.238994 0.309805 0.157352 -0.231653 0.415689 0.179068 0.473081 0.250074 0.171509 -0.129568 -0.21677 0.172867 -0.4614 0.152223 0.197174 -0.0469264 0.358167 0.0256338 0.220495 -0.0636879 -0.138892 0.111142 0.292399 0.160115 0.233825 -0.00114001 0.012631 -0.166198 -0.172499 0.30739 0.116309 0.0843022 -0.498504 -0.140437 0.118785 0.0944955 -0.287553 -0.0922341 0.0254421 0.0797876 -0.0405011 0.104331 0.172596 -0.0538146 0.120111 -0.207548 0.00574288 0.0344926 0.230172 -0.0758928 0.252537 0.0298487 -0.303556 -0.162519
56 0.20616 0.119397 0.239834 -0.118526 0.0887982 0.110729 0.0124391 -0.397399 -0.278805 0.0596537 0.331973 -0.211325 -0.145097 -0.136522 0.015366 0.162844 0.157462 -0.1757 0.14187 -0.308949 0.0351506 -0.102251 0.296993 -0.0227095 0.258283 -0.207379 0.229134 -0.0807101 0.0623661 0.00294047 -0.236583 0.152611 -0.360842 0.133143 0.219192 -0.216114 0.100761 0.141468 0.169437 0.0563545 -0.0274468 -0.0474494 -0.200072 -0.10726 0.218012 0.173622 0.302731 -0.0290317 -0.125208 0.0889845 0.397769 0.121396 -0.494115 -0.233829 -0.286906 0.117771 -0.173282 -0.468245 0.200907 -0.142872 -0.287771 -0.0453942 -0.210834 -0.0287336 -0.0684797 -0.311916 0.209296 -0.502481 -0.0767552 0.307514 -0.0114192 0.387746 -0.153669 -0.137198 0.169353 0.28797 0.187539 -0.176271 0.360349 0.134951 0.211016 0.300223 0.27176 -0.113217 -0.209214 0.22696 -0.716702 0.0474895 0.232465 -0.119922 0.272107 0.135489 0.297431 -0.124476 -0.184623 0.214676 0.104162 0.117801 0.260203 0.167626 0.114667 -0.111168 -0.143227 0.147368 -0.0792735 0.172494 -0.561739 -0.1137 -0.0162897 0.239141 -0.32161 -0.252758 -0.122916 0.0988933 -0.403472 0.0745289 0.204122 -0.127019 0.224576 -0.359985 0.204052 0.207064 0.346582 -0.187353 0.148034 0.361188 -0.310831 -0.305683
57 0.289435 0.261628 0.290309 -0.275028 0.184867 0.0784167 -0.19616 -0.316531 -0.192206 0.124064 0.158867 -0.107146 -0.0610359 -0.076752 0.0524406 0.00791689 0.0141486 -0.114097 0.109196 -0.12227 0.0965279 0.0381384 0.200209 0.0558293 0.326627 -0.211901 0.161607 -0.0705025 -0.0183317 -0.197686 -0.274091 0.142297 -0.107389 -0.031547 0.0901174 -0.178772 0.140672 0.145691 0.0220454 0.157109 0.0507929 -0.170682 -0.168526 -0.0995467 -0.062457 0.149999 0.254547 0.0198775 0.0649017 0.202131 0.0592782 -0.00614211 -0.271451 -0.235556 -0.300807 0.023262 -0.0911037 -0.24574 0.286278 -0.193781 -0.206449 -0.0788875 -0.0145008 -0.221199 -0.155244 -0.0175912 0.241713 -0.268088 -0.04296 0.266407 -0.234921 0.215038 -0.109101 -0.0486094 0.318766 0.263525 0.162457 -0.196308 0.312144 0.109653 0.227148 0.173151 0.105292 -0.190616 -0.20579 0.232661 -0.368244 0.0875169 0.179407 -0.0895407 0.215365 0.0396894 0.164359 0.113094 -0.0643037 0.108567 0.257221 0.153373 0.226365 0.122144 0.0680645 -0.141448 -0.0854719 0.144796 0.000947901 0.261769 -0.425441 0.032309 0.0149765 0.266894 -0.0896975 -0.130069 -0.213191 0.052865 -0.333388 0.189684 0.0205632 0.0164075 0.11636 -0.0854866 0.264627 -0.0655385 0.185249 -0.166126 0.177659 0.197302 -0.377611 -0.348054
58 0.120621 0.078736 0.376494 -0.242493 0.188248 0.15353 0.134892 0.0340479 -0.299409 0.161859 0.223533 -0.168168 0.0668021 -0.204595 0.191616 0.172543 0.208151 -0.164539 -0.01115 -0.184885 0.0104274 0.0497647 0.219169 -0.0531957 0.327935 -0.194112 -0.0145201 -0.174949 -0.124976 -0.0232921 -0.196387 0.164695 -0.0914718 -0.123262 0.130076 -0.146453 0.231037 0.199238 0.177135 0.0656608 -0.0146641 -0.248043 -0.194836 0.127188 -0.057539 0.140019 0.19658 0.123937 -0.0573972 -0.015466 0.165702 -0.0419532 -0.0365679 -0.216479 -0.302209 0.0902802 -0.0725693 -0.275361 0.158337 -0.265182 -0.167244 -0.0961805 -0.105194 0.041886 -0.0184904 8.56255e-05 0.22227 -0.315099 -0.0578384 0.299763 0.111473 0.162331 -0.171677 -0.211658 0.186948 0.194686 0.0749263 -0.246613 0.457543 0.144409 0.161279 -0.0994987 0.06502 -0.212221 -0.181499 0.159891 -0.249663 0.112611 0.156112 -0.217187 0.198149 0.155686 0.121494 -0.192911 -0.0587856 0.324732 0.0609235 -0.01909 0.00444326 0.302778 0.163409 -0.0833176 -0.169559 0.116106 -0.107218 0.107577 -0.248565 -0.140137 -0.223924 0.1237 -0.21909 -0.069315 -0.0509205 0.118025 -0.139081 -0.0903863 0.164041 0.00836788 0.266827 -0.0493275 0.139727 0.113313 0.139812 -0.226487 0.289603 0.330239 -0.216474 -0.117013
59 0.157385 0.269642 0.370392 -0.291837 0.0898912 -0.00884203 0.0221771 -0.293271 -0.222222 0.132934 0.160628 -0.281037 0.0608452 -0.188354 0.162848 0.099791 0.151322 -0.27995 0.246314 -0.165121 0.109763 -0.10468 0.298906 0.0301739 0.294435 -0.32955 0.228717 -0.115804 -0.0883208 -0.0922846 -0.176188 -0.00377526 -0.328402 0.0171748 0.0302085 -0.217802 0.176649 0.164219 0.398971 0.149945 0.0653923 -0.0828383 -0.233959 0.0132068 0.328992 0.111638 0.141413 0.0603152 -0.176543 0.20078 0.332172 -0.0321357 -0.129741 -0.0763199 -0.25479 0.206481 -0.108869 -0.258289 0.292996 -0.261246 -0.143898 -0.0962432 -0.204391 -0.356247 -0.154662 -0.121957 0.367753 -0.248492 0.0196929 0.393638 0.00357598 0.250451 -0.262006 -0.170013 0.4327 0.327502 0.0563702 -0.0370593 0.420569 0.145861 0.20957 0.2113 0.227731 -0.116898 -0.202309 0.149788 -0.468047 0.119153 0.2254 -0.110661 0.239952 0.0999017 0.145856 -0.0885403 -0.284802 0.158093 0.405302 0.0397428 0.215888 0.189409 0.178079 -0.243805 -0.221626 0.302543 -0.257373 0.297511 -0.622091 -0.0397989 0.0204603 -0.031332 -0.131389 -0.152788 -0.172361 0.0213064 -0.251399 0.048269 0.215948 0.0853502 0.217145 -0.136689 0.128723 0.0566451 0.374347 -0.0579876 0.301612 0.214812 -0.332581 -0.481692
60 0.24211 -0.00518117 -0.256914 0.155495 0.153333 0.2447 -0.188035 -0.49507 -0.191314 0.162059 0.0437868 -0.0598097 0.186525 -0.0260908 0.0734353 -0.0259623 0.147561 0.02022 0.135151 0.351094 0.0912746 0.0785171 0.111408 -0.0272083 0.139929 -0.318237 0.0521256 -0.0472428 -0.105689 0.123855 -0.314778 0.297847 -0.0813922 0.231143 0.103562 -0.129659 0.118318 0.163898 -0.29713 0.132894 -0.0504872 -0.117774 -0.242041 0.342693 0.13559 0.0648497 -0.199631 0.00485645 -0.1444 0.166903 -0.224572 -0.281275 -0.138628 -0.280117 -0.141412 -0.330893 -0.135939 0.473801 0.270702 -0.0757133 -0.184558 -0.100507 -0.188183 -0.169668 -0.328823 0.274726 0.234987 -0.309372 -0.326773 0.172109 0.129727 -0.0178943 -0.281707 -0.17432 -0.0551467 0.191816 0.0398346 -0.10948 0.016401 0.256543 0.0192383 0.378193 0.304155 -0.107772 -0.206644 0.125621 -0.0244986 0.13884 0.180567 -0.245175 0.011171 0.00518318 0.361894 -0.650949 0.325593 0.156845 0.0337291 -0.0309323 0.188623 -0.152577 0.293499 -0.121599 -0.112506 0.100665 0.123853 0.105532 -0.168001 0.0565542 -0.142093 -0.00981808 -0.224558 -0.240506 -0.12595 -0.207368 -0.43516 0.357944 0.18513 -0.0651744 0.0228736 -0.348744 0.134876 -0.0160798 -0.136234 -0.322829 -0.373429 0.277316 0.366315 -0.0711245
61 0.17201 0.0364149 -0.337633 -0.0513383 0.142708 0.221992 0.227847 -0.327757 -0.193753 0.0903697 -0.0171363 -0.190878 0.182785 0.163428 0.0582339 0.142363 0.250679 -0.150563 0.0851917 0.00442021 0.116487 0.189725 0.0882034 -0.00932772 0.0635326 -0.431936 0.00463592 -0.0867415 -0.216009 0.429553 -0.244742 0.297388 0.0859411 0.490446 0.16842 -0.193846 0.102284 0.093297 -0.0837918 0.0461995 0.178345 0.00793607 -0.285891 0.327245 0.114848 0.294031 -0.180867 0.0702899 -0.177379 0.225082 -0.128785 -0.187566 0.0722567 -0.16669 -0.245357 -0.0444826 0.0464421 0.420596 0.132144 0.0150458 -0.176836 -0.112002 -0.104476 -0.26586 -0.384995 0.229142 0.281723 -0.147225 -0.315917 0.205483 0.108635 -0.0102136 -0.230772 -0.240244 -0.0702811 0.264334 0.226222 -0.0255854 -0.0101116 0.296913 -0.0323175 0.176604 0.0753009 -0.168342 0.0259043 0.122843 -0.149108 0.135766 0.235164 -0.144941 -0.165992 0.053932 0.149797 -0.506879 0.0993043 0.185445 -0.208038 -0.19651 0.0392503 -0.00575804 0.264858 -0.197926 -0.191931 0.119655 -0.0463786 0.00909346 -0.307746 -0.102233 0.0432506 0.0512626 -0.265998 -0.381578 0.100282 -0.0365027 -0.308634 0.23744 0.168069 0.109521 0.0938336 -0.101387 0.11145 0.236439 -0.103334 -0.253849 -0.0898478 0.175586 0.385083 -0.123756
62 0.130196 0.105979 0.12813 -0.0928304 0.156851 0.100565 0.0189749 -0.153354 -0.0511666 0.11819 0.0414505 -0.0369982 0.169664 -0.110853 0.212882 -0.0780304 0.149622 -0.131003 -0.00559562 -0.135758 0.18083 0.124643 0.12406 0.0276447 0.197361 0.0962104 0.151352 -0.171174 -0.0864605 -0.1129 -0.222812 0.279009 -0.114408 -0.102671 0.221727 -0.128866 0.131632 0.17615 -0.013894 0.166379 0.103661 -0.0304091 -0.233836 0.0725078 0.0391752 0.162386 -0.0430995 0.0866844 -0.00563792 -0.0346526 -0.0165578 -0.0100599 -0.085958 -0.142259 -0.220639 0.0282676 -0.115549 -0.0651919 0.131101 -0.0970792 -0.256829 -0.185225 -0.0352428 -0.0607043 -0.0506778 0.0746167 0.172759 -0.0168255 -0.181595 0.214973 -0.0649472 0.139588 -0.127981 -0.00239566 0.0863898 0.281048 0.239063 -0.230912 -0.101039 0.205296 0.0589711 -0.139059 0.234478 -0.257451 -0.113697 0.283587 0.0145119 0.22471 0.112453 -0.197288 0.02592 0.0780995 0.154573 0.0405343 0.155528 0.0273294 -0.0188528 0.008562 0.0607863 0.00941108 0.0716646 -0.26513 -0.100572 0.0879735 -0.0698571 0.0381827 0.0429888 -0.0885179 -0.160927 0.124218 -0.219554 -0.238858 0.0760981 0.033829 -0.158146 0.147438 0.172511 0.0616439 0.297356 -0.0255429 0.115686 0.118895 0.00488442 -0.134461 0.0689694 0.234313 -0.0714564 -0.0893138
63 0.257185 0.206758 0.300184 -0.110581 0.123264 0.262445 0.114211 -0.255148 -0.273117 0.200174 0.2694 -0.0369513 0.109566 -0.162828 0.137589 0.0745635 0.152355 -0.214099 0.138257 -0.0966718 -0.00793248 -0.0451752 0.215139 0.124477 0.253814 -0.341112 0.136467 -0.0683647 -0.0700989 -0.0401424 -0.116826 0.0917126 -0.12417 -0.0277028 0.183314 -0.261538 0.199994 0.158361 0.0731296 0.168645 0.0869598 -0.147658 -0.0829361 -0.115868 0.0626219 0.116523 0.0434564 0.0967815 -0.194816 0.0676679 0.245623 -0.0633536 -0.209056 -0.202804 -0.132764 0.00370782 -0.225962 -0.32897 0.24279 -0.126591 -0.270701 -0.0746222 -0.134992 -0.132249 -0.10847 -0.0974797 0.306161 -0.201632 -0.0947974 0.241032 0.0482263 0.0348176 -0.285688 -0.137512 -0.0328554 0.227945 0.0382392 -0.138706 0.140336 0.269289 0.189958 0.113996 0.179498 -0.186962 -0.123154 0.263446 -0.173759 0.121215 0.198644 -0.125418 0.263104 0.165603 0.184226 0.0208058 0.0102265 0.152689 0.0437729 0.00948592 0.0697519 0.270642 0.16616 -0.171399 -0.1283 0.0239593 -0.112889 0.101781 -0.202569 -0.0113873 -0.0459507 0.067373 -0.141225 -0.182297 0.158218 0.143229 -0.279323 0.0502353 0.128961 0.0119063 0.0920542 -0.126935 -0.0306874 0.0909061 0.105854 -0.165923 0.0780429 0.172721 -0.234634 -0.221722
64 0.0199801 0.104272 0.0409525 -0.0684608 0.118825 0.145185 -0.0667603 -0.102083 -0.197757 0.0160751 -0.054219 -0.150421 0.10934 -0.21404 0.133844 0.0043199 0.111918 -0.155283 -0.0376325 -0.0416869 0.00266193 0.059424 -0.00378734 0.107589 0.10393 -0.0686792 0.302733 -0.151542 -0.1185 -0.135274 -0.0603634 0.198533 -0.0512001 -0.153117 0.145923 -0.291491 0.0717786 0.0104758 0.134685 0.132935 0.334937 -0.158783 -0.264685 0.369311 0.0148731 0.190081 0.0202826 0.174427 0.000908567 0.0899487 -0.0521331 -0.086216 0.099616 -0.281716 -0.153886 -0.154123 -0.33546 -0.0465365 0.27929 -0.00446572 -0.0962697 -0.252241 -0.198879 -0.0673748 -0.285905 0.00932735 0.140387 -0.221299 -0.0735832 0.137357 -0.0175898 0.123347 -0.213126 -0.0895296 0.0556199 0.0473484 0.0926232 -0.160632 -0.0846586 0.19541 0.280098 0.111765 0.272921 -0.146423 -0.0365674 0.260835 -0.158755 0.162693 0.0837538 0.00115484 -0.0148493 0.0400599 0.256872 -0.0972127 0.218916 0.0655554 0.191589 0.015701 0.10727 0.147091 0.316263 -0.103572 -0.195705 0.177643 0.060436 0.0139002 -0.136112 -0.0738165 -0.103146 0.118424 -0.14363 0.0016979 -0.0634692 0.0895393 -0.0661744 0.120106 0.241485 0.159664 0.256469 -0.0347156 0.093635 0.220041 0.119694 -0.187319 0.00800608 -0.0161397 -0.0160473 -0.120569
65 0.165049 0.102175 -0.235669 -0.376732 0.160519 0.0726785 0.0352195 -0.348095 -0.0726186 0.207456 0.174787 0.0670207 0.273804 0.000364508 0.303606 -0.337864 0.14589 0.0704763 -0.0359596 0.261941 0.0599645 -0.0660585 0.305327 0.108914 0.0169658 0.00329231 -0.0951628 -0.324604 -0.121098 -0.250469 -0.0770609 0.282563 -0.0343819 -0.0763493 0.176916 -0.222204 0.119364 0.162024 0.0207311 -0.0160383 0.135794 -0.193438 -0.00341727 0.047693 -0.186511 0.187036 -0.0956287 0.202688 -0.270037 0.0196583 -0.0524 0.0141632 0.358662 -0.162224 -0.27992 -0.118955 -0.0100636 0.0760924 0.231242 -0.159359 -0.0393949 -0.170545 0.0853866 0.102982 -0.247849 0.0723383 0.193368 0.235727 -0.184104 0.232364 -0.167774 0.0605502 -0.364119 -0.130602 0.272176 0.101898 0.179258 -0.0622194 0.214045 0.0596612 0.298087 0.279629 0.16005 -0.287045 -0.345676 0.0921293 -0.075791 0.161005 0.353677 -0.164316 0.316721 0.114714 0.0757526 -0.346216 -0.174187 0.00522502 -0.062662 -0.192837 -0.197877 -0.0227161 0.20637 -0.226608 -0.163163 0.239081 0.0679171 0.0513047 0.0434332 -0.0728198 -0.102129 0.0967732 -0.202455 -0.0258481 0.0314982 -0.0461589 0.0323231 0.142091 0.101324 0.045623 -0.127642 -0.174731 0.143709 -0.118483 0.0166459 -0.111843 -0.0838772 -0.113662 0.316809 -0.117061
66 0.182896 0.35849 0.205309 -0.53262 0.192884 0.263442 -0.246139 -0.0919428 -0.179802 0.185949 -0.229483 -0.214112 0.0717825 -0.200305 0.127057 -0.185069 0.242516 -0.234622 0.251704 -0.306383 0.015785 0.197799 0.250516 0.0145399 0.30532 0.297676 0.166173 -0.168161 -0.255721 -0.199254 -0.0714273 0.296678 -0.0780657 0.0155091 0.331454 -0.206765 0.0584103 0.0707737 0.135368 0.0489326 0.00077905 -0.165981 -0.0753395 -0.039954 -0.116947 0.0502486 -0.289461 0.0352158 -0.208536 0.0690156 -0.122532 -0.372055 -0.130845 -0.178113 -0.179746 -0.105191 -0.211419 -0.0150053 -0.0373374 -0.107037 -0.238565 -0.170376 -0.265761 -0.272938 -0.111799 0.588315 0.21683 -0.0880937 -0.132041 0.273288 0.104113 0.33283 -0.150173 0.0311029 0.394568 0.117904 0.226287 -0.218293 -0.108288 0.0700364 0.062404 0.114827 0.205757 -0.197934 -0.0597143 0.120067 0.116538 0.0883835 0.243799 -0.0747429 0.181607 0.0873609 0.176351 -0.0177175 -0.0502835 0.0706561 0.0809264 -0.205882 -0.122495 0.128726 0.436583 -0.234361 -0.403253 0.0241374 -0.0462048 0.446075 -0.0527009 0.0844703 -0.0455554 0.202599 -0.315784 0.103461 -0.139482 0.129706 0.0990507 -0.17201 0.0383954 0.351863 0.3497 0.0819411 0.193435 0.115654 -0.321208 -0.393796 0.0150742 0.230128 -0.254197 0.30852
67 0.328489 0.115927 0.28301 -0.334845 0.153514 -0.029789 -0.11643 -0.0345669 -0.0921281 0.371649 -0.0194216 -0.050853 0.228232 -0.167294 0.383918 0.031677 -0.110331 -0.107144 0.394498 0.110538 0.0220856 0.109854 0.122717 0.046608 0.0607872 0.288676 -0.131525 -0.134065 -0.375243 0.0335944 -0.09521 0.20212 -0.207727 0.0250737 0.118017 -0.0892115 0.133466 -0.0255325 0.337398 0.0956535 0.207564 -0.0849569 -0.246962 0.168842 0.04002 0.128467 -0.432622 -0.0523243 -0.281288 0.101091 0.0483755 -0.0934386 -0.230718 -0.152224 -0.0671729 -0.359724 -0.0221609 0.116497 0.111406 0.0679947 -0.112859 -0.206123 -0.197266 -0.187759 0.0290574 0.331582 0.148132 0.288795 -0.183556 0.198717 0.108546 0.194303 -0.0599073 -0.130766 0.304131 0.136483 0.351153 -0.205938 -0.00819832 -0.0751812 0.182849 0.268272 0.270396 -0.0671057 -0.186052 -0.019866 0.0755909 0.211737 0.0985088 -0.0759091 0.00393801 0.123878 0.214592 0.267183 0.00642029 0.258242 0.126826 -0.338671 -0.223879 -0.26522 0.193389 -0.343324 -0.22824 0.15121 0.038257 0.599106 -0.0672331 0.00970054 -0.115715 0.120828 -0.0966369 0.0275567 -0.287565 0.267356 0.20545 -0.182721 -0.0811707 0.320383 0.294151 0.0529043 0.131913 0.278396 -0.210287 -0.200334 -0.115128 0.348576 0.0112236 0.0737605
68 0.0753933 0.0528624 0.156843 -0.0912679 0.263544 0.107825 -0.0724396 0.29796 -0.188031 0.141385 -0.122297 -0.119338 0.232164 -0.0770608 0.12501 0.0890287 0.213141 -0.068771 -0.00160499 -0.0698776 0.289926 -0.0655812 -0.0721081 0.0811407 0.238165 0.148988 0.141278 -0.189569 -0.231393 -0.0558909 -0.308767 0.246675 -0.110045 -0.284757 0.119505 -0.182085 0.400293 0.296161 0.00741625 0.0878185 -0.0662713 -0.0424147 -0.25838 0.0612305 0.127907 0.30585 -0.353035 0.147267 -0.0522993 0.0121639 0.0567223 -0.388607 0.115933 -0.281925 -0.179449 -0.00687195 -0.186315 -0.00198285 0.310673 -0.121371 -0.206108 -0.245663 -0.0299854 -0.352082 -0.0801243 -0.155312 0.104246 0.287494 -0.27843 0.140472 -0.0247956 0.150187 -0.139646 -0.193417 0.169699 0.160971 0.293543 -0.0765009 -0.013574 0.259451 0.312023 0.0650531 0.268732 -0.143347 -0.22046 0.342072 -0.0829006 0.195766 0.133978 -0.241822 0.137702 0.113884 0.243965 0.188353 0.276584 0.221188 0.23669 0.0388259 -0.231271 -0.0609445 0.305284 -0.172119 -0.20002 0.201075 -0.191274 0.235734 0.0922799 -0.099362 -0.236694 0.112038 -0.140826 -0.0962593 0.137096 0.0701816 0.242087 0.0975102 0.138021 0.276681 0.193358 -0.159846 0.07248 0.100706 0.00363443 -0.093515 -0.122862 0.246028 0.012331 -0.114377
69 0.11069 0.0382771 0.246425 -0.243231 0.344768 0.131252 -0.0393869 0.213649 -0.199222 0.00295884 -0.0975761 -0.0394292 0.224213 -0.289356 -0.0146857 -0.0856883 0.188027 -0.248752 0.167504 -0.0776517 0.286526 0.130417 0.141536 0.0622196 0.0405293 0.28384 0.146693 -0.175502 0.100893 -0.0854302 -0.185912 0.256188 0.0534575 -0.24072 0.0802138 -0.255487 0.338095 0.177248 0.062936 0.00338807 0.0553534 0.0154331 -0.134259 0.199266 -0.00341141 0.0532616 -0.242941 -0.0412339 -0.217103 0.212121 0.150266 -0.582654 0.150911 -0.107229 -0.247256 0.0123227 -0.194793 -0.109941 0.205087 -0.15668 -0.160759 -0.214238 -0.0847947 -0.175939 0.0867352 0.00400252 0.19225 0.390862 -0.35352 -0.0382355 -0.307692 0.390473 -0.0783805 -0.143798 0.256166 0.210466 0.181082 -0.111081 -0.0881823 0.0499456 0.385512 0.228532 0.280422 -0.0271911 -0.251802 0.358916 -0.0791634 0.177844 -0.0113572 -0.0105464 0.19727 -0.0292462 0.223881 0.241199 0.222972 0.236048 0.276865 -0.0174846 -0.0841146 -0.239167 0.269703 -0.35322 -0.310423 0.170864 0.0211156 0.284681 0.0411504 -0.154897 -0.212537 -0.0152621 0.00800418 0.0821222 0.329922 0.186765 0.357274 0.0507555 0.30869 0.143177 0.238751 -0.162469 0.118491 -0.0895735 0.306996 -0.128024 -0.111227 0.01594 -0.107558 0.0406153
70 0.138891 0.104507 0.272123 -0.0237038 0.274762 -0.228023 -0.188536 0.301888 -0.101266 0.109657 0.407248 -0.0829028 0.39786 0.0441698 0.179168 -0.22652 0.30965 -0.263317 0.289295 0.308239 0.0250747 0.448884 0.318287 0.181508 0.474099 0.0855008 -0.0738813 -0.103766 -0.125876 -0.00487558 -0.389646 0.112998 -0.332731 -0.44109 0.143211 0.0783667 0.181043 0.21666 0.196692 -0.0287867 -0.0265783 -0.304371 -0.1416 0.0626944 -0.0505542 0.299316 -0.097962 0.0976842 0.188878 0.119204 0.115932 0.0225157 -0.148715 -0.143381 -0.294224 -0.204857 -0.0650966 -0.153432 0.2065 -0.29461 -0.220889 -0.230177 -0.106571 -0.286834 0.101267 0.310232 0.118623 -0.252029 -0.217284 0.142927 -0.283992 0.0328836 -0.229368 -0.163127 0.439647 0.237304 -0.00724968 -0.215466 0.0749612 0.329474 -0.0202342 0.1728 0.152943 -0.344149 -0.412431 0.0434782 0.1784 0.229695 0.249775 -0.31204 0.133143 0.0058699 0.231578 0.101248 0.1971 0.318313 -0.0698016 -0.134533 -0.205165 -0.308295 0.0716865 -0.0169126 -0.0273031 -0.188931 -0.15918 -0.0596639 -0.0313057 -0.0328986 -0.605237 0.423729 -0.15915 -0.133798 -0.153644 0.252326 -0.069715 0.0703218 0.233356 0.450204 -0.168745 -0.109988 0.210817 0.393064 0.0738463 -0.200303 0.118634 0.389988 -0.158038 -0.0236984
71 0.152141 0.000234987 0.415593 -0.0462549 0.241904 -0.194939 -0.325948 0.148558 -0.256514 0.170074 0.336677 -0.156992 0.107759 0.191693 0.446332 0.102815 0.232743 -0.159383 0.278733 0.222592 0.184751 0.477836 0.313134 0.151103 0.391157 -0.133232 -0.0127335 -0.0507628 -0.131011 -0.211341 -0.528793 0.20422 -0.302287 -0.172602 0.0269919 -0.0541083 0.137991 0.243932 0.0594869 -0.205076 0.0385376 -0.247155 -0.0960939 0.35878 -0.335602 0.347477 0.0329356 0.151178 0.191699 0.10391 0.139449 -0.0906732 -0.00390674 -0.123354 -0.221189 -0.222031 0.15608 -0.111357 0.286755 -0.391681 -0.32753 -0.00838182 -0.191411 -0.235702 0.0723355 0.288938 0.084741 -0.507646 -0.0263646 -0.0212795 -0.310816 0.0473632 -0.0533401 -0.208485 0.247326 0.153284 -0.159445 -0.201121 -0.159658 0.325511 -0.128396 0.315847 0.167882 -0.150697 -0.203911 0.201794 0.0251306 0.0964263 0.104217 -0.206211 0.014828 -0.211943 0.245773 -0.108865 0.35407 0.237961 0.0437208 -0.139498 -0.113868 -0.285131 0.162069 0.0815247 -0.117521 -0.0415827 -0.238438 -0.365654 -0.397967 0.215013 -0.422743 0.609923 -0.254404 -0.13395 -0.193353 0.275782 -0.152893 0.091083 0.233523 0.411496 -0.286309 -0.108454 0.39391 0.348276 0.0735849 -0.249998 0.417744 0.323539 -0.222788 0.073928
72 -0.0577102 -0.0859359 0.372563 -0.053741 0.139209 0.25226 -0.134303 -0.144778 -0.2399 0.192117 0.0421335 -0.0722404 0.185897 -0.435873 0.254695 0.326973 0.317716 -0.220021 -0.0114298 0.0721771 0.525835 0.596363 0.136408 -0.416331 -0.148751 0.248895 -0.0972175 -0.243854 -0.233089 0.211324 -0.105098 0.00133729 -0.353082 0.410775 0.0184297 -0.133933 -0.0847531 0.29609 0.59818 -0.178065 0.724321 -0.0695614 -0.0485166 -0.200334 0.460042 -0.143876 -0.607278 0.475769 -0.509645 0.477043 0.187323 0.280231 0.250308 -0.297218 -0.0988076 -0.389134 -0.0511543 0.124181 0.283998 -0.491472 0.0145248 -0.0329206 0.0312117 -0.0532564 -0.23572 -0.0178034 0.17058 0.175207 -0.227382 0.247455 -0.0814712 0.375116 0.114629 -0.0332127 0.558716 0.304932 0.239285 -0.270812 -0.0937238 0.185565 0.271063 0.263782 0.0522164 0.0795875 -0.207378 0.136632 -0.0964583 0.200461 0.0415734 -0.263307 0.175828 0.136158 0.00440411 -0.0700139 0.143042 0.0782587 0.225653 -0.257048 -0.247538 0.0420501 0.237012 -0.114238 -0.37039 0.376801 0.0881013 0.00445786 -0.0597146 0.00146298 -0.240702 0.061168 0.0197462 0.0931595 0.266244 0.596718 -0.104816 -0.212368 0.126078 -0.029491 -0.0879587 -0.233123 0.434782 -0.109834 -0.0850424 -0.166447 0.0845126 -0.0568822 -0.024614 0.11433
73 0.085247 0.0910231 0.239546 -0.0831366 0.158973 0.049099 -0.289807 -0.196461 -0.0744451 0.193966 0.15624 -0.391068 -0.159151 -0.0736601 -0.029054 0.29921 0.189933 -0.00323707 -0.177184 0.225066 0.0845075 0.0178017 0.280084 -0.0158096 0.283047 0.0707213 0.306286 -0.193917 -0.295723 0.344338 -0.0716326 0.053149 0.165534 0.0652402 0.147822 0.0679736 0.0864709 0.205323 0.213486 0.187305 0.316172 -0.198761 -0.104104 0.089326 0.184382 0.156188 -0.297595 -0.0152873 -0.275267 -0.222368 -0.327544 -0.114865 0.343872 -0.138044 -0.213544 -0.1623 -0.135394 0.103386 0.110235 0.136752 -0.0249356 -0.0844149 0.0250688 -0.119756 -0.0624007 0.0646138 0.128933 0.333638 -0.0498695 0.268729 -0.00232896 0.127418 -0.0337081 -0.403728 0.346062 0.087087 0.159181 -0.180878 0.159701 0.172285 0.0754969 0.376672 0.105764 -0.0937438 0.111781 0.328572 -0.323741 -0.0130559 0.161611 -0.232057 0.469296 0.316184 0.0970638 -0.240549 0.246139 0.142207 -0.0840773 -0.00791027 -0.497097 0.0476055 0.210152 -0.0130594 -0.253063 0.176023 -0.111517 0.041782 -0.368058 -0.159727 -0.0143561 0.077801 -0.320778 -0.000253787 -0.0711322 0.172223 0.135203 -0.0776539 0.147983 -0.047919 0.298314 -0.4351 0.163895 0.151342 -0.218269 -0.0689423 0.0660578 0.0790059 0.0555616 -0.085717
74 0.158271 -0.0447576 0.260431 -0.0818719 0.205846 -0.0653039 -0.0630618 -0.0501722 -0.136579 0.00576903 0.00985028 -0.357975 0.0912728 -0.0316028 0.101965 0.22876 0.158909 -0.0401097 0.175462 0.247532 -0.0327816 -0.0097122 0.2211 -0.0366406 0.244869 0.0105043 0.141797 -0.158596 -0.291805 0.21229 -0.0988349 0.198659 0.11984 -0.120099 0.121166 0.00774258 0.187299 0.019856 0.187999 -0.0167415 0.215792 -0.0471945 -0.236866 0.206191 0.121364 0.0395235 -0.472937 0.01167 -0.206604 0.0889346 -0.0839255 0.0194484 0.094095 -0.183772 -0.236337 -0.106769 -0.140899 0.164865 0.181068 0.0463584 -0.0967596 -0.104608 -0.0462135 -0.00800044 -0.253393 -0.0812027 0.185252 0.163202 -0.23227 0.180361 -0.174882 0.0485354 0.00648422 -0.299542 0.20191 0.237408 0.346446 -0.304803 0.100778 0.140308 0.091567 0.353897 0.229141 -0.142093 -0.113001 0.336447 -0.248578 0.191402 0.0652082 -0.128072 0.103257 0.192498 0.1152 -0.0323364 0.192434 0.150408 -0.0745682 -0.0484085 -0.335654 -0.180213 0.21929 -0.178184 -0.166781 0.195769 -0.0967683 0.150049 -0.164854 -0.15401 -0.114231 0.112713 -0.259685 -0.107394 -0.082449 0.116301 0.0389355 -0.0419199 0.208827 -0.0810865 0.291629 -0.180768 0.0895377 0.176897 -0.0701083 -0.120349 -0.0568421 0.0388658 0.210936 0.0659422
75 -0.0310715 0.270243 0.237473 -0.0399755 0.171378 0.0322578 -0.327768 0.166368 -0.175681 0.0520995 0.348924 -0.0987382 0.206088 0.317436 0.0546146 -0.196104 0.0507235 -0.381726 0.170884 0.196676 0.403735 0.280191 0.178469 0.490301 0.194256 0.618345 0.168578 -0.220868 -0.308552 -0.0462775 -0.210364 0.146132 -0.309724 0.316146 0.0277181 -0.0599482 0.341034 0.161268 0.577268 0.118167 0.221945 -0.244157 -0.156233 0.0578812 0.433937 -0.0782446 0.130855 0.217136 -0.0980529 -0.170989 -0.0874211 0.037974 -0.0723884 -0.212954 -0.080998 -0.529633 -0.551941 0.0411201 0.310627 -0.155805 -0.0084101 -0.43137 -0.321869 -0.175547 0.00991498 -0.234658 0.170773 -0.163255 -0.339434 0.160801 -0.246564 0.261365 -0.0362779 -0.009557 0.107522 0.0595592 0.089173 -0.0489815 0.381165 0.123701 0.0191323 0.571331 0.138781 -0.157446 -0.190758 0.189651 -0.106741 0.243956 0.223697 -0.176781 -0.0425491 0.0207873 0.0437751 0.224611 0.337549 0.192522 0.192348 0.105374 0.0101283 0.0296059 0.236006 -0.225932 -0.251112 0.160681 -0.0392804 0.0338524 0.0160626 -0.130267 -0.330571 0.155858 -0.179637 0.192267 0.160844 -0.0536203 0.0791303 0.208815 0.331651 0.391611 -0.135955 -0.161138 0.120966 0.0900598 -0.0428237 -0.154791 0.217306 0.116473 -0.383832 0.0775136
76 0.228498 0.058428 0.0546665 -0.0144637 0.178922 0.0688306 -0.498248 -0.136295 -0.259685 0.0698954 0.363128 -0.187781 0.234072 0.0561301 0.0925113 -0.154614 0.101035 -0.0554932 0.331569 0.240984 0.276159 0.163113 0.150574 0.477613 0.0711833 0.208104 -0.00907692 -0.229531 -0.218174 -0.283358 -0.322161 0.26204 -0.189447 0.427711 0.301027 -0.179778 0.135071 0.248536 0.238535 0.270067 0.248404 0.0249139 -0.214265 0.000632422 0.143979 0.118546 0.383148 0.36827 -0.0742643 -0.138317 -0.224353 0.228516 -0.0215207 -0.130178 -0.103425 -0.25094 -0.247935 0.2424 0.315982 0.0198811 0.0232587 -0.259668 -0.0580849 -0.370587 -0.216065 -0.317669 0.217202 -0.144218 -0.13737 0.237168 -0.197319 0.221557 -0.0368605 0.111723 0.0527444 0.258975 0.175805 -0.0319294 0.538439 0.281119 -0.130588 0.560146 0.119162 -0.20491 -0.100757 0.116861 0.154161 0.374318 0.107178 -0.137949 -0.0144115 -0.0317455 -0.101799 0.242759 0.348917 0.222311 0.0847685 0.0435684 -0.0270798 0.425096 0.0638024 -0.159522 -0.242913 0.0111063 0.237047 -0.111849 -0.201418 0.0464828 -0.150664 0.318738 -0.163525 0.151891 0.166286 -0.122086 -0.392287 -0.0627928 0.171641 0.364141 0.0487401 -0.1788 -0.157667 -0.00886527 -0.138311 -0.273718 0.270698 -0.0146028 0.0665151 0.200365
77 0.309165 0.0752356 0.132906 -0.0547871 0.258723 -0.192797 -0.109184 0.0339505 0.0444281 0.31149 0.340866 -0.0422908 0.251901 -0.378768 0.20553 -0.179429 0.137621 -0.252258 0.023289 0.115777 0.061292 0.202838 0.140893 0.0912841 0.573116 -0.109055 0.00661661 -0.147405 -0.351404 0.0576305 -0.0973449 0.250581 -0.108553 -0.245632 0.163109 -0.280452 0.243141 0.330826 -0.0269453 -0.0692551 0.124637 -0.202038 -0.192096 -0.0411049 0.0306829 0.164209 0.000202311 -0.146834 0.126365 -0.0545129 -0.220917 0.420267 -0.0365445 -0.220131 -0.00208985 0.0202341 -0.0209029 0.0101928 0.213647 -0.108183 -0.173265 -0.178709 -0.121778 -0.260383 0.163925 -0.26169 -0.0454184 -0.0312607 -0.0759292 0.327509 -0.242252 0.0360382 -0.201611 -0.0995032 0.062518 0.37372 0.142571 0.0484231 0.0647081 0.263767 -0.0316913 0.0825951 0.160412 -0.360528 -0.0933536 0.113406 0.265155 0.378243 0.344361 -0.294018 -0.155472 -0.0280148 0.0543637 -0.197654 0.0255449 0.132744 0.121024 -0.300027 -0.507232 0.0205119 0.277504 -0.413381 -0.0568821 0.0625785 0.06267 0.0571925 0.109557 -0.186925 -0.400831 0.197701 -0.384053 -0.257054 -0.0979118 0.476396 -0.0709137 0.317271 0.239535 0.112707 0.14855 0.148694 0.185924 0.0771913 0.101901 -0.287947 -0.139823 0.065089 0.132304 0.0153479
78 0.101494 -0.0582847 0.0846594 -0.106655 0.300212 -0.028794 -0.254403 -0.0563019 -0.0674355 0.336989 0.202364 -0.0275864 0.225556 -0.320257 0.14497 0.0743712 -0.0609218 -0.214224 -0.0820545 0.120707 0.0538163 -0.167864 0.174083 -0.0794085 0.134032 -0.0550242 0.22023 -0.051963 -0.341405 -0.141691 -0.238158 0.100698 -0.120286 -0.00302666 0.336525 -0.353735 0.351049 0.322529 0.0856059 -0.0242426 -0.0881441 -0.0482449 -0.26839 0.0926464 0.353261 0.335079 -0.121653 -0.237939 -0.00821752 0.336236 -0.409511 0.241489 -0.0671929 -0.140911 0.0389998 0.336763 0.133204 0.236186 0.0913007 -0.168878 -0.146296 -0.161584 -0.222612 -0.419199 -0.0161918 -0.055643 0.18653 0.111308 -0.181104 0.197715 -0.140903 -0.0322058 -0.144201 -0.070686 0.00789714 0.447473 0.463905 -0.0574349 -0.216093 0.169255 -0.0694341 0.526578 0.20525 -0.125698 -0.121715 0.172262 0.0739098 0.20793 0.242647 -0.125725 -0.273905 0.111082 0.0938428 -0.124217 -0.0353082 -0.0426073 0.363445 -0.345172 -0.124519 0.0155066 0.274198 -0.439942 -0.166785 -0.0801631 0.0982834 0.263439 -0.0109821 -0.160117 -0.19365 0.221615 -0.253746 -0.188916 0.116821 0.0356073 -0.0927304 0.515924 0.261151 0.0822121 0.211876 0.193262 -0.0191145 0.108653 0.0102382 -0.324811 -0.350581 -0.00599191 0.035801 0.135239
79 0.0946987 0.108643 0.210576 -0.137693 0.29736 0.0435173 -0.193834 -0.0403144 -0.0784936 0.221095 0.236676 -0.174371 0.319482 -0.224682 0.379248 -0.120523 0.0682074 -0.0510444 0.0621057 0.324488 -0.0735485 -0.0993014 0.115345 0.11508 0.162221 -0.206134 0.117924 -0.0578087 -0.245084 -0.184911 -0.142736 0.169323 -0.0758984 -0.0456983 0.235331 -0.119089 0.246894 0.437133 -0.125792 -0.000369736 0.0906777 -0.0983274 -0.167347 0.0579236 0.166258 0.3188 0.087516 -0.0444993 0.0559801 -0.077216 -0.333341 0.302655 0.0247609 -0.267137 -0.213348 0.00746869 -0.0172878 0.0545887 0.273425 -0.0738836 -0.0760411 -0.0361663 -0.287336 -0.0230958 0.104842 -0.343965 0.119933 0.0471295 -0.0846346 0.240287 -0.0674608 -0.131674 -0.211201 0.0601253 0.228892 0.330251 0.298167 -0.0345876 -0.018125 0.30697 0.0519658 0.281341 0.147042 -0.148181 -0.0658242 0.244467 0.212335 0.367764 0.271751 -0.0507936 -0.0938234 4.96914e-05 0.0958987 -0.15598 -0.103813 0.125422 0.203428 -0.0833692 -0.211607 0.0852722 0.341335 -0.313746 -0.240483 -0.00952188 -0.148951 0.0558314 0.0881772 -0.145368 -0.290723 0.056367 -0.308932 -0.264561 -0.0597276 0.262626 -0.118689 0.218776 0.229387 0.276455 0.00934502 0.062414 0.211215 0.0106038 0.367019 -0.351945 -0.281693 0.17912 0.253553 -0.060734
