986 128
0 0.0538069 -0.0418832 -0.134589 0.328809 0.158179 -0.0692908 -0.130662 0.12124 -0.27744 0.127143 -0.279396 0.188145 -0.144956 -0.0879795 0.0727005 -0.119028 0.116124 0.413262 -0.267395 -0.0175507 0.249023 0.388035 0.0917376 -0.0500586 -0.27223 0.0337417 0.0212166 0.0235574 0.218871 -0.0367874 -0.238215 0.10286 -0.205961 0.115852 -0.157605 0.156873 0.19849 -0.209347 -0.0622421 0.567086 -0.144692 -0.347662 -0.290131 0.193703 -0.158239 -0.220579 -0.141346 0.246133 0.216997 0.0448573 0.466426 0.36762 0.0792723 0.119222 0.219141 0.175855 0.0224594 -0.0239749 -0.240435 -0.0724948 -0.0930083 -0.198817 0.15924 0.133213 -0.294345 -0.00673342 -0.333372 -0.171299 0.0495413 0.0293774 -0.262399 0.0109568 0.0518128 -0.0194403 0.100708 0.212909 -0.475155 -0.257926 -0.41232 -0.0790184 0.344703 -0.0646418 -0.175119 0.0989423 -0.0408195 0.0940204 -0.227349 0.0487279 0.25774 -0.160191 -0.236411 -0.0200402 -0.116702 0.160414 0.171071 0.152625 -0.301257 0.365958 -0.208524 0.0687101 -0.0633265 -0.101576 0.0736165 0.289733 -0.245684 0.22762 -0.221584 0.0326763 0.129622 -0.128352 -0.377635 -0.363164 -0.28716 -0.27075 -0.200133 -0.158224 -0.0606548 -0.181169 -0.118443 -0.0660831 -0.0485371 0.212917 -0.0585779 -0.0788991 -0.11081 -0.194287 0.269031 0.198587
1 0.236888 -0.311958 -0.212513 0.147524 -0.0690733 -0.218139 -0.311935 0.0617284 -0.300434 -0.154201 -0.181919 0.30454 -0.483644 0.082819 0.115791 -0.00718582 -0.0885155 -0.0360369 -0.206025 -0.0820627 0.270509 0.404948 0.0621842 -0.0633579 -0.365117 0.0444833 0.175 0.0317268 0.240926 0.0881976 -0.103408 0.27662 -0.111922 0.333183 -0.113563 0.0158695 0.151393 -0.0848137 -0.13221 0.310833 0.0230162 -0.137668 -0.230276 -0.164715 -0.154318 -0.110109 -0.0708748 -0.00397207 0.203826 0.00319832 0.0590089 0.166678 0.0848854 -0.180735 0.10086 0.0385848 0.146269 -0.150901 -0.287028 -0.0961162 0.034066 -0.037398 -0.0228695 0.123656 -0.0600152 0.0743654 -0.357669 0.144522 0.243253 -0.128357 0.129514 0.177405 -0.228167 -0.0387149 0.370116 0.141975 -0.343867 -0.201891 -0.296653 -0.26998 0.194777 0.0828356 -0.0740448 0.0898183 0.0403341 0.0650898 0.101138 0.247491 0.196937 0.0118749 -0.0978577 -0.0182294 -0.0344648 0.224019 0.153905 0.276215 -0.053237 0.214057 -0.344255 0.184861 -0.153767 -0.00647163 0.098593 0.148562 -0.184279 0.17973 -0.145716 -0.114742 0.205651 -0.23455 -0.298727 -0.239537 -0.258206 -0.465692 -0.162374 -0.230647 -0.371402 -0.0977232 -0.32904 0.00247171 -0.109106 0.170713 -0.101567 -0.0842899 -0.16415 -0.129241 0.177939 0.172201
2 -0.133221 0.0241071 -0.0542771 0.203113 0.219551 -0.180495 -0.146148 -0.110407 -0.103668 -0.230418 -0.0526554 0.188561 0.507671 -0.205238 0.0359515 -0.279936 -0.233679 0.0666486 0.0131855 -0.0457796 -0.19476 -0.0401792 0.273979 -0.431738 0.299166 -0.0071826 0.121241 0.271617 0.150665 0.402674 0.150829 0.0193829 -0.138523 -0.0127704 -0.231337 0.225404 0.0984543 0.342957 -0.13874 -0.0971802 0.100064 -0.0983683 -0.26772 0.18037 -0.240912 -0.127687 -0.323983 0.277072 0.0351139 0.163899 0.269907 0.203471 0.369288 -0.25062 0.0768557 0.0894258 0.159314 -0.0972811 -0.111983 -0.187158 0.10164 -0.157787 -0.143453 0.159586 -0.177016 0.0672827 0.0501942 -0.199479 0.13335 0.19281 0.125606 -0.24777 -0.220322 -0.0672114 0.118064 0.0246355 -0.0395928 -0.376718 0.0539205 -0.360933 0.100946 -0.124832 -0.310799 0.142185 -0.2162 -0.388524 -0.303066 -0.042038 -0.198073 0.428694 -0.221478 -0.151185 -0.218121 0.0835256 0.254834 0.283173 0.215691 0.142805 -0.0943312 0.130359 -0.0446012 -0.0297142 -0.0896671 0.109818 -0.159735 -0.125735 -0.161733 -0.203863 -0.468986 -0.232186 -0.225111 -0.0624928 0.174331 0.168867 -0.131444 0.214768 -0.0774254 -0.102802 -0.240476 -0.261904 -0.469141 -0.21148 0.0384873 -0.220232 -0.110668 -0.227533 0.19799 0.128328
3 -0.118251 -0.069744 -0.124217 0.152948 0.345801 -0.218294 -0.0331697 -0.0668992 0.165974 -0.30525 -0.0817716 0.300396 0.425698 -0.1247 0.140521 -0.211173 -0.025979 0.13604 -0.00284691 0.0997286 -0.0567611 0.152898 0.143264 -0.366878 0.278851 0.0345062 0.210684 0.231413 0.116188 0.321749 0.0804282 0.141331 -0.0021336 0.000509308 -0.0641018 0.201538 -0.0750613 0.452846 -0.25753 -0.0872352 0.115384 -0.0386894 -0.0174353 0.141564 -0.237886 -0.161439 -0.159787 0.20807 0.164257 0.0979422 0.223985 0.324893 0.323634 -0.223413 -0.0161844 -0.0736505 0.127824 0.00395803 -0.0814923 -0.101789 0.0872212 -0.151188 -0.181654 0.233637 -0.174829 0.172468 0.0996593 0.0116066 0.215369 0.0994443 0.0188967 0.0996838 -0.288168 -0.109499 0.155783 0.0607038 0.0227985 -0.286664 -0.145498 -0.128521 0.241368 -0.212675 -0.0354355 0.0639174 -0.246879 -0.339151 -0.314274 0.0487042 -0.0910871 0.437368 -0.235302 -0.0672689 -0.277402 -0.0587534 0.112943 0.132648 0.128914 0.215689 -0.149855 0.0811188 -0.13757 0.0447644 0.163097 0.0912405 -0.108129 -0.227678 -0.181479 -0.149796 -0.353177 -0.0892101 -0.100456 -0.0345372 0.163159 0.0957913 -0.135536 0.268317 -0.158351 -0.231681 -0.24471 -0.0778172 -0.405851 -0.117289 0.0636558 -0.169323 -0.0563402 -0.141994 0.145662 0.324253
4 -0.087485 -0.0877186 -0.0721749 0.194124 0.217069 -0.360803 -0.206464 -0.102016 0.0518794 -0.249541 -0.0441538 0.160077 0.44084 -0.191093 0.0146126 -0.22728 -0.217444 0.145787 -0.0737367 -0.0196188 -0.0763385 -0.0464088 0.174881 -0.275043 0.266967 -0.0025731 0.194728 0.205116 0.127385 0.188921 0.106518 0.143877 -0.26797 0.0148377 -0.0219453 0.130346 0.129132 0.336784 -0.195642 0.0240594 0.00210515 0.0238434 -0.208943 -0.120526 -0.313372 -0.102163 -0.226764 0.0689556 0.0745188 0.127262 0.174002 0.110706 0.149131 -0.215284 -0.0266311 0.0104796 0.181206 -0.0214643 -0.144627 -0.0620581 0.094822 -0.204504 -0.159133 0.160924 -0.123697 0.140794 -0.0117812 -0.0764169 0.145334 0.028384 0.199844 -0.205283 -0.317884 -0.151546 0.0408493 -0.0434589 0.0278232 -0.347528 -0.0579414 -0.276288 0.185719 -0.268606 -0.113199 0.305198 -0.318189 -0.405624 -0.0983704 0.0664266 0.108695 0.398781 -0.258604 -0.224862 -0.207968 0.103256 0.124704 0.0658709 -0.0803812 0.0738265 -0.130132 0.0857852 -0.187354 -0.00415458 0.114739 0.17782 -0.141533 -0.208403 -0.264161 -0.237272 -0.470105 -0.210004 -0.107786 0.119764 0.421195 0.143011 -0.0102739 0.197143 -0.0749287 -0.0252692 -0.123403 -0.0975827 -0.300086 -0.213451 0.0217283 -0.127576 -0.0808062 -0.28724 0.21408 0.203115
5 -0.261441 -0.161932 -0.160546 0.236235 0.0928281 -0.235887 -0.13764 -0.010448 0.0343415 -0.162085 0.00754728 0.068858 0.0685861 -0.152996 0.250692 -0.226235 -0.0601434 -0.0469622 -0.190591 -0.092197 -0.124625 0.278657 0.191852 -0.0233198 0.29528 -0.0734785 0.0407447 0.189342 0.288316 0.185546 0.0838129 0.132239 -0.0208591 0.200803 -0.33418 0.264667 0.152149 0.174083 -0.16901 -0.0652604 0.167447 -0.228872 -0.155562 0.153763 -0.124412 -0.0569211 -0.16734 0.113325 0.239229 0.0682449 0.171567 0.163684 0.243433 -0.267547 0.00600461 0.0982211 0.183342 -0.0814686 -0.180197 -0.0354048 -0.0189544 -0.299653 0.105853 0.146913 -0.107319 0.00761739 -0.179093 -0.054306 0.0468713 0.209525 0.140893 -0.285673 -0.0293682 0.0695878 0.0360355 0.0441233 -0.0418538 -0.183198 0.0292462 -0.153451 0.201511 -0.0832589 -0.344515 0.0290118 -0.181761 0.0214917 -0.248331 0.028747 0.0976601 0.135644 -0.0616591 -0.119562 -0.145172 0.221278 0.148705 0.0565025 -0.0274037 0.134865 -0.0245154 -0.0102651 -0.151036 0.0985056 0.00166596 0.113481 -0.0263764 -0.0763348 -0.258008 -0.126921 -0.133647 -0.0845741 -0.209762 -0.110208 -0.199604 -0.0154877 -0.139372 0.134272 -0.277571 -0.145257 -0.236365 -0.171847 -0.38623 -0.0415981 -0.0778983 -0.147567 -0.070588 -0.31524 0.181292 0.111392
6 -0.0810102 -0.0211995 -0.0255097 0.14068 0.00750901 -0.270913 -0.185449 -0.0119879 -0.0759338 -0.356024 -0.00776657 0.121312 0.356152 0.0310885 0.121195 -0.138579 -0.0634472 0.00312526 -0.0912275 -0.114973 -0.156814 0.202087 0.234552 -0.293824 0.0356069 -0.156511 0.327774 0.117922 0.143609 0.43686 0.189684 -0.0712012 -0.106481 0.0104902 -0.0739923 0.222396 0.070114 0.0862815 -0.209665 -0.10804 0.189414 -0.144408 -0.0942682 -0.0339735 -0.0939628 0.0339556 -0.300769 0.0541563 0.0901808 0.162447 0.316428 0.159331 0.291179 -0.175399 0.130591 0.0170987 0.0910865 -0.167512 -0.134209 -0.190274 -0.0459942 -0.164898 -0.116882 0.189986 -0.144272 0.121307 0.0277327 0.123186 0.24784 0.137814 -0.00459627 -0.104078 -0.0188417 -0.0485336 -0.0554926 0.147593 -0.0652661 -0.110696 -0.111174 -0.223779 0.288459 -0.21945 -0.208253 0.243145 -0.121282 -0.0780037 -0.073407 0.2423 -0.0734739 0.333844 -0.163164 -0.0893423 -0.183845 -0.0842584 0.178235 0.141015 0.0654896 0.17257 -0.00673025 0.201945 -0.0389151 -0.0974236 0.247984 -0.00650919 -0.0539379 -0.249143 -0.246733 -0.181423 -0.0909027 -0.256123 -0.0718819 0.087258 0.0526572 -0.048 -0.251355 0.0443351 -0.264491 -0.237243 -0.150591 -0.0850745 -0.191419 -0.0700315 -0.0163064 -0.131433 -0.354969 -0.0987323 0.158717 0.171531
7 -0.435264 0.0311311 -0.130067 0.329099 -0.124887 -0.278799 -0.325658 0.474843 0.0700966 -0.0473678 -0.0634262 -0.124851 0.104203 -0.224697 0.105243 -0.140229 0.0273404 0.429388 -0.242995 -0.373201 0.235673 0.0928385 0.130707 -0.0956011 -0.0505158 0.0437145 0.114896 0.145188 0.0896561 0.0183409 0.278007 0.286564 -0.339662 -0.0519793 -0.219058 0.268354 0.174542 -0.243018 -0.100661 0.10898 0.127656 -0.105553 -0.469684 0.152914 -0.133901 -0.199455 0.345934 0.190863 0.214914 -0.0518289 -0.157356 0.160427 0.0789236 -0.182104 -0.0789808 -0.12864 0.193085 0.000999648 -0.181611 -0.30571 -0.511001 -0.121704 0.000671095 0.157659 -0.250477 -0.09897 -0.0930826 -0.3181 0.071584 -0.330695 0.282049 -0.480701 -0.216281 0.0324444 0.0611527 -0.0816991 -0.117113 -0.176983 -0.0975124 -0.143038 0.207026 0.233986 -0.051915 0.145777 -0.20632 -0.199486 0.323983 -0.224217 0.132881 0.245127 -0.209484 -0.204168 -0.167744 0.121224 0.134819 0.186671 -0.116262 0.0617463 -0.0428336 0.108626 -0.3596 -0.215326 0.087212 0.198789 -0.317361 0.373138 -0.223455 -0.314762 0.232335 -0.303949 -0.12393 -0.048757 0.334944 0.278329 -0.229523 -0.157348 -0.172668 -0.18989 -0.124 -0.0333929 0.166071 0.318417 0.0620023 -0.142485 0.00892989 -0.308248 0.176488 0.0921308
8 -0.333529 -0.0874583 -0.150211 0.329612 -0.254872 -0.314155 -0.260317 0.575827 0.25481 0.0002626 -0.208862 -0.146087 0.150672 -0.200238 0.0654492 -0.248737 0.0309066 0.27057 -0.371203 -0.456854 0.337914 -0.0196309 0.0390325 -0.131527 0.00709149 -0.00597354 0.188333 0.100998 0.0950594 0.0984288 0.204318 0.235069 -0.279283 -0.0397295 -0.103827 0.18193 0.154061 -0.300073 -0.100004 0.265612 0.105108 -0.0495578 -0.429653 0.0226304 -0.124783 -0.266924 0.503021 0.227392 0.160729 -0.000404718 -0.192967 0.104082 -0.0562053 -0.353778 0.134195 0.0343959 0.194666 -0.00973547 0.0329071 -0.126289 -0.367208 -0.160221 -0.355758 0.338526 -0.00820157 0.163563 0.0558759 -0.36914 0.0564243 -0.232844 0.4296 -0.4157 -0.188873 -0.199931 0.210225 -0.0688251 -0.125814 -0.259533 -0.0460595 -0.300224 0.109227 0.155992 -0.0614976 0.181328 -0.134722 -0.214305 0.357301 -0.280218 0.128011 0.190975 -0.199459 -0.230438 -0.271764 -0.0228447 -0.0121463 0.159145 -0.264537 0.141884 -0.0614777 0.0647453 -0.411162 -0.138105 0.1102 0.313066 -0.0178903 0.419445 -0.228857 -0.3196 0.25794 -0.250692 -0.160105 0.00792829 0.274897 0.153983 -0.146723 -0.217502 -0.201876 -0.0590738 -0.221372 0.108076 0.146409 0.523523 0.114535 -0.0670174 -0.0287908 -0.284358 0.316353 0.17222
9 -0.489482 -0.0708965 -0.206443 0.289733 -0.132336 -0.180891 -0.217058 0.621594 0.319121 -0.0925942 -0.10261 -0.0113376 0.249262 -0.210518 0.160139 -0.20841 -0.116858 0.295035 -0.00255329 -0.28833 0.32804 -0.0279898 0.103383 -0.120635 0.0275419 -0.210596 0.0492869 0.0542848 0.1779 -0.0389136 0.248567 0.222745 -0.199885 -0.0334396 -0.215474 0.210092 0.0707603 -0.348649 -0.178301 0.144224 0.0196503 -0.229783 -0.677733 0.0789221 -0.0911792 -0.447628 0.519335 0.305301 0.0542818 -0.0388268 -0.161733 0.164122 -0.174742 -0.121696 -0.0157023 0.0135679 0.103319 -0.0626714 -0.00565934 -0.165726 -0.522577 -0.116763 -0.147036 0.328949 -0.195155 0.134465 -0.130498 -0.417862 -0.00546279 -0.42307 0.241152 -0.332791 -0.303454 -0.226256 0.207256 0.0406546 -0.147494 -0.164446 -0.0697758 -0.334603 0.258036 0.163091 0.00528761 0.143421 -0.102612 -0.225913 0.299062 -0.303603 0.216266 0.500979 -0.236789 -0.351763 -0.260599 -0.0620287 0.0739125 0.140713 -0.257498 0.157662 0.00606568 0.0180526 -0.349617 -0.160302 0.0269976 0.205524 -0.28213 0.512657 -0.191184 -0.446077 0.333704 -0.269691 -0.194671 0.100031 0.266196 0.255572 -0.264163 -0.216897 -0.265295 -0.280107 -0.196992 0.0399384 0.148685 0.506327 0.196513 -0.103075 -0.0653771 -0.273382 0.102792 0.171573
10 -0.0285592 -0.151991 -0.17929 0.264207 0.0369869 -0.235996 -0.11027 -0.0570974 -0.074983 -0.0444944 -0.163032 0.103723 -0.0333988 -0.171736 0.176099 -0.371904 0.232182 0.0265859 -0.0647967 -0.252681 0.344134 0.0553657 0.206458 -0.0344295 0.102284 -0.093404 0.132118 0.088497 0.296809 -0.0576752 0.428553 -0.0612801 -0.0420058 0.134073 0.223054 0.048804 0.105079 0.103777 -0.303166 -0.0200564 0.183336 -0.197556 0.205088 0.218157 -0.150844 -0.00203783 -0.337513 0.065666 0.129134 0.117729 0.306488 0.00593728 0.160543 -0.0165555 0.323698 0.056952 0.130941 -0.153488 -0.0595572 -0.0830296 0.036459 -0.170228 -0.457632 0.184297 -0.155281 0.16204 -0.0394075 0.0630217 0.105589 -0.0641616 0.4598 -0.161399 0.0538731 -0.150268 0.112229 0.284754 -0.256302 -0.325635 0.0435538 -0.184931 0.237264 -0.175936 -0.10705 0.297802 -0.193315 -0.0765869 0.278714 -0.023122 0.0495176 -0.0422784 -0.140123 -0.130829 -0.0663525 0.0991852 0.268942 0.149904 -0.0994868 0.0251285 -0.193431 0.291991 -0.204534 -0.0267935 0.215504 0.0343974 0.0049781 0.104418 -0.267362 -0.0444673 -0.116931 -0.110615 0.116195 0.177593 0.116256 0.0170504 -0.109944 -0.075235 -0.169381 -0.197191 0.0642613 -0.225662 -0.0695841 0.358223 0.130826 -0.181937 0.0379906 -0.122254 0.260292 0.078891
11 -0.338401 -0.12222 -0.0321374 0.279361 -0.139481 -0.173752 -0.327359 0.344771 0.0471717 0.0563802 -0.105512 -0.0501181 0.157266 -0.212604 0.0610789 -0.199463 -0.0958757 0.255385 -0.202739 -0.255321 0.368578 0.139537 0.214758 -0.0549933 -0.0330145 0.00588392 0.123387 0.185919 0.27722 0.192178 0.0338807 0.213384 -0.222145 0.0315515 -0.182615 0.110393 0.0474408 -0.102982 -0.0841682 0.0723844 0.141673 -0.0870742 -0.440275 0.159393 -0.205449 0.0640855 0.27111 0.149951 0.0464429 0.0373088 -0.0919141 0.0117409 0.0406163 -0.0765398 0.142809 0.0138816 0.330736 0.109716 -0.0609856 -0.126261 -0.385707 -0.0970807 -0.120398 0.283998 -0.13487 0.031907 0.0579999 -0.359283 -0.0529874 -0.424504 0.42597 -0.391596 -0.151875 0.141985 0.170598 0.0126593 -0.1912 -0.226937 0.0695936 -0.189409 0.0807817 0.0192837 -0.148583 0.103155 0.0271116 -0.163428 0.207175 -0.199372 0.444731 0.099836 -0.285565 -0.465051 -0.0853372 0.0502794 0.0543981 0.147579 -0.336625 0.149128 -0.0519443 0.0598756 -0.215281 -0.0698568 -0.0610711 0.174465 -0.243958 0.437501 -0.132782 -0.312811 0.0395745 -0.111469 -0.190521 0.148611 0.259748 0.216182 -0.160599 -0.0725385 -0.119754 -0.145635 -0.205033 0.030081 0.0379783 0.223483 -0.0902233 -0.170483 -0.032405 -0.261052 0.206463 0.123805
12 -0.456209 -0.0366399 -0.0521769 0.197341 -0.0948597 -0.16729 -0.20236 0.327721 0.146046 -0.0333735 -0.109858 -0.123791 0.0819765 -0.227321 0.225573 -0.149393 0.041879 0.293865 -0.310883 -0.198554 0.238073 0.24437 0.17536 -0.149213 -0.203938 -0.326658 0.150293 -0.00640765 0.0912104 0.253034 0.32886 0.0693421 -0.223829 -0.0189943 -0.0301116 0.247368 -0.0721888 -0.139544 -0.0735631 0.186103 0.118038 -0.0649603 -0.34161 0.0842357 -0.173747 -0.176498 0.387664 0.0538892 0.183214 0.0840849 -0.167268 0.185173 -0.159078 -0.300388 0.111768 -0.0920113 0.208806 -0.0390714 -0.048383 -0.240102 -0.318324 -0.266656 -0.478879 0.198118 -0.195029 0.037242 -0.12131 -0.294702 0.03389 -0.29916 0.134188 -0.0818825 -0.157204 0.0886416 0.220304 0.180845 -0.233967 -0.169904 -0.0909324 -0.228908 0.282532 0.0967387 0.0199869 0.302009 -0.110438 -0.22605 0.117184 -0.261843 0.290883 0.238158 -0.198808 -0.381662 -0.17567 0.110671 0.147149 0.0906987 -0.288488 0.224076 -0.0317236 0.0433206 -0.201643 -0.119631 0.0630714 0.323909 -0.0104172 0.461066 -0.129041 -0.265634 0.164967 -0.0972647 -0.220033 0.0635136 0.288884 0.122829 -0.0973466 -0.0699807 -0.0887567 -0.11668 -0.261532 0.114298 0.0858693 0.270015 0.162686 -0.185382 0.140023 -0.24832 0.183452 0.087013
13 0.100237 -0.243859 -0.157423 0.0869636 0.00475566 -0.218257 -0.230469 -0.13215 0.0476674 -0.116795 -0.100948 0.055972 0.0552532 -0.0722382 0.190887 -0.0942702 -0.00191902 -0.0326011 -0.173941 -0.209474 -0.00625743 0.105755 0.146264 -0.0479695 0.164226 -0.179472 0.162145 0.225949 0.200219 0.18739 -0.00639598 0.0789966 -0.13607 0.00620345 -0.104926 0.0765553 0.261559 0.0492699 -0.171324 0.0693661 0.186685 -0.143214 -0.118437 0.104734 -0.159757 -0.0894628 -0.14539 0.0449355 0.0470071 0.195447 -0.0168718 0.111846 0.146689 -0.066622 0.25887 0.199811 0.178996 0.00546005 -0.0860936 -0.0540815 0.0824703 -0.216426 -0.237521 0.0436843 -0.19233 0.0494475 -0.186816 0.116332 0.126238 -0.132693 0.200441 -0.150446 0.2095 -0.120207 0.234285 0.0207136 -0.0787984 -0.198113 -0.0361939 -0.209506 0.133178 -0.12538 -0.135299 0.152799 -0.276281 -0.120541 -0.102884 0.0268343 0.0631864 0.211186 -0.180404 -0.160858 -0.0766414 -0.0513322 0.13288 0.0664411 -0.0109511 0.0986293 -0.0817474 0.177411 -0.0846347 -0.168437 0.21287 0.218267 -0.0596631 0.00252316 -0.0815247 -0.165708 -0.0502361 -0.168022 0.0310205 -0.0406715 0.219023 0.0710908 -0.0374825 -0.16898 -0.0710357 0.0187211 -0.15536 -0.277787 -0.209827 0.256448 -0.232648 -0.1589 -0.0816265 -0.137124 0.215716 0.265422
14 0.169074 -0.0161943 -0.257499 -0.0461307 -0.289841 -0.25441 -0.149991 -0.146995 -0.245384 -0.240082 -0.175707 0.217049 -0.0252644 -0.194556 -0.00164734 -0.383255 0.141611 0.0625713 -0.138966 -0.23204 0.0193024 0.153465 0.170358 0.00720283 -0.109077 -0.122118 0.179072 0.191468 0.300515 0.0997093 0.0277852 0.0710946 -0.118665 0.187271 0.0316568 0.300936 0.131482 -0.157919 -0.268387 -0.0637309 0.313012 -0.0112854 -0.194451 0.0178228 -0.120047 -0.324151 0.0881688 0.10499 0.269213 0.0551885 0.0810006 0.15864 0.174761 -0.204685 -0.0293967 0.0593693 0.134797 -0.138253 -0.240303 -0.12864 -0.249374 -0.144335 0.011384 0.267854 -0.235831 0.0682192 -0.374917 0.118977 0.188418 -0.387605 0.161192 0.0443925 -0.0946035 -0.146819 0.202058 0.281899 -0.130075 -0.0768078 -0.372121 -0.0753482 0.059618 -0.229534 -0.147657 0.203798 -0.0301656 0.172482 0.0953398 0.154194 -0.0573667 -0.0170727 -0.0421336 -0.204084 -0.168527 0.033614 0.192643 0.189471 -0.206987 0.0200846 -0.126391 0.251211 -0.077754 -0.0654497 -0.109934 0.0196712 -0.109821 0.307399 -0.172937 0.00611196 0.307611 -0.0141108 0.018534 -0.0928384 -0.166396 -0.197845 -0.298864 0.0915812 -0.029713 -0.202081 -0.212102 -0.20447 -0.0202461 0.100116 0.071904 -0.163798 -0.0424942 -0.290247 0.225128 -0.0229147
15 -0.255586 0.105848 -0.371764 0.145887 0.073205 -0.145348 -0.100178 0.501834 -0.106587 -0.0264109 -0.117185 0.202315 0.189994 -0.124333 0.162747 -0.190542 -0.341527 0.357458 0.0711872 0.151533 0.205404 0.0138145 0.230212 -0.133676 0.186282 -0.0424547 0.120921 0.175614 0.0802419 -0.00579333 -0.122383 0.0277036 -0.203858 -0.108122 0.0669989 0.201523 0.233211 0.33123 -0.115924 0.252847 0.114057 -0.39261 -0.0398205 0.0638895 -0.330582 -0.302921 -0.0856872 0.0636948 0.309865 0.222133 0.433266 0.101023 -0.189104 -0.161331 -0.0232764 0.20766 0.24138 -0.279711 -0.160045 -0.0971847 0.30286 -0.220707 -0.0514316 0.127848 -0.165384 0.227812 0.0613171 0.263519 0.326177 -0.147138 0.142952 -0.131386 0.0904721 -0.119958 0.224539 -0.284694 -0.296327 -0.221527 -0.368574 -0.0262096 0.280084 -0.454927 -0.0181741 0.16831 -0.24335 -0.253597 0.149603 -0.139921 -0.251849 0.385811 -0.355112 -0.110389 0.171137 -0.0676263 0.180486 0.164012 -0.0807699 -0.0653512 -0.051365 -0.0516855 -0.0850295 0.0747701 -0.103787 0.172033 0.00365013 -0.178852 -0.152407 0.0105816 -0.437338 -0.236987 -0.445817 -0.0397196 0.346665 0.381545 -0.186052 0.274323 -0.253288 0.0108017 -0.0917821 -0.122896 -0.0772696 0.359115 -0.132614 -0.109579 -0.134693 -0.162044 0.0924885 0.195327
16 0.0260232 0.00225903 -0.2582 0.274613 0.0985105 -0.269628 -0.195584 -0.0418067 0.0486785 -0.0735834 -0.181376 -0.139489 -0.0666494 -0.143251 0.217951 -0.0831394 0.00327609 0.438958 -0.0692034 0.0364064 -0.106835 -0.129977 0.128074 -0.143394 0.00628991 -0.18181 0.225336 0.0958962 -0.0531473 -0.037786 -0.0198673 0.190943 -0.0642063 0.117328 -0.25409 0.0606168 -0.117608 0.0469833 -0.167089 0.201453 0.211007 -0.112038 0.126825 -0.199764 -0.202481 0.241943 -0.120611 -0.00107961 0.139614 0.0875065 0.235011 0.274314 0.0662135 -0.210981 0.104085 0.132092 0.198953 -0.185036 -0.166462 -0.0957259 0.0477963 -0.228882 -0.147513 0.163868 -0.180915 0.278638 0.222543 0.275628 0.0956042 -0.0118685 0.205465 -0.0355513 -0.173569 -0.0516946 0.170247 -0.0778855 -0.253305 -0.169041 -0.153503 -0.129736 -0.00504358 -0.147322 0.0336393 0.157345 -0.344772 0.0208395 0.106096 -0.0957445 0.207111 0.102245 -0.222929 -0.114334 -0.200848 0.175913 0.19748 0.18414 -0.00454565 0.0996827 -0.183445 0.0667952 -0.212034 0.046747 0.281764 0.248196 0.0822052 0.111897 -0.0846406 -0.101569 0.0310168 -0.138999 -0.153963 0.19794 0.0386419 0.0670873 -0.0553832 0.376313 -0.0795662 -0.164624 -0.0681584 -0.332869 -0.298708 -0.206046 -0.216384 -0.282237 -0.102545 -0.192481 0.335586 0.144224
17 0.0975606 -0.0947414 -0.316671 0.144093 0.237298 -0.234273 -0.134485 -0.04913 -0.093264 -0.0980551 -0.232106 0.0810675 -0.276701 -0.248156 0.151854 -0.192359 -0.104036 0.220584 -0.166905 0.22527 0.20156 0.0569301 0.309424 -0.0283886 0.057877 -0.000830746 0.179107 0.0364609 0.180534 0.0526582 0.0791833 0.264357 -0.0630399 0.2699 -0.111447 0.186551 0.19839 -0.0055079 -0.176754 0.164816 0.0242035 -0.0756985 0.151883 0.035009 -0.133788 0.00807513 -0.282343 0.149517 0.00206918 -0.00898057 0.150146 0.130663 0.0773873 -0.256172 0.0158077 0.0292295 0.142263 -0.12168 -0.18093 -0.154092 0.290236 -0.266187 -0.129336 0.247269 -0.146458 -0.0502994 -0.244 -0.14395 0.171031 0.176059 0.090428 -0.00108309 -0.160362 -0.0493982 0.318051 -0.0273475 -0.165049 -0.228304 -0.309566 -0.27415 0.167911 0.105598 -0.178127 0.179442 -0.166007 0.0319654 0.174651 0.0773823 0.0592618 -0.105755 -0.153258 -0.0948663 -0.22405 0.0190894 0.342021 0.168373 -0.0647182 0.102815 -0.337915 -0.0451368 -0.167348 -0.223165 0.0189534 0.0452344 -0.163847 0.222747 -0.078395 0.0199391 0.0146366 -0.0770637 -0.153789 -0.169895 -0.251971 -0.234057 -0.169534 0.210141 0.221985 -0.284869 -0.0360159 -0.137409 0.0619983 -0.0662026 0.0549873 -0.124455 -0.0940246 -0.310481 0.175799 0.0788502
18 0.196471 -0.017655 -0.189479 0.124828 0.383684 -0.154069 -0.176556 -0.0782407 -0.354633 -0.0236374 -0.432952 0.22304 -0.202283 -0.156169 0.112923 -0.146291 0.169237 0.166729 -0.123737 0.21265 0.0892328 0.169455 0.260024 -0.11258 -0.167311 -0.210564 0.121443 0.170994 0.298327 0.0340141 0.165282 0.287379 0.00803483 0.224935 0.0663905 0.0997345 0.0588054 -0.211915 -0.215163 0.151178 0.237018 -0.0525497 -0.115356 0.112549 -0.144239 -0.189879 -0.24655 0.301933 0.156611 0.0198782 0.0607541 0.14917 0.107573 -0.106129 -0.183215 -0.00482766 0.252575 -0.291159 -0.333929 -0.00451104 0.0012759 -0.0701502 -0.111559 0.121846 -0.227861 0.174965 -0.24091 -0.169367 0.0211335 0.14141 0.030431 -0.0544834 -0.163133 0.0833781 0.265 0.0498933 -0.168963 -0.215535 -0.29726 -0.164669 0.2021 0.06454 -0.0705037 0.188349 -0.0341216 0.16207 0.103793 -0.177989 -0.0341768 -0.250774 -0.125938 -0.120583 -0.321987 0.158384 0.404706 0.213619 0.112 0.0363967 -0.364638 0.134079 0.0458935 0.0388362 0.0457822 0.228025 -0.126284 0.21393 0.068058 0.00765922 0.0187578 -0.124696 -0.288905 -0.269243 -0.245128 -0.215882 -0.28797 -0.0965151 -0.0341045 -0.0820383 -0.25902 -0.175583 0.277729 -0.114334 -0.0760856 -0.229397 -0.272393 -0.237386 0.340652 -0.0466885
19 -0.289878 -0.0955479 -0.171194 0.207472 -0.0268066 -0.157541 -0.223616 0.360251 -0.0742341 -0.0287659 -0.0697312 -0.127492 0.111363 -0.247557 0.15974 -0.270721 0.0754446 0.174052 -0.16182 -0.102077 0.338583 0.105468 0.161742 -0.0491227 -0.10572 -0.161867 0.225093 0.160361 0.138519 0.0795538 0.104398 0.282171 -0.136021 -0.100748 -0.10407 0.217177 0.0625802 0.0403555 -0.168493 0.192741 0.124103 -0.197325 -0.331059 -0.0563207 -0.217022 -0.322607 0.287696 0.234293 0.196112 0.119421 -0.243893 0.17143 -0.0754151 -0.223579 0.00333454 0.0301742 0.229643 -0.00138539 -0.131775 -0.0878018 -0.174666 -0.190464 -0.251418 0.156814 -0.283309 -0.14189 0.0212561 -0.0756921 0.0751825 -0.168475 0.268875 -0.216832 -0.271122 0.0637807 0.100952 -0.126929 -0.174551 -0.200004 0.0123887 -0.286628 0.202661 0.110352 0.017334 0.121372 -0.215308 -0.203465 0.139803 -0.272987 0.170182 0.146875 -0.187285 -0.115231 -0.095628 0.249874 0.182607 0.140228 -0.126125 0.185793 -0.145064 0.144149 -0.18314 -0.292125 0.0602582 0.104192 -0.163876 0.285318 -0.0666097 -0.208495 0.144255 -0.119901 -0.265078 0.0155597 0.261909 0.207301 -0.131121 -0.0562295 -0.222191 -0.14088 -0.144219 0.205432 0.0947735 0.239213 0.178993 -0.137791 0.0155548 -0.222799 0.158627 0.0669046
20 -0.172373 -0.139776 -0.202124 0.226634 0.310232 -0.236995 -0.127924 -0.16963 -0.0863806 -0.18423 0.0435383 0.00640514 -0.220773 -0.318088 0.327283 -0.25399 -0.203493 0.0312343 -0.134567 -0.0276057 0.104343 0.0700156 -0.0091292 -0.212493 0.149976 -0.0467383 0.25595 0.00638926 0.241233 -0.0933291 0.316843 0.293864 -0.068248 0.174316 0.109444 0.0993794 0.402099 0.37269 -0.210049 -0.0633624 0.112165 -0.181004 0.158317 -0.0412246 -0.183749 0.20739 -0.213745 0.155243 0.0318605 0.0592285 0.18484 -0.0914958 0.0361623 -0.0713896 0.154905 0.0959245 0.106342 -0.0426831 -0.0733994 0.0381402 -0.122683 -0.0406524 -0.381475 0.0849783 -0.115174 0.309901 0.0511254 -0.0123362 -0.144947 -0.072216 0.182947 -0.0903275 -0.0618208 -0.30062 0.267482 0.290775 -0.18595 -0.188225 -0.0065791 -0.176025 0.178443 -0.101714 -0.147362 0.10366 -0.292826 0.0259057 0.106829 -0.0489405 0.501364 0.162857 -0.304746 -0.227107 -0.0335178 -0.0270985 0.128248 0.502474 -0.0772903 0.111583 -0.152088 0.163073 -0.0425333 -0.0533851 0.00063357 0.151548 -0.262116 0.00332565 -0.320474 -0.216013 -0.20943 -0.232132 0.0473144 0.163883 -0.128921 -0.0304989 -0.0803337 -0.123526 -0.33007 -0.179756 0.0577674 0.0332318 -0.121416 0.259859 0.020883 -0.324681 -0.229548 -0.115146 0.336249 0.207752
21 -0.0827685 -0.114441 -0.162438 0.151325 0.207965 -0.230086 -0.269588 0.0193224 -0.157058 -0.0874451 -0.0762026 0.130057 -0.172008 -0.169097 0.272357 -0.117542 -0.205094 0.121212 -0.0490786 -0.0150626 0.126656 0.181513 0.256426 -0.26262 0.0779148 -0.0410789 0.211006 -0.0374667 0.209721 -0.094334 0.141232 0.245733 0.0586328 0.173332 -0.0879079 0.0541066 0.208404 0.263816 -0.27942 -0.0324929 0.0049074 -0.215848 0.305253 -0.00681517 -0.224961 0.264358 -0.179536 0.0108726 0.0742228 -0.0453198 0.190857 0.114786 -0.0432981 -0.140787 0.232711 0.0734828 0.181542 -0.0386424 -0.168534 0.00988625 0.109044 -0.185878 -0.279737 0.110341 -0.112367 0.109994 0.00417053 -0.0451887 0.0968219 -0.235161 0.107048 -0.0793786 -0.146481 -0.238787 0.286511 0.164652 -0.200145 -0.231712 -0.143824 -0.205393 0.380846 -0.116271 -0.172821 0.143372 -0.197426 -0.075839 -0.0108692 -0.117121 0.341138 0.0487929 -0.230007 -0.117371 -0.0733811 -0.0800761 0.253473 0.156675 -0.0736151 0.179116 -0.322127 0.106656 0.0190873 -0.0656383 0.035242 0.253068 -0.217103 0.0764044 -0.272679 -0.0728589 -0.217574 -0.115349 -0.0850211 0.0624859 -0.131836 -0.126535 -0.122202 0.0525806 -0.231379 -0.0950846 -0.0356899 -0.0581992 -0.021096 0.232193 -0.0417014 -0.237714 -0.0466078 -0.239886 0.256236 0.158155
22 0.0491018 -0.051575 -0.0554515 0.11938 0.0941496 -0.151741 -0.0874171 -0.082263 -0.112136 0.0577951 -0.0861334 0.116751 -0.354378 -0.149642 0.278759 -0.278813 0.128879 0.0950106 0.0543592 -0.223443 0.0822513 0.177771 0.181407 -0.236474 -0.0878695 -0.288311 0.332297 -0.00683639 0.162211 -0.126563 0.128556 0.155529 -0.114202 0.0847154 -0.29841 0.185823 0.371827 0.371888 -0.165904 -0.0483857 0.028257 -0.231708 0.0801192 -0.030688 -0.0858031 0.10089 -0.117347 0.0528455 0.219879 0.170258 0.125747 -0.0707592 0.0272998 -0.0473198 0.194182 0.228823 -0.0731377 -0.0923601 -0.171572 -0.0209057 0.297353 0.0569147 -0.420015 -0.0542287 -0.147908 0.425507 -0.0797605 -0.14904 -0.0900427 -0.251876 0.263057 -0.146669 0.187383 -0.148025 0.417262 0.407225 -0.103817 -0.227723 -0.0747909 -0.0841203 0.305591 -0.0795424 -0.0586994 0.0700927 -0.000563311 -0.328218 -0.0452455 -0.101028 0.606227 0.104089 -0.329005 -0.300648 -0.0283528 0.0158946 0.142476 0.429729 -0.167871 0.175042 -0.228344 0.130463 -0.0828785 -0.272431 0.12344 0.105724 -0.347011 0.0528973 -0.16206 0.0184865 -0.155829 -0.154715 0.0239176 0.0804944 0.0900528 -0.201463 0.0399327 0.0639532 -0.286447 -0.0963187 0.155243 -0.255017 -0.0846964 0.196436 -0.222414 -0.287091 -0.214771 -0.102827 0.381772 -0.255013
23 0.173052 -0.246266 -0.297449 0.153002 0.09536 -0.25059 -0.204853 -0.127554 0.411972 -0.301542 -0.0898562 0.124283 -0.385677 -0.0632636 0.134428 -0.107961 0.229899 0.0436384 -0.148942 -0.395098 -0.0126885 0.134962 0.147272 -0.105003 0.368901 0.0445332 0.333881 0.112116 0.0852225 0.014271 -0.110694 0.170689 -0.299792 0.0321466 -0.247306 0.301526 -0.0960919 0.0999305 -0.15812 0.0281674 0.15703 -0.0632288 0.238153 -0.105795 -0.134047 -0.363465 -0.452678 0.089576 0.111149 0.108977 0.156686 0.0998021 0.0746324 -0.202122 0.175557 0.237033 0.291285 -0.384934 -0.135863 -0.202532 0.145379 -0.129463 -0.188373 0.0803286 -0.284097 0.126895 -0.202271 0.25161 0.205496 0.0816827 0.0819803 0.051136 0.117458 -0.198119 0.29936 0.00723417 -0.226307 -0.219113 -0.160134 -0.234836 0.185402 0.0747507 0.00947118 0.387806 -0.109786 -0.165267 0.047447 0.027553 0.171744 0.00625436 -0.19192 -0.0389506 -0.145769 0.218479 0.0858013 0.11331 -0.193883 0.0677224 -0.185157 0.106434 -0.154301 -0.249241 0.0877632 0.206613 -0.277466 0.0636552 -0.0204716 -0.0969957 0.117439 -0.0563611 0.0830796 0.0729873 -0.045061 0.334678 -0.186807 0.113158 -0.225543 -0.151403 -0.174237 0.0215231 0.069882 0.372786 -0.143947 -0.164534 -0.14701 -0.128249 0.285264 -0.0762313
24 0.247963 -0.131731 -0.276333 0.279495 0.104354 -0.248188 -0.18957 -0.36527 0.479229 -0.251687 0.067823 -0.00188822 -0.243492 -0.152042 0.26423 -0.169716 0.249345 -0.0112901 -0.0414949 -0.394229 0.0626403 -0.156138 0.0772517 -0.328176 0.471351 -0.15749 0.29326 0.189079 0.1305 0.069033 0.0812985 0.15 -0.34789 0.158739 -0.383892 0.244327 -0.28908 0.168712 -0.303906 0.16408 0.00591039 -0.130725 0.125729 -0.0154897 -0.0480866 -0.433996 -0.434765 0.180468 -0.0809771 0.345815 -0.0603508 0.153701 0.464546 -0.220768 0.0303522 0.0369044 0.331179 -0.326545 -0.153079 -0.18302 0.0994177 -0.236132 -0.0462943 -0.0405226 -0.163797 0.166892 -0.449222 0.165559 0.0958088 0.122839 0.100619 -0.0551007 0.106285 -0.074301 0.134638 -0.286514 -0.0640862 -0.232719 0.13413 -0.220888 0.286866 -0.182185 -0.0573621 0.346087 -0.157622 -0.0662834 -0.241384 -0.124652 0.147439 0.130595 -0.13714 -0.0634477 -0.208486 0.0821033 0.0590872 0.107752 -0.205224 0.0723024 -0.0210303 0.084396 -0.0496783 -0.261218 -0.0163916 0.21867 -0.351611 0.226279 -0.0782197 -0.0934811 -0.229382 -0.0418864 0.225015 -0.0373266 -0.133131 0.427884 -0.0960782 0.196011 -0.401099 -0.257092 -0.0731197 0.094539 -0.221629 0.395513 -0.104507 -0.197858 -0.23546 -0.11475 0.236334 -0.00159375
25 0.383412 -0.319815 -0.32229 0.0843734 -0.108109 -0.214558 -0.314161 -0.200024 0.176469 -0.219776 -0.00381156 0.221178 -0.453614 -0.0713893 0.279271 -0.231741 0.189964 -0.00430883 -0.0458754 -0.402444 0.0110016 -0.0283274 0.0844638 -0.0685524 0.327657 -0.0883954 0.342466 0.113644 0.141475 -0.00930079 -0.140532 0.175875 -0.136167 0.156356 -0.189296 0.199041 -0.0130921 0.141812 -0.0574705 -0.0871144 0.0188281 -0.273765 0.132394 -0.125889 -0.20742 -0.375497 -0.277768 0.0771503 0.238492 0.097259 0.0559133 0.198921 0.130352 -0.11892 0.226324 0.251849 0.131591 -0.0824227 -0.14472 -0.251209 0.137165 -0.161206 -0.247788 0.0995811 -0.205358 0.0820031 -0.353311 0.361287 0.205146 0.0202911 0.0880939 -0.0553453 0.0741648 -0.19818 0.211116 -0.0939503 -0.212973 -0.187455 -0.0292292 -0.144683 0.353848 -0.220597 -0.082069 0.294714 -0.152849 -0.0706379 -0.0721536 -0.111405 0.170727 -0.11878 -0.0855707 0.00727722 -0.0655029 0.0269077 0.206638 -0.0267755 -0.229491 0.0583974 -0.18998 0.172318 -0.0273279 -0.284765 0.179247 0.18187 -0.237291 0.126487 -0.200683 -0.11862 0.2527 -0.163251 0.0319833 0.0971326 -0.0165292 0.229978 -0.0681586 0.0708631 -0.175459 0.00834289 -0.0263124 0.0731422 -0.194185 0.293341 -0.148258 -0.362339 -0.00241327 -0.0623145 0.155935 -0.170305
26 0.275689 -0.348779 -0.286014 0.164877 0.0672674 -0.261305 -0.373082 -0.0486908 0.617095 -0.172615 0.0428033 0.0761295 -0.488409 -0.135105 0.226749 -0.0539853 0.18317 0.0136698 -0.216124 -0.450292 -0.0834003 0.108804 0.170305 -0.0724479 0.436986 -0.128822 0.308544 0.0235273 0.206564 0.0070403 -0.0803949 0.251185 -0.217761 -0.0373917 -0.457968 0.323848 -0.224456 0.0667056 0.00705267 0.035286 0.0439838 0.00342352 0.116055 -0.096382 -0.193676 -0.450134 -0.225843 0.0585264 0.062704 0.0889706 0.112454 0.18495 0.234322 -0.12275 0.400303 0.316193 0.304122 -0.07425 -0.00130801 -0.29142 0.207551 -0.122397 -0.307013 0.0314965 -0.0306149 0.379505 -0.425571 0.293421 0.323711 0.0323012 0.212593 -0.127906 0.0887401 -0.230432 0.162633 -0.154437 -0.0834676 -0.243876 0.0524469 -0.243309 0.305478 -0.108166 -0.236373 0.348088 -0.119313 -0.321838 -0.112432 -0.0317402 0.175611 0.23933 -0.0689018 -0.0579927 -0.247862 0.197898 0.21599 -0.125022 -0.214602 0.125514 -0.0861951 0.0159125 -0.2132 -0.309604 0.147509 0.198858 -0.205537 0.180291 -0.240657 -0.135903 0.107443 0.0243733 -0.0115634 0.0318637 -0.0983188 0.407406 -0.169713 0.127019 -0.0789332 -0.066408 -0.00163606 0.0363471 -0.127895 0.635062 -0.379827 -0.186405 -0.129154 -0.106007 0.215589 0.137755
27 0.470328 -0.0431726 -0.0303194 0.213464 -0.0952713 -0.263091 -0.192875 -0.443887 0.291132 -0.232263 -0.127385 0.200959 -0.322759 -0.206209 0.296831 -0.225929 0.294196 0.0366181 -0.126519 -0.419664 -0.0753416 0.0676385 0.176748 -0.0410156 0.365644 -0.0418507 0.212098 0.18855 0.217282 0.136108 0.0477288 0.144328 -0.226504 0.373429 -0.17411 0.257173 -0.102204 0.214484 -0.179054 0.0686781 0.255777 -0.0805415 0.153306 -0.103187 -0.029905 -0.348412 -0.274341 0.205985 -0.127611 0.294726 0.0237411 0.0221558 0.311973 -0.289708 0.131817 0.177415 0.253017 -0.425555 -0.289022 -0.0878573 0.3427 -0.127866 -0.10168 -0.0370378 -0.198646 0.251978 -0.0575261 0.328751 0.224138 0.176309 0.126134 -0.0935212 0.127279 -0.120219 0.144663 -0.0752314 -0.235466 -0.305511 -0.00367545 -0.155081 0.150306 -0.321319 -0.0537435 0.29589 -0.143509 -0.146039 0.0843662 0.0311776 0.0665344 0.26213 0.0752566 -0.17352 -0.317944 0.0326722 0.221903 0.0318494 -0.35394 -0.0538331 -0.170339 0.0666009 -0.18042 -0.129668 0.0575684 0.212533 -0.146112 0.233526 -0.0819669 -0.107726 0.00720285 -0.168432 -0.104108 0.165916 0.0265736 0.411473 -0.0146757 -0.0115836 -0.239044 -0.256776 -0.0619084 0.0459664 -0.236574 0.205875 -0.306365 -0.224805 -0.17479 -0.245186 0.166339 0.181481
28 0.197131 -0.0617419 -0.109236 0.123672 -0.141839 -0.353142 -0.144056 -0.0806318 0.23784 -0.0932686 -0.089671 -0.0231689 -0.252559 -0.117201 0.228352 -0.233333 0.0252407 -0.00189522 -0.105886 -0.253117 0.047876 -0.0427031 0.0801499 -0.112406 0.195956 -0.137064 0.121396 0.0756383 0.142166 0.0353686 0.0119948 0.198876 -0.172137 0.158603 -0.0985043 0.213768 -0.12283 0.0844109 -0.286385 0.0679383 0.228982 -0.107078 0.153189 0.138447 -0.208899 -0.142741 -0.236005 0.0179768 0.156043 0.24191 0.0300178 0.181625 0.0775981 -0.247052 0.0398255 0.0758794 0.241782 -0.139795 -0.222749 -0.24136 0.238367 -0.225738 -0.0889993 0.0271176 -0.144069 0.265029 -0.182586 0.25403 0.288321 -0.232512 0.204593 -0.0644918 0.110542 -0.0948846 0.277897 -0.164151 -0.086774 -0.353329 0.0828671 -0.277002 0.180312 -0.16953 -0.0672543 0.163771 -0.121487 -0.213367 0.0382896 -0.0891787 0.164758 0.0159377 -0.0261895 -0.145394 -0.24522 0.215276 0.117442 0.138791 -0.0896081 0.04778 -0.166468 0.157453 -0.152737 -0.03663 0.0157129 0.285564 -0.0550727 0.164822 -0.185977 -0.13597 -0.0632705 -0.140889 0.0299752 0.150751 0.021268 0.284619 -0.104626 0.069406 -0.101812 -0.194357 -0.074577 -0.0458768 -0.0182388 0.310126 -0.190728 -0.198984 -0.090517 -0.27837 0.216237 0.137398
29 0.365632 -0.213145 -0.190371 0.059202 0.123813 -0.246066 -0.157529 -0.285625 0.343853 -0.23267 -0.160404 0.081586 -0.424447 -0.114603 0.016613 -0.18396 0.146147 -0.0141528 -0.061603 -0.467164 -0.0279014 0.083053 0.0624177 -0.161429 0.414014 -0.253573 0.365506 0.00494713 0.183103 0.0951882 0.160759 -0.0169844 -0.280614 0.0508824 -0.189438 0.234042 -0.0277233 0.0796388 -0.191922 0.321315 0.130198 -0.0586896 -0.0154113 -0.0875566 -0.120851 -0.53849 -0.381028 0.0139707 0.166219 0.118009 0.0395228 0.0816042 0.37601 -0.109124 -0.0293985 0.106202 0.167317 -0.172755 -0.204496 -0.160072 0.0367317 -0.215061 -0.185861 0.0831483 -0.291589 0.0585258 -0.308033 0.0680351 0.262797 0.0203898 0.405974 -0.064029 0.0409484 -0.145647 0.184644 -0.0816298 -0.226167 -0.244142 -0.0665857 -0.269612 0.115776 -0.319332 -0.00816997 0.298024 -0.0510575 -0.260001 -0.291902 -0.175883 0.194186 0.159288 0.0215749 -0.101049 -0.0976846 -0.0560595 0.118354 0.181059 -0.309682 -0.0434052 -0.185051 0.15841 -0.302985 -0.174017 -0.0329574 0.305433 -0.121956 0.0832582 -0.298183 -0.115227 0.3166 -0.198167 -0.00795109 0.041774 -0.140754 0.449707 -0.199484 0.0464758 -0.334948 -0.0338574 -0.15732 -0.0479337 -0.147321 0.513916 -0.286426 -0.147926 -0.178125 0.00194356 0.0739128 0.151393
30 0.321771 0.00275377 -0.194008 0.0809433 0.0523041 -0.241807 -0.208261 -0.303616 0.31148 -0.180105 -0.0870991 0.148741 -0.214055 -0.129434 0.213695 -0.0527893 0.236925 0.183363 -0.26275 -0.276781 -0.00333181 -0.0482845 0.226351 -0.0842617 0.550878 -0.268126 0.197033 0.0502575 0.10488 0.227853 0.0100626 0.113704 -0.146687 0.127168 -0.247004 0.311617 -0.0446375 0.203227 -0.115713 0.218239 -0.0443024 -0.256082 0.138861 -0.103866 -0.141675 -0.360974 -0.456904 0.227387 0.133163 0.258109 0.141687 0.020976 0.294568 -0.0254538 -0.169247 0.14679 0.177854 -0.179199 -0.145668 -0.089098 0.167255 -0.12044 -0.355033 -0.0419208 -0.242508 0.126338 -0.199807 0.234251 0.208994 0.142612 0.0197684 -0.156949 0.0114572 -0.183025 0.0208754 0.0589419 -0.117859 -0.195791 0.00594083 -0.117146 0.277387 -0.0674024 -0.0441278 0.282426 -0.246864 -0.196913 -0.137503 -0.0571448 0.184927 -0.0132343 -0.00179934 0.00132646 -0.239335 0.169421 0.17912 0.0839132 -0.0883997 -0.0928788 -0.157753 0.066952 -0.181467 -0.112844 -0.0735467 0.243918 -0.276352 0.131293 -0.19976 -0.201758 0.0552226 -0.20557 -0.0194695 0.0819451 -0.0993481 0.339296 -0.0841722 0.118718 -0.265557 -0.210029 -0.145684 0.044964 -0.271105 0.317285 -0.193964 -0.131344 -0.296263 -0.171861 0.231737 0.192191
31 0.175184 -0.383502 -0.283179 0.145135 -0.163542 -0.250317 -0.226754 -0.197551 0.385744 -0.196851 -0.122141 -0.203512 -0.319743 -0.149339 0.258257 -0.0846086 0.101774 0.0989886 -0.211655 -0.343167 0.129063 0.0496966 0.229466 -0.141767 0.318214 -0.114356 0.0994101 0.0499707 0.220828 0.103457 0.0608502 0.168154 -0.234528 0.0175872 -0.271216 0.132352 -0.182704 0.252553 -0.141305 0.0425498 0.0974786 -0.167257 0.0163296 -0.1803 -0.0988851 -0.222992 -0.237868 0.155617 0.125357 0.180292 0.124871 0.172098 0.213229 -0.0335973 0.233284 0.19263 0.209292 -0.177024 -0.193654 -0.339924 0.117205 -0.239757 -0.112625 0.0761063 -0.151747 0.160361 -0.17514 0.314635 0.107687 -0.179722 0.113377 0.0387903 -0.0538686 -0.233196 0.255837 -0.126239 -0.0709419 -0.17949 0.0952469 -0.264235 0.188686 -0.0737465 -0.0277688 0.244309 -0.14367 -0.127261 -0.0184441 0.040336 0.340467 -0.0972244 -0.119482 -0.226238 -0.108404 0.301433 0.116508 0.0946614 -0.128079 -0.0792113 -0.196225 -0.0667479 -0.110632 -0.185973 -0.00902923 0.139717 -0.0700224 0.0283348 -0.155822 -0.169782 0.0125894 -0.187693 0.0729468 0.0532065 0.00736016 0.439245 -0.110642 0.304385 -0.160238 -0.2627 -0.0920085 -0.0289315 -0.0389052 0.14065 -0.0782414 -0.150357 -0.413064 -0.235507 0.146506 0.098285
32 0.367654 -0.197604 -0.321289 0.15631 -0.289609 -0.333705 -0.274151 -0.273283 0.410153 -0.183684 -0.0383103 0.0772316 -0.413076 -0.206349 0.26426 -0.0823463 0.203256 -0.00622535 -0.230101 -0.571409 -0.0717961 -0.0403698 0.221542 -0.245135 0.442196 -0.229907 0.349411 0.0270874 0.174382 -0.0549918 0.0869237 0.169276 -0.217936 -0.0972613 -0.227488 0.379822 -0.241507 0.122957 -0.259663 0.301512 -0.00221057 -0.1524 0.163026 -0.0293674 -0.043453 -0.487695 -0.413002 0.083251 -0.0110648 0.216667 0.104421 0.221938 0.192195 -0.0811152 0.0962257 0.164944 0.139667 -0.201889 -0.0609588 -0.442589 0.244098 -0.00381994 -0.315383 0.0596376 -0.252396 0.167589 -0.191391 0.201424 0.198552 0.0544532 0.194108 -0.0416399 -0.016925 -0.112651 0.055997 -0.166073 -0.260953 -0.301719 -0.0430534 -0.105497 0.182071 -0.199344 -0.165504 0.394051 -0.152449 -0.140357 -0.112268 0.0726873 0.00941614 0.0281957 -0.0659455 -0.044986 -0.253141 0.146598 0.19772 0.180799 -0.191301 0.00124417 -0.157667 0.0530941 -0.195543 -0.21975 0.045183 0.0142434 -0.202257 0.24949 -0.252647 -0.0187274 0.264574 -0.0639814 0.138456 -0.0314135 -0.206474 0.332248 -0.10078 0.0484307 -0.18856 -0.238178 -0.0629536 -0.0616654 -0.256899 0.294796 -0.270373 -0.312963 -0.065243 -0.168115 0.136308 0.0423823
33 0.283503 -0.0972187 -0.315618 0.183474 0.173029 -0.319298 -0.30193 -0.356758 0.414468 -0.163078 -0.161335 0.121362 -0.451318 -0.170512 0.201819 -0.157932 0.0910079 0.105045 -0.058344 -0.281127 -0.120835 0.326859 0.071251 -0.253181 0.503097 -0.0701883 0.174693 -0.0448291 0.16545 -0.0127773 -0.0460901 0.201462 -0.24248 0.253122 -0.247194 0.221937 -0.106541 0.133131 -0.295198 0.0793205 0.0432604 -0.260839 0.106811 0.00256888 -0.0879254 -0.420027 -0.39816 0.0226995 0.146424 0.3026 0.0662087 0.201747 0.512714 -0.154571 0.132317 0.0693532 0.20458 -0.272465 -0.137109 -0.191589 0.376428 -0.236606 -0.174176 0.180995 -0.110019 0.230552 -0.21908 0.226966 0.218234 0.262166 0.0538159 -0.0124255 0.16557 0.0484689 0.365772 -0.259749 -0.203979 -0.176446 -0.147598 -0.155585 0.27513 -0.157625 -0.0725538 0.298992 -0.0382137 -0.188607 -0.0690761 -0.0484329 0.218035 0.222959 -0.0392008 0.0656008 -0.257066 0.147933 0.163735 0.143827 -0.0796791 0.0125042 -0.293997 0.126242 -0.0763198 -0.251611 0.112728 0.149324 -0.18167 0.160239 0.0108963 0.0362494 0.189173 -0.225954 -0.0400262 0.191944 -0.166514 0.465181 -0.100991 -0.0278202 -0.397549 -0.14481 -0.109351 0.191007 -0.0617794 0.33692 -0.473572 -0.0693383 -0.16111 -0.119781 0.143849 0.100027
34 0.380452 -0.39984 -0.119317 0.111741 -0.218609 -0.294721 -0.202762 -0.252754 0.451509 -0.305815 -0.152427 -0.0895535 -0.459185 -0.132673 0.276042 -0.224908 0.146807 -0.0496611 -0.20289 -0.556875 0.0560911 -0.0259664 0.0475466 -0.0768098 0.509863 -0.0425327 0.219205 0.16004 0.190825 0.0318559 -0.143005 0.173624 -0.393633 0.0916064 -0.420225 0.238513 -0.254484 0.202127 -0.0900231 -0.0692936 0.0240582 -0.165667 0.0549435 -0.00098593 -0.0251012 -0.550782 -0.464316 0.219267 0.314682 0.334628 0.0326054 0.0759509 0.563842 -0.103736 0.0891709 0.0764287 0.248098 -0.245689 -0.156234 -0.113648 0.130165 -0.244213 -0.354958 -0.0227261 -0.177011 0.152963 -0.112921 0.358836 0.34707 -0.0256596 0.156858 0.0676545 0.300122 -0.0140593 0.199471 -0.164937 -0.164235 -0.245388 0.268526 -0.184499 0.237503 0.0178769 -0.152608 0.277031 -0.187913 -0.193113 -0.124802 0.0975804 0.348216 -0.0129526 -0.0110434 -0.00173248 -0.192707 0.144547 0.17284 -0.0706825 -0.130394 0.0375926 -0.240686 0.280835 -0.0946302 -0.262394 0.0167391 0.106042 -0.214929 0.346719 -0.0720339 -0.104206 0.132824 -0.12335 0.0612855 -0.207899 -0.215742 0.465304 -0.00823917 0.278331 -0.194028 -0.129132 0.0812265 0.153857 -0.202893 0.417344 -0.259461 -0.183803 -0.0646304 -0.167959 0.113912 0.0565065
35 0.264097 -0.0992654 -0.0718928 0.140048 -0.0300428 -0.265133 -0.130678 -0.26224 0.306022 -0.264206 -0.101736 0.0336196 -0.326897 -0.209738 0.0272351 -0.278403 0.362789 0.0238825 -0.0351645 -0.435772 -0.11772 0.179627 0.0872912 -0.217125 0.403094 -0.169188 0.29222 0.178801 0.0846435 0.177592 -0.264062 0.0843721 -0.170251 0.110104 -0.31378 0.342795 -0.0649477 0.156536 -0.270015 -0.0983598 0.0792542 -0.0476609 0.0963763 0.173091 -0.0361852 -0.331943 -0.264752 0.132427 0.221971 0.242996 0.104759 0.0904613 0.190652 -0.0743342 0.0828714 0.202671 0.252077 -0.217806 -0.0746565 -0.209014 0.187621 -0.146261 -0.198366 0.117443 -0.254645 0.346728 -0.212384 0.318587 0.233146 -0.147119 0.217472 0.0122445 0.230388 -0.189457 0.179731 -0.144051 -0.0449845 -0.215539 0.0374882 -0.0796403 0.109139 -0.249538 -0.0165068 0.250173 -0.0730254 -0.057787 -0.233841 0.00204715 0.178315 0.103359 -0.171247 -0.216451 -0.19155 0.163684 0.140278 0.0483138 -0.157423 0.242272 -0.0546071 0.127344 -0.110606 -0.167602 -0.036055 0.188123 -0.123794 0.024214 -0.203704 -0.0976042 -0.0755252 -0.173672 0.177223 -0.0267301 -0.079164 0.292438 -0.246517 0.0154002 -0.347009 -0.208926 -0.143283 0.0928917 -0.188173 0.343206 -0.308567 -0.12461 -0.246398 -0.221848 0.329076 -0.0120568
36 0.307511 -0.186845 -0.258513 0.212899 0.0737393 -0.159319 -0.216309 -0.24831 0.220797 -0.192925 -0.0525141 -0.133722 -0.388424 -0.0806387 0.28219 -0.0712032 0.212385 -0.013748 -0.0942241 -0.392822 0.210741 0.196154 0.100349 -0.109023 0.112911 -0.309362 0.152402 0.021706 0.123 -0.100759 -0.00649521 0.104756 -0.174825 0.178117 -0.258739 0.276883 -0.0215458 0.0870609 -0.269975 0.0519698 0.0744774 -0.216818 0.096681 0.238729 -0.0502463 -0.0876351 -0.244549 0.187744 0.161991 0.224632 0.0998372 -0.0424663 0.281231 -0.122118 0.0775698 0.182809 0.184393 -0.222757 -0.176477 -0.316383 0.24145 -0.231517 -0.34822 0.0019158 -0.20722 0.297715 -0.0618397 0.129104 0.103012 0.0643162 0.0774596 0.0407241 0.110922 -0.137851 0.27635 -0.0899589 -0.061696 -0.373118 0.0858067 -0.252778 0.291132 -0.0669913 0.0691933 0.225772 -0.269563 -0.0767003 -0.0841056 0.131907 0.261699 0.0636464 -0.147468 -0.17725 -0.0612372 0.0383711 0.0820091 0.0728239 -0.158212 0.245619 -0.247171 0.22695 -0.19416 -0.274652 0.00482225 0.205023 -0.320672 0.0483544 -0.198034 -0.139039 0.0924368 -0.0871816 0.0721436 0.0464444 -0.238656 0.213126 -0.155049 0.143357 -0.28556 -0.264727 0.125972 0.114908 0.00161648 0.299292 -0.308716 -0.209827 0.0325667 -0.203204 0.286869 0.0211896
37 0.212834 -0.341446 -0.192938 0.113468 0.21367 -0.339193 -0.238924 -0.227298 0.244166 -0.144279 -0.101952 0.0512711 -0.493942 -0.0890853 0.356697 -0.160471 0.202199 0.131255 -0.107905 -0.441558 0.0392717 0.108765 0.0847255 -0.0984906 0.436514 -0.116824 0.167122 0.087514 0.124583 0.166403 -0.121611 0.203497 -0.300207 -0.0714568 -0.279495 0.188012 -0.112281 0.33331 -0.257445 0.0976023 0.235974 -0.120093 0.0337416 0.0496779 -0.072577 -0.472726 -0.38634 0.189613 0.21114 0.335241 0.0179929 -0.0156571 0.419503 -0.0966839 0.0858551 0.114043 0.208539 -0.354909 -0.178099 -0.314414 0.124833 -0.20779 -0.279693 0.0728084 -0.141697 0.183919 -0.0952318 0.327156 0.28757 0.204695 0.0413421 0.121537 0.0917031 -0.0553501 0.210189 -0.269869 -0.15083 -0.144617 0.038415 -0.163751 0.330018 -0.261455 0.0294413 0.312001 -0.0886235 -0.316547 -0.0476739 -0.0555561 0.360773 0.0219712 0.0282791 -0.0333162 0.0556721 0.193311 0.0726558 0.134296 -0.165191 -0.00412692 -0.0622068 0.0653113 -0.135164 -0.217229 -0.131395 0.169181 -0.226212 0.225211 -0.253276 -0.0683658 0.150041 -0.0901993 0.20075 0.0510575 -0.144297 0.544538 -0.133466 0.12423 -0.159418 -0.124838 0.00837716 -0.0604825 -0.0265505 0.25241 -0.296633 -0.222469 -0.355957 -0.185514 0.240727 0.00222723
38 0.241421 -0.25516 -0.106949 0.173623 -0.0848488 -0.196468 -0.196378 -0.129029 0.12499 -0.066062 0.0855001 0.0579731 -0.237222 -0.236832 0.0283547 -0.205497 -0.049771 0.19166 -0.239615 -0.464559 0.0547604 0.0282908 0.104225 0.00117242 0.440789 -0.030918 0.141062 -0.0114376 0.298886 -0.0214173 0.00785055 0.059229 -0.270505 0.145204 -0.14983 0.156453 0.00747991 -0.168932 -0.114832 0.0994018 0.142374 -0.112396 -0.0243202 0.0851248 -0.142876 -0.564231 -0.208468 0.100842 0.197627 0.286172 0.0585663 0.0756185 0.286399 -0.172477 0.0612204 0.152967 0.301365 -0.1638 -0.115247 -0.204742 0.100656 -0.20039 -0.150129 0.0915899 -0.171541 0.0929327 -0.334911 0.297417 0.289417 -0.21509 0.216513 -0.162649 0.203242 -0.0601754 0.205582 -0.142677 -0.124424 -0.202714 -0.0202706 -0.26739 0.342377 -0.304699 -0.0875251 0.211595 -0.109714 -0.322303 0.108974 -0.0815029 0.067833 0.0321847 0.0210821 -0.0225293 -0.144307 -0.0471741 0.24405 -0.141747 -0.334885 -0.0224996 -0.174436 0.131712 -0.147804 -0.131369 0.066929 0.291208 -0.104959 -0.135436 -0.117643 0.0870982 -0.0674129 -0.19513 -0.0348068 -0.0599735 0.060052 0.492894 -0.138928 -0.191731 -0.0132883 -0.142446 -0.10218 -0.252378 -0.225738 0.234311 -0.523187 -0.180795 -0.347114 -0.0479212 0.0668617 0.0135256
39 0.302143 -0.00876866 -0.223606 0.174323 -0.0379548 -0.256474 -0.182012 -0.23959 0.28865 -0.202634 -0.0271132 0.170641 -0.425417 -0.123504 0.250116 -0.157367 0.151371 0.24767 -0.164262 -0.436874 -0.0168939 0.0922967 0.262149 -0.0508216 0.3275 -0.0242284 0.150321 0.141908 0.135636 0.168151 0.128042 -0.0467376 -0.180455 0.00275982 -0.148613 0.0933038 -0.0800406 0.125078 -0.0964955 0.0979932 0.214427 -0.147118 0.119843 0.128905 0.0387721 -0.381963 -0.270868 0.290386 -0.0481802 0.297192 0.0711229 0.0343797 0.387711 -0.0436972 0.0889775 0.129699 0.316902 -0.228309 -0.167572 -0.142124 0.101878 -0.226852 -0.283703 -0.00283487 -0.24809 0.1165 -0.304105 0.207318 0.0651495 0.089491 0.162148 0.0220775 0.00736591 -0.0671261 0.257541 -0.132566 -0.319609 -0.193552 -0.0369084 -0.0928282 0.24023 -0.204986 -0.151103 0.221153 -0.190882 -0.122229 -0.123345 -0.0839772 0.200215 0.0576657 -0.0475545 -0.0454213 -0.224362 0.0250388 0.149243 -0.0172863 -0.385593 0.0478147 -0.272879 0.07512 -0.154482 -0.261883 -0.0338069 0.205726 -0.224239 0.212442 0.0413273 -0.0197866 0.10253 -0.209622 -0.026422 -0.125777 -0.0675019 0.47164 -0.258219 -0.113333 -0.14691 -0.127313 -0.180438 -0.121459 -0.150943 0.311655 -0.248406 -0.0943637 -0.157408 -0.0503052 0.0306827 0.108421
40 0.330501 -0.030513 -0.301562 0.154203 -0.0813246 -0.228012 -0.255111 -0.0564151 0.390482 -0.133853 0.0390659 0.159425 -0.489146 -0.139103 0.234884 -0.1498 0.0758236 0.136568 -0.173902 -0.558044 -0.141755 0.220478 0.0886409 -0.258037 0.31234 -0.120194 0.294174 -0.0358622 0.235181 0.0354093 0.0276886 0.231101 -0.243566 0.236532 -0.147319 0.119327 0.0523821 0.078107 -0.185299 0.233866 -0.00374432 -0.118311 0.0418179 0.061442 -0.0612049 -0.447948 -0.308239 0.131555 -0.0709483 0.213051 -0.0105953 0.0897174 0.341364 -0.120893 0.164878 0.0893623 0.23747 -0.264168 -0.110351 -0.160713 0.107191 -0.0955219 -0.164678 0.125577 -0.121755 0.244207 -0.136398 0.132233 0.119371 -0.131791 0.112209 -0.122989 0.0170627 -0.252484 0.26626 -0.0808687 -0.165794 -0.150426 -0.0846681 -0.0950433 0.090187 -0.130915 -0.206459 0.20971 -0.146136 -0.210065 -0.175044 -0.282481 0.0181669 0.0947982 -0.0687767 -0.0667129 -0.165166 0.012669 0.236023 0.115558 -0.134446 0.169817 -0.0527353 0.0593632 -0.081759 -0.313437 0.0707896 0.188094 -0.183059 0.102656 -0.131082 -0.11021 -0.0936844 -0.225237 0.014446 -0.0298196 -0.0662523 0.433196 -0.0690583 -0.024694 -0.273111 -0.0339942 -0.121054 0.123845 -0.353767 0.51453 -0.45603 -0.16342 -0.138071 -0.173968 0.260433 0.0658495
41 0.146586 -0.0377516 -0.269552 0.166479 -0.116843 -0.203332 -0.262592 -0.136119 0.0505737 -0.191579 -0.0870589 0.206629 -0.130902 -0.226965 0.243402 -0.0962774 0.0842617 0.158469 -0.0969355 -0.201988 -0.32009 0.25611 0.281565 -0.140352 0.177533 -0.00103156 0.118276 0.11896 0.169613 0.183166 0.0618117 0.114586 0.0454475 0.185922 -0.00802114 0.260105 0.187301 -0.0247931 -0.0356845 0.218827 0.259339 -0.253725 0.0564119 0.150335 -0.159372 -0.137854 0.068491 0.156124 -0.0264081 -0.0951303 0.220965 0.328954 0.0406295 -0.0960024 0.0947307 -0.082114 0.129588 -0.170791 -0.287388 -0.0402202 0.290695 -0.193075 -0.0357542 0.245523 -0.0852525 0.298718 -0.282907 0.373527 0.301009 0.00922974 0.11003 -0.108436 0.139216 -0.0514427 0.342214 0.221917 -0.211194 -0.244765 -0.229205 -0.169529 0.18477 0.0911527 -0.0443527 0.256091 -0.0840248 0.0346826 0.413432 0.0990593 -0.0379616 0.0833382 0.100568 -0.0898582 -0.271053 0.121442 0.228544 0.00270292 -0.0621823 0.128064 -0.0318446 0.04666 -0.165543 -0.0835926 0.266369 0.173978 -0.0370981 0.199745 -0.0590361 0.0208106 0.115395 -0.225747 -0.0620484 -0.0840217 -0.0302438 -0.0533805 -0.0783842 0.162581 -0.160642 -0.266098 -0.231781 -0.0924844 -0.00147657 -0.156848 -0.0631095 -0.287729 -0.0886933 -0.309889 0.190972 0.101915
42 0.101071 -0.131514 -0.19989 0.126259 0.179992 -0.229842 -0.317378 0.150881 0.0393047 -0.162862 -0.255126 0.228892 -0.314052 -0.137475 0.215347 -0.23221 -0.0715023 0.175082 -0.0340279 0.0328659 -0.180956 0.106715 0.129233 -0.249401 0.0755027 -0.0673509 0.112845 0.167396 0.239643 0.0880444 0.254652 0.27088 -0.0277791 0.0764517 0.0374485 0.196383 0.0496846 -0.0402332 -0.131649 0.195719 0.0681356 -0.192261 0.144658 0.168192 -0.149184 0.067632 0.0729513 0.107244 0.0306201 0.0673829 0.0609044 0.165157 0.150797 -0.0675856 0.271654 0.0155761 0.295109 -0.269424 -0.183013 -0.173589 0.223972 -0.276189 -0.0835908 0.275289 -0.206609 0.102203 -0.17033 0.126204 0.348755 -0.0745526 -0.0324282 0.134306 -0.000332406 0.0680877 0.371189 0.303743 -0.370696 -0.195248 -0.181683 -0.215018 0.160714 0.0429617 -0.195577 0.27035 -0.16041 -0.0216352 0.0988496 0.312226 0.177234 -0.0220407 -0.0323595 -0.155958 -0.132197 0.0353657 0.00247583 0.0241584 -0.2196 -0.00666672 -0.245005 0.176098 -0.0539135 -0.185875 0.0677605 0.108908 -0.237693 0.172212 -0.0356561 0.0779092 -0.00772162 -0.154231 -0.242287 -0.0571797 -0.287733 -0.252144 -0.10309 0.158158 0.0328504 -0.165861 -0.205676 -0.0625708 0.0470683 -0.00839831 0.120574 -0.172303 -0.0168766 -0.210595 0.0620701 0.120635
43 -0.37967 -0.203767 -0.0939439 0.439348 -0.234758 -0.155766 -0.158758 0.368588 0.150897 -0.0333344 -0.10759 0.160611 0.367832 -0.112261 0.102434 -0.233999 0.104961 0.393737 -0.17429 -0.556165 0.203989 -0.0335777 0.103616 -0.321634 -0.149701 -0.0873522 0.152248 0.00788071 0.143588 -0.00901251 0.526805 0.110537 -0.0515545 -0.0858785 -0.18469 0.242626 0.123042 -0.435395 -0.126307 0.380261 0.228253 -0.0893852 -0.537007 -0.0717391 -0.261413 -0.446527 0.206635 0.248317 0.189992 -0.123565 -0.0287348 0.180848 -0.123783 -0.169433 0.0143659 0.0764997 0.0430887 0.00291577 -0.200931 -0.00968388 -0.584551 0.0227397 -0.0767627 0.170518 -0.12629 0.217599 -0.00363692 -0.31415 -0.0125827 -0.21387 0.275198 -0.45181 -0.367807 -0.249198 0.312727 -0.1651 -0.207459 -0.207907 -0.15727 -0.212102 0.279359 0.0471237 0.062963 -0.00587097 -0.28934 -0.101807 0.387172 -0.300818 -0.0167176 0.253266 -0.306833 -0.100492 -0.362785 0.102189 0.207292 0.172492 -0.246498 -0.0424855 -0.0073628 0.00217007 -0.119027 0.0446573 0.0642696 0.365082 -0.387058 0.340817 -0.277136 -0.403043 0.385488 -0.254233 -0.296258 -0.0037027 0.321713 0.285712 -0.154516 -0.276298 -0.2899 -0.0844036 -0.104094 -0.0289467 -0.0365241 0.251473 0.228151 -0.147666 0.03182 -0.267167 0.272305 0.270772
44 -0.327812 -0.0912844 -0.149711 0.255895 -0.337023 -0.295549 -0.282184 0.231985 0.112169 0.104839 -0.253763 -0.00654059 0.12565 -0.241985 0.119215 -0.266248 0.0460359 0.339196 -0.18828 -0.148789 0.0421171 0.0295042 0.140946 -0.0814717 0.127047 -0.158312 0.149763 0.144619 0.0141619 -0.00337549 0.135699 0.146342 -0.159966 -0.0456879 -0.202574 0.164918 0.153154 -0.248863 -0.158884 0.215301 0.0899591 -0.14657 -0.328484 -0.0144455 -0.214077 -0.124736 0.385705 0.114937 0.162738 -0.0446606 -0.1643 0.0847285 0.0242804 -0.178788 0.0157579 0.103695 0.146426 -0.0564765 -0.173914 -0.0834389 -0.279843 -0.0249772 -0.162273 0.213869 -0.184688 0.0871793 0.000366621 -0.0981287 0.0486724 -0.229341 0.160767 -0.263155 -0.238647 -0.160125 0.216405 -0.0734501 -0.179021 -0.295669 -0.0563057 -0.129176 0.291004 0.07379 0.0289656 0.100997 -0.136651 -0.146926 0.179472 -0.151237 0.215376 0.148194 -0.183316 -0.277394 -0.306796 0.125109 0.154033 0.196704 -0.177006 -0.0539506 -0.0453249 0.130648 -0.169854 -0.167256 0.156044 0.215453 -0.0990948 0.27276 -0.256312 -0.236277 0.156326 -0.256605 -0.0449467 0.193947 0.254711 0.162212 -0.211199 -0.0751716 -0.183091 -0.0692543 -0.0575365 0.0772415 0.164957 0.253063 0.161401 -0.186929 0.0525293 -0.331943 0.210394 0.0687306
45 0.00154128 -0.017192 -0.129731 -0.000868577 0.000826554 -0.25638 -0.072647 0.484577 -0.03257 0.149428 -0.115586 -0.0121042 0.166499 -0.348549 0.263097 -0.213727 -0.464504 0.303679 -0.0529596 0.277831 0.064116 -0.0172397 0.246499 -0.206045 0.156722 -0.230857 0.0561374 0.0981424 0.112898 0.000360295 -0.221268 -0.00816163 -0.108148 -0.0678268 -0.249892 0.225123 0.3227 0.253636 -0.16143 0.283401 0.291719 -0.132999 0.0234648 0.124774 -0.284049 -0.193116 0.14892 0.0452087 0.190685 0.222102 0.263331 0.279354 0.00616193 -0.139787 0.139024 0.208678 0.312699 -0.284261 -0.000317823 -0.104083 0.332049 0.0414712 -0.0934536 0.209128 -0.0258488 0.0852961 0.272442 0.398484 0.27016 -0.252743 0.0400126 -0.160325 0.0151389 -0.359352 0.340363 -0.0902346 -0.193798 -0.132069 -0.287462 -0.02266 0.130416 -0.350249 -0.0765419 0.222105 -0.163169 -0.339358 0.260084 0.0490677 -0.182594 0.300303 -0.157875 -0.203429 0.0119186 -0.0131722 0.223988 -0.0314649 -0.200698 0.0759218 -0.164865 -0.0212745 -0.0513437 0.0446937 0.192669 0.155163 -0.0481002 0.0333885 -0.215519 0.042034 -0.436892 -0.102491 -0.377937 0.0934232 0.342349 0.207727 -0.0375964 0.0270312 -0.137683 0.00719987 -0.0464242 -0.18493 -0.073386 0.27399 -0.255913 -0.199935 0.0171384 -0.374074 0.212083 0.306577
46 0.0966619 0.0191483 -0.184569 0.0753128 0.0703483 -0.198192 -0.130762 0.360322 -0.145404 -0.0660794 -0.139251 0.0506409 0.0525588 -0.285589 0.292426 -0.167233 -0.383697 0.20933 -0.120392 0.247911 0.0293416 0.140198 0.209342 -0.212156 0.0784094 -0.24939 0.2316 0.100114 0.103807 0.0881282 -0.294213 0.0393994 -0.113058 0.0194125 -0.0523281 0.0397049 0.122269 0.309544 -0.138309 0.371267 0.255655 -0.371503 -0.0342335 0.0398113 -0.409974 -0.021084 -0.160241 -0.0226603 0.314329 0.231679 0.401212 0.0864374 0.0185767 -0.0900312 0.153904 0.224204 0.178246 -0.202348 -0.184285 -0.119851 0.261197 -0.0294847 -0.200516 0.204866 -0.156417 0.279251 0.199743 0.48023 0.338897 -0.277977 0.121564 -0.180646 0.00888425 -0.0919231 0.285291 -0.124255 -0.205597 -0.184773 -0.280233 -0.0351093 0.183449 -0.26364 -0.0480792 0.215633 -0.212663 -0.244111 0.135433 -0.139528 -0.106917 0.370412 -0.153557 -0.195217 -0.0258725 0.0622971 0.287135 0.283696 0.0152341 0.0118408 -0.0739693 -0.0940581 -0.128543 0.0859385 0.0273174 0.201477 0.0804622 -0.0459436 -0.27909 -0.0829635 -0.396349 -0.135505 -0.395183 0.155342 0.256511 0.142445 -0.190716 -0.0219315 -0.232567 -0.0270214 -0.0668441 0.0289794 -0.306366 0.223096 -0.0933 -0.121132 0.023908 -0.180296 0.263154 0.32091
47 0.317293 -0.159446 -0.278035 0.115926 -0.0495476 -0.380274 -0.14839 0.0181945 0.24806 -0.0549946 0.00400791 -0.0944242 -0.459258 -0.125152 0.209297 -0.188522 0.114974 0.126275 -0.249949 -0.370706 -0.270658 0.353328 0.133351 -0.234477 0.344426 -0.258249 0.277532 0.0233658 0.361428 0.0692277 -0.0322422 0.0766696 -0.160155 0.0883711 -0.157272 0.206026 0.0325722 -0.151036 -0.036448 -0.0176771 0.115543 -0.149285 0.177966 0.173053 -0.315331 -0.460969 -0.225702 0.138477 0.216231 -0.0351748 -0.180262 0.356595 0.249315 -0.22499 0.31928 0.220928 0.231926 -0.0580748 -0.21481 -0.177215 0.300576 -0.202622 -0.205444 0.207687 -0.323322 0.246964 -0.0637414 -0.064506 0.237842 -0.250542 0.0752488 -0.14715 -0.092727 -0.136713 0.144105 0.166275 -0.235122 -0.254929 -0.0783071 -0.142563 0.167268 -0.0179377 -0.242302 0.17305 -0.0580811 -0.338735 -0.0306152 0.0198288 -0.22342 -0.067364 0.028125 -0.0970764 -0.0632351 0.197023 0.228201 0.0612943 0.0773638 0.0825982 -0.235719 0.251973 -0.0914206 -0.123163 0.109318 0.0703693 -0.00176652 0.0841958 -0.054814 0.0684545 0.287415 -0.0462233 -0.0395633 -0.385779 -0.277323 0.248252 -0.254566 0.131937 -0.102104 -0.0926151 -0.271515 -0.186118 -0.290529 0.345257 -0.348693 -0.175558 -0.182408 -0.158186 0.173036 -0.173881
48 0.244307 -0.199122 -0.27785 0.217407 -0.0317674 -0.176875 -0.116012 -0.0509307 0.341298 -0.0180371 -0.00432177 -0.0856403 -0.3542 -0.207742 0.267014 -0.0969519 0.115784 0.463739 -0.108956 -0.526883 -0.0897311 0.0926339 0.158821 -0.189118 0.439032 -0.182289 0.147419 0.0818404 0.126895 -0.0188956 0.295955 0.0913297 -0.115717 0.0214779 -0.219548 0.18808 0.00102363 -0.0831335 -0.0546151 0.172026 -0.110816 -0.164608 0.13706 0.163299 -0.0593356 -0.304777 -0.12515 0.2029 0.139777 0.0361039 0.0550425 0.301959 0.247773 -0.126358 0.234886 0.0353178 0.07916 -0.0965724 -0.216172 -0.418606 0.257822 -0.229981 -0.155041 0.125593 -0.237552 0.172451 -0.1112 -0.122401 0.143407 0.0158472 0.177317 -0.0179354 -0.0656031 -0.247203 0.200013 -0.0914472 -0.0779912 -0.120194 0.0682486 -0.0460549 0.190785 -0.117539 -0.0948881 0.173849 -0.184355 -0.265135 -0.309081 0.0501418 -0.124701 -0.103897 -0.0847589 -0.0886083 -0.0904868 0.0210598 0.155451 0.0668842 -0.0747682 0.216582 -0.206535 0.208222 -0.225518 -0.403502 0.181531 0.219364 0.0443176 0.019953 -0.335061 -0.0704272 0.311602 -0.101868 -0.00759149 -0.252858 -0.179414 0.222842 -0.171691 0.388237 -0.11817 -0.191738 -0.298033 -0.310469 -0.191399 0.0299213 -0.357272 -0.0629763 -0.324933 -0.142904 0.148662 0.0525052
49 0.375737 -0.410268 -0.310689 0.152661 0.0151508 -0.236106 -0.173532 -0.091956 0.218229 -0.0139397 -0.0211498 0.226554 -0.145462 -0.236135 0.248228 -0.247235 -0.512206 0.387501 0.0499093 0.0288868 0.38041 -0.24378 0.242346 -0.173663 0.370948 -0.00212526 0.0567816 0.451903 0.032121 -0.109269 0.294933 0.414321 -0.259497 0.161061 -0.119135 0.182367 0.196434 0.163756 -0.109954 0.317261 -0.187323 -0.239362 0.0186154 0.0313976 -0.0675723 -0.113331 0.0601589 0.0626443 0.0613704 0.291566 0.00968534 0.113253 -0.299666 -0.112132 0.113927 -0.180991 0.0546199 -0.222793 -0.111371 -0.444179 0.313368 -0.206991 -0.325058 0.232763 -0.179656 -0.0118119 -0.56462 -0.141193 0.118775 -0.210042 0.325171 -0.168979 -0.194924 -0.375756 0.1751 -0.182196 -0.0314764 -0.153923 -0.107181 -0.198863 0.157705 0.100546 -0.167781 0.27298 -0.25411 -0.208989 0.307934 0.301568 0.134184 -0.158145 -0.390324 -0.134489 -0.0970261 0.21065 0.0666764 0.2425 -0.0388462 -0.0915034 -0.24945 0.165773 0.109594 -0.349646 0.311367 0.00320927 -0.211853 0.236171 -0.0871179 -0.29352 0.165053 -0.290409 -0.0984466 -0.158002 -0.105682 0.149574 0.0162171 0.607872 0.194333 -0.177962 -0.0788871 -0.437273 0.318556 -0.00885478 0.127413 -0.340684 -0.320219 -0.163318 0.126422 -0.0266491
50 0.413572 -0.533469 -0.238011 0.255159 0.216009 -0.0693951 -0.166746 0.0197021 0.261141 -0.143861 -0.213633 0.223981 -0.0276286 -0.194004 0.118133 -0.361471 -0.513912 0.317871 0.153578 0.151668 0.738796 -0.105046 0.0370608 -0.058765 0.252627 -0.0532493 0.0811363 0.279196 0.0618811 0.0094774 0.047635 0.56979 -0.137215 0.298806 -0.141281 0.0215436 -0.0452709 0.103895 -0.132979 0.234726 -0.265955 -0.257003 -0.0768088 -0.109045 -0.144319 -0.0333853 0.019874 0.115894 -0.0123759 0.101451 0.0272194 0.0819799 -0.304066 -0.308844 0.00389649 -0.151914 0.131645 -0.15913 -0.2026 -0.540517 -0.0138605 -0.198337 -0.448921 0.195912 -0.113044 -0.0557752 -0.404948 -0.415 0.0830317 -0.220273 0.144985 -0.238535 -0.414708 -0.164197 0.197904 -0.131136 -0.0281101 -0.220091 -0.117803 -0.208848 0.345289 0.155051 -0.123539 0.153713 -0.354833 -0.00965068 0.260208 0.387672 0.202864 -0.309653 -0.44332 -0.120025 -0.129141 0.210293 0.10667 0.062445 0.0789434 0.0589019 -0.267787 -0.108665 0.0178376 -0.361762 0.204163 -0.00419805 -0.113864 0.227525 -0.0329927 -0.630927 0.0464977 -0.163716 -0.141096 -0.240082 -0.083856 -0.0459594 -0.0649261 0.552839 0.204541 -0.224105 -0.0663274 -0.0738996 0.0858326 -0.224576 0.207797 -0.320835 -0.310334 -0.115344 0.269459 -0.0188297
51 0.015357 -0.206729 -0.190286 0.17927 -0.186598 -0.18801 -0.347358 -0.234651 0.0286766 -0.0576705 -0.422259 0.211253 -0.185162 -0.171939 0.200264 -0.0506786 0.20728 0.0183367 -0.11358 -0.245365 -0.265018 0.205906 0.365247 -0.0439204 0.0151499 -0.0451687 0.219784 0.0302003 -0.00111853 0.202741 0.224994 -0.00789107 -0.133709 0.00347234 0.118633 0.253899 -0.0305885 -0.0534443 -0.198289 0.3422 0.263072 -0.157644 -0.12188 0.20638 -0.155335 -0.155822 0.126679 0.130293 -0.0660963 0.00159607 0.141962 0.221254 0.255061 -0.259809 0.112863 0.0958849 0.0815948 -0.437005 -0.200774 -0.0586815 0.221189 -0.229833 -0.0642476 0.00671222 -0.229574 0.2547 -0.0291871 0.325802 0.180612 -0.00127373 0.0927914 -0.0586942 0.22891 0.00517421 0.144515 0.0733441 -0.192073 -0.364526 -0.0492535 -0.22925 0.325231 -0.27316 0.108946 0.33315 -0.0918413 0.0115534 0.339079 0.247711 0.132088 0.249873 0.0763328 -0.259413 -0.32434 0.0339796 0.177992 0.0856381 -0.218552 0.0812209 -0.17955 0.258308 -0.0383361 -0.0991229 0.125404 0.000814964 -0.054119 0.119805 -0.0110904 -0.0542461 0.0394577 -0.17758 -0.0889556 -0.0475565 0.0934582 0.138499 -0.199748 0.0954549 -0.116328 -0.0942551 -0.188502 -0.0667896 0.052571 0.12393 0.00105943 -0.229443 -0.181776 -0.148079 0.122274 0.134971
52 -0.0955155 -0.0260977 -0.264618 0.399554 0.322902 -0.236189 -0.296673 0.115405 -0.396754 -0.318165 -0.307317 0.544092 -0.148679 0.131569 -0.0807511 -0.0887632 -0.0126023 -0.215703 -0.261724 0.0137485 0.276534 0.286622 -0.00417083 -0.291375 -0.398826 -0.150358 0.391817 -0.108342 0.102354 0.275703 -0.143844 0.302403 -0.331635 -0.129712 0.0993182 0.080316 -0.00200661 -0.156689 -0.197322 0.300543 -0.050308 0.0905202 -0.208336 0.353728 0.019401 -0.281311 -0.0218689 -0.0553083 0.208023 -0.138382 0.0217859 0.478153 -0.216962 -0.204692 -0.0884009 0.123825 -0.0078508 0.32469 -0.294397 0.124427 -0.233365 -0.116979 0.142932 0.0697107 -0.223684 0.471579 -0.186344 0.14382 0.325609 0.0266069 0.0342739 0.0282252 -0.0535862 0.3391 0.247427 0.574862 -0.24686 -0.32485 -0.00692145 -0.319335 0.156345 -0.144088 0.0448694 -0.0610996 -0.192665 0.0830896 0.38277 0.144576 0.313591 -0.0875858 -0.191445 -0.202691 0.00357825 0.362499 0.270467 0.353749 0.0677001 0.131825 -0.294876 0.377802 -0.07541 -0.170281 0.106439 0.276881 -0.28971 0.114677 -0.0680339 -0.0973199 -0.0350393 -0.253539 -0.0707895 -0.38733 -0.24661 -0.377548 -0.29771 -0.232682 -0.218551 -0.290575 -0.281446 -0.08186 -0.0381745 0.277259 0.0102685 0.0273537 -0.271033 -0.152218 0.35959 -0.0736129
53 0.052747 -0.0207368 -0.0879216 0.0383894 -0.000350103 -0.13832 -0.170711 0.0561367 -0.316599 -0.0630036 -0.0489295 0.295317 -0.137665 0.0376939 0.136978 -0.248168 0.0261624 0.0889825 -0.180086 0.120951 0.0716276 0.237957 0.00440441 -0.0841699 -0.273846 -0.183552 0.177572 0.343215 0.237507 0.141119 -0.241296 0.1228 -0.0281868 0.263699 -0.163598 0.0295601 0.196579 -0.0182925 -0.319613 -0.0659057 0.0947288 -0.254804 -0.226473 0.279344 -0.137678 -0.104588 0.00499053 0.139595 0.234934 -0.189104 0.142378 0.0615054 0.0828956 -0.0322058 -0.118487 0.207181 0.0987856 -0.0095403 -0.257222 -0.139279 -0.0994221 -0.104263 0.0410867 0.124947 -0.259972 0.308671 -0.207016 0.166287 0.275072 -0.219323 0.0750826 0.00776816 0.163587 -0.0705604 0.313141 0.273129 0.05596 -0.172899 -0.284665 -0.190397 0.0892945 -0.0285229 -0.116292 0.136209 -0.210494 0.0577684 0.112967 0.290875 -0.00377591 -0.0390549 -0.0699243 -0.114733 -0.376329 0.0540693 0.0229683 0.117711 -0.0206952 0.120356 -0.0151373 0.117385 -0.0418413 -0.131252 0.0403941 0.215877 -0.0269519 0.252119 -0.0942584 -0.183015 0.0676581 -0.202366 -0.0734777 -0.299835 -0.0405854 -0.329425 -0.201489 0.107779 -0.158566 -0.272207 -0.24298 -0.132177 -0.108031 0.27607 0.0264309 -0.133186 -0.145313 -0.285191 0.112028 0.0931141
54 -0.0558368 -0.200808 -0.0678172 0.327901 0.450096 -0.372334 -0.161731 -0.15886 0.00875565 -0.320313 -0.00920026 -0.0127129 0.390011 -0.285817 0.0493387 -0.0232948 -0.00726575 0.0383646 -0.0932149 -0.124079 -0.240259 0.0403175 0.162261 -0.410536 -0.0704826 -0.162994 0.135304 0.0666329 0.16578 0.255819 0.26534 0.148682 -0.250549 -0.0283101 -0.0481687 0.235172 0.152216 0.437562 -0.091234 0.0413157 0.17625 -0.203173 -0.408502 -0.115131 -0.128426 -0.127126 -0.327801 0.273021 0.264181 0.334952 0.12967 0.113247 0.249291 -0.167999 0.0963266 0.015873 0.168957 0.0261051 -0.305169 -0.202924 0.124098 -0.153336 -0.25532 0.145515 -0.221566 0.330349 0.0806855 0.030164 0.110335 0.101095 0.155263 -0.233374 -0.125031 -0.0903113 0.0441155 -0.0773642 0.0136574 -0.175438 -0.039053 -0.222893 0.09645 -0.104535 0.0216513 0.32108 -0.197524 -0.225898 -0.27946 -0.170285 -0.0870646 0.409765 -0.0476241 -0.0858371 -0.109691 0.17302 0.0369236 0.163934 0.191453 0.198159 0.0835636 0.167773 -0.193332 -0.0138051 0.0789681 0.20746 -0.153383 -0.225058 -0.273295 -0.224288 -0.423402 -0.217587 0.0124314 0.0662058 0.167021 0.0146539 0.0175368 0.327004 -0.285527 -0.10792 -0.23813 -0.11709 -0.45728 -0.256167 -0.0557306 -0.151273 -0.1321 -0.224422 0.171307 0.153893
55 -0.279098 -0.163029 -0.114973 0.301643 0.205109 -0.29898 -0.212886 -0.0818154 0.150328 -0.0859328 0.0109074 -0.0140368 0.510151 -0.348048 0.167111 -0.164684 -0.216167 0.101845 -0.171952 -0.0849132 -0.187412 -0.0182438 0.206472 -0.270508 0.12643 -0.107231 0.0623718 0.19622 0.0716119 0.215591 0.378539 0.177924 -0.321122 0.0429857 0.0819582 0.182952 0.164136 0.415893 0.00752529 -0.0290677 0.254708 0.00717042 -0.44165 -0.104825 -0.205091 -0.0227094 -0.255705 0.108028 0.25687 0.311511 0.215004 0.0696397 0.307277 -0.113581 0.00408912 0.0026792 0.193588 -0.0152326 -0.247915 -0.145335 0.0448046 -0.126284 -0.0911181 0.235788 -0.257143 0.255962 0.0296191 0.0965861 0.00014857 0.136525 0.123107 -0.216287 -0.227964 0.0351629 -0.0125636 -0.0209497 0.0821758 -0.166092 -0.0425305 -0.284555 0.025767 0.00396589 -0.0330216 0.22397 -0.422711 -0.37657 -0.197229 0.0662538 -0.231888 0.420705 -0.240791 -0.244651 -0.298643 -0.0512436 0.046851 0.352912 -0.00800679 0.0236201 0.147935 0.122841 -0.0526897 -0.162163 0.348504 0.194716 -0.179824 -0.299241 -0.237963 -0.207654 -0.445747 -0.197045 0.00917427 -0.0133746 0.373438 0.158446 -0.0622834 0.222364 -0.330801 0.0725541 -0.245663 -0.00505291 -0.483768 -0.214673 0.142086 -0.229136 -0.131739 -0.368868 0.217726 0.0619304
56 -0.00138821 -0.164729 -0.118498 0.168426 0.46518 -0.211426 -0.276598 -0.216928 -0.101512 -0.124818 -0.0595066 0.237975 0.534248 -0.0232217 0.103222 -0.011465 -0.253782 0.0138415 -0.0327155 -0.0458864 -0.0894161 0.0481897 0.101853 -0.282733 -0.0412599 -0.268934 0.0968047 -0.0506449 0.211066 0.304388 0.36147 0.0985965 -0.209097 0.160218 -0.159477 0.198572 0.0847059 0.350041 -0.208102 -0.108847 0.143413 -0.193775 -0.47236 -0.0823278 -0.139522 -0.0779859 -0.329821 0.280811 0.311917 0.25625 0.279194 0.107672 0.285611 -0.0879386 -0.0242668 0.0759859 0.231777 -0.12772 -0.283895 -0.148814 0.10711 -0.267401 -0.254817 0.19404 -0.131453 0.112426 -0.0438616 -0.0878816 0.193575 0.172156 0.113591 -0.34296 -0.213644 0.0877249 0.072833 0.166403 0.0182439 -0.178417 -0.0556844 -0.166464 0.0359395 -0.200863 -0.0950074 0.185236 -0.350688 -0.256014 -0.327281 0.00880985 -0.189436 0.531841 -0.114224 -0.0950039 -0.237076 0.0736826 0.167423 0.174393 0.12015 0.197695 0.0477451 0.0491952 -0.214229 -0.0854978 0.120056 0.214182 -0.13243 -0.188097 -0.204126 -0.178959 -0.456935 -0.19192 -0.00727935 0.111227 0.382631 0.122464 -0.121751 0.163856 -0.480237 -0.0123124 -0.139012 -0.100123 -0.297989 -0.22881 -0.0442634 -0.22529 0.0638977 -0.251247 0.163609 0.13232
57 -0.103573 -0.182236 -0.0434452 0.223074 0.53102 -0.191895 -0.0922918 -0.0887137 0.183401 -0.29273 -0.0619148 0.131869 0.344879 -0.238531 0.120615 -0.136345 -0.22436 0.0297935 -0.0714634 0.00976402 -0.0362558 0.00516006 0.167482 -0.263757 0.0010956 -0.152096 0.18868 0.069572 0.0706295 0.192114 0.297399 0.179384 -0.0167563 0.0989506 -0.305347 0.214431 -0.0416655 0.387436 -0.101597 0.11492 0.0811411 -0.110028 -0.26414 -0.136895 -0.268156 0.0417695 -0.303537 0.0789438 0.139964 0.337054 0.327758 0.0922968 0.171813 -0.181459 0.182467 0.0793512 0.194116 -0.121503 -0.267637 -0.137833 0.280787 -0.222161 -0.0218056 0.13759 -0.105625 0.24517 -0.0141991 -0.214804 0.1567 0.154156 0.106908 -0.248764 -0.312393 0.0579361 0.224452 0.210194 -0.139404 -0.0884808 -0.241574 -0.256174 0.0607936 -0.270873 -0.112409 0.295615 -0.301438 -0.30236 -0.153331 -0.0446008 -0.171603 0.255898 -0.20244 -0.0867899 0.0198311 0.166851 0.0710826 0.25165 0.103087 0.0767913 0.094752 0.129803 -0.156821 -0.140831 0.236 0.324535 -0.0851837 -0.222207 -0.108205 0.00112904 -0.359607 -0.162194 0.0407735 0.0213871 0.321724 0.0994483 -0.159821 0.453631 -0.23084 -0.183397 -0.245551 -0.147626 -0.389368 -0.166243 -0.0468201 -0.18444 -0.133138 -0.313604 0.251434 0.109234
58 -0.0452497 -0.115765 -0.0504877 0.193602 0.406941 -0.261897 -0.234796 -0.0103731 0.219141 -0.164906 -0.0394823 0.112608 0.341938 -0.176108 0.161399 -0.0970198 -0.0334642 0.080327 -0.0997909 0.0163869 0.00116188 0.0708081 0.160317 -0.289581 0.0225477 0.00118006 0.0672817 0.0620726 0.168802 0.182757 0.146679 0.331833 -0.21439 0.119042 -0.182385 0.236476 0.183025 0.363499 -0.120984 -0.0285118 0.0287883 -0.121467 -0.228858 0.107079 -0.273241 -0.033313 -0.0356237 0.212455 0.075942 0.286981 0.0466106 0.256019 0.123741 -0.157873 -0.0257796 0.0425871 0.241962 -0.188693 -0.228881 -0.0687621 0.129722 -0.0615097 -0.213141 0.16813 -0.209756 0.152035 -0.0409455 -0.0567507 0.199011 0.117467 0.0073202 -0.112457 -0.229751 0.0179979 0.06405 0.0308021 -0.0405334 -0.286994 -0.042634 -0.344801 0.117534 -0.0147834 -0.116273 0.0681087 -0.241229 -0.156357 0.00125987 0.0759683 -0.0953943 0.164475 -0.233716 -0.165399 -0.251001 0.228911 0.12511 0.159155 0.0655728 0.142875 -0.0382973 0.121378 -0.0895397 -0.11543 0.174271 0.180818 -0.197539 -0.118667 -0.0230966 -0.175531 -0.283655 -0.29523 0.0414195 -0.0281156 -0.00778197 0.174807 -0.0131067 0.123055 -0.044807 -0.205585 -0.150598 0.0852134 -0.202161 -0.144448 -0.0255861 -0.231602 -0.0632638 -0.272598 0.137628 0.099094
59 -0.127186 -0.161803 -0.0528969 0.359043 0.326165 -0.193142 -0.304564 -0.0740215 -0.0941185 -0.340505 0.0291583 0.219529 0.595914 -0.134349 0.115511 -0.258391 -0.23373 -0.0255779 0.0871205 -0.147681 -0.194479 -0.0456983 0.162803 -0.292133 0.28863 -0.176997 0.134523 0.144801 0.136108 0.20581 0.253207 0.140438 0.00657256 0.0739651 -0.176632 0.0909505 0.0397282 0.483094 -0.108248 -0.164953 0.133748 -0.110653 -0.498433 0.00946527 -0.158039 -0.113332 -0.280493 0.327702 0.201061 0.453436 0.290241 0.181664 0.420405 -0.241816 -0.0993865 0.0175712 0.12998 -0.0598202 -0.204021 -0.0355042 0.11726 -0.134757 -0.0834922 0.188517 -0.245704 0.237219 0.0563613 -0.287338 0.088897 0.10217 -0.0444568 -0.327971 -0.477966 -0.130568 0.0649022 0.038737 0.0310324 -0.278514 -0.0104755 -0.212756 0.128745 -0.0846005 -0.213487 0.140669 -0.269866 -0.200807 -0.15105 -0.0890509 -0.12859 0.531604 -0.156205 -0.0909137 -0.167407 0.0902628 0.169445 0.24579 0.25503 0.110324 -0.0124109 0.227813 -0.162111 0.0424556 0.135655 0.175171 -0.270346 -0.186064 -0.16865 -0.297974 -0.467236 -0.0931617 -0.222371 0.175108 0.295522 -0.0205961 0.00186791 0.271318 -0.282616 -0.0933477 -0.263572 -0.234295 -0.440515 -0.231751 -0.211317 -0.280653 -0.0415316 -0.24611 0.260404 0.149592
60 0.279581 -0.23514 -0.242539 0.262662 0.143897 -0.375443 -0.224396 0.044899 -0.426917 -0.198434 -0.154548 0.11824 -0.105381 -0.198488 0.183239 -0.0323864 0.0161636 0.226387 -0.234024 0.159874 0.52127 0.141396 0.338132 -0.0112526 -0.348171 -0.155172 -0.0258069 0.00977164 0.253966 0.297061 -0.37852 0.0938569 0.0208162 0.053354 0.0247665 0.00894348 -0.0192236 -0.138252 -0.0903503 -0.145142 0.234472 -0.189811 -0.318153 0.136717 -0.139213 0.00312628 -0.382793 0.042516 0.191867 0.250484 0.48659 0.178309 -0.108781 -0.141845 0.23197 0.139461 0.261702 0.0210331 -0.0629694 -0.176085 -0.26768 -0.318047 -0.0547266 0.0795315 -0.173378 0.263068 -0.0746309 0.146167 0.253993 -0.0502015 -0.0194501 -0.106058 -0.165382 -0.040332 0.112696 0.265332 -0.137358 -0.125242 0.00603388 -0.222922 0.229237 -0.0216223 -0.287332 0.193496 -0.259741 0.168341 0.272663 0.323536 0.250965 -0.246349 -0.147759 -0.231316 -0.154999 0.0556311 0.300019 0.155662 -0.0289309 0.191125 -0.242838 0.35612 -0.183414 -0.0579582 0.0973194 0.168654 -0.138742 0.0550133 -0.00362301 -0.182834 0.142897 -0.0782688 -0.295484 -0.431122 0.113231 -0.355625 -0.156381 0.0112321 -0.103028 -0.283169 -0.226894 -0.232305 -0.0607617 -0.0144273 -0.223684 -0.188027 -0.347857 -0.197246 0.255968 -0.0445637
61 0.159382 -0.169583 -0.416033 0.159642 -0.0900821 -0.131834 -0.0964667 0.173803 -0.331323 -0.244742 -0.112181 0.187792 0.00496466 -0.114712 0.123378 -0.330382 0.203071 0.0841823 -0.40899 0.0665631 0.459205 0.158034 0.255939 0.0421949 -0.321305 -0.124047 0.103276 -0.0252891 0.14483 0.123937 -0.411984 0.0871533 0.0344009 -0.159808 0.00266468 0.237842 -0.00518481 -0.40392 -0.0742773 -0.0484051 0.242377 -0.133127 -0.516765 0.0118669 -0.125603 -0.29784 0.0126842 0.190578 0.258296 0.182808 0.259559 0.16366 -0.114332 -0.0830679 0.129085 0.17663 0.192322 0.00244958 -0.119427 -0.213013 -0.423831 -0.196769 0.0395223 0.192898 -0.282187 0.284952 -0.180036 -0.0652315 0.164617 -0.0800003 -0.0101138 -0.123157 0.0437991 -0.22436 0.0305249 0.348465 -0.131068 -0.15029 -0.222554 -0.264479 0.183332 0.114126 -0.185127 0.018725 -0.224386 0.200717 0.268199 -0.0614895 0.194918 -0.1204 -0.16123 -0.158708 -0.10466 0.0120813 0.0354272 0.311525 -0.144854 0.100976 -0.125509 0.269512 -0.14381 -0.151806 0.12866 0.313155 -0.236428 0.264405 0.0437554 -0.0795255 0.295249 -0.0606167 -0.245975 -0.332308 0.0221153 -0.300703 -0.0366004 0.0105898 -0.120716 -0.275765 -0.217477 -0.0314418 0.0829418 0.387732 -0.00959251 -0.108029 -0.385867 -0.303023 0.379468 -0.175528
62 0.0507622 -0.101318 -0.156328 0.0953006 -0.152311 -0.216085 -0.175419 0.0556277 0.0532144 -0.0290466 -0.182133 0.0430663 -0.120135 -0.208771 0.204981 -0.123203 0.00304218 0.12701 -0.173556 0.0286909 0.153967 0.196229 0.2187 -0.256521 0.0388351 -0.0949298 0.183926 0.373133 0.253693 0.0883715 0.079047 0.108134 -0.0373504 0.0244941 0.0323432 0.101839 0.0616369 0.00408242 -0.16778 0.0607596 0.168637 -0.0827873 0.120859 0.000113192 -0.179628 0.0642155 0.0845961 0.259542 0.182599 0.00954937 0.0054671 0.131857 -0.032357 -0.155495 0.00591522 0.313762 0.154053 0.00533964 -0.156229 -0.0635938 0.058213 -0.161099 -0.156464 0.295233 -0.179992 0.0942581 -0.1269 0.0439008 0.145059 -0.16732 0.173825 -0.0686371 0.0372919 -0.100052 0.0898755 0.134629 -0.192434 -0.28507 -0.0360575 -0.272283 0.0827628 -0.0720839 -0.121197 0.139024 -0.177572 -0.0112593 0.110637 0.0279389 0.0280079 0.153101 -0.160495 -0.174934 -0.159176 0.153788 0.202008 0.155212 -0.193676 0.207019 -0.20683 0.0478329 -0.228799 -0.124899 0.0883139 0.0470207 -0.101315 0.0399816 -0.0371273 -0.188759 -0.0607545 -0.0811317 -0.0670575 0.00855535 0.0984518 -0.0176404 -0.177547 -0.0088198 -0.0248319 -0.130799 -0.0980255 -0.0341965 0.0544758 0.0205006 -0.156331 -0.188553 -0.0545072 -0.323409 0.170705 0.124921
63 -0.0901689 -0.0379399 -0.036789 0.268536 0.261976 -0.273345 -0.232903 -0.0318577 0.101929 -0.160976 -0.0921991 0.171771 0.38633 -0.198471 0.0400762 -0.17201 -0.0875638 0.103408 -0.00327761 0.0494905 -0.130905 -0.00181655 0.205616 -0.119879 0.078593 -0.0876006 0.0753266 0.125881 0.0846429 0.22218 0.00706316 0.0897383 -0.114925 0.0890268 -0.228492 0.223665 0.0727039 0.303586 -0.219242 -0.0666176 0.0584586 -0.146405 -0.229415 0.064385 -0.259777 -0.102961 -0.109622 0.110668 0.113936 0.310737 0.183909 0.15454 0.154806 -0.238465 0.0374997 -0.0634382 0.136857 -0.0862606 -0.268781 -0.152235 0.0882597 -0.235035 -0.0619293 0.0802284 -0.25138 0.117184 0.153235 0.0433802 0.130358 0.0386789 0.0822511 -0.113022 -0.19504 0.0769467 -0.0095894 0.0772182 -0.0467912 -0.191927 -0.131248 -0.230878 0.0950748 -0.112875 -0.0986992 0.142228 -0.304482 -0.240303 -0.0365507 0.0322617 0.0239937 0.39278 -0.163683 -0.244367 -0.209665 -0.0456937 0.0929976 0.125984 0.118441 0.2249 -0.00375796 0.15863 -0.1043 0.0166094 0.160066 0.181364 -0.168155 -0.0708307 -0.153885 -0.19461 -0.196551 -0.155421 -0.0664629 -0.0674813 0.380989 0.141503 -0.257531 0.0556447 -0.24694 -0.134078 -0.175098 -0.0476216 -0.308195 -0.0722653 -0.0623133 -0.187278 0.00805141 -0.132607 0.135623 0.0953745
64 -0.159977 -0.0347691 -0.0683435 0.27654 0.0972315 -0.23004 -0.091988 0.158043 0.00793968 -0.167157 -0.269897 0.0823887 0.0267671 -0.150149 0.196611 -0.169994 0.0712118 -0.0270949 -0.0416405 -0.032377 -0.0316254 0.236168 0.144525 -0.193377 0.109119 -0.0147725 0.22957 0.0991786 0.095779 0.140979 0.0890127 0.05839 -0.100463 0.0144045 -0.0539062 0.10953 0.0301703 -0.0164003 -0.240512 0.13309 0.177715 -0.147908 -0.0104244 0.268672 -0.0698415 -0.0457605 -0.0245512 -0.00424002 0.0680467 0.173877 0.280572 0.298507 0.0555399 -0.20269 0.124569 0.171728 0.188756 -0.230411 -0.164937 -0.148079 -0.0511196 -0.221806 -0.0575346 0.159044 -0.0848078 0.112381 0.0290103 0.118181 0.138063 0.0826541 0.249816 -0.0943744 0.178669 0.035155 0.102958 0.299168 -0.321265 -0.0841518 -0.170175 -0.208913 0.114639 -0.146146 -0.168254 0.203892 -0.21665 -0.0171753 0.0632434 0.111954 0.131948 -0.0565069 -0.158218 -0.0489096 -0.0852352 0.122505 0.159037 0.246857 -0.0868174 0.210025 -0.0921263 0.0925466 -0.058353 -0.0693603 0.0592998 0.146808 -0.0935215 -0.0386954 -0.0326598 -0.0462045 -0.0804074 -0.154169 0.0372115 0.0555609 -0.0948109 0.0568033 -0.216441 0.198967 -0.0883547 -0.195484 -0.20523 -0.255779 0.0215591 0.00152749 -0.0512841 -0.258017 -0.113009 -0.112876 0.231881 0.163259
65 0.116017 -0.190838 -0.143362 0.236859 -0.254092 -0.298662 -0.409746 -0.0780865 -0.367081 0.00876594 -0.0515872 0.36473 0.0240343 -0.0274065 0.0870304 -0.233701 0.251272 0.117792 -0.119363 -0.0693451 -0.0426991 0.187852 0.182182 0.0139805 -0.00545781 0.228313 0.256355 0.1833 0.12306 0.0165932 0.274127 0.038949 -0.212825 0.251907 0.240243 0.00946415 0.108583 -0.0336558 -0.0448703 -0.0346556 -0.0310652 0.0148644 -0.471483 0.0736751 -0.126309 -0.217718 0.219378 0.280871 0.219111 -0.235902 0.303237 0.0892828 0.12462 -0.106611 0.0978633 0.434836 0.170419 -0.0165318 -0.146317 -0.0464751 0.0238505 -0.179026 -0.0385872 0.313657 -0.290824 0.0499941 -0.593068 0.107196 0.131412 -0.135877 0.127071 -0.073012 0.073332 -0.256133 0.0649507 -0.0830997 -0.13017 -0.11231 -0.0839518 -0.238788 0.216217 -0.378274 -0.164979 0.180321 -0.118455 0.293836 0.0158066 0.165515 0.205416 0.0367531 0.0793093 -0.1709 -0.190167 0.112353 0.2398 0.153446 -0.194225 0.10652 -0.0467112 0.369235 -0.0780198 -0.32302 0.274395 0.263399 -0.139123 -0.10343 -0.273359 -0.166467 0.142438 -0.0456527 0.0595688 0.0751808 0.210895 -0.280913 -0.105293 -0.114304 -0.268708 -0.0278561 -0.150511 -0.0465489 -0.108171 -0.0257152 -0.266351 -0.147076 -0.260237 -0.191846 0.0672865 0.066111
66 0.0942666 -0.234534 0.0754222 0.336664 -0.0111052 -0.122233 -0.122119 -0.148386 -0.0637648 -0.0780727 -0.133669 0.426245 -0.165444 -0.0403492 0.220367 -0.0957581 -0.291364 0.283213 -0.00319905 0.0858226 -0.0306453 -0.248275 0.0582146 -0.0164555 -0.0924578 -0.0613379 0.219495 0.277066 0.109084 0.277114 0.3106 0.0987416 -0.0282733 -0.00676763 -0.00861364 0.0187564 0.0592031 0.143124 -0.273905 0.497644 0.0106871 0.013559 0.0245916 0.242447 -0.109508 0.279015 -0.342059 0.312141 -0.0504588 -0.275644 -0.0576838 0.135383 -0.0454946 -0.417639 0.315085 0.018452 0.0799491 -0.00169964 -0.23197 -0.587229 0.00660935 -0.16879 -0.122663 0.112018 -0.0377201 0.0886029 0.0497332 -0.300553 0.183068 -0.120729 0.276369 0.119159 0.0350182 0.355847 0.366503 0.0137722 0.0562155 -0.284433 -0.39468 -0.282727 0.248933 0.130392 -0.245261 0.292012 0.0559675 -0.136356 0.0302145 0.438263 0.389673 0.110555 -0.034329 -0.0964423 0.0448933 0.185489 0.159266 0.0241327 -0.149964 0.108539 -0.271566 0.227772 -0.0901403 -0.176939 0.029819 0.17444 -0.0420263 0.143167 0.240927 -0.0734097 0.0868304 -0.26866 0.402023 0.0714142 0.035147 0.236572 -0.240642 0.36074 0.19729 0.0157029 -0.284047 -0.468144 0.0159909 -0.0320478 -0.715971 -0.491548 -0.351997 -0.0961474 0.252219 0.136237
67 -0.0294526 -0.547962 0.163179 0.35519 0.408522 -0.104442 -0.197555 0.194998 -0.129924 -0.20855 -0.255263 0.474985 -0.287228 -0.323633 0.155003 -0.0335605 -0.126258 0.12748 -0.236472 0.0507322 0.24541 0.111925 0.00409313 -0.205138 -0.278773 -0.056571 0.252467 0.131596 0.0740243 0.106346 0.426775 0.0798582 -0.0708771 0.0199009 0.0720777 0.221566 0.0794344 0.147155 -0.0735674 0.138981 0.199582 -0.0771782 0.116529 0.113811 -0.099447 0.173273 -0.409283 0.234016 0.291867 0.0347492 0.0813293 0.174771 -0.226565 -0.194749 0.455426 0.0235308 0.0150411 -0.167049 -0.0852544 -0.167939 -0.129157 -0.184566 -0.165946 -0.0346512 -0.0965675 0.270034 -0.305423 -0.101651 0.118629 -0.0329371 0.349718 0.0854892 -0.285491 0.0527656 0.210074 0.119388 -0.200303 -0.243671 0.0360407 -0.268952 0.154231 -0.380063 -0.0509589 -0.0369253 0.0743723 -0.0625932 0.194769 0.0963929 0.539948 0.153555 -0.132676 -0.0849564 -0.0290939 -0.0585608 0.113638 0.299755 -0.168638 0.307212 -0.421387 0.286171 -0.105322 -0.228835 0.281373 0.116342 -0.268201 -0.119308 -0.0652333 0.0338935 -0.110648 -0.131066 0.217101 -0.0280458 0.0922365 -0.169687 0.0570804 0.00533298 -0.0956035 -0.0744847 -0.0820225 -0.229456 -0.0318581 0.128915 -0.483064 -0.342572 -0.0731265 -0.19586 0.253959 0.157594
68 -0.0779061 -0.166397 -0.216657 0.135507 0.329736 -0.259979 -0.224741 -0.145876 -0.12441 -0.0567157 -0.111124 0.0304716 -0.323348 -0.213168 0.304026 -0.165001 0.0387496 0.0935806 -0.166937 -0.224862 0.0311409 0.114135 0.329904 -0.351109 0.0519481 -0.221446 0.329995 -0.0145392 0.171445 0.14338 0.235862 0.136188 0.00778035 0.0945741 0.17046 0.241076 -0.0644152 0.0893914 -0.138209 -0.0442914 0.35456 0.00751912 0.334642 0.00893941 -0.174367 -0.107642 0.0720975 0.149084 -0.0788344 0.0661887 0.121253 0.122771 0.0532784 -0.189982 0.0693629 0.0702778 0.220969 0.0531428 -0.0820594 -0.271815 -0.0426627 -0.079715 -0.231617 0.0732948 -0.245428 0.23227 0.0312607 0.308069 0.176399 -0.0852036 0.492502 0.112407 0.170008 -0.171977 0.158731 -0.0446024 -0.152948 -0.355291 -0.089489 -0.234347 0.127792 0.0165714 -0.166081 0.139151 -0.025341 -0.50663 0.0901491 0.0456986 0.447421 0.130117 -0.00397891 -0.12041 -0.0694591 0.184118 0.211572 0.200185 -0.168547 0.0480602 -0.314239 0.160013 -0.249853 -0.131218 0.234451 0.0127098 -0.0229425 -0.0736203 -0.211191 -0.0783684 -0.229759 -0.090084 0.140045 0.0855959 0.0824391 0.167617 -0.361686 0.0811498 -0.0249618 -0.270707 0.0139667 -0.124319 0.193577 0.113325 -0.0955335 -0.231313 -0.177456 -0.149136 0.278434 0.210132
69 -0.373056 -0.310169 -0.131405 0.250026 0.225085 -0.239515 -0.139614 0.0148815 -0.226557 -0.0894347 -0.206819 -0.0451664 -0.29977 -0.170935 0.292753 -0.191057 -0.0356516 0.0385641 -0.153986 -0.150656 0.268145 0.158665 0.198466 -0.25469 0.0563728 -0.0524367 0.08283 0.220114 0.107806 0.0639975 0.470982 -0.0532482 0.05056 -0.0639143 0.384898 0.215856 0.288478 0.124815 -0.178757 -0.24691 0.146326 -0.0853069 0.170054 0.2171 -0.184161 -0.0271409 -0.0346101 0.0381521 0.0991974 0.178798 0.0453282 0.07768 -0.220612 -0.00151113 0.302983 0.190837 0.275183 -0.0185827 -0.12337 -0.179686 -0.0229215 -0.130952 -0.232772 -0.0100559 -0.160462 0.0871008 -0.129214 0.15971 0.0715495 -0.108398 0.490753 0.0906265 -0.0652087 -0.148025 0.197696 0.0793278 -0.360902 -0.265049 0.0457446 -0.198546 0.138403 -0.0851517 -0.0930654 0.154867 -0.157789 -0.424344 0.311334 0.374712 0.636272 0.230255 -0.0150965 -0.16775 0.0198777 0.0589214 0.118339 0.274077 -0.189034 0.0706672 -0.484612 0.158109 -0.389773 -0.185908 0.248652 0.0342086 -0.085293 -0.0782759 -0.101208 0.0679021 -0.225065 -0.149645 0.131175 0.153436 0.116468 -0.0200443 -0.135312 0.107771 -0.0783454 -0.276469 -0.037318 -0.261484 0.112295 0.182727 -0.0486488 -0.266822 0.0359598 -0.146527 0.173872 0.31269
70 0.35586 -0.12068 -0.0742644 0.170478 0.0560103 -0.0480672 -0.184469 -0.19118 0.143531 0.0319389 -0.192747 0.237468 -0.0186648 -0.162068 0.116559 -0.212603 -0.348179 0.390652 -0.14835 0.173342 0.257241 0.146352 0.0742624 -0.311339 0.190419 0.127978 -0.091409 0.56461 0.190486 0.00745637 -0.01446 0.295391 -0.185023 0.0614455 -0.171148 0.114566 0.0517201 0.383683 -0.0262187 0.336677 0.0681877 -0.167578 0.122242 0.126122 -0.154824 -0.0976092 0.0715095 0.421352 -0.0914782 0.410239 0.148891 0.145239 -0.0523159 -0.226439 -0.0931379 -0.0793463 0.0908531 0.0776015 -0.186092 -0.330586 0.278362 -0.0600944 -0.194676 0.121734 0.0544749 0.182685 -0.440685 0.102754 0.178244 -0.331441 0.269677 -0.123591 -0.147541 -0.327232 0.023218 0.0217448 -0.00119373 -0.178702 -0.0357451 -0.0934817 0.243537 0.0476864 -0.0954143 0.179604 -0.311147 0.0176595 0.193538 0.11674 -0.240337 -0.00769215 -0.495904 -0.109669 -0.31866 0.281248 0.131122 0.130268 0.0170141 0.284644 -0.289558 -0.224389 -0.0244965 -0.349136 0.277932 0.0684521 0.167267 0.218903 -0.0650245 -0.396523 0.0410989 -0.137052 -0.0213954 -0.121712 -0.0262343 0.245942 0.0415139 0.286 0.095384 -0.156863 -0.11854 0.0398929 0.287003 0.0744484 -0.0575537 -0.208179 -0.0933386 -0.17823 0.119218 0.15841
71 0.442771 -0.200365 -0.0985752 0.265331 0.0745256 -0.112651 -0.186402 -0.342698 0.124818 -0.0628238 -0.0825587 0.459119 0.151859 -0.119967 0.142271 -0.442342 -0.432799 0.578007 0.0366188 0.159316 0.410797 -0.0744666 -0.0260565 -0.0101282 0.317678 0.137194 0.00250277 0.571662 -0.0381674 0.0500749 -0.0435985 0.300072 -0.0211078 0.129704 -0.144236 -0.0199708 0.0326293 0.394382 0.0661055 0.460832 -0.235619 -0.201874 0.0267672 0.109825 -0.107332 -0.0391173 -0.102256 0.49583 -0.129305 0.190965 0.0865865 0.090468 -0.314277 -0.147492 -0.00845201 -0.0950271 0.0182041 -0.0821454 -0.0828013 -0.389047 -0.0145973 -0.161697 -0.341415 0.0639179 -0.089092 0.0375418 -0.451535 -0.369195 0.0884001 -0.126648 0.272898 -0.0957634 -0.493938 -0.136777 0.196415 -0.127425 0.104246 -0.175511 0.0160543 -0.252083 0.134147 0.0321481 -0.352504 0.104334 -0.21909 0.0715459 -0.0149252 0.461409 0.246776 -0.00582909 -0.378399 -0.229774 -0.0274937 0.134506 0.0813261 0.117616 0.00444245 0.182642 -0.286147 -0.0286885 0.0276732 -0.373879 0.327668 0.0812182 0.0147101 0.244864 -0.0045297 -0.446147 0.0243632 -0.176443 -0.0696692 -0.108365 0.0574552 0.0944893 -0.070649 0.831037 0.0309895 -0.075725 0.0292166 0.000620496 0.0617672 -0.167938 0.214799 -0.301832 -0.441453 -0.212474 0.201326 0.0868583
72 -0.239963 0.00509994 -0.335432 0.272561 0.546578 -0.178839 -0.142289 -0.113586 -0.273595 0.0941471 0.10978 0.00516563 -0.0876874 -0.500688 0.354745 -0.322761 -0.245446 0.134243 -0.107716 0.0281035 -0.00992739 0.0162051 -0.154016 -0.125597 -0.0429702 -0.185031 0.492057 -0.187508 0.156859 -0.179209 0.301148 0.13411 0.217146 0.234488 0.279011 0.0397252 0.226496 0.379463 -0.207102 -0.109623 -0.012187 -0.307646 0.125433 -0.158609 -0.205451 0.374229 -0.142373 0.028494 0.261152 0.141694 0.130846 -0.177755 -0.0100438 0.00396716 0.136176 -0.154513 0.112421 0.0184958 -0.0718889 -0.0296203 -0.268537 -0.132196 -0.445892 0.187802 -0.212245 0.420845 0.0556443 0.195881 -0.239285 -0.151467 0.349745 -0.241206 -0.329114 -0.612058 0.343809 0.791695 -0.274329 -0.228776 -0.349495 -0.234842 0.00542631 -0.142287 -0.229831 0.105274 -0.232216 0.00539244 0.0315768 -0.427975 0.236176 -0.0192899 -0.464854 -0.232012 0.0485587 -0.186926 -0.0918981 0.424241 -0.210863 0.0584247 -0.376586 -0.0624875 -0.325206 -0.00902186 0.325823 0.17532 -0.497921 0.668237 -0.125984 0.0589349 -0.480546 -0.12428 -0.0796661 -0.0404517 -0.103229 -0.406662 -0.0175409 0.313995 -0.245226 -0.331386 0.228546 0.000187379 -0.31762 0.434457 -0.364677 -0.370829 0.273877 -0.184501 0.386903 0.209619
73 -0.00447546 0.0178265 -0.201286 0.157458 0.274545 -0.154358 -0.229043 0.373913 -0.13321 0.147603 -0.202887 0.313378 -0.268805 -0.099633 0.137248 -0.0545915 0.0434172 0.506236 -0.0730286 -0.0658579 0.0751108 0.24726 0.0276774 -0.115866 -0.263183 -0.0600085 0.107353 -0.103987 0.242534 0.0592595 0.335748 0.180381 -0.154991 0.0792237 0.0317067 0.13694 0.240517 -0.306288 -0.205324 0.481492 0.013795 -0.431002 -0.062265 -0.0228995 -0.244268 -0.14515 -0.148404 0.194096 0.215045 -0.0216366 0.258649 0.28737 -0.170517 -0.0120237 0.23894 0.216103 -0.0367052 -0.427864 -0.285382 -0.0998942 -0.00305559 -0.238431 -0.166207 0.256431 -0.250419 0.0450722 -0.239275 -0.399111 0.158969 0.102899 -0.0879602 -0.00056687 -0.316117 -0.117186 0.267229 0.178517 -0.385296 -0.323521 -0.50697 -0.120794 0.0871812 0.210997 -0.0196921 0.196084 -0.101665 -0.0429625 -0.0506492 -0.0165371 0.295734 -0.0475799 -0.177968 0.0348799 -0.195182 -0.0869033 0.0748278 0.0484355 -0.548335 0.291481 -0.385134 -0.157462 -0.0215919 -0.320437 0.252429 0.193719 -0.474788 0.513012 -0.0942079 0.0910944 -0.00964289 -0.262251 -0.256103 -0.268174 -0.273778 -0.337265 -0.142372 0.0656123 -0.0766306 -0.333066 -0.165545 -0.0789266 0.135406 0.325921 0.0505189 -0.0365804 0.107288 -0.204714 0.28567 0.236961
74 -0.0452906 -0.0019794 -0.313963 0.110825 0.271133 -0.149181 -0.228897 0.232361 -0.220883 0.0567766 -0.126022 0.228903 -0.266905 -0.251688 0.2434 -0.0977856 0.117693 0.273224 -0.190576 0.196144 0.100581 0.261167 0.190072 0.0557345 -0.0569676 -0.0531293 0.148637 -0.0156197 0.193353 0.0328814 0.207281 0.105609 -0.130107 0.0165548 0.0222062 0.149192 0.118997 -0.153176 -0.0850798 0.349493 0.12682 -0.16489 0.0833498 0.256085 -0.215303 -0.110617 -0.24589 0.107393 0.175049 -0.196312 0.225346 0.141807 -0.0968655 -0.0426061 0.0831005 0.197534 0.14883 -0.314277 -0.159356 -0.0997845 -0.0513592 -0.162743 -0.156703 0.0585725 -0.0682149 -0.0292346 -0.297365 -0.283584 0.0524706 0.0850246 0.140527 -0.124579 -0.196802 -0.0810085 0.200799 0.144748 -0.272376 -0.275673 -0.233167 -0.266109 0.141167 0.0645664 -0.140777 0.162265 -0.142672 -0.0405456 -0.05491 -0.0375615 0.292729 -0.149628 -0.190833 -0.130332 -0.205887 0.176161 0.159522 0.232916 -0.301569 0.31074 -0.384884 -0.146571 -0.0766874 -0.13616 0.106311 0.0854068 -0.368616 0.219767 -0.0955181 0.0522015 0.0202041 -0.111054 -0.131701 -0.0287987 -0.136941 -0.278655 -0.200219 0.00142212 -0.0730411 -0.26091 -0.11143 -0.165418 0.139863 0.305601 -0.00918874 -0.133395 0.0667046 -0.176543 0.289589 0.10729
75 0.232218 -0.0523604 -0.26031 0.0831587 0.103696 -0.0767014 -0.144041 0.0321275 0.474085 -0.180745 -0.205867 -0.0562635 -0.510646 0.0135603 0.235009 -0.158339 0.0849552 0.224586 -0.260327 -0.345907 0.300752 0.277706 0.259183 -0.222457 0.475758 -0.198932 0.195965 0.22967 -0.0231953 0.0261659 0.353174 0.178002 -0.0831381 0.346447 -0.271269 0.268042 0.133217 0.177036 -0.109094 -0.0248933 0.0748171 0.136845 0.116941 0.0589563 0.0675454 -0.216995 -0.265498 -0.0117135 -0.0767436 0.130699 0.0857428 0.213037 0.265817 -0.0282631 -0.0287955 0.0833273 0.121706 -0.18896 -0.0858951 -0.372186 0.290162 -0.222177 -0.243715 0.0732188 -0.238434 0.017387 -0.198443 0.100187 -0.00819353 -0.0329818 0.0982737 0.0241272 -0.16344 -0.255831 0.123607 0.0272396 0.0664766 -0.242404 0.0168792 -0.234465 0.257854 -0.0876102 -0.116006 0.328132 -0.188837 -0.223792 -0.401691 -0.0648207 0.0486711 0.0190923 -0.0408906 -0.131872 -0.185168 0.32372 0.275539 0.0380368 -0.344396 0.146806 -0.261281 0.107912 -0.253752 -0.295576 0.0791382 0.124556 -0.0822353 0.158912 -0.247618 0.0397416 -0.00701103 -0.164501 0.169243 0.0158868 -0.377103 0.480815 -0.268425 0.517899 -0.102382 -0.0918079 -0.0742548 0.00313823 -0.252217 0.254494 -0.516138 -0.163173 -0.269642 -0.180127 0.0994735 0.163905
76 0.407355 0.0752822 -0.398516 0.00719722 0.232998 -0.206536 -0.093301 0.241097 0.191953 -0.0476192 0.0420891 0.0353885 -0.299827 -0.146595 0.292986 -0.0198935 0.309345 0.540931 -0.291816 -0.413208 -0.198346 0.140562 0.323385 -0.257241 0.235513 -0.477412 0.229609 -0.059366 0.0518115 0.150378 0.124254 -0.129262 -0.0233871 0.161632 -0.238126 0.267892 0.408521 0.0482648 0.0155276 0.336185 -0.0275811 -0.0731516 0.257521 0.139409 -0.132934 -0.22507 -0.399773 0.0162869 0.247681 0.0940523 0.208946 0.246122 0.34323 -0.0948418 -0.0564726 -0.0681038 -0.096828 -0.302154 -0.241162 -0.130644 0.299763 -0.114214 -0.12488 0.124923 -0.223316 0.063905 -0.000358085 -0.0941328 0.151825 -0.0931316 0.0719669 -0.253599 -0.125049 -0.369007 0.215676 -0.0656018 -0.0284306 -0.30287 0.0432039 -0.00463392 0.0885651 -0.0130291 -0.231811 0.187497 -0.119997 -0.449834 -0.304431 0.090208 -0.208949 -0.100619 0.0254018 -0.0234991 -0.11381 0.147958 0.0771256 0.0818296 -0.0204713 0.144492 -0.114823 0.150843 -0.215931 -0.318807 0.0428454 0.208335 0.108767 0.0755541 -0.343985 -0.179846 0.157915 -0.285527 -0.0349895 -0.270178 -0.233536 0.304793 -0.238446 0.576651 -0.270008 0.0686197 -0.332636 -0.197805 -0.534081 0.211073 -0.498134 -0.211718 -0.445461 -0.161389 0.11036 0.200251
77 -0.0805643 -0.178838 0.0484527 0.139901 0.038293 -0.167842 -0.209398 -0.0305857 0.195527 0.0731193 -0.221439 -0.1493 -0.110575 -0.32365 0.187132 -0.24855 -0.240676 -0.0864889 -0.13447 -0.0505275 -0.0765216 -0.0170431 0.261818 -0.0427985 0.266809 -0.22681 0.122869 0.249795 0.237977 0.0206601 0.144125 0.358399 0.0265277 0.140768 0.120347 0.294809 0.479128 0.264632 0.116398 0.205803 -0.0421332 -0.363432 0.00300085 -0.109093 -0.0586367 -0.00830165 -0.069735 0.234381 0.0951574 -0.0654689 0.163056 0.117136 0.0111794 -0.28596 0.25737 0.482991 0.215628 -0.234874 -0.241202 -0.0797901 0.434173 0.0738321 0.0481182 0.219749 -0.144859 -0.0882673 0.0692315 0.32867 0.386633 -0.219914 0.131125 -0.0326913 -0.00552326 -0.244807 0.221986 0.248855 -0.00777285 -0.365677 -0.0680328 -0.30966 0.484483 0.174225 0.0653045 0.180603 0.0311334 -0.243459 0.321057 -0.107501 0.0128052 -0.303129 0.0940313 -0.230245 -0.267774 0.377215 0.0822833 0.330525 -0.137353 0.119503 -0.0730232 0.261901 -0.0475513 -0.00662481 0.0119845 0.255666 0.181398 0.153376 -0.309604 -0.19392 -0.213128 -0.0118565 -0.358584 -0.169033 0.342696 -0.181014 -0.371212 0.269363 -0.0205465 -0.215448 -0.00811788 0.0986212 0.119199 0.0711936 -0.201342 -0.181399 -0.0660366 -0.110495 0.182844 0.0218829
78 0.0127979 -0.429713 0.0572194 0.0667883 0.169622 -0.317966 -0.208697 -0.0782156 -0.0273942 0.0842792 -0.103604 0.00325008 -0.231989 -0.132726 -0.0186624 -0.109251 -0.156532 -0.197116 -0.168873 0.021025 0.0353588 -0.00251029 0.224147 -0.159578 0.153233 -0.31329 0.235302 0.215913 0.235886 0.303335 0.391045 0.148501 -0.0810339 0.125896 0.127607 0.253969 0.337298 0.232354 0.0539036 0.108679 0.10591 -0.174491 0.162793 -0.245394 -0.140181 0.0276544 -0.175747 0.0827511 0.255934 0.291809 -0.0188966 0.120465 0.139577 0.0134923 0.22998 0.582856 0.225358 -0.224323 -0.147359 0.0120944 0.412979 -0.0584441 -0.120554 0.195754 -0.161567 -0.0160548 -0.173748 0.214605 0.387929 0.0957513 0.322103 -0.0526833 -0.0830355 -0.106765 0.00461234 0.290945 -0.173935 -0.375244 -3.2226e-05 -0.343853 0.361299 -0.0880495 -0.0960175 0.098747 -0.108834 -0.130491 0.129093 0.0659409 -0.127714 -0.356424 -0.0611348 -0.267708 -0.126675 0.249836 0.316033 0.354473 -0.131935 0.264071 -0.321392 0.496771 0.0629648 -0.199001 -0.0962791 0.137118 0.177016 0.294347 -0.208183 -0.11415 -0.096186 0.0683769 -0.406154 -0.24833 0.27622 -0.167243 -0.19834 0.258842 -0.243997 -0.20947 0.0133435 -0.180773 -0.0639159 0.106247 -0.270755 -0.286071 -0.320599 -0.090653 0.0340669 0.174015
